0.082840
-0.465047
0.032342
0.018882
1.029677
0.170730
0.243804
0.508158
0.430140
0.440428
0.096843
-0.364369
0.047519
-0.127733
0.595685
-0.381704
-0.062890
0.169705
0.218806
-0.427308
-0.223676
0.757896
0.220018
0.613597
0.155420
0.240130
-0.185267
0.145139
0.042005
-0.066676
-0.786851
-0.642087
-0.721080
0.287091
0.482754
-0.943932
0.171511
-0.302861
-0.211373
-0.177613
-0.765272
-0.332102
-0.343002
-0.126351
-0.112764
-0.238337
-0.257172
-0.082090
0.466052
-0.626338
0.562802
0.382750
0.336122
0.150051
-0.322648
-0.439001
-0.353116
0.415898
0.285865
-0.365420
0.261584
0.649739
-0.320659
-0.500722
0.038243
0.858350
0.274974
0.543106
-0.636985
-0.269548
-0.015097
-0.013458
-0.711687
0.633337
0.089426
-0.383341
-0.004113
-0.995380
-0.526707
0.182920
0.501909
0.151689
-0.304511
-0.360271
-0.769867
-0.127131
-0.253987
0.180451
0.270828
-0.361957
-0.159519
-0.013427
0.217880
-0.861240
-0.754878
0.633915
-0.470841
-0.686348
0.639397
0.333696
0.146993
0.036377
-0.484879
0.363047
0.158914
-0.288917
0.709139
0.044012
-0.207630
-0.062145
-0.174610
0.359374
0.049291
0.249132
-0.046406
0.396263
-0.002641
0.115938
-0.149204
-0.089806
0.237989
-0.534998
0.072076
0.235808
0.091630
0.272045
-0.140124
-0.229960
0.793999
-0.624764
-0.147945
-0.053688
-0.998124
0.071740
-0.203493
-0.078938
-0.782422
0.393272
-0.036970
-0.056950
-0.925353
0.288712
0.376516
0.573204
0.046141
-0.019638
0.189194
-0.138380
-0.297246
0.096503
-0.250462
-0.181172
-0.100162
0.732649
0.404651
0.262146
0.479488
0.020311
0.170528
-0.766329
0.091923
-0.688049
-0.590555
0.725768
0.063428
0.573189
0.343659
-0.713923
-0.874819
-0.802861
0.452614
-0.091410
-0.376010
-0.365429
0.418546
0.060538
-0.122922
-0.429977
0.122927
0.245922
0.194795
0.243485
0.285546
-0.197844
0.202086
0.036993
-0.143911
0.387747
-0.160273
0.105918
0.295076
-0.225291
-0.409607
-0.016603
0.356669
-0.459592
0.666810
0.018853
-0.060578
-0.697363
-0.218468
0.045306
0.413139
-0.257903
-0.376377
0.461234
-0.613611
0.284689
0.435251
-0.031381
0.327716
-0.023659
0.125720
0.385058
-0.241199
0.342789
-0.291037
0.033456
0.284532
0.494920
0.555665
0.032464
-0.315394
0.612635
-0.426030
0.283716
0.642264
-0.172839
0.385480
0.029172
0.105609
-0.092041
0.270570
-0.203034
-0.293278
0.064016
-0.550472
0.499443
0.180644
0.483766
-0.123769
0.036506
-0.270974
-0.111392
0.189369
0.393224
-0.002834
0.658538
0.723490
0.080015
-0.581371
0.040739
-0.097834
-0.090983
0.127052
0.273314
-0.114725
0.063000
-0.356191
0.524023
0.013002
-0.197123
0.405513
-0.014963
-0.018702
0.110064
0.291918
-0.479051
-0.398943
0.587518
0.306404
0.052895
-0.568353
0.355515
0.336305
0.106991
0.051323
0.300951
-0.421372
-0.909857
-0.701213
0.070352
-0.105475
-0.106924
-0.196693
1.014253
-0.669282
0.700564
-0.286825
-0.246237
-0.059362
-0.385589
0.416960
0.849692
0.160789
0.323649
0.080548
0.688202
0.510814
0.278552
-0.505693
-0.020479
0.169548
0.719318
0.222383
-0.029456
0.021937
-0.235588
-0.108348
0.162294
-0.379558
-0.194947
0.245399
0.370074
-0.163390
-0.532309
0.453549
0.481883
0.456115
-0.975655
-0.088287
-0.298450
-0.235474
-0.476648
-0.016276
0.090812
0.202812
-0.319082
-0.101381
0.716730
-0.065531
0.559904
-0.812517
-0.471861
0.110931
-0.015044
0.041560
0.041550
-0.428549
0.334528
0.218390
-0.222738
-0.200184
-0.041568
0.380952
-0.047548
-0.085074
0.028367
-0.252084
0.086715
0.028676
-0.608502
-0.368636
0.289930
-0.504135
0.110484
-0.260168
-0.204955
-0.645625
-0.258020
-0.041444
0.013642
0.291392
-0.092744
-0.342874
0.218403
-0.321259
0.616637
0.090698
0.282578
0.698762
-0.468104
0.308745
0.167185
-0.526043
-0.664450
-0.494030
-0.075259
-0.430667
-0.049018
-0.531360
-0.135644
-0.357288
-0.442739
-0.023304
0.675065
0.216100
0.114408
0.110683
-0.230545
-0.010206
0.454345
0.041559
0.686542
0.413381
0.359283
-0.346000
-0.175105
-0.526311
0.132462
0.016169
0.036238
-0.098553
-0.199079
-0.521116
-0.498758
-0.327993
-0.522202
-0.922330
0.023568
-0.127130
-0.402596
-0.493795
-0.212836
0.566197
0.494658
0.008634
-0.362113
-0.302973
0.491152
-0.552567
0.768339
0.010994
0.361305
0.224958
0.142982
0.445796
0.022359
0.010535
-0.761149
-0.048293
-0.076023
0.344574
-0.734351
1.138547
0.127528
0.378623
-0.534458
0.190794
0.055649
-0.129327
-1.098915
-0.411920
0.707971
0.093134
-0.413451
-0.570873
-0.481137
0.166310
-0.002711
-0.174974
-0.330489
-0.133772
-0.014419
-0.311399
-0.269332
0.567750
-0.331073
-0.166424
0.087962
0.459155
0.653937
0.375435
-0.452460
-0.194803
0.146732
0.245561
0.138317
-0.503927
0.014810
0.215820
-0.091960
-0.291500
-0.242775
0.262175
-0.504392
-0.774418
0.054446
-0.077610
0.501779
0.511305
-0.493958
-0.951774
-0.369705
-0.559360
-0.335980
0.563630
-0.047597
0.004321
-0.103214
-0.537728
-0.120678
0.381819
0.434719
-0.179256
0.172164
0.090348
-0.221130
0.507588
-0.325589
0.133074
-0.382482
0.048823
-0.703152
-0.397372
0.337476
0.036810
-0.223577
0.817426
-0.738890
-0.179586
0.508652
-0.066138
-0.175291
0.311194
0.023091
0.618394
-0.720904
-0.374971
-0.351854
-0.486988
-0.182268
0.753660
0.340413
-0.154001
-0.566719
0.043816
-0.586848
0.061316
-0.376090
-0.195303
0.017330
0.003091
0.145735
0.182936
-0.050239
0.052911
0.742448
0.038017
0.427791
-0.249286
0.652866
-0.057700
0.408846
-0.890894
-0.648673
0.229045
-0.364243
-0.410714
0.572870
0.377857
0.191326
0.220622
-0.234808
-0.073432
-0.273965
-0.467520
-0.378784
-0.108313
0.265028
-0.191828
0.025597
-0.209704
-0.281612
0.113146
0.234945
-0.232001
0.600994
-0.071872
-0.416359
-0.148082
-0.055761
0.185269
0.390042
-0.186463
0.470856
-0.204543
0.075016
-0.582941
-0.064135
0.293211
0.609186
0.231790
-0.321902
-0.045364
-0.406116
0.499070
-0.561938
0.347185
-0.391200
0.019167
-0.291016
0.330804
0.103166
0.080915
-0.407118
-0.268898
0.527863
-0.416917
-0.893940
0.337190
0.242759
0.225087
-0.166546
0.414839
0.699787
0.358021
-0.036771
0.349300
-0.078333
-0.448026
0.017433
0.155120
-0.228476
-0.003925
0.107606
-0.260230
-0.286095
0.341533
-0.429350
0.615347
0.053141
-0.381434
0.075931
0.352322
-0.325817
-0.645919
0.133100
-0.124296
0.251391
-0.446085
-0.587604
-0.999109
-0.071628
0.134837
-0.189260
-0.221392
-0.132833
-0.225996
-0.276725
-0.132633
-0.272343
0.214370
0.001632
-0.298831
0.258007
0.579545
0.538295
-0.052407
0.093013
-0.180525
0.156376
-0.434035
-0.429297
0.592407
0.149834
-0.673540
-0.061787
-1.095229
-0.281173
-0.214955
-1.262243
-0.619346
-0.239473
0.412936
-0.110975
0.227512
0.016989
0.248116
0.185870
-0.406655
0.400135
-0.659476
-0.016684
-0.313023
-0.304873
0.397066
-0.627407
0.328370
0.118443
0.106002
0.770121
-0.313338
-0.076756
-0.395484
-0.037145
0.441121
0.235553
-0.443800
-0.542991
-0.487195
0.525970
0.081714
-0.161619
-0.191234
0.356590
-0.345574
-0.100041
0.591840
-0.260379
0.175919
0.002962
0.097212
-0.874537
0.380257
0.086916
0.017579
0.265848
-0.421372
-0.176198
0.542525
-0.077886
0.534449
0.252068
-0.384781
-0.043013
0.593692
0.072486
-0.238860
-0.120535
0.458059
-0.095523
-0.709095
-0.378192
-0.159768
0.156127
0.463588
0.184133
-0.000995
0.360215
0.043685
0.438553
-0.090343
-0.136102
0.607662
0.763232
-0.036795
-0.194724
0.067460
-0.124654
0.239453
0.003186
-0.699259
0.016550
-0.284824
0.428842
0.063171
-0.720202
0.177922
0.314682
0.720750
-0.698327
0.269671
0.530044
0.628706
0.050099
-0.075420
-0.330925
-0.125435
-0.463291
0.320109
-0.091664
-0.325257
0.178024
-0.965969
-0.299249
0.215522
0.134041
-0.190737
-0.242508
-0.103964
0.506637
-0.769168
-0.327950
0.599013
0.372458
0.073144
0.406705
0.268814
1.110284
-0.572061
0.028109
0.264869
0.602425
-0.647419
-0.219197
0.328876
0.134523
0.304386
0.074719
-0.197892
-0.657062
0.140332
0.068156
0.019867
-0.716434
-0.601025
0.607373
-0.342026
0.502039
0.374613
0.639635
0.001538
-0.120028
0.012655
-0.000578
0.151349
0.065618
0.403209
-0.640071
0.198193
-0.476648
0.178345
0.736267
-0.051157
-0.835058
0.197344
1.133184
-0.582362
0.053067
0.198058
-0.820893
-0.510770
-0.015181
-0.696094
0.453871
0.391952
-0.030446
0.314955
0.504021
-0.019705
0.220261
0.053693
-0.261429
-0.082001
0.345668
0.201142
0.448298
-0.087669
0.247617
-0.149914
-0.136033
0.009728
-0.398736
0.051810
0.461773
0.130234
0.126006
0.436097
-0.363739
0.484966
0.714643
-0.760049
0.018485
-0.494845
0.564406
0.019889
-0.394209
-0.735246
0.226871
0.220457
-0.052701
0.122938
0.231868
-0.002033
0.250326
0.436743
0.667403
-0.506835
0.620235
0.053623
-0.010835
-0.227655
0.169714
-0.628064
0.321864
-0.102903
-0.308037
-0.089978
0.085565
0.116966
-0.780969
0.465209
-0.052677
0.206934
0.566025
0.236267
0.496393
-0.068035
-0.147088
0.047967
0.394325
-0.254751
0.487494
0.504169
0.591508
0.337636
-1.026084
-0.733967
0.552784
0.471809
0.046958
-0.442829
-0.135259
-0.036616
0.055290
-0.047801
-0.383288
-0.616481
-0.752807
-0.353822
-0.632457
0.144835
-0.106814
-0.118108
0.369331
-0.258989
0.215098
-0.664185
-0.143413
0.107921
-0.171527
0.243885
-0.117500
0.006230
-0.344303
0.445848
0.509466
0.045414
1.049776
-0.074199
-1.085499
0.409120
0.043567
-0.421423
0.140492
0.184695
0.342556
-0.318873
0.072258
-0.426442
0.040222
-0.350897
-0.095600
-0.555711
-0.323485
0.347813
0.136784
0.492669
-0.015800
0.762930
0.499371
-0.085013
-0.180101
-0.689735
0.260122
0.198690
-0.495498
-0.041203
-0.024114
0.244285
-0.447580
-0.223858
-0.211806
-0.820228
0.168649
-0.015996
-0.072733
-0.302321
0.216728
0.007467
-0.087645
-0.149388
0.163786
-0.127772
-0.479495
-0.534935
0.513752
0.282255
-0.222738
0.062091
0.048801
0.390717
-0.537667
0.072574
0.365279
0.473416
-0.235806
0.135782
0.000955
0.645399
-0.403696
0.370964
0.206208
0.746117
-0.433141
-0.193469
0.570626
0.194129
-1.042181
0.516512
-0.557835
0.029416
-0.159184
-0.130797
0.565857
0.803571
0.076644
0.658711
1.073899
-0.219011
-0.018134
0.029962
0.086843
0.007093
-1.084780
0.463876
0.533901
-0.132170
0.161136
0.494251
-0.131763
-0.834852
-0.461231
-0.153534
-0.500409
-0.122880
0.517901
0.096009
-0.361418
-0.142750
0.934624
-0.055211
-0.555036
-0.487391
-0.090023
-0.510614
0.086533
1.082866
-0.000031
0.399677
0.661586
-0.035249
-0.081212
-0.109046
0.098990
-0.538524
-0.228183
0.317304
0.406274
-0.339320
-0.069688
0.255440
0.244207
-0.200602
-0.523756
0.254747
-0.043766
0.043063
0.210509
0.085324
0.049184
-0.177177
-0.316486
0.463347
0.229937
0.407921
-0.539809
-0.317757
0.240099
0.819588
0.941695
0.094143
-0.232843
-0.268288
-0.197508
-0.413100
-0.417066
-0.652405
-0.081591
-0.351512
0.277642
0.463174
0.629060
1.011271
-0.013845
-0.088645
0.011325
0.210989
-0.202773
0.216721
0.243698
-0.208170
0.176733
0.469971
0.953436
0.780134
-0.196708
-0.651183
0.138788
-0.018667
0.259038
-0.188374
0.198175
0.529594
0.441624
-0.170190
0.162755
0.528224
0.010834
-0.447961
-0.150849
0.195037
0.155579
0.292979
-0.836408
-0.267391
-0.241754
0.415848
0.214585
0.081182
0.216668
0.756111
-0.389046
-0.030279
0.003053
0.643342
0.692896
-0.044558
-0.213699
0.173819
0.314932
0.320078
-0.170985
-0.636949
-0.123349
0.475229
0.232407
0.694297
0.396023
0.125572
0.284658
-0.061337
-0.005038
-0.438206
0.978809
-0.021724
-0.270103
-0.452126
-0.408721
0.244939
-0.046677
0.153537
-0.303882
-0.079224
0.166853
-0.041538
-0.323927
-0.045354
-0.770068
-0.141735
-0.057103
-0.702652
-0.329571
0.181736
-0.184673
-0.318433
-0.889778
0.575202
0.051377
-0.146895
0.295769
-0.254386
-0.287000
0.145681
-0.348839
0.038057
-0.337636
-0.264346
-0.728369
0.279880
-0.536771
0.700149
0.167476
-0.493410
-0.018021
0.191575
-0.095434
0.303893
0.380956
-0.007456
-0.176187
0.400598
0.374563
0.255516
-0.725832
0.238188
0.018009
-0.616387
0.034704
0.343455
-0.999474
-0.459652
0.155784
0.070848
-1.166521
-0.337911
-0.696887
-0.298620
-0.039416
1.025773
0.026670
0.490026
0.615302
0.064869
-0.802376
-0.294449
0.403988
0.238097
-0.692812
-0.018526
-0.100429
-0.530614
-0.390937
0.815581
0.218705
0.026291
1.729535
0.688117
-0.019381
0.591287
0.099230
-0.195181
0.149037
0.240902
0.205429
-0.215455
-0.429998
0.254307
0.779062
-0.272769
0.538556
0.297442
0.107762
0.154496
0.416256
0.739331
0.530235
-0.800022
0.334972
-0.197049
0.117418
0.469865
-0.897955
0.722241
-0.039211
-0.460010
0.623976
-0.136906
-0.299617
0.778224
0.205509
-0.050693
-0.700207
-0.218348
0.069675
0.331048
0.008043
-0.185127
1.186192
0.128970
-0.534588
0.393836
0.594562
-0.572557
-0.025424
-0.041423
-0.159288
0.464800
-0.325771
-0.024280
0.256178
0.495440
0.142271
0.539346
-0.240047
-0.771514
0.193433
0.617532
-0.663652
0.334306
-0.033327
0.153796
0.662645
0.134190
0.151482
0.652896
-0.978705
-0.563119
-0.632364
0.159526
0.114898
0.179272
-1.141338
-0.744967
0.295946
-0.035085
-0.400361
-0.080994
-0.004855
0.053643
0.405352
0.344085
0.620039
-0.125865
0.199680
0.087178
0.187117
-0.275367
-0.311625
0.815338
-0.357164
-0.338256
-0.498085
-0.071978
-0.506822
0.627399
0.043068
-0.575666
-0.475222
-0.441162
-0.260672
-0.159160
0.470145
0.215077
0.253923
0.299660
0.676978
-0.175711
-0.001852
-0.545148
0.854960
0.203724
0.427417
-0.335702
0.395120
-0.265479
-0.243848
0.024449
-0.001920
-0.465126
-0.027478
-0.257528
-0.476789
0.579848
-0.219784
-0.413059
0.311718
-0.436329
-0.218137
-0.228608
0.113891
0.513718
-0.365431
-0.081966
-0.081868
0.680769
0.113019
-0.213339
0.159055
-0.013961
0.092846
-1.029650
-0.353565
0.133232
-0.428538
-0.936574
-0.164463
-0.078959
0.264869
0.524421
-0.036928
-0.045009
-0.183662
0.148971
-0.048309
-0.278531
0.142851
-0.145618
-0.269248
0.556679
0.478810
-0.267277
-0.242084
-0.392075
-0.178358
0.414390
0.278341
0.082570
-0.346487
-0.108119
-0.164326
0.345938
0.059296
-0.031344
-0.359141
-0.142666
-0.321584
-0.021063
0.108284
0.764030
-1.162010
-0.388995
0.213173
0.723525
0.109538
-0.910244
0.077988
-0.248584
-0.205823
-0.220195
-0.073138
-0.798847
-0.918573
-0.034032
-0.258132
-0.184000
-0.525459
0.094404
-0.324127
0.470198
-0.106925
0.395808
-0.192916
-0.479548
-0.431015
-0.419982
-0.738176
-0.113235
0.064963
-0.157041
-0.326968
-0.227783
0.370110
0.042189
0.228134
-0.324348
0.054159
-0.256573
0.010380
-0.353100
-0.026534
-0.556779
-0.379385
-0.466605
0.231906
-0.618012
-0.432302
0.182944
0.202573
-0.004723
-0.626023
-0.783848
-0.293150
-0.572110
-0.529402
-0.763407
0.553786
-0.504063
-0.168363
0.382477
0.675556
-0.007611
-0.844847
-0.034723
-0.225448
-0.064391
0.051459
-0.066513
0.192563
0.458684
-0.289271
-0.092717
0.017684
-0.838509
-0.275128
-0.526827
-0.305420
-0.139808
-0.044599
0.628346
-0.472718
-0.158276
0.227081
-0.406403
-0.314611
0.269811
0.108201
-0.990313
-0.627002
-0.309855
0.321948
0.330151
-0.166483
0.783987
-0.518014
0.298037
-0.126232
-0.255535
0.257262
-0.132225
0.076929
0.207639
-0.267758
-0.137958
0.266163
0.405422
-0.165739
0.386112
0.007128
-0.254863
0.352077
-0.127861
0.711523
-0.416429
0.166791
0.108430
0.617262
-0.514730
0.180010
-0.644801
0.138656
0.696125
0.323652
-0.699105
0.316953
-0.550918
0.352381
-0.627775
0.488105
-0.092174
-0.004978
-0.253233
-0.341975
0.175187
-0.590613
-0.251255
0.376583
-0.540260
-0.262466
-0.045342
-0.091329
0.475572
0.357500
-0.245962
0.718424
-0.585719
0.195435
-0.009721
-0.502691
0.311393
0.468658
0.243837
0.459831
0.441034
-0.021091
-0.625786
0.026871
-0.329683
-0.323132
-0.798202
-0.186263
0.257539
-0.437574
0.007144
-0.197887
-0.419114
-0.289371
0.310590
0.596709
-0.295759
0.170025
-0.005699
-0.431000
0.157852
0.158543
-0.242883
0.493066
0.034886
-1.019778
0.087598
0.130967
-0.165649
-0.538130
0.109863
0.447206
-0.300242
0.358449
0.458747
-0.580295
-0.073565
0.610177
0.267030
0.259895
0.008208
0.175881
-0.280668
0.337270
-0.133510
0.009094
-0.028755
0.085969
-0.304909
-0.462332
-0.385718
-0.255508
-0.069630
0.433023
-0.402365
0.203541
-0.156630
-0.137969
-0.948729
0.367069
0.531974
-0.039103
0.493197
-0.162237
0.544746
0.626902
0.463961
-0.090801
-0.177405
0.205873
-0.173687
-0.675969
-0.430766
-0.339960
-0.696025
0.583171
0.487562
-0.444015
-0.000128
0.509623
-0.086781
-0.245901
-0.348950
0.319638
-0.297614
0.054176
-0.370937
-0.104305
0.787250
0.302641
-0.428770
-0.145585
0.216485
-0.041170
-0.097201
-0.037693
0.040215
-0.854249
0.366760
-0.056751
1.066063
-0.434918
-0.218473
-0.434274
0.363305
0.431391
-0.440797
-0.698881
-0.247220
0.092995
0.431752
0.541440
-0.278599
-0.181467
0.296553
0.180723
-0.397404
0.127161
0.108291
-0.426791
-1.319765
-0.047699
-0.221650
0.188096
0.403218
0.101503
0.512969
-0.056434
0.230848
0.001197
-0.163360
-0.312923
-0.068454
-0.557905
0.521385
-0.496781
0.462983
-0.247124
-0.100135
0.152996
0.553897
0.139275
0.140505
-0.266058
-0.333880
-0.111371
0.223141
-0.683596
0.278934
0.567356
0.370500
0.480739
-0.156345
-0.295042
0.257874
-0.239997
0.187832
-0.849096
0.095267
0.112136
-0.036940
0.396002
0.323279
-0.729771
-0.264938
-0.341826
-0.230377
0.199112
0.651517
-0.651448
0.534675
-0.357489
0.022870
0.130975
-0.085690
0.100062
-0.728606
0.644795
0.184593
-0.099024
-0.112014
0.356508
-0.790483
-0.943452
-0.149073
0.120225
0.797578
-0.440272
-0.194903
0.487778
-0.054649
-0.008540
0.031954
-0.363928
0.399094
0.078670
0.377256
0.090390
-0.639870
-0.630599
-0.076617
0.247958
0.128327
0.514183
-0.342253
-0.160491
0.357955
0.137102
-0.031360
-0.269980
0.582183
-0.090156
-0.210603
-0.488807
-0.172161
-0.437428
-0.146388
-0.572999
-0.042852
-0.255925
0.319930
-0.575085
0.703049
0.175230
0.094102
-0.651442
0.497493
0.099378
-0.038072
-0.270663
-0.131789
0.308559
0.661125
-0.050644
0.470841
-0.523367
-0.697492
-0.253432
-0.328397
0.247764
-0.204443
0.493817
-0.397175
0.493161
0.656408
-0.186167
-0.394022
0.541550
0.392143
0.079624
-0.966670
0.561198
-0.343525
-0.780707
0.531347
0.578495
-0.224135
0.188646
-0.752394
0.405814
0.163131
-1.025475
0.282866
0.177498
0.340879
0.022205
0.099293
-0.278260
0.143298
-0.287539
-0.605401
0.105312
0.240079
0.255888
-0.295886
-0.374868
-0.182290
-0.133520
0.307519
-0.445441
0.479346
0.209596
-0.375610
-0.269717
-0.375118
-0.503631
-0.013672
0.260238
-0.053115
0.199361
-0.918739
0.200346
0.181955
-0.091051
-0.517882
-0.907174
0.435116
-0.047700
-0.055787
0.372041
-0.309563
0.128280
0.518467
-0.555793
0.245513
0.173800
-0.534538
0.728484
-0.099877
-0.557606
-0.042934
-0.236828
-0.153434
0.200638
0.039661
0.673798
-0.395769
-0.714160
0.082770
-0.290808
-0.007404
-0.724755
-0.095006
-0.048315
0.218578
-0.021269
0.476702
0.073299
0.246596
0.290676
0.263279
0.266099
0.654503
-0.157317
0.726462
-0.146959
0.831659
-0.081286
-0.084991
-0.059739
0.371743
-0.178690
0.061443
-0.080105
-0.017627
0.006577
-0.967518
0.074866
-0.103795
-0.188930
0.284347
0.809101
0.384251
-0.479039
0.057635
-0.170995
-0.201452
0.455384
-0.397565
-0.784119
0.132251
0.761821
-0.214678
0.526074
-0.430310
-0.816566
-0.481030
-0.561796
-0.139648
0.159290
0.226576
0.211346
-0.071980
-0.184924
-0.372391
-0.405380
0.067240
0.410372
-0.142470
0.299118
-0.100804
0.516171
-0.583635
0.315150
0.979692
-0.204938
-0.231123
-0.899161
-0.457522
-0.571038
0.134482
-0.258634
0.220653
0.062351
-0.100022
-0.681923
-0.021633
-0.280023
-0.035493
0.459977
-0.651195
0.040424
-0.109766
-0.201681
-0.185006
-0.695217
0.784740
-0.121609
-0.210904
-0.896262
-0.336019
0.196988
0.764287
1.212970
-0.366677
0.517142
0.043428
0.229104
0.158336
0.186584
-0.432119
-0.292724
0.105357
-0.405337
0.367649
0.446726
-0.196249
0.048334
-0.837632
-0.461305
0.335098
0.126878
0.399875
-0.457690
0.046626
0.342213
0.331132
0.484255
-0.283695
0.009206
0.448934
0.662405
0.107427
-0.037695
0.429204
-0.219141
0.869777
0.761013
0.271437
0.433349
-0.335046
-0.260904
-0.059616
0.645880
-0.083350
-0.068035
0.201835
0.308938
-0.486822
0.074357
0.496926
-0.229211
-0.258765
-0.190635
-0.164578
0.219495
-0.587817
-0.324401
0.057935
-0.028703
0.096737
0.295594
0.184704
-0.102766
0.307720
0.567952
-0.041668
-0.269508
0.275648
0.378532
-0.161723
0.097305
0.246876
0.426681
-0.398857
0.560071
0.178150
-0.630687
-0.533559
0.353871
-0.332290
0.555956
-0.073109
0.604594
0.006297
-0.403297
-0.258853
0.351873
-0.772992
-0.581157
0.755615
0.243175
-0.465532
0.602119
0.046057
0.215444
-0.026335
0.062939
0.350839
0.081951
0.386588
-0.417956
0.397848
-0.279752
0.298277
0.130521
-0.498772
0.311774
0.061516
-0.507232
0.247328
-0.188159
0.336055
0.144365
0.411058
0.438868
0.032137
0.051107
-0.491538
-0.077691
-0.351533
-0.209765
-0.165041
-0.202319
0.176341
0.110813
-0.586450
0.194981
0.376676
0.196147
0.060378
0.988946
-0.454311
0.715982
0.583016
0.240455
0.245711
-0.182397
-0.241377
-0.502977
-0.176293
-0.413803
-0.032568
-0.061328
-0.208339
0.051455
-0.232707
-0.167438
-0.130097
-0.355528
0.168956
-0.235801
-0.578565
-0.341087
-0.154373
-0.522704
-0.604034
-0.166384
-0.498807
0.683172
-0.416428
0.591302
-0.206811
-0.127263
0.295513
-0.552755
-0.535258
-0.433689
0.290611
-0.609409
-0.417146
0.620067
0.194405
-0.185939
0.044976
0.776597
-0.088766
-0.284144
-0.724120
-0.225820
0.335021
0.154663
0.181657
0.223274
-0.639767
-0.189199
0.307467
-0.182263
0.320986
-0.469854
0.465662
-0.354522
-0.424896
-0.124765
0.455728
-0.312600
-0.172318
-0.360945
0.204432
0.050932
-0.693350
-0.265740
-0.909279
0.564669
-0.058726
0.422164
-0.149024
-0.706371
0.354900
0.233445
-0.690168
-0.013884
-1.019039
-0.756721
0.724081
-0.579135
0.360583
0.440353
-0.001077
-0.655647
-0.515099
0.236245
-0.595746
-0.101607
-0.608667
0.102595
-0.024903
0.326689
-0.312684
-0.590531
-0.667386
0.033378
0.472215
-0.575916
-0.207358
0.356456
0.239757
-0.357137
-0.122560
-0.013391
-0.449391
0.083882
0.101016
0.550562
0.089002
0.545371
0.444441
-0.301106
-0.268190
0.627989
0.286677
-0.855713
0.350118
0.186380
0.516140
-0.220486
0.406787
0.605372
-0.489081
-0.178216
0.237554
0.149636
-0.085609
0.401011
-0.638635
0.048626
0.354401
0.627872
0.665698
-0.873868
-0.744683
-0.609617
-0.072204
0.073427
0.664335
0.214456
-0.538675
-0.341682
-0.290081
0.283965
-0.031823
-0.056365
-0.341647
0.024716
0.360628
-0.450307
-0.528391
-0.346940
-0.163459
-0.230164
0.586925
0.463378
0.170118
0.479842
0.435721
-0.246902
0.536291
-0.406300
-0.334374
0.481610
0.068131
-0.018462
-0.108915
-0.331147
0.143683
0.782185
0.319681
-0.342156
0.057227
-0.233148
0.228576
-0.155692
-0.410358
-0.308810
-0.012520
-0.586985
-0.063466
-0.007663
-0.305416
0.454826
0.383449
-0.354668
-0.087232
0.116390
-0.386616
-0.081339
0.193406
-0.071246
0.438490
-0.205469
-0.341503
-0.364082
0.099817
-0.794526
0.750517
-0.261158
0.061977
0.211492
0.025269
-0.061533
-0.157756
0.210356
-0.504438
0.308728
0.148722
-0.410650
0.049588
0.233066
0.182341
0.122146
-0.427649
0.362884
0.478489
0.818765
0.366598
0.346868
0.173630
-0.471455
-0.383264
0.282351
-0.305768
-0.354468
-0.518158
0.198535
0.670553
0.740277
-0.125947
0.427065
0.229958
0.053922
0.701394
0.129986
-0.227778
-0.485374
0.539918
0.266502
0.557258
0.096654
0.074509
0.375699
1.060203
0.555217
-0.007165
0.257552
-0.251278
0.115488
-0.044359
-0.479025
0.183806
0.259313
0.363082
-0.226335
-0.191534
0.019546
-0.301722
0.004858
-0.241786
0.510045
-0.379208
0.401937
0.178682
0.442236
-0.258436
0.087083
-0.769824
0.463143
-0.598347
-0.720277
-0.089765
0.383901
-0.013291
-0.248136
-0.429952
-0.195826
-0.245219
0.342948
0.156113
-0.369122
-0.380966
0.304685
0.690738
-0.076030
0.854172
-0.151206
0.025597
0.334382
0.510048
-0.170591
0.124701
-1.026003
0.012989
-0.692643
0.609348
0.659632
0.416718
-0.052616
0.263940
-0.343202
0.785669
0.670939
0.744044
0.129151
0.555592
0.070954
0.020761
1.099898
-0.705959
-0.246870
-0.041680
0.340646
0.094978
0.564688
0.676030
0.003735
-0.233144
-0.453128
0.310007
0.362313
-0.013742
-0.062373
-0.239050
-0.544311
-0.012842
0.673653
-0.397179
0.199619
0.843749
0.196067
-0.491922
0.059397
-0.380594
-0.009286
-0.004660
-0.078949
0.117927
0.184758
0.400251
0.169560
-0.545475
-0.292327
-0.290749
-0.182031
-0.401154
-0.425276
0.006435
0.465412
-0.302798
-0.756892
0.256656
0.076183
-0.007473
0.181391
-0.095366
0.491643
-0.390708
-0.515044
0.006190
0.086152
0.115582
0.281962
-0.884102
-0.247999
0.414557
-0.241291
0.532464
-0.034261
0.421250
-0.358006
0.864895
-0.236019
0.242542
0.388344
0.038023
-0.162305
0.160762
-0.221137
-0.323592
-0.012102
0.107987
0.027374
0.306576
-0.190772
-0.846487
0.355150
-0.153645
0.202706
0.569009
-0.688634
0.197975
-0.371410
-0.127392
0.679074
0.165680
-0.116618
0.802492
-0.043473
0.136325
0.190528
-0.291718
-0.166654
0.341531
0.124831
0.119888
0.123774
0.274377
-0.209661
-0.088071
-0.083224
-0.096856
-0.644167
0.516223
0.199175
-0.603466
-0.236374
-0.407431
0.865802
0.346603
0.553685
-0.219957
-0.354979
-0.582236
-0.422877
0.220214
-0.520836
0.072969
0.276030
-0.597425
-0.019790
0.391024
0.727813
0.027979
-0.197387
0.911439
-0.416492
0.044240
-0.523224
0.233345
0.555015
-0.060442
-0.021442
-0.225289
0.345868
-0.228347
0.649017
-0.507828
-0.238530
-0.204465
0.378277
-0.150285
0.103758
-0.242755
-0.975570
-0.156040
0.300022
-0.128156
-0.112817
0.070344
0.133896
0.048270
0.224341
0.564586
0.683873
0.285481
-0.603585
-0.119229
0.242856
-0.670004
0.065161
-0.301620
-0.115348
0.077989
0.347078
-0.531586
-0.081076
-0.314674
-0.872316
1.118816
0.090993
-0.341813
0.594644
0.246885
-0.063120
-0.227919
-0.731131
-0.383113
-0.479149
0.153882
-0.355231
-0.373546
0.680043
0.298832
-0.008033
0.158412
-0.054152
-0.054036
-0.253457
-0.556858
-0.427232
0.196122
0.551930
-0.009439
0.373880
0.156468
-0.366128
0.387649
-0.441641
-0.564246
-0.131933
0.244381
-0.234660
-0.453057
0.416928
-0.205994
0.081336
0.061231
-0.242267
-0.678531
0.556248
0.329761
-0.249297
0.260170
-0.220642
-0.248881
-0.635094
-0.343122
-0.014235
-0.515039
0.388843
0.278654
0.378593
-0.080720
0.905913
0.008374
0.232708
-0.553355
-0.566289
-0.156486
0.940672
0.355187
-0.248119
-0.423333
-0.644769
0.146989
0.221436
-0.791785
0.205468
-0.461550
-0.436333
-0.608276
-0.145143
0.446732
-0.256220
-0.291263
0.236429
-0.352228
0.802461
-0.077490
0.343694
0.116231
-0.217021
0.191516
-0.092357
0.147894
-0.255331
-0.432556
-0.045421
-0.459968
0.004305
-0.360156
0.494955
0.074624
-0.144368
-0.006075
0.384703
0.386054
-0.071584
-0.255306
-0.256121
-0.366433
0.351968
-0.137526
-0.161219
0.129714
0.542509
-0.482929
0.739604
0.285391
-0.452359
0.480401
0.252341
0.123011
-0.142622
0.743845
0.313445
-0.702148
-0.320038
-0.391138
0.566236
-0.656281
-0.693216
0.125513
0.061143
-0.721508
0.190253
-0.432984
0.396535
0.566570
0.168630
0.089325
-0.688632
0.368766
0.132648
-0.980008
-0.037972
-0.214324
0.266853
-0.101994
0.336909
-0.554280
0.024894
-1.184940
-0.062740
0.096955
-0.442663
0.545218
-0.517707
-0.375016
0.672432
0.576030
-0.403207
-0.218134
-0.069415
0.445669
-0.080516
0.114114
0.406514
-0.063280
0.352485
0.144930
0.002781
0.339704
-0.678839
-0.271323
-0.245611
-0.259017
-0.017803
0.669384
0.163386
0.306574
0.381554
-0.678038
0.416959
1.124570
-0.130768
-0.096476
0.282793
0.959136
-0.272788
-0.223712
-0.487318
0.370335
0.239930
-0.411029
0.122574
1.524938
-0.446701
0.363392
-0.841616
0.615927
0.330806
0.190123
-0.404515
0.039346
-0.034119
-0.436726
0.378831
0.212337
-0.008955
-0.138259
0.460010
-0.009449
0.322526
0.492042
0.244424
-0.249854
0.166671
0.856296
-0.312934
-0.723721
-0.639798
-0.795038
0.067807
0.488276
0.109884
0.446114
-0.056320
-0.276577
0.323588
0.188577
-0.560948
-0.387954
-0.288024
-0.294754
-0.024755
-0.581335
-0.235320
-0.107606
0.003216
-0.679833
0.439699
-0.450553
-0.914995
0.557134
-0.344679
0.211906
0.049290
0.654512
0.372454
-0.395817
-0.461945
0.061733
0.993003
-0.516049
0.087249
-0.004395
0.659091
0.373093
0.023864
0.001843
0.006477
0.217141
0.176869
-0.959822
-0.409303
0.398580
0.363160
-0.610789
-0.230056
-0.061540
-0.904527
-0.007014
-0.203188
-0.028302
-0.287904
-0.162833
-0.060510
-0.187941
-0.165675
-0.294053
0.734006
-0.088191
0.447313
-0.112557
-0.808554
-0.768688
0.275218
-0.137727
-0.386214
0.699108
-0.391523
-0.083701
0.627922
-0.098961
-0.043762
-0.314046
-0.046650
0.001137
0.202915
-0.204226
-0.015082
-0.291127
0.574946
-0.113284
0.084976
0.074009
-0.303101
0.304546
-0.154894
0.219851
-0.382639
-0.258385
0.538894
-0.415098
-0.602437
0.116701
0.002618
-0.165895
0.157682
0.506703
0.287268
0.098021
0.209982
-0.300714
-0.135225
0.498362
-0.133577
0.285541
0.210393
0.531479
-0.085020
-0.429944
0.090833
-0.373185
0.808289
-0.192630
0.578598
0.197001
0.140583
0.100465
0.154108
0.200781
-0.728325
0.119935
-0.681456
0.045545
0.173964
0.625099
-0.324430
-0.228786
-0.196728
0.109963
-0.074111
-0.593693
-0.663811
0.078236
0.127464
-0.286291
-0.098008
-0.108699
-0.306431
0.348872
-0.034688
0.530162
-0.438939
0.350528
-0.061814
0.669260
0.311347
0.704804
-0.448005
-0.562054
0.372453
-0.575884
0.647286
0.382383
0.281160
0.219898
-0.131737
0.182679
0.118404
-0.424404
0.509091
0.077879
-0.331135
-0.126593
0.096691
-0.247811
0.318795
0.110261
0.288673
0.026389
-0.154066
-0.076626
0.117263
-0.893413
0.035142
0.136482
-0.195680
-0.045223
-0.457317
-0.131902
-0.264106
0.098123
0.144471
0.472685
0.215734
-0.340995
0.350250
-0.092632
-0.027540
-0.021334
-0.352176
-0.028867
0.054266
0.373475
-0.106360
-0.010199
0.337132
-0.201086
-0.337937
-0.427227
0.638081
-0.163424
0.116908
-0.053630
-0.267821
0.455032
-0.046472
-0.082462
-0.227091
0.038897
-0.579777
-0.218931
0.463056
0.214046
-0.282802
-0.315596
0.535030
-0.550738
-0.346605
0.005265
0.418926
0.186541
-0.625782
0.118593
0.057121
0.442528
-0.318850
0.400197
0.240705
0.226845
0.127571
0.177576
0.216765
-0.573104
-0.396186
0.511121
-0.181037
0.019860
0.391045
-0.008331
-0.329155
-0.243361
0.065794
0.231009
0.141939
-0.069726
-0.439842
-0.076933
-0.525412
0.534926
0.040937
0.678297
0.354156
-0.245089
-0.318917
-0.035077
0.110545
0.258193
-0.220558
0.519487
0.348510
0.308129
0.369634
-0.298691
-0.198545
0.677987
-0.110716
-0.240927
-0.125255
-0.621152
0.037785
-0.052745
-0.757669
0.324966
-0.343757
0.196677
-0.169590
-0.133760
0.403570
-0.213778
-0.166204
-0.517200
0.228813
-0.075655
-0.115168
0.426318
-0.089199
-0.229787
0.446427
-0.235714
0.457970
0.237826
0.294902
0.396373
-0.124699
-0.332687
-0.048961
0.626066
-0.221299
-0.067939
-0.485650
0.318836
0.079367
-0.015861
0.432416
-0.023606
-0.208977
-0.187690
-0.514729
-0.228010
-0.331015
0.331564
-0.092433
0.434131
-0.284379
-0.276037
-0.408118
-0.390713
-0.479740
-0.327766
-0.388003
0.321403
0.704667
0.050005
0.180150
-0.350661
-0.369758
-0.253886
0.641234
0.376976
0.073332
0.712848
0.616968
0.617437
0.156178
0.399336
-0.528492
-0.171082
-0.056773
-0.834124
-0.478990
0.160601
-0.349244
-0.102444
0.071252
0.601707
-0.422228
0.307224
0.101338
-0.154759
0.021156
-0.436832
-0.169881
-0.378178
-0.306348
0.260736
-0.139553
-0.295580
0.011962
-0.162269
0.131210
0.177358
-0.580941
-0.356989
0.347894
0.060435
-0.558805
-0.682990
0.070340
-0.198631
0.289605
0.202052
-0.173399
0.472655
-0.430935
1.042503
0.143580
0.147719
0.152881
0.036075
0.635697
0.168789
-0.592336
-0.943083
-0.198953
-0.564743
-0.138050
-0.229890
-0.612302
-0.008553
0.689089
0.380607
-0.455121
-0.810082
-0.138578
0.445249
-0.039143
-0.832296
0.381734
0.213995
0.036903
-0.300884
0.461775
-0.293056
-0.384570
-0.130492
-0.564083
0.344362
0.324386
0.102414
0.145573
-0.482223
-0.078241
-0.314861
-0.678584
0.144349
0.523254
0.541729
-0.010080
-0.091106
0.504443
0.363644
-0.276317
-0.508791
-0.142162
-0.049865
-0.077492
-0.200849
-0.110860
0.899933
-0.118306
0.342081
-0.086109
-0.249902
0.387401
0.586116
-0.089398
0.315187
0.555166
0.571700
-0.221099
-0.193363
-0.287438
-0.034678
0.120622
0.595305
-0.497344
-0.235212
1.028215
-0.223287
-0.003524
0.276703
-0.001266
0.549542
0.088831
0.018106
0.429483
-0.044109
-0.476387
-0.811189
-0.635525
0.256587
0.211600
0.223363
0.342010
-0.061445
-0.499288
-0.173873
0.278922
-0.177866
0.738292
0.381348
0.103960
0.997101
-0.117552
-0.210488
0.473247
-0.184059
-0.084402
0.226397
-0.231827
-0.461141
0.472155
-0.667936
0.022627
0.870513
0.804374
-0.357541
-0.066236
-0.222145
-0.263747
-0.120244
0.281237
-0.077765
-0.096960
-0.370262
-0.131831
0.152214
-0.699063
0.211678
0.141213
0.130346
-0.223798
-0.234470
0.068127
-0.213621
-0.226883
-0.760046
0.088963
-0.093654
-0.484118
0.033260
0.030188
0.256003
-0.005843
-0.038896
0.900329
0.367784
-0.366139
0.059939
0.341816
-0.843721
0.275615
-0.321530
-0.657456
-0.728864
-1.243382
-0.274402
-0.939879
0.627772
-0.614910
0.300727
-0.429447
0.355135
-0.679514
0.392927
-0.758565
0.244115
-0.019139
-0.048509
0.146723
0.096764
0.207166
-0.184631
0.296027
0.199681
0.077739
-1.099506
-0.177346
0.177087
0.574686
0.037682
-0.065504
-0.166427
-0.425867
0.325634
-0.576248
0.152872
0.510589
-0.232699
-0.355416
0.024787
-0.467432
0.245523
0.584928
0.559681
-0.256435
-0.435544
-0.148498
-0.537275
-0.171650
0.200924
0.083620
-0.377403
-0.155047
0.354958
0.613673
0.233546
-0.166211
-0.620379
-0.159904
-0.164469
0.864676
0.114809
-0.095312
-0.053511
0.082712
0.336595
-0.042928
0.010279
0.004717
0.651754
0.640982
0.207120
-0.654663
0.299008
-0.074367
0.400026
0.425630
-0.258492
-0.715433
0.364374
-0.473257
0.457992
0.133589
-0.293271
0.310989
0.021374
0.610912
0.555287
-0.451359
-0.911163
-0.179307
0.791176
0.070753
-0.109935
0.204821
-0.448849
-0.155702
0.313598
-0.320006
-0.236832
0.425148
-0.413332
-0.719349
0.337054
1.116770
0.525079
0.353089
-0.111564
0.598362
0.201206
-0.320404
0.205178
0.540082
0.702801
0.052289
0.153839
-0.033116
0.272483
-0.002464
-0.340221
-0.158878
0.567796
-0.145492
-0.634731
-0.135362
0.618805
-0.872843
-0.003489
0.460625
-0.370320
0.564084
-0.112651
-0.656470
-0.494854
-0.236282
-0.047975
-0.626817
0.215330
-0.083762
-0.503922
0.465116
0.605037
-0.609127
0.168426
-0.120507
-0.104980
-0.128686
0.714505
-0.222810
-0.711214
0.298832
0.118282
-0.507154
-0.344506
0.050122
-0.117942
-0.009255
-0.219767
0.118204
-0.847928
-0.547422
0.119915
-0.263163
-0.013512
-0.326768
0.109815
-0.571479
0.259871
0.204150
-0.514936
-0.269371
-0.532364
-0.110128
-0.180722
-0.387537
-0.173245
0.310857
-0.616633
-0.063741
-0.483136
0.143670
0.760308
-0.364287
-0.250159
-0.350741
0.128597
-0.433065
0.252957
-0.195818
0.160511
0.418130
-0.148149
0.163677
0.477003
0.243471
-0.372083
0.411156
0.227731
-0.167237
0.405668
0.744384
0.080316
-0.066344
0.011303
0.184230
-0.202228
-0.182233
-0.517577
0.057882
0.344564
0.397741
0.314840
0.094599
0.381780
-0.202086
-0.597063
-0.037915
0.395696
0.454501
0.400968
-0.143400
-0.695550
0.273281
1.151268
-0.257575
0.215178
-0.801436
0.558624
0.020501
-0.129068
-0.230690
0.298485
0.061523
-0.661730
-0.774981
0.274923
-0.094928
0.467229
-0.002714
0.613136
0.519968
0.276930
-0.061347
0.126859
-0.240195
0.083842
-0.117279
-0.932458
-0.551353
-0.407950
-0.273709
-0.053345
0.332791
-0.276214
-0.328757
0.221344
0.335671
-0.007222
-0.757994
-0.299055
0.563998
0.206723
0.039626
-0.002664
-0.560991
-0.113429
-0.321862
-0.640273
-0.808163
-0.226916
0.152060
1.165540
0.041866
-0.264819
0.673172
0.246603
-0.700457
-0.576832
0.184859
0.065937
-0.073070
0.627334
0.340013
0.672706
0.234757
-0.051588
-0.060466
-0.131154
0.129097
0.460051
-0.254947
-0.451219
0.188992
-0.452098
0.243207
0.595797
-0.444536
-0.299728
1.036837
0.877555
0.774436
0.134533
-0.677182
-0.061017
-0.014925
-0.044202
-0.250437
-0.012112
0.193487
-0.430780
-0.735394
-0.278446
-0.230343
0.670495
-0.394100
0.401775
-0.234022
0.031072
-0.521853
0.258168
-0.305196
0.476165
0.002704
0.341426
-0.340148
0.263315
0.342894
0.111461
0.574908
0.142660
0.298324
-0.257108
0.628888
-0.525391
0.588258
0.258939
0.384998
-0.282102
-0.720309
0.540458
-0.162693
-0.153605
0.619078
-0.610528
0.009474
-0.332685
0.182362
0.015147
-0.460452
-0.402723
0.438394
0.060571
0.253849
-0.085197
-0.001794
-0.078040
-0.096417
-0.252758
-0.952008
0.162056
0.040741
-0.155241
-0.028542
-0.275851
0.063468
0.557622
-0.254209
-0.141910
-0.643524
-0.324222
0.467594
0.431927
-0.290223
0.382512
0.185143
-1.177884
-0.011361
-0.000264
0.029475
0.095667
-0.332023
0.180605
-0.240698
-0.447854
-0.487212
-0.757727
0.399585
-0.009174
-0.018604
0.714822
-0.279351
-0.193934
-0.728727
0.850909
-0.097423
0.045083
0.104777
0.233898
-0.104444
0.410159
-0.509781
-0.439081
0.263792
-0.306156
-0.027122
0.603090
0.015851
-0.303179
0.070592
0.762022
-0.128297
-0.176531
0.145359
-0.122628
-0.086560
-0.685347
-0.748457
0.048537
0.404988
-0.029984
0.113371
-0.929128
-0.529140
0.093289
-0.334307
0.348668
1.086626
-0.324776
0.154554
0.733177
0.676336
0.238118
-0.522856
0.514833
0.128697
0.145856
-0.537397
1.298920
0.036956
-0.086149
-0.250582
0.396183
0.181764
0.118453
0.180328
-0.286542
0.415995
-0.306600
-0.274571
-0.066047
-0.124930
0.321854
0.659122
0.135629
0.969571
-0.188490
0.458573
-0.169956
-0.710287
-0.043095
-0.316761
0.082883
-0.085696
0.082606
0.544364
0.277228
-0.021695
0.201988
0.556135
0.385598
-0.242312
-0.170427
-0.196667
-0.543725
0.613997
-0.490189
0.382851
-0.889132
0.704135
0.202030
-0.187842
-0.200627
-0.388448
-0.053601
-0.519174
0.058981
0.160179
-0.551526
0.103094
0.087481
-0.142910
-0.053714
0.579619
-0.491928
-0.895845
-0.350103
0.000476
-0.373836
-0.088058
-0.464684
-0.362581
0.523046
-0.990366
-0.042994
0.036551
-0.271758
0.501706
0.589449
0.433717
0.466212
-0.208055
0.173689
-0.306880
0.535512
0.078020
-0.490020
-0.222151
0.085974
0.412284
0.167573
0.080957
-0.282194
0.305536
-0.117782
-0.813058
-0.085009
-0.289314
-0.602786
-0.195212
0.616991
0.083652
0.182914
-0.593544
-0.005761
0.067811
0.011166
-0.447705
0.631143
0.022642
-0.012884
-0.281343
0.028609
0.344106
0.232211
0.383198
0.611321
-0.213981
-0.129637
0.870709
-0.011860
0.311468
-0.280296
-0.065567
-0.222005
0.603844
-0.065729
0.239440
-0.060519
0.166378
0.156036
0.467114
-0.028805
0.632367
-0.282268
0.318786
0.096088
0.080122
-0.323540
0.392822
-0.385232
-0.444634
-0.189877
0.355028
-0.293582
0.131895
-0.118462
-0.339273
0.105102
-0.143911
-0.402806
-0.438114
-0.139883
0.114524
0.460437
-0.200423
0.316271
0.219557
0.242250
0.378270
-0.634449
-0.212120
-0.127020
0.071393
0.977375
-0.077718
-0.649148
0.136820
0.702508
0.422940
0.471956
0.627972
-0.124647
-0.723748
0.099166
-0.763315
0.509747
1.024630
0.784997
0.053022
0.446786
0.396466
0.471887
-0.384963
0.373905
0.078888
-0.294529
-0.102990
0.221547
0.310969
-0.339330
-0.273368
0.334190
-0.094748
-0.058357
0.496370
-0.432518
-0.231016
-0.010904
0.706897
-0.408496
0.217028
-0.048814
0.012301
0.535376
-0.302039
-0.096142
0.224202
0.254462
0.121218
0.071973
0.082409
0.339580
-0.445445
-0.480720
0.494860
-0.765719
0.439593
0.795867
0.417199
0.374416
-0.846724
0.093457
-0.243527
0.850559
-0.223344
-0.320726
-0.808708
0.559335
0.255054
0.355780
0.707051
-0.390679
-0.362646
-1.110208
-0.361802
0.011625
0.143527
-0.214587
0.278479
-0.112093
0.261000
0.566774
-0.330949
-0.103947
-0.049424
-0.380702
-0.255249
-0.357361
0.012081
-0.900479
-0.535484
0.646704
0.081185
-0.084775
-0.207682
0.117865
-0.211200
0.242259
-0.301199
0.556984
-0.137665
-0.110461
0.125107
0.293387
-0.385747
-0.195673
-0.503569
0.296841
-0.122571
0.062375
-0.157981
0.594654
0.039801
0.279545
-0.620143
0.135817
0.983171
0.214537
-0.335637
-0.723864
-0.493737
-0.154559
-0.118410
-0.396648
0.113972
0.250136
-0.317165
0.272108
-0.375419
0.138055
-0.371699
0.893632
-0.363847
0.157348
-0.023439
0.768249
0.073864
-0.057011
-0.614846
-0.352697
-0.379962
-0.301020
-0.060824
0.477454
0.194454
-0.165243
0.289950
0.595364
-0.432616
-0.493371
0.158420
0.075851
-0.229835
0.655952
0.171194
-0.590537
0.643858
-0.042602
0.586208
-0.012320
-0.462863
0.065655
-0.195309
-0.086794
-0.722442
0.568399
0.450518
0.381198
0.718775
1.050148
0.103474
0.764207
0.999324
-0.528747
0.021822
0.150536
0.194355
0.233879
-0.097199
0.398889
0.297023
-0.101406
0.366124
-0.708862
-0.470641
-0.512316
0.826266
0.323442
0.348703
-0.520791
0.037727
-0.219809
-0.054713
0.286278
-0.255285
0.431607
0.280428
-0.154452
-0.144445
0.678530
0.583585
0.044074
0.021142
0.325782
0.500061
0.064886
-0.063692
0.008906
-0.190857
-0.015480
0.172334
0.143278
-0.010047
-0.058598
-0.243525
0.136652
0.023909
1.000287
0.917689
0.536110
-0.303051
-0.298555
-0.311837
0.113998
0.097585
0.833473
0.174478
-0.861064
-0.628834
0.241270
0.065097
-0.759720
-0.680838
-0.163190
0.072447
0.079955
-0.586860
-0.194074
0.061346
-0.222736
-0.022034
-0.252259
-0.132445
0.116604
-0.357315
0.108018
-0.323807
0.574721
0.072980
0.082196
-0.048193
-0.114361
-0.335476
-0.114393
-0.066678
-0.589440
-0.475365
0.373158
0.139177
-0.343100
-0.112223
0.094523
0.156705
-0.526105
0.284306
-0.407832
-0.660095
-0.624533
-0.330672
-0.575644
-0.535579
0.775204
-0.312776
-0.479131
-0.172004
-0.480116
-0.171025
0.158177
0.830195
0.410940
-0.035098
0.416518
-0.169945
-0.252967
0.406328
0.298465
-0.403611
-0.233126
-0.805221
0.184478
-0.053229
-0.392584
-0.405152
0.183389
-0.441217
-0.724454
-0.068472
-0.282216
0.154601
0.294406
0.442303
0.262947
0.196504
-0.614211
0.052171
-0.161785
-0.712140
0.087335
0.520572
-0.240755
0.049066
-0.034481
-0.663450
0.430465
0.420249
-0.251748
-0.079273
-0.038293
0.390108
0.145857
-0.757452
-0.366157
0.073179
-0.898736
0.402634
-0.392355
0.011527
-0.336469
0.682096
0.279158
-0.228661
-0.969065
0.083477
-0.210620
-0.591782
0.749791
-0.143789
-0.071008
-0.374072
0.314388
-0.772688
-0.143563
-0.043918
0.326583
-0.144407
0.030922
0.488369
0.495094
0.012386
0.574955
-0.010949
-0.428316
0.015262
0.361308
-0.923198
-0.400791
-0.084614
0.230508
0.454602
-0.142066
-0.361976
0.382507
-0.132444
-0.614943
0.142525
-0.680444
-0.579031
0.701739
0.466321
0.267632
-0.419142
-0.166029
0.212748
-0.103798
0.404117
0.391103
0.335234
0.730699
0.313299
-0.068513
-0.030716
-0.095627
-0.050188
0.473369
0.065810
0.069728
-0.386143
0.480416
0.285047
-0.369526
-0.398948
-0.431257
0.625663
-0.294742
0.384847
-0.359371
-0.766377
1.200789
-0.165636
-0.039549
0.178897
0.729022
0.523126
-0.542350
0.427124
0.195396
-0.179739
0.418795
-0.805583
-0.438837
0.357931
-0.261537
-0.354743
0.225441
-0.172666
0.294581
0.544272
-0.942552
-0.166041
0.228917
0.508477
-0.585703
-0.245793
-0.276829
0.336424
-0.721213
0.513446
0.029687
-0.198618
-0.270413
-0.685937
0.114437
-0.122590
-0.297561
-0.733542
-0.732648
-0.547573
-0.069620
0.207435
-0.209014
-0.250375
-0.314144
0.016383
0.238363
0.062562
-0.424274
-0.653405
-0.438736
-0.515004
-0.551789
-0.072440
0.494358
0.200858
-0.001355
0.254415
0.884910
0.434775
-0.381472
-0.326960
0.384712
-0.004064
-0.491000
-0.558432
0.168583
0.566505
0.016477
0.126816
-0.700277
0.342158
0.725660
-0.781002
0.017194
-0.696534
-0.271043
0.221705
0.147200
-0.338617
-0.311338
-0.120774
-0.356391
0.260392
0.344037
0.343896
-0.292049
0.622166
0.209787
-0.509448
0.520506
-0.285463
-0.097691
0.252193
-0.975703
0.198929
-0.238024
0.422805
-0.043954
0.115752
-0.288329
-0.670264
-0.353171
-0.198088
0.272254
0.413584
0.629687
0.172763
0.283808
-0.532086
-0.238132
0.124015
0.208351
0.108899
0.042118
0.047492
-0.153365
0.203180
-0.347932
0.315491
-0.232162
0.649765
0.075430
-0.608375
0.052345
0.037642
0.157949
-0.587678
-0.294236
0.137080
-0.061686
0.092932
0.279446
-0.311514
-0.292379
0.596032
-0.075179
0.419767
-0.136450
-0.422343
0.308859
0.977955
-0.561551
-0.060642
0.352536
-0.750832
0.837992
-0.096643
0.076710
0.249245
0.810800
-0.562876
0.011726
0.112276
0.011330
0.540986
-0.508007
0.190655
-0.026783
-0.237502
-0.615058
0.190200
0.556169
-0.208165
-0.228072
0.944944
0.281734
0.265401
0.550668
0.622436
0.116651
0.392850
0.627390
-0.454786
-0.452644
0.397171
-0.092203
0.094724
-0.010577
0.186211
0.172456
0.370476
0.236128
0.318140
-0.110123
-0.561247
-0.823692
-0.063243
-0.250580
-0.172780
0.036837
0.530052
-0.781951
-0.674215
0.398344
0.055077
1.104483
-0.227810
-0.140941
-0.137388
0.297267
0.164548
-0.809581
-0.304838
-0.432365
0.551920
0.057651
0.145765
-0.161128
0.010712
-0.297737
1.049555
-0.015181
0.468374
-0.111388
-0.686698
0.240394
0.388343
-0.011320
0.202506
-0.087178
-0.398706
-0.487187
-0.759474
0.377581
0.450842
-0.000161
-0.333137
0.628691
0.266974
0.742689
0.501709
0.521534
-0.180757
0.162896
-0.606937
0.041986
-0.147493
-0.299272
-0.108890
-0.552016
-0.024274
-0.056387
-0.792911
0.133174
-0.460103
-0.295568
-0.588043
0.075956
0.393595
0.604574
-0.258075
0.455597
-0.580636
0.016032
-0.306439
-0.132487
-0.445503
0.590913
0.326159
0.083377
-0.431640
0.274569
-0.529263
-1.134688
0.726209
-0.242990
0.312503
0.676892
-0.566464
-0.000050
0.704160
0.014581
0.353493
0.229238
0.221937
-0.435828
0.304959
-0.404159
-0.036830
-0.239203
0.847548
-0.699399
-0.103159
0.093872
0.255776
0.027304
-0.053534
-0.237568
0.452721
0.232212
0.544997
-0.696381
0.024876
-0.396314
-0.136005
-0.187954
0.221665
0.043532
-0.679756
-0.300489
0.244758
0.205918
-0.213061
-0.780653
0.195423
-0.712375
-0.335192
0.304610
-0.405974
-0.152677
0.536172
-0.047798
0.022243
0.022766
-0.527875
-0.474881
1.052408
-0.099164
-0.343189
0.014102
0.662420
0.208502
-0.332790
-0.066007
-0.165861
0.029549
0.642378
0.654473
-0.324294
-0.059813
0.025692
0.234320
0.465607
0.727579
-0.610324
-0.284153
0.097758
-0.275153
0.228224
-0.514002
-0.268527
-0.263849
-0.240634
0.084431
0.304951
0.175690
-0.264582
1.389758
0.103318
-0.029978
-0.575065
-0.094445
0.303357
-0.067743
0.358796
0.170800
0.440804
0.509685
0.193387
-0.617760
-0.009048
-1.147609
-0.181146
0.425635
0.616252
-0.795894
-0.340186
-0.431076
0.877339
-0.598892
-0.537303
-0.181125
0.257543
-0.376000
-0.131292
-0.118330
-0.065625
-0.267208
-0.265820
-0.052256
-0.045473
0.018056
-0.204329
-0.568048
0.287980
0.790473
-0.135720
-0.609205
-0.224755
0.207197
-0.138458
-0.101950
0.023368
-0.138097
-0.106249
1.588117
-0.189379
0.430774
0.274796
0.162545
0.293577
-0.388004
0.317411
-0.080821
0.827924
0.213295
-0.579927
-0.130235
0.587465
-0.345590
-0.004679
-0.803598
-0.153132
-0.392856
0.742351
0.280589
-0.151753
-0.309551
0.322518
0.051343
-0.429985
0.479350
0.397604
-0.681640
-0.304539
-0.051596
-0.081955
-0.221372
-0.307418
-0.260591
0.041501
0.283729
-0.289338
-0.119254
0.307865
0.074035
0.271743
0.216347
0.190419
0.344819
-0.412358
-0.107715
0.196158
-0.511823
-0.937524
0.442410
0.089484
-0.083293
0.273142
0.101834
-0.206933
-0.147135
0.168669
-0.397779
-0.320218
-0.271531
-0.061097
-0.163054
-0.526450
0.069086
0.146118
0.110332
0.649364
0.155352
-0.234033
0.050437
0.414931
0.060519
-0.278662
0.019904
-0.247338
-0.578113
-0.189358
0.387923
0.339865
0.231010
0.006079
-0.172530
-0.335083
-0.436487
0.315405
-0.219451
-0.246017
-0.242295
0.029772
0.198395
0.433131
-0.016093
0.972757
0.388740
-0.483267
-0.541394
-0.400108
-0.270762
0.168142
-0.512706
0.224838
-0.041768
-0.367043
-0.374336
0.866406
0.654404
-0.423609
0.606151
-0.350818
0.030376
0.254793
0.040208
-0.123986
-0.857324
0.005810
0.066220
0.473535
1.017913
0.386181
0.774047
-0.814970
0.064371
0.275969
-0.432998
-0.523384
0.125044
0.015165
0.150267
-0.412890
0.097989
0.602269
-0.466593
0.585528
-0.030257
-0.393424
-0.456272
-1.019444
-0.166648
-0.502026
0.770093
-0.022305
-0.320184
0.133441
0.305584
0.101676
0.109163
-0.199925
-0.032855
-0.077183
-0.949967
-0.638628
0.889127
0.072629
-0.013722
0.383556
-0.421877
-0.049954
-0.493011
0.264217
-0.447946
0.540141
0.171207
-0.232469
-0.082742
0.708301
0.238318
0.013082
0.795099
0.616859
-0.397347
-0.323257
0.292889
-0.244213
0.037139
-0.868695
0.186210
1.287483
0.324556
-0.194442
0.089502
-0.021298
0.109885
-0.210861
0.570908
-0.593777
0.091204
0.203710
-0.463234
-0.097774
-0.293110
-0.385680
-0.143132
0.067553
0.361513
0.922451
0.621858
0.223520
-0.227193
0.012077
-0.143400
0.115577
-0.460193
0.202502
0.712202
0.285808
-0.127580
0.201126
-0.124006
0.475699
0.496214
-0.024573
-0.105954
0.192348
0.138165
0.043672
0.091744
-0.221730
0.099508
0.355172
-0.182402
0.683603
-0.147902
0.188418
-0.185903
-0.571410
0.474547
0.909976
0.876473
-0.731802
-0.379079
-0.312716
-0.048317
0.340175
0.247972
-0.268290
-0.108699
0.203976
0.178790
0.376842
-0.005133
-0.137767
0.641579
-0.597009
-0.112543
0.596554
-0.203768
0.062285
-0.280298
0.275785
-0.468039
-0.113360
-1.663682
-0.042541
0.320685
-0.169819
-0.020976
-0.436789
0.475915
0.005995
0.067035
-0.232256
-0.671088
0.146236
0.013585
-0.076274
1.180730
0.017657
-0.693490
-0.195324
0.327076
-0.050112
-0.412877
0.255129
-0.135388
0.064226
-0.561575
0.372036
0.164155
1.074398
-0.583335
0.533453
0.910180
-0.965933
-0.638456
0.100990
0.038062
-0.199792
0.444442
0.422895
-0.470896
0.882264
1.397781
-0.659010
-0.248897
1.284692
-0.596304
0.514606
-0.338629
1.427539
-1.152620
-0.950327
-3.059926
1.567400
-0.490570
-0.561579
-0.237370
0.735697
-0.906536
-0.543580
-0.541913
-1.890796
-0.148419
0.768845
0.612156
0.263415
2.380942
-0.663598
-2.383088
-0.328147
-0.285024
-0.123610
0.875977
0.338573
-0.094060
0.586786
0.191561
-0.158150
-0.362583
2.479380
-0.179024
0.341593
2.453086
-0.911046
-1.755142
1.495444
-1.755901
1.000208
-0.587699
0.459484
