0.161186
-0.510580
-0.086775
0.003378
1.032307
0.276060
0.287086
0.503705
0.435788
0.446619
0.096198
-0.420343
0.072329
-0.283294
0.570071
-0.411868
-0.022969
0.286873
0.237593
-0.375477
-0.195728
0.750519
0.213790
0.676395
0.153514
0.248156
-0.050793
0.103900
0.142847
-0.095058
-0.748532
-0.613101
-0.773708
0.256356
0.475161
-0.849013
0.195130
-0.332414
-0.201627
-0.231822
-0.754963
-0.327293
-0.283169
-0.133207
-0.107279
-0.136745
-0.286049
-0.056819
0.538854
-0.565600
0.515938
0.345392
0.313820
0.196014
-0.322483
-0.377190
-0.256781
0.377277
0.307659
-0.367811
0.278789
0.627143
-0.351408
-0.592487
0.047193
0.790739
0.304310
0.635978
-0.642980
-0.277301
0.048038
0.022595
-0.668979
0.717812
0.111542
-0.344185
0.075284
-1.016780
-0.505128
0.151549
0.500849
0.124252
-0.267762
-0.406046
-0.785970
-0.047295
-0.199218
0.133734
0.220221
-0.332081
-0.114113
0.008084
0.299168
-0.921263
-0.759509
0.692256
-0.550639
-0.595938
0.661017
0.374022
0.154048
0.058981
-0.500533
0.392727
0.253887
-0.301501
0.773138
-0.015822
-0.186172
-0.142845
-0.232251
0.340705
0.113560
0.228443
0.007690
0.319387
0.011400
0.156602
-0.147192
-0.020093
0.232577
-0.524221
0.032931
0.321657
0.146795
0.310394
-0.142345
-0.208485
0.783348
-0.614648
-0.129887
-0.037657
-0.986174
0.018200
-0.191067
0.047414
-0.742938
0.359087
-0.081532
-0.032086
-0.927655
0.261591
0.442413
0.595489
0.014005
0.025999
0.205755
-0.109403
-0.253784
0.079533
-0.222249
-0.185097
-0.129836
0.760751
0.469280
0.256935
0.522584
-0.004822
0.149529
-0.848533
0.097844
-0.682423
-0.560713
0.683114
0.100659
0.539695
0.349875
-0.684767
-0.890762
-0.776831
0.368276
-0.104244
-0.363218
-0.304214
0.422309
0.045685
-0.209511
-0.393087
0.091909
0.209771
0.170588
0.285382
0.293487
-0.243051
0.174817
0.100083
-0.152492
0.426996
-0.183912
0.109122
0.262554
-0.202202
-0.384413
-0.048332
0.383220
-0.491646
0.668769
0.047424
0.013001
-0.674255
-0.217028
0.114206
0.337385
-0.290279
-0.384620
0.450853
-0.565972
0.276142
0.441174
-0.050764
0.360873
-0.039378
0.124199
0.328238
-0.239576
0.296542
-0.269368
0.074123
0.271035
0.562289
0.545614
0.024793
-0.359413
0.649287
-0.433112
0.288234
0.513846
-0.111278
0.381371
0.019985
0.086512
-0.105594
0.281000
-0.218493
-0.297340
0.101047
-0.521626
0.572851
0.170281
0.492602
-0.134536
0.089502
-0.235296
-0.139065
0.192208
0.362991
-0.052602
0.685821
0.774774
0.097988
-0.604761
0.019242
-0.056669
-0.063419
0.125161
0.225485
-0.035148
0.049660
-0.408681
0.564819
-0.005891
-0.231020
0.403586
0.040890
0.052906
0.148180
0.293662
-0.420950
-0.419224
0.638654
0.288149
0.093852
-0.596958
0.428190
0.311419
0.164175
0.019299
0.320000
-0.417561
-0.929765
-0.697301
0.033946
-0.062155
-0.163422
-0.170326
1.010901
-0.729805
0.689804
-0.300189
-0.267468
-0.068837
-0.369161
0.435738
0.914196
0.204576
0.258205
0.115079
0.684257
0.569560
0.262230
-0.493783
0.002599
0.238117
0.776009
0.268094
-0.034970
0.107197
-0.249550
-0.126343
0.150907
-0.380332
-0.230859
0.171034
0.405218
-0.109675
-0.468041
0.479042
0.550754
0.406412
-0.905104
-0.134914
-0.283940
-0.254408
-0.468274
-0.016257
0.080746
0.091825
-0.266378
-0.074992
0.701784
-0.066609
0.492533
-0.811071
-0.544444
0.102191
0.034553
0.115400
0.026246
-0.423631
0.340846
0.209063
-0.216479
-0.248864
-0.039146
0.436005
-0.007127
-0.063077
0.104822
-0.234576
0.080426
-0.000104
-0.589951
-0.395257
0.360049
-0.460902
0.136006
-0.235459
-0.173041
-0.658800
-0.203629
-0.033508
-0.035480
0.263251
-0.037128
-0.285982
0.247327
-0.253802
0.650620
0.065950
0.266920
0.665879
-0.437891
0.314032
0.205017
-0.567706
-0.679388
-0.485558
-0.030715
-0.445758
-0.093767
-0.528895
-0.100449
-0.337967
-0.409653
0.011987
0.635873
0.198483
0.093754
0.085358
-0.173161
-0.012110
0.487824
0.004846
0.673035
0.451747
0.340838
-0.264534
-0.102342
-0.551420
0.127277
0.051425
0.074989
-0.026577
-0.180691
-0.492068
-0.490066
-0.295051
-0.517070
-0.917030
0.010638
-0.173280
-0.442630
-0.583903
-0.173532
0.595399
0.544378
0.009527
-0.346516
-0.356899
0.509225
-0.613237
0.767289
0.007321
0.426945
0.200580
0.123629
0.537280
0.117436
-0.025074
-0.736435
0.019744
-0.114182
0.302371
-0.778333
1.116497
0.064088
0.367168
-0.573990
0.167202
0.095759
-0.165974
-1.074424
-0.461934
0.736124
0.070654
-0.401628
-0.512728
-0.475896
0.174127
-0.033198
-0.197202
-0.323265
-0.094374
-0.048719
-0.270411
-0.275585
0.540981
-0.300810
-0.195232
0.157527
0.412638
0.645627
0.368556
-0.437882
-0.213085
0.181846
0.295752
0.174996
-0.546237
0.006335
0.146087
-0.082069
-0.373534
-0.216560
0.198199
-0.492180
-0.766168
0.105050
-0.121486
0.441861
0.500880
-0.503075
-0.967926
-0.384978
-0.591767
-0.432553
0.636671
-0.074734
0.035923
-0.083282
-0.550584
-0.135721
0.372592
0.435093
-0.201568
0.182082
0.171440
-0.279475
0.481144
-0.325441
0.193988
-0.318061
0.070863
-0.712951
-0.453395
0.316272
0.044774
-0.204285
0.811634
-0.749161
-0.236159
0.456631
-0.052340
-0.130235
0.319737
0.073840
0.604908
-0.733504
-0.438767
-0.386280
-0.547835
-0.150339
0.708201
0.329602
-0.175216
-0.576513
0.121938
-0.576593
0.008501
-0.409101
-0.244098
0.054314
-0.001065
0.163597
0.172734
-0.181967
0.110714
0.728392
0.027309
0.471093
-0.332577
0.689259
-0.110349
0.397662
-0.897906
-0.642672
0.279811
-0.394328
-0.392689
0.555590
0.423157
0.235207
0.229048
-0.285453
-0.110558
-0.341281
-0.439121
-0.420283
-0.098058
0.255413
-0.206547
0.055888
-0.175296
-0.212934
0.175353
0.293297
-0.280320
0.645718
-0.063882
-0.460189
-0.160740
-0.026121
0.192231
0.443769
-0.160620
0.507874
-0.138547
0.074665
-0.537464
-0.120593
0.306954
0.582096
0.194769
-0.344225
-0.076842
-0.475180
0.549758
-0.552793
0.422342
-0.441702
0.034314
-0.312916
0.257813
0.138332
0.095232
-0.465210
-0.235505
0.517556
-0.476345
-0.837162
0.328440
0.252695
0.214043
-0.172197
0.410178
0.716208
0.339497
-0.038708
0.323110
-0.098319
-0.497253
0.044600
0.237631
-0.143890
0.041354
0.167282
-0.251909
-0.255179
0.347372
-0.460416
0.520888
0.081817
-0.407540
0.037380
0.380689
-0.354695
-0.640659
0.134052
-0.016318
0.216251
-0.409187
-0.606252
-1.001369
-0.068875
0.136693
-0.230504
-0.221662
-0.094712
-0.198877
-0.303126
-0.087177
-0.253086
0.185076
-0.001222
-0.288861
0.267619
0.591900
0.524294
-0.125615
0.111193
-0.197264
0.194392
-0.419577
-0.457508
0.615036
0.164941
-0.661537
-0.105463
-1.146619
-0.314481
-0.227148
-1.234961
-0.614253
-0.189429
0.379950
-0.007963
0.260843
0.012931
0.211959
0.145332
-0.477114
0.322854
-0.694776
0.019038
-0.265034
-0.353651
0.456444
-0.709995
0.333159
0.132430
0.157770
0.714862
-0.317987
-0.082108
-0.401664
-0.158444
0.494618
0.214563
-0.418440
-0.590154
-0.488878
0.560555
0.038345
-0.196851
-0.291744
0.351117
-0.386933
-0.116779
0.556065
-0.335165
0.178566
-0.009216
0.033323
-0.890328
0.375939
0.066008
0.027145
0.220751
-0.425492
-0.250575
0.516422
-0.056536
0.553133
0.342859
-0.363663
0.029154
0.624763
0.057723
-0.199772
-0.183464
0.456717
-0.067905
-0.754162
-0.414620
-0.101915
0.146940
0.421331
0.175819
0.002534
0.373500
0.039117
0.402116
-0.022203
-0.152339
0.627885
0.654480
0.011631
-0.175942
0.022090
-0.138817
0.281861
0.055730
-0.656497
-0.002962
-0.314762
0.408965
0.000503
-0.695356
0.131886
0.324582
0.704299
-0.756219
0.274609
0.515938
0.620883
0.068627
-0.053387
-0.325716
-0.077605
-0.511475
0.263736
-0.072017
-0.315274
0.273160
-1.002433
-0.189701
0.193818
0.095519
-0.166877
-0.239722
-0.108967
0.468397
-0.788216
-0.348816
0.591721
0.330675
0.093271
0.353477
0.272899
1.134689
-0.568269
-0.023493
0.335805
0.663080
-0.634463
-0.299966
0.347701
0.133353
0.296449
0.021048
-0.176707
-0.620778
0.129653
0.098386
0.018316
-0.751711
-0.727366
0.617503
-0.365465
0.497655
0.390604
0.602062
-0.072418
-0.153585
-0.031972
0.003745
0.139340
0.064186
0.389229
-0.630049
0.229002
-0.459348
0.226710
0.678870
-0.015232
-0.780867
0.134091
1.123596
-0.555851
-0.008779
0.140500
-0.822983
-0.554881
0.005982
-0.663005
0.350629
0.383003
-0.142344
0.300087
0.467473
0.050503
0.197183
0.102029
-0.270588
-0.036186
0.224405
0.189008
0.455971
-0.132985
0.251121
-0.178670
-0.129197
0.073149
-0.420050
0.068989
0.427099
0.009483
0.059573
0.403706
-0.353662
0.463453
0.711176
-0.793219
0.029399
-0.491082
0.585635
-0.028072
-0.398324
-0.722564
0.175368
0.239779
-0.034040
0.162716
0.182618
-0.056048
0.293583
0.434302
0.564565
-0.504962
0.600657
0.033345
0.003588
-0.206594
0.205344
-0.581693
0.234761
-0.107220
-0.333249
-0.072020
0.101796
0.106296
-0.789141
0.476724
-0.053833
0.225458
0.458097
0.180835
0.548379
-0.028784
-0.218602
0.065190
0.412901
-0.214695
0.442472
0.482389
0.594032
0.220710
-1.062847
-0.745897
0.576323
0.473036
0.033373
-0.526832
-0.104571
-0.043135
0.089696
-0.007015
-0.433566
-0.627616
-0.729935
-0.314115
-0.641861
0.122812
-0.185898
-0.115111
0.403621
-0.325978
0.112784
-0.675905
-0.136114
0.060754
-0.168184
0.236423
-0.115942
-0.037215
-0.335996
0.373996
0.477607
0.066841
1.004314
-0.148044
-1.210038
0.412007
0.134809
-0.398149
0.044276
0.208306
0.320040
-0.333252
0.042582
-0.435472
0.058264
-0.323063
-0.108209
-0.514526
-0.288893
0.319875
0.094280
0.465673
-0.008542
0.764463
0.431826
-0.095789
-0.166457
-0.703380
0.229578
0.139987
-0.511713
-0.026795
-0.036213
0.293191
-0.425166
-0.250282
-0.250820
-0.843729
0.206952
-0.065538
-0.166868
-0.280066
0.200796
0.028307
-0.162951
-0.168695
0.193094
-0.104332
-0.545868
-0.570279
0.474744
0.341030
-0.234731
0.052781
-0.006591
0.392969
-0.499436
0.113832
0.321755
0.463533
-0.217070
0.177647
-0.004301
0.637355
-0.380292
0.433043
0.102915
0.692629
-0.413873
-0.202078
0.596790
0.127227
-0.990016
0.504168
-0.593806
-0.002711
-0.100526
-0.121666
0.549668
0.713900
0.122826
0.634381
1.101433
-0.222843
-0.065337
-0.028787
0.055200
-0.024235
-1.043252
0.439950
0.492823
-0.136546
0.159680
0.528289
-0.131724
-0.827388
-0.512038
-0.102183
-0.518038
-0.183091
0.510248
0.131556
-0.407613
-0.208888
0.874674
-0.090908
-0.579181
-0.447598
-0.075560
-0.485114
0.087338
1.082185
0.037608
0.381544
0.712880
0.017370
-0.142474
-0.140210
0.119791
-0.548327
-0.192342
0.329250
0.467143
-0.422136
-0.113993
0.261573
0.198916
-0.161343
-0.544394
0.228470
-0.057414
0.020202
0.205245
0.102497
0.071430
-0.210489
-0.386768
0.464437
0.368845
0.354857
-0.566302
-0.292089
0.252509
0.832551
0.916872
0.095910
-0.220877
-0.265120
-0.240794
-0.398336
-0.398916
-0.697893
-0.061913
-0.399324
0.241555
0.459684
0.635396
0.979177
-0.072264
-0.130549
0.037705
0.175604
-0.164518
0.213506
0.224086
-0.157125
0.116085
0.485575
0.925914
0.730255
-0.186275
-0.639984
0.158967
-0.038825
0.278699
-0.193725
0.245109
0.541664
0.445443
-0.161009
0.151447
0.535471
-0.009520
-0.482509
-0.150336
0.185966
0.058895
0.310432
-0.786199
-0.336325
-0.251831
0.437565
0.206148
0.064005
0.194899
0.728261
-0.403301
-0.011625
-0.009798
0.634299
0.666726
-0.075472
-0.238179
0.148759
0.261413
0.311183
-0.118481
-0.605833
-0.152953
0.474647
0.248211
0.671906
0.463865
0.189717
0.269180
-0.086815
-0.026393
-0.426698
0.988242
-0.043429
-0.285677
-0.430796
-0.320314
0.201887
-0.080646
0.181612
-0.265615
-0.062602
0.114859
-0.045620
-0.302058
-0.093515
-0.808917
-0.137705
-0.059833
-0.710710
-0.366086
0.198064
-0.136265
-0.315442
-0.841918
0.546383
0.031782
-0.173142
0.278512
-0.197533
-0.273564
0.141769
-0.368693
0.017870
-0.330391
-0.214845
-0.719323
0.264411
-0.595915
0.628335
0.138145
-0.448662
-0.026075
0.219908
-0.030391
0.261818
0.434916
-0.005881
-0.197560
0.358277
0.373324
0.324418
-0.700522
0.266171
0.034189
-0.598185
0.093444
0.353386
-1.022793
-0.430248
0.155591
0.036447
-1.114833
-0.386264
-0.710534
-0.324621
-0.035891
0.995277
0.007953
0.434759
0.565012
0.078909
-0.763477
-0.331135
0.487401
0.286503
-0.730422
-0.019187
-0.065589
-0.553223
-0.421232
0.856631
0.158980
0.007273
1.751554
0.611627
-0.012960
0.592562
0.090309
-0.225908
0.129954
0.226661
0.196627
-0.228397
-0.389244
0.241677
0.830201
-0.248479
0.547107
0.266431
0.131887
0.196276
0.460085
0.789051
0.564394
-0.794945
0.337782
-0.206350
0.142155
0.468766
-0.823344
0.704696
-0.025322
-0.529098
0.605965
-0.127362
-0.305643
0.679815
0.222716
-0.085980
-0.717562
-0.243418
0.081866
0.312720
0.123900
-0.157123
1.166128
0.146777
-0.502130
0.370748
0.599946
-0.561635
-0.002403
0.004626
-0.199180
0.440059
-0.292709
-0.063498
0.203106
0.391268
0.130313
0.553694
-0.260152
-0.783798
0.216573
0.620648
-0.642810
0.373779
-0.091625
0.132723
0.651055
0.184842
0.137033
0.674229
-0.934884
-0.526119
-0.596219
0.144532
0.147986
0.182327
-1.113212
-0.775694
0.322960
-0.019299
-0.372920
-0.125177
-0.004952
0.021738
0.353987
0.312946
0.615681
-0.157208
0.221504
0.104235
0.300790
-0.242849
-0.312294
0.815446
-0.351338
-0.366470
-0.539709
-0.044766
-0.508230
0.688000
0.043044
-0.627017
-0.508325
-0.461294
-0.290191
-0.216011
0.531804
0.251642
0.293794
0.332078
0.748705
-0.180231
0.051522
-0.609572
0.796572
0.207385
0.416820
-0.357421
0.427673
-0.232048
-0.283634
0.047682
0.040191
-0.444136
0.062985
-0.314314
-0.445748
0.545440
-0.232051
-0.383965
0.361004
-0.435794
-0.237885
-0.288950
0.112834
0.544420
-0.408858
-0.108943
-0.085880
0.686949
0.195747
-0.178349
0.170308
-0.022768
0.094856
-0.989999
-0.354060
0.132679
-0.414493
-0.896487
-0.135468
-0.039738
0.242401
0.511078
-0.072318
-0.115290
-0.183971
0.115390
-0.009912
-0.281843
0.157742
-0.142221
-0.303241
0.610019
0.440976
-0.209057
-0.225740
-0.386742
-0.161665
0.500876
0.326381
0.087274
-0.263561
-0.113006
-0.072624
0.365449
0.065506
-0.045278
-0.303427
-0.133902
-0.279861
-0.016447
0.092643
0.701486
-1.184269
-0.324414
0.276026
0.718540
0.106282
-0.904338
0.225477
-0.189822
-0.190532
-0.239088
-0.058893
-0.830945
-0.881815
0.038937
-0.257296
-0.177131
-0.555014
0.084221
-0.337113
0.504045
-0.161612
0.371631
-0.195521
-0.482397
-0.440560
-0.423320
-0.756015
-0.207589
0.054181
-0.113629
-0.355335
-0.193417
0.393779
0.079994
0.236337
-0.324894
0.062314
-0.230543
0.045996
-0.328898
-0.023489
-0.569821
-0.367941
-0.530960
0.199375
-0.606470
-0.432296
0.137961
0.158881
0.018690
-0.693036
-0.751962
-0.283751
-0.657331
-0.583178
-0.771461
0.666017
-0.583697
-0.111893
0.386615
0.699498
-0.008686
-0.834682
-0.008142
-0.253216
-0.047904
0.006711
-0.049080
0.237267
0.431633
-0.255707
-0.095008
0.029719
-0.822564
-0.269760
-0.529201
-0.301457
-0.148466
-0.041043
0.631129
-0.496733
-0.145181
0.301805
-0.447927
-0.295205
0.262279
0.080279
-0.872949
-0.601896
-0.297667
0.309351
0.331261
-0.185667
0.788423
-0.509736
0.310983
-0.106125
-0.221096
0.316899
-0.123211
0.060007
0.249501
-0.203764
-0.201233
0.223354
0.418745
-0.027111
0.379993
0.017138
-0.226286
0.381140
-0.095127
0.713025
-0.408254
0.160771
0.073582
0.633756
-0.477989
0.187581
-0.646363
0.103727
0.672536
0.300604
-0.684725
0.375907
-0.533404
0.326522
-0.663170
0.466437
-0.151707
-0.037305
-0.207749
-0.271313
0.170823
-0.607938
-0.320486
0.395159
-0.480965
-0.298471
-0.043676
-0.134549
0.454318
0.373302
-0.311140
0.689139
-0.515590
0.203155
-0.084660
-0.552192
0.341208
0.439273
0.257818
0.534346
0.443398
-0.095449
-0.644221
0.097861
-0.359043
-0.291080
-0.810691
-0.188743
0.302294
-0.355973
0.053687
-0.191914
-0.432274
-0.247723
0.253837
0.647569
-0.255741
0.150422
0.009743
-0.466379
0.196721
0.202394
-0.244996
0.464159
-0.013856
-1.075005
0.098534
0.145205
-0.176649
-0.450932
0.100635
0.447794
-0.309900
0.397160
0.498081
-0.539013
-0.060140
0.565077
0.235157
0.238689
-0.031545
0.171942
-0.231896
0.328190
-0.153766
0.014699
-0.021653
0.041166
-0.280477
-0.391758
-0.446909
-0.285772
-0.086392
0.544469
-0.453751
0.255462
-0.159944
-0.118248
-0.952979
0.393358
0.498253
-0.054293
0.467596
-0.169654
0.586441
0.642596
0.465340
-0.112651
-0.181152
0.211755
-0.155899
-0.633789
-0.465838
-0.380436
-0.720514
0.503325
0.481140
-0.496492
-0.030326
0.568669
-0.057540
-0.287133
-0.403907
0.288377
-0.238899
-0.006468
-0.355745
-0.159204
0.764191
0.318967
-0.434981
-0.078501
0.238849
-0.080614
-0.123263
-0.107576
0.086685
-0.932321
0.443505
0.028886
1.020156
-0.533440
-0.208005
-0.405039
0.315991
0.474356
-0.451805
-0.657126
-0.236769
0.122849
0.364731
0.532544
-0.331742
-0.127750
0.302257
0.202616
-0.455523
0.138317
0.139639
-0.381260
-1.330136
-0.013814
-0.208354
0.142765
0.356453
0.091050
0.500996
-0.076118
0.219888
0.045346
-0.165137
-0.333374
-0.151579
-0.599633
0.537506
-0.514584
0.475028
-0.321449
-0.104445
0.170901
0.546591
0.125967
0.185097
-0.271378
-0.361100
-0.094056
0.228460
-0.729572
0.328589
0.547097
0.377424
0.423259
-0.142199
-0.227165
0.222091
-0.171393
0.149547
-0.804729
0.165979
0.132227
-0.144826
0.389360
0.267786
-0.750960
-0.229206
-0.300276
-0.248559
0.191268
0.668821
-0.590469
0.522736
-0.348297
-0.014925
0.056243
-0.097438
0.057728
-0.704814
0.670180
0.199813
-0.040297
-0.128624
0.299099
-0.818292
-1.004301
-0.091938
0.151086
0.804955
-0.471249
-0.199754
0.456757
-0.088733
-0.013908
0.116302
-0.376228
0.460768
0.080684
0.418518
0.089878
-0.656559
-0.629648
-0.081388
0.199800
0.069330
0.539918
-0.414091
-0.157053
0.328142
0.152232
-0.048211
-0.252560
0.462573
-0.048788
-0.155041
-0.492116
-0.104496
-0.420101
-0.126626
-0.557853
-0.016645
-0.258790
0.288556
-0.528595
0.665751
0.143925
-0.008683
-0.642663
0.463650
0.053244
-0.104123
-0.271217
-0.168874
0.242452
0.558488
-0.011446
0.476476
-0.535601
-0.690574
-0.240415
-0.288914
0.224981
-0.276561
0.486685
-0.352754
0.455871
0.634276
-0.224112
-0.395934
0.559767
0.343010
0.110018
-0.991404
0.462699
-0.314135
-0.701392
0.499074
0.583359
-0.268736
0.165287
-0.731316
0.446148
0.083824
-1.096321
0.364902
0.208026
0.362057
0.063537
0.130409
-0.267849
0.214019
-0.316123
-0.613093
0.142653
0.239741
0.256405
-0.348382
-0.318234
-0.104836
-0.123466
0.369053
-0.498158
0.426114
0.223213
-0.368784
-0.278337
-0.406960
-0.540593
-0.100309
0.291299
-0.064439
0.189269
-0.950184
0.171662
0.192224
-0.182770
-0.552902
-0.884147
0.445170
-0.031605
-0.123434
0.378830
-0.282344
0.053267
0.598073
-0.526571
0.161538
0.169596
-0.570417
0.701338
-0.063021
-0.572590
-0.106511
-0.244802
-0.095671
0.226207
0.035007
0.648264
-0.370017
-0.718426
0.116515
-0.299796
0.017917
-0.675993
-0.070036
-0.033317
0.133378
0.113367
0.475381
0.087069
0.282595
0.214086
0.214588
0.274994
0.647575
-0.111425
0.688157
-0.163609
0.809160
-0.028449
-0.128470
-0.009940
0.397992
-0.166795
0.094399
-0.089208
0.008824
0.030751
-0.970444
0.073597
-0.098320
-0.270423
0.330634
0.762932
0.419053
-0.434822
0.028012
-0.210078
-0.262911
0.396184
-0.384482
-0.766182
0.129597
0.758703
-0.186123
0.502577
-0.367771
-0.791989
-0.498929
-0.548288
-0.166108
0.173725
0.238894
0.190210
-0.069937
-0.219472
-0.422189
-0.315834
0.144966
0.470492
-0.062269
0.228758
-0.112144
0.612489
-0.543604
0.366289
0.869127
-0.212354
-0.250662
-0.847785
-0.456478
-0.530105
0.104400
-0.264159
0.211985
0.047142
-0.059476
-0.739463
0.007937
-0.225157
0.011933
0.409867
-0.610366
0.003232
-0.074137
-0.161300
-0.171518
-0.730561
0.718942
-0.082719
-0.194315
-0.954459
-0.419379
0.211757
0.768181
1.242621
-0.342348
0.541565
0.099526
0.255586
0.116049
0.159967
-0.421132
-0.231402
0.093482
-0.456440
0.341112
0.459772
-0.187852
0.006779
-0.800463
-0.510959
0.356725
0.192816
0.476087
-0.400233
0.042619
0.354578
0.315034
0.508175
-0.349987
-0.030937
0.410531
0.656381
0.116587
-0.099297
0.452602
-0.229602
0.827218
0.746298
0.292950
0.308035
-0.278774
-0.255027
-0.016144
0.658256
-0.076683
-0.142224
0.185871
0.325544
-0.436491
0.036462
0.439371
-0.230169
-0.262254
-0.170059
-0.156418
0.256450
-0.587456
-0.364841
0.060121
-0.009445
0.074532
0.317502
0.140208
-0.130606
0.218809
0.520878
-0.072327
-0.271489
0.267274
0.387024
-0.108502
0.171921
0.316600
0.429852
-0.442753
0.533970
0.156042
-0.667584
-0.560570
0.332394
-0.386437
0.540183
-0.058076
0.595811
0.011423
-0.417533
-0.229022
0.362767
-0.754270
-0.677148
0.858703
0.176723
-0.401957
0.644847
0.053821
0.232254
-0.064091
0.120381
0.355148
0.094485
0.269568
-0.490673
0.369953
-0.199000
0.293644
0.173709
-0.446047
0.248557
0.095918
-0.533501
0.202630
-0.112128
0.329284
0.126723
0.325486
0.401379
-0.011004
0.051359
-0.480137
-0.056102
-0.266565
-0.287552
-0.105541
-0.124893
0.125839
0.104149
-0.637871
0.206480
0.334446
0.194628
0.073637
1.025723
-0.463497
0.649957
0.544897
0.218067
0.223611
-0.138341
-0.164346
-0.522512
-0.084058
-0.436244
0.007002
-0.048052
-0.202858
0.027397
-0.256345
-0.175216
-0.079104
-0.378815
0.166946
-0.316212
-0.577404
-0.293006
-0.148544
-0.471121
-0.585236
-0.159491
-0.487315
0.650721
-0.441192
0.659331
-0.132760
-0.128193
0.328888
-0.641450
-0.455600
-0.417316
0.289003
-0.527673
-0.369788
0.569076
0.253747
-0.176737
0.059329
0.768728
-0.101253
-0.313354
-0.732252
-0.233760
0.361840
0.222187
0.211293
0.274374
-0.625856
-0.193514
0.284559
-0.174285
0.305387
-0.493193
0.594520
-0.264946
-0.360363
-0.146293
0.460116
-0.296504
-0.163849
-0.318541
0.232756
0.086018
-0.714043
-0.348489
-0.935018
0.608242
-0.115037
0.470997
-0.104034
-0.809939
0.328014
0.230577
-0.723992
0.035895
-1.049682
-0.752213
0.710139
-0.596881
0.367691
0.453374
-0.046937
-0.612829
-0.428024
0.236151
-0.576841
-0.131526
-0.628657
0.106673
-0.074029
0.267623
-0.294055
-0.627132
-0.652365
0.078357
0.473350
-0.626478
-0.200625
0.390370
0.186284
-0.387395
-0.129975
0.033797
-0.378365
0.138776
0.109712
0.561164
0.069980
0.545721
0.420836
-0.330646
-0.281207
0.561002
0.259495
-0.901167
0.324646
0.192079
0.492886
-0.238102
0.459640
0.604054
-0.436244
-0.188305
0.235103
0.196262
-0.156666
0.398844
-0.670300
-0.003170
0.297662
0.669858
0.594365
-0.781158
-0.723352
-0.598461
-0.082374
0.006620
0.629043
0.232153
-0.551662
-0.331108
-0.242286
0.245280
-0.013185
-0.032260
-0.316788
-0.019959
0.368690
-0.466867
-0.577922
-0.330959
-0.210362
-0.153653
0.572469
0.504930
0.210176
0.484090
0.461275
-0.244573
0.489891
-0.426537
-0.262031
0.456254
0.066886
-0.132151
-0.092483
-0.288634
0.153962
0.785162
0.358283
-0.343449
0.076397
-0.242991
0.230752
-0.126648
-0.391324
-0.360797
-0.053916
-0.584959
-0.042658
0.028376
-0.259883
0.467699
0.417520
-0.368278
-0.065445
0.123172
-0.390169
-0.092472
0.162071
-0.038469
0.413303
-0.222426
-0.365126
-0.314448
0.146028
-0.800471
0.740444
-0.266055
0.065473
0.161780
-0.008837
-0.000244
-0.155066
0.254187
-0.495303
0.265330
0.144467
-0.401707
0.059144
0.240538
0.206269
0.088447
-0.412188
0.297330
0.470234
0.800221
0.329836
0.341378
0.185384
-0.550532
-0.408750
0.263093
-0.330461
-0.318820
-0.513595
0.240721
0.650491
0.720633
-0.139498
0.439867
0.268557
0.162244
0.657097
0.141150
-0.308734
-0.469573
0.590480
0.219767
0.566150
0.079524
0.026460
0.387441
1.052248
0.574572
0.030509
0.279778
-0.258405
0.079355
-0.065805
-0.490830
0.121639
0.296999
0.328672
-0.175850
-0.209624
-0.036116
-0.286961
0.021056
-0.206845
0.516206
-0.363900
0.330844
0.205989
0.402360
-0.279339
0.103540
-0.795737
0.495536
-0.595406
-0.738402
-0.075188
0.386680
0.007674
-0.220020
-0.484705
-0.133204
-0.260436
0.360010
0.161800
-0.390195
-0.366810
0.357817
0.632972
-0.047501
0.803964
-0.183490
0.087995
0.328720
0.458020
-0.181650
0.176564
-1.017268
0.049491
-0.608038
0.595708
0.689143
0.448789
-0.058487
0.205382
-0.374227
0.730131
0.676085
0.752008
0.274861
0.559914
0.084078
0.010620
1.133927
-0.743949
-0.241124
-0.043577
0.317164
0.175808
0.526167
0.679016
0.001630
-0.217257
-0.407740
0.333238
0.361753
-0.060147
-0.028924
-0.257590
-0.584100
-0.027218
0.707349
-0.461455
0.219271
0.856423
0.171844
-0.462449
0.163578
-0.367388
0.014230
-0.074393
-0.106472
0.197678
0.184641
0.408969
0.163176
-0.530110
-0.273623
-0.280930
-0.129865
-0.397203
-0.404615
0.008917
0.435598
-0.356811
-0.761951
0.201601
0.099475
-0.011703
0.305515
-0.069092
0.551499
-0.375787
-0.535065
0.032843
0.106401
0.114587
0.272915
-0.798704
-0.376493
0.422790
-0.258971
0.549841
0.006038
0.456865
-0.349029
0.891904
-0.202940
0.208670
0.290888
0.020205
-0.162905
0.151098
-0.234969
-0.335258
-0.037679
0.152624
0.093836
0.214523
-0.147409
-0.894259
0.367831
-0.144775
0.245566
0.573546
-0.673408
0.226047
-0.264789
-0.097959
0.665242
0.110213
-0.117128
0.852570
-0.040808
0.136718
0.213152
-0.304303
-0.210670
0.346761
0.215854
0.094543
0.094047
0.285009
-0.135549
-0.070597
-0.091605
-0.084151
-0.611580
0.583588
0.137498
-0.587999
-0.195792
-0.425346
0.866417
0.314250
0.527547
-0.200576
-0.373243
-0.539812
-0.501620
0.158106
-0.513663
0.040808
0.301405
-0.618647
0.011260
0.390208
0.776561
0.024998
-0.197230
0.850282
-0.462544
0.071326
-0.506459
0.210695
0.573387
-0.024250
0.099842
-0.191600
0.340114
-0.250306
0.655600
-0.557607
-0.280946
-0.217551
0.371056
-0.100259
0.077272
-0.268567
-0.910655
-0.159073
0.273818
-0.081032
-0.150452
0.038430
0.158581
0.015881
0.260302
0.640835
0.624680
0.293877
-0.601651
-0.109397
0.245271
-0.656543
0.047418
-0.323469
-0.084064
0.047323
0.233399
-0.568737
-0.085959
-0.375927
-0.804358
1.105875
0.115977
-0.323773
0.639061
0.256567
-0.026254
-0.231955
-0.723160
-0.325749
-0.452133
0.116302
-0.322881
-0.383708
0.724375
0.303747
-0.043914
0.125789
-0.052882
-0.080672
-0.256109
-0.558212
-0.443239
0.280972
0.517027
-0.006541
0.518638
0.168336
-0.405615
0.369931
-0.422644
-0.556705
-0.116306
0.216011
-0.256369
-0.421663
0.341745
-0.148955
0.100660
0.043962
-0.292917
-0.640792
0.503778
0.339434
-0.247020
0.225475
-0.306222
-0.256474
-0.651769
-0.332871
-0.023171
-0.510432
0.460236
0.329424
0.402322
-0.085678
0.868848
-0.034845
0.255671
-0.516739
-0.583686
-0.140415
1.013079
0.266590
-0.191059
-0.413056
-0.713655
0.097667
0.330704
-0.783400
0.149679
-0.474469
-0.481952
-0.543314
-0.183813
0.430468
-0.157765
-0.351133
0.236588
-0.365350
0.846615
-0.067850
0.368610
0.100069
-0.198068
0.280142
-0.136887
0.112261
-0.291316
-0.389936
-0.085054
-0.395870
0.052895
-0.305382
0.488051
0.076313
-0.232030
0.013226
0.351967
0.378279
-0.053720
-0.226039
-0.262573
-0.421110
0.356199
-0.141372
-0.147211
0.099162
0.570410
-0.466764
0.809178
0.316402
-0.429957
0.412946
0.280335
0.123011
-0.148861
0.673429
0.301094
-0.737778
-0.343135
-0.399592
0.505953
-0.640305
-0.734181
0.070580
0.147500
-0.762565
0.137295
-0.449574
0.405838
0.587943
0.161595
0.078615
-0.700497
0.393671
0.047266
-0.912077
-0.126939
-0.163670
0.243700
-0.073927
0.348398
-0.556935
0.059213
-1.159279
-0.167008
0.030653
-0.427940
0.571392
-0.532379
-0.394020
0.705142
0.518410
-0.371129
-0.213943
-0.114034
0.398425
-0.071859
0.152672
0.410396
-0.095453
0.367529
0.049602
0.047917
0.351943
-0.701489
-0.286471
-0.248201
-0.270634
-0.005886
0.609421
0.151675
0.285122
0.402155
-0.694922
0.503452
1.113263
-0.088567
-0.103531
0.263955
0.904434
-0.280122
-0.270511
-0.441399
0.353348
0.154328
-0.387820
0.129883
1.505730
-0.433073
0.336353
-0.843477
0.661280
0.372086
0.155004
-0.509662
0.065787
-0.038367
-0.494822
0.323122
0.162818
0.100025
-0.099133
0.398590
-0.051520
0.312044
0.500581
0.306428
-0.252856
0.163273
0.851912
-0.209036
-0.781159
-0.541869
-0.791977
0.054363
0.467029
0.110973
0.397019
-0.099631
-0.256772
0.290632
0.147143
-0.556482
-0.423460
-0.218118
-0.360900
0.019459
-0.594784
-0.281534
-0.114252
-0.017123
-0.642597
0.453551
-0.376932
-0.953708
0.583535
-0.359823
0.258083
0.098983
0.684012
0.372770
-0.376907
-0.430510
0.084319
0.891349
-0.524216
0.092690
-0.030564
0.643852
0.366027
0.081933
0.009916
-0.069651
0.183144
0.171140
-0.926072
-0.435965
0.412155
0.348083
-0.671218
-0.199261
-0.138212
-0.856908
-0.055087
-0.231064
-0.075557
-0.300810
-0.159659
-0.080549
-0.173189
-0.262883
-0.310825
0.747257
-0.097108
0.488714
-0.181238
-0.830325
-0.749017
0.250242
-0.179881
-0.404157
0.655148
-0.408783
-0.057342
0.553941
-0.125141
-0.095737
-0.288648
0.014246
0.027435
0.201245
-0.176359
-0.047069
-0.254084
0.539171
-0.062513
0.077916
0.096296
-0.367564
0.280746
-0.060127
0.196641
-0.437195
-0.302613
0.503790
-0.398340
-0.613161
0.154992
0.049912
-0.174330
0.171807
0.438955
0.335565
0.115972
0.161880
-0.340124
-0.122349
0.548880
-0.078634
0.283894
0.192031
0.532392
-0.035533
-0.417274
0.128762
-0.393374
0.877341
-0.275263
0.535595
0.158761
0.101409
0.075670
0.157164
0.135087
-0.802548
0.077105
-0.747955
0.028052
0.132250
0.649831
-0.299545
-0.182664
-0.151276
0.128775
-0.080370
-0.539294
-0.658974
0.097568
0.145127
-0.304350
-0.030378
-0.106560
-0.355811
0.372095
-0.034292
0.548693
-0.431912
0.411032
0.000938
0.688983
0.344564
0.606316
-0.453257
-0.606545
0.376198
-0.584130
0.566370
0.358102
0.302624
0.218020
-0.165724
0.185316
0.199967
-0.439799
0.557168
0.014539
-0.316456
-0.138113
0.104987
-0.273483
0.299611
0.114412
0.304904
0.050992
-0.146693
-0.166521
0.060947
-0.912029
0.069489
0.131685
-0.220435
-0.063555
-0.454724
-0.137806
-0.273745
0.131668
0.099423
0.530737
0.217243
-0.319766
0.459467
-0.028957
-0.125029
-0.095198
-0.342716
0.022505
0.052366
0.425897
-0.039007
0.001603
0.363117
-0.181479
-0.346300
-0.400300
0.703351
-0.210698
0.064095
-0.017921
-0.284511
0.485034
-0.006952
-0.088873
-0.154647
0.008920
-0.532812
-0.280857
0.475657
0.187411
-0.284451
-0.317689
0.622883
-0.588727
-0.273568
0.033893
0.383787
0.181927
-0.651814
0.108603
0.053822
0.383992
-0.308931
0.357191
0.258068
0.204243
0.102354
0.243303
0.242044
-0.588215
-0.340176
0.498709
-0.100830
0.048670
0.373671
0.021242
-0.347232
-0.206617
0.015035
0.233836
0.188961
-0.087524
-0.457972
-0.038468
-0.533742
0.495030
0.080063
0.673901
0.350661
-0.261761
-0.291811
-0.040719
0.107141
0.274636
-0.153434
0.532136
0.399699
0.293000
0.392265
-0.355658
-0.229010
0.621604
-0.090400
-0.253159
-0.060124
-0.617499
0.018110
-0.101869
-0.811090
0.240468
-0.376048
0.152470
-0.163124
-0.018961
0.385586
-0.201806
-0.220664
-0.457572
0.268442
-0.014762
-0.109992
0.474999
0.002185
-0.200213
0.427005
-0.214773
0.431246
0.227325
0.249675
0.425044
-0.102498
-0.360103
0.018381
0.691919
-0.253656
-0.110449
-0.413377
0.293714
-0.044352
0.046972
0.448908
-0.042024
-0.164149
-0.239003
-0.488747
-0.195301
-0.307939
0.231025
-0.006359
0.421043
-0.316230
-0.311401
-0.384126
-0.410001
-0.477101
-0.349553
-0.381285
0.251138
0.682998
0.005348
0.165394
-0.339442
-0.348448
-0.203036
0.686210
0.420368
0.076914
0.748220
0.568761
0.619204
0.167862
0.426656
-0.410702
-0.139565
-0.070288
-0.725315
-0.453659
0.150137
-0.402106
-0.040019
0.105618
0.560350
-0.423679
0.386571
0.095869
-0.186862
0.001422
-0.452655
-0.140682
-0.399157
-0.267718
0.332368
-0.129762
-0.256502
0.006083
-0.168929
0.108371
0.100704
-0.475858
-0.339266
0.375148
0.105886
-0.469705
-0.733684
0.132497
-0.174988
0.285237
0.187630
-0.205368
0.472464
-0.381092
0.964735
0.105533
0.199303
0.204073
-0.002851
0.704752
0.187407
-0.559710
-0.926177
-0.149283
-0.573562
-0.063997
-0.264742
-0.615884
0.043876
0.722987
0.331312
-0.479085
-0.728700
-0.141893
0.397625
-0.082675
-0.701468
0.425720
0.175898
0.041571
-0.345115
0.433779
-0.278253
-0.415822
-0.101841
-0.543132
0.363435
0.309990
0.092714
0.150931
-0.486216
0.009058
-0.286599
-0.693007
0.163485
0.545373
0.515784
0.012588
-0.093658
0.572259
0.326524
-0.202180
-0.550334
-0.213266
-0.093300
-0.062099
-0.136413
-0.043269
0.915652
-0.112426
0.366665
-0.081397
-0.217403
0.403638
0.552696
-0.004760
0.294378
0.483685
0.552095
-0.251757
-0.217961
-0.363259
0.016778
0.171410
0.606137
-0.549033
-0.231101
0.991930
-0.280047
0.063491
0.258534
-0.012736
0.539127
0.089603
0.025124
0.441345
0.029501
-0.514852
-0.832442
-0.638514
0.243148
0.281210
0.208223
0.356433
-0.087307
-0.564003
-0.208364
0.278692
-0.170830
0.792260
0.434844
0.069267
0.972484
-0.126302
-0.316024
0.464251
-0.121877
-0.116213
0.231431
-0.221523
-0.389157
0.467994
-0.652624
0.002092
0.889203
0.894731
-0.328534
-0.010442
-0.144915
-0.312036
-0.228925
0.234690
-0.040801
-0.055035
-0.374198
-0.169882
0.209433
-0.697542
0.197940
0.178651
0.095477
-0.227370
-0.229276
0.018580
-0.188158
-0.245535
-0.690473
0.007479
-0.122398
-0.488690
-0.057288
0.026142
0.216015
-0.014489
-0.034393
0.926638
0.353669
-0.356021
0.025191
0.401920
-0.847355
0.253558
-0.242769
-0.631757
-0.834686
-1.205027
-0.280535
-0.957545
0.628234
-0.616960
0.300010
-0.393372
0.376810
-0.668849
0.338612
-0.692895
0.239283
0.026372
-0.050204
0.176922
0.101574
0.203854
-0.151549
0.262469
0.166672
0.056247
-1.038527
-0.210493
0.119097
0.599260
0.020481
-0.085934
-0.206942
-0.441652
0.345652
-0.513851
0.168797
0.441719
-0.240058
-0.446000
0.057914
-0.400949
0.269124
0.538256
0.518227
-0.277147
-0.443962
-0.152149
-0.554988
-0.210739
0.276864
0.035209
-0.318495
-0.189089
0.309093
0.640005
0.175098
-0.184964
-0.614549
-0.124330
-0.134487
0.884002
0.187776
-0.129087
-0.018179
0.115482
0.327781
0.000241
-0.019166
0.031799
0.662315
0.652084
0.191550
-0.627934
0.314966
-0.111429
0.446776
0.366279
-0.218722
-0.710465
0.370539
-0.444703
0.426688
0.085971
-0.225977
0.340481
-0.006490
0.570380
0.538114
-0.498240
-0.966135
-0.116552
0.807973
0.021309
-0.118179
0.125551
-0.455975
-0.161473
0.315591
-0.305304
-0.114905
0.428557
-0.347328
-0.760959
0.220058
1.143867
0.476426
0.343087
-0.107828
0.647978
0.240061
-0.275284
0.150162
0.503086
0.672855
0.053296
0.200926
-0.000520
0.245195
0.056227
-0.378540
-0.186272
0.617546
-0.150084
-0.554654
-0.140492
0.559074
-0.838752
-0.033216
0.506215
-0.417150
0.490437
-0.148203
-0.633889
-0.456652
-0.293708
-0.076273
-0.706448
0.182123
-0.120542
-0.536438
0.498375
0.613755
-0.579904
0.100212
-0.172835
-0.097691
-0.149746
0.687555
-0.194035
-0.608979
0.297269
0.179700
-0.551318
-0.420637
0.081715
-0.140610
-0.007545
-0.189372
0.142042
-0.844965
-0.471061
0.068724
-0.221551
-0.008953
-0.304332
0.145688
-0.538595
0.245452
0.229210
-0.470949
-0.271483
-0.530130
-0.169027
-0.185869
-0.452969
-0.267054
0.296890
-0.633151
-0.097357
-0.471071
0.205398
0.762672
-0.392003
-0.220569
-0.417494
0.097170
-0.470321
0.206702
-0.210516
0.172185
0.435411
-0.132104
0.204508
0.442402
0.225000
-0.410084
0.440931
0.233671
-0.145363
0.406788
0.686722
0.152093
-0.126706
-0.050816
0.161097
-0.184206
-0.172857
-0.473267
0.052543
0.443357
0.399336
0.295684
0.120684
0.391675
-0.224206
-0.502224
0.028718
0.372721
0.525751
0.374799
-0.106183
-0.624219
0.295705
1.184177
-0.237112
0.193331
-0.804312
0.510181
-0.026929
-0.116306
-0.246970
0.287160
0.055729
-0.639529
-0.786254
0.331399
-0.163125
0.453642
-0.018414
0.600247
0.504587
0.280239
-0.081610
0.076112
-0.267389
0.070945
-0.103759
-0.920186
-0.497215
-0.392771
-0.205487
-0.003073
0.318956
-0.297484
-0.314994
0.234107
0.347480
0.003332
-0.808688
-0.302418
0.557830
0.196303
0.048505
0.021154
-0.600828
-0.073733
-0.234471
-0.687786
-0.759512
-0.226034
0.188615
1.170442
0.034833
-0.246416
0.642404
0.196062
-0.718608
-0.652449
0.158253
0.083174
-0.073283
0.567470
0.346722
0.665801
0.217754
-0.072873
-0.092262
-0.162333
0.125546
0.394309
-0.208044
-0.401124
0.149391
-0.492786
0.248963
0.560593
-0.431015
-0.282109
1.085184
0.837155
0.801012
0.164000
-0.696615
-0.083150
-0.003062
-0.039757
-0.223176
0.014112
0.177701
-0.454522
-0.725854
-0.231908
-0.217770
0.670064
-0.423084
0.381372
-0.156241
0.035454
-0.485676
0.201638
-0.240068
0.478659
0.025069
0.333126
-0.328622
0.189695
0.336481
0.062080
0.613447
0.173545
0.294387
-0.237112
0.593690
-0.494649
0.532106
0.275036
0.388503
-0.265899
-0.688227
0.502744
-0.130740
-0.204091
0.589774
-0.649092
0.056174
-0.352873
0.153449
0.043339
-0.465798
-0.441501
0.453884
0.010334
0.277375
-0.083101
0.069892
-0.074867
-0.193548
-0.268174
-0.956748
0.184141
0.068449
-0.129464
-0.055117
-0.255714
0.087347
0.558455
-0.188047
-0.173184
-0.631689
-0.383543
0.561639
0.426128
-0.331915
0.441457
0.259513
-1.205681
0.023502
-0.036095
0.053492
0.051829
-0.411654
0.153855
-0.295292
-0.463275
-0.508514
-0.747673
0.351700
0.002652
-0.020468
0.689129
-0.306619
-0.265940
-0.745440
0.877999
-0.104388
0.021860
0.026201
0.268490
-0.107731
0.360419
-0.511191
-0.484038
0.270217
-0.353985
-0.010601
0.612439
-0.001880
-0.341020
0.050257
0.685312
-0.078059
-0.152117
0.117576
-0.111839
-0.160404
-0.693825
-0.709552
0.037023
0.427168
-0.045819
0.171419
-0.935713
-0.539251
0.098144
-0.238783
0.329489
1.097172
-0.390736
0.201740
0.712004
0.687106
0.244944
-0.583069
0.480821
0.096052
0.159512
-0.504368
1.223328
0.000911
-0.100084
-0.201798
0.409909
0.164758
0.126209
0.156614
-0.329263
0.369194
-0.296779
-0.252774
-0.086600
-0.124082
0.284933
0.658346
0.126176
1.007657
-0.211363
0.438066
-0.095519
-0.811290
-0.061030
-0.349625
0.025964
-0.086699
0.082147
0.483946
0.276340
0.015309
0.196848
0.554832
0.357060
-0.192939
-0.124492
-0.207956
-0.480733
0.661338
-0.445307
0.375693
-0.910459
0.712245
0.164094
-0.149456
-0.241853
-0.416351
-0.126067
-0.555708
-0.008713
0.169600
-0.563381
0.058786
0.096536
-0.128390
-0.082910
0.595855
-0.473090
-0.893688
-0.353424
0.013230
-0.423229
-0.128639
-0.533717
-0.340576
0.442136
-1.003487
-0.093310
0.099042
-0.274527
0.527664
0.635214
0.352551
0.500689
-0.225397
0.192836
-0.339601
0.531681
-0.011056
-0.510197
-0.166198
0.094448
0.448847
0.114809
0.108355
-0.311757
0.330281
-0.074579
-0.781640
-0.072629
-0.203749
-0.649173
-0.173097
0.633247
0.083592
0.158014
-0.682072
-0.042067
0.049814
-0.002597
-0.404652
0.606490
0.035444
-0.015650
-0.244461
-0.008005
0.387329
0.284821
0.391509
0.611335
-0.213727
-0.141996
0.846725
-0.015085
0.366980
-0.374743
-0.074318
-0.133103
0.641347
-0.110990
0.194567
-0.019988
0.136408
0.133063
0.490401
0.007908
0.633254
-0.287946
0.269486
0.072228
0.104774
-0.306223
0.421359
-0.407066
-0.358643
-0.223975
0.321728
-0.306801
0.191661
-0.175671
-0.308997
0.116194
-0.171592
-0.431851
-0.485891
-0.107354
0.123987
0.367391
-0.181535
0.293619
0.235953
0.235957
0.373973
-0.670050
-0.192221
-0.141824
0.052562
0.945194
-0.050214
-0.640411
0.132429
0.642772
0.420523
0.455678
0.661207
-0.213684
-0.701029
0.099578
-0.727904
0.442131
1.008671
0.828844
0.029205
0.475020
0.391976
0.504302
-0.369893
0.381239
0.068229
-0.361077
-0.150248
0.263093
0.307174
-0.289460
-0.203986
0.291083
-0.024543
-0.044924
0.539747
-0.495323
-0.175858
-0.090686
0.766215
-0.417450
0.223314
-0.001947
0.014824
0.465209
-0.282052
-0.079654
0.295814
0.245703
0.181784
0.095183
0.084264
0.333786
-0.428822
-0.506659
0.504765
-0.778275
0.525978
0.734385
0.360214
0.386601
-0.819198
0.045473
-0.256339
0.860553
-0.197669
-0.345546
-0.784538
0.552157
0.210753
0.289050
0.724113
-0.336508
-0.426539
-1.061340
-0.400013
-0.067309
0.242510
-0.077304
0.264561
-0.171138
0.331166
0.536146
-0.253532
-0.140882
-0.024419
-0.396330
-0.214319
-0.350293
0.030836
-0.853052
-0.503052
0.664925
0.107866
-0.142104
-0.174601
0.122487
-0.235309
0.279734
-0.266616
0.530367
-0.153110
-0.095231
0.080852
0.308792
-0.394978
-0.185150
-0.560837
0.260712
-0.196034
0.076153
-0.108268
0.563907
0.069901
0.319470
-0.534290
0.117059
1.018946
0.329252
-0.366175
-0.753956
-0.434144
-0.161049
-0.140516
-0.363409
0.078756
0.192274
-0.258347
0.358247
-0.421763
0.124515
-0.357755
0.809939
-0.368258
0.101194
-0.011727
0.787187
0.120658
-0.043721
-0.571510
-0.334414
-0.382855
-0.255728
-0.018298
0.467727
0.171736
-0.162921
0.322244
0.583388
-0.366379
-0.551062
0.139643
0.064658
-0.177471
0.622638
0.190123
-0.575140
0.661227
-0.104252
0.581769
0.019979
-0.455659
0.062072
-0.140548
-0.023774
-0.667687
0.575944
0.469843
0.369806
0.685652
1.022914
0.093207
0.728376
1.069687
-0.484799
0.047315
0.137099
0.227763
0.215869
-0.150500
0.386104
0.282648
-0.165710
0.337142
-0.753156
-0.460256
-0.529782
0.840919
0.276286
0.397849
-0.486101
-0.002927
-0.217810
0.002526
0.245499
-0.159587
0.391314
0.234744
-0.141147
-0.157039
0.665563
0.553327
0.070394
0.022217
0.285536
0.530406
0.063087
-0.135964
-0.019287
-0.215880
0.133268
0.245750
0.213065
0.025498
-0.025595
-0.167263
0.132918
0.006142
1.019572
0.879462
0.455066
-0.290823
-0.347712
-0.286595
0.089959
0.020953
0.853065
0.107545
-0.913980
-0.719116
0.314696
0.037005
-0.822375
-0.640653
-0.216972
-0.014152
0.041925
-0.592716
-0.189615
0.098354
-0.270395
-0.061600
-0.234031
-0.112187
0.039811
-0.294097
0.169758
-0.282449
0.538789
0.024388
0.110467
-0.068558
-0.091165
-0.329761
-0.177544
-0.071561
-0.607964
-0.457809
0.345048
0.167278
-0.228130
-0.128816
0.171087
0.152458
-0.456935
0.379078
-0.393797
-0.717857
-0.597136
-0.317760
-0.562818
-0.576307
0.729275
-0.242288
-0.469415
-0.209556
-0.449732
-0.124365
0.124526
0.800505
0.402230
-0.058030
0.425443
-0.151938
-0.301202
0.359150
0.305453
-0.417583
-0.254041
-0.738411
0.175338
-0.033215
-0.371181
-0.392277
0.197535
-0.433932
-0.669048
-0.019739
-0.275714
0.121187
0.259683
0.408324
0.289973
0.172353
-0.607025
0.013058
-0.133220
-0.711446
0.087446
0.505172
-0.201226
0.020055
0.023856
-0.677492
0.502840
0.492632
-0.283509
-0.095644
-0.058403
0.408570
0.097583
-0.728895
-0.392533
0.157379
-0.920234
0.330699
-0.319767
-0.015698
-0.408629
0.625892
0.288042
-0.211331
-1.013057
0.094583
-0.271398
-0.644035
0.739819
-0.237135
-0.096464
-0.399330
0.351555
-0.838292
-0.114899
-0.060143
0.328791
-0.128726
0.153076
0.477916
0.521951
-0.020702
0.585399
0.037828
-0.417503
-0.020318
0.365542
-0.968063
-0.407466
-0.135682
0.170889
0.470143
-0.112054
-0.372652
0.486161
-0.121896
-0.547125
0.132977
-0.649862
-0.559784
0.692949
0.442838
0.258734
-0.455800
-0.209581
0.265642
-0.110102
0.386775
0.491181
0.367601
0.649708
0.237268
-0.100859
-0.065609
-0.160510
-0.068385
0.438414
-0.037036
0.034704
-0.425667
0.459579
0.290393
-0.330407
-0.386396
-0.351562
0.602156
-0.271026
0.385320
-0.259410
-0.795946
1.157315
-0.162216
-0.018312
0.221225
0.740928
0.516791
-0.509578
0.470424
0.154542
-0.205587
0.424661
-0.858428
-0.435903
0.319451
-0.145131
-0.356445
0.287199
-0.125689
0.327613
0.571138
-0.943362
-0.187094
0.238206
0.509551
-0.673148
-0.236191
-0.247676
0.319162
-0.659374
0.505056
0.019909
-0.273500
-0.298266
-0.698896
0.078508
-0.138549
-0.350719
-0.812604
-0.732570
-0.553691
-0.090350
0.171634
-0.210114
-0.271461
-0.262266
0.006537
0.288829
-0.000921
-0.334446
-0.718249
-0.486628
-0.514245
-0.541939
0.030345
0.544869
0.189202
-0.009860
0.326889
0.904099
0.420559
-0.374715
-0.388367
0.359623
-0.070677
-0.404674
-0.589987
0.218986
0.585986
0.058709
0.155106
-0.721375
0.343375
0.675145
-0.782001
-0.035051
-0.721875
-0.240660
0.221721
0.186638
-0.319125
-0.379577
-0.150703
-0.405002
0.200841
0.359866
0.273637
-0.296976
0.573349
0.219012
-0.476599
0.506562
-0.298392
-0.102840
0.207836
-0.952497
0.164003
-0.160728
0.437192
-0.080821
0.052171
-0.321261
-0.711037
-0.350665
-0.127813
0.239075
0.415350
0.648903
0.193556
0.300546
-0.504740
-0.247243
0.087180
0.096281
0.055082
0.134491
0.044338
-0.113030
0.213039
-0.305846
0.348224
-0.228048
0.633919
0.017446
-0.638025
-0.003635
-0.021034
0.194436
-0.571023
-0.272611
0.111749
-0.063851
0.060187
0.272012
-0.297803
-0.286577
0.543239
-0.095026
0.475224
-0.120849
-0.523174
0.291593
0.959332
-0.608456
-0.092003
0.360246
-0.795348
0.855715
-0.106173
-0.024225
0.212659
0.730738
-0.601477
0.006222
0.164636
-0.018162
0.537582
-0.494290
0.245256
-0.044792
-0.253154
-0.579306
0.187866
0.406054
-0.293291
-0.195110
0.950261
0.277830
0.273827
0.606485
0.587188
0.104603
0.375609
0.606061
-0.500181
-0.485661
0.344665
-0.070179
0.190440
-0.080170
0.168067
0.225784
0.354891
0.300004
0.323401
-0.100643
-0.598909
-0.917675
-0.039697
-0.231951
-0.116282
0.061643
0.499662
-0.821200
-0.633248
0.412394
0.007272
1.091734
-0.255719
-0.292581
-0.211872
0.265627
0.134325
-0.887816
-0.210093
-0.465912
0.558961
0.055850
0.228008
-0.153117
0.040960
-0.227821
1.039432
-0.176430
0.417143
-0.128218
-0.713467
0.311153
0.363868
0.068428
0.213064
-0.048057
-0.383744
-0.493423
-0.728793
0.345662
0.357658
-0.016889
-0.314591
0.593758
0.206596
0.746469
0.467740
0.565928
-0.158073
0.133248
-0.645406
-0.003219
-0.094973
-0.271521
-0.091454
-0.570523
-0.067492
-0.111678
-0.835532
0.145277
-0.505498
-0.308420
-0.672452
-0.104632
0.428304
0.549448
-0.273971
0.465252
-0.514752
-0.029542
-0.312040
-0.134469
-0.427469
0.538630
0.399339
0.132923
-0.494122
0.174737
-0.590027
-1.211204
0.707375
-0.228686
0.272126
0.689718
-0.540646
0.020281
0.654647
0.015216
0.340996
0.196155
0.139509
-0.446621
0.365721
-0.403285
-0.003034
-0.151826
0.913314
-0.636130
-0.074848
0.127912
0.258454
-0.036498
0.023511
-0.151181
0.474682
0.253039
0.463974
-0.770091
0.059251
-0.361953
-0.155314
-0.226781
0.148119
-0.173726
-0.652200
-0.355417
0.222439
0.203378
-0.130646
-0.820239
0.181923
-0.732762
-0.348328
0.246603
-0.358490
-0.068005
0.491493
-0.014923
-0.065299
-0.115389
-0.570991
-0.492221
1.049469
-0.087414
-0.361322
0.049523
0.634835
0.171685
-0.322001
-0.094746
-0.281744
0.083041
0.723401
0.654402
-0.316888
-0.048347
0.106746
0.267522
0.506460
0.757352
-0.628840
-0.318981
0.125488
-0.243725
0.306521
-0.455590
-0.252911
-0.355636
-0.272994
0.113928
0.321259
0.200341
-0.347001
1.126589
0.130426
-0.083413
-0.662667
-0.109793
0.387718
-0.113961
0.403073
0.186629
0.298338
0.475183
0.196225
-0.571077
-0.025736
-1.038795
-0.221969
0.184147
0.607555
-0.762981
-0.388051
-0.345433
1.001838
-0.564909
-0.551864
-0.181488
0.287452
-0.461839
-0.022913
-0.091560
-0.039213
-0.232946
-0.286782
-0.039331
0.014003
0.020880
-0.191554
-0.586250
0.246474
0.727229
-0.071123
-0.573790
-0.142500
0.185561
-0.145008
-0.214474
-0.044034
-0.144829
-0.026570
1.613338
-0.269438
0.385133
0.414747
0.134657
0.210035
-0.419140
0.442921
-0.116668
0.818429
0.228704
-0.731393
-0.134786
0.641858
-0.260367
-0.003838
-0.652115
-0.203194
-0.607579
0.761971
0.228466
-0.176090
-0.270736
0.320180
0.083176
-0.450307
0.421988
0.417536
-0.695971
-0.182040
-0.064228
0.044417
-0.146086
-0.291629
-0.251205
0.182360
0.229449
-0.308613
-0.080732
0.318430
0.032799
0.298312
0.232889
0.269099
0.363881
-0.393207
-0.200974
0.205258
-0.551041
-0.880028
0.419758
0.002514
0.112040
0.419638
0.087719
-0.273121
-0.174045
0.192832
-0.371895
-0.301046
-0.258118
-0.233729
-0.152443
-0.520194
0.055825
0.128054
0.195979
0.648253
0.057256
-0.201179
0.009907
0.309393
0.077827
-0.198045
0.070078
-0.324167
-0.623571
-0.144287
0.327154
0.467747
0.250830
0.020716
-0.104058
-0.286482
-0.481458
0.412672
-0.320105
-0.318516
-0.197505
0.070478
0.195807
0.418099
-0.075898
1.068259
0.418865
-0.539867
-0.636956
-0.409118
-0.257667
0.188130
-0.488076
0.237257
0.236859
-0.290857
-0.385335
0.871827
0.690129
-0.472199
0.685339
-0.336653
-0.007167
0.262704
-0.016031
-0.093641
-0.844324
-0.073602
0.031870
0.444668
1.112045
0.419575
0.766529
-0.865123
0.104318
0.270437
-0.425958
-0.522392
0.060241
-0.027148
0.157572
-0.332435
0.088218
0.687630
-0.537782
0.619889
0.009056
-0.342248
-0.481140
-1.034889
-0.060199
-0.492890
0.877085
-0.011335
-0.424154
0.207016
0.275607
0.144268
-0.006813
-0.187139
-0.045093
-0.114736
-0.931372
-0.651542
1.317359
-0.058299
-0.021126
0.409283
-0.448109
-0.119425
-0.466177
0.324068
-0.430086
0.687316
0.142557
-0.274565
-0.133334
0.686225
0.151990
0.078959
1.025358
0.562275
-0.423857
-0.384303
0.294110
-0.188976
0.057257
-0.977932
0.160331
1.342052
0.348485
-0.369442
0.084265
-0.006337
-0.061524
-0.177830
0.711051
-0.596639
0.101386
0.094303
-0.339199
-0.080438
-0.222517
-0.412261
-0.208936
0.149550
0.346657
1.006803
0.553234
0.176931
-0.217511
-0.046804
-0.124035
0.180091
-0.207750
-0.074622
0.669782
0.359239
-0.080948
0.126829
-0.088650
0.564010
0.473167
0.132168
-0.106026
0.171551
0.134351
0.096259
-0.049695
-0.160882
0.383707
0.360916
-0.198329
0.659168
-0.145653
0.226255
-0.194550
-0.656555
0.440862
0.946868
0.977133
-0.909469
-0.442958
-0.286505
-0.163434
0.473958
0.375102
-0.325829
-0.038349
0.124266
0.330315
0.417856
0.101122
-0.055110
0.677256
-0.594362
-0.164016
0.779103
-0.293079
0.006006
-0.275899
0.205905
-0.430971
-0.052831
-2.072017
-0.181917
0.308070
-0.086231
-0.001685
-0.435714
0.448098
-0.004002
0.002979
-0.376688
-0.695999
0.097682
-0.000491
-0.090418
1.347469
0.003750
-0.842442
-0.106867
0.312602
-0.101706
-0.386819
0.231354
-0.145350
-0.030071
-0.649241
0.425752
0.187273
1.237183
-0.586320
0.593057
1.143197
-0.889802
-0.876517
0.049255
-0.062236
-0.170921
0.605920
0.458502
-0.569338
1.015204
1.456034
-0.677389
-0.419245
1.333279
-0.684402
0.609604
-0.506733
1.460772
-1.006012
-1.033649
-3.453949
1.822477
-0.568761
-0.585574
-0.254101
0.863723
-0.939391
-0.721800
-0.533139
-2.427969
-0.179467
0.796510
0.779371
0.519787
2.767764
-0.816586
-2.804397
-0.298142
-0.537548
-0.367106
1.012677
0.547241
-0.121074
0.670432
0.369255
-0.165489
-0.472906
3.040983
-0.145948
0.557800
2.979809
-1.108606
-2.237993
1.634535
-1.998671
1.145069
-0.653917
0.582852
