0.161265
-0.510571
-0.086652
0.003294
1.032366
0.276185
0.287029
0.503719
0.435749
0.446681
0.096119
-0.420339
0.072359
-0.283253
0.570115
-0.411875
-0.023021
0.286877
0.237554
-0.375473
-0.195745
0.750592
0.213872
0.676415
0.153535
0.248125
-0.050796
0.103918
0.142797
-0.094987
-0.748535
-0.612984
-0.773643
0.256262
0.475202
-0.848967
0.195168
-0.332355
-0.201641
-0.231880
-0.755021
-0.327343
-0.283065
-0.133131
-0.107252
-0.136697
-0.286059
-0.056850
0.538811
-0.565628
0.515942
0.345414
0.313737
0.196066
-0.322432
-0.377170
-0.256876
0.377318
0.307596
-0.367748
0.278833
0.627241
-0.351351
-0.592617
0.047134
0.790751
0.304280
0.636075
-0.642975
-0.277291
0.048071
0.022644
-0.668869
0.717650
0.111529
-0.344284
0.075297
-1.016714
-0.505173
0.151632
0.500848
0.124312
-0.267743
-0.406080
-0.785994
-0.047324
-0.199212
0.133791
0.220221
-0.332028
-0.114097
0.007992
0.299230
-0.921165
-0.759489
0.692168
-0.550583
-0.595950
0.661036
0.373901
0.154199
0.059095
-0.500554
0.392670
0.253953
-0.301535
0.773088
-0.015821
-0.186214
-0.142926
-0.232191
0.340593
0.113583
0.228524
0.007630
0.319423
0.011539
0.156630
-0.147201
-0.020106
0.232545
-0.524082
0.032978
0.321587
0.146813
0.310378
-0.142226
-0.208512
0.783425
-0.614574
-0.129983
-0.037658
-0.986135
0.018252
-0.191068
0.047391
-0.742946
0.359082
-0.081607
-0.032042
-0.927662
0.261611
0.442312
0.595524
0.014053
0.025993
0.205753
-0.109409
-0.253764
0.079491
-0.222274
-0.185111
-0.129896
0.760756
0.469296
0.256963
0.522551
-0.004810
0.149461
-0.848472
0.097779
-0.682492
-0.560775
0.683085
0.100741
0.539783
0.349958
-0.684744
-0.890706
-0.776832
0.368354
-0.104274
-0.363143
-0.304194
0.422228
0.045672
-0.209594
-0.393080
0.091863
0.209805
0.170605
0.285475
0.293464
-0.243037
0.174962
0.099968
-0.152453
0.426934
-0.183965
0.109133
0.262593
-0.202263
-0.384387
-0.048300
0.383254
-0.491629
0.668738
0.047465
0.013006
-0.674276
-0.217071
0.114139
0.337434
-0.290279
-0.384572
0.450934
-0.565964
0.276076
0.441140
-0.050750
0.360795
-0.039437
0.124119
0.328295
-0.239540
0.296617
-0.269359
0.074223
0.271024
0.562343
0.545723
0.024698
-0.359368
0.649328
-0.433088
0.288245
0.513932
-0.111332
0.381304
0.019916
0.086331
-0.105631
0.280905
-0.218496
-0.297289
0.101088
-0.521661
0.572909
0.170175
0.492513
-0.134492
0.089586
-0.235314
-0.139149
0.192241
0.363095
-0.052528
0.685832
0.774683
0.097970
-0.604703
0.019363
-0.056701
-0.063386
0.125108
0.225485
-0.035173
0.049671
-0.408677
0.564801
-0.005788
-0.230910
0.403629
0.040826
0.053034
0.148202
0.293713
-0.421072
-0.419232
0.638645
0.288114
0.093893
-0.596994
0.428086
0.311397
0.164180
0.019373
0.319929
-0.417546
-0.929697
-0.697299
0.033835
-0.062031
-0.163461
-0.170318
1.010957
-0.729753
0.689826
-0.300260
-0.267484
-0.068931
-0.369173
0.435732
0.914292
0.204577
0.258247
0.115113
0.684313
0.569698
0.262284
-0.493814
0.002498
0.237994
0.776046
0.268044
-0.034928
0.107098
-0.249604
-0.126286
0.150921
-0.380346
-0.230798
0.171021
0.405286
-0.109651
-0.467990
0.478943
0.550767
0.406504
-0.905191
-0.134952
-0.283933
-0.254423
-0.468297
-0.016262
0.080627
0.091982
-0.266377
-0.074933
0.701832
-0.066529
0.492498
-0.811132
-0.544466
0.102220
0.034515
0.115576
0.026210
-0.423599
0.340719
0.209104
-0.216470
-0.248838
-0.039135
0.435973
-0.007179
-0.063029
0.104740
-0.234465
0.080333
-0.000096
-0.590039
-0.395199
0.360064
-0.460866
0.136014
-0.235377
-0.173096
-0.658774
-0.203657
-0.033493
-0.035438
0.263304
-0.037189
-0.286015
0.247302
-0.253757
0.650669
0.065931
0.267004
0.665941
-0.437907
0.314031
0.205048
-0.567712
-0.679368
-0.485635
-0.030754
-0.445735
-0.093848
-0.528929
-0.100594
-0.337967
-0.409649
0.011954
0.635871
0.198444
0.093816
0.085269
-0.173175
-0.012124
0.487848
0.004805
0.673138
0.451742
0.340919
-0.264508
-0.102260
-0.551471
0.127284
0.051380
0.075044
-0.026700
-0.180594
-0.492188
-0.490153
-0.295072
-0.517076
-0.916998
0.010667
-0.173270
-0.442641
-0.583858
-0.173470
0.595447
0.544398
0.009600
-0.346487
-0.356817
0.509183
-0.613249
0.767337
0.007349
0.426960
0.200611
0.123607
0.537214
0.117403
-0.025037
-0.736353
0.019621
-0.114205
0.302328
-0.778212
1.116409
0.064089
0.367228
-0.574013
0.167185
0.095688
-0.166047
-1.074480
-0.461841
0.736183
0.070593
-0.401633
-0.512705
-0.476020
0.174106
-0.033290
-0.197236
-0.323254
-0.094415
-0.048714
-0.270430
-0.275520
0.540931
-0.300822
-0.195202
0.157591
0.412606
0.645632
0.368587
-0.437912
-0.212987
0.181856
0.295760
0.174976
-0.546228
0.006354
0.146225
-0.082061
-0.373661
-0.216538
0.198351
-0.492199
-0.766133
0.105051
-0.121510
0.441827
0.500841
-0.503047
-0.967929
-0.385152
-0.591774
-0.432666
0.636710
-0.074734
0.035813
-0.083247
-0.550695
-0.135668
0.372703
0.435193
-0.201542
0.182134
0.171372
-0.279630
0.481231
-0.325395
0.194055
-0.317960
0.070800
-0.712932
-0.453271
0.316251
0.044843
-0.204239
0.811610
-0.749113
-0.236057
0.456619
-0.052381
-0.130271
0.319792
0.073856
0.604852
-0.733495
-0.438768
-0.386352
-0.547863
-0.150424
0.708250
0.329494
-0.175218
-0.576596
0.121867
-0.576569
0.008459
-0.409057
-0.243988
0.054340
-0.001106
0.163531
0.172798
-0.181887
0.110814
0.728250
0.027376
0.471047
-0.332668
0.689204
-0.110353
0.397718
-0.897948
-0.642595
0.279862
-0.394427
-0.392770
0.555557
0.423075
0.235225
0.229090
-0.285506
-0.110493
-0.341217
-0.439239
-0.420251
-0.098079
0.255465
-0.206579
0.055782
-0.175173
-0.212906
0.175424
0.293321
-0.280277
0.645615
-0.063854
-0.460215
-0.160775
-0.026164
0.192169
0.443714
-0.160653
0.507837
-0.138420
0.074618
-0.537371
-0.120632
0.307041
0.582029
0.194796
-0.344120
-0.076839
-0.475142
0.549766
-0.552868
0.422436
-0.441730
0.034291
-0.312921
0.257826
0.138245
0.095272
-0.465160
-0.235646
0.517483
-0.476313
-0.837112
0.328441
0.252588
0.214126
-0.172132
0.410195
0.716225
0.339580
-0.038720
0.323071
-0.098447
-0.497258
0.044508
0.237646
-0.143821
0.041331
0.167254
-0.251922
-0.255081
0.347384
-0.460500
0.520870
0.081841
-0.407485
0.037432
0.380713
-0.354679
-0.640703
0.134035
-0.016338
0.216268
-0.409125
-0.606206
-1.001295
-0.068868
0.136671
-0.230498
-0.221586
-0.094687
-0.198725
-0.303199
-0.087067
-0.253002
0.185163
-0.001075
-0.288851
0.267643
0.591834
0.524414
-0.125621
0.111176
-0.197214
0.194323
-0.419558
-0.457470
0.614959
0.165067
-0.661630
-0.105364
-1.146671
-0.314530
-0.227178
-1.235041
-0.614208
-0.189298
0.379896
-0.007953
0.260837
0.012944
0.211967
0.145185
-0.477099
0.322817
-0.694696
0.019065
-0.264946
-0.353555
0.456508
-0.709923
0.333103
0.132467
0.157758
0.714969
-0.317998
-0.082113
-0.401493
-0.158407
0.494775
0.214562
-0.418378
-0.590110
-0.488873
0.560543
0.038390
-0.196894
-0.291811
0.350997
-0.387001
-0.116766
0.555953
-0.335137
0.178531
-0.009300
0.033278
-0.890409
0.375880
0.066064
0.027138
0.220875
-0.425499
-0.250548
0.516498
-0.056469
0.553028
0.342899
-0.363576
0.029216
0.624785
0.057678
-0.199769
-0.183470
0.456664
-0.067905
-0.754178
-0.414642
-0.101929
0.146954
0.421464
0.175780
0.002585
0.373531
0.039075
0.402087
-0.022132
-0.152271
0.628015
0.654499
0.011633
-0.175925
0.022013
-0.138854
0.281862
0.055812
-0.656439
-0.002910
-0.314829
0.408882
0.000459
-0.695485
0.131920
0.324575
0.704300
-0.756198
0.274639
0.515927
0.621026
0.068599
-0.053348
-0.325658
-0.077619
-0.511489
0.263819
-0.071987
-0.315263
0.273118
-1.002483
-0.189601
0.193779
0.095473
-0.166829
-0.239668
-0.108962
0.468512
-0.788247
-0.348784
0.591674
0.330659
0.093302
0.353552
0.272814
1.134667
-0.568396
-0.023566
0.335783
0.663126
-0.634529
-0.299859
0.347716
0.133336
0.296404
0.021098
-0.176674
-0.620834
0.129810
0.098383
0.018368
-0.751664
-0.727313
0.617592
-0.365500
0.497602
0.390508
0.602119
-0.072471
-0.153681
-0.032027
0.003665
0.139217
0.064338
0.389221
-0.630163
0.229016
-0.459380
0.226617
0.678857
-0.015260
-0.780877
0.134080
1.123502
-0.555873
-0.008831
0.140374
-0.822972
-0.554820
0.005986
-0.663022
0.350616
0.382936
-0.142391
0.299990
0.467405
0.050377
0.197264
0.102108
-0.270679
-0.036169
0.224385
0.188952
0.455942
-0.132940
0.251069
-0.178694
-0.129062
0.073039
-0.419971
0.069017
0.427096
0.009526
0.059668
0.403771
-0.353593
0.463534
0.711148
-0.793179
0.029429
-0.491054
0.585639
-0.028050
-0.398301
-0.722668
0.175402
0.239782
-0.034214
0.162826
0.182677
-0.056122
0.293510
0.434259
0.564706
-0.505010
0.600740
0.033274
0.003572
-0.206699
0.205426
-0.581694
0.234805
-0.107182
-0.333201
-0.072008
0.101789
0.106311
-0.789196
0.476653
-0.053864
0.225385
0.458068
0.180863
0.548295
-0.028821
-0.218668
0.065305
0.412865
-0.214626
0.442334
0.482399
0.594051
0.220705
-1.062851
-0.745848
0.576348
0.473053
0.033425
-0.526879
-0.104493
-0.043059
0.089683
-0.007135
-0.433550
-0.627542
-0.730016
-0.314162
-0.641753
0.122823
-0.185915
-0.115151
0.403657
-0.325973
0.112806
-0.675960
-0.136021
0.060867
-0.168191
0.236455
-0.116001
-0.037218
-0.336027
0.373905
0.477506
0.066803
1.004403
-0.148043
-1.210030
0.412000
0.134773
-0.398237
0.044346
0.208333
0.320167
-0.333290
0.042636
-0.435543
0.058284
-0.323073
-0.108122
-0.514505
-0.288910
0.319957
0.094198
0.465585
-0.008529
0.764511
0.431894
-0.095863
-0.166434
-0.703336
0.229535
0.140086
-0.511792
-0.026789
-0.036172
0.293156
-0.425117
-0.250157
-0.250808
-0.843771
0.206813
-0.065540
-0.166787
-0.280051
0.200719
0.028377
-0.162920
-0.168618
0.193133
-0.104262
-0.545757
-0.570286
0.474716
0.341047
-0.234685
0.052791
-0.006720
0.392916
-0.499394
0.113777
0.321665
0.463598
-0.216996
0.177650
-0.004405
0.637437
-0.380294
0.432989
0.102999
0.692693
-0.413825
-0.202040
0.596762
0.127207
-0.989959
0.504257
-0.593867
-0.002692
-0.100560
-0.121650
0.549654
0.713878
0.122890
0.634335
1.101430
-0.222785
-0.065245
-0.028824
0.055281
-0.024157
-1.043275
0.439945
0.492814
-0.136396
0.159716
0.528327
-0.131789
-0.827383
-0.512098
-0.102256
-0.518060
-0.183110
0.510219
0.131580
-0.407617
-0.209028
0.874724
-0.090909
-0.579092
-0.447600
-0.075575
-0.485079
0.087280
1.082213
0.037607
0.381583
0.712821
0.017307
-0.142400
-0.140246
0.119854
-0.548395
-0.192333
0.329184
0.467223
-0.422134
-0.113916
0.261557
0.198994
-0.161331
-0.544426
0.228524
-0.057454
0.020133
0.205197
0.102491
0.071479
-0.210361
-0.386691
0.464483
0.368838
0.354860
-0.566437
-0.291999
0.252399
0.832572
0.916805
0.095897
-0.220811
-0.265083
-0.240762
-0.398302
-0.398960
-0.697864
-0.062019
-0.399243
0.241567
0.459752
0.635357
0.979218
-0.072224
-0.130620
0.037731
0.175579
-0.164574
0.213397
0.224019
-0.157179
0.116062
0.485608
0.925853
0.730123
-0.186297
-0.640045
0.158951
-0.038925
0.278739
-0.193619
0.245184
0.541603
0.445427
-0.161015
0.151531
0.535386
-0.009495
-0.482467
-0.150274
0.185882
0.058851
0.310411
-0.786256
-0.336251
-0.251793
0.437505
0.206190
0.063915
0.194938
0.728313
-0.403237
-0.011551
-0.009773
0.634353
0.666752
-0.075564
-0.238135
0.148681
0.261399
0.311154
-0.118525
-0.605698
-0.152834
0.474670
0.248270
0.671857
0.463797
0.189710
0.269101
-0.086880
-0.026376
-0.426659
0.988191
-0.043492
-0.285611
-0.430838
-0.320276
0.202016
-0.080618
0.181598
-0.265608
-0.062611
0.114822
-0.045723
-0.302027
-0.093464
-0.808913
-0.137707
-0.059893
-0.710712
-0.366023
0.198202
-0.136326
-0.315512
-0.841940
0.546438
0.031855
-0.173108
0.278433
-0.197613
-0.273692
0.141769
-0.368632
0.017919
-0.330458
-0.214837
-0.719320
0.264510
-0.595943
0.628353
0.138199
-0.448618
-0.026066
0.219962
-0.030493
0.261920
0.434971
-0.005906
-0.197460
0.358285
0.373395
0.324448
-0.700470
0.266186
0.034236
-0.598212
0.093441
0.353285
-1.022808
-0.430092
0.155517
0.036430
-1.114913
-0.386387
-0.710661
-0.324569
-0.035989
0.995294
0.008053
0.434735
0.564968
0.078937
-0.763400
-0.331066
0.487390
0.286448
-0.730379
-0.019181
-0.065592
-0.553131
-0.421133
0.856554
0.158876
0.007337
1.751527
0.611661
-0.012970
0.592554
0.090408
-0.225889
0.129910
0.226664
0.196739
-0.228435
-0.389242
0.241655
0.830179
-0.248487
0.547058
0.266412
0.131873
0.196349
0.460162
0.788983
0.564299
-0.795011
0.337806
-0.206380
0.142101
0.468681
-0.823248
0.704746
-0.025308
-0.529040
0.605952
-0.127362
-0.305698
0.679873
0.222743
-0.086002
-0.717622
-0.243404
0.081936
0.312820
0.123926
-0.157048
1.166147
0.146643
-0.502184
0.370747
0.599910
-0.561619
-0.002442
0.004666
-0.199117
0.440090
-0.292668
-0.063531
0.203134
0.391285
0.130396
0.553650
-0.260156
-0.783772
0.216649
0.620633
-0.642786
0.373837
-0.091661
0.132806
0.651062
0.184872
0.137082
0.674277
-0.934930
-0.526208
-0.596283
0.144451
0.148005
0.182422
-1.113242
-0.775559
0.322931
-0.019321
-0.372848
-0.125104
-0.004996
0.021754
0.354087
0.313027
0.615590
-0.157116
0.221473
0.104233
0.300856
-0.242875
-0.312341
0.815475
-0.351365
-0.366500
-0.539749
-0.044862
-0.508303
0.688030
0.043029
-0.627045
-0.508331
-0.461335
-0.290117
-0.215950
0.531744
0.251598
0.293828
0.332116
0.748588
-0.180289
0.051464
-0.609484
0.796667
0.207391
0.416830
-0.357337
0.427713
-0.232082
-0.283634
0.047717
0.040143
-0.444082
0.062961
-0.314432
-0.445648
0.545472
-0.232052
-0.383944
0.361022
-0.435839
-0.237881
-0.289029
0.112695
0.544469
-0.408833
-0.108921
-0.085916
0.686912
0.195696
-0.178330
0.170417
-0.022787
0.094917
-0.990126
-0.354032
0.132676
-0.414517
-0.896411
-0.135552
-0.039819
0.242279
0.511106
-0.072410
-0.115288
-0.184024
0.115406
-0.009950
-0.281898
0.157741
-0.142120
-0.303155
0.609969
0.441103
-0.209046
-0.225590
-0.386758
-0.161573
0.500856
0.326385
0.087240
-0.263668
-0.112999
-0.072645
0.365436
0.065496
-0.045382
-0.303460
-0.133873
-0.279880
-0.016530
0.092612
0.701535
-1.184356
-0.324354
0.276036
0.718518
0.106291
-0.904251
0.225523
-0.189746
-0.190590
-0.239086
-0.058965
-0.830943
-0.881855
0.038977
-0.257366
-0.177141
-0.554897
0.084201
-0.337036
0.503964
-0.161670
0.371704
-0.195441
-0.482483
-0.440548
-0.423390
-0.755959
-0.207629
0.054143
-0.113574
-0.355356
-0.193463
0.393763
0.079997
0.236339
-0.324858
0.062352
-0.230610
0.045926
-0.328868
-0.023617
-0.569828
-0.367938
-0.530906
0.199328
-0.606504
-0.432253
0.137988
0.158846
0.018778
-0.693084
-0.751940
-0.283737
-0.657442
-0.583266
-0.771465
0.666116
-0.583655
-0.111951
0.386571
0.699483
-0.008640
-0.834730
-0.008086
-0.253333
-0.047799
0.006759
-0.049035
0.237239
0.431639
-0.255745
-0.095011
0.029711
-0.822621
-0.269843
-0.529264
-0.301416
-0.148536
-0.041097
0.631260
-0.496713
-0.145187
0.301838
-0.447907
-0.295342
0.262277
0.080308
-0.872952
-0.601971
-0.297713
0.309300
0.331335
-0.185683
0.788407
-0.509746
0.310962
-0.106214
-0.221019
0.316911
-0.123263
0.060021
0.249531
-0.203713
-0.201389
0.223321
0.418783
-0.027203
0.379899
0.017143
-0.226354
0.381035
-0.095123
0.713019
-0.408174
0.160730
0.073462
0.633729
-0.477973
0.187628
-0.646363
0.103604
0.672576
0.300534
-0.684717
0.375963
-0.533474
0.326593
-0.663193
0.466453
-0.151637
-0.037440
-0.207691
-0.271343
0.170685
-0.608004
-0.320565
0.395060
-0.481039
-0.298454
-0.043691
-0.134565
0.454342
0.373151
-0.311131
0.689197
-0.515640
0.203293
-0.084790
-0.552220
0.341224
0.439308
0.257865
0.534244
0.443495
-0.095433
-0.644124
0.097858
-0.359098
-0.291178
-0.810650
-0.188821
0.302286
-0.356084
0.053636
-0.191879
-0.432287
-0.247821
0.253953
0.647575
-0.255696
0.150387
0.009766
-0.466335
0.196750
0.202425
-0.244980
0.464220
-0.013842
-1.075025
0.098566
0.145243
-0.176783
-0.450880
0.100705
0.447769
-0.309819
0.397087
0.498094
-0.538942
-0.060224
0.565189
0.235102
0.238739
-0.031531
0.171975
-0.231850
0.328144
-0.153645
0.014593
-0.021699
0.041142
-0.280448
-0.391728
-0.446925
-0.285799
-0.086299
0.544521
-0.453712
0.255460
-0.160031
-0.118150
-0.952987
0.393338
0.498201
-0.054319
0.467558
-0.169607
0.586515
0.642629
0.465408
-0.112693
-0.181280
0.211625
-0.156006
-0.633826
-0.465830
-0.380341
-0.720511
0.503438
0.481089
-0.496530
-0.030399
0.568792
-0.057564
-0.287075
-0.403965
0.288363
-0.238872
-0.006413
-0.355802
-0.159258
0.764160
0.319029
-0.434975
-0.078470
0.238890
-0.080637
-0.123261
-0.107717
0.086830
-0.932298
0.443548
0.028897
1.020241
-0.533450
-0.207921
-0.405059
0.315859
0.474379
-0.451809
-0.657077
-0.236832
0.122854
0.364746
0.532572
-0.331632
-0.127833
0.302207
0.202620
-0.455419
0.138380
0.139680
-0.381350
-1.330052
-0.013811
-0.208367
0.142662
0.356530
0.091134
0.500871
-0.076196
0.219831
0.045376
-0.165149
-0.333445
-0.151551
-0.599573
0.537540
-0.514606
0.475041
-0.321361
-0.104303
0.170826
0.546587
0.125948
0.184998
-0.271410
-0.361137
-0.094098
0.228381
-0.729529
0.328577
0.547004
0.377388
0.423289
-0.142224
-0.227188
0.221974
-0.171497
0.149568
-0.804758
0.165980
0.132213
-0.144780
0.389384
0.267727
-0.751045
-0.229255
-0.300215
-0.248632
0.191159
0.668810
-0.590560
0.522727
-0.348325
-0.014914
0.056287
-0.097447
0.057813
-0.704729
0.670073
0.199880
-0.040233
-0.128664
0.299141
-0.818295
-1.004182
-0.092026
0.151054
0.804786
-0.471224
-0.199761
0.456832
-0.088743
-0.013777
0.116242
-0.376128
0.460710
0.080599
0.418478
0.089887
-0.656559
-0.629705
-0.081453
0.199835
0.069291
0.539967
-0.414072
-0.157005
0.328096
0.152205
-0.048228
-0.252549
0.462480
-0.048851
-0.155048
-0.492183
-0.104532
-0.420085
-0.126619
-0.557858
-0.016645
-0.258648
0.288613
-0.528568
0.665790
0.143831
-0.008611
-0.642606
0.463714
0.053200
-0.104183
-0.271166
-0.168999
0.242583
0.558495
-0.011485
0.476535
-0.535685
-0.690610
-0.240506
-0.288862
0.225005
-0.276499
0.486678
-0.352680
0.455833
0.634224
-0.224085
-0.395964
0.559802
0.342964
0.110002
-0.991415
0.462719
-0.314071
-0.701436
0.499037
0.583379
-0.268785
0.165327
-0.731244
0.446077
0.083839
-1.096369
0.364906
0.207988
0.362040
0.063619
0.130366
-0.267813
0.213940
-0.316096
-0.613121
0.142672
0.239691
0.256353
-0.348320
-0.318302
-0.104893
-0.123404
0.369035
-0.498032
0.426085
0.223151
-0.368694
-0.278388
-0.406994
-0.540587
-0.100286
0.291269
-0.064354
0.189265
-0.950169
0.171776
0.192147
-0.182754
-0.552921
-0.884166
0.445190
-0.031505
-0.123431
0.378732
-0.282318
0.053284
0.598116
-0.526438
0.161553
0.169540
-0.570360
0.701326
-0.063007
-0.572595
-0.106475
-0.244855
-0.095666
0.226264
0.034994
0.648241
-0.370150
-0.718365
0.116496
-0.299868
0.017910
-0.675967
-0.069996
-0.033287
0.133287
0.113306
0.475382
0.087070
0.282638
0.214100
0.214715
0.275036
0.647560
-0.111411
0.688234
-0.163538
0.809194
-0.028440
-0.128580
-0.009922
0.398057
-0.166831
0.094462
-0.089246
0.008847
0.030666
-0.970477
0.073741
-0.098151
-0.270506
0.330733
0.763027
0.419026
-0.434725
0.027936
-0.210085
-0.262838
0.396238
-0.384560
-0.766161
0.129479
0.758688
-0.186121
0.502707
-0.367814
-0.792012
-0.499005
-0.548319
-0.166041
0.173596
0.238966
0.190190
-0.070007
-0.219521
-0.422249
-0.315817
0.144984
0.470382
-0.062247
0.228839
-0.112188
0.612414
-0.543583
0.366286
0.869088
-0.212385
-0.250601
-0.847717
-0.456495
-0.530152
0.104281
-0.264085
0.211958
0.047171
-0.059491
-0.739489
0.007886
-0.225116
0.011836
0.409925
-0.610351
0.003239
-0.074161
-0.161342
-0.171535
-0.730569
0.718934
-0.082736
-0.194285
-0.954499
-0.419477
0.211823
0.768234
1.242552
-0.342313
0.541605
0.099543
0.255713
0.116061
0.160030
-0.421136
-0.231433
0.093492
-0.456487
0.341075
0.459718
-0.187895
0.006825
-0.800344
-0.511103
0.356692
0.192910
0.476030
-0.400145
0.042594
0.354527
0.315019
0.508244
-0.350008
-0.030902
0.410575
0.656298
0.116690
-0.099287
0.452542
-0.229557
0.827200
0.746299
0.292980
0.308024
-0.278645
-0.255050
-0.016178
0.658255
-0.076616
-0.142227
0.185886
0.325546
-0.436505
0.036362
0.439359
-0.230116
-0.262280
-0.170054
-0.156276
0.256350
-0.587414
-0.364786
0.060153
-0.009491
0.074620
0.317382
0.140182
-0.130606
0.218924
0.520763
-0.072372
-0.271526
0.267375
0.386957
-0.108540
0.171886
0.316529
0.429865
-0.442679
0.533919
0.155959
-0.667540
-0.560528
0.332354
-0.386493
0.540224
-0.057963
0.595859
0.011395
-0.417515
-0.228987
0.362815
-0.754267
-0.677114
0.858731
0.176851
-0.402034
0.644794
0.053817
0.232267
-0.064228
0.120331
0.355205
0.094566
0.269548
-0.490710
0.369815
-0.199022
0.293607
0.173760
-0.446161
0.248494
0.095939
-0.533506
0.202750
-0.112169
0.329236
0.126792
0.325613
0.401417
-0.010976
0.051370
-0.480015
-0.056127
-0.266453
-0.287586
-0.105446
-0.124755
0.125735
0.104174
-0.637950
0.206479
0.334447
0.194620
0.073635
1.025738
-0.463465
0.649873
0.544913
0.218087
0.223638
-0.138324
-0.164458
-0.522493
-0.084101
-0.436224
0.006919
-0.048080
-0.202881
0.027443
-0.256241
-0.175215
-0.079126
-0.378854
0.166974
-0.316309
-0.577328
-0.292938
-0.148580
-0.471152
-0.585216
-0.159471
-0.487307
0.650796
-0.441237
0.659291
-0.132797
-0.128217
0.328876
-0.641405
-0.455573
-0.417354
0.288980
-0.527606
-0.369782
0.569048
0.253772
-0.176663
0.059312
0.768746
-0.101312
-0.313247
-0.732312
-0.233806
0.361859
0.222132
0.211240
0.274413
-0.625699
-0.193430
0.284591
-0.174315
0.305324
-0.493213
0.594603
-0.264979
-0.360386
-0.146366
0.460053
-0.296550
-0.163748
-0.318649
0.232782
0.086099
-0.714116
-0.348583
-0.935017
0.608258
-0.115008
0.470965
-0.104151
-0.809913
0.328024
0.230573
-0.724048
0.035908
-1.049613
-0.752230
0.710195
-0.596933
0.367590
0.453426
-0.046877
-0.612770
-0.427961
0.236243
-0.576879
-0.131389
-0.628587
0.106701
-0.074056
0.267683
-0.294218
-0.626994
-0.652368
0.078344
0.473290
-0.626461
-0.200628
0.390460
0.186166
-0.387388
-0.130007
0.033832
-0.378308
0.138829
0.109707
0.561127
0.069916
0.545777
0.420913
-0.330596
-0.281235
0.560910
0.259417
-0.901137
0.324715
0.192057
0.492958
-0.238136
0.459717
0.604103
-0.436222
-0.188181
0.235105
0.196373
-0.156663
0.398941
-0.670402
-0.003115
0.297555
0.669812
0.594378
-0.781160
-0.723406
-0.598358
-0.082281
0.006604
0.629096
0.232116
-0.551704
-0.331083
-0.242380
0.245216
-0.013277
-0.032306
-0.316823
-0.019978
0.368640
-0.466804
-0.577869
-0.331041
-0.210374
-0.153611
0.572480
0.504917
0.210146
0.484129
0.461190
-0.244564
0.489856
-0.426585
-0.262050
0.456382
0.066799
-0.132103
-0.092566
-0.288632
0.153941
0.785218
0.358332
-0.343381
0.076452
-0.243096
0.230724
-0.126637
-0.391347
-0.360710
-0.053909
-0.584959
-0.042692
0.028371
-0.259870
0.467706
0.417672
-0.368186
-0.065449
0.123282
-0.390232
-0.092453
0.162089
-0.038404
0.413407
-0.222473
-0.365088
-0.314418
0.146028
-0.800474
0.740467
-0.266050
0.065540
0.161825
-0.008801
-0.000241
-0.155237
0.254178
-0.495250
0.265282
0.144456
-0.401769
0.059111
0.240569
0.206152
0.088426
-0.412155
0.297301
0.470205
0.800275
0.329897
0.341358
0.185354
-0.550465
-0.408721
0.263163
-0.330429
-0.318885
-0.513619
0.240686
0.650376
0.720617
-0.139569
0.439886
0.268418
0.162262
0.657007
0.141181
-0.308764
-0.469561
0.590486
0.219673
0.566240
0.079451
0.026378
0.387476
1.052305
0.574734
0.030483
0.279773
-0.258371
0.079332
-0.065904
-0.490896
0.121635
0.296978
0.328701
-0.175809
-0.209567
-0.036151
-0.286991
0.021165
-0.206826
0.516108
-0.363888
0.330893
0.206010
0.402460
-0.279305
0.103662
-0.795757
0.495568
-0.595309
-0.738494
-0.075257
0.386589
0.007657
-0.219981
-0.484636
-0.133209
-0.260377
0.360027
0.161869
-0.390194
-0.366769
0.357730
0.632867
-0.047582
0.804092
-0.183564
0.088135
0.328791
0.457983
-0.181636
0.176506
-1.017266
0.049434
-0.607958
0.595733
0.689258
0.448664
-0.058400
0.205355
-0.374246
0.730075
0.676136
0.752080
0.274847
0.559926
0.084035
0.010739
1.133881
-0.743972
-0.241159
-0.043571
0.317233
0.175695
0.526148
0.679069
0.001591
-0.217278
-0.407660
0.333151
0.361729
-0.060082
-0.028935
-0.257698
-0.584184
-0.027239
0.707221
-0.461384
0.219247
0.856410
0.171882
-0.462421
0.163614
-0.367268
0.014288
-0.074432
-0.106403
0.197645
0.184631
0.408972
0.163124
-0.530103
-0.273657
-0.280839
-0.129829
-0.397195
-0.404497
0.008879
0.435641
-0.356650
-0.761944
0.201625
0.099513
-0.011678
0.305474
-0.069048
0.551507
-0.375731
-0.535046
0.032869
0.106406
0.114605
0.272875
-0.798646
-0.376539
0.422783
-0.259070
0.549767
0.006046
0.456832
-0.348941
0.891998
-0.202988
0.208740
0.290965
0.020341
-0.162885
0.151194
-0.235053
-0.335276
-0.037745
0.152453
0.093938
0.214627
-0.147263
-0.894292
0.367803
-0.144776
0.245447
0.573442
-0.673463
0.225977
-0.264822
-0.098125
0.665202
0.110184
-0.117117
0.852628
-0.040812
0.136721
0.213165
-0.304369
-0.210639
0.346781
0.215856
0.094522
0.094104
0.285031
-0.135505
-0.070580
-0.091492
-0.084254
-0.611572
0.583606
0.137506
-0.588074
-0.195910
-0.425229
0.866430
0.314294
0.527599
-0.200613
-0.373202
-0.539899
-0.501558
0.158085
-0.513745
0.040778
0.301347
-0.618716
0.011160
0.390289
0.776496
0.024913
-0.197226
0.850354
-0.462562
0.071271
-0.506439
0.210694
0.573396
-0.024323
0.099806
-0.191527
0.340000
-0.250340
0.655679
-0.557489
-0.280921
-0.217590
0.371049
-0.100174
0.077230
-0.268679
-0.910657
-0.159123
0.273793
-0.081098
-0.150458
0.038494
0.158482
0.015987
0.260269
0.640829
0.624718
0.293897
-0.601662
-0.109392
0.245296
-0.656617
0.047419
-0.323439
-0.083981
0.047347
0.233370
-0.568780
-0.085951
-0.375856
-0.804400
1.105841
0.115888
-0.323747
0.639042
0.256525
-0.026219
-0.231925
-0.723291
-0.325848
-0.452110
0.116221
-0.322868
-0.383733
0.724425
0.303743
-0.044022
0.125794
-0.052934
-0.080638
-0.256047
-0.558166
-0.443364
0.281104
0.517052
-0.006624
0.518596
0.168269
-0.405572
0.369923
-0.422579
-0.556713
-0.116247
0.215992
-0.256232
-0.421726
0.341641
-0.148878
0.100609
0.043918
-0.292895
-0.640879
0.503707
0.339494
-0.247155
0.225541
-0.306293
-0.256477
-0.651824
-0.332875
-0.023290
-0.510370
0.460262
0.329412
0.402339
-0.085728
0.868884
-0.034827
0.255710
-0.516802
-0.583666
-0.140362
1.012920
0.266527
-0.191142
-0.413079
-0.713679
0.097682
0.330661
-0.783313
0.149626
-0.474566
-0.482052
-0.543366
-0.183923
0.430421
-0.157767
-0.351164
0.236534
-0.365287
0.846674
-0.067969
0.368689
0.100215
-0.198058
0.280042
-0.136946
0.112310
-0.291481
-0.389936
-0.084952
-0.395796
0.052964
-0.305335
0.488000
0.076412
-0.232099
0.013158
0.351953
0.378325
-0.053738
-0.225976
-0.262494
-0.421236
0.356197
-0.141404
-0.147164
0.099141
0.570496
-0.466852
0.809095
0.316335
-0.429966
0.413024
0.280278
0.122985
-0.148791
0.673497
0.301132
-0.737716
-0.343099
-0.399566
0.506025
-0.640325
-0.734149
0.070663
0.147514
-0.762658
0.137395
-0.449592
0.405948
0.587912
0.161587
0.078614
-0.700518
0.393627
0.047357
-0.912198
-0.126951
-0.163679
0.243782
-0.073959
0.348377
-0.556835
0.059184
-1.159267
-0.166970
0.030693
-0.428033
0.571342
-0.532389
-0.394008
0.705250
0.518434
-0.371159
-0.213938
-0.113945
0.398463
-0.071791
0.152709
0.410397
-0.095334
0.367448
0.049672
0.047896
0.351986
-0.701564
-0.286421
-0.248255
-0.270616
-0.005796
0.609499
0.151671
0.285039
0.402190
-0.695039
0.503345
1.113229
-0.088625
-0.103562
0.264010
0.904324
-0.280055
-0.270498
-0.441495
0.353277
0.154382
-0.387867
0.129897
1.505733
-0.433028
0.336328
-0.843478
0.661250
0.372172
0.155086
-0.509821
0.065688
-0.038345
-0.494791
0.323176
0.162849
0.100101
-0.099086
0.398555
-0.051491
0.312091
0.500638
0.306373
-0.252760
0.163239
0.851974
-0.209106
-0.781224
-0.541883
-0.791988
0.054398
0.467067
0.110977
0.397000
-0.099605
-0.256794
0.290755
0.147040
-0.556529
-0.423471
-0.218057
-0.360955
0.019473
-0.594840
-0.281578
-0.114322
-0.017060
-0.642715
0.453605
-0.377005
-0.953725
0.583466
-0.359772
0.258037
0.099025
0.684044
0.372764
-0.376812
-0.430432
0.084327
0.891321
-0.524302
0.092707
-0.030571
0.643840
0.366066
0.081979
0.009883
-0.069742
0.183134
0.171113
-0.926127
-0.435966
0.412130
0.348161
-0.671108
-0.199230
-0.138126
-0.856869
-0.054970
-0.230955
-0.075669
-0.300792
-0.159628
-0.080664
-0.173201
-0.262950
-0.310779
0.747229
-0.097099
0.488717
-0.181247
-0.830182
-0.749047
0.250288
-0.179891
-0.404132
0.655127
-0.408720
-0.057263
0.553863
-0.125114
-0.095737
-0.288752
0.014229
0.027457
0.201269
-0.176450
-0.047089
-0.254065
0.539248
-0.062553
0.077803
0.096330
-0.367504
0.280755
-0.060167
0.196587
-0.437086
-0.302681
0.503758
-0.398372
-0.613193
0.154931
0.049999
-0.174358
0.171774
0.438891
0.335546
0.115886
0.161744
-0.340101
-0.122390
0.548775
-0.078603
0.283834
0.192033
0.532383
-0.035528
-0.417247
0.128870
-0.393337
0.877273
-0.275334
0.535649
0.158825
0.101396
0.075742
0.157110
0.135210
-0.802644
0.077081
-0.747984
0.028147
0.132256
0.649790
-0.299533
-0.182696
-0.151197
0.128851
-0.080299
-0.539243
-0.659076
0.097571
0.145217
-0.304309
-0.030409
-0.106440
-0.355718
0.372012
-0.034284
0.548686
-0.432040
0.410885
0.000796
0.688958
0.344524
0.606302
-0.453328
-0.606732
0.376203
-0.584227
0.566461
0.358127
0.302642
0.218084
-0.165686
0.185251
0.199874
-0.439718
0.557105
0.014563
-0.316484
-0.138028
0.104877
-0.273454
0.299583
0.114391
0.304968
0.051020
-0.146638
-0.166634
0.060985
-0.912026
0.069428
0.131725
-0.220404
-0.063452
-0.454869
-0.137793
-0.273769
0.131747
0.099396
0.530749
0.217305
-0.319757
0.459378
-0.028967
-0.124981
-0.095195
-0.342748
0.022478
0.052364
0.425898
-0.039073
0.001641
0.363062
-0.181620
-0.346235
-0.400345
0.703261
-0.210674
0.064065
-0.017931
-0.284504
0.485149
-0.007025
-0.088790
-0.154704
0.008918
-0.532936
-0.280851
0.475700
0.187369
-0.284495
-0.317674
0.622870
-0.588710
-0.273515
0.033868
0.383788
0.182071
-0.651857
0.108676
0.053802
0.383988
-0.308935
0.357198
0.258045
0.204171
0.102342
0.243432
0.242026
-0.588062
-0.340132
0.498694
-0.100832
0.048752
0.373696
0.021316
-0.347227
-0.206646
0.014997
0.233877
0.189014
-0.087541
-0.458060
-0.038451
-0.533704
0.494960
0.080141
0.673918
0.350705
-0.261731
-0.291777
-0.040865
0.107095
0.274567
-0.153302
0.532102
0.399751
0.293116
0.392215
-0.355579
-0.228927
0.621675
-0.090366
-0.253033
-0.060157
-0.617463
0.018039
-0.101828
-0.811046
0.240487
-0.375993
0.152501
-0.163191
-0.019001
0.385536
-0.201824
-0.220616
-0.457599
0.268362
-0.014714
-0.110067
0.474997
0.002159
-0.200146
0.427016
-0.214799
0.431317
0.227277
0.249717
0.425042
-0.102436
-0.360078
0.018304
0.691890
-0.253559
-0.110389
-0.413494
0.293590
-0.044475
0.046958
0.448827
-0.042070
-0.164184
-0.239008
-0.488708
-0.195301
-0.307966
0.231015
-0.006336
0.421112
-0.316141
-0.311480
-0.384159
-0.410061
-0.477142
-0.349600
-0.381289
0.251227
0.682921
0.005427
0.165361
-0.339379
-0.348455
-0.203090
0.686113
0.420394
0.076947
0.748186
0.568834
0.619268
0.167914
0.426567
-0.410669
-0.139557
-0.070313
-0.725286
-0.453713
0.150239
-0.402071
-0.039954
0.105680
0.560390
-0.423532
0.386556
0.095891
-0.186939
0.001377
-0.452754
-0.140737
-0.399103
-0.267721
0.332339
-0.129807
-0.256510
0.006094
-0.168891
0.108410
0.100762
-0.475774
-0.339299
0.375239
0.105955
-0.469651
-0.733760
0.132487
-0.175070
0.285189
0.187559
-0.205405
0.472471
-0.381003
0.964781
0.105435
0.199397
0.204109
-0.002869
0.704702
0.187470
-0.559688
-0.926284
-0.149318
-0.573564
-0.064076
-0.264809
-0.615926
0.043843
0.723081
0.331377
-0.479078
-0.728717
-0.142004
0.397576
-0.082659
-0.701515
0.425831
0.175837
0.041668
-0.345123
0.433863
-0.278241
-0.415847
-0.101861
-0.543030
0.363501
0.310083
0.092757
0.150944
-0.486176
0.009066
-0.286532
-0.692838
0.163460
0.545316
0.515739
0.012591
-0.093588
0.572314
0.326571
-0.202195
-0.550288
-0.213325
-0.093351
-0.062016
-0.136430
-0.043286
0.915643
-0.112370
0.366643
-0.081464
-0.217486
0.403648
0.552609
-0.004832
0.294270
0.483648
0.552195
-0.251841
-0.217992
-0.363110
0.016759
0.171412
0.606091
-0.548986
-0.231154
0.991906
-0.280022
0.063453
0.258474
-0.012727
0.539039
0.089702
0.025111
0.441407
0.029406
-0.514834
-0.832428
-0.638548
0.243116
0.281220
0.208216
0.356433
-0.087335
-0.564046
-0.208294
0.278766
-0.170781
0.792254
0.434812
0.069369
0.972532
-0.126214
-0.315993
0.464171
-0.121920
-0.116299
0.231347
-0.221444
-0.389172
0.467904
-0.652512
0.002129
0.889249
0.894709
-0.328556
-0.010445
-0.144934
-0.311948
-0.228897
0.234700
-0.040753
-0.054989
-0.374250
-0.169919
0.209484
-0.697664
0.198016
0.178756
0.095424
-0.227343
-0.229223
0.018642
-0.188050
-0.245490
-0.690425
0.007491
-0.122418
-0.488739
-0.057325
0.026114
0.216132
-0.014531
-0.034407
0.926624
0.353705
-0.355942
0.025227
0.401932
-0.847394
0.253508
-0.242765
-0.631761
-0.834667
-1.205004
-0.280563
-0.957548
0.628189
-0.617009
0.300138
-0.393389
0.376869
-0.668817
0.338485
-0.692767
0.239275
0.026435
-0.050275
0.176901
0.101581
0.203895
-0.151663
0.262426
0.166555
0.056358
-1.038571
-0.210430
0.119143
0.599260
0.020510
-0.085962
-0.206956
-0.441636
0.345637
-0.513877
0.168795
0.441691
-0.240005
-0.445945
0.057972
-0.401004
0.269165
0.538284
0.518221
-0.277251
-0.443915
-0.152215
-0.554974
-0.210791
0.276920
0.035201
-0.318338
-0.189042
0.309205
0.640041
0.175037
-0.184891
-0.614559
-0.124264
-0.134577
0.884009
0.187716
-0.129098
-0.018288
0.115545
0.327751
0.000132
-0.019149
0.031807
0.662356
0.652163
0.191575
-0.627975
0.315000
-0.111321
0.446763
0.366399
-0.218666
-0.710475
0.370586
-0.444808
0.426685
0.086006
-0.225923
0.340515
-0.006514
0.570345
0.538050
-0.498225
-0.966076
-0.116529
0.807992
0.021282
-0.118256
0.125574
-0.455959
-0.161486
0.315735
-0.305276
-0.114840
0.428521
-0.347372
-0.760917
0.220021
1.143838
0.476277
0.343046
-0.107911
0.647923
0.239956
-0.275254
0.150269
0.503010
0.672894
0.053196
0.200830
-0.000484
0.245099
0.056199
-0.378515
-0.186272
0.617592
-0.150008
-0.554544
-0.140470
0.559064
-0.838837
-0.033257
0.506233
-0.417139
0.490430
-0.148200
-0.634003
-0.456765
-0.293714
-0.076143
-0.706549
0.182075
-0.120623
-0.536441
0.498331
0.613858
-0.579931
0.100252
-0.172775
-0.097672
-0.149669
0.687527
-0.193996
-0.609048
0.297261
0.179617
-0.551411
-0.420661
0.081755
-0.140514
-0.007476
-0.189285
0.142082
-0.844931
-0.471103
0.068767
-0.221476
-0.009064
-0.304238
0.145726
-0.538494
0.245429
0.229144
-0.471006
-0.271447
-0.530160
-0.169009
-0.185721
-0.453005
-0.267006
0.296904
-0.633193
-0.097471
-0.471197
0.205396
0.762738
-0.391916
-0.220572
-0.417498
0.097275
-0.470231
0.206729
-0.210495
0.172132
0.435327
-0.132087
0.204484
0.442422
0.224932
-0.410131
0.440958
0.233700
-0.145300
0.406703
0.686690
0.152074
-0.126832
-0.050759
0.161170
-0.184215
-0.172859
-0.473347
0.052636
0.443305
0.399280
0.295639
0.120714
0.391650
-0.224194
-0.502182
0.028738
0.372649
0.525672
0.374699
-0.106195
-0.624125
0.295713
1.184138
-0.237048
0.193238
-0.804283
0.510160
-0.026862
-0.116264
-0.246906
0.287108
0.055726
-0.639552
-0.786284
0.331422
-0.163137
0.453696
-0.018394
0.600234
0.504511
0.280111
-0.081744
0.076124
-0.267364
0.070956
-0.103731
-0.920234
-0.497269
-0.392718
-0.205570
-0.002979
0.318928
-0.297364
-0.314941
0.234074
0.347481
0.003262
-0.808778
-0.302399
0.557826
0.196328
0.048605
0.021203
-0.600811
-0.073771
-0.234293
-0.687838
-0.759417
-0.226001
0.188680
1.170458
0.034892
-0.246373
0.642511
0.196077
-0.718624
-0.652322
0.158159
0.083194
-0.073335
0.567437
0.346761
0.665746
0.217736
-0.072920
-0.092285
-0.162329
0.125571
0.394314
-0.208044
-0.401109
0.149339
-0.492828
0.248951
0.560591
-0.431054
-0.282048
1.085283
0.837180
0.800996
0.163908
-0.696558
-0.083153
-0.002993
-0.039653
-0.223155
0.014165
0.177632
-0.454478
-0.725865
-0.231943
-0.217764
0.670014
-0.423161
0.381448
-0.156397
0.035432
-0.485560
0.201621
-0.239981
0.478693
0.025055
0.333204
-0.328634
0.189751
0.336425
0.062007
0.613494
0.173490
0.294459
-0.237126
0.593805
-0.494722
0.532265
0.275011
0.388500
-0.265875
-0.688240
0.502753
-0.130626
-0.204029
0.589749
-0.648974
0.056260
-0.352882
0.153423
0.043414
-0.465857
-0.441623
0.453795
0.010460
0.277348
-0.083101
0.069924
-0.074822
-0.193474
-0.268190
-0.956761
0.184102
0.068393
-0.129452
-0.055078
-0.255818
0.087325
0.558535
-0.188089
-0.173166
-0.631662
-0.383432
0.561666
0.426114
-0.331872
0.441498
0.259584
-1.205687
0.023456
-0.036053
0.053364
0.051803
-0.411612
0.153815
-0.295252
-0.463344
-0.508518
-0.747657
0.351787
0.002556
-0.020497
0.689180
-0.306562
-0.265993
-0.745500
0.878003
-0.104351
0.021854
0.026123
0.268459
-0.107799
0.360338
-0.511140
-0.484088
0.270264
-0.353935
-0.010692
0.612389
-0.001844
-0.341043
0.050252
0.685431
-0.078100
-0.152115
0.117533
-0.111886
-0.160423
-0.693790
-0.709525
0.036974
0.427228
-0.045837
0.171411
-0.935778
-0.539313
0.098259
-0.238780
0.329454
1.097079
-0.390672
0.201678
0.711976
0.687214
0.245005
-0.583076
0.480810
0.096065
0.159535
-0.504356
1.223362
0.000892
-0.099981
-0.201745
0.409856
0.164792
0.126144
0.156641
-0.329373
0.369109
-0.296838
-0.252701
-0.086638
-0.123961
0.285024
0.658399
0.126259
1.007601
-0.211236
0.437990
-0.095671
-0.811205
-0.060990
-0.349606
0.025881
-0.086707
0.082209
0.483954
0.276381
0.015318
0.196890
0.554869
0.357045
-0.192957
-0.124515
-0.207990
-0.480759
0.661385
-0.445364
0.375748
-0.910458
0.712293
0.164096
-0.149478
-0.241998
-0.416396
-0.126019
-0.555685
-0.008631
0.169745
-0.563360
0.058890
0.096589
-0.128381
-0.082912
0.595930
-0.472978
-0.893625
-0.353465
0.013276
-0.423202
-0.128487
-0.533725
-0.340578
0.442097
-1.003354
-0.093385
0.099019
-0.274579
0.527747
0.635264
0.352496
0.500640
-0.225342
0.192775
-0.339656
0.531784
-0.011015
-0.510254
-0.166139
0.094410
0.448843
0.114687
0.108329
-0.311799
0.330382
-0.074695
-0.781691
-0.072575
-0.203674
-0.649287
-0.173029
0.633144
0.083676
0.157942
-0.681999
-0.042173
0.049810
-0.002666
-0.404615
0.606517
0.035450
-0.015685
-0.244384
-0.008045
0.387341
0.284773
0.391455
0.611414
-0.213709
-0.141933
0.846731
-0.015255
0.366929
-0.374770
-0.074339
-0.133088
0.641259
-0.110938
0.194456
-0.020067
0.136377
0.133154
0.490342
0.007852
0.633322
-0.288006
0.269450
0.072305
0.104745
-0.306214
0.421409
-0.407020
-0.358529
-0.224023
0.321727
-0.306896
0.191517
-0.175679
-0.309050
0.116060
-0.171538
-0.431653
-0.485876
-0.107423
0.123982
0.367437
-0.181571
0.293517
0.236032
0.235928
0.374025
-0.670003
-0.192240
-0.141900
0.052538
0.945246
-0.050178
-0.640474
0.132405
0.642809
0.420440
0.455694
0.661272
-0.213615
-0.700935
0.099581
-0.727769
0.442185
1.008650
0.828888
0.029194
0.475005
0.391994
0.504268
-0.369883
0.381314
0.068205
-0.361049
-0.150243
0.263169
0.307090
-0.289434
-0.204076
0.291141
-0.024704
-0.044970
0.539726
-0.495361
-0.175888
-0.090696
0.766146
-0.417433
0.223250
-0.001998
0.014856
0.465250
-0.282167
-0.079654
0.295741
0.245717
0.181723
0.095107
0.084280
0.333811
-0.428788
-0.506693
0.504734
-0.778292
0.526007
0.734451
0.360172
0.386611
-0.819244
0.045441
-0.256382
0.860530
-0.197720
-0.345512
-0.784640
0.552218
0.210716
0.288948
0.724124
-0.336451
-0.426506
-1.061349
-0.400002
-0.067255
0.242520
-0.077238
0.264675
-0.171166
0.331221
0.536064
-0.253578
-0.140888
-0.024413
-0.396260
-0.214326
-0.350236
0.030977
-0.853035
-0.503004
0.664931
0.107850
-0.142190
-0.174595
0.122427
-0.235307
0.279746
-0.266558
0.530241
-0.152991
-0.095150
0.080923
0.308820
-0.394903
-0.185117
-0.560830
0.260782
-0.196142
0.076241
-0.108288
0.563975
0.069898
0.319519
-0.534313
0.117068
1.018922
0.329129
-0.366278
-0.754028
-0.434083
-0.161064
-0.140515
-0.363459
0.078794
0.192284
-0.258280
0.358247
-0.421715
0.124524
-0.357784
0.809839
-0.368150
0.101078
-0.011824
0.787165
0.120652
-0.043798
-0.571493
-0.334416
-0.382834
-0.255655
-0.018211
0.467659
0.171638
-0.162872
0.322204
0.583318
-0.366323
-0.550988
0.139710
0.064691
-0.177348
0.622584
0.190062
-0.575165
0.661180
-0.104205
0.581670
0.019933
-0.455627
0.062187
-0.140485
-0.023714
-0.667718
0.575913
0.469808
0.369792
0.685610
1.022922
0.093083
0.728342
1.069607
-0.484820
0.047418
0.137162
0.227810
0.215886
-0.150498
0.386113
0.282528
-0.165704
0.337231
-0.753223
-0.460332
-0.529728
0.840843
0.276354
0.397993
-0.485996
-0.002947
-0.217758
0.002541
0.245525
-0.159662
0.391412
0.234646
-0.141057
-0.156943
0.665492
0.553291
0.070323
0.022220
0.285488
0.530341
0.063151
-0.135960
-0.019236
-0.215805
0.133305
0.245751
0.212981
0.025408
-0.025590
-0.167233
0.132835
0.006059
1.019454
0.879526
0.455023
-0.290822
-0.347799
-0.286567
0.089984
0.020993
0.853059
0.107523
-0.913925
-0.719090
0.314591
0.036998
-0.822325
-0.640556
-0.216922
-0.014056
0.041865
-0.592797
-0.189623
0.098390
-0.270345
-0.061520
-0.234133
-0.112233
0.039757
-0.294085
0.169793
-0.282466
0.538814
0.024404
0.110488
-0.068586
-0.091066
-0.329728
-0.177487
-0.071562
-0.607929
-0.457768
0.344965
0.167384
-0.228046
-0.128782
0.170990
0.152442
-0.456948
0.379081
-0.393794
-0.717778
-0.597052
-0.317787
-0.562857
-0.576279
0.729216
-0.242249
-0.469352
-0.209506
-0.449689
-0.124428
0.124517
0.800488
0.402262
-0.058154
0.425513
-0.152021
-0.301136
0.359115
0.305426
-0.417669
-0.254089
-0.738420
0.175326
-0.033162
-0.371166
-0.392300
0.197557
-0.433838
-0.669102
-0.019760
-0.275680
0.121137
0.259690
0.408452
0.289992
0.172466
-0.606920
0.013045
-0.133296
-0.711431
0.087366
0.505116
-0.201275
0.019942
0.023863
-0.677469
0.502932
0.492554
-0.283400
-0.095566
-0.058311
0.408559
0.097656
-0.728825
-0.392408
0.157315
-0.920268
0.330687
-0.319739
-0.015664
-0.408669
0.625858
0.288072
-0.211180
-1.013009
0.094629
-0.271419
-0.644028
0.739939
-0.237086
-0.096412
-0.399369
0.351530
-0.838247
-0.114965
-0.060106
0.328816
-0.128669
0.152968
0.477999
0.521947
-0.020732
0.585453
0.037745
-0.417559
-0.020338
0.365493
-0.967940
-0.407466
-0.135644
0.170806
0.470191
-0.112084
-0.372654
0.486033
-0.121874
-0.547135
0.132819
-0.649784
-0.559785
0.693004
0.442855
0.258763
-0.455758
-0.209492
0.265605
-0.110056
0.386614
0.491076
0.367588
0.649736
0.237233
-0.100859
-0.065546
-0.160504
-0.068285
0.438454
-0.037079
0.034632
-0.425569
0.459658
0.290416
-0.330556
-0.386365
-0.351533
0.602219
-0.271109
0.385175
-0.259575
-0.795950
1.157295
-0.162204
-0.018319
0.221203
0.740896
0.516839
-0.509552
0.470487
0.154476
-0.205524
0.424553
-0.858408
-0.435859
0.319508
-0.145118
-0.356616
0.287238
-0.125677
0.327642
0.571201
-0.943406
-0.187049
0.238168
0.509629
-0.673056
-0.236223
-0.247630
0.319065
-0.659401
0.505025
0.019812
-0.273411
-0.298297
-0.698922
0.078488
-0.138553
-0.350683
-0.812577
-0.732532
-0.553688
-0.090325
0.171527
-0.210154
-0.271409
-0.262289
0.006456
0.288868
-0.000879
-0.334338
-0.718132
-0.486466
-0.514221
-0.542006
0.030321
0.544916
0.189192
-0.009909
0.326813
0.904000
0.420622
-0.374718
-0.388279
0.359502
-0.070633
-0.404638
-0.590021
0.219039
0.585942
0.058751
0.155064
-0.721463
0.343316
0.675197
-0.782008
-0.035211
-0.721825
-0.240732
0.221704
0.186687
-0.319000
-0.379609
-0.150750
-0.404922
0.200739
0.359927
0.273628
-0.296953
0.573405
0.218918
-0.476572
0.506558
-0.298369
-0.102734
0.207897
-0.952464
0.164023
-0.160672
0.437103
-0.080829
0.052100
-0.321157
-0.711010
-0.350594
-0.127941
0.239097
0.415182
0.648990
0.193607
0.300627
-0.504722
-0.247275
0.087074
0.096403
0.055132
0.134545
0.044286
-0.112911
0.212994
-0.305899
0.348280
-0.228102
0.633904
0.017409
-0.638019
-0.003817
-0.020986
0.194389
-0.570994
-0.272644
0.111829
-0.063792
0.060146
0.272014
-0.297876
-0.286617
0.543265
-0.095045
0.475163
-0.120692
-0.523075
0.291563
0.959203
-0.608477
-0.092005
0.360226
-0.795381
0.855710
-0.106286
-0.024166
0.212714
0.730754
-0.601553
0.006314
0.164577
-0.018244
0.537587
-0.494323
0.245177
-0.044796
-0.253152
-0.579309
0.187880
0.406059
-0.293302
-0.195065
0.950343
0.277955
0.273775
0.606465
0.587105
0.104532
0.375615
0.605969
-0.500119
-0.485705
0.344654
-0.070255
0.190386
-0.080156
0.168170
0.225763
0.355011
0.299976
0.323393
-0.100577
-0.598948
-0.917734
-0.039696
-0.231947
-0.116311
0.061661
0.499575
-0.821237
-0.633266
0.412408
0.007308
1.091674
-0.255732
-0.292688
-0.211897
0.265624
0.134280
-0.887804
-0.210087
-0.466002
0.558937
0.055788
0.228099
-0.153148
0.040947
-0.227884
1.039408
-0.176472
0.417262
-0.128166
-0.713437
0.311182
0.363856
0.068479
0.213012
-0.048085
-0.383745
-0.493389
-0.728873
0.345604
0.357645
-0.016849
-0.314616
0.593795
0.206556
0.746437
0.467768
0.566013
-0.157925
0.133258
-0.645529
-0.003088
-0.094972
-0.271555
-0.091505
-0.570475
-0.067596
-0.111669
-0.835444
0.145242
-0.505583
-0.308382
-0.672523
-0.104672
0.428344
0.549512
-0.274019
0.465266
-0.514721
-0.029668
-0.312043
-0.134443
-0.427348
0.538504
0.399420
0.133070
-0.494240
0.174786
-0.590048
-1.211205
0.707354
-0.228640
0.272165
0.689821
-0.540827
0.020330
0.654656
0.015145
0.340995
0.196274
0.139591
-0.446545
0.365731
-0.403290
-0.003010
-0.151818
0.913261
-0.636087
-0.074845
0.127967
0.258468
-0.036419
0.023579
-0.151138
0.474713
0.253076
0.463962
-0.770124
0.059268
-0.361965
-0.155359
-0.226847
0.148058
-0.173729
-0.652076
-0.355432
0.222374
0.203428
-0.130793
-0.820279
0.181849
-0.732765
-0.348329
0.246626
-0.358344
-0.067948
0.491499
-0.015029
-0.065221
-0.115392
-0.571048
-0.492212
1.049515
-0.087423
-0.361389
0.049526
0.634782
0.171679
-0.322036
-0.094785
-0.281717
0.082923
0.723410
0.654490
-0.316891
-0.048278
0.106813
0.267560
0.506378
0.757364
-0.628861
-0.319160
0.125613
-0.243743
0.306462
-0.455499
-0.252950
-0.355635
-0.273025
0.113986
0.321212
0.200356
-0.346906
1.126612
0.130508
-0.083439
-0.662726
-0.109806
0.387657
-0.113805
0.403095
0.186587
0.298449
0.475246
0.196162
-0.571031
-0.025818
-1.038665
-0.221964
0.184173
0.607525
-0.763054
-0.388037
-0.345456
1.001832
-0.564857
-0.551813
-0.181489
0.287420
-0.461817
-0.022839
-0.091544
-0.039303
-0.233052
-0.286702
-0.039330
0.014032
0.020950
-0.191491
-0.586254
0.246435
0.727302
-0.071065
-0.573726
-0.142475
0.185603
-0.144963
-0.214494
-0.043940
-0.144740
-0.026557
1.613342
-0.269420
0.385109
0.414759
0.134685
0.210056
-0.419155
0.442985
-0.116672
0.818455
0.228671
-0.731517
-0.134870
0.641788
-0.260443
-0.003854
-0.652129
-0.203302
-0.607605
0.761906
0.228453
-0.176097
-0.270701
0.320092
0.083101
-0.450347
0.421997
0.417484
-0.695945
-0.182111
-0.064186
0.044405
-0.146171
-0.291639
-0.251201
0.182361
0.229549
-0.308650
-0.080790
0.318487
0.032831
0.298291
0.232963
0.269173
0.364017
-0.393267
-0.200948
0.205243
-0.551123
-0.880087
0.419657
0.002537
0.111976
0.419664
0.087689
-0.273156
-0.174055
0.192764
-0.371914
-0.301102
-0.258218
-0.233765
-0.152521
-0.520217
0.055748
0.128037
0.195948
0.648295
0.057247
-0.201175
0.009837
0.309356
0.077849
-0.198170
0.070089
-0.324157
-0.623649
-0.144230
0.327187
0.467761
0.250781
0.020714
-0.104165
-0.286436
-0.481461
0.412627
-0.320087
-0.318558
-0.197473
0.070522
0.195788
0.418163
-0.075870
1.068336
0.418910
-0.539961
-0.636977
-0.409202
-0.257614
0.188105
-0.488064
0.237454
0.236816
-0.290896
-0.385458
0.871860
0.690187
-0.472108
0.685447
-0.336616
-0.007126
0.262742
-0.016074
-0.093640
-0.844297
-0.073542
0.031887
0.444627
1.112127
0.419649
0.766563
-0.865085
0.104301
0.270396
-0.425990
-0.522479
0.060291
-0.027229
0.157588
-0.332527
0.088115
0.687602
-0.537776
0.619887
0.009127
-0.342311
-0.481072
-1.034912
-0.060205
-0.492858
0.877128
-0.011255
-0.424147
0.207116
0.275636
0.144334
-0.006947
-0.187189
-0.045014
-0.114777
-0.931352
-0.651398
1.317340
-0.058270
-0.021069
0.409220
-0.447992
-0.119453
-0.466271
0.324104
-0.430117
0.687287
0.142587
-0.274638
-0.133355
0.686263
0.151993
0.078937
1.025330
0.562234
-0.423789
-0.384284
0.294133
-0.188997
0.057209
-0.977959
0.160228
1.342139
0.348351
-0.369516
0.084165
-0.006273
-0.061489
-0.177723
0.710990
-0.596713
0.101348
0.094276
-0.339154
-0.080415
-0.222550
-0.412343
-0.208995
0.149562
0.346675
1.006784
0.553244
0.176972
-0.217533
-0.046752
-0.124040
0.180126
-0.207718
-0.074571
0.669851
0.359313
-0.081098
0.126730
-0.088543
0.564047
0.473236
0.132211
-0.106072
0.171566
0.134364
0.096218
-0.049651
-0.160808
0.383708
0.360849
-0.198240
0.659055
-0.145654
0.226206
-0.194630
-0.656544
0.440869
0.946827
0.977272
-0.909466
-0.442919
-0.286456
-0.163478
0.474007
0.375130
-0.325801
-0.038360
0.124213
0.330457
0.417949
0.101228
-0.055169
0.677304
-0.594398
-0.164033
0.779111
-0.293040
0.006001
-0.275939
0.206076
-0.430944
-0.052726
-2.072013
-0.181804
0.308130
-0.086243
-0.001596
-0.435656
0.448147
-0.004008
0.003078
-0.376744
-0.695939
0.097703
-0.000507
-0.090410
1.347421
0.003776
-0.842496
-0.106875
0.312726
-0.101754
-0.386909
0.231265
-0.145428
-0.030080
-0.649224
0.425690
0.187257
1.237060
-0.586278
0.592925
1.143305
-0.889742
-0.876484
0.049205
-0.062313
-0.170990
0.605942
0.458513
-0.569372
1.015168
1.456080
-0.677330
-0.419164
1.333277
-0.684471
0.609611
-0.506643
1.460755
-1.006002
-1.033698
-3.453894
1.822572
-0.568707
-0.585443
-0.254213
0.863835
-0.939393
-0.721835
-0.533142
-2.427876
-0.179528
0.796587
0.779318
0.519719
2.767758
-0.816586
-2.804302
-0.298125
-0.537457
-0.367158
1.012701
0.547155
-0.121171
0.670423
0.369207
-0.165551
-0.472942
3.041013
-0.146093
0.557778
2.979765
-1.108597
-2.238031
1.634515
-1.998717
1.144992
-0.653928
0.582851
