0.156968
-0.511960
-0.076203
0.000292
1.038677
0.260461
0.285793
0.507308
0.427117
0.449438
0.104840
-0.406349
0.061394
-0.270789
0.580928
-0.414535
-0.030108
0.273813
0.237187
-0.379815
-0.200359
0.764489
0.213339
0.671679
0.158082
0.247487
-0.074416
0.102556
0.133504
-0.092044
-0.754100
-0.613529
-0.769060
0.246499
0.480842
-0.853403
0.193466
-0.329772
-0.202672
-0.224547
-0.756217
-0.332898
-0.287246
-0.132116
-0.120311
-0.151341
-0.280607
-0.057691
0.531100
-0.579917
0.527796
0.353374
0.311623
0.199147
-0.325071
-0.387563
-0.262700
0.385022
0.300671
-0.365328
0.284566
0.626774
-0.352315
-0.588627
0.059160
0.793571
0.301099
0.626257
-0.642778
-0.279428
0.039098
0.030293
-0.672260
0.703582
0.113644
-0.347524
0.066169
-1.011982
-0.510437
0.151593
0.499261
0.132069
-0.268290
-0.408418
-0.786424
-0.057533
-0.200658
0.138551
0.225709
-0.326270
-0.116834
0.009901
0.295766
-0.906312
-0.766585
0.684835
-0.545353
-0.606735
0.652793
0.371547
0.150428
0.052077
-0.497646
0.392328
0.243441
-0.304033
0.768425
-0.006955
-0.193743
-0.132691
-0.223743
0.331989
0.109525
0.223819
0.005779
0.329313
0.005011
0.154105
-0.144500
-0.022769
0.228666
-0.519894
0.036608
0.316091
0.140593
0.308890
-0.139957
-0.203945
0.785269
-0.618479
-0.133494
-0.048243
-0.992542
0.021318
-0.191666
0.036022
-0.748701
0.363526
-0.080115
-0.037338
-0.931637
0.265405
0.439500
0.593893
0.011144
0.024021
0.203888
-0.112151
-0.261856
0.072844
-0.217952
-0.185291
-0.124968
0.760329
0.463681
0.261683
0.519090
-0.004311
0.152229
-0.838947
0.096833
-0.677334
-0.565526
0.684318
0.101329
0.547255
0.351054
-0.692102
-0.889257
-0.778443
0.378202
-0.097479
-0.371334
-0.310727
0.424219
0.044144
-0.195150
-0.391693
0.094270
0.215514
0.168613
0.287568
0.291329
-0.237530
0.184298
0.088488
-0.153672
0.420343
-0.183881
0.107038
0.265964
-0.198499
-0.383696
-0.046676
0.380029
-0.489819
0.663263
0.041804
0.004189
-0.677553
-0.211530
0.110346
0.347421
-0.284275
-0.388091
0.453719
-0.565476
0.276867
0.432916
-0.050195
0.358974
-0.038337
0.130669
0.333781
-0.240875
0.301773
-0.274698
0.065057
0.273093
0.560215
0.538658
0.033022
-0.350287
0.640271
-0.438076
0.290416
0.533833
-0.114909
0.385528
0.017488
0.090457
-0.107141
0.281000
-0.214197
-0.297366
0.097527
-0.521990
0.564741
0.168510
0.497364
-0.131598
0.081486
-0.241943
-0.136684
0.195095
0.365884
-0.041295
0.678176
0.767462
0.086637
-0.596746
0.023676
-0.058229
-0.064319
0.127403
0.234288
-0.039954
0.054581
-0.401346
0.559886
-0.000483
-0.226419
0.401536
0.035403
0.044235
0.147427
0.294247
-0.439400
-0.416321
0.632503
0.298353
0.090575
-0.592247
0.420250
0.313715
0.164359
0.027755
0.311515
-0.423728
-0.934230
-0.699234
0.034545
-0.072950
-0.151647
-0.167190
1.007527
-0.725978
0.689516
-0.296592
-0.263639
-0.067339
-0.377472
0.435734
0.916368
0.201569
0.264611
0.105713
0.681522
0.562028
0.259115
-0.493116
-0.000551
0.229682
0.765441
0.262292
-0.031450
0.099573
-0.252329
-0.129930
0.151381
-0.386259
-0.230313
0.179187
0.402491
-0.121884
-0.475745
0.476779
0.541493
0.415189
-0.913507
-0.130315
-0.291016
-0.254530
-0.474624
-0.008578
0.085503
0.098563
-0.277030
-0.080364
0.702059
-0.069349
0.494392
-0.803765
-0.535701
0.106293
0.036416
0.111951
0.032503
-0.420016
0.341470
0.205540
-0.219965
-0.245539
-0.037412
0.433359
-0.009128
-0.071687
0.089420
-0.229995
0.078703
0.005735
-0.588733
-0.395031
0.352368
-0.465878
0.134769
-0.240066
-0.175146
-0.661057
-0.212662
-0.036472
-0.034601
0.271036
-0.035044
-0.297218
0.248030
-0.260715
0.636645
0.063951
0.262436
0.668887
-0.442009
0.319376
0.197746
-0.566645
-0.676077
-0.482371
-0.041167
-0.443728
-0.085212
-0.536168
-0.104854
-0.331674
-0.410339
0.003928
0.640935
0.196002
0.094130
0.092493
-0.180109
-0.016956
0.479118
0.001948
0.672199
0.449407
0.345939
-0.285276
-0.109009
-0.550900
0.127447
0.045836
0.069583
-0.029677
-0.182848
-0.497097
-0.492026
-0.289007
-0.516408
-0.913454
0.009498
-0.175345
-0.435839
-0.574623
-0.171765
0.588127
0.540283
0.007188
-0.354912
-0.353109
0.503951
-0.605952
0.759936
0.012747
0.417295
0.201401
0.132373
0.525118
0.104818
-0.023991
-0.741391
0.012761
-0.108247
0.311022
-0.771676
1.120074
0.070078
0.366364
-0.572913
0.172776
0.089495
-0.160956
-1.076172
-0.459022
0.732229
0.085035
-0.401448
-0.514697
-0.485532
0.168338
-0.032822
-0.199121
-0.321755
-0.102800
-0.049647
-0.272111
-0.266860
0.536683
-0.305678
-0.199856
0.143133
0.418762
0.637341
0.376007
-0.432451
-0.218288
0.186483
0.297079
0.163781
-0.545281
0.005067
0.161102
-0.088001
-0.363653
-0.219387
0.207590
-0.493236
-0.766646
0.104171
-0.114723
0.454922
0.501283
-0.502641
-0.968835
-0.388167
-0.593173
-0.417134
0.630142
-0.070501
0.035439
-0.084325
-0.553075
-0.135559
0.374792
0.440121
-0.194749
0.183235
0.158229
-0.275886
0.482444
-0.323345
0.191528
-0.323667
0.065597
-0.714581
-0.446278
0.320570
0.046224
-0.207809
0.807715
-0.756469
-0.238582
0.455227
-0.054854
-0.134166
0.311764
0.072122
0.603442
-0.737696
-0.431596
-0.376426
-0.538294
-0.156560
0.715149
0.330086
-0.163966
-0.576815
0.122456
-0.580986
0.014549
-0.398283
-0.247174
0.044701
0.005560
0.166810
0.173113
-0.168633
0.105146
0.733300
0.034152
0.466981
-0.331312
0.685021
-0.098718
0.399735
-0.892524
-0.643667
0.280926
-0.394715
-0.389945
0.550339
0.423834
0.222709
0.223553
-0.273712
-0.103973
-0.335059
-0.442414
-0.420511
-0.104154
0.252464
-0.206844
0.051842
-0.170943
-0.220012
0.170025
0.289915
-0.276252
0.633630
-0.066688
-0.457311
-0.157993
-0.030309
0.193003
0.441411
-0.158389
0.501233
-0.144240
0.068606
-0.543211
-0.120454
0.304967
0.580622
0.201390
-0.343648
-0.076220
-0.463838
0.548194
-0.549770
0.417771
-0.441198
0.035611
-0.314880
0.265304
0.139872
0.092761
-0.461163
-0.236696
0.520747
-0.468229
-0.845008
0.330160
0.254711
0.209186
-0.160134
0.419525
0.719637
0.342695
-0.040323
0.326482
-0.100840
-0.493890
0.045306
0.221232
-0.148646
0.027686
0.158571
-0.255024
-0.257701
0.348925
-0.455189
0.529917
0.078182
-0.402306
0.045475
0.380699
-0.340396
-0.649250
0.131931
-0.021530
0.216534
-0.417199
-0.604191
-0.999775
-0.069180
0.136801
-0.226103
-0.227643
-0.101592
-0.195364
-0.301135
-0.094250
-0.267841
0.188983
-0.003644
-0.297076
0.269099
0.594608
0.519461
-0.123463
0.114799
-0.199422
0.182167
-0.423162
-0.456160
0.618921
0.160562
-0.657507
-0.103936
-1.131606
-0.312238
-0.224940
-1.242685
-0.614632
-0.191958
0.377483
-0.016231
0.262601
0.014959
0.216732
0.152819
-0.472085
0.331785
-0.687447
0.014468
-0.274588
-0.355086
0.444932
-0.698638
0.333242
0.129481
0.152797
0.711829
-0.323588
-0.079354
-0.399205
-0.151577
0.495059
0.211711
-0.415715
-0.587661
-0.492760
0.549776
0.040150
-0.188937
-0.289002
0.342889
-0.388066
-0.117649
0.562249
-0.329248
0.183558
-0.006292
0.042010
-0.894343
0.382055
0.072223
0.027106
0.220181
-0.423167
-0.237228
0.525220
-0.059828
0.549105
0.343084
-0.368188
0.025279
0.619550
0.062807
-0.201622
-0.173109
0.459062
-0.070572
-0.744871
-0.418821
-0.113280
0.143409
0.421313
0.186520
0.003300
0.373866
0.036031
0.398118
-0.035515
-0.145961
0.622824
0.663608
0.009155
-0.173452
0.019035
-0.135194
0.286884
0.045266
-0.661403
-0.000144
-0.309507
0.406051
0.006773
-0.699128
0.140894
0.331919
0.710336
-0.746855
0.278248
0.518291
0.629735
0.059639
-0.060194
-0.326583
-0.082161
-0.510521
0.267023
-0.078136
-0.318669
0.266517
-1.004896
-0.206351
0.200014
0.103246
-0.168114
-0.240840
-0.105579
0.473626
-0.779021
-0.347248
0.584680
0.338258
0.087705
0.363126
0.271851
1.128849
-0.570937
-0.021130
0.331575
0.663081
-0.636290
-0.293163
0.342970
0.133565
0.303987
0.024469
-0.180143
-0.626017
0.130224
0.083115
0.012943
-0.751217
-0.716713
0.612706
-0.364779
0.496520
0.393155
0.613998
-0.064413
-0.147290
-0.021347
-0.004697
0.143025
0.068668
0.386129
-0.629699
0.229733
-0.467057
0.219243
0.680185
-0.023449
-0.786231
0.141373
1.129643
-0.553484
-0.004410
0.145425
-0.823845
-0.550935
0.008663
-0.664567
0.366581
0.382124
-0.124197
0.299041
0.470097
0.043143
0.197905
0.100915
-0.264317
-0.044521
0.238496
0.189229
0.456383
-0.124975
0.250156
-0.169885
-0.126465
0.060903
-0.413209
0.069815
0.432371
0.026236
0.065723
0.400794
-0.357865
0.466050
0.710633
-0.792724
0.032059
-0.490179
0.573093
-0.027410
-0.394414
-0.722082
0.185624
0.235847
-0.034350
0.151233
0.181403
-0.054307
0.290700
0.446834
0.579714
-0.504214
0.601849
0.037706
-0.000784
-0.210985
0.208640
-0.585675
0.248153
-0.108012
-0.320870
-0.075212
0.101653
0.095205
-0.793045
0.473785
-0.054024
0.218922
0.467114
0.184224
0.541664
-0.037837
-0.210500
0.061471
0.413408
-0.216313
0.443041
0.478848
0.601613
0.232592
-1.060271
-0.750172
0.578220
0.477011
0.034703
-0.518688
-0.108811
-0.047013
0.080999
-0.009006
-0.433864
-0.627338
-0.727450
-0.316832
-0.643504
0.122846
-0.180435
-0.115996
0.398319
-0.313787
0.124267
-0.675014
-0.142361
0.064276
-0.161146
0.242557
-0.116087
-0.045949
-0.336709
0.377940
0.483042
0.065212
1.014547
-0.145814
-1.202795
0.411815
0.126036
-0.403045
0.053051
0.203882
0.324329
-0.329836
0.047136
-0.436473
0.055994
-0.318720
-0.108611
-0.521885
-0.289929
0.329553
0.093728
0.463580
-0.007106
0.763350
0.447140
-0.094864
-0.168884
-0.701506
0.234560
0.143602
-0.508886
-0.038873
-0.032156
0.282129
-0.428618
-0.251726
-0.249505
-0.838524
0.201065
-0.052752
-0.158849
-0.275610
0.202724
0.027478
-0.148680
-0.169393
0.188689
-0.106132
-0.542300
-0.565775
0.474355
0.333605
-0.235469
0.052136
0.003654
0.391301
-0.499475
0.115531
0.317900
0.462834
-0.216505
0.179115
-0.004373
0.636493
-0.379282
0.427927
0.116566
0.698853
-0.413295
-0.194718
0.596885
0.127156
-0.989409
0.519012
-0.585625
-0.001441
-0.107432
-0.123665
0.549128
0.723009
0.121491
0.633094
1.101234
-0.224333
-0.060744
-0.029401
0.052037
-0.020668
-1.047022
0.447553
0.496615
-0.141055
0.162432
0.524224
-0.125832
-0.832154
-0.506612
-0.106476
-0.516083
-0.175127
0.504236
0.130872
-0.399883
-0.208326
0.876973
-0.090711
-0.576780
-0.450336
-0.084771
-0.483460
0.080403
1.084053
0.034907
0.389344
0.708231
0.015197
-0.138934
-0.141800
0.120133
-0.538936
-0.194680
0.323028
0.457925
-0.411009
-0.109795
0.264167
0.202771
-0.163270
-0.549206
0.229298
-0.052915
0.017261
0.203869
0.100349
0.070222
-0.196178
-0.384650
0.456331
0.350765
0.364973
-0.569282
-0.288324
0.254270
0.832910
0.929212
0.099711
-0.213522
-0.268196
-0.242667
-0.403524
-0.396546
-0.697353
-0.057737
-0.391537
0.246952
0.468860
0.633297
0.983656
-0.073168
-0.125613
0.024748
0.180997
-0.164292
0.211971
0.220492
-0.161721
0.129876
0.483447
0.926036
0.744582
-0.195919
-0.647309
0.153164
-0.030959
0.277175
-0.192720
0.237726
0.539238
0.446775
-0.155610
0.155207
0.532012
-0.008687
-0.473155
-0.155448
0.189697
0.063120
0.309637
-0.788685
-0.332101
-0.253914
0.433953
0.208224
0.063422
0.200245
0.726022
-0.402243
-0.021509
-0.006550
0.634730
0.671642
-0.072957
-0.234478
0.150187
0.263987
0.314760
-0.130657
-0.606774
-0.156186
0.472290
0.249642
0.670768
0.453198
0.181554
0.282515
-0.086737
-0.021046
-0.434813
0.977073
-0.041494
-0.286320
-0.429271
-0.329043
0.206205
-0.078099
0.180883
-0.273120
-0.070732
0.120940
-0.037845
-0.306106
-0.085499
-0.804338
-0.140330
-0.053305
-0.707009
-0.360638
0.196524
-0.139255
-0.312123
-0.857824
0.546522
0.030375
-0.167622
0.273195
-0.201186
-0.269777
0.144471
-0.369984
0.026841
-0.333157
-0.219095
-0.715771
0.268456
-0.588890
0.641822
0.142583
-0.451109
-0.033261
0.217648
-0.033356
0.263303
0.438188
-0.004408
-0.193955
0.361793
0.373716
0.324383
-0.706493
0.263283
0.028508
-0.602544
0.082505
0.352891
-1.021467
-0.436207
0.158264
0.036949
-1.117263
-0.380320
-0.702336
-0.326735
-0.039364
0.993666
0.014380
0.442524
0.566044
0.069917
-0.772307
-0.324483
0.473871
0.277527
-0.726130
-0.019952
-0.072587
-0.546898
-0.414262
0.853942
0.170231
0.009707
1.744957
0.624981
-0.013417
0.588470
0.090596
-0.216910
0.140343
0.221783
0.191738
-0.229132
-0.398015
0.242860
0.825130
-0.247998
0.546826
0.270563
0.126196
0.194359
0.461125
0.790060
0.559530
-0.792071
0.336095
-0.206471
0.137823
0.463132
-0.837769
0.705241
-0.031284
-0.523566
0.609548
-0.128806
-0.302284
0.695836
0.223822
-0.084877
-0.717863
-0.244640
0.074082
0.315855
0.113497
-0.163320
1.175809
0.144763
-0.509717
0.373862
0.609727
-0.560183
-0.001920
0.006901
-0.192169
0.444834
-0.299382
-0.059882
0.204739
0.401850
0.135820
0.549486
-0.260174
-0.791454
0.210192
0.617502
-0.650554
0.371815
-0.084099
0.143786
0.657874
0.180216
0.136256
0.673643
-0.935373
-0.531666
-0.598235
0.146687
0.145265
0.186325
-1.120378
-0.777339
0.329526
-0.019421
-0.375982
-0.114295
-0.006724
0.031858
0.357968
0.320718
0.617003
-0.149467
0.213397
0.099916
0.284877
-0.248136
-0.313946
0.812557
-0.359073
-0.366741
-0.536985
-0.044507
-0.506511
0.684424
0.049011
-0.618433
-0.504791
-0.463029
-0.288147
-0.203968
0.528960
0.251477
0.284361
0.327172
0.738364
-0.184103
0.052967
-0.603295
0.804482
0.205638
0.417432
-0.354967
0.424211
-0.235370
-0.273490
0.040646
0.036653
-0.447175
0.045070
-0.306049
-0.451458
0.542928
-0.234705
-0.384584
0.366956
-0.436805
-0.237636
-0.279949
0.114966
0.539718
-0.403447
-0.111035
-0.085747
0.685710
0.185561
-0.187026
0.167097
-0.019409
0.094477
-0.991557
-0.356213
0.131177
-0.419893
-0.896600
-0.136545
-0.049812
0.246052
0.512043
-0.063825
-0.098380
-0.175089
0.121583
-0.013853
-0.280157
0.156481
-0.141634
-0.303533
0.603918
0.445537
-0.217310
-0.225411
-0.386796
-0.165534
0.485162
0.322208
0.085026
-0.275550
-0.109941
-0.077889
0.363336
0.056644
-0.050881
-0.309357
-0.131829
-0.280635
-0.009672
0.094286
0.711216
-1.184459
-0.327298
0.271672
0.717153
0.103800
-0.909101
0.204857
-0.193699
-0.188440
-0.233061
-0.056087
-0.833541
-0.883549
0.037502
-0.258057
-0.178018
-0.554330
0.081453
-0.337257
0.501224
-0.161946
0.375087
-0.189691
-0.479148
-0.433889
-0.427830
-0.754583
-0.202306
0.048481
-0.111593
-0.348048
-0.197043
0.396660
0.078236
0.229951
-0.328630
0.062964
-0.234763
0.038140
-0.328287
-0.020560
-0.572712
-0.367128
-0.528190
0.211041
-0.605422
-0.429269
0.141713
0.161389
0.014826
-0.694568
-0.757261
-0.285852
-0.649138
-0.581989
-0.775665
0.644972
-0.570835
-0.117267
0.380754
0.704174
-0.015570
-0.836566
-0.006822
-0.251206
-0.056914
0.010605
-0.051376
0.235335
0.437878
-0.264636
-0.096261
0.026564
-0.823751
-0.262573
-0.533294
-0.296711
-0.155132
-0.043309
0.630936
-0.491546
-0.150320
0.295686
-0.441921
-0.301337
0.256178
0.080900
-0.885043
-0.596446
-0.297902
0.308996
0.331350
-0.192127
0.782410
-0.514071
0.307172
-0.111074
-0.226124
0.311128
-0.124361
0.059418
0.245497
-0.203141
-0.203626
0.223488
0.417670
-0.044956
0.380293
0.010727
-0.228344
0.376009
-0.094414
0.711754
-0.407706
0.165030
0.073099
0.635663
-0.480251
0.188075
-0.649635
0.113653
0.671803
0.300821
-0.681396
0.370524
-0.535997
0.332476
-0.654805
0.464178
-0.147923
-0.033544
-0.217791
-0.283050
0.172586
-0.603515
-0.324988
0.392949
-0.482635
-0.294564
-0.045845
-0.129345
0.454755
0.366137
-0.306410
0.698231
-0.514998
0.207074
-0.080781
-0.551248
0.342753
0.439657
0.257362
0.525175
0.448966
-0.087798
-0.643468
0.088660
-0.356068
-0.291736
-0.808786
-0.183162
0.299978
-0.364413
0.055852
-0.194948
-0.431784
-0.243730
0.258750
0.641771
-0.266793
0.148305
0.007881
-0.457402
0.196062
0.193089
-0.250777
0.474372
-0.017841
-1.069748
0.097291
0.149971
-0.175638
-0.463676
0.106182
0.448427
-0.303487
0.394171
0.498351
-0.544499
-0.065452
0.564295
0.243253
0.233768
-0.032792
0.170590
-0.230311
0.333473
-0.148828
0.017944
-0.022658
0.044369
-0.282927
-0.392260
-0.438408
-0.270995
-0.089860
0.531207
-0.449039
0.239670
-0.155489
-0.115566
-0.954785
0.391762
0.506813
-0.060952
0.467284
-0.164244
0.582384
0.640363
0.458833
-0.105862
-0.189661
0.211686
-0.155659
-0.636897
-0.468024
-0.373469
-0.723611
0.512113
0.482315
-0.498538
-0.028027
0.558238
-0.057940
-0.290558
-0.405597
0.291959
-0.247820
-0.006512
-0.359242
-0.157900
0.769129
0.314961
-0.431383
-0.081709
0.236446
-0.072824
-0.116644
-0.102891
0.079696
-0.925703
0.437581
0.022492
1.022974
-0.512633
-0.213294
-0.400972
0.321910
0.471638
-0.453410
-0.659965
-0.237845
0.117759
0.375380
0.526948
-0.332281
-0.127341
0.303051
0.200034
-0.451558
0.141029
0.135947
-0.391634
-1.328497
-0.013038
-0.205233
0.147843
0.363207
0.091798
0.501759
-0.072715
0.223450
0.040456
-0.166622
-0.330798
-0.142793
-0.602656
0.540603
-0.513884
0.475329
-0.318105
-0.102070
0.171032
0.545270
0.128569
0.180706
-0.276433
-0.355390
-0.093882
0.222868
-0.729422
0.323831
0.545782
0.370564
0.428964
-0.143520
-0.229250
0.230290
-0.175480
0.152859
-0.809694
0.155725
0.133383
-0.131766
0.379327
0.275064
-0.743886
-0.229068
-0.296845
-0.244335
0.196437
0.668306
-0.600390
0.522738
-0.336966
-0.017192
0.067173
-0.106028
0.071421
-0.704261
0.674546
0.203995
-0.056615
-0.132919
0.306490
-0.810314
-0.993682
-0.095864
0.147509
0.807359
-0.474114
-0.199020
0.459742
-0.085780
-0.014059
0.110354
-0.369895
0.453901
0.082679
0.415157
0.084432
-0.658470
-0.624798
-0.080167
0.211709
0.076687
0.538570
-0.401310
-0.152815
0.327148
0.151395
-0.045617
-0.257410
0.479322
-0.056113
-0.160711
-0.493892
-0.112152
-0.417922
-0.135646
-0.554532
-0.021737
-0.252993
0.297109
-0.522791
0.668325
0.149224
0.004045
-0.639265
0.473275
0.057723
-0.090904
-0.270928
-0.170828
0.250446
0.570653
-0.017379
0.477133
-0.531912
-0.689401
-0.244773
-0.290811
0.231325
-0.271661
0.482001
-0.348670
0.460564
0.634300
-0.228562
-0.401818
0.559738
0.341542
0.106301
-0.990797
0.476271
-0.314613
-0.706326
0.508375
0.584302
-0.269406
0.167615
-0.737733
0.446944
0.097930
-1.088818
0.359152
0.201436
0.354779
0.060789
0.123456
-0.266630
0.201486
-0.319604
-0.612230
0.148437
0.237297
0.260097
-0.346650
-0.316254
-0.110099
-0.125501
0.361036
-0.490907
0.430186
0.220220
-0.366247
-0.281000
-0.396498
-0.541876
-0.094740
0.286390
-0.063204
0.189832
-0.946044
0.168414
0.200881
-0.170591
-0.552192
-0.881739
0.434217
-0.038281
-0.112009
0.377275
-0.290462
0.063624
0.584072
-0.525513
0.175771
0.172809
-0.564143
0.701747
-0.068967
-0.566314
-0.095325
-0.244593
-0.105403
0.222674
0.033642
0.649293
-0.372177
-0.713479
0.115775
-0.302713
0.017032
-0.674504
-0.072461
-0.026873
0.141515
0.099113
0.472224
0.096926
0.277787
0.225040
0.223970
0.279951
0.650423
-0.118096
0.699912
-0.162614
0.812255
-0.039490
-0.122805
-0.010205
0.392796
-0.168370
0.091367
-0.084236
0.012403
0.025630
-0.972369
0.070401
-0.098781
-0.259027
0.322132
0.772210
0.411627
-0.435001
0.032489
-0.202348
-0.248503
0.401601
-0.383780
-0.760494
0.135360
0.757489
-0.193964
0.512252
-0.380408
-0.789754
-0.501765
-0.545901
-0.160641
0.178597
0.236001
0.194298
-0.067570
-0.214204
-0.416356
-0.320105
0.136812
0.468412
-0.068808
0.240831
-0.114105
0.594619
-0.542495
0.352710
0.887806
-0.214365
-0.247053
-0.854415
-0.461201
-0.538537
0.108895
-0.268642
0.206531
0.047650
-0.062323
-0.738361
-0.002323
-0.236293
0.008482
0.409820
-0.625455
0.012665
-0.089911
-0.164692
-0.174716
-0.717890
0.721273
-0.091127
-0.190949
-0.948788
-0.401503
0.209421
0.771783
1.248551
-0.351003
0.537238
0.086176
0.253807
0.118288
0.162913
-0.423603
-0.231685
0.090305
-0.447861
0.346722
0.452465
-0.190364
0.005337
-0.804329
-0.505000
0.361027
0.185579
0.473226
-0.415788
0.048116
0.345734
0.316456
0.504022
-0.345590
-0.028947
0.412368
0.650914
0.118831
-0.085573
0.459144
-0.230803
0.827484
0.738630
0.286392
0.322617
-0.281437
-0.248736
-0.018053
0.653742
-0.074507
-0.132487
0.189901
0.323499
-0.439921
0.046854
0.440952
-0.229902
-0.265023
-0.171771
-0.158180
0.253810
-0.589672
-0.356035
0.064472
-0.017501
0.082202
0.319294
0.139198
-0.123946
0.231146
0.525588
-0.067881
-0.272209
0.261227
0.391078
-0.115361
0.169418
0.309496
0.422034
-0.440548
0.536221
0.160426
-0.660794
-0.562446
0.338436
-0.389557
0.535111
-0.056300
0.604293
0.015761
-0.415854
-0.235410
0.358187
-0.754960
-0.663720
0.846296
0.184704
-0.410410
0.641406
0.049322
0.232081
-0.057546
0.120338
0.353142
0.105341
0.284931
-0.478111
0.367706
-0.205046
0.295725
0.173199
-0.456111
0.256609
0.092317
-0.528065
0.204801
-0.118587
0.326236
0.124096
0.336883
0.406407
-0.009291
0.056274
-0.477822
-0.059297
-0.272501
-0.279938
-0.113148
-0.133688
0.133870
0.103288
-0.631885
0.204627
0.336400
0.200330
0.070548
1.015566
-0.466212
0.656986
0.550603
0.218218
0.230594
-0.141343
-0.172725
-0.521057
-0.098616
-0.429697
0.000889
-0.048287
-0.206591
0.027250
-0.248877
-0.169849
-0.081002
-0.373006
0.171163
-0.309050
-0.573294
-0.296825
-0.146561
-0.477144
-0.590193
-0.163636
-0.500026
0.654509
-0.431169
0.657728
-0.135614
-0.122621
0.328169
-0.635189
-0.464807
-0.421345
0.284559
-0.535301
-0.381201
0.568218
0.244918
-0.182148
0.057623
0.769214
-0.100145
-0.313327
-0.729876
-0.229287
0.357841
0.214770
0.208829
0.268732
-0.634310
-0.200245
0.285531
-0.181507
0.302668
-0.490199
0.582983
-0.271292
-0.379218
-0.143826
0.457932
-0.300762
-0.164734
-0.324956
0.229089
0.085912
-0.710805
-0.339483
-0.931957
0.609209
-0.102637
0.470158
-0.113701
-0.795782
0.328720
0.225165
-0.718396
0.032454
-1.049871
-0.746646
0.704795
-0.595662
0.362401
0.450031
-0.039244
-0.623057
-0.447023
0.239149
-0.577840
-0.127389
-0.614544
0.103108
-0.067051
0.270805
-0.299672
-0.621975
-0.653240
0.074386
0.480763
-0.622176
-0.205725
0.388208
0.190875
-0.387371
-0.134986
0.022747
-0.390902
0.137114
0.107632
0.557229
0.071363
0.539966
0.426381
-0.325654
-0.284339
0.573572
0.256026
-0.906152
0.322355
0.189175
0.495628
-0.237949
0.449774
0.607872
-0.436860
-0.182718
0.232288
0.191132
-0.154285
0.395180
-0.670457
-0.000493
0.306376
0.665289
0.600113
-0.792982
-0.728412
-0.596424
-0.080556
0.011087
0.634827
0.220536
-0.545641
-0.334406
-0.248148
0.249535
-0.014699
-0.031860
-0.320712
-0.017995
0.376018
-0.464783
-0.574013
-0.325030
-0.206917
-0.168209
0.565451
0.503873
0.198096
0.476576
0.457905
-0.242951
0.492852
-0.422460
-0.266335
0.464193
0.068986
-0.125070
-0.086486
-0.291496
0.158666
0.785690
0.356504
-0.346433
0.076384
-0.236954
0.229342
-0.129404
-0.381383
-0.358790
-0.055622
-0.584444
-0.044416
0.031222
-0.264741
0.469218
0.407194
-0.366991
-0.076296
0.113956
-0.392061
-0.086829
0.173297
-0.045058
0.415640
-0.219068
-0.360729
-0.312806
0.135804
-0.790619
0.743799
-0.259217
0.067279
0.167860
-0.002089
-0.007669
-0.154620
0.251372
-0.500570
0.270519
0.147244
-0.402339
0.062088
0.239888
0.198643
0.091984
-0.412078
0.304669
0.472544
0.802098
0.330429
0.341771
0.185930
-0.542645
-0.403025
0.262071
-0.330996
-0.316091
-0.513056
0.229414
0.646935
0.727302
-0.134992
0.442185
0.264331
0.147239
0.662419
0.141635
-0.301406
-0.477045
0.581340
0.221346
0.577527
0.083897
0.028267
0.387575
1.053251
0.579812
0.023369
0.272455
-0.259265
0.076813
-0.062129
-0.484975
0.130967
0.279461
0.332679
-0.184700
-0.211755
-0.031364
-0.282478
0.014899
-0.209827
0.514188
-0.361004
0.337186
0.202182
0.411751
-0.271197
0.101959
-0.791730
0.491878
-0.600088
-0.731661
-0.078234
0.388356
0.006334
-0.225427
-0.479411
-0.139252
-0.266953
0.366710
0.158043
-0.388645
-0.367036
0.347104
0.635579
-0.049151
0.813281
-0.184051
0.081286
0.332175
0.466599
-0.182550
0.167251
-1.016646
0.046716
-0.613280
0.595224
0.679042
0.450201
-0.060093
0.205023
-0.373311
0.742051
0.669471
0.755448
0.256329
0.559537
0.084768
0.012859
1.128453
-0.748428
-0.241897
-0.050943
0.325198
0.168306
0.529918
0.683618
0.003417
-0.221425
-0.413275
0.332401
0.369908
-0.046168
-0.027821
-0.254642
-0.574057
-0.026789
0.697369
-0.455118
0.220310
0.851204
0.178699
-0.460753
0.153731
-0.362932
0.011712
-0.060648
-0.101339
0.182650
0.183476
0.408836
0.166221
-0.528672
-0.278164
-0.278876
-0.135572
-0.402529
-0.405297
0.006784
0.439334
-0.348042
-0.763373
0.210256
0.096446
-0.013868
0.293927
-0.076421
0.543464
-0.378691
-0.533009
0.031259
0.114172
0.110369
0.284416
-0.807773
-0.359522
0.422397
-0.255313
0.545879
0.002712
0.451032
-0.352376
0.890609
-0.195731
0.205867
0.300295
0.022707
-0.162672
0.149003
-0.232326
-0.331377
-0.038316
0.144584
0.087847
0.228314
-0.149847
-0.891452
0.364187
-0.145841
0.240040
0.573360
-0.678194
0.217872
-0.273246
-0.101776
0.669635
0.113244
-0.118796
0.851732
-0.040711
0.136788
0.209344
-0.299722
-0.204278
0.349572
0.214629
0.098950
0.096131
0.286371
-0.139303
-0.073103
-0.090142
-0.081374
-0.611773
0.581342
0.144929
-0.587844
-0.196821
-0.422577
0.870692
0.314193
0.526090
-0.203299
-0.370671
-0.548748
-0.492707
0.166907
-0.517884
0.046527
0.297219
-0.610383
0.013999
0.385275
0.770765
0.026211
-0.194710
0.858347
-0.455985
0.066959
-0.511782
0.218975
0.573729
-0.033029
0.095954
-0.197425
0.339311
-0.257511
0.650570
-0.557473
-0.272210
-0.209001
0.368805
-0.107864
0.081052
-0.261387
-0.921054
-0.155570
0.276433
-0.081197
-0.144751
0.038175
0.156551
0.028263
0.249189
0.635151
0.634796
0.287471
-0.601420
-0.115902
0.240644
-0.657263
0.049585
-0.315869
-0.083762
0.052385
0.247885
-0.556459
-0.091221
-0.371612
-0.815926
1.110688
0.112821
-0.330845
0.644688
0.256226
-0.032205
-0.225013
-0.721731
-0.339924
-0.457338
0.118792
-0.323274
-0.383543
0.717033
0.303549
-0.043416
0.125759
-0.060214
-0.077636
-0.255705
-0.558741
-0.435622
0.274921
0.521751
-0.007516
0.501862
0.173270
-0.403383
0.368662
-0.426244
-0.554864
-0.118175
0.217037
-0.258581
-0.430348
0.352862
-0.156701
0.100648
0.048427
-0.289612
-0.641590
0.510355
0.339503
-0.238517
0.228348
-0.290594
-0.255390
-0.649592
-0.332862
-0.024075
-0.510511
0.453287
0.326907
0.400088
-0.085789
0.874390
-0.027819
0.255316
-0.527194
-0.581144
-0.147333
1.008748
0.274101
-0.205410
-0.410099
-0.702778
0.102580
0.318170
-0.785383
0.154997
-0.470646
-0.481562
-0.554979
-0.177552
0.440251
-0.167867
-0.341225
0.232868
-0.365762
0.838979
-0.068310
0.364066
0.099024
-0.199973
0.265710
-0.130989
0.117274
-0.288549
-0.390406
-0.073710
-0.402712
0.053194
-0.308915
0.487641
0.074988
-0.223665
0.014482
0.355805
0.381297
-0.054160
-0.227017
-0.265439
-0.410596
0.355784
-0.142049
-0.143504
0.101888
0.568064
-0.468268
0.810939
0.313799
-0.434311
0.424247
0.273571
0.121795
-0.142520
0.678163
0.301623
-0.731701
-0.339046
-0.398767
0.506847
-0.647475
-0.726848
0.075555
0.140105
-0.756664
0.132958
-0.453241
0.403912
0.591569
0.162053
0.083056
-0.704942
0.399024
0.058334
-0.918139
-0.122808
-0.167115
0.247116
-0.074920
0.340627
-0.553791
0.059132
-1.159656
-0.149967
0.033191
-0.429213
0.575541
-0.532319
-0.395469
0.697300
0.527487
-0.369389
-0.212056
-0.114182
0.400174
-0.076133
0.140111
0.402557
-0.093740
0.370815
0.057262
0.038556
0.353025
-0.704540
-0.288555
-0.246219
-0.265468
-0.010695
0.615280
0.152100
0.283710
0.406578
-0.696241
0.494523
1.122174
-0.095615
-0.100676
0.255712
0.912112
-0.274583
-0.267837
-0.449479
0.354630
0.162546
-0.393825
0.131162
1.506400
-0.433357
0.337918
-0.837402
0.658278
0.367652
0.157060
-0.497684
0.062657
-0.035751
-0.489832
0.315777
0.161075
0.080144
-0.103164
0.409119
-0.047020
0.315203
0.497987
0.304356
-0.257356
0.162800
0.851130
-0.224190
-0.774007
-0.553823
-0.792400
0.058743
0.469607
0.111112
0.403924
-0.096496
-0.255999
0.292370
0.149913
-0.549670
-0.422862
-0.218634
-0.348845
0.004344
-0.595817
-0.277590
-0.110555
-0.011778
-0.638246
0.441312
-0.382037
-0.944152
0.576740
-0.359293
0.253556
0.102803
0.675636
0.378637
-0.373265
-0.436149
0.082026
0.900959
-0.516431
0.094156
-0.019598
0.652067
0.365133
0.073388
0.004800
-0.066967
0.192540
0.176510
-0.931228
-0.433480
0.400820
0.351386
-0.662241
-0.203883
-0.129491
-0.862647
-0.046582
-0.227021
-0.079489
-0.303520
-0.154848
-0.078680
-0.180999
-0.253097
-0.308225
0.744669
-0.102852
0.489073
-0.172005
-0.832876
-0.753133
0.247799
-0.174703
-0.409239
0.663590
-0.407425
-0.056647
0.566115
-0.124257
-0.088594
-0.291126
0.015819
0.025045
0.203058
-0.177338
-0.044581
-0.261393
0.546619
-0.065673
0.075428
0.099674
-0.353014
0.280241
-0.076988
0.198091
-0.427072
-0.298152
0.509299
-0.403330
-0.618147
0.143569
0.048088
-0.165635
0.170306
0.450256
0.324748
0.124766
0.166021
-0.334718
-0.120907
0.548232
-0.085885
0.279852
0.193391
0.531063
-0.041173
-0.427246
0.120708
-0.385911
0.869582
-0.272146
0.542340
0.162835
0.105695
0.087834
0.156958
0.143177
-0.787944
0.081744
-0.744151
0.025559
0.137677
0.647202
-0.301748
-0.184109
-0.152606
0.125083
-0.076961
-0.544645
-0.653506
0.098443
0.146923
-0.306558
-0.038566
-0.109273
-0.342916
0.370734
-0.041700
0.546527
-0.428879
0.405309
-0.011702
0.689880
0.336287
0.620350
-0.453739
-0.612351
0.377125
-0.585873
0.577265
0.358187
0.302015
0.218339
-0.170365
0.183400
0.198148
-0.442896
0.545244
0.027264
-0.320784
-0.140512
0.105716
-0.270934
0.298142
0.110558
0.293010
0.042468
-0.140379
-0.160453
0.065872
-0.906520
0.068222
0.131403
-0.214687
-0.057365
-0.455300
-0.133902
-0.274173
0.130992
0.106484
0.530017
0.214367
-0.322117
0.438935
-0.039957
-0.120095
-0.081935
-0.342758
0.012546
0.053007
0.418097
-0.044572
0.008945
0.354706
-0.177571
-0.352370
-0.399840
0.702415
-0.206063
0.069859
-0.023171
-0.291266
0.476396
-0.005099
-0.085221
-0.161417
0.008946
-0.537791
-0.274501
0.474124
0.189003
-0.286790
-0.319407
0.613211
-0.579657
-0.285078
0.030624
0.389215
0.184213
-0.651230
0.108004
0.055113
0.383966
-0.306646
0.363057
0.255776
0.206712
0.105087
0.232899
0.233119
-0.583751
-0.347006
0.492740
-0.119158
0.051580
0.369642
0.019820
-0.343376
-0.206574
0.023598
0.222851
0.187747
-0.086982
-0.461340
-0.036075
-0.535184
0.502179
0.070326
0.675626
0.363570
-0.255754
-0.295420
-0.045731
0.108177
0.274862
-0.162630
0.531055
0.397480
0.292111
0.385638
-0.354441
-0.229477
0.630757
-0.085305
-0.246005
-0.068552
-0.615143
0.021829
-0.098699
-0.799744
0.251336
-0.372760
0.162241
-0.157466
-0.026900
0.392013
-0.201646
-0.219980
-0.466766
0.261554
-0.019197
-0.107582
0.470952
-0.012903
-0.197767
0.430400
-0.218590
0.431943
0.222386
0.262144
0.420110
-0.109151
-0.357792
0.013534
0.690049
-0.250978
-0.103358
-0.426654
0.295845
-0.028722
0.044337
0.448314
-0.040296
-0.179167
-0.235286
-0.491438
-0.199227
-0.308142
0.247031
-0.011936
0.431068
-0.312694
-0.304339
-0.382823
-0.410270
-0.479850
-0.345251
-0.375202
0.249470
0.685619
0.012409
0.161486
-0.340009
-0.354439
-0.206429
0.677562
0.414316
0.074953
0.741444
0.566668
0.621738
0.168167
0.432205
-0.420933
-0.139914
-0.071055
-0.740130
-0.463619
0.156628
-0.396895
-0.047914
0.100567
0.565940
-0.426027
0.376985
0.103054
-0.183078
-0.001806
-0.459141
-0.142498
-0.394338
-0.269293
0.325311
-0.137160
-0.261489
0.005218
-0.168126
0.108561
0.112112
-0.485547
-0.340337
0.375034
0.106529
-0.476242
-0.725999
0.122914
-0.177923
0.289614
0.188197
-0.203578
0.475379
-0.379944
0.973628
0.110104
0.194204
0.198955
-0.000183
0.697919
0.177486
-0.571301
-0.924033
-0.157921
-0.572781
-0.081655
-0.256526
-0.619145
0.033879
0.717547
0.340161
-0.485405
-0.742272
-0.138435
0.396493
-0.080911
-0.706143
0.427834
0.180495
0.036461
-0.346730
0.435488
-0.281703
-0.417043
-0.106493
-0.548835
0.362009
0.310919
0.100350
0.148466
-0.484836
-0.000842
-0.280787
-0.685043
0.158595
0.539225
0.517554
0.013867
-0.093161
0.570225
0.328364
-0.217341
-0.543703
-0.202983
-0.087037
-0.063957
-0.143339
-0.051301
0.914490
-0.114903
0.364092
-0.085329
-0.214687
0.405090
0.555679
-0.016030
0.297425
0.488308
0.548446
-0.245341
-0.211984
-0.355731
0.005338
0.162928
0.612152
-0.545075
-0.239494
1.006800
-0.278061
0.060766
0.260075
-0.010912
0.538568
0.091139
0.030163
0.441058
0.025835
-0.506424
-0.832950
-0.635289
0.242283
0.273872
0.217227
0.355919
-0.082175
-0.560002
-0.213833
0.281616
-0.169251
0.785666
0.430005
0.079124
0.975352
-0.121420
-0.304222
0.462105
-0.126348
-0.107455
0.226508
-0.226851
-0.392526
0.472978
-0.658826
0.004236
0.878962
0.879743
-0.327066
-0.015471
-0.153959
-0.309714
-0.216507
0.237487
-0.048833
-0.054194
-0.374791
-0.170346
0.201969
-0.688812
0.202347
0.176033
0.098812
-0.232120
-0.226888
0.030017
-0.194921
-0.251445
-0.692679
0.016021
-0.114626
-0.479541
-0.042902
0.019263
0.220892
-0.014253
-0.028837
0.922508
0.355381
-0.357359
0.026165
0.392846
-0.842234
0.255837
-0.259121
-0.633806
-0.820003
-1.205531
-0.278966
-0.946504
0.631430
-0.624696
0.300814
-0.405337
0.377945
-0.667679
0.347168
-0.705519
0.237162
0.019576
-0.047569
0.177069
0.104267
0.201396
-0.164679
0.269575
0.167298
0.057021
-1.041579
-0.215598
0.121780
0.592974
0.026337
-0.083841
-0.205250
-0.442657
0.341146
-0.522898
0.166648
0.443371
-0.248211
-0.439744
0.056805
-0.412775
0.273209
0.544425
0.523226
-0.274463
-0.444714
-0.148570
-0.545607
-0.205275
0.269466
0.038458
-0.325680
-0.185896
0.316572
0.639437
0.177611
-0.185379
-0.609544
-0.127356
-0.135598
0.884922
0.185713
-0.121851
-0.019057
0.110862
0.330432
-0.001420
-0.026894
0.026024
0.660395
0.643964
0.191438
-0.634677
0.310555
-0.106675
0.434596
0.375583
-0.219803
-0.714305
0.374797
-0.445571
0.428146
0.088017
-0.235711
0.339221
-0.007145
0.569340
0.539096
-0.499215
-0.958211
-0.116021
0.801570
0.023507
-0.118167
0.135703
-0.455921
-0.156187
0.316793
-0.311207
-0.131736
0.431611
-0.356006
-0.756685
0.232070
1.147475
0.479080
0.343409
-0.111793
0.635304
0.236336
-0.281376
0.152710
0.511403
0.679304
0.053010
0.196103
-0.003919
0.254891
0.043929
-0.371128
-0.184823
0.610035
-0.159667
-0.559637
-0.145105
0.563520
-0.840564
-0.032322
0.502223
-0.416120
0.502468
-0.142650
-0.636969
-0.465909
-0.289086
-0.068639
-0.705120
0.184080
-0.116577
-0.533212
0.492268
0.614695
-0.586012
0.105390
-0.166605
-0.094035
-0.142794
0.689250
-0.198128
-0.615597
0.298732
0.171331
-0.548980
-0.414659
0.081796
-0.136418
-0.009424
-0.191195
0.130367
-0.850899
-0.470691
0.069093
-0.224816
-0.011565
-0.305727
0.136230
-0.537909
0.248355
0.227216
-0.474573
-0.271666
-0.527770
-0.161814
-0.183385
-0.445916
-0.258819
0.299619
-0.638477
-0.100997
-0.477262
0.205726
0.758897
-0.386409
-0.226244
-0.414131
0.100545
-0.465322
0.208278
-0.202828
0.174817
0.437252
-0.137626
0.204156
0.445127
0.235584
-0.410805
0.438689
0.242287
-0.150776
0.404791
0.690070
0.143278
-0.122052
-0.040549
0.164658
-0.188202
-0.176439
-0.477415
0.047776
0.431200
0.406409
0.303474
0.115190
0.394744
-0.220067
-0.519610
0.025423
0.374861
0.514179
0.380857
-0.107354
-0.631318
0.294468
1.186588
-0.241790
0.198307
-0.803779
0.511379
-0.025012
-0.115622
-0.244386
0.286871
0.055573
-0.653382
-0.782590
0.328511
-0.159117
0.453657
-0.013689
0.602809
0.512842
0.277171
-0.078336
0.089516
-0.262202
0.074635
-0.101735
-0.924280
-0.500053
-0.396351
-0.208031
-0.023572
0.325028
-0.290423
-0.312866
0.226671
0.343542
-0.000977
-0.811602
-0.302818
0.559555
0.199760
0.045981
0.018698
-0.606085
-0.079470
-0.247639
-0.688813
-0.758579
-0.225823
0.177471
1.170017
0.039777
-0.246217
0.646765
0.209060
-0.716352
-0.645535
0.161178
0.078827
-0.068460
0.574410
0.339971
0.661579
0.220582
-0.073446
-0.088641
-0.152409
0.128982
0.399225
-0.210361
-0.397990
0.152279
-0.491310
0.254069
0.564614
-0.425417
-0.276765
1.080809
0.846508
0.797111
0.155938
-0.697569
-0.083498
-0.005010
-0.038561
-0.220943
0.014917
0.174346
-0.450194
-0.721133
-0.234259
-0.219430
0.664817
-0.424334
0.383670
-0.164292
0.040106
-0.483246
0.206155
-0.248797
0.481565
0.022598
0.336420
-0.333897
0.198800
0.336741
0.062470
0.614984
0.164334
0.294367
-0.239978
0.590853
-0.505536
0.531223
0.270412
0.389120
-0.263494
-0.693563
0.510144
-0.121065
-0.195679
0.594602
-0.644682
0.045469
-0.347243
0.156572
0.041441
-0.456944
-0.431853
0.449638
0.011422
0.283027
-0.084987
0.056246
-0.077111
-0.182210
-0.265130
-0.957305
0.182451
0.070327
-0.134355
-0.049044
-0.253439
0.080376
0.561616
-0.198246
-0.175757
-0.632684
-0.379451
0.548607
0.426204
-0.331685
0.430630
0.243996
-1.199668
0.018942
-0.033488
0.054648
0.063346
-0.396521
0.150539
-0.292099
-0.464773
-0.503286
-0.757484
0.353784
0.001110
-0.017975
0.689016
-0.294973
-0.257490
-0.743156
0.875152
-0.107377
0.022595
0.035381
0.266410
-0.107156
0.368460
-0.506297
-0.476260
0.272018
-0.351789
-0.010286
0.611020
-0.002238
-0.342412
0.045667
0.692336
-0.073388
-0.148280
0.117905
-0.115746
-0.156340
-0.688810
-0.721484
0.037125
0.427500
-0.047988
0.158928
-0.927484
-0.536381
0.093367
-0.254011
0.327398
1.097618
-0.384657
0.201022
0.714545
0.678554
0.244557
-0.577456
0.481546
0.091026
0.155490
-0.516479
1.227367
-0.001697
-0.103937
-0.203595
0.411706
0.162712
0.121067
0.161040
-0.323523
0.380446
-0.293989
-0.250545
-0.076612
-0.125837
0.292502
0.658740
0.125471
1.001416
-0.216780
0.437401
-0.105144
-0.793027
-0.059720
-0.351558
0.026015
-0.086846
0.083141
0.483765
0.274670
0.006752
0.195216
0.555119
0.363186
-0.197869
-0.133234
-0.208087
-0.494646
0.653492
-0.452699
0.369836
-0.905086
0.705860
0.176626
-0.156224
-0.233175
-0.410919
-0.110776
-0.551184
0.000198
0.165896
-0.567656
0.061770
0.094756
-0.122858
-0.076157
0.593480
-0.478107
-0.901272
-0.354489
0.011802
-0.418687
-0.126289
-0.526470
-0.346871
0.457532
-1.007699
-0.085864
0.095110
-0.276732
0.528277
0.627175
0.361013
0.502819
-0.223240
0.189779
-0.336551
0.532215
-0.006823
-0.502309
-0.176804
0.097083
0.448489
0.117633
0.098685
-0.296265
0.329310
-0.083510
-0.784565
-0.075345
-0.219982
-0.645871
-0.177497
0.634132
0.086290
0.160209
-0.674378
-0.040856
0.053543
0.000282
-0.412725
0.609372
0.036983
-0.020558
-0.241153
-0.000966
0.388428
0.278597
0.389197
0.612792
-0.216622
-0.138958
0.851785
-0.024486
0.357224
-0.356602
-0.073780
-0.145054
0.638815
-0.111766
0.203494
-0.027464
0.146904
0.135840
0.491514
0.008206
0.631893
-0.287478
0.275007
0.072097
0.103393
-0.304233
0.417332
-0.399535
-0.372664
-0.221506
0.315377
-0.301620
0.185787
-0.169124
-0.318981
0.113745
-0.161141
-0.423082
-0.477113
-0.110171
0.130470
0.382176
-0.186032
0.299581
0.232349
0.238534
0.376137
-0.667989
-0.187715
-0.139138
0.051339
0.943507
-0.052190
-0.643207
0.138856
0.647960
0.422302
0.457882
0.658385
-0.201620
-0.703786
0.093987
-0.730461
0.437792
1.010896
0.824993
0.038160
0.475260
0.393966
0.504264
-0.371558
0.379266
0.073312
-0.359280
-0.142312
0.258911
0.299646
-0.287839
-0.215505
0.299782
-0.041234
-0.043948
0.538098
-0.491134
-0.190566
-0.080863
0.758919
-0.416080
0.220105
-0.000609
0.015942
0.476682
-0.289901
-0.080866
0.292478
0.242998
0.181627
0.086369
0.082915
0.335860
-0.427325
-0.505994
0.504104
-0.781132
0.519976
0.740857
0.362417
0.377588
-0.819126
0.055699
-0.250567
0.859762
-0.209164
-0.344889
-0.780253
0.563714
0.222801
0.294473
0.722441
-0.337611
-0.420741
-1.062367
-0.395753
-0.055262
0.235762
-0.089543
0.265499
-0.165916
0.327591
0.540908
-0.266120
-0.146761
-0.024588
-0.403989
-0.220977
-0.354537
0.030082
-0.856357
-0.508565
0.662873
0.111006
-0.134368
-0.180851
0.122755
-0.241500
0.280401
-0.279343
0.524724
-0.153554
-0.096998
0.083440
0.309537
-0.393847
-0.186197
-0.554221
0.265771
-0.189301
0.072326
-0.116978
0.572648
0.069328
0.314044
-0.554269
0.119899
1.011082
0.320227
-0.357057
-0.748615
-0.442572
-0.160983
-0.140557
-0.362375
0.091638
0.198159
-0.265590
0.354528
-0.417223
0.128731
-0.361856
0.822444
-0.367875
0.102011
-0.013779
0.775437
0.109411
-0.043376
-0.575475
-0.330563
-0.378059
-0.255630
-0.023360
0.474914
0.171144
-0.163544
0.324113
0.579123
-0.379504
-0.548046
0.135674
0.064275
-0.178671
0.628040
0.188644
-0.575366
0.657346
-0.089241
0.583142
0.011635
-0.449734
0.061070
-0.142605
-0.028500
-0.677061
0.579435
0.469022
0.374737
0.689591
1.027025
0.096204
0.729876
1.070173
-0.495835
0.045956
0.139489
0.221268
0.212058
-0.140623
0.384854
0.273401
-0.152193
0.337075
-0.754338
-0.462366
-0.534054
0.834528
0.283541
0.385048
-0.487734
-0.000249
-0.222761
-0.006188
0.251194
-0.168350
0.398201
0.246052
-0.143418
-0.159341
0.669285
0.545522
0.068336
0.025449
0.287686
0.526015
0.074705
-0.127647
-0.009975
-0.221967
0.118023
0.242634
0.203706
0.030061
-0.030646
-0.186257
0.138668
0.000063
1.021798
0.887806
0.461407
-0.283184
-0.342854
-0.295223
0.092933
0.034413
0.847922
0.114960
-0.915949
-0.712235
0.310943
0.041628
-0.817103
-0.646169
-0.213402
0.004912
0.048811
-0.599730
-0.185890
0.097779
-0.266269
-0.054511
-0.233578
-0.120747
0.047994
-0.302606
0.156424
-0.290032
0.544859
0.032548
0.101761
-0.066510
-0.103098
-0.332161
-0.171922
-0.073452
-0.609971
-0.453671
0.343871
0.162596
-0.237434
-0.126843
0.163367
0.156194
-0.466921
0.365959
-0.396432
-0.722120
-0.597890
-0.321442
-0.558384
-0.579607
0.728539
-0.243950
-0.470792
-0.204820
-0.451409
-0.130510
0.126473
0.801656
0.402945
-0.059988
0.427884
-0.156334
-0.294409
0.365673
0.296288
-0.424312
-0.257344
-0.749177
0.170669
-0.036843
-0.384589
-0.393266
0.193415
-0.440678
-0.670789
-0.024992
-0.280216
0.127184
0.251820
0.408106
0.286358
0.181586
-0.599950
0.009926
-0.143171
-0.709645
0.086576
0.510833
-0.210136
0.015253
0.015383
-0.676133
0.493598
0.478646
-0.275926
-0.094280
-0.055889
0.411160
0.101178
-0.726360
-0.387902
0.145722
-0.921830
0.339423
-0.333270
-0.016785
-0.400327
0.632616
0.287530
-0.205364
-1.011974
0.091727
-0.269371
-0.635408
0.743283
-0.229747
-0.090583
-0.403288
0.343689
-0.836263
-0.118914
-0.062763
0.326807
-0.132297
0.144449
0.482220
0.523820
-0.017424
0.583976
0.028362
-0.421529
-0.010241
0.364386
-0.965235
-0.417766
-0.131354
0.177836
0.462430
-0.119975
-0.371456
0.480090
-0.123434
-0.553633
0.128710
-0.644112
-0.571378
0.692624
0.439379
0.263380
-0.449711
-0.208757
0.258195
-0.111045
0.392761
0.477851
0.370262
0.654618
0.242876
-0.093474
-0.060657
-0.150584
-0.065911
0.443434
-0.028409
0.037102
-0.421244
0.456399
0.288818
-0.336188
-0.390583
-0.360550
0.601394
-0.274097
0.384834
-0.278084
-0.787868
1.163663
-0.154946
-0.019086
0.216515
0.738405
0.512128
-0.517011
0.462109
0.156898
-0.208236
0.421933
-0.855155
-0.437710
0.322324
-0.158769
-0.356467
0.279727
-0.141697
0.331662
0.573530
-0.942219
-0.188274
0.235502
0.510189
-0.672065
-0.236040
-0.249723
0.325604
-0.675954
0.519681
0.019774
-0.264817
-0.294484
-0.697150
0.084234
-0.135099
-0.353057
-0.807923
-0.733104
-0.559611
-0.097015
0.169968
-0.208235
-0.266965
-0.275007
0.004185
0.283367
-0.001652
-0.352222
-0.711461
-0.477359
-0.513346
-0.543652
0.020844
0.535982
0.194708
-0.004221
0.315357
0.899219
0.421421
-0.378887
-0.384126
0.366014
-0.062468
-0.409641
-0.587218
0.214315
0.578281
0.063125
0.160709
-0.714037
0.337402
0.681955
-0.780798
-0.037969
-0.722016
-0.240751
0.221368
0.180610
-0.315089
-0.373715
-0.151673
-0.396163
0.209925
0.355233
0.286432
-0.301122
0.583473
0.215129
-0.476317
0.502379
-0.299178
-0.106971
0.211237
-0.964044
0.172859
-0.171121
0.440038
-0.079505
0.063694
-0.315765
-0.702157
-0.348642
-0.137128
0.244203
0.420773
0.648064
0.191112
0.302401
-0.505121
-0.256061
0.091294
0.109477
0.061482
0.122809
0.038786
-0.116296
0.206713
-0.306547
0.347786
-0.227837
0.638032
0.020741
-0.638937
0.002205
-0.018286
0.192590
-0.569504
-0.273986
0.117746
-0.059006
0.072919
0.277558
-0.296055
-0.291667
0.553616
-0.093512
0.467726
-0.118178
-0.502343
0.292708
0.960843
-0.605054
-0.091730
0.358959
-0.787779
0.856924
-0.098774
-0.005054
0.221209
0.753970
-0.592430
0.008363
0.154246
-0.011640
0.551027
-0.490483
0.236889
-0.042754
-0.250504
-0.592397
0.193923
0.434904
-0.287991
-0.196948
0.950336
0.278167
0.267030
0.615174
0.590046
0.112164
0.374006
0.612809
-0.488881
-0.484627
0.349269
-0.076397
0.178189
-0.073189
0.166162
0.222405
0.361087
0.300877
0.326318
-0.101797
-0.602066
-0.907376
-0.040007
-0.235373
-0.116459
0.060101
0.512405
-0.812144
-0.635917
0.408552
0.013186
1.092752
-0.249429
-0.279928
-0.198822
0.275648
0.141178
-0.879499
-0.216713
-0.462876
0.554342
0.053837
0.220499
-0.150481
0.043334
-0.231617
1.048277
-0.153418
0.425214
-0.138224
-0.711496
0.304003
0.360229
0.064688
0.218668
-0.049434
-0.391151
-0.492582
-0.731882
0.353015
0.366004
-0.009071
-0.310985
0.601013
0.217739
0.741774
0.471734
0.561334
-0.162077
0.136461
-0.642752
0.005589
-0.104016
-0.269603
-0.095318
-0.574151
-0.056038
-0.100234
-0.838808
0.141468
-0.509354
-0.309294
-0.664606
-0.081599
0.432696
0.564908
-0.267391
0.463998
-0.518751
-0.025890
-0.311262
-0.133303
-0.421431
0.543538
0.391974
0.124770
-0.487551
0.187091
-0.577791
-1.207188
0.703145
-0.237379
0.282385
0.690381
-0.542879
0.017560
0.658128
0.020701
0.345050
0.194947
0.148538
-0.445192
0.360882
-0.403470
-0.011931
-0.152724
0.904478
-0.647299
-0.080068
0.121077
0.254703
-0.028677
0.008489
-0.163367
0.477175
0.246162
0.479853
-0.757589
0.054856
-0.363306
-0.156664
-0.229764
0.164116
-0.143781
-0.662878
-0.344338
0.226470
0.206624
-0.134828
-0.817328
0.186700
-0.727839
-0.338275
0.256993
-0.369621
-0.084757
0.500975
-0.011566
-0.046886
-0.096751
-0.568865
-0.483653
1.050117
-0.091652
-0.359739
0.052562
0.636204
0.177096
-0.325283
-0.093864
-0.263666
0.079608
0.717023
0.663670
-0.313790
-0.046360
0.097146
0.257777
0.500810
0.745243
-0.628645
-0.314470
0.121129
-0.253978
0.306916
-0.463542
-0.251636
-0.342820
-0.271354
0.108568
0.314906
0.198881
-0.338340
1.159048
0.122279
-0.069997
-0.651686
-0.098977
0.379182
-0.102163
0.407606
0.185961
0.327491
0.483761
0.190896
-0.582425
-0.024869
-1.057564
-0.217500
0.201434
0.606717
-0.753507
-0.376268
-0.354576
0.990178
-0.568519
-0.558500
-0.185275
0.284321
-0.455486
-0.028662
-0.098156
-0.034900
-0.225838
-0.290634
-0.037470
0.006763
0.010764
-0.200262
-0.585569
0.246005
0.731097
-0.081490
-0.583193
-0.149858
0.185536
-0.144764
-0.207453
-0.035319
-0.148152
-0.034499
1.611510
-0.263676
0.395468
0.398416
0.141950
0.222128
-0.414642
0.427430
-0.109743
0.822615
0.228575
-0.706910
-0.132008
0.625313
-0.270860
0.003223
-0.685210
-0.198279
-0.584868
0.757374
0.250677
-0.167814
-0.271473
0.322596
0.080461
-0.445600
0.420771
0.414306
-0.691325
-0.182662
-0.066049
0.032412
-0.161353
-0.296243
-0.255142
0.165643
0.231741
-0.307567
-0.087573
0.314295
0.043999
0.294836
0.232152
0.261933
0.351932
-0.394483
-0.185938
0.202608
-0.548150
-0.890642
0.420417
0.008796
0.091741
0.396703
0.092823
-0.261248
-0.171074
0.198796
-0.369264
-0.301501
-0.262641
-0.213469
-0.146657
-0.524645
0.057461
0.136595
0.183990
0.646574
0.074238
-0.206089
0.027117
0.331734
0.070460
-0.204764
0.067292
-0.323285
-0.624897
-0.152229
0.333624
0.452065
0.244785
0.022128
-0.112321
-0.294203
-0.473725
0.398623
-0.305752
-0.309884
-0.205445
0.062830
0.186465
0.412993
-0.058706
1.061059
0.416793
-0.536303
-0.632266
-0.409804
-0.258273
0.186302
-0.488153
0.229291
0.201692
-0.309880
-0.380943
0.869953
0.688088
-0.469401
0.682760
-0.342205
-0.009361
0.264343
-0.013662
-0.101171
-0.845005
-0.067480
0.030120
0.440157
1.106897
0.410200
0.777281
-0.855875
0.101512
0.269669
-0.421787
-0.524314
0.062460
-0.023401
0.158035
-0.345712
0.087886
0.671777
-0.529108
0.611335
0.005063
-0.351137
-0.477359
-1.024271
-0.072800
-0.488519
0.857730
-0.014788
-0.416606
0.201036
0.276434
0.132270
0.006683
-0.189306
-0.042314
-0.110801
-0.937280
-0.652551
1.265296
-0.055146
-0.017569
0.416829
-0.440072
-0.104773
-0.464277
0.313354
-0.427130
0.670698
0.148784
-0.276304
-0.125740
0.686608
0.169305
0.071431
0.990999
0.560594
-0.417880
-0.376373
0.292101
-0.196282
0.057069
-0.973420
0.160304
1.337494
0.339768
-0.354619
0.085891
-0.003876
-0.043794
-0.182902
0.695010
-0.598966
0.105057
0.108678
-0.349167
-0.082787
-0.231110
-0.409435
-0.200746
0.142470
0.343425
0.992389
0.548688
0.182969
-0.214492
-0.038666
-0.134949
0.162129
-0.243607
-0.043602
0.677430
0.357632
-0.077530
0.143000
-0.092310
0.555519
0.480669
0.106147
-0.107635
0.181444
0.137874
0.095916
-0.027153
-0.167811
0.346367
0.359606
-0.192625
0.670400
-0.146410
0.222496
-0.187668
-0.652303
0.441522
0.938580
0.966317
-0.890129
-0.437331
-0.279133
-0.147444
0.460426
0.352515
-0.317615
-0.050622
0.128883
0.317999
0.406521
0.082321
-0.069653
0.676637
-0.596749
-0.160557
0.755125
-0.281568
0.008495
-0.280277
0.219209
-0.437646
-0.063092
-2.019660
-0.166795
0.313469
-0.096043
0.002444
-0.426723
0.449463
-0.011840
0.009420
-0.371754
-0.693161
0.102319
-0.000210
-0.087608
1.325802
0.008949
-0.823631
-0.117318
0.316047
-0.084015
-0.395670
0.238933
-0.141626
-0.027273
-0.642964
0.420006
0.184755
1.216160
-0.582038
0.592316
1.113823
-0.903044
-0.857740
0.063491
-0.042585
-0.180351
0.590843
0.453669
-0.559420
1.008464
1.446671
-0.682232
-0.414210
1.327980
-0.678444
0.612777
-0.503596
1.453471
-1.010433
-1.040164
-3.403516
1.788460
-0.566869
-0.586508
-0.235266
0.856897
-0.938163
-0.700372
-0.522475
-2.372309
-0.159431
0.788525
0.760191
0.506234
2.720377
-0.807344
-2.761123
-0.289462
-0.497819
-0.341140
0.999112
0.534492
-0.123925
0.652851
0.350566
-0.165466
-0.461362
2.982677
-0.164920
0.526797
2.922938
-1.090515
-2.188518
1.624051
-1.968028
1.122623
-0.643816
0.563782
