0.162464
-0.510358
-0.095778
0.001648
1.035391
0.290571
0.286822
0.505462
0.443337
0.448844
0.088401
-0.437082
0.076083
-0.292185
0.564206
-0.411983
-0.018946
0.294303
0.242571
-0.373559
-0.193720
0.744118
0.213826
0.680283
0.150650
0.249204
-0.031392
0.092862
0.150324
-0.096988
-0.740365
-0.615033
-0.780891
0.259230
0.473565
-0.840978
0.191042
-0.334502
-0.198136
-0.235039
-0.751768
-0.323910
-0.283637
-0.134296
-0.097987
-0.127147
-0.297943
-0.049982
0.551504
-0.556541
0.507993
0.344662
0.316164
0.199540
-0.327853
-0.373702
-0.251331
0.374372
0.314699
-0.372592
0.270590
0.622905
-0.349294
-0.597889
0.048998
0.789147
0.303453
0.644221
-0.643709
-0.284144
0.056221
0.019334
-0.666213
0.723224
0.109315
-0.348979
0.081371
-1.014295
-0.500447
0.147082
0.499593
0.121506
-0.260367
-0.411219
-0.785733
-0.041225
-0.187853
0.126882
0.223372
-0.333807
-0.104025
0.009325
0.298533
-0.934842
-0.751906
0.702333
-0.556304
-0.582779
0.664134
0.377047
0.144157
0.066562
-0.498625
0.397099
0.258382
-0.303380
0.775023
-0.022325
-0.177964
-0.146977
-0.243765
0.340613
0.113928
0.231674
0.005164
0.318789
0.010860
0.162779
-0.148228
-0.007517
0.236175
-0.527426
0.030764
0.330512
0.146732
0.317061
-0.143490
-0.213324
0.779244
-0.609400
-0.122926
-0.033041
-0.987223
0.018537
-0.184677
0.055375
-0.739514
0.356728
-0.085312
-0.031835
-0.930959
0.257233
0.442225
0.595560
0.010678
0.025798
0.211445
-0.103393
-0.248059
0.078962
-0.218129
-0.186545
-0.139159
0.762584
0.473337
0.257489
0.530387
-0.008146
0.149190
-0.856559
0.093242
-0.677081
-0.556594
0.686791
0.097592
0.533753
0.346992
-0.676982
-0.889015
-0.773390
0.364938
-0.112114
-0.361574
-0.294233
0.421699
0.050835
-0.221268
-0.388527
0.087824
0.210154
0.163841
0.289993
0.284890
-0.244293
0.170434
0.101493
-0.146760
0.431176
-0.182556
0.106137
0.260087
-0.205809
-0.382784
-0.047872
0.393950
-0.492290
0.667569
0.052713
0.019095
-0.672020
-0.220632
0.120655
0.327905
-0.288660
-0.385183
0.450230
-0.563297
0.272946
0.447774
-0.052926
0.363078
-0.040321
0.123640
0.321791
-0.234103
0.297882
-0.263638
0.079526
0.270415
0.560161
0.550213
0.019540
-0.363260
0.650016
-0.437609
0.287790
0.505579
-0.107306
0.374697
0.019512
0.082368
-0.103200
0.282268
-0.221560
-0.297883
0.111365
-0.521368
0.582986
0.172344
0.496710
-0.131852
0.095251
-0.233506
-0.143285
0.194491
0.356354
-0.059209
0.681674
0.782950
0.102085
-0.610215
0.017288
-0.060358
-0.064040
0.120766
0.219944
-0.032477
0.046548
-0.411307
0.567352
-0.008224
-0.231632
0.401650
0.048064
0.063393
0.151736
0.294499
-0.409427
-0.418770
0.636582
0.286838
0.094540
-0.598269
0.430008
0.311926
0.161734
0.019246
0.321640
-0.416775
-0.935675
-0.696534
0.032827
-0.058784
-0.165943
-0.173719
1.006673
-0.731607
0.681406
-0.301030
-0.275766
-0.072565
-0.367321
0.439697
0.915153
0.209202
0.248228
0.124131
0.683894
0.571338
0.264558
-0.494785
0.004942
0.244529
0.775892
0.271210
-0.041282
0.112415
-0.249229
-0.124677
0.150914
-0.381380
-0.226586
0.159964
0.402932
-0.095862
-0.466756
0.480021
0.558774
0.403630
-0.898362
-0.144613
-0.278756
-0.258909
-0.464034
-0.016206
0.083380
0.078112
-0.263843
-0.069277
0.702943
-0.066109
0.488815
-0.811240
-0.552388
0.102758
0.035913
0.122027
0.024489
-0.427648
0.334477
0.215179
-0.217564
-0.254001
-0.040566
0.430465
-0.001330
-0.059900
0.108865
-0.234881
0.079337
-0.008287
-0.588520
-0.396099
0.366844
-0.461128
0.131266
-0.236480
-0.166188
-0.655214
-0.195263
-0.031226
-0.035554
0.258797
-0.031139
-0.282299
0.248277
-0.247071
0.658876
0.066571
0.265229
0.670979
-0.430219
0.313301
0.208053
-0.573746
-0.678632
-0.486483
-0.021045
-0.445454
-0.096186
-0.524258
-0.102781
-0.339271
-0.408542
0.013505
0.627354
0.198360
0.092389
0.083538
-0.169997
-0.013691
0.487267
0.002843
0.666040
0.452673
0.334218
-0.257769
-0.092047
-0.550158
0.127068
0.057046
0.079024
-0.016453
-0.185526
-0.489613
-0.486817
-0.288835
-0.517651
-0.912151
0.016917
-0.173714
-0.441398
-0.592811
-0.173154
0.596676
0.543364
0.008153
-0.343293
-0.363695
0.509310
-0.621814
0.770347
0.002915
0.438966
0.194316
0.119153
0.542833
0.125465
-0.026522
-0.730714
0.018832
-0.113735
0.304140
-0.784298
1.110868
0.058095
0.362534
-0.582551
0.163876
0.097849
-0.168235
-1.069670
-0.464302
0.740487
0.067302
-0.402158
-0.508262
-0.470518
0.180664
-0.033710
-0.198304
-0.317872
-0.083622
-0.053016
-0.267823
-0.279314
0.539441
-0.297030
-0.197082
0.167079
0.412278
0.648873
0.366252
-0.442130
-0.214674
0.183739
0.302093
0.172613
-0.551057
0.010732
0.140761
-0.081108
-0.381468
-0.212099
0.191041
-0.492461
-0.763264
0.110621
-0.121866
0.433614
0.502411
-0.503806
-0.969202
-0.385469
-0.594238
-0.437632
0.636298
-0.080401
0.039767
-0.077271
-0.551235
-0.135883
0.375648
0.433102
-0.200964
0.179473
0.185644
-0.281673
0.478626
-0.324101
0.197543
-0.309741
0.074222
-0.717365
-0.460402
0.312029
0.044399
-0.204372
0.805840
-0.746315
-0.236072
0.449307
-0.053393
-0.133785
0.327078
0.071742
0.604480
-0.733213
-0.445334
-0.389513
-0.555777
-0.143863
0.699166
0.327693
-0.178797
-0.578205
0.127741
-0.575600
0.002420
-0.416415
-0.251864
0.060909
-0.000240
0.167104
0.176994
-0.191314
0.121195
0.725740
0.020832
0.472579
-0.337909
0.688693
-0.115460
0.397060
-0.903367
-0.638546
0.281566
-0.400112
-0.391875
0.549323
0.431043
0.240622
0.227629
-0.294038
-0.119773
-0.344675
-0.437904
-0.422638
-0.095707
0.258819
-0.207119
0.064068
-0.179052
-0.211978
0.189224
0.297884
-0.280944
0.648887
-0.058563
-0.462780
-0.163111
-0.017507
0.192446
0.450874
-0.161709
0.512306
-0.130920
0.079368
-0.527899
-0.120957
0.312179
0.582638
0.197219
-0.344669
-0.081940
-0.476524
0.552747
-0.554388
0.422284
-0.438724
0.035850
-0.308784
0.255551
0.141947
0.096999
-0.466499
-0.235791
0.515878
-0.487370
-0.831258
0.325506
0.253058
0.219602
-0.182426
0.406214
0.715859
0.332582
-0.040162
0.321349
-0.102880
-0.505319
0.041516
0.245023
-0.139583
0.048827
0.168727
-0.247836
-0.256154
0.348287
-0.463356
0.513518
0.086866
-0.417074
0.039299
0.380789
-0.357455
-0.644080
0.127902
-0.008436
0.211572
-0.409943
-0.608341
-0.997512
-0.068037
0.141895
-0.224878
-0.217582
-0.093127
-0.197759
-0.301869
-0.083533
-0.254195
0.183452
-0.001135
-0.298629
0.275251
0.592523
0.525806
-0.138946
0.115408
-0.198261
0.196000
-0.422798
-0.456051
0.613736
0.168357
-0.656646
-0.108805
-1.151475
-0.311420
-0.229253
-1.228925
-0.615089
-0.188748
0.382167
0.000273
0.260529
0.015974
0.207777
0.145026
-0.483687
0.317596
-0.700278
0.018997
-0.264463
-0.352869
0.466139
-0.714667
0.331159
0.134364
0.164665
0.713533
-0.319295
-0.090125
-0.408244
-0.171165
0.497026
0.216980
-0.418183
-0.587506
-0.488421
0.559499
0.037612
-0.194678
-0.297143
0.353756
-0.385908
-0.113204
0.552759
-0.339660
0.181770
-0.010525
0.032675
-0.891558
0.368153
0.070620
0.019663
0.216974
-0.424829
-0.255900
0.518232
-0.049270
0.561864
0.341245
-0.361677
0.024094
0.627425
0.054597
-0.193319
-0.190579
0.457033
-0.066478
-0.759784
-0.416215
-0.100129
0.143769
0.422865
0.174750
0.000346
0.369190
0.047242
0.407641
-0.012470
-0.153877
0.634006
0.649217
0.008544
-0.177390
0.012996
-0.131141
0.283240
0.061173
-0.657887
0.000336
-0.310841
0.410159
-0.005134
-0.688120
0.128266
0.319946
0.696462
-0.758489
0.269515
0.515182
0.616228
0.074955
-0.048269
-0.324019
-0.070047
-0.513748
0.259401
-0.070274
-0.310246
0.277847
-1.004507
-0.179851
0.187492
0.091307
-0.165840
-0.237503
-0.108297
0.464817
-0.792865
-0.349455
0.587949
0.321893
0.093398
0.350972
0.270253
1.136733
-0.564164
-0.020920
0.340884
0.663076
-0.637080
-0.302729
0.349139
0.135140
0.292205
0.012911
-0.173732
-0.613790
0.130848
0.108752
0.026491
-0.749458
-0.735809
0.619418
-0.364940
0.499918
0.393415
0.595140
-0.078414
-0.162474
-0.038222
0.004979
0.139671
0.061965
0.386843
-0.637187
0.232262
-0.451662
0.236159
0.675181
-0.009591
-0.774876
0.134021
1.120560
-0.548203
-0.012309
0.141008
-0.828715
-0.556621
-0.001549
-0.660638
0.338055
0.383005
-0.154863
0.300627
0.460515
0.051982
0.203613
0.106665
-0.269835
-0.034312
0.220866
0.189000
0.456398
-0.139032
0.253264
-0.181066
-0.127332
0.073289
-0.422145
0.073677
0.423012
0.000557
0.054425
0.401635
-0.358959
0.459880
0.708404
-0.789590
0.030601
-0.492382
0.593133
-0.030460
-0.400434
-0.724196
0.172818
0.241483
-0.029365
0.173924
0.186677
-0.058598
0.300274
0.427761
0.556084
-0.507715
0.597819
0.031367
-0.001201
-0.205049
0.209873
-0.576414
0.232744
-0.105026
-0.338716
-0.065668
0.110568
0.106913
-0.787430
0.476105
-0.057438
0.230399
0.463632
0.177727
0.551461
-0.026925
-0.226944
0.071810
0.414544
-0.213631
0.444931
0.479116
0.588587
0.206589
-1.059895
-0.749355
0.574511
0.471816
0.028034
-0.535978
-0.102362
-0.041421
0.099358
0.001326
-0.438183
-0.626656
-0.733177
-0.306697
-0.637862
0.121249
-0.192304
-0.112196
0.407971
-0.328287
0.103872
-0.678892
-0.132092
0.053035
-0.166708
0.236295
-0.118270
-0.032596
-0.336101
0.373996
0.478528
0.070859
0.996033
-0.154229
-1.215456
0.413733
0.137596
-0.392240
0.035288
0.210373
0.307353
-0.335426
0.044790
-0.440725
0.062606
-0.327469
-0.110783
-0.511232
-0.288618
0.315257
0.093068
0.467571
-0.007224
0.769540
0.419113
-0.101823
-0.164322
-0.701351
0.232272
0.137443
-0.515147
-0.029626
-0.037210
0.288276
-0.420713
-0.247623
-0.241773
-0.848691
0.214849
-0.069758
-0.168696
-0.283379
0.209331
0.027420
-0.175195
-0.168687
0.189855
-0.090249
-0.548085
-0.567554
0.469639
0.349811
-0.232116
0.049611
-0.010485
0.392094
-0.501624
0.115614
0.323718
0.462649
-0.217672
0.180493
-0.010237
0.636891
-0.378171
0.433296
0.091342
0.696029
-0.411518
-0.204518
0.598841
0.123825
-0.990615
0.503926
-0.598449
-0.003642
-0.095374
-0.123782
0.546793
0.708101
0.128230
0.636479
1.102478
-0.225215
-0.071226
-0.036415
0.055823
-0.031440
-1.041502
0.433240
0.486943
-0.136019
0.158666
0.530904
-0.134677
-0.827525
-0.517523
-0.093279
-0.513879
-0.188522
0.502035
0.134644
-0.407128
-0.215123
0.871342
-0.097197
-0.580520
-0.444688
-0.068517
-0.485040
0.087043
1.085945
0.040396
0.381225
0.720775
0.027092
-0.148791
-0.146260
0.118015
-0.550470
-0.192579
0.337602
0.476810
-0.426285
-0.109877
0.262090
0.195017
-0.158065
-0.537390
0.225981
-0.060637
0.015694
0.209056
0.101139
0.069007
-0.219000
-0.387207
0.469596
0.384851
0.348589
-0.565218
-0.293272
0.256762
0.836442
0.912822
0.100727
-0.224284
-0.267267
-0.249928
-0.402894
-0.396394
-0.710000
-0.059729
-0.399814
0.237178
0.456429
0.636672
0.975486
-0.074790
-0.124762
0.041166
0.170594
-0.160378
0.209480
0.222374
-0.158532
0.107075
0.483696
0.922419
0.728388
-0.178320
-0.632353
0.160897
-0.047030
0.275355
-0.185963
0.251536
0.544835
0.446036
-0.160832
0.143444
0.531331
-0.005545
-0.486069
-0.149425
0.181773
0.059160
0.307115
-0.779230
-0.341365
-0.253636
0.441409
0.202419
0.058831
0.194704
0.730450
-0.407281
-0.006039
-0.013712
0.630857
0.660237
-0.082867
-0.238540
0.153034
0.254244
0.309090
-0.111491
-0.603522
-0.151212
0.472109
0.247555
0.668330
0.464485
0.200701
0.267492
-0.086547
-0.031061
-0.418708
0.986835
-0.050461
-0.287675
-0.425696
-0.310623
0.198463
-0.087848
0.187136
-0.263577
-0.059487
0.106432
-0.047190
-0.306641
-0.094718
-0.814657
-0.138648
-0.061770
-0.712216
-0.366071
0.208675
-0.137473
-0.318804
-0.839294
0.541604
0.032572
-0.167577
0.277151
-0.196309
-0.275261
0.144005
-0.369973
0.015875
-0.327975
-0.214420
-0.726017
0.264134
-0.598431
0.616647
0.129087
-0.448541
-0.020105
0.221032
-0.024433
0.256963
0.437624
-0.006497
-0.197781
0.356085
0.376423
0.325937
-0.696885
0.268734
0.030503
-0.598538
0.098656
0.350050
-1.031851
-0.425203
0.159909
0.033964
-1.112814
-0.388819
-0.708330
-0.322929
-0.033942
0.980977
0.004686
0.428931
0.568017
0.080930
-0.763280
-0.331350
0.496072
0.295949
-0.739851
-0.023918
-0.057107
-0.559474
-0.426734
0.861330
0.149377
0.001460
1.760276
0.598032
-0.013335
0.591828
0.088223
-0.243956
0.123913
0.226437
0.192496
-0.228851
-0.387187
0.246142
0.831661
-0.251686
0.541543
0.259384
0.135212
0.194971
0.464588
0.787158
0.572122
-0.796484
0.338178
-0.210459
0.148396
0.473769
-0.812154
0.703828
-0.024889
-0.537463
0.603774
-0.128981
-0.304557
0.670253
0.229131
-0.086404
-0.722109
-0.240706
0.085373
0.316413
0.139492
-0.146556
1.160347
0.142144
-0.495030
0.366929
0.594466
-0.560505
0.008120
0.001103
-0.201658
0.436873
-0.290749
-0.063469
0.201353
0.378659
0.125179
0.550485
-0.262774
-0.783516
0.210289
0.623569
-0.639691
0.378170
-0.103562
0.133564
0.653030
0.189103
0.141363
0.678628
-0.933458
-0.524450
-0.597696
0.136139
0.142190
0.177989
-1.107280
-0.776041
0.321699
-0.010639
-0.364499
-0.130386
0.001334
0.015546
0.351367
0.312781
0.616662
-0.155758
0.221105
0.104405
0.319369
-0.237601
-0.313854
0.815639
-0.350410
-0.369644
-0.536840
-0.045637
-0.508261
0.694582
0.042547
-0.629160
-0.518811
-0.463991
-0.287482
-0.224362
0.528209
0.247763
0.301760
0.333878
0.754266
-0.183044
0.057414
-0.611571
0.790289
0.204466
0.419454
-0.351445
0.429176
-0.233436
-0.287535
0.055506
0.047592
-0.446326
0.082166
-0.322713
-0.444874
0.545000
-0.234867
-0.386049
0.360957
-0.435833
-0.235845
-0.298724
0.114773
0.542329
-0.420245
-0.112673
-0.090169
0.691947
0.201133
-0.171379
0.172918
-0.022401
0.094286
-0.982753
-0.351282
0.133963
-0.409212
-0.898076
-0.137558
-0.032727
0.238354
0.514303
-0.074082
-0.122820
-0.184971
0.118204
-0.012288
-0.282819
0.157970
-0.142458
-0.300729
0.619347
0.437570
-0.204191
-0.226081
-0.387616
-0.164369
0.508081
0.331722
0.084405
-0.254613
-0.120501
-0.066144
0.369101
0.069868
-0.042299
-0.296583
-0.129165
-0.282213
-0.018621
0.090401
0.693725
-1.184543
-0.321447
0.273957
0.723917
0.104958
-0.904789
0.235914
-0.190548
-0.189773
-0.241464
-0.055882
-0.833010
-0.875707
0.038851
-0.256171
-0.178094
-0.561087
0.078562
-0.339621
0.513958
-0.161575
0.366805
-0.199250
-0.481303
-0.442708
-0.423572
-0.758902
-0.208894
0.052645
-0.115631
-0.360131
-0.188958
0.392683
0.080076
0.239598
-0.321112
0.066869
-0.228753
0.045871
-0.329532
-0.023518
-0.570750
-0.365944
-0.539214
0.196691
-0.605280
-0.435284
0.135511
0.152106
0.017857
-0.698009
-0.748655
-0.287686
-0.656931
-0.582362
-0.769529
0.673961
-0.595066
-0.109829
0.386487
0.695944
-0.007240
-0.832331
-0.008401
-0.251766
-0.043728
0.001751
-0.047577
0.240595
0.428109
-0.252799
-0.093980
0.029360
-0.818094
-0.270205
-0.524231
-0.301041
-0.146539
-0.043365
0.627647
-0.502738
-0.140663
0.306923
-0.454295
-0.286515
0.261933
0.076920
-0.858797
-0.595508
-0.297546
0.307735
0.332311
-0.187799
0.791322
-0.515621
0.304379
-0.102310
-0.218114
0.328274
-0.123546
0.060682
0.254062
-0.199890
-0.202487
0.217298
0.421142
-0.015023
0.380718
0.019354
-0.222870
0.376569
-0.092321
0.713527
-0.406533
0.161746
0.068808
0.639600
-0.472745
0.186858
-0.641756
0.102846
0.671745
0.298710
-0.685096
0.386544
-0.531836
0.321618
-0.660813
0.465458
-0.153868
-0.044241
-0.206842
-0.267931
0.165114
-0.607653
-0.323167
0.394635
-0.476337
-0.304910
-0.041694
-0.127675
0.451169
0.380300
-0.315793
0.680863
-0.510706
0.196613
-0.087486
-0.555849
0.344435
0.439363
0.250994
0.541827
0.446745
-0.100304
-0.642575
0.104395
-0.359121
-0.291653
-0.813502
-0.191256
0.302077
-0.353854
0.054294
-0.188826
-0.432324
-0.248592
0.255533
0.650643
-0.250239
0.144750
0.008622
-0.465807
0.193793
0.205915
-0.244257
0.460132
-0.016014
-1.079883
0.095261
0.144390
-0.178607
-0.445619
0.094231
0.445489
-0.311511
0.399126
0.499189
-0.528295
-0.048381
0.564249
0.226688
0.231816
-0.032498
0.171913
-0.231700
0.322392
-0.156421
0.013319
-0.022684
0.039982
-0.282218
-0.393733
-0.451937
-0.286486
-0.086713
0.545347
-0.456014
0.261127
-0.158596
-0.118168
-0.956807
0.396241
0.495097
-0.049210
0.466533
-0.170660
0.592356
0.642341
0.469611
-0.118909
-0.183693
0.209902
-0.150332
-0.633272
-0.467445
-0.387486
-0.718713
0.498778
0.477508
-0.501891
-0.033376
0.573291
-0.051849
-0.286973
-0.406531
0.285756
-0.235481
-0.008417
-0.355671
-0.153301
0.756430
0.320292
-0.428480
-0.070901
0.232289
-0.084567
-0.129618
-0.114088
0.086764
-0.936000
0.447842
0.036294
1.011204
-0.543201
-0.196614
-0.408145
0.310114
0.478196
-0.455124
-0.653083
-0.239915
0.128092
0.359398
0.531197
-0.337558
-0.125816
0.304252
0.199968
-0.458723
0.134689
0.147803
-0.377967
-1.335905
-0.014160
-0.204122
0.142598
0.357372
0.091838
0.494916
-0.077555
0.215969
0.042166
-0.160148
-0.339266
-0.153451
-0.607428
0.529813
-0.519542
0.480905
-0.321769
-0.104550
0.173453
0.553139
0.124431
0.186395
-0.267700
-0.358874
-0.096290
0.232215
-0.727575
0.336442
0.543963
0.381457
0.417650
-0.139399
-0.220884
0.212000
-0.171715
0.144903
-0.800929
0.173247
0.130715
-0.153948
0.388361
0.267945
-0.753074
-0.225252
-0.294391
-0.252636
0.187546
0.670351
-0.587910
0.521736
-0.351800
-0.014999
0.046099
-0.089879
0.056955
-0.707856
0.664102
0.201965
-0.036627
-0.132380
0.299745
-0.826368
-1.008681
-0.087270
0.153875
0.810275
-0.472611
-0.204576
0.446852
-0.088185
-0.008922
0.120186
-0.382890
0.471884
0.081338
0.423257
0.087575
-0.657103
-0.622384
-0.081676
0.192736
0.064495
0.536645
-0.422715
-0.162047
0.323875
0.153331
-0.047318
-0.254584
0.451773
-0.043690
-0.144275
-0.496270
-0.100919
-0.422565
-0.130703
-0.560137
-0.011292
-0.259936
0.280484
-0.530030
0.663796
0.144339
-0.018431
-0.649078
0.463464
0.052432
-0.115718
-0.271080
-0.163695
0.233669
0.551933
-0.004362
0.469280
-0.540422
-0.693787
-0.237298
-0.284106
0.224827
-0.280276
0.485154
-0.355664
0.457331
0.628909
-0.221249
-0.388555
0.562657
0.342597
0.111735
-0.986401
0.451974
-0.309402
-0.700816
0.498013
0.582329
-0.274107
0.163030
-0.730258
0.445095
0.078762
-1.098832
0.372485
0.207559
0.363173
0.066424
0.130548
-0.266046
0.225471
-0.323674
-0.615247
0.136540
0.247656
0.251476
-0.354970
-0.322496
-0.096943
-0.126980
0.371581
-0.503248
0.422801
0.224414
-0.369473
-0.279263
-0.417522
-0.543682
-0.107339
0.299228
-0.062263
0.190090
-0.949688
0.176066
0.195338
-0.193466
-0.556226
-0.880190
0.449670
-0.026411
-0.133005
0.371194
-0.278888
0.043584
0.606581
-0.530685
0.149917
0.161520
-0.570232
0.703513
-0.057710
-0.575984
-0.110848
-0.244874
-0.082438
0.226833
0.037545
0.642377
-0.370710
-0.717892
0.120951
-0.300659
0.019908
-0.677914
-0.069826
-0.035045
0.124255
0.125290
0.470823
0.082321
0.284171
0.209485
0.207384
0.269413
0.645543
-0.107049
0.677262
-0.164732
0.810417
-0.024228
-0.128726
-0.007408
0.399600
-0.162608
0.091506
-0.095966
0.015145
0.033699
-0.970613
0.082378
-0.097705
-0.275420
0.340493
0.752878
0.427645
-0.434164
0.027480
-0.218905
-0.268138
0.389847
-0.383059
-0.761009
0.122835
0.761483
-0.183473
0.500648
-0.361802
-0.789919
-0.499278
-0.554468
-0.169903
0.171584
0.236807
0.181453
-0.065798
-0.224937
-0.421103
-0.311730
0.152080
0.474240
-0.063052
0.217744
-0.111888
0.623779
-0.551191
0.380128
0.854101
-0.209281
-0.251504
-0.848002
-0.451953
-0.531574
0.105553
-0.263964
0.207271
0.047547
-0.047575
-0.742120
0.007348
-0.216985
0.010894
0.403429
-0.604809
-0.002468
-0.070555
-0.152746
-0.170758
-0.736753
0.713814
-0.076300
-0.193116
-0.961217
-0.432842
0.218351
0.767736
1.236903
-0.339608
0.538276
0.105638
0.259716
0.113141
0.155037
-0.419003
-0.231533
0.098920
-0.458983
0.339108
0.463782
-0.184852
0.008554
-0.794927
-0.521931
0.363248
0.196399
0.483492
-0.389207
0.035726
0.358733
0.315794
0.513547
-0.347778
-0.040857
0.414806
0.662980
0.112486
-0.104922
0.446326
-0.230817
0.823429
0.749519
0.296519
0.292845
-0.274157
-0.257337
-0.008558
0.660041
-0.078732
-0.148972
0.189417
0.325922
-0.436428
0.030220
0.427340
-0.230610
-0.262650
-0.169293
-0.156881
0.261436
-0.585966
-0.370497
0.062780
-0.010443
0.074716
0.319398
0.142509
-0.131427
0.220499
0.521808
-0.070413
-0.274225
0.266763
0.388673
-0.099422
0.171085
0.318401
0.443588
-0.449696
0.539684
0.152789
-0.666146
-0.557208
0.330881
-0.389286
0.544244
-0.058351
0.591638
0.011586
-0.422671
-0.227022
0.360655
-0.743810
-0.686175
0.864774
0.176281
-0.396367
0.644903
0.059528
0.232909
-0.058326
0.126775
0.357017
0.087252
0.263412
-0.497308
0.374977
-0.195828
0.291743
0.173440
-0.444131
0.235592
0.098798
-0.534408
0.192315
-0.106377
0.328715
0.128702
0.315613
0.399979
-0.012117
0.053516
-0.472888
-0.050874
-0.259833
-0.291978
-0.096582
-0.115613
0.118515
0.100043
-0.640924
0.205435
0.334277
0.189448
0.075516
1.034314
-0.465619
0.649304
0.544668
0.219416
0.224248
-0.135179
-0.156157
-0.525601
-0.073866
-0.443625
0.010642
-0.044245
-0.203843
0.023859
-0.257481
-0.175244
-0.074427
-0.380031
0.162470
-0.322199
-0.578091
-0.289950
-0.154020
-0.471505
-0.577910
-0.163554
-0.488747
0.645487
-0.445830
0.660106
-0.125695
-0.131652
0.332529
-0.646550
-0.445169
-0.420545
0.294176
-0.524649
-0.365804
0.563571
0.257528
-0.175102
0.060392
0.772019
-0.102679
-0.312711
-0.732465
-0.237391
0.364470
0.233888
0.210425
0.274111
-0.624313
-0.193405
0.286735
-0.172300
0.304854
-0.496220
0.606103
-0.266352
-0.353742
-0.140584
0.463336
-0.294563
-0.163585
-0.320862
0.233643
0.084972
-0.715119
-0.356432
-0.939707
0.602454
-0.118402
0.474023
-0.101096
-0.820457
0.324323
0.230323
-0.721471
0.042227
-1.050640
-0.753658
0.706616
-0.592789
0.365573
0.457833
-0.055143
-0.607895
-0.416467
0.237838
-0.570131
-0.134152
-0.629049
0.111801
-0.081140
0.268062
-0.290150
-0.632248
-0.651520
0.083238
0.463783
-0.627604
-0.201224
0.395342
0.179961
-0.388327
-0.132114
0.042238
-0.379876
0.136412
0.112004
0.560676
0.064633
0.544846
0.418750
-0.337177
-0.284887
0.553898
0.253732
-0.906950
0.318425
0.194834
0.489166
-0.237424
0.465377
0.598157
-0.437833
-0.198323
0.233253
0.195549
-0.160797
0.401562
-0.668284
-0.009780
0.291488
0.671432
0.588847
-0.774255
-0.722155
-0.592876
-0.081268
-0.001510
0.628218
0.239068
-0.556063
-0.328452
-0.238831
0.240536
-0.005296
-0.034137
-0.319254
-0.021742
0.369873
-0.463197
-0.584112
-0.326797
-0.214410
-0.141644
0.581288
0.512372
0.218641
0.486806
0.464518
-0.243379
0.487008
-0.425645
-0.253967
0.447785
0.064163
-0.133004
-0.095323
-0.287505
0.150489
0.788811
0.366169
-0.345987
0.080689
-0.239605
0.228487
-0.121065
-0.390050
-0.362538
-0.054162
-0.590608
-0.044138
0.026434
-0.252177
0.469577
0.425604
-0.368093
-0.063767
0.121111
-0.391014
-0.093737
0.157033
-0.031704
0.415662
-0.229857
-0.370227
-0.312489
0.148126
-0.803405
0.744700
-0.267615
0.068341
0.158044
-0.009707
0.009575
-0.153829
0.259108
-0.492664
0.263073
0.142654
-0.397223
0.065284
0.241994
0.206633
0.082878
-0.409565
0.295578
0.464883
0.800199
0.324302
0.338371
0.185465
-0.563707
-0.416740
0.263635
-0.327794
-0.319994
-0.511421
0.247064
0.653145
0.715674
-0.139480
0.433618
0.270787
0.170538
0.654491
0.141413
-0.313064
-0.464735
0.601927
0.217276
0.566371
0.075301
0.026411
0.384728
1.050998
0.571695
0.037536
0.285876
-0.255086
0.080128
-0.066948
-0.496330
0.117868
0.310569
0.324637
-0.169725
-0.209273
-0.039849
-0.286996
0.028343
-0.200009
0.515939
-0.367044
0.325740
0.211935
0.402546
-0.279600
0.106716
-0.797338
0.491738
-0.589570
-0.742508
-0.075997
0.382980
0.008204
-0.216137
-0.489512
-0.134936
-0.258572
0.351659
0.161868
-0.394353
-0.362422
0.354994
0.629790
-0.040946
0.802535
-0.184730
0.100948
0.325738
0.454315
-0.180002
0.185631
-1.019326
0.052217
-0.605719
0.597954
0.695082
0.446558
-0.060300
0.196433
-0.379082
0.726151
0.679134
0.754645
0.281603
0.558531
0.082349
0.008731
1.140116
-0.755719
-0.240529
-0.045134
0.312663
0.181862
0.529728
0.672747
-0.001328
-0.214770
-0.403238
0.331810
0.360778
-0.063149
-0.036152
-0.261483
-0.588056
-0.032694
0.712775
-0.465496
0.218785
0.861874
0.171219
-0.460597
0.172173
-0.366084
0.013361
-0.080128
-0.102237
0.211448
0.179515
0.407076
0.158658
-0.524907
-0.273306
-0.286962
-0.129933
-0.396334
-0.397166
0.003331
0.438341
-0.357061
-0.762887
0.189504
0.103979
-0.007833
0.317033
-0.063415
0.555777
-0.372498
-0.533551
0.037100
0.103099
0.113030
0.272489
-0.797661
-0.385622
0.421142
-0.259607
0.549379
0.009693
0.460608
-0.341980
0.894554
-0.209545
0.209893
0.282606
0.013854
-0.158889
0.146608
-0.237385
-0.339727
-0.041629
0.155013
0.096614
0.202944
-0.143923
-0.901413
0.364127
-0.139402
0.248983
0.568552
-0.674134
0.231339
-0.257698
-0.094657
0.659722
0.116161
-0.116692
0.854576
-0.035060
0.136762
0.219524
-0.305262
-0.214993
0.349834
0.222733
0.087689
0.092083
0.284015
-0.127995
-0.064411
-0.093403
-0.081361
-0.610359
0.588946
0.134315
-0.585511
-0.197129
-0.420724
0.868336
0.313052
0.523463
-0.200259
-0.377267
-0.538027
-0.510888
0.149183
-0.510959
0.042662
0.305412
-0.623880
0.020840
0.390068
0.779079
0.022277
-0.199683
0.847103
-0.468188
0.071592
-0.505381
0.205080
0.571937
-0.021220
0.105244
-0.189946
0.344805
-0.250663
0.659455
-0.555914
-0.282192
-0.222121
0.368210
-0.095312
0.077888
-0.270863
-0.909359
-0.157446
0.267339
-0.070916
-0.147397
0.030198
0.157499
0.011467
0.265591
0.644995
0.619129
0.293152
-0.603007
-0.106396
0.249304
-0.653827
0.045024
-0.329638
-0.084786
0.049234
0.223289
-0.570516
-0.081121
-0.381852
-0.795164
1.100990
0.124106
-0.325795
0.637767
0.253084
-0.026358
-0.233655
-0.728289
-0.321631
-0.441992
0.117529
-0.319487
-0.376498
0.730445
0.301069
-0.052433
0.122787
-0.047994
-0.084750
-0.269232
-0.553894
-0.441522
0.282467
0.512728
-0.003838
0.531803
0.163379
-0.404423
0.369623
-0.417900
-0.550730
-0.114160
0.216139
-0.252765
-0.416096
0.334068
-0.140842
0.105079
0.045423
-0.298351
-0.639116
0.499252
0.338909
-0.252230
0.220144
-0.309884
-0.262616
-0.649813
-0.341099
-0.016941
-0.509802
0.466202
0.332120
0.406775
-0.093021
0.872847
-0.037267
0.259952
-0.507151
-0.589978
-0.140266
1.015448
0.257343
-0.178695
-0.415124
-0.717052
0.091093
0.336320
-0.782018
0.143915
-0.479032
-0.479579
-0.540941
-0.193882
0.423171
-0.154210
-0.357835
0.236300
-0.363197
0.853902
-0.075657
0.367118
0.091460
-0.203519
0.284836
-0.143686
0.108763
-0.297249
-0.385807
-0.092466
-0.392052
0.051980
-0.299926
0.488920
0.079774
-0.238525
0.012394
0.352112
0.380142
-0.049150
-0.231467
-0.260563
-0.430525
0.350731
-0.140428
-0.142745
0.092476
0.574748
-0.465240
0.817793
0.313451
-0.427277
0.405495
0.282164
0.119865
-0.151840
0.669570
0.299854
-0.744629
-0.351388
-0.398915
0.502688
-0.639919
-0.732266
0.071467
0.157748
-0.765001
0.131762
-0.449643
0.403741
0.583864
0.161073
0.071752
-0.694104
0.395016
0.039581
-0.907545
-0.132391
-0.159000
0.241222
-0.074470
0.356171
-0.562633
0.059571
-1.152830
-0.180798
0.019942
-0.424087
0.573940
-0.530601
-0.394055
0.710102
0.504282
-0.365259
-0.212056
-0.115977
0.393221
-0.073462
0.161385
0.414193
-0.095115
0.364442
0.039794
0.047586
0.352877
-0.701185
-0.285167
-0.249104
-0.276163
-0.004792
0.609903
0.152834
0.288134
0.392672
-0.698323
0.513544
1.106255
-0.079677
-0.100317
0.257432
0.893970
-0.279664
-0.269110
-0.431121
0.350164
0.151275
-0.380197
0.131738
1.502725
-0.434050
0.330580
-0.847862
0.661039
0.379059
0.159778
-0.520709
0.069689
-0.038148
-0.506320
0.320032
0.160574
0.111817
-0.095888
0.392721
-0.054676
0.310415
0.500487
0.314565
-0.255161
0.162231
0.849605
-0.206575
-0.788496
-0.535884
-0.796741
0.055395
0.467767
0.110460
0.391610
-0.096226
-0.255524
0.287070
0.142272
-0.562045
-0.423177
-0.212788
-0.358449
0.026581
-0.597081
-0.288216
-0.116843
-0.007516
-0.642256
0.456874
-0.376245
-0.957669
0.593929
-0.363134
0.256997
0.102443
0.691502
0.376852
-0.376156
-0.428429
0.095514
0.884202
-0.528471
0.090281
-0.036104
0.642425
0.360858
0.085269
0.004653
-0.078473
0.177637
0.166828
-0.935158
-0.437049
0.416993
0.345239
-0.680326
-0.194813
-0.151851
-0.854179
-0.059315
-0.236013
-0.075166
-0.303887
-0.156395
-0.084176
-0.169000
-0.266637
-0.308905
0.745441
-0.101303
0.493243
-0.184291
-0.831293
-0.737711
0.248443
-0.179571
-0.400878
0.650325
-0.410131
-0.055568
0.543677
-0.122679
-0.096046
-0.286789
0.019529
0.028902
0.195115
-0.177040
-0.044005
-0.249598
0.540422
-0.056384
0.073208
0.099594
-0.373089
0.281743
-0.048773
0.190766
-0.436794
-0.301509
0.500459
-0.391460
-0.616314
0.157628
0.048300
-0.179415
0.179511
0.432090
0.346375
0.111448
0.157884
-0.344400
-0.120376
0.551527
-0.074168
0.284845
0.192008
0.533241
-0.029901
-0.416474
0.133247
-0.392413
0.884135
-0.285960
0.527660
0.151677
0.095352
0.073280
0.159352
0.127440
-0.807717
0.074059
-0.758472
0.030016
0.127052
0.655427
-0.293692
-0.185967
-0.145258
0.130460
-0.074927
-0.534877
-0.655483
0.096687
0.146147
-0.310835
-0.025276
-0.109567
-0.353874
0.372354
-0.033449
0.546106
-0.430152
0.410083
0.005520
0.690386
0.345846
0.590216
-0.453176
-0.616274
0.375262
-0.584450
0.557903
0.356081
0.305713
0.221384
-0.162453
0.187955
0.207229
-0.439818
0.558798
0.004213
-0.312751
-0.135300
0.112891
-0.267919
0.294038
0.119323
0.308394
0.048718
-0.148147
-0.173894
0.057868
-0.916296
0.073803
0.132217
-0.225102
-0.070571
-0.452660
-0.137756
-0.272838
0.134567
0.096973
0.533392
0.218704
-0.316726
0.464746
-0.018272
-0.131683
-0.099629
-0.336472
0.028249
0.052920
0.435278
-0.039900
-0.000345
0.368469
-0.179845
-0.336110
-0.406562
0.709561
-0.209253
0.056139
-0.011396
-0.284916
0.484497
-0.008212
-0.086904
-0.150006
0.010458
-0.533150
-0.284985
0.479307
0.180275
-0.283929
-0.320566
0.629249
-0.593262
-0.261581
0.033919
0.372030
0.181526
-0.659562
0.113703
0.058134
0.381378
-0.305580
0.354894
0.254585
0.204763
0.101844
0.250399
0.247085
-0.591249
-0.335881
0.503918
-0.095194
0.052308
0.373887
0.022636
-0.350103
-0.204462
0.011691
0.241223
0.195290
-0.093698
-0.461246
-0.035009
-0.532539
0.488772
0.083753
0.677809
0.344732
-0.261895
-0.285675
-0.038877
0.109146
0.273553
-0.145040
0.533304
0.397209
0.289583
0.393346
-0.361383
-0.233028
0.609897
-0.089248
-0.259816
-0.053015
-0.613699
0.009283
-0.110256
-0.814840
0.233369
-0.383322
0.144819
-0.166175
-0.007836
0.380784
-0.202523
-0.219875
-0.448730
0.273293
-0.011028
-0.108655
0.475970
0.013006
-0.197507
0.427264
-0.210306
0.424047
0.229940
0.241998
0.435050
-0.102292
-0.363635
0.021575
0.696539
-0.254639
-0.118189
-0.400016
0.291436
-0.056291
0.054278
0.443389
-0.041697
-0.157581
-0.247907
-0.484014
-0.196221
-0.306492
0.218183
0.005416
0.422508
-0.323103
-0.318722
-0.388204
-0.419776
-0.472128
-0.351869
-0.381192
0.247096
0.683196
-0.004489
0.169687
-0.341050
-0.345032
-0.207676
0.696611
0.424932
0.079366
0.753164
0.565168
0.614240
0.164924
0.430304
-0.399528
-0.132815
-0.073094
-0.715526
-0.448894
0.150774
-0.407059
-0.029731
0.107721
0.554595
-0.418822
0.393249
0.089770
-0.183180
0.004122
-0.457849
-0.140671
-0.400840
-0.261203
0.339703
-0.126573
-0.249919
0.006748
-0.165758
0.100481
0.095156
-0.467662
-0.339617
0.379952
0.106929
-0.457655
-0.733675
0.135790
-0.173216
0.281998
0.185645
-0.203621
0.471140
-0.374213
0.958513
0.107813
0.203465
0.200129
-0.002027
0.712949
0.184476
-0.552552
-0.927154
-0.148412
-0.575314
-0.055666
-0.267248
-0.609061
0.053723
0.725798
0.324175
-0.480651
-0.716455
-0.137749
0.391909
-0.081124
-0.694386
0.417016
0.170156
0.044043
-0.347182
0.428100
-0.276086
-0.418114
-0.099053
-0.541004
0.364411
0.302786
0.094934
0.152543
-0.487318
0.013741
-0.291835
-0.697323
0.163806
0.547591
0.513277
0.013515
-0.092335
0.575489
0.321559
-0.199314
-0.557945
-0.219651
-0.096840
-0.064830
-0.137940
-0.037745
0.914560
-0.115094
0.366658
-0.077986
-0.213657
0.399127
0.550542
0.005517
0.294323
0.470275
0.551439
-0.251688
-0.223054
-0.372371
0.021596
0.174677
0.600559
-0.546450
-0.229095
0.980140
-0.286581
0.063775
0.258539
-0.012858
0.541158
0.090676
0.029375
0.440443
0.031006
-0.518710
-0.825911
-0.641631
0.236990
0.289797
0.204579
0.351645
-0.086721
-0.574150
-0.213814
0.272657
-0.173948
0.794591
0.443146
0.062612
0.972471
-0.125766
-0.318037
0.468592
-0.118800
-0.121792
0.234663
-0.220110
-0.379316
0.467327
-0.654823
0.005843
0.893470
0.902826
-0.331205
-0.004577
-0.137644
-0.319109
-0.234688
0.231693
-0.039181
-0.051566
-0.372877
-0.160997
0.217110
-0.700732
0.200827
0.187138
0.092033
-0.230501
-0.228608
0.015771
-0.184429
-0.246387
-0.688780
0.002306
-0.122361
-0.490040
-0.061041
0.026817
0.212218
-0.014144
-0.033235
0.932093
0.353816
-0.356034
0.021738
0.408434
-0.850668
0.252877
-0.236581
-0.623253
-0.845157
-1.205811
-0.278564
-0.962523
0.627158
-0.612475
0.298543
-0.388985
0.380521
-0.665743
0.330864
-0.685667
0.233923
0.023702
-0.050640
0.178292
0.109320
0.201044
-0.146743
0.258428
0.162760
0.057686
-1.034951
-0.217730
0.119528
0.599390
0.017353
-0.091004
-0.207853
-0.437764
0.347958
-0.504878
0.171203
0.437905
-0.233670
-0.459460
0.060195
-0.396498
0.272583
0.535787
0.519881
-0.273725
-0.440710
-0.151810
-0.553825
-0.214501
0.284285
0.028268
-0.317031
-0.191915
0.306223
0.638830
0.174805
-0.184645
-0.611614
-0.115335
-0.127973
0.877603
0.191513
-0.132308
-0.017658
0.116230
0.326887
-0.002142
-0.014700
0.038185
0.662106
0.656004
0.194668
-0.621249
0.319803
-0.114850
0.453100
0.361500
-0.213747
-0.707153
0.368247
-0.438393
0.418157
0.082313
-0.219690
0.345206
-0.006371
0.568281
0.539764
-0.498366
-0.970046
-0.120255
0.805730
0.022327
-0.115105
0.121675
-0.454344
-0.164946
0.313780
-0.304851
-0.107099
0.426172
-0.339475
-0.766680
0.206556
1.145782
0.474808
0.339551
-0.106970
0.652404
0.241989
-0.280847
0.144179
0.491465
0.671820
0.044912
0.207165
-0.002770
0.245936
0.067881
-0.384866
-0.186594
0.623256
-0.151171
-0.545397
-0.143108
0.557499
-0.840729
-0.037238
0.509417
-0.420439
0.478671
-0.153897
-0.629020
-0.455093
-0.297113
-0.086942
-0.706207
0.185048
-0.123074
-0.537306
0.500137
0.607246
-0.574715
0.092236
-0.175312
-0.090665
-0.154603
0.689718
-0.191636
-0.601487
0.291637
0.184097
-0.558380
-0.428415
0.076799
-0.139964
-0.007267
-0.184561
0.147784
-0.845954
-0.473026
0.068509
-0.216875
-0.009739
-0.309915
0.149251
-0.537595
0.245642
0.232216
-0.468718
-0.269930
-0.530099
-0.173442
-0.174806
-0.457091
-0.275384
0.285671
-0.629264
-0.091410
-0.470555
0.210186
0.759651
-0.392272
-0.213023
-0.419673
0.091664
-0.469703
0.209616
-0.221020
0.166783
0.431984
-0.137931
0.207592
0.439791
0.220027
-0.421149
0.434756
0.229653
-0.150534
0.402780
0.681998
0.155109
-0.132475
-0.057938
0.152941
-0.178707
-0.178349
-0.474587
0.055592
0.452969
0.395624
0.291982
0.129402
0.390259
-0.228727
-0.493115
0.028751
0.369394
0.532686
0.376921
-0.103704
-0.615993
0.299487
1.189729
-0.234490
0.189425
-0.806961
0.510580
-0.028985
-0.113802
-0.248290
0.284999
0.062686
-0.627794
-0.793939
0.339816
-0.168722
0.456204
-0.021777
0.601022
0.499315
0.279006
-0.084158
0.067194
-0.278061
0.070525
-0.101802
-0.920045
-0.491968
-0.398238
-0.199822
0.003566
0.315154
-0.300093
-0.318405
0.231410
0.347093
0.004729
-0.809294
-0.307537
0.552066
0.192750
0.047607
0.027712
-0.600669
-0.072254
-0.225308
-0.689512
-0.756576
-0.225663
0.199435
1.170784
0.040555
-0.244705
0.639246
0.190358
-0.716222
-0.658609
0.157450
0.088237
-0.069629
0.563327
0.345587
0.665146
0.220931
-0.071752
-0.093983
-0.167747
0.121581
0.382751
-0.207636
-0.397770
0.145453
-0.502836
0.245137
0.553457
-0.433451
-0.281549
1.092083
0.835389
0.803374
0.171957
-0.693366
-0.084253
-0.005940
-0.042433
-0.221180
0.018084
0.182548
-0.458829
-0.725649
-0.224266
-0.215852
0.665219
-0.424669
0.381689
-0.154473
0.031617
-0.484659
0.195515
-0.234030
0.473619
0.024983
0.340198
-0.327199
0.188178
0.343006
0.066358
0.616996
0.172812
0.291496
-0.235866
0.589018
-0.491533
0.525238
0.283622
0.389789
-0.261207
-0.683939
0.494277
-0.132693
-0.207202
0.590402
-0.651961
0.061383
-0.355530
0.149739
0.045530
-0.462801
-0.440430
0.459811
0.012194
0.280858
-0.082885
0.076470
-0.072636
-0.203953
-0.266674
-0.957142
0.190058
0.072504
-0.129314
-0.054456
-0.246181
0.099264
0.556458
-0.180810
-0.178255
-0.633306
-0.384362
0.568339
0.419108
-0.327202
0.442196
0.265871
-1.209673
0.029730
-0.035302
0.055714
0.045760
-0.424312
0.153586
-0.297674
-0.463527
-0.510994
-0.737993
0.350499
0.005916
-0.015920
0.690651
-0.311993
-0.277257
-0.748835
0.881304
-0.102679
0.020366
0.018370
0.271618
-0.106575
0.353390
-0.511455
-0.487210
0.274087
-0.354913
-0.013894
0.612611
-0.006496
-0.346193
0.046087
0.673331
-0.080705
-0.152016
0.111495
-0.114545
-0.168479
-0.691263
-0.703646
0.033121
0.426125
-0.050000
0.179613
-0.943308
-0.540263
0.101919
-0.230205
0.328327
1.102682
-0.389699
0.202374
0.705995
0.692509
0.247944
-0.592260
0.479951
0.096538
0.165740
-0.503928
1.215144
-0.000576
-0.105957
-0.201807
0.414919
0.162357
0.122521
0.158734
-0.335986
0.369894
-0.292563
-0.250599
-0.095306
-0.124222
0.280311
0.660622
0.127102
1.005556
-0.214015
0.433764
-0.082837
-0.814999
-0.061158
-0.355930
0.024020
-0.088402
0.076916
0.478670
0.275747
0.019227
0.201243
0.554306
0.350934
-0.189646
-0.123608
-0.211303
-0.472879
0.668426
-0.442347
0.379879
-0.913524
0.716669
0.160729
-0.141853
-0.245881
-0.417137
-0.136609
-0.549610
-0.016617
0.175660
-0.562754
0.054583
0.094864
-0.134619
-0.090756
0.595026
-0.468770
-0.892521
-0.349688
0.011761
-0.425683
-0.133909
-0.542230
-0.341579
0.437071
-1.005777
-0.097094
0.106783
-0.275906
0.526151
0.638161
0.346363
0.501020
-0.228887
0.191446
-0.341813
0.530274
-0.015199
-0.519086
-0.160411
0.091450
0.453801
0.106682
0.118813
-0.316488
0.337701
-0.070176
-0.780690
-0.063143
-0.196701
-0.651885
-0.168332
0.631340
0.085668
0.161335
-0.689851
-0.046038
0.053102
-0.009180
-0.397638
0.608128
0.041529
-0.015722
-0.246244
-0.012585
0.394869
0.290764
0.398974
0.610784
-0.209981
-0.144608
0.846551
-0.009579
0.368288
-0.383305
-0.074835
-0.124945
0.639279
-0.111566
0.188232
-0.022175
0.130298
0.129214
0.490130
0.013458
0.640544
-0.286628
0.270144
0.074955
0.103324
-0.306872
0.421936
-0.414810
-0.346784
-0.232693
0.320812
-0.309142
0.194881
-0.169914
-0.308330
0.118975
-0.176281
-0.439567
-0.487086
-0.113745
0.121312
0.359807
-0.176164
0.287590
0.239160
0.233536
0.377875
-0.664440
-0.193954
-0.140382
0.050576
0.937896
-0.050562
-0.639541
0.133654
0.632526
0.422673
0.456839
0.663844
-0.223350
-0.701615
0.106999
-0.730122
0.442681
1.008614
0.831435
0.021933
0.474034
0.399193
0.507679
-0.370209
0.374001
0.061965
-0.361033
-0.153438
0.260021
0.309297
-0.285200
-0.195035
0.284559
-0.020306
-0.040541
0.538103
-0.498036
-0.171174
-0.093920
0.764830
-0.416202
0.222700
0.004016
0.013999
0.455939
-0.274906
-0.082212
0.301157
0.252003
0.185457
0.108238
0.087677
0.339980
-0.426394
-0.508399
0.508374
-0.778454
0.534479
0.731772
0.354665
0.391086
-0.819507
0.041337
-0.258965
0.862334
-0.190312
-0.344684
-0.783102
0.554107
0.205976
0.282761
0.727356
-0.335389
-0.431119
-1.055534
-0.400672
-0.080157
0.253422
-0.068634
0.260385
-0.176718
0.340304
0.529343
-0.245132
-0.137698
-0.020883
-0.399046
-0.208591
-0.347706
0.033702
-0.854312
-0.499212
0.663574
0.101174
-0.151782
-0.169489
0.117420
-0.240845
0.280598
-0.262731
0.531435
-0.152888
-0.092649
0.073771
0.313833
-0.401021
-0.182181
-0.565748
0.258456
-0.207051
0.073833
-0.102663
0.560119
0.073441
0.323884
-0.518415
0.118182
1.025631
0.341380
-0.369667
-0.764157
-0.432578
-0.158109
-0.142122
-0.363803
0.073509
0.177789
-0.248933
0.369430
-0.430224
0.123666
-0.353879
0.798894
-0.368078
0.098435
-0.006507
0.795245
0.135855
-0.046838
-0.567782
-0.339725
-0.384665
-0.253412
-0.008930
0.464459
0.169548
-0.164070
0.323168
0.581779
-0.360198
-0.553489
0.139456
0.067355
-0.177187
0.622167
0.190047
-0.571453
0.663565
-0.114402
0.581736
0.022494
-0.455128
0.059918
-0.138042
-0.015212
-0.664204
0.578157
0.471901
0.371814
0.685864
1.015438
0.095396
0.726911
1.071962
-0.480725
0.051945
0.138183
0.233871
0.216792
-0.155718
0.385558
0.284097
-0.174368
0.339900
-0.755562
-0.462069
-0.527850
0.843855
0.268093
0.399305
-0.486946
-0.008820
-0.209833
0.010430
0.235853
-0.152612
0.385113
0.225423
-0.142639
-0.153415
0.673887
0.554515
0.074126
0.025290
0.287062
0.538856
0.061830
-0.137309
-0.029938
-0.211455
0.153058
0.251737
0.220352
0.025755
-0.021771
-0.155652
0.125859
0.008830
1.020758
0.874897
0.445700
-0.293582
-0.352620
-0.286059
0.085531
0.017185
0.850764
0.105576
-0.913594
-0.723698
0.317016
0.034713
-0.831299
-0.636777
-0.220789
-0.027360
0.035925
-0.587992
-0.188506
0.100194
-0.274725
-0.062497
-0.237687
-0.109716
0.027065
-0.290209
0.173121
-0.278533
0.530302
0.017960
0.109485
-0.069308
-0.086504
-0.328903
-0.183654
-0.070688
-0.600883
-0.458307
0.349129
0.166538
-0.214912
-0.129677
0.174391
0.151988
-0.453302
0.389087
-0.394079
-0.718758
-0.592248
-0.319931
-0.564337
-0.583144
0.731142
-0.238486
-0.470629
-0.218348
-0.440509
-0.120529
0.123742
0.798491
0.403739
-0.060269
0.426784
-0.149000
-0.311967
0.355988
0.305243
-0.415470
-0.258903
-0.728784
0.169658
-0.035148
-0.365070
-0.390147
0.200443
-0.431323
-0.659959
-0.017300
-0.277251
0.123083
0.260747
0.406174
0.290994
0.167310
-0.609026
0.017731
-0.126850
-0.713308
0.085463
0.506558
-0.194243
0.023215
0.024356
-0.682188
0.510018
0.506593
-0.289034
-0.095620
-0.053839
0.412525
0.103139
-0.722475
-0.393820
0.163879
-0.917514
0.314952
-0.311874
-0.020646
-0.415494
0.617790
0.293421
-0.212812
-1.012019
0.098291
-0.271015
-0.644703
0.741876
-0.247251
-0.095721
-0.398687
0.353972
-0.835307
-0.111375
-0.056171
0.333180
-0.120073
0.165003
0.475847
0.521932
-0.033293
0.590154
0.048636
-0.419405
-0.029717
0.363889
-0.968213
-0.398166
-0.136426
0.164075
0.464657
-0.111770
-0.372247
0.492380
-0.119828
-0.546806
0.134030
-0.652782
-0.559962
0.691924
0.439464
0.253365
-0.452636
-0.207444
0.272759
-0.111246
0.385087
0.501392
0.364836
0.644698
0.233629
-0.100623
-0.062013
-0.162140
-0.066728
0.439033
-0.040811
0.031376
-0.434314
0.456564
0.292455
-0.330490
-0.385786
-0.338993
0.603363
-0.274066
0.381503
-0.254183
-0.801711
1.148665
-0.164867
-0.014763
0.223189
0.740879
0.514694
-0.507082
0.475284
0.155365
-0.209247
0.422148
-0.855058
-0.427927
0.312920
-0.135654
-0.356755
0.291809
-0.121642
0.326822
0.575767
-0.939237
-0.184496
0.241798
0.513018
-0.679571
-0.234792
-0.243925
0.319127
-0.649667
0.497567
0.018467
-0.282798
-0.301921
-0.703296
0.082590
-0.133419
-0.354471
-0.816041
-0.731704
-0.559478
-0.088166
0.171103
-0.206680
-0.269858
-0.252331
0.007997
0.289724
-0.004217
-0.330998
-0.724781
-0.493726
-0.515281
-0.542443
0.041462
0.549865
0.186601
-0.016483
0.331054
0.903503
0.416892
-0.368211
-0.388565
0.360156
-0.074268
-0.404411
-0.591228
0.226121
0.589476
0.062653
0.152969
-0.731334
0.349491
0.670732
-0.780048
-0.029512
-0.721843
-0.235969
0.222797
0.190244
-0.321442
-0.381936
-0.149417
-0.409873
0.191214
0.364897
0.268283
-0.295998
0.574021
0.226019
-0.483147
0.505932
-0.296227
-0.099272
0.205477
-0.948533
0.161837
-0.157363
0.441697
-0.070973
0.043588
-0.324050
-0.711953
-0.346920
-0.125830
0.235523
0.410008
0.653832
0.196299
0.308692
-0.504194
-0.243692
0.080064
0.083390
0.053247
0.141661
0.049847
-0.110142
0.219756
-0.304084
0.346859
-0.227241
0.625133
0.011934
-0.641331
-0.007548
-0.018075
0.192446
-0.568644
-0.272115
0.105020
-0.065625
0.057912
0.269447
-0.300380
-0.276888
0.537809
-0.099778
0.480213
-0.126232
-0.531341
0.293268
0.958981
-0.616943
-0.086412
0.358576
-0.800422
0.860094
-0.106579
-0.023439
0.209776
0.718501
-0.601719
0.004992
0.169865
-0.015358
0.530325
-0.489760
0.247644
-0.047167
-0.256535
-0.571894
0.179544
0.387059
-0.295138
-0.190538
0.959999
0.275525
0.279644
0.605045
0.583619
0.097034
0.380889
0.606076
-0.504521
-0.486218
0.339277
-0.062377
0.196840
-0.084303
0.162080
0.227580
0.352680
0.298306
0.320499
-0.103663
-0.605238
-0.930681
-0.040992
-0.233185
-0.117540
0.069083
0.499111
-0.824959
-0.629737
0.409270
0.005561
1.089131
-0.259445
-0.299384
-0.219609
0.259245
0.127150
-0.897493
-0.204023
-0.465074
0.563099
0.057552
0.227625
-0.145839
0.047661
-0.224924
1.035651
-0.196551
0.410419
-0.126449
-0.706814
0.319604
0.371031
0.072088
0.207077
-0.054307
-0.375512
-0.484581
-0.727677
0.340259
0.351982
-0.020813
-0.314816
0.593978
0.196285
0.749925
0.457931
0.566599
-0.159357
0.128174
-0.651325
-0.007118
-0.087948
-0.268849
-0.094561
-0.567173
-0.077674
-0.114667
-0.838494
0.152170
-0.511499
-0.311120
-0.682474
-0.123681
0.427418
0.536513
-0.275762
0.461620
-0.508096
-0.036629
-0.317995
-0.135190
-0.423124
0.532698
0.406068
0.135096
-0.500077
0.164348
-0.595914
-1.208995
0.706832
-0.232130
0.264660
0.682200
-0.538260
0.019352
0.646458
0.017910
0.348485
0.200087
0.132909
-0.452254
0.378128
-0.411523
0.000474
-0.147924
0.917018
-0.630913
-0.073609
0.135147
0.264226
-0.044311
0.033096
-0.145335
0.472345
0.256818
0.456832
-0.782261
0.062840
-0.361564
-0.150789
-0.227349
0.143212
-0.196528
-0.653095
-0.368194
0.216674
0.203909
-0.129207
-0.822079
0.176760
-0.737486
-0.354496
0.240343
-0.354240
-0.059652
0.491742
-0.014777
-0.078276
-0.124417
-0.575135
-0.498491
1.048847
-0.087209
-0.360517
0.050950
0.635995
0.170150
-0.325243
-0.091089
-0.290362
0.087027
0.727976
0.647699
-0.315527
-0.044768
0.120492
0.270529
0.507763
0.762794
-0.634468
-0.320435
0.128775
-0.240495
0.310507
-0.446604
-0.256515
-0.356475
-0.270985
0.119639
0.321064
0.198568
-0.355533
1.096857
0.132569
-0.093387
-0.672044
-0.115297
0.393859
-0.119862
0.400017
0.184640
0.277173
0.467385
0.191375
-0.568988
-0.029914
-1.033902
-0.223109
0.167361
0.607846
-0.763627
-0.396224
-0.336138
1.005299
-0.569803
-0.555834
-0.174064
0.288382
-0.470052
-0.027316
-0.081169
-0.040436
-0.233953
-0.286901
-0.038161
0.015798
0.027740
-0.191724
-0.583712
0.248085
0.727049
-0.068353
-0.564918
-0.139122
0.187331
-0.145279
-0.220345
-0.053174
-0.141898
-0.017528
1.616157
-0.273025
0.383210
0.427216
0.129002
0.200211
-0.423214
0.456928
-0.123439
0.815956
0.232307
-0.749586
-0.135056
0.645197
-0.241658
-0.001463
-0.631636
-0.209682
-0.631234
0.770853
0.217756
-0.186849
-0.273452
0.316151
0.088867
-0.453772
0.424627
0.418102
-0.697475
-0.174938
-0.060724
0.050632
-0.136828
-0.289411
-0.251147
0.195300
0.229113
-0.310454
-0.072149
0.320664
0.028912
0.301165
0.238127
0.269426
0.367430
-0.392029
-0.203609
0.202220
-0.551262
-0.868827
0.422437
-0.003354
0.122848
0.438505
0.085108
-0.284254
-0.182339
0.185812
-0.368964
-0.299040
-0.253713
-0.252151
-0.152104
-0.512671
0.055989
0.120696
0.204192
0.646401
0.053022
-0.201069
-0.003828
0.293095
0.079820
-0.192088
0.083433
-0.324160
-0.633445
-0.137927
0.325341
0.474934
0.258778
0.017615
-0.095110
-0.280702
-0.491714
0.416291
-0.332945
-0.321553
-0.196891
0.074187
0.202373
0.422216
-0.079505
1.069959
0.423177
-0.543958
-0.644987
-0.410510
-0.257007
0.185417
-0.487778
0.237681
0.257434
-0.271450
-0.386768
0.871135
0.690248
-0.477216
0.682360
-0.325673
-0.012678
0.263894
-0.019283
-0.086593
-0.837528
-0.082904
0.031302
0.446828
1.114728
0.421346
0.759844
-0.883033
0.101089
0.268524
-0.420546
-0.519579
0.057892
-0.031487
0.158979
-0.323176
0.091541
0.700182
-0.544442
0.625629
0.009132
-0.337491
-0.485824
-1.029838
-0.056546
-0.486056
0.886665
-0.012557
-0.428074
0.217409
0.276455
0.149665
-0.019530
-0.186118
-0.044935
-0.118788
-0.929960
-0.650612
1.358888
-0.059793
-0.025488
0.408337
-0.450108
-0.127986
-0.463254
0.326817
-0.431753
0.701583
0.133424
-0.271253
-0.144017
0.685519
0.147682
0.082335
1.047879
0.559026
-0.431839
-0.393374
0.291231
-0.186210
0.059136
-0.982455
0.159983
1.346114
0.350999
-0.380309
0.082694
-0.006313
-0.077099
-0.171148
0.723189
-0.591211
0.104708
0.085833
-0.330675
-0.075040
-0.217098
-0.415828
-0.223476
0.155287
0.349141
1.019557
0.545343
0.164852
-0.218172
-0.051292
-0.116700
0.188822
-0.180683
-0.095853
0.666399
0.364491
-0.079628
0.107550
-0.092457
0.575174
0.470345
0.154996
-0.109612
0.171777
0.133809
0.104148
-0.064832
-0.159007
0.406591
0.363340
-0.206444
0.656206
-0.144226
0.228389
-0.198437
-0.657604
0.438147
0.951968
0.980214
-0.923351
-0.448047
-0.294869
-0.176381
0.476311
0.384409
-0.333356
-0.029641
0.117090
0.339366
0.426304
0.108370
-0.045647
0.684543
-0.587090
-0.165757
0.803576
-0.295875
0.000350
-0.274871
0.190648
-0.422993
-0.043092
-2.111517
-0.194940
0.307608
-0.074368
-0.001146
-0.442523
0.441528
-0.004727
-0.007327
-0.377774
-0.696334
0.096373
0.000262
-0.089001
1.359865
0.002876
-0.855585
-0.097596
0.315573
-0.111843
-0.387718
0.232966
-0.145326
-0.034051
-0.652597
0.432181
0.185424
1.255203
-0.588526
0.592853
1.166143
-0.886649
-0.886894
0.046830
-0.073242
-0.171123
0.619912
0.469216
-0.582300
1.017326
1.456762
-0.668437
-0.430632
1.340431
-0.689386
0.609671
-0.510710
1.464955
-1.000143
-1.032208
-3.484227
1.844408
-0.572375
-0.583081
-0.269326
0.874188
-0.940564
-0.741059
-0.542453
-2.464862
-0.190029
0.806985
0.793027
0.533982
2.803821
-0.824789
-2.832505
-0.302929
-0.560052
-0.387552
1.019211
0.559586
-0.121118
0.685834
0.382657
-0.166794
-0.481497
3.078143
-0.133731
0.583989
3.022070
-1.119302
-2.272473
1.633583
-2.024722
1.165619
-0.666943
0.593297
