0.083734
-0.466333
0.030510
0.017665
1.028036
0.171181
0.244642
0.510075
0.428192
0.442998
0.098804
-0.362931
0.045912
-0.127642
0.593964
-0.383608
-0.061640
0.170087
0.218671
-0.428515
-0.222657
0.756608
0.220776
0.615127
0.158659
0.239504
-0.183813
0.145176
0.045484
-0.064707
-0.785563
-0.640078
-0.723846
0.284740
0.481792
-0.946100
0.173119
-0.304172
-0.211328
-0.175896
-0.765625
-0.331513
-0.343433
-0.127199
-0.111831
-0.237837
-0.255626
-0.084155
0.468439
-0.625438
0.562365
0.385311
0.332652
0.153769
-0.322795
-0.440217
-0.353772
0.416141
0.286399
-0.364712
0.263897
0.648577
-0.323044
-0.499520
0.040117
0.856721
0.277780
0.543384
-0.638392
-0.267712
-0.016797
-0.014256
-0.708643
0.634562
0.089345
-0.379734
-0.004027
-0.993057
-0.527844
0.183130
0.502329
0.149561
-0.304098
-0.360756
-0.772748
-0.127526
-0.252732
0.180157
0.267285
-0.360003
-0.161147
-0.013741
0.220863
-0.861856
-0.755447
0.635068
-0.472840
-0.686683
0.639979
0.333807
0.148601
0.037934
-0.484562
0.362308
0.160748
-0.287693
0.709095
0.043930
-0.207225
-0.063464
-0.177325
0.358880
0.048682
0.251803
-0.046439
0.395912
-0.004454
0.117504
-0.147455
-0.087886
0.235544
-0.534617
0.067878
0.238052
0.090154
0.276342
-0.141700
-0.226482
0.792485
-0.623026
-0.147986
-0.053482
-0.999484
0.070547
-0.203228
-0.076762
-0.782858
0.393807
-0.038425
-0.059096
-0.925952
0.288772
0.377799
0.576027
0.043445
-0.022131
0.189935
-0.139024
-0.297405
0.092507
-0.248518
-0.181268
-0.097807
0.732576
0.404642
0.262272
0.477622
0.020400
0.169228
-0.766242
0.092400
-0.685090
-0.589144
0.724572
0.064268
0.573829
0.345805
-0.712140
-0.875271
-0.804281
0.451027
-0.090863
-0.377652
-0.364437
0.418868
0.058089
-0.124785
-0.428861
0.121801
0.242051
0.193297
0.244013
0.287528
-0.197005
0.201979
0.037345
-0.146142
0.390676
-0.157836
0.105743
0.291821
-0.225328
-0.409035
-0.017691
0.355881
-0.459172
0.665981
0.018825
-0.061265
-0.697014
-0.217699
0.047662
0.410793
-0.259110
-0.379916
0.460672
-0.611879
0.288932
0.437175
-0.029450
0.328963
-0.022126
0.126331
0.380344
-0.241754
0.338323
-0.292906
0.033102
0.283940
0.500488
0.554692
0.036977
-0.317444
0.613185
-0.427225
0.287413
0.640641
-0.170036
0.388086
0.028259
0.109566
-0.092648
0.272240
-0.204622
-0.292390
0.063655
-0.552253
0.500299
0.183318
0.483755
-0.122928
0.037140
-0.272827
-0.112292
0.190002
0.394596
-0.004637
0.654983
0.723656
0.080601
-0.584503
0.037761
-0.097046
-0.088778
0.125979
0.272515
-0.110279
0.062702
-0.356868
0.525579
0.014301
-0.198864
0.408494
-0.014522
-0.018369
0.111393
0.290840
-0.479044
-0.397148
0.587457
0.307402
0.054462
-0.569021
0.353687
0.332969
0.109369
0.052729
0.303257
-0.420461
-0.908250
-0.703358
0.068616
-0.107061
-0.108106
-0.196030
1.015543
-0.674795
0.701212
-0.284851
-0.244425
-0.056328
-0.386114
0.419993
0.852771
0.157600
0.324347
0.082244
0.685204
0.508410
0.278871
-0.504119
-0.022169
0.170786
0.717459
0.223031
-0.028858
0.023742
-0.234826
-0.106314
0.161199
-0.381623
-0.195515
0.243606
0.369817
-0.165032
-0.530885
0.455760
0.483978
0.456602
-0.973304
-0.090434
-0.301711
-0.236040
-0.478617
-0.015650
0.089513
0.202225
-0.321782
-0.102146
0.716437
-0.067890
0.556167
-0.812907
-0.473408
0.109524
-0.015068
0.041906
0.042497
-0.430740
0.337928
0.217534
-0.224662
-0.201927
-0.040543
0.383959
-0.046545
-0.084466
0.028689
-0.252866
0.085778
0.025203
-0.606705
-0.367496
0.292682
-0.506723
0.110024
-0.261607
-0.203737
-0.647245
-0.258146
-0.043135
0.012446
0.291693
-0.090909
-0.339234
0.219857
-0.318632
0.614753
0.087180
0.280984
0.696993
-0.467957
0.309697
0.163311
-0.528356
-0.667146
-0.492841
-0.076393
-0.429510
-0.047296
-0.532098
-0.134802
-0.351391
-0.440139
-0.020965
0.672414
0.215771
0.110870
0.112599
-0.231671
-0.011564
0.453177
0.040308
0.686426
0.410700
0.358785
-0.344083
-0.171613
-0.527013
0.130806
0.014114
0.036651
-0.097287
-0.197967
-0.523394
-0.497768
-0.327700
-0.520267
-0.920680
0.020722
-0.131421
-0.401840
-0.493204
-0.211166
0.565764
0.493672
0.006137
-0.363573
-0.300568
0.490415
-0.552214
0.767341
0.010533
0.364046
0.222690
0.144040
0.444324
0.023836
0.010129
-0.761964
-0.044772
-0.079348
0.346688
-0.733656
1.140952
0.127143
0.379550
-0.534824
0.192678
0.055690
-0.129750
-1.097603
-0.411886
0.710757
0.094761
-0.412685
-0.572317
-0.480163
0.167942
-0.003095
-0.176941
-0.331591
-0.132334
-0.014809
-0.307078
-0.268367
0.567418
-0.332120
-0.169614
0.089452
0.456044
0.651070
0.376208
-0.451504
-0.199697
0.147069
0.248058
0.139573
-0.506338
0.014531
0.215080
-0.090820
-0.289976
-0.242524
0.260777
-0.501875
-0.774913
0.055612
-0.077525
0.501770
0.512559
-0.495580
-0.952750
-0.364351
-0.558322
-0.336382
0.566336
-0.047113
0.002460
-0.103342
-0.537768
-0.121088
0.381160
0.432310
-0.180332
0.171803
0.091665
-0.225277
0.505957
-0.326842
0.133970
-0.378830
0.048805
-0.705192
-0.398065
0.336470
0.036132
-0.226458
0.817119
-0.740981
-0.179575
0.505832
-0.063035
-0.173805
0.310283
0.021458
0.617690
-0.723418
-0.377073
-0.351401
-0.484919
-0.183099
0.755638
0.339930
-0.151158
-0.565174
0.048665
-0.589491
0.059000
-0.377078
-0.194969
0.017497
0.003027
0.146624
0.180523
-0.052506
0.053161
0.742245
0.040000
0.426842
-0.251104
0.652649
-0.054791
0.407621
-0.889880
-0.648077
0.228521
-0.366310
-0.411396
0.570477
0.376404
0.190401
0.221835
-0.233966
-0.074885
-0.277786
-0.466314
-0.376513
-0.107667
0.265253
-0.191197
0.026273
-0.207400
-0.282809
0.112550
0.239388
-0.234149
0.598642
-0.071277
-0.417146
-0.147546
-0.053428
0.185782
0.391595
-0.185477
0.473315
-0.203197
0.075663
-0.584065
-0.063716
0.291766
0.611340
0.229942
-0.325531
-0.047076
-0.403381
0.500281
-0.561726
0.347524
-0.392448
0.021275
-0.292922
0.330307
0.104705
0.082698
-0.407228
-0.267456
0.529272
-0.414895
-0.894348
0.337561
0.243687
0.221173
-0.164318
0.419537
0.702383
0.357520
-0.035665
0.350884
-0.073597
-0.453293
0.020780
0.154609
-0.230919
-0.002279
0.107987
-0.261830
-0.283573
0.341469
-0.430002
0.612284
0.052737
-0.383112
0.077646
0.350822
-0.325951
-0.645969
0.133092
-0.122428
0.249109
-0.446718
-0.586555
-0.999698
-0.072731
0.138670
-0.188330
-0.223002
-0.131681
-0.226028
-0.276696
-0.131745
-0.271848
0.212094
0.002624
-0.296483
0.262732
0.580123
0.534904
-0.052934
0.095935
-0.182828
0.155784
-0.435224
-0.430396
0.598352
0.144753
-0.672023
-0.063811
-1.095559
-0.281084
-0.215122
-1.262458
-0.618988
-0.239792
0.414166
-0.110351
0.229123
0.017927
0.246022
0.187950
-0.406803
0.399328
-0.658089
-0.019126
-0.309884
-0.307184
0.396481
-0.622767
0.332646
0.118586
0.106827
0.769711
-0.314329
-0.078203
-0.394757
-0.036021
0.440543
0.232656
-0.445775
-0.542022
-0.490041
0.524543
0.078744
-0.159719
-0.192320
0.356585
-0.345995
-0.102891
0.595181
-0.261649
0.175482
0.001510
0.096305
-0.876896
0.380079
0.085378
0.017719
0.263696
-0.418793
-0.177538
0.541986
-0.078626
0.533042
0.253283
-0.381540
-0.042396
0.595643
0.071942
-0.238840
-0.118422
0.459328
-0.093321
-0.711310
-0.377813
-0.154577
0.158161
0.462533
0.184773
-0.000421
0.360586
0.045126
0.437990
-0.087316
-0.137947
0.604727
0.761633
-0.038290
-0.194619
0.065963
-0.125847
0.243283
0.002734
-0.698380
0.013453
-0.287629
0.427285
0.063049
-0.718355
0.177568
0.316326
0.721908
-0.699154
0.274627
0.529408
0.630080
0.050254
-0.075331
-0.330482
-0.124647
-0.461768
0.317420
-0.095583
-0.325791
0.183325
-0.968046
-0.297151
0.217307
0.132786
-0.193782
-0.242360
-0.103018
0.508019
-0.768088
-0.327381
0.600515
0.371951
0.072692
0.407554
0.270030
1.111992
-0.570274
0.028668
0.265815
0.601970
-0.644620
-0.217580
0.328875
0.129793
0.304720
0.072458
-0.199062
-0.655694
0.141753
0.071470
0.015672
-0.718779
-0.604946
0.607821
-0.342356
0.502169
0.375735
0.644059
0.000178
-0.118367
0.007470
-0.002999
0.151395
0.068770
0.401858
-0.639910
0.197115
-0.477599
0.179937
0.735650
-0.050055
-0.833839
0.197883
1.137070
-0.580257
0.052116
0.195468
-0.822070
-0.514658
-0.013567
-0.695015
0.454219
0.393877
-0.032216
0.310795
0.501978
-0.014861
0.218354
0.056000
-0.263148
-0.082375
0.343050
0.199766
0.446379
-0.087338
0.250760
-0.155979
-0.135519
0.011720
-0.399543
0.054093
0.458703
0.128896
0.125237
0.436150
-0.363922
0.484474
0.715666
-0.759465
0.024279
-0.492634
0.562605
0.020471
-0.394845
-0.735096
0.227636
0.221190
-0.049599
0.121754
0.228280
-0.005061
0.250131
0.437528
0.669373
-0.505829
0.621440
0.054710
-0.011653
-0.222900
0.170366
-0.625217
0.319693
-0.102357
-0.306497
-0.090486
0.085954
0.117609
-0.780130
0.466586
-0.056522
0.207096
0.564807
0.232310
0.498770
-0.068289
-0.144973
0.050613
0.392237
-0.254232
0.487899
0.504087
0.592290
0.336469
-1.029837
-0.733664
0.553049
0.472694
0.047594
-0.441329
-0.136815
-0.035959
0.055715
-0.047472
-0.385944
-0.615098
-0.749620
-0.354740
-0.633829
0.143069
-0.105817
-0.116835
0.367795
-0.259758
0.217057
-0.661532
-0.147541
0.108169
-0.171194
0.241931
-0.116260
0.003631
-0.343036
0.442401
0.507093
0.045385
1.048843
-0.075390
-1.085865
0.408084
0.044491
-0.423193
0.141650
0.184428
0.341250
-0.317730
0.072514
-0.426745
0.037759
-0.351458
-0.097383
-0.555279
-0.321035
0.346571
0.136577
0.493654
-0.015922
0.762057
0.497419
-0.085180
-0.178616
-0.690546
0.258743
0.198540
-0.496414
-0.042699
-0.023796
0.244967
-0.447428
-0.225290
-0.214463
-0.817766
0.167595
-0.015047
-0.076592
-0.303556
0.220279
0.004860
-0.087575
-0.146571
0.162830
-0.127367
-0.480129
-0.534244
0.513920
0.282978
-0.223206
0.065260
0.049444
0.388706
-0.534206
0.074703
0.365367
0.471470
-0.236707
0.137248
0.000637
0.645055
-0.405044
0.372940
0.206891
0.744780
-0.432284
-0.189392
0.572625
0.189899
-1.041571
0.517673
-0.557183
0.024530
-0.157299
-0.130395
0.565925
0.801671
0.077945
0.661095
1.073982
-0.220766
-0.018843
0.027550
0.082971
0.007203
-1.085087
0.467950
0.533494
-0.133693
0.161574
0.495500
-0.131392
-0.836166
-0.460368
-0.150956
-0.496854
-0.123154
0.519070
0.097452
-0.363026
-0.142258
0.935476
-0.053909
-0.557742
-0.487982
-0.088669
-0.511839
0.087263
1.083392
-0.000784
0.398083
0.660485
-0.034987
-0.083432
-0.106482
0.099199
-0.540319
-0.223613
0.315759
0.406458
-0.341158
-0.069903
0.257086
0.242555
-0.199929
-0.526205
0.254070
-0.043142
0.043708
0.211983
0.086544
0.047189
-0.180535
-0.317734
0.461687
0.230802
0.408392
-0.537570
-0.317128
0.242050
0.819387
0.940999
0.090820
-0.233053
-0.266901
-0.199136
-0.413384
-0.418266
-0.651115
-0.081698
-0.348739
0.277365
0.463687
0.629216
1.010228
-0.013558
-0.094030
0.012974
0.208893
-0.203036
0.217269
0.241647
-0.206501
0.177303
0.473247
0.951895
0.783153
-0.197104
-0.651218
0.136464
-0.017515
0.259767
-0.187764
0.199772
0.533053
0.444276
-0.171822
0.161997
0.527192
0.009520
-0.446788
-0.151171
0.194674
0.155585
0.294177
-0.836089
-0.269234
-0.238610
0.417660
0.217071
0.082232
0.215535
0.750364
-0.386900
-0.028950
0.005154
0.641859
0.694570
-0.046906
-0.212350
0.173898
0.315053
0.319022
-0.170931
-0.636480
-0.128267
0.473753
0.232806
0.693709
0.394045
0.125721
0.287192
-0.059253
-0.006421
-0.439502
0.976495
-0.022245
-0.271465
-0.449616
-0.408461
0.240072
-0.046305
0.153771
-0.300573
-0.074106
0.171555
-0.040620
-0.321787
-0.047916
-0.773251
-0.142807
-0.056075
-0.702082
-0.326996
0.180990
-0.183642
-0.314513
-0.887912
0.573971
0.052131
-0.148284
0.296307
-0.252468
-0.286442
0.144808
-0.350652
0.036576
-0.333994
-0.264032
-0.728895
0.280856
-0.536350
0.698112
0.163785
-0.491695
-0.020096
0.194633
-0.095041
0.300907
0.380978
-0.008231
-0.176786
0.398742
0.370135
0.257596
-0.727982
0.238766
0.016448
-0.615835
0.035898
0.344962
-1.001188
-0.462787
0.155096
0.069402
-1.168067
-0.340011
-0.697775
-0.299877
-0.036657
1.025196
0.025158
0.489979
0.612947
0.062111
-0.803729
-0.295058
0.403531
0.237298
-0.694064
-0.020162
-0.099508
-0.532328
-0.392165
0.816400
0.217987
0.028249
1.731578
0.683533
-0.021091
0.593217
0.097992
-0.195748
0.146073
0.240392
0.211691
-0.214214
-0.433365
0.254523
0.782794
-0.271349
0.538043
0.299666
0.107668
0.155712
0.414449
0.743078
0.532367
-0.797578
0.334093
-0.194381
0.116309
0.472561
-0.899544
0.722321
-0.037595
-0.462209
0.624367
-0.134813
-0.296385
0.777972
0.206576
-0.051409
-0.700710
-0.221906
0.069207
0.332900
0.008553
-0.188134
1.187010
0.130036
-0.535839
0.391985
0.600278
-0.572943
-0.027618
-0.040919
-0.163250
0.464720
-0.321566
-0.027076
0.256322
0.494189
0.141388
0.541257
-0.241312
-0.775785
0.192943
0.614333
-0.666480
0.336454
-0.033776
0.155732
0.664362
0.134106
0.149701
0.655373
-0.979116
-0.560689
-0.630013
0.161041
0.113958
0.179998
-1.140702
-0.744579
0.294378
-0.033676
-0.400024
-0.079886
-0.004505
0.055695
0.406550
0.347480
0.621488
-0.124935
0.200157
0.087941
0.184293
-0.276003
-0.314764
0.816886
-0.358469
-0.336903
-0.502554
-0.069998
-0.506570
0.629569
0.044275
-0.576658
-0.475495
-0.440086
-0.258647
-0.157807
0.475267
0.215685
0.252953
0.298552
0.678856
-0.174824
-0.001661
-0.548987
0.853425
0.202207
0.427005
-0.336066
0.394347
-0.267040
-0.242913
0.022213
-0.003206
-0.464091
-0.025878
-0.259903
-0.474823
0.578045
-0.222354
-0.411717
0.312304
-0.438790
-0.220638
-0.231989
0.113755
0.513491
-0.363941
-0.084085
-0.084887
0.683384
0.112938
-0.215584
0.156191
-0.014946
0.095359
-1.027342
-0.348713
0.130223
-0.429716
-0.931575
-0.162693
-0.076601
0.266102
0.526093
-0.036695
-0.040136
-0.180568
0.147059
-0.047215
-0.280863
0.141749
-0.141784
-0.268886
0.554884
0.481146
-0.269048
-0.242363
-0.389731
-0.175557
0.413556
0.273360
0.080731
-0.345914
-0.110496
-0.161820
0.348517
0.058152
-0.029597
-0.359262
-0.140675
-0.317707
-0.016360
0.107834
0.763199
-1.159747
-0.385584
0.214658
0.724665
0.108791
-0.910113
0.077247
-0.247925
-0.204238
-0.223222
-0.071140
-0.799295
-0.916339
-0.030478
-0.251854
-0.184171
-0.525831
0.093770
-0.322192
0.471394
-0.108374
0.396248
-0.191931
-0.477692
-0.431638
-0.420792
-0.740561
-0.114959
0.068321
-0.156481
-0.323671
-0.225581
0.370502
0.043173
0.225541
-0.322442
0.051382
-0.256518
0.013466
-0.351422
-0.024900
-0.558325
-0.380494
-0.467684
0.231365
-0.619232
-0.430281
0.183779
0.202969
-0.000881
-0.627590
-0.785240
-0.295824
-0.573219
-0.529551
-0.764480
0.552350
-0.502967
-0.169944
0.381820
0.676491
-0.010564
-0.842331
-0.032946
-0.227544
-0.065110
0.052421
-0.066979
0.192162
0.460976
-0.286690
-0.097167
0.017363
-0.838473
-0.277567
-0.528341
-0.308102
-0.141051
-0.045619
0.628224
-0.473024
-0.155360
0.225742
-0.408354
-0.312479
0.268961
0.109223
-0.988224
-0.626505
-0.309444
0.321832
0.327961
-0.167742
0.783540
-0.518761
0.298206
-0.127285
-0.254853
0.255800
-0.129891
0.074744
0.209971
-0.263497
-0.136987
0.268221
0.403930
-0.164020
0.388132
0.006295
-0.253814
0.353800
-0.128517
0.707574
-0.421379
0.167885
0.107818
0.618464
-0.513215
0.181668
-0.646248
0.138216
0.695324
0.321340
-0.697191
0.315977
-0.550436
0.351541
-0.626899
0.484726
-0.097527
-0.008255
-0.252662
-0.341909
0.176417
-0.590528
-0.254248
0.376302
-0.541671
-0.264501
-0.044622
-0.092346
0.475820
0.357628
-0.246685
0.720324
-0.581743
0.196854
-0.013357
-0.506110
0.310294
0.468192
0.244814
0.459305
0.440385
-0.020662
-0.626869
0.025276
-0.329616
-0.323382
-0.798253
-0.186717
0.260318
-0.433769
0.011567
-0.200968
-0.419371
-0.289963
0.308092
0.597716
-0.298896
0.170722
-0.006827
-0.433368
0.155843
0.155207
-0.242596
0.491704
0.034753
-1.016492
0.090609
0.133013
-0.167738
-0.538780
0.111459
0.447190
-0.302939
0.361114
0.460863
-0.576926
-0.072651
0.612894
0.269738
0.259490
0.006622
0.176100
-0.278480
0.337859
-0.134635
0.010172
-0.031514
0.085970
-0.304238
-0.462640
-0.389212
-0.255125
-0.066353
0.432360
-0.398629
0.204020
-0.154276
-0.139424
-0.950611
0.370638
0.531942
-0.039306
0.490292
-0.163848
0.546132
0.627634
0.463850
-0.089026
-0.178932
0.207124
-0.174896
-0.675378
-0.431749
-0.339476
-0.694343
0.584298
0.484775
-0.445338
-0.002462
0.509417
-0.085887
-0.244653
-0.346051
0.317486
-0.299402
0.052371
-0.370469
-0.107413
0.789836
0.300341
-0.424649
-0.140568
0.213900
-0.040679
-0.098951
-0.037815
0.037436
-0.854134
0.369297
-0.056874
1.066896
-0.430883
-0.218568
-0.431683
0.361251
0.434199
-0.441140
-0.699246
-0.246648
0.094664
0.431263
0.542288
-0.280231
-0.178153
0.293328
0.181662
-0.400456
0.130026
0.109350
-0.425651
-1.319047
-0.045548
-0.217595
0.189134
0.402975
0.102625
0.508608
-0.054870
0.235213
0.005444
-0.163011
-0.313275
-0.074268
-0.556036
0.520198
-0.495530
0.463118
-0.243088
-0.101408
0.154638
0.553958
0.140796
0.141287
-0.263968
-0.335429
-0.109748
0.222278
-0.689296
0.277331
0.564004
0.370216
0.480715
-0.154685
-0.293871
0.257981
-0.236458
0.190354
-0.851434
0.096413
0.113227
-0.038392
0.395116
0.323136
-0.731942
-0.265300
-0.337745
-0.232257
0.199212
0.648990
-0.651819
0.533911
-0.353997
0.019614
0.129037
-0.090171
0.098983
-0.727993
0.648573
0.183043
-0.099939
-0.113774
0.358432
-0.790622
-0.944079
-0.150084
0.124116
0.796342
-0.439749
-0.197138
0.488350
-0.052061
-0.009521
0.034869
-0.364385
0.403320
0.079375
0.379047
0.091193
-0.638445
-0.630895
-0.077615
0.246416
0.127992
0.511401
-0.343971
-0.162235
0.357393
0.138299
-0.032724
-0.268418
0.582266
-0.084648
-0.210197
-0.489410
-0.169803
-0.436976
-0.144949
-0.570826
-0.044247
-0.254335
0.319805
-0.569605
0.704299
0.172231
0.094160
-0.649233
0.498863
0.099422
-0.038050
-0.269209
-0.134144
0.305655
0.659243
-0.051351
0.472552
-0.524187
-0.696947
-0.252528
-0.325140
0.244957
-0.205281
0.493149
-0.394545
0.492950
0.655043
-0.186161
-0.397333
0.543733
0.391203
0.076544
-0.968981
0.557992
-0.340075
-0.776904
0.533055
0.575239
-0.224276
0.192015
-0.754076
0.409871
0.161613
-1.027576
0.281340
0.176273
0.341718
0.018357
0.101139
-0.280063
0.143459
-0.286486
-0.604023
0.105175
0.240231
0.255302
-0.297030
-0.371546
-0.180670
-0.135624
0.308461
-0.448711
0.476557
0.208469
-0.375958
-0.270211
-0.374072
-0.504461
-0.011905
0.261386
-0.053723
0.193468
-0.916316
0.201489
0.179886
-0.089427
-0.518941
-0.905442
0.436582
-0.047823
-0.053804
0.372613
-0.310159
0.127091
0.518672
-0.549650
0.245675
0.169489
-0.533627
0.730447
-0.095385
-0.555942
-0.043149
-0.237423
-0.156617
0.198158
0.041919
0.671858
-0.392735
-0.713120
0.081754
-0.289942
-0.007868
-0.724996
-0.096950
-0.047412
0.217245
-0.021573
0.476916
0.073359
0.246779
0.289205
0.265415
0.267509
0.654785
-0.157341
0.726047
-0.146929
0.832647
-0.080823
-0.084739
-0.058861
0.373340
-0.177729
0.063275
-0.079822
-0.017049
0.007980
-0.968348
0.074314
-0.106609
-0.192005
0.281744
0.810734
0.383686
-0.479631
0.059661
-0.169157
-0.203289
0.458844
-0.397337
-0.784980
0.135523
0.764263
-0.214017
0.525098
-0.429714
-0.815489
-0.484536
-0.559492
-0.142381
0.162446
0.226594
0.212286
-0.070650
-0.186743
-0.373582
-0.407145
0.069586
0.413817
-0.141520
0.298177
-0.098614
0.516253
-0.581144
0.314434
0.981094
-0.205530
-0.232307
-0.899559
-0.457799
-0.568798
0.134426
-0.258385
0.219831
0.063164
-0.103549
-0.682042
-0.021262
-0.279444
-0.032967
0.458826
-0.655356
0.041641
-0.109186
-0.201137
-0.186762
-0.693692
0.785133
-0.123462
-0.207053
-0.897997
-0.330010
0.198848
0.761856
1.215748
-0.365455
0.513988
0.042953
0.228899
0.153992
0.184299
-0.432403
-0.292736
0.102597
-0.406913
0.367251
0.445812
-0.191723
0.046146
-0.839817
-0.461086
0.335518
0.130334
0.405771
-0.457818
0.049676
0.339821
0.325986
0.484973
-0.287432
0.008678
0.450507
0.663527
0.105670
-0.038296
0.431060
-0.220632
0.870407
0.755517
0.269655
0.432994
-0.336440
-0.260640
-0.060104
0.647226
-0.083224
-0.069926
0.199418
0.307041
-0.487042
0.076474
0.497097
-0.225481
-0.257966
-0.190304
-0.164968
0.219601
-0.588971
-0.327884
0.056238
-0.027564
0.095062
0.294103
0.182283
-0.103317
0.305422
0.570891
-0.041809
-0.270114
0.274449
0.378205
-0.159864
0.097702
0.248818
0.423953
-0.401206
0.562150
0.176706
-0.632345
-0.536896
0.352926
-0.335984
0.555196
-0.073601
0.606262
0.008969
-0.404241
-0.255044
0.354420
-0.773212
-0.580729
0.758153
0.238557
-0.462073
0.602758
0.045471
0.221239
-0.027879
0.064514
0.352178
0.083434
0.383273
-0.418745
0.399995
-0.279788
0.296982
0.135268
-0.501073
0.306216
0.062908
-0.507208
0.248570
-0.185888
0.338832
0.144181
0.407740
0.440713
0.033077
0.052685
-0.490517
-0.077339
-0.351209
-0.216870
-0.168789
-0.199728
0.179047
0.111060
-0.584118
0.193597
0.378014
0.196753
0.061544
0.989306
-0.458340
0.713821
0.582371
0.239865
0.245587
-0.183980
-0.239655
-0.502387
-0.174285
-0.415659
-0.029932
-0.062114
-0.212069
0.048062
-0.232049
-0.166280
-0.128857
-0.359216
0.168833
-0.235892
-0.578151
-0.341258
-0.155577
-0.524216
-0.602056
-0.163574
-0.498771
0.680094
-0.416733
0.591149
-0.203749
-0.130284
0.297133
-0.551274
-0.532961
-0.435668
0.290507
-0.605458
-0.418874
0.620283
0.194200
-0.185206
0.046803
0.775431
-0.085917
-0.286580
-0.724969
-0.224584
0.332187
0.155855
0.181455
0.224548
-0.642885
-0.190096
0.307411
-0.181294
0.321540
-0.467053
0.467708
-0.353676
-0.425301
-0.127422
0.451369
-0.308955
-0.170485
-0.360957
0.204891
0.052078
-0.690993
-0.266243
-0.909887
0.568145
-0.060331
0.425742
-0.145247
-0.706778
0.352529
0.229099
-0.689989
-0.014704
-1.018673
-0.756487
0.724873
-0.579531
0.362573
0.443111
0.002617
-0.656299
-0.514795
0.236265
-0.594136
-0.101871
-0.603860
0.101203
-0.023214
0.327051
-0.313032
-0.591776
-0.671511
0.031944
0.473625
-0.575774
-0.205184
0.358447
0.239302
-0.356682
-0.122371
-0.013000
-0.449324
0.086864
0.099962
0.549708
0.090603
0.548000
0.444471
-0.303793
-0.266392
0.625381
0.283978
-0.857344
0.351156
0.187972
0.514975
-0.220545
0.406696
0.605315
-0.485512
-0.177716
0.238672
0.150848
-0.091161
0.400546
-0.639424
0.048125
0.354124
0.627869
0.666700
-0.874033
-0.746854
-0.604772
-0.073276
0.069840
0.664619
0.212615
-0.537738
-0.340210
-0.290212
0.282060
-0.034065
-0.058441
-0.338467
0.022602
0.360858
-0.448797
-0.530177
-0.343061
-0.163803
-0.229987
0.585742
0.464004
0.171413
0.479827
0.435775
-0.250966
0.537527
-0.406515
-0.331825
0.484826
0.067826
-0.019774
-0.106090
-0.328557
0.145999
0.782809
0.323479
-0.340017
0.057699
-0.233352
0.229137
-0.153581
-0.400846
-0.307979
-0.013496
-0.587579
-0.056846
-0.005108
-0.303682
0.456158
0.385263
-0.355587
-0.087076
0.116688
-0.387399
-0.081976
0.195512
-0.069487
0.439703
-0.203510
-0.341325
-0.363329
0.096758
-0.793002
0.752510
-0.256816
0.062124
0.210145
0.027578
-0.063297
-0.156561
0.213996
-0.506623
0.304621
0.151146
-0.411384
0.047728
0.234207
0.180645
0.120928
-0.430925
0.363399
0.478394
0.819168
0.363460
0.346301
0.177044
-0.473686
-0.384482
0.280817
-0.305818
-0.352278
-0.517176
0.198704
0.669723
0.741656
-0.124585
0.425396
0.232459
0.055609
0.699125
0.133326
-0.227888
-0.488915
0.541689
0.266741
0.557453
0.093234
0.070393
0.375089
1.063623
0.553346
-0.005578
0.258750
-0.250340
0.114633
-0.047352
-0.481537
0.183453
0.256679
0.359309
-0.225709
-0.194553
0.019302
-0.300048
0.000494
-0.239714
0.510409
-0.380900
0.402330
0.180257
0.441409
-0.257847
0.086332
-0.769166
0.459230
-0.598561
-0.721403
-0.088486
0.385196
-0.011921
-0.251032
-0.434226
-0.191595
-0.247807
0.343406
0.159379
-0.370117
-0.380187
0.304821
0.687400
-0.077168
0.852316
-0.152072
0.029507
0.332992
0.507590
-0.169587
0.123440
-1.025598
0.012619
-0.691404
0.607690
0.659020
0.419522
-0.050618
0.264180
-0.347104
0.786780
0.670180
0.742400
0.129938
0.555616
0.074123
0.022041
1.100914
-0.705108
-0.247732
-0.040979
0.341476
0.094645
0.564610
0.676666
0.003817
-0.235790
-0.457490
0.310054
0.360384
-0.015352
-0.060671
-0.237648
-0.542293
-0.013257
0.676898
-0.398572
0.198204
0.845985
0.196760
-0.490039
0.060425
-0.379959
-0.010392
-0.003318
-0.078381
0.119902
0.183623
0.400390
0.166398
-0.541457
-0.288910
-0.291615
-0.178442
-0.399391
-0.426420
0.005026
0.467395
-0.302664
-0.757528
0.258806
0.076315
-0.004015
0.184585
-0.091712
0.492809
-0.390764
-0.515522
0.004161
0.086598
0.112923
0.281929
-0.883482
-0.247460
0.414696
-0.242831
0.529966
-0.032514
0.421533
-0.359551
0.864848
-0.233387
0.243694
0.385339
0.042754
-0.160216
0.165043
-0.220087
-0.321377
-0.011656
0.108582
0.028424
0.307489
-0.192434
-0.850239
0.354178
-0.153284
0.204181
0.572644
-0.685482
0.196400
-0.371208
-0.125303
0.677526
0.162777
-0.114628
0.802453
-0.045892
0.136235
0.190800
-0.294699
-0.168190
0.345360
0.123725
0.122070
0.123450
0.277354
-0.209223
-0.085864
-0.083367
-0.093683
-0.644843
0.516441
0.202823
-0.605616
-0.233802
-0.410316
0.865055
0.346142
0.552220
-0.220482
-0.353913
-0.580377
-0.426666
0.222942
-0.522677
0.071960
0.275737
-0.597831
-0.020093
0.387889
0.729280
0.030566
-0.198875
0.910662
-0.417134
0.042549
-0.524946
0.237430
0.554763
-0.058578
-0.015005
-0.226303
0.347365
-0.228902
0.651324
-0.508488
-0.239624
-0.202661
0.380892
-0.148997
0.104742
-0.243051
-0.974367
-0.157981
0.301292
-0.126784
-0.112041
0.068395
0.134092
0.048867
0.227127
0.563687
0.683041
0.281180
-0.602195
-0.118525
0.244645
-0.669444
0.065772
-0.301808
-0.112862
0.075368
0.346285
-0.529464
-0.083655
-0.318333
-0.871814
1.117302
0.092364
-0.343772
0.597479
0.248971
-0.061092
-0.223719
-0.731125
-0.383265
-0.483826
0.151738
-0.355389
-0.376561
0.679690
0.299533
-0.009028
0.157694
-0.053240
-0.059334
-0.253977
-0.557999
-0.428697
0.197038
0.549486
-0.007330
0.378339
0.161112
-0.364208
0.389032
-0.439322
-0.566116
-0.132638
0.240695
-0.234538
-0.455567
0.415862
-0.206136
0.082357
0.059395
-0.239113
-0.676305
0.557027
0.330905
-0.247799
0.258157
-0.221956
-0.250741
-0.633849
-0.342245
-0.016918
-0.514249
0.390557
0.280808
0.379477
-0.078869
0.907584
0.006209
0.229295
-0.554847
-0.562811
-0.155661
0.938305
0.355332
-0.248778
-0.421829
-0.646274
0.148153
0.221685
-0.793324
0.201028
-0.463916
-0.434101
-0.609492
-0.145496
0.451531
-0.254003
-0.291540
0.237605
-0.355652
0.803351
-0.079415
0.342631
0.117262
-0.212315
0.191474
-0.093457
0.148621
-0.254376
-0.429014
-0.046470
-0.458576
0.008575
-0.364340
0.494684
0.070539
-0.145103
-0.004993
0.387440
0.384520
-0.071958
-0.253157
-0.258131
-0.366597
0.354177
-0.136903
-0.160811
0.131686
0.543846
-0.483752
0.739477
0.287079
-0.454126
0.477025
0.252018
0.122812
-0.141573
0.744904
0.314141
-0.701111
-0.321331
-0.390298
0.565425
-0.656254
-0.693693
0.122622
0.061006
-0.721000
0.190742
-0.436431
0.395758
0.566037
0.169622
0.088637
-0.689005
0.369953
0.133758
-0.975735
-0.038340
-0.213497
0.261744
-0.102187
0.335615
-0.553714
0.023600
-1.184683
-0.061552
0.093358
-0.442596
0.545321
-0.517158
-0.376626
0.676287
0.574396
-0.403059
-0.218003
-0.070316
0.447130
-0.080979
0.112727
0.405666
-0.064420
0.350360
0.142967
0.003094
0.338779
-0.680485
-0.272215
-0.245480
-0.262653
-0.015933
0.668652
0.161972
0.302833
0.384491
-0.677906
0.416806
1.122515
-0.130050
-0.098297
0.280684
0.956897
-0.273040
-0.221845
-0.489207
0.371749
0.236272
-0.411516
0.125421
1.530909
-0.446002
0.364626
-0.839034
0.616706
0.329559
0.191222
-0.401119
0.038160
-0.034080
-0.440344
0.377923
0.209572
-0.010475
-0.135155
0.458995
-0.005926
0.323164
0.488861
0.247285
-0.250151
0.165925
0.856885
-0.311660
-0.723494
-0.638637
-0.793958
0.069034
0.487188
0.107820
0.444095
-0.059053
-0.274226
0.324107
0.187373
-0.559504
-0.389785
-0.287116
-0.294283
-0.023901
-0.582326
-0.235858
-0.107498
-0.003765
-0.678901
0.439302
-0.451906
-0.913322
0.560705
-0.346120
0.212803
0.052304
0.652155
0.372972
-0.398328
-0.463667
0.063138
0.992817
-0.515646
0.088862
-0.005170
0.658977
0.373691
0.023991
0.001284
0.002962
0.215647
0.179501
-0.959995
-0.409113
0.399867
0.360740
-0.612248
-0.229797
-0.060903
-0.905328
-0.007878
-0.200431
-0.028916
-0.287770
-0.159827
-0.060451
-0.190033
-0.165142
-0.295391
0.731206
-0.089181
0.446183
-0.112667
-0.814215
-0.767330
0.270939
-0.138820
-0.384549
0.698849
-0.390812
-0.080801
0.628409
-0.102322
-0.043608
-0.313023
-0.044580
0.002604
0.204091
-0.204516
-0.015893
-0.289867
0.573994
-0.112002
0.085952
0.075803
-0.306691
0.304852
-0.154419
0.217227
-0.384471
-0.263452
0.539662
-0.414278
-0.603606
0.119360
0.002063
-0.164171
0.158716
0.509138
0.290221
0.102435
0.207598
-0.297455
-0.130873
0.501033
-0.129697
0.283271
0.212114
0.529985
-0.084861
-0.431549
0.091610
-0.374196
0.811771
-0.194915
0.576358
0.195263
0.140605
0.099675
0.153930
0.197803
-0.727943
0.118950
-0.681509
0.042816
0.173190
0.626419
-0.325770
-0.227332
-0.195530
0.111182
-0.073532
-0.593257
-0.662984
0.080343
0.131143
-0.284989
-0.095510
-0.107385
-0.306262
0.350520
-0.035771
0.532432
-0.433151
0.350784
-0.060181
0.667127
0.310514
0.702056
-0.447367
-0.563923
0.371120
-0.573972
0.648648
0.380785
0.282076
0.219931
-0.135361
0.183500
0.119580
-0.421891
0.509675
0.078773
-0.329581
-0.126488
0.097789
-0.249202
0.320588
0.109576
0.287216
0.027486
-0.154318
-0.080204
0.118181
-0.892789
0.038847
0.133490
-0.194852
-0.044775
-0.458216
-0.127511
-0.263706
0.098802
0.144585
0.470313
0.212910
-0.343956
0.353698
-0.092578
-0.029302
-0.024386
-0.355000
-0.031432
0.053124
0.372061
-0.103439
-0.007377
0.336289
-0.198985
-0.340186
-0.424277
0.639585
-0.161876
0.115201
-0.052030
-0.267158
0.455660
-0.043376
-0.081953
-0.229171
0.038810
-0.580041
-0.218002
0.461576
0.212387
-0.280945
-0.312190
0.540619
-0.550858
-0.345433
0.006579
0.418416
0.188370
-0.628291
0.119002
0.057649
0.439319
-0.321358
0.399177
0.240913
0.229180
0.127083
0.176722
0.217769
-0.573634
-0.392809
0.509386
-0.182082
0.018490
0.388626
-0.005704
-0.326025
-0.242830
0.063113
0.230693
0.143617
-0.068160
-0.439082
-0.075129
-0.525670
0.534378
0.041379
0.678178
0.354306
-0.246193
-0.317954
-0.034570
0.110055
0.260214
-0.219652
0.517433
0.348467
0.304542
0.367708
-0.299439
-0.197978
0.675691
-0.110340
-0.242314
-0.122517
-0.622357
0.036814
-0.047465
-0.759305
0.323026
-0.345517
0.197991
-0.170122
-0.132697
0.405256
-0.213575
-0.165563
-0.517708
0.230765
-0.079856
-0.114892
0.426275
-0.089741
-0.227632
0.442095
-0.232696
0.454553
0.236212
0.296424
0.392474
-0.126545
-0.332611
-0.046316
0.628566
-0.225599
-0.068877
-0.484675
0.317892
0.078244
-0.014554
0.432768
-0.022046
-0.212885
-0.188249
-0.511203
-0.225214
-0.328759
0.331502
-0.089271
0.434661
-0.283459
-0.277069
-0.408785
-0.388749
-0.479784
-0.330522
-0.388668
0.320616
0.704852
0.053635
0.182242
-0.350116
-0.369434
-0.253430
0.640204
0.380399
0.070143
0.710146
0.613262
0.620404
0.158166
0.400737
-0.530016
-0.169660
-0.057685
-0.831934
-0.479540
0.157512
-0.353387
-0.098466
0.071582
0.604147
-0.423737
0.307686
0.102124
-0.154216
0.021388
-0.435782
-0.170371
-0.376144
-0.309055
0.262485
-0.139056
-0.295648
0.012655
-0.164264
0.132835
0.176417
-0.581481
-0.354730
0.346360
0.062381
-0.557645
-0.683970
0.073655
-0.196495
0.290397
0.200663
-0.175697
0.471378
-0.432430
1.041738
0.140933
0.148682
0.153926
0.032955
0.638130
0.167535
-0.591409
-0.940616
-0.195826
-0.568148
-0.139432
-0.230423
-0.612452
-0.010788
0.691369
0.382142
-0.456241
-0.807177
-0.137889
0.444147
-0.038920
-0.829710
0.384859
0.212387
0.037403
-0.302202
0.460580
-0.293308
-0.383742
-0.131332
-0.564363
0.346024
0.325960
0.104712
0.147949
-0.481509
-0.078863
-0.314526
-0.677594
0.145560
0.522890
0.539471
-0.010245
-0.094908
0.504653
0.364185
-0.274703
-0.505594
-0.145268
-0.046929
-0.077082
-0.198444
-0.105883
0.902759
-0.117913
0.341285
-0.083255
-0.250713
0.386683
0.589293
-0.085190
0.313531
0.552470
0.569225
-0.221422
-0.193072
-0.286376
-0.033726
0.123726
0.597080
-0.498326
-0.236531
1.029548
-0.223569
-0.003088
0.275734
-0.002550
0.550317
0.092051
0.017480
0.431118
-0.043635
-0.476181
-0.812149
-0.636067
0.255856
0.210347
0.222636
0.346447
-0.062368
-0.500096
-0.175125
0.279429
-0.181246
0.737015
0.381332
0.103928
0.994229
-0.119438
-0.213285
0.470952
-0.183522
-0.083159
0.225619
-0.230516
-0.460819
0.470717
-0.668448
0.020500
0.869722
0.803295
-0.356820
-0.065868
-0.222185
-0.265063
-0.122218
0.280258
-0.079180
-0.096974
-0.369704
-0.135006
0.151139
-0.696602
0.212235
0.141119
0.130684
-0.223405
-0.233166
0.067396
-0.216175
-0.226842
-0.757805
0.087841
-0.095943
-0.484052
0.035574
0.028978
0.253302
-0.005827
-0.038746
0.901180
0.369221
-0.366024
0.059788
0.341693
-0.847102
0.277356
-0.322191
-0.656695
-0.731176
-1.244114
-0.277404
-0.940789
0.627444
-0.614681
0.298853
-0.433258
0.354943
-0.676670
0.392920
-0.758923
0.246036
-0.019002
-0.046328
0.146293
0.098847
0.207937
-0.183241
0.294428
0.199545
0.078265
-1.098721
-0.175482
0.175309
0.573321
0.033980
-0.065291
-0.168921
-0.421721
0.328139
-0.574716
0.154715
0.509230
-0.233766
-0.356149
0.026026
-0.466698
0.243469
0.583956
0.554598
-0.257383
-0.437987
-0.148838
-0.536586
-0.171338
0.201454
0.079913
-0.378283
-0.155907
0.355732
0.613750
0.230130
-0.169535
-0.620743
-0.160410
-0.163202
0.864257
0.111901
-0.094423
-0.051352
0.083867
0.336052
-0.043253
0.012537
0.001702
0.652385
0.642079
0.208219
-0.653221
0.296074
-0.073698
0.401304
0.423866
-0.256485
-0.716052
0.364702
-0.473403
0.459032
0.129793
-0.291877
0.312471
0.022030
0.610333
0.557251
-0.454078
-0.907569
-0.177632
0.790810
0.068786
-0.111436
0.203624
-0.450175
-0.157274
0.313403
-0.323638
-0.233398
0.430704
-0.412904
-0.718171
0.336973
1.120166
0.525076
0.353573
-0.111248
0.598553
0.197857
-0.317918
0.205349
0.541223
0.701042
0.050409
0.152431
-0.036864
0.274673
-0.001592
-0.341999
-0.159722
0.568703
-0.144057
-0.632262
-0.135326
0.618892
-0.876781
-0.005800
0.461393
-0.369502
0.566531
-0.118522
-0.656426
-0.489930
-0.237674
-0.049968
-0.629763
0.215786
-0.084527
-0.502728
0.462850
0.607187
-0.605620
0.166247
-0.122047
-0.104687
-0.128662
0.713570
-0.224705
-0.713817
0.298785
0.115088
-0.506914
-0.343803
0.052995
-0.121170
-0.012543
-0.221594
0.117506
-0.850253
-0.548480
0.115352
-0.262513
-0.012144
-0.328094
0.112093
-0.569049
0.262150
0.205160
-0.512970
-0.269517
-0.534871
-0.110128
-0.183400
-0.388339
-0.175104
0.313336
-0.615937
-0.063809
-0.485209
0.146476
0.760235
-0.364638
-0.250333
-0.354349
0.127938
-0.435581
0.252765
-0.194346
0.160887
0.419589
-0.147183
0.165288
0.477785
0.244147
-0.374449
0.412587
0.226756
-0.170705
0.406333
0.745387
0.081867
-0.068610
0.010505
0.180562
-0.200021
-0.178931
-0.514951
0.057151
0.345094
0.399684
0.317191
0.096067
0.379058
-0.199167
-0.596624
-0.035124
0.395417
0.451928
0.401053
-0.144179
-0.695561
0.274978
1.151166
-0.255678
0.217523
-0.803561
0.556503
0.017958
-0.129748
-0.231311
0.300093
0.061299
-0.664966
-0.771138
0.273248
-0.096688
0.467249
-0.002324
0.615655
0.519417
0.276235
-0.059684
0.126039
-0.237980
0.084237
-0.118840
-0.932825
-0.550533
-0.410378
-0.269869
-0.054238
0.334898
-0.272756
-0.326480
0.224691
0.336999
-0.007633
-0.763183
-0.299816
0.563602
0.206776
0.039830
-0.008386
-0.563829
-0.112952
-0.319038
-0.638982
-0.808194
-0.226308
0.152015
1.164125
0.042010
-0.262697
0.670475
0.249533
-0.704130
-0.579196
0.183402
0.067257
-0.072613
0.626015
0.341573
0.673021
0.236964
-0.049971
-0.062051
-0.128605
0.126932
0.462180
-0.253766
-0.450562
0.185550
-0.450700
0.241312
0.596474
-0.439302
-0.294292
1.040294
0.875465
0.776264
0.130870
-0.674943
-0.063652
-0.012090
-0.042529
-0.250548
-0.011843
0.190876
-0.433851
-0.738547
-0.280800
-0.233377
0.670214
-0.396218
0.401039
-0.230583
0.031383
-0.520182
0.254585
-0.303719
0.474632
0.004198
0.336901
-0.340105
0.260384
0.343857
0.107382
0.576652
0.144782
0.301646
-0.257955
0.629111
-0.524082
0.587013
0.259592
0.384041
-0.280148
-0.718863
0.538979
-0.160831
-0.152350
0.616025
-0.610492
0.010366
-0.330420
0.186625
0.018409
-0.461544
-0.403704
0.439969
0.058644
0.257129
-0.086731
0.001409
-0.078461
-0.098635
-0.254919
-0.949331
0.163733
0.040951
-0.154275
-0.029287
-0.274068
0.061311
0.559731
-0.254992
-0.142411
-0.644211
-0.327230
0.467931
0.431787
-0.294792
0.381287
0.183949
-1.177645
-0.007508
-0.001439
0.029877
0.096039
-0.333308
0.180601
-0.242163
-0.447785
-0.490109
-0.759879
0.395372
-0.011464
-0.014937
0.713841
-0.280979
-0.193881
-0.728625
0.848522
-0.097222
0.046168
0.104170
0.233619
-0.099737
0.410599
-0.511138
-0.440018
0.265539
-0.303995
-0.025606
0.603973
0.015389
-0.301783
0.069327
0.758578
-0.126274
-0.176346
0.149106
-0.121669
-0.090277
-0.684781
-0.747689
0.046150
0.408573
-0.029238
0.113964
-0.930063
-0.528730
0.094674
-0.333939
0.350521
1.085976
-0.326713
0.155781
0.733236
0.676756
0.238629
-0.522600
0.512791
0.126595
0.147441
-0.537066
1.295564
0.035195
-0.087154
-0.249225
0.395203
0.181776
0.116329
0.179118
-0.286542
0.417788
-0.306742
-0.275214
-0.068771
-0.128950
0.321728
0.657012
0.134660
0.972379
-0.187655
0.458876
-0.166886
-0.709944
-0.044949
-0.319854
0.081048
-0.087932
0.082992
0.541636
0.278242
-0.022665
0.202323
0.555875
0.384392
-0.240971
-0.167671
-0.197722
-0.544814
0.613949
-0.487638
0.382901
-0.890524
0.705569
0.201813
-0.187060
-0.200413
-0.388379
-0.052557
-0.520515
0.058282
0.157494
-0.549701
0.101290
0.087157
-0.141704
-0.053857
0.580588
-0.492499
-0.894979
-0.350257
0.003353
-0.374708
-0.088162
-0.464446
-0.358624
0.524833
-0.991820
-0.042235
0.037491
-0.271301
0.500240
0.592668
0.434289
0.469190
-0.209069
0.177676
-0.306867
0.535473
0.077177
-0.490841
-0.221509
0.087842
0.413811
0.168527
0.077915
-0.279199
0.305470
-0.115610
-0.809759
-0.088267
-0.287443
-0.602583
-0.194782
0.618966
0.084920
0.182741
-0.593218
-0.006282
0.065674
0.012254
-0.445852
0.636893
0.023430
-0.009874
-0.281910
0.026907
0.339916
0.232350
0.385100
0.611637
-0.211612
-0.126892
0.870218
-0.011264
0.313235
-0.281282
-0.065902
-0.217857
0.605767
-0.069804
0.244550
-0.059293
0.165565
0.157687
0.470053
-0.027777
0.632325
-0.283601
0.319037
0.100468
0.082328
-0.322216
0.390218
-0.383982
-0.445291
-0.188127
0.353786
-0.292872
0.130848
-0.121224
-0.339967
0.104223
-0.141155
-0.404791
-0.437291
-0.137016
0.114393
0.459592
-0.200810
0.315903
0.220189
0.242970
0.379213
-0.633883
-0.210304
-0.122540
0.070335
0.978300
-0.077226
-0.650009
0.135459
0.704698
0.423756
0.473110
0.628108
-0.125982
-0.722480
0.098065
-0.759452
0.507012
1.022617
0.782101
0.052625
0.447386
0.394508
0.471682
-0.381958
0.375376
0.080963
-0.294949
-0.101375
0.223986
0.315240
-0.337281
-0.274719
0.339923
-0.094408
-0.056536
0.498849
-0.434095
-0.228678
-0.014959
0.708539
-0.413695
0.218684
-0.045400
0.013547
0.533813
-0.300953
-0.096133
0.224179
0.249756
0.121181
0.073310
0.082838
0.339675
-0.446746
-0.479430
0.495673
-0.765430
0.439946
0.792812
0.415982
0.373637
-0.848163
0.094135
-0.246095
0.850852
-0.222363
-0.319450
-0.805700
0.559568
0.256413
0.355134
0.708978
-0.390165
-0.360199
-1.108302
-0.364652
0.010389
0.144237
-0.216204
0.279458
-0.113146
0.260945
0.567095
-0.329534
-0.102516
-0.045549
-0.383292
-0.255895
-0.355381
0.011233
-0.900321
-0.533884
0.646982
0.080448
-0.085223
-0.207117
0.119529
-0.213726
0.244288
-0.300456
0.556314
-0.138446
-0.110270
0.126412
0.295197
-0.386328
-0.196037
-0.503755
0.292446
-0.122026
0.066900
-0.158214
0.594477
0.040796
0.276032
-0.620038
0.134280
0.982547
0.214766
-0.335705
-0.725956
-0.494398
-0.156711
-0.122928
-0.396085
0.113534
0.250142
-0.315400
0.274957
-0.377869
0.138605
-0.372420
0.894561
-0.365641
0.157225
-0.025808
0.771114
0.071886
-0.056404
-0.615293
-0.350782
-0.381421
-0.299341
-0.058176
0.478900
0.195443
-0.163438
0.290957
0.594826
-0.433754
-0.492613
0.157876
0.076490
-0.233569
0.658060
0.173430
-0.589676
0.647467
-0.043679
0.586990
-0.013223
-0.462292
0.062130
-0.195445
-0.090493
-0.717114
0.572229
0.450128
0.381302
0.717670
1.049562
0.103063
0.761620
0.999446
-0.529343
0.024272
0.150342
0.191962
0.231117
-0.094572
0.396338
0.294623
-0.103211
0.365233
-0.708060
-0.469770
-0.513727
0.825681
0.324052
0.349119
-0.522142
0.037857
-0.219852
-0.054239
0.287226
-0.253602
0.425609
0.280290
-0.151853
-0.144610
0.678369
0.583616
0.042009
0.022396
0.326021
0.504542
0.065109
-0.063483
0.006407
-0.189535
-0.012957
0.174749
0.145748
-0.007319
-0.060047
-0.241873
0.137047
0.020730
1.000876
0.917077
0.534597
-0.302620
-0.297077
-0.313485
0.114062
0.096094
0.834539
0.174490
-0.860376
-0.631176
0.243699
0.061830
-0.758727
-0.682373
-0.162946
0.070910
0.077367
-0.586546
-0.191311
0.061551
-0.227807
-0.023616
-0.252621
-0.132732
0.114543
-0.353625
0.107572
-0.322405
0.572471
0.074032
0.084581
-0.050388
-0.112722
-0.334272
-0.114916
-0.067162
-0.586984
-0.475631
0.370423
0.139438
-0.340899
-0.116468
0.095670
0.155770
-0.527822
0.285505
-0.406763
-0.666627
-0.627233
-0.328951
-0.573998
-0.536142
0.773839
-0.310713
-0.477822
-0.171031
-0.481019
-0.172403
0.158347
0.827181
0.411980
-0.037235
0.413524
-0.174463
-0.252423
0.406561
0.300139
-0.402891
-0.236077
-0.803273
0.186173
-0.051719
-0.392574
-0.405373
0.185342
-0.438459
-0.722327
-0.065163
-0.284159
0.154140
0.296142
0.438245
0.265626
0.195198
-0.609381
0.051869
-0.161629
-0.712539
0.087061
0.522531
-0.241560
0.045840
-0.035782
-0.664435
0.432388
0.422070
-0.251980
-0.076148
-0.041354
0.391380
0.145809
-0.759209
-0.367388
0.071476
-0.897390
0.404241
-0.392767
0.012312
-0.334592
0.682886
0.278232
-0.229997
-0.971021
0.084406
-0.214547
-0.590906
0.747578
-0.146043
-0.070639
-0.376330
0.314636
-0.777251
-0.145652
-0.046332
0.325657
-0.147107
0.031197
0.489488
0.496977
0.009278
0.575073
-0.011229
-0.429277
0.013313
0.363432
-0.925123
-0.403675
-0.087435
0.229759
0.453540
-0.142276
-0.363350
0.380814
-0.133166
-0.614229
0.142101
-0.677711
-0.577961
0.701547
0.469124
0.268825
-0.418254
-0.168944
0.213082
-0.107728
0.406849
0.390022
0.336897
0.729651
0.311606
-0.068168
-0.034704
-0.096295
-0.052869
0.473521
0.065626
0.070185
-0.386133
0.478476
0.283949
-0.367938
-0.398550
-0.428081
0.625725
-0.293712
0.386284
-0.363115
-0.765868
1.200348
-0.163725
-0.037654
0.182106
0.728945
0.523023
-0.540761
0.425157
0.194573
-0.180540
0.420543
-0.808282
-0.439946
0.357063
-0.261217
-0.350543
0.227037
-0.175414
0.292729
0.542039
-0.944973
-0.167656
0.230767
0.508850
-0.587621
-0.242409
-0.277099
0.335267
-0.720347
0.513680
0.031430
-0.200429
-0.271358
-0.687004
0.113752
-0.123011
-0.296733
-0.734069
-0.733061
-0.543151
-0.072361
0.206191
-0.208420
-0.249562
-0.310317
0.018309
0.240430
0.061061
-0.424228
-0.655440
-0.441370
-0.512289
-0.551794
-0.070672
0.494414
0.200982
-0.002614
0.253562
0.887133
0.433418
-0.383516
-0.326647
0.385039
-0.004532
-0.491704
-0.556187
0.169009
0.566927
0.015725
0.129330
-0.699255
0.341826
0.723407
-0.782799
0.016512
-0.697694
-0.268424
0.223491
0.146424
-0.338532
-0.314145
-0.121642
-0.355741
0.259147
0.344702
0.342741
-0.291555
0.623796
0.209987
-0.512314
0.522387
-0.284901
-0.099511
0.250842
-0.978502
0.199518
-0.239653
0.427207
-0.044674
0.118081
-0.288388
-0.671144
-0.354919
-0.193488
0.277146
0.415503
0.630625
0.173983
0.284332
-0.530539
-0.241143
0.123500
0.207340
0.113338
0.040906
0.045169
-0.151706
0.201805
-0.345713
0.318160
-0.230253
0.654490
0.074065
-0.609284
0.055113
0.036324
0.161264
-0.588605
-0.295233
0.138912
-0.060558
0.092503
0.281497
-0.308456
-0.289161
0.593945
-0.076531
0.419121
-0.137197
-0.421771
0.307409
0.978302
-0.560543
-0.061501
0.352418
-0.749085
0.841527
-0.094458
0.074609
0.249585
0.810816
-0.562195
0.011186
0.113431
0.011427
0.544234
-0.510795
0.193680
-0.026819
-0.239093
-0.618205
0.187287
0.556749
-0.207398
-0.226436
0.943465
0.278226
0.265896
0.553317
0.622306
0.119135
0.390656
0.626026
-0.454539
-0.450727
0.397233
-0.095719
0.094244
-0.012186
0.185887
0.170982
0.370719
0.237654
0.319341
-0.109346
-0.561506
-0.821837
-0.062623
-0.249332
-0.173155
0.038156
0.530913
-0.782244
-0.674321
0.400807
0.055893
1.100453
-0.228393
-0.137524
-0.136974
0.296982
0.169486
-0.810440
-0.303142
-0.436714
0.549911
0.056682
0.146106
-0.161899
0.008985
-0.293804
1.047930
-0.015747
0.467748
-0.110106
-0.686117
0.240880
0.389826
-0.011732
0.202520
-0.085727
-0.398238
-0.485126
-0.758094
0.377549
0.449875
-0.000880
-0.331130
0.626585
0.265308
0.740092
0.500801
0.518787
-0.179836
0.164857
-0.602292
0.044876
-0.146468
-0.299990
-0.111806
-0.553910
-0.025077
-0.056757
-0.796631
0.135043
-0.461249
-0.294322
-0.587653
0.077171
0.392528
0.605204
-0.257770
0.456926
-0.579526
0.014916
-0.309095
-0.131712
-0.445923
0.589373
0.328578
0.084801
-0.433836
0.271093
-0.527734
-1.136439
0.729816
-0.244338
0.315981
0.675313
-0.564798
0.002732
0.702223
0.014619
0.354584
0.230823
0.221841
-0.435711
0.303095
-0.400718
-0.036166
-0.237100
0.849552
-0.697316
-0.100271
0.092274
0.256455
0.024405
-0.056154
-0.235973
0.451408
0.230609
0.544183
-0.694339
0.026315
-0.393582
-0.139065
-0.189476
0.225279
0.043648
-0.679771
-0.300922
0.243021
0.207301
-0.212797
-0.782407
0.195658
-0.716990
-0.337161
0.303507
-0.408452
-0.150386
0.537790
-0.047573
0.020694
0.023189
-0.529918
-0.474704
1.050319
-0.099402
-0.346187
0.014640
0.658868
0.205517
-0.331186
-0.069191
-0.165985
0.030854
0.643871
0.655271
-0.320091
-0.055509
0.027439
0.233243
0.466627
0.725599
-0.610403
-0.285664
0.096723
-0.275689
0.228975
-0.513230
-0.263624
-0.264783
-0.241155
0.081973
0.304062
0.177948
-0.263816
1.387227
0.101743
-0.029274
-0.576535
-0.094878
0.304699
-0.068782
0.360745
0.169209
0.439383
0.511083
0.194138
-0.618887
-0.010776
-1.150478
-0.182070
0.424128
0.617285
-0.796276
-0.340181
-0.427381
0.881471
-0.601019
-0.537965
-0.180216
0.257944
-0.373740
-0.127349
-0.116599
-0.066596
-0.264690
-0.268587
-0.050007
-0.045084
0.015528
-0.204357
-0.569179
0.286419
0.787738
-0.135333
-0.605792
-0.224812
0.204825
-0.134886
-0.104281
0.022667
-0.137388
-0.103078
1.587946
-0.188509
0.431502
0.275057
0.163900
0.289738
-0.388835
0.317792
-0.080620
0.826847
0.211045
-0.579325
-0.130519
0.584506
-0.346105
-0.003460
-0.806101
-0.152748
-0.392439
0.743402
0.284779
-0.150826
-0.308431
0.321280
0.049208
-0.429216
0.475580
0.395994
-0.682880
-0.304224
-0.051637
-0.080444
-0.220441
-0.306358
-0.261827
0.042463
0.282878
-0.290740
-0.117311
0.306401
0.071768
0.270932
0.217923
0.192531
0.346630
-0.413594
-0.108422
0.196456
-0.511092
-0.938823
0.444447
0.086013
-0.079222
0.274951
0.100061
-0.207397
-0.146045
0.166132
-0.397704
-0.317757
-0.271327
-0.064805
-0.164072
-0.527263
0.069370
0.145684
0.113810
0.650355
0.153394
-0.236267
0.053583
0.415777
0.059781
-0.277326
0.019401
-0.246476
-0.578475
-0.185671
0.385258
0.343940
0.232490
0.003507
-0.173334
-0.334780
-0.437060
0.315912
-0.220309
-0.250157
-0.243893
0.028410
0.194904
0.431093
-0.012618
0.975060
0.388060
-0.481066
-0.542865
-0.400276
-0.268226
0.166873
-0.512525
0.224164
-0.040098
-0.369314
-0.373699
0.867431
0.655475
-0.427269
0.605171
-0.354434
0.031625
0.255907
0.039858
-0.125585
-0.855165
0.005470
0.065108
0.468918
1.018009
0.385913
0.774115
-0.816733
0.067161
0.275732
-0.433498
-0.522513
0.122289
0.013001
0.151400
-0.416142
0.097824
0.601443
-0.465274
0.585703
-0.031996
-0.390379
-0.459024
-1.018538
-0.165049
-0.501073
0.771576
-0.022072
-0.322664
0.133731
0.304736
0.098420
0.108534
-0.198268
-0.031427
-0.079385
-0.949847
-0.637918
0.889814
0.069677
-0.013591
0.385864
-0.422948
-0.051231
-0.490608
0.263271
-0.449919
0.545349
0.172435
-0.235817
-0.084637
0.708309
0.234147
0.014236
0.793126
0.614946
-0.395582
-0.324569
0.294748
-0.245455
0.038232
-0.869338
0.185742
1.289026
0.323961
-0.195692
0.090945
-0.021975
0.111876
-0.213480
0.571559
-0.596325
0.090299
0.201436
-0.460886
-0.095965
-0.291097
-0.384372
-0.145302
0.064655
0.360409
0.922401
0.620779
0.222029
-0.222064
0.013726
-0.143249
0.114623
-0.459928
0.200548
0.710126
0.285406
-0.128180
0.203154
-0.124737
0.477884
0.496759
-0.027326
-0.103653
0.193086
0.137529
0.043240
0.092325
-0.220993
0.101717
0.353071
-0.182149
0.687265
-0.149145
0.191048
-0.187375
-0.574141
0.477185
0.913361
0.877515
-0.731636
-0.380649
-0.309565
-0.049248
0.342192
0.247953
-0.268313
-0.108419
0.204578
0.181832
0.376420
-0.005164
-0.138380
0.643530
-0.596278
-0.112647
0.594745
-0.201519
0.060880
-0.281349
0.277485
-0.471459
-0.110429
-1.668598
-0.042514
0.321889
-0.170660
-0.021649
-0.432646
0.474721
0.001649
0.066883
-0.232718
-0.670334
0.144985
0.012688
-0.079436
1.181064
0.018457
-0.694497
-0.193342
0.325180
-0.051435
-0.409600
0.252223
-0.135772
0.063753
-0.562413
0.371087
0.170511
1.075812
-0.581673
0.536573
0.909277
-0.964213
-0.637295
0.098735
0.037698
-0.201837
0.444043
0.420891
-0.468740
0.882203
1.396888
-0.655263
-0.253543
1.283409
-0.594686
0.515589
-0.342387
1.424908
-1.151957
-0.951499
-3.059588
1.567742
-0.493712
-0.561166
-0.236120
0.734057
-0.904501
-0.546739
-0.538954
-1.895676
-0.145999
0.767678
0.611864
0.267919
2.382673
-0.663466
-2.385135
-0.326139
-0.285136
-0.126196
0.876415
0.339525
-0.096720
0.585571
0.190654
-0.157759
-0.363420
2.483504
-0.177675
0.341191
2.459119
-0.913440
-1.757090
1.499446
-1.759612
1.000543
-0.585485
0.459941
