0.092099
-0.468422
0.022127
0.015812
1.025298
0.178891
0.250090
0.512671
0.420737
0.441736
0.101485
-0.362642
0.044448
-0.138591
0.591611
-0.381589
-0.063844
0.180696
0.224105
-0.428503
-0.222437
0.756609
0.225419
0.613188
0.158763
0.237741
-0.181520
0.143771
0.050727
-0.060308
-0.781134
-0.636667
-0.732594
0.284844
0.478480
-0.941420
0.173159
-0.304326
-0.209274
-0.169995
-0.768131
-0.322750
-0.342697
-0.128276
-0.109572
-0.235889
-0.252807
-0.081505
0.472381
-0.623979
0.556915
0.385595
0.332275
0.156188
-0.325051
-0.439975
-0.348576
0.407953
0.288718
-0.366638
0.271886
0.646149
-0.325783
-0.502605
0.043072
0.850485
0.275081
0.544024
-0.634851
-0.272287
-0.017863
-0.009194
-0.700559
0.633522
0.097382
-0.377679
0.001946
-0.994384
-0.526090
0.182087
0.497590
0.148810
-0.303693
-0.363724
-0.777043
-0.121045
-0.250312
0.180635
0.254906
-0.356780
-0.164639
-0.012379
0.223502
-0.863363
-0.749380
0.636241
-0.483564
-0.679924
0.639316
0.332672
0.147933
0.039543
-0.483095
0.364677
0.164950
-0.281974
0.713170
0.044290
-0.209201
-0.072778
-0.186817
0.354592
0.051480
0.253676
-0.039466
0.390787
-0.011695
0.118296
-0.143902
-0.085236
0.228637
-0.528345
0.063179
0.244809
0.093044
0.280009
-0.139766
-0.225444
0.787705
-0.622188
-0.146576
-0.052859
-1.003589
0.066566
-0.206061
-0.073689
-0.781526
0.398672
-0.040840
-0.061780
-0.930557
0.287037
0.381696
0.574891
0.038523
-0.016813
0.193483
-0.141404
-0.300618
0.085396
-0.245646
-0.181772
-0.097247
0.735941
0.406542
0.262407
0.477465
0.019749
0.167350
-0.770857
0.093841
-0.683287
-0.586283
0.722684
0.071991
0.576999
0.345577
-0.715749
-0.879956
-0.804907
0.450974
-0.094522
-0.380292
-0.364567
0.421674
0.050143
-0.130040
-0.429440
0.117128
0.239975
0.193186
0.246586
0.291035
-0.189844
0.197600
0.035453
-0.151717
0.393031
-0.156147
0.104395
0.284660
-0.222767
-0.409324
-0.022906
0.356173
-0.460773
0.666760
0.019988
-0.061806
-0.701485
-0.222952
0.049317
0.406807
-0.264478
-0.383671
0.458782
-0.606734
0.289601
0.436612
-0.032348
0.331748
-0.019234
0.123729
0.373994
-0.247128
0.333766
-0.292726
0.033684
0.280497
0.503889
0.545334
0.041993
-0.320771
0.612602
-0.432143
0.288383
0.635137
-0.159743
0.391579
0.031724
0.115887
-0.098473
0.276863
-0.206170
-0.297436
0.067214
-0.551093
0.507800
0.181504
0.487885
-0.116422
0.041054
-0.271932
-0.110863
0.196144
0.398336
-0.006571
0.651486
0.721024
0.079061
-0.583279
0.027799
-0.094918
-0.087077
0.125689
0.269916
-0.099766
0.061323
-0.361874
0.532227
0.014504
-0.200903
0.408272
-0.011768
-0.015037
0.121989
0.293666
-0.483396
-0.397725
0.589577
0.307701
0.058907
-0.567028
0.356196
0.329779
0.112012
0.051372
0.302088
-0.422449
-0.905962
-0.703416
0.067756
-0.111408
-0.105934
-0.194203
1.017041
-0.676584
0.699505
-0.285441
-0.248841
-0.050669
-0.382006
0.422960
0.862168
0.158576
0.316848
0.085599
0.680375
0.507925
0.281273
-0.503851
-0.026734
0.179864
0.721310
0.230389
-0.029971
0.031230
-0.235495
-0.107338
0.161251
-0.385789
-0.199594
0.233457
0.371655
-0.159144
-0.529538
0.456146
0.490169
0.450519
-0.965593
-0.089425
-0.304445
-0.240209
-0.479814
-0.013502
0.086594
0.202138
-0.320448
-0.104422
0.714535
-0.069959
0.549561
-0.815990
-0.477073
0.110758
-0.010007
0.047397
0.045538
-0.431333
0.339092
0.211755
-0.227878
-0.202031
-0.045345
0.388122
-0.039764
-0.090454
0.034335
-0.252951
0.081908
0.019172
-0.607375
-0.375451
0.295489
-0.508502
0.112672
-0.260866
-0.199821
-0.649127
-0.260154
-0.040473
0.014203
0.292421
-0.077496
-0.333806
0.219527
-0.316750
0.608804
0.084979
0.276865
0.693711
-0.471514
0.309831
0.168003
-0.537311
-0.669646
-0.490338
-0.079796
-0.424728
-0.047659
-0.527505
-0.131601
-0.348113
-0.433034
-0.014773
0.670427
0.218597
0.104621
0.112725
-0.235652
-0.014332
0.453797
0.041752
0.684420
0.406999
0.363223
-0.340896
-0.159528
-0.531005
0.131586
0.015256
0.038693
-0.090004
-0.199081
-0.523826
-0.496513
-0.325589
-0.518930
-0.917497
0.008380
-0.136188
-0.399056
-0.498367
-0.211649
0.563284
0.495151
0.006089
-0.360543
-0.301993
0.489366
-0.553845
0.768277
0.012944
0.370317
0.218115
0.146318
0.447840
0.031707
0.004900
-0.759006
-0.034224
-0.078729
0.348760
-0.725517
1.144910
0.123603
0.376143
-0.540762
0.193475
0.047667
-0.134896
-1.095984
-0.418852
0.713091
0.093267
-0.413380
-0.570713
-0.476814
0.176157
-0.000395
-0.178263
-0.335044
-0.131884
-0.013080
-0.304128
-0.267394
0.563368
-0.325703
-0.173461
0.091775
0.452246
0.644267
0.382767
-0.447289
-0.209905
0.153233
0.259276
0.141753
-0.511371
0.014298
0.212759
-0.094152
-0.288238
-0.241850
0.252612
-0.498704
-0.782648
0.058974
-0.081916
0.500502
0.514652
-0.502915
-0.953347
-0.360969
-0.562690
-0.343372
0.568757
-0.047269
0.002329
-0.103084
-0.535805
-0.125920
0.379860
0.427340
-0.184574
0.174060
0.089291
-0.230904
0.503000
-0.321146
0.136406
-0.372934
0.053130
-0.709657
-0.400621
0.334112
0.036007
-0.217155
0.816597
-0.742760
-0.185889
0.497561
-0.056102
-0.171540
0.309756
0.027196
0.612392
-0.729446
-0.382796
-0.347489
-0.486677
-0.184904
0.749650
0.339518
-0.152789
-0.564220
0.057348
-0.587484
0.058022
-0.375600
-0.198646
0.024011
0.004245
0.152134
0.179213
-0.056090
0.054634
0.738323
0.039115
0.433133
-0.260929
0.659602
-0.051997
0.405741
-0.895410
-0.649988
0.229977
-0.368468
-0.409304
0.563640
0.389272
0.194962
0.220775
-0.238194
-0.078817
-0.283349
-0.464938
-0.381655
-0.109435
0.264467
-0.182083
0.028060
-0.201750
-0.281661
0.115320
0.241670
-0.239720
0.602497
-0.068037
-0.422185
-0.144225
-0.052994
0.188690
0.392074
-0.185699
0.476026
-0.189730
0.071346
-0.584566
-0.068904
0.291464
0.606195
0.224931
-0.330950
-0.045733
-0.404622
0.505742
-0.560965
0.354813
-0.398902
0.025549
-0.293509
0.331062
0.109314
0.082241
-0.406463
-0.264568
0.528372
-0.413471
-0.890265
0.337185
0.247899
0.216471
-0.162884
0.418468
0.707858
0.356681
-0.039461
0.351834
-0.071784
-0.455866
0.022281
0.159152
-0.225269
-0.001647
0.108343
-0.260788
-0.284650
0.342311
-0.430746
0.606675
0.055148
-0.382302
0.076516
0.347201
-0.324151
-0.645810
0.133393
-0.107213
0.252089
-0.446278
-0.583659
-1.001034
-0.071909
0.139773
-0.186592
-0.229402
-0.125196
-0.224696
-0.278811
-0.130093
-0.270961
0.208817
0.002210
-0.292725
0.270884
0.578972
0.531713
-0.057745
0.102375
-0.180497
0.153279
-0.436534
-0.435407
0.607285
0.143523
-0.669969
-0.064714
-1.100242
-0.290861
-0.218309
-1.263555
-0.620292
-0.235325
0.410635
-0.104114
0.231417
0.020436
0.243584
0.191715
-0.407790
0.395321
-0.654692
-0.019755
-0.305000
-0.310469
0.395262
-0.624180
0.331258
0.126063
0.111806
0.767039
-0.324394
-0.078610
-0.396934
-0.037795
0.441023
0.228330
-0.448235
-0.544110
-0.494548
0.525648
0.075713
-0.159316
-0.203602
0.356567
-0.347668
-0.111669
0.593206
-0.262489
0.177968
0.004412
0.091756
-0.878065
0.382050
0.083281
0.017443
0.255446
-0.415779
-0.181552
0.538779
-0.080381
0.528238
0.253789
-0.381723
-0.041310
0.598249
0.071847
-0.233943
-0.118095
0.461762
-0.089866
-0.713324
-0.379487
-0.147097
0.165106
0.458796
0.189700
0.002060
0.360859
0.045542
0.431708
-0.088165
-0.140073
0.600472
0.752938
-0.033325
-0.190073
0.060223
-0.129897
0.246769
0.007112
-0.691819
0.010359
-0.284477
0.427424
0.061072
-0.717269
0.180031
0.324465
0.722315
-0.703507
0.278640
0.531210
0.626561
0.052143
-0.081421
-0.336073
-0.122720
-0.465226
0.308396
-0.094481
-0.327110
0.194120
-0.971663
-0.297468
0.216022
0.139885
-0.189141
-0.237516
-0.103127
0.508408
-0.765659
-0.329685
0.600655
0.378096
0.078418
0.405079
0.268463
1.112092
-0.569640
0.023453
0.271323
0.604852
-0.642341
-0.218911
0.330257
0.123333
0.296083
0.069228
-0.199220
-0.659227
0.133249
0.071015
0.011486
-0.723212
-0.611055
0.606111
-0.347943
0.496472
0.378552
0.650235
-0.008316
-0.121558
0.002681
0.000723
0.148621
0.071200
0.398267
-0.631737
0.199754
-0.480006
0.185519
0.728599
-0.048957
-0.828655
0.191534
1.148438
-0.576020
0.047561
0.189065
-0.821841
-0.518894
-0.015849
-0.697909
0.446701
0.394734
-0.039722
0.309158
0.505520
-0.006991
0.211429
0.061930
-0.263614
-0.078299
0.341727
0.195281
0.446545
-0.089359
0.252541
-0.158122
-0.138147
0.015754
-0.401163
0.054161
0.457045
0.126471
0.120635
0.435589
-0.363881
0.483719
0.717910
-0.764860
0.026337
-0.487900
0.562140
0.015687
-0.388161
-0.733348
0.223628
0.226859
-0.046428
0.123728
0.227971
-0.009657
0.249972
0.442169
0.664899
-0.502191
0.623834
0.059412
-0.007422
-0.212705
0.170474
-0.621512
0.318014
-0.105155
-0.306611
-0.091692
0.089457
0.110092
-0.782911
0.462581
-0.062377
0.211960
0.562448
0.222560
0.500694
-0.070110
-0.140838
0.055707
0.388261
-0.253668
0.487313
0.506105
0.594763
0.333468
-1.034453
-0.731673
0.556046
0.477532
0.043229
-0.449773
-0.139551
-0.039180
0.055245
-0.042054
-0.390499
-0.614072
-0.744320
-0.352832
-0.638403
0.143161
-0.106515
-0.115096
0.364295
-0.265961
0.213815
-0.663621
-0.147011
0.106073
-0.170097
0.238241
-0.111635
-0.006347
-0.339128
0.434230
0.510547
0.041213
1.050810
-0.078309
-1.094442
0.405975
0.050777
-0.427463
0.132816
0.178950
0.334286
-0.320852
0.074448
-0.421546
0.038686
-0.346291
-0.097475
-0.556360
-0.317173
0.346618
0.128407
0.495458
-0.013124
0.766551
0.496475
-0.082594
-0.176315
-0.694638
0.259430
0.194755
-0.497720
-0.043048
-0.020975
0.248107
-0.445818
-0.233967
-0.221770
-0.813712
0.161870
-0.015816
-0.087776
-0.300793
0.220020
0.004287
-0.089020
-0.147598
0.162362
-0.128369
-0.487327
-0.534938
0.510468
0.283631
-0.227022
0.065565
0.047407
0.383130
-0.528109
0.076592
0.364323
0.465699
-0.234955
0.143847
0.001056
0.646736
-0.407950
0.376208
0.203208
0.742356
-0.434645
-0.183506
0.574844
0.181670
-1.044433
0.516162
-0.557913
0.019324
-0.159306
-0.132334
0.565094
0.795698
0.079325
0.661090
1.076864
-0.218647
-0.020709
0.025595
0.080237
0.003593
-1.080578
0.467529
0.527334
-0.139585
0.166574
0.498967
-0.127091
-0.835658
-0.458370
-0.148107
-0.494995
-0.123290
0.518648
0.106466
-0.365480
-0.142985
0.932021
-0.057717
-0.564375
-0.484776
-0.085271
-0.507088
0.084037
1.080144
-0.002404
0.394670
0.659543
-0.035670
-0.090196
-0.104105
0.101946
-0.537164
-0.220073
0.318601
0.403183
-0.341884
-0.078054
0.257087
0.241498
-0.199996
-0.532272
0.258247
-0.043315
0.032067
0.212998
0.084580
0.050960
-0.178719
-0.322753
0.457050
0.236819
0.403248
-0.536837
-0.317477
0.242556
0.823444
0.943178
0.090790
-0.228987
-0.271669
-0.202685
-0.411304
-0.418487
-0.658309
-0.069571
-0.352098
0.277757
0.457297
0.632937
1.011184
-0.011736
-0.101097
0.014728
0.202135
-0.201545
0.222142
0.237924
-0.205434
0.175939
0.479970
0.946533
0.778449
-0.196222
-0.651797
0.136596
-0.012858
0.260967
-0.187871
0.201976
0.536346
0.451745
-0.171552
0.164398
0.527239
0.006029
-0.451471
-0.149709
0.192277
0.151393
0.295196
-0.832980
-0.276368
-0.238390
0.417084
0.222268
0.085728
0.211860
0.743396
-0.386188
-0.033782
0.008260
0.638736
0.698588
-0.049817
-0.214219
0.164633
0.312503
0.317452
-0.158979
-0.637980
-0.134205
0.470195
0.232332
0.688137
0.395999
0.131318
0.292738
-0.059168
-0.007452
-0.440803
0.968063
-0.024449
-0.271329
-0.445407
-0.404708
0.230841
-0.048119
0.154637
-0.292080
-0.074618
0.169374
-0.041079
-0.323785
-0.049457
-0.774498
-0.142572
-0.047623
-0.702645
-0.325539
0.173852
-0.177339
-0.305735
-0.886971
0.574548
0.052727
-0.152914
0.291141
-0.241237
-0.277155
0.141517
-0.353590
0.036942
-0.331979
-0.258350
-0.729887
0.280544
-0.536723
0.696521
0.155561
-0.483644
-0.025045
0.195956
-0.086772
0.296042
0.382853
-0.009396
-0.183040
0.391347
0.369866
0.261847
-0.728922
0.244989
0.021407
-0.614554
0.039293
0.342432
-1.000164
-0.466768
0.152821
0.067888
-1.164646
-0.344794
-0.697276
-0.306593
-0.033826
1.020863
0.023052
0.487169
0.610198
0.063146
-0.802586
-0.291758
0.406613
0.238584
-0.700228
-0.020092
-0.101148
-0.532336
-0.396737
0.819401
0.210747
0.027091
1.735331
0.686650
-0.017871
0.597063
0.101322
-0.195740
0.140516
0.236929
0.212134
-0.213178
-0.434179
0.258205
0.786995
-0.268407
0.541769
0.298397
0.110326
0.154781
0.418305
0.749378
0.530587
-0.793011
0.330774
-0.188374
0.117580
0.475073
-0.896872
0.723140
-0.038781
-0.470030
0.623032
-0.133216
-0.294523
0.776144
0.209780
-0.054594
-0.699923
-0.224305
0.066940
0.336348
0.011569
-0.189707
1.188135
0.133506
-0.538421
0.392513
0.608568
-0.574789
-0.025906
-0.034262
-0.170451
0.461993
-0.312236
-0.033185
0.250091
0.487798
0.139156
0.543558
-0.246021
-0.783450
0.188281
0.613837
-0.671512
0.336004
-0.041379
0.158281
0.669271
0.139876
0.141566
0.657362
-0.976085
-0.556772
-0.624326
0.157031
0.113074
0.183187
-1.144551
-0.747898
0.297969
-0.031588
-0.401811
-0.081531
-0.003517
0.055872
0.406554
0.348863
0.624355
-0.128719
0.203665
0.088400
0.187120
-0.275666
-0.320287
0.814328
-0.359507
-0.341014
-0.512662
-0.072692
-0.507831
0.627712
0.042730
-0.582039
-0.477057
-0.441595
-0.260070
-0.153071
0.483190
0.220930
0.251439
0.303254
0.682960
-0.171130
0.002644
-0.555389
0.846716
0.198453
0.430504
-0.337856
0.398957
-0.263577
-0.243005
0.015595
0.000090
-0.459672
-0.019404
-0.265847
-0.474678
0.571926
-0.228487
-0.410618
0.317774
-0.437899
-0.226740
-0.242404
0.116263
0.508225
-0.369235
-0.086210
-0.084846
0.680785
0.114227
-0.219555
0.156625
-0.013270
0.096761
-1.025914
-0.348430
0.123107
-0.432316
-0.926686
-0.164642
-0.074964
0.264647
0.524443
-0.032181
-0.036652
-0.174122
0.144877
-0.043525
-0.279415
0.143067
-0.141455
-0.265012
0.556062
0.480019
-0.268193
-0.241121
-0.391760
-0.164160
0.416682
0.270538
0.075077
-0.343517
-0.112056
-0.158525
0.353532
0.061235
-0.035464
-0.358130
-0.140002
-0.311479
-0.007831
0.101002
0.759212
-1.159615
-0.377523
0.221763
0.723683
0.099370
-0.912728
0.078587
-0.249685
-0.201464
-0.226006
-0.067641
-0.804351
-0.912820
-0.022576
-0.247740
-0.182705
-0.528534
0.091902
-0.321144
0.470515
-0.112913
0.394458
-0.195102
-0.478411
-0.430636
-0.421704
-0.745061
-0.121333
0.068749
-0.153146
-0.321295
-0.221519
0.368473
0.048646
0.229464
-0.323064
0.051448
-0.257354
0.016736
-0.349294
-0.020706
-0.558277
-0.379299
-0.472375
0.232931
-0.625402
-0.425805
0.182592
0.197521
0.005594
-0.636289
-0.784238
-0.296649
-0.583898
-0.530448
-0.766368
0.555549
-0.504979
-0.169922
0.381811
0.681050
-0.015860
-0.839592
-0.031893
-0.229108
-0.069950
0.052597
-0.060269
0.196483
0.459018
-0.291603
-0.101157
0.017751
-0.832791
-0.275920
-0.529747
-0.306868
-0.143768
-0.047311
0.631425
-0.474310
-0.158545
0.228555
-0.409232
-0.312833
0.262804
0.104617
-0.983887
-0.628456
-0.309219
0.316756
0.327962
-0.167837
0.782743
-0.515836
0.305402
-0.128226
-0.252044
0.261523
-0.126761
0.073065
0.212842
-0.255198
-0.133081
0.268432
0.405998
-0.153828
0.394887
0.004338
-0.251069
0.354572
-0.129726
0.707819
-0.427311
0.169987
0.105591
0.623419
-0.503670
0.185883
-0.653489
0.135470
0.693297
0.315511
-0.695280
0.315989
-0.541318
0.349642
-0.627635
0.483114
-0.101107
-0.015640
-0.248259
-0.334650
0.168407
-0.589024
-0.263925
0.382227
-0.540326
-0.266310
-0.045197
-0.091836
0.471231
0.356188
-0.253629
0.722480
-0.576840
0.195127
-0.016764
-0.512289
0.309503
0.469379
0.241630
0.458859
0.443519
-0.020059
-0.631513
0.023410
-0.330750
-0.324381
-0.799157
-0.184915
0.264207
-0.423840
0.015933
-0.203941
-0.418349
-0.284930
0.300469
0.601364
-0.299304
0.159613
-0.006063
-0.438388
0.157910
0.154483
-0.239314
0.494065
0.034859
-1.021829
0.092381
0.137683
-0.169993
-0.538129
0.113515
0.447322
-0.301970
0.365748
0.459699
-0.575728
-0.071266
0.610321
0.271538
0.256517
0.004094
0.174757
-0.276276
0.335277
-0.133482
0.014520
-0.028615
0.087996
-0.305418
-0.458920
-0.390828
-0.250557
-0.068762
0.435726
-0.397706
0.204811
-0.145488
-0.143612
-0.948894
0.371832
0.534443
-0.040438
0.484620
-0.166020
0.545557
0.630359
0.464207
-0.090384
-0.177457
0.209162
-0.173765
-0.678028
-0.433046
-0.338241
-0.696415
0.581581
0.482396
-0.450465
-0.006050
0.505988
-0.088356
-0.245040
-0.344135
0.314082
-0.302137
0.048674
-0.368925
-0.113601
0.791726
0.295150
-0.424135
-0.130423
0.217254
-0.043519
-0.095289
-0.039538
0.036699
-0.859391
0.374878
-0.051627
1.064230
-0.435902
-0.219998
-0.427967
0.361261
0.435149
-0.445814
-0.699717
-0.247662
0.095499
0.427627
0.536053
-0.281719
-0.175488
0.291249
0.184988
-0.404668
0.131175
0.106683
-0.421563
-1.322876
-0.045364
-0.213788
0.193020
0.399738
0.108177
0.501610
-0.058019
0.238819
0.011141
-0.162501
-0.315660
-0.082610
-0.559531
0.518688
-0.493905
0.465301
-0.243941
-0.099212
0.159574
0.554815
0.142598
0.142304
-0.271695
-0.331155
-0.107884
0.225525
-0.689509
0.276115
0.557344
0.367057
0.479202
-0.158087
-0.291470
0.259628
-0.225880
0.185041
-0.852414
0.100234
0.118345
-0.045410
0.394274
0.318049
-0.733170
-0.263175
-0.339568
-0.236476
0.201046
0.650492
-0.645182
0.536772
-0.351551
0.010467
0.124019
-0.101040
0.098152
-0.722525
0.656930
0.181692
-0.101892
-0.115217
0.358018
-0.790462
-0.945770
-0.152654
0.126364
0.794345
-0.442837
-0.201719
0.492108
-0.055836
-0.009101
0.043346
-0.365078
0.412809
0.080970
0.382176
0.094094
-0.637741
-0.634502
-0.078592
0.245000
0.127413
0.512870
-0.345370
-0.165607
0.356985
0.135276
-0.033482
-0.269377
0.579690
-0.085162
-0.197152
-0.487864
-0.173414
-0.439524
-0.139565
-0.563285
-0.047739
-0.257219
0.325567
-0.564389
0.699879
0.167343
0.093893
-0.651582
0.493821
0.096451
-0.042929
-0.267935
-0.140737
0.302451
0.649788
-0.047944
0.473155
-0.529541
-0.690896
-0.250598
-0.318433
0.243936
-0.211642
0.494440
-0.390963
0.490626
0.655165
-0.191033
-0.400137
0.547411
0.384929
0.073569
-0.969879
0.551813
-0.339645
-0.768114
0.535172
0.575450
-0.227461
0.192369
-0.756316
0.412802
0.154121
-1.032822
0.284538
0.179229
0.343669
0.016484
0.100111
-0.281840
0.152739
-0.283336
-0.603945
0.101845
0.241911
0.253931
-0.300335
-0.369416
-0.177943
-0.136633
0.309441
-0.453922
0.478387
0.214418
-0.373207
-0.275865
-0.373767
-0.510715
-0.015320
0.261345
-0.056318
0.189439
-0.912864
0.193857
0.175261
-0.090979
-0.523687
-0.898142
0.434530
-0.047747
-0.053999
0.373546
-0.314483
0.121611
0.519524
-0.544924
0.243734
0.168929
-0.542251
0.732348
-0.090450
-0.559721
-0.047306
-0.238548
-0.159590
0.200958
0.044067
0.666419
-0.398294
-0.708528
0.081013
-0.290728
-0.007890
-0.718105
-0.094980
-0.041727
0.215753
-0.016054
0.480416
0.080328
0.244871
0.285476
0.265593
0.269646
0.655024
-0.154460
0.729582
-0.148118
0.830944
-0.084504
-0.085006
-0.053119
0.375855
-0.177402
0.071114
-0.076389
-0.014500
0.009080
-0.967558
0.073563
-0.106956
-0.193100
0.273031
0.807306
0.382284
-0.475546
0.064857
-0.168417
-0.207259
0.457764
-0.398098
-0.786815
0.141601
0.766718
-0.211383
0.522709
-0.427807
-0.816537
-0.491950
-0.551407
-0.144554
0.166406
0.224958
0.210934
-0.068622
-0.188219
-0.373113
-0.404677
0.074416
0.421089
-0.135363
0.302413
-0.096651
0.525175
-0.577663
0.310962
0.975472
-0.205255
-0.238438
-0.895811
-0.456532
-0.565787
0.134814
-0.262889
0.219935
0.067488
-0.106449
-0.688854
-0.016240
-0.279720
-0.027471
0.455857
-0.664492
0.038920
-0.111063
-0.197170
-0.186137
-0.694124
0.778038
-0.116746
-0.203044
-0.904302
-0.321759
0.196210
0.765775
1.219869
-0.366036
0.512468
0.049697
0.228831
0.148467
0.178403
-0.425287
-0.294657
0.101357
-0.406704
0.361237
0.439402
-0.194854
0.039520
-0.837136
-0.458970
0.337612
0.138346
0.409599
-0.459100
0.057605
0.334480
0.321364
0.477944
-0.291128
0.008820
0.449032
0.665413
0.103324
-0.040901
0.438727
-0.223871
0.867243
0.747786
0.262844
0.438202
-0.331586
-0.258360
-0.064266
0.648739
-0.078978
-0.072752
0.197629
0.304069
-0.486813
0.079050
0.496855
-0.222818
-0.260953
-0.190220
-0.160720
0.223840
-0.589648
-0.328338
0.057314
-0.029611
0.092495
0.289391
0.176501
-0.105630
0.299653
0.569219
-0.041005
-0.270113
0.271960
0.380195
-0.158518
0.103430
0.255967
0.418525
-0.405668
0.561079
0.179861
-0.633195
-0.542330
0.352003
-0.340697
0.556619
-0.079499
0.607728
0.006838
-0.406315
-0.252076
0.354651
-0.774785
-0.585369
0.764683
0.227634
-0.457727
0.605084
0.039990
0.229027
-0.032485
0.069182
0.352524
0.090964
0.376689
-0.421829
0.399354
-0.274342
0.294984
0.143070
-0.499880
0.300168
0.067641
-0.505094
0.249289
-0.188214
0.341202
0.139153
0.399480
0.440104
0.026009
0.057774
-0.489283
-0.074825
-0.342409
-0.226427
-0.166226
-0.192076
0.177248
0.109713
-0.580344
0.189994
0.378118
0.202261
0.063122
0.989118
-0.462672
0.710577
0.580664
0.235841
0.233361
-0.182795
-0.235172
-0.499613
-0.168238
-0.422871
-0.025866
-0.066987
-0.211949
0.045065
-0.230938
-0.168612
-0.123631
-0.362755
0.167303
-0.242954
-0.571031
-0.342663
-0.150364
-0.518694
-0.601143
-0.160502
-0.497702
0.677251
-0.413249
0.592159
-0.198374
-0.128294
0.308444
-0.555653
-0.523176
-0.438186
0.286258
-0.601825
-0.415889
0.621655
0.196917
-0.188059
0.046421
0.772447
-0.083264
-0.287431
-0.726139
-0.228185
0.332780
0.160497
0.186849
0.228770
-0.648417
-0.192528
0.304708
-0.178587
0.326669
-0.467472
0.476170
-0.347952
-0.423406
-0.131343
0.449820
-0.303463
-0.171287
-0.362309
0.205021
0.053260
-0.690757
-0.265247
-0.912227
0.574880
-0.056233
0.434377
-0.140928
-0.712862
0.349375
0.226397
-0.691137
-0.009867
-1.021318
-0.755018
0.723703
-0.579108
0.362701
0.450934
0.004965
-0.658550
-0.516479
0.234297
-0.592289
-0.104582
-0.600684
0.102157
-0.026617
0.324088
-0.303979
-0.594809
-0.669843
0.030240
0.475831
-0.578658
-0.207141
0.360139
0.234096
-0.362858
-0.124137
-0.014810
-0.449344
0.088690
0.099142
0.549870
0.090675
0.544190
0.439636
-0.306108
-0.271302
0.613754
0.280006
-0.860774
0.353515
0.187211
0.512932
-0.225581
0.411581
0.605420
-0.477237
-0.176952
0.242237
0.150750
-0.101213
0.395017
-0.641730
0.047070
0.348649
0.627899
0.664327
-0.871370
-0.754807
-0.601224
-0.078188
0.055646
0.668052
0.207567
-0.532330
-0.333658
-0.289721
0.273854
-0.033130
-0.059597
-0.341915
0.017915
0.365108
-0.451181
-0.528538
-0.342973
-0.171039
-0.226888
0.581247
0.469508
0.171164
0.480013
0.441396
-0.252865
0.541691
-0.410830
-0.323471
0.485401
0.065049
-0.021538
-0.100923
-0.321026
0.147684
0.783712
0.327938
-0.337838
0.056207
-0.232518
0.228274
-0.148326
-0.388037
-0.308567
-0.020131
-0.586192
-0.045944
-0.006066
-0.300148
0.454010
0.388224
-0.354218
-0.089885
0.113935
-0.395390
-0.081782
0.198632
-0.059160
0.436318
-0.204786
-0.336864
-0.362690
0.099999
-0.786267
0.746044
-0.253677
0.065347
0.206545
0.027939
-0.065576
-0.157175
0.220121
-0.515377
0.291628
0.152288
-0.410977
0.050542
0.238988
0.180241
0.112836
-0.429520
0.359867
0.482874
0.815509
0.363311
0.347779
0.178286
-0.473378
-0.385804
0.281432
-0.309410
-0.345928
-0.515601
0.198543
0.667528
0.741417
-0.122692
0.424965
0.242843
0.060631
0.692232
0.137453
-0.230678
-0.492286
0.536644
0.268848
0.560897
0.090838
0.061035
0.371369
1.067429
0.555193
0.000849
0.264121
-0.248835
0.106398
-0.050746
-0.482946
0.180618
0.256034
0.351400
-0.226229
-0.195485
0.014551
-0.300452
-0.002153
-0.233570
0.516461
-0.378015
0.400007
0.177317
0.439417
-0.259391
0.082765
-0.770568
0.462016
-0.598774
-0.720956
-0.086204
0.389746
-0.009863
-0.250979
-0.438131
-0.182770
-0.248648
0.342019
0.156699
-0.372625
-0.377869
0.300152
0.681957
-0.080041
0.846919
-0.159389
0.028910
0.332910
0.501939
-0.161903
0.125677
-1.029227
0.011418
-0.689169
0.606827
0.657013
0.425206
-0.048974
0.256512
-0.347522
0.792656
0.670350
0.742159
0.135799
0.554189
0.074989
0.023874
1.098692
-0.707622
-0.242401
-0.044463
0.339032
0.096024
0.566691
0.678660
0.002859
-0.236409
-0.456265
0.312757
0.362355
-0.017649
-0.059021
-0.237098
-0.536054
-0.015071
0.679744
-0.404026
0.203962
0.842339
0.193719
-0.488203
0.065031
-0.373213
-0.011523
0.001138
-0.078553
0.116839
0.181421
0.399686
0.159109
-0.545968
-0.285479
-0.294760
-0.174701
-0.399795
-0.429715
-0.001106
0.466076
-0.310148
-0.760282
0.260731
0.073114
-0.005298
0.186627
-0.085790
0.501998
-0.392501
-0.518080
0.002883
0.086420
0.110012
0.286645
-0.883236
-0.253480
0.418606
-0.247860
0.524416
-0.029270
0.424530
-0.359309
0.868357
-0.224067
0.240687
0.380760
0.048411
-0.154179
0.165718
-0.220494
-0.320195
-0.014981
0.108425
0.027900
0.305514
-0.190574
-0.850990
0.352409
-0.161286
0.208124
0.572775
-0.684492
0.192813
-0.368361
-0.125955
0.677286
0.162286
-0.117011
0.803074
-0.043227
0.141074
0.191301
-0.296933
-0.168291
0.350443
0.128591
0.124813
0.128718
0.285877
-0.203229
-0.085079
-0.083528
-0.085326
-0.641141
0.512985
0.201130
-0.610208
-0.227451
-0.411219
0.865308
0.342357
0.551447
-0.223698
-0.354731
-0.568271
-0.426716
0.230817
-0.516008
0.070168
0.272775
-0.602683
-0.017572
0.386086
0.729998
0.029455
-0.198148
0.906947
-0.420661
0.041545
-0.523417
0.242379
0.557151
-0.059160
-0.003344
-0.229042
0.350554
-0.234625
0.651729
-0.516313
-0.242909
-0.192603
0.379532
-0.144963
0.106851
-0.245700
-0.974073
-0.155201
0.302194
-0.127313
-0.117058
0.061574
0.135204
0.048816
0.232661
0.560890
0.688811
0.276467
-0.601361
-0.122405
0.243792
-0.667914
0.067380
-0.302591
-0.106394
0.068380
0.343908
-0.529401
-0.085741
-0.325184
-0.873841
1.111984
0.092877
-0.352524
0.602721
0.254472
-0.056797
-0.222623
-0.731740
-0.381410
-0.486736
0.145820
-0.351443
-0.375265
0.674940
0.299553
-0.010725
0.157180
-0.053346
-0.065745
-0.252414
-0.561040
-0.428861
0.205787
0.548457
-0.003510
0.384681
0.165046
-0.362773
0.387378
-0.441113
-0.568161
-0.134421
0.231787
-0.237323
-0.453301
0.417810
-0.202935
0.083219
0.051475
-0.240693
-0.673994
0.557642
0.333201
-0.244575
0.252870
-0.218835
-0.254209
-0.636306
-0.336602
-0.019164
-0.514490
0.397165
0.282110
0.384321
-0.074689
0.902806
0.004742
0.225126
-0.555088
-0.561728
-0.153239
0.943376
0.351878
-0.252563
-0.421242
-0.650870
0.149008
0.224681
-0.796727
0.196860
-0.466351
-0.437440
-0.608481
-0.143860
0.456411
-0.244941
-0.294607
0.238103
-0.356574
0.807261
-0.079426
0.338566
0.116124
-0.208305
0.188125
-0.096873
0.149115
-0.252116
-0.421158
-0.047802
-0.452507
0.013913
-0.361119
0.491726
0.067702
-0.148956
-0.005104
0.387891
0.386040
-0.073795
-0.249050
-0.263998
-0.367817
0.359126
-0.132574
-0.159419
0.129977
0.545312
-0.485265
0.747381
0.293497
-0.454091
0.475661
0.252643
0.121933
-0.137914
0.743417
0.317948
-0.703379
-0.321343
-0.389481
0.557610
-0.657760
-0.695575
0.121046
0.063940
-0.724402
0.181792
-0.438974
0.396719
0.567519
0.167083
0.093645
-0.694470
0.371826
0.130195
-0.973795
-0.042179
-0.207894
0.263469
-0.096873
0.342452
-0.552261
0.028663
-1.185003
-0.064902
0.089677
-0.441712
0.551894
-0.515351
-0.387016
0.682961
0.566379
-0.401821
-0.218122
-0.071596
0.447409
-0.081754
0.106959
0.402299
-0.068759
0.355421
0.131798
-0.002997
0.343232
-0.680559
-0.270164
-0.245299
-0.263795
-0.012895
0.663723
0.162653
0.296605
0.390475
-0.675197
0.422049
1.124294
-0.127092
-0.097473
0.276640
0.958323
-0.273672
-0.225354
-0.491164
0.369626
0.229722
-0.409976
0.127468
1.531775
-0.444121
0.363482
-0.835360
0.616624
0.328435
0.187803
-0.401129
0.037968
-0.034009
-0.446373
0.373849
0.199529
-0.008377
-0.131784
0.465596
-0.010852
0.324613
0.487478
0.256595
-0.256056
0.167484
0.854770
-0.307513
-0.722381
-0.636842
-0.790859
0.074660
0.481553
0.108875
0.435497
-0.058257
-0.271432
0.321978
0.180955
-0.560626
-0.395878
-0.283733
-0.297178
-0.027122
-0.582628
-0.234983
-0.105276
-0.008820
-0.676439
0.437343
-0.447702
-0.910395
0.568876
-0.342686
0.215319
0.056557
0.649719
0.379640
-0.401203
-0.458446
0.067901
0.986279
-0.515808
0.088683
-0.008325
0.662293
0.373015
0.028557
0.001735
0.002987
0.211805
0.180145
-0.958831
-0.412900
0.394302
0.364601
-0.621211
-0.226870
-0.060251
-0.903230
-0.010859
-0.198599
-0.032026
-0.291158
-0.154986
-0.062855
-0.195858
-0.171507
-0.300888
0.724498
-0.095474
0.448513
-0.122439
-0.822179
-0.761035
0.268621
-0.142069
-0.382321
0.695852
-0.394053
-0.081993
0.625158
-0.105330
-0.043856
-0.309430
-0.038703
0.005842
0.209385
-0.206644
-0.020662
-0.287711
0.574475
-0.110347
0.084329
0.081715
-0.311708
0.302837
-0.154406
0.216756
-0.388902
-0.269056
0.542632
-0.417050
-0.599371
0.118859
0.003253
-0.164331
0.159853
0.512310
0.293311
0.105708
0.208223
-0.293462
-0.124529
0.507688
-0.123764
0.278560
0.217033
0.528450
-0.083521
-0.432712
0.089901
-0.366396
0.818752
-0.200265
0.573805
0.192476
0.138512
0.103335
0.150696
0.196276
-0.728332
0.112387
-0.681192
0.036728
0.172537
0.625628
-0.325814
-0.222280
-0.190643
0.114304
-0.071451
-0.591589
-0.663129
0.076203
0.131838
-0.287760
-0.093348
-0.103508
-0.309510
0.354609
-0.039142
0.536831
-0.430724
0.360753
-0.057652
0.661497
0.310385
0.696879
-0.454777
-0.569163
0.370855
-0.571155
0.646494
0.380049
0.284432
0.221283
-0.135378
0.188817
0.123706
-0.424249
0.506821
0.081421
-0.330707
-0.130803
0.099961
-0.249054
0.323716
0.110047
0.290088
0.028510
-0.153980
-0.085781
0.115602
-0.892287
0.043187
0.133049
-0.194793
-0.044868
-0.459092
-0.122566
-0.259772
0.094321
0.141652
0.470093
0.205039
-0.347291
0.357433
-0.089625
-0.037288
-0.030187
-0.354255
-0.028584
0.049648
0.374768
-0.091906
-0.003693
0.334303
-0.195883
-0.345945
-0.416546
0.641444
-0.161870
0.113182
-0.053866
-0.271512
0.455179
-0.041397
-0.089036
-0.221293
0.034750
-0.580115
-0.216595
0.454095
0.209534
-0.282728
-0.309214
0.549847
-0.559825
-0.342891
0.009258
0.418483
0.192563
-0.630466
0.119776
0.053804
0.432040
-0.326327
0.393713
0.242238
0.234740
0.129334
0.181996
0.219354
-0.581348
-0.386124
0.505334
-0.184582
0.020404
0.387665
-0.003600
-0.329830
-0.237526
0.060159
0.229395
0.149222
-0.063514
-0.440037
-0.072045
-0.526558
0.535395
0.041790
0.678872
0.356149
-0.248251
-0.314631
-0.037561
0.108992
0.259162
-0.217975
0.518396
0.355037
0.300830
0.363930
-0.303216
-0.195560
0.678587
-0.113700
-0.240267
-0.111357
-0.619013
0.039849
-0.041651
-0.758020
0.319717
-0.347372
0.197983
-0.171420
-0.128662
0.400963
-0.214357
-0.172378
-0.516438
0.229443
-0.085984
-0.118827
0.432380
-0.089480
-0.225949
0.438514
-0.230686
0.449350
0.233192
0.297041
0.390980
-0.131838
-0.332223
-0.047090
0.635407
-0.228139
-0.071309
-0.481948
0.314747
0.072681
-0.011062
0.432579
-0.026073
-0.213403
-0.190507
-0.505962
-0.219056
-0.331362
0.327484
-0.079543
0.433945
-0.279895
-0.278990
-0.404238
-0.387629
-0.482041
-0.333942
-0.382502
0.311627
0.705823
0.056732
0.182925
-0.349963
-0.368526
-0.251331
0.641282
0.382600
0.068319
0.709330
0.598122
0.618859
0.160542
0.401547
-0.525146
-0.168875
-0.054697
-0.831355
-0.481816
0.156186
-0.352098
-0.094647
0.069134
0.608540
-0.428219
0.311451
0.106445
-0.156715
0.022191
-0.439863
-0.168880
-0.378092
-0.301889
0.264631
-0.137079
-0.292106
0.002397
-0.165505
0.133212
0.170061
-0.573168
-0.349844
0.352402
0.066165
-0.549989
-0.684261
0.079630
-0.192595
0.287177
0.192758
-0.179896
0.469361
-0.428498
1.040150
0.137988
0.151569
0.155048
0.024790
0.643345
0.165196
-0.594806
-0.935651
-0.190152
-0.570761
-0.138931
-0.231552
-0.611215
-0.015758
0.696704
0.383655
-0.458772
-0.804948
-0.135833
0.437303
-0.044522
-0.815033
0.397235
0.207349
0.034802
-0.303418
0.455249
-0.292117
-0.384999
-0.128124
-0.558241
0.348059
0.327858
0.108571
0.147759
-0.476476
-0.077374
-0.312704
-0.676431
0.149087
0.521324
0.534652
-0.006561
-0.101677
0.508929
0.359343
-0.261930
-0.502250
-0.154123
-0.042116
-0.078542
-0.191718
-0.096361
0.906074
-0.120701
0.338051
-0.086604
-0.248806
0.390458
0.592384
-0.085284
0.310143
0.546231
0.565338
-0.221118
-0.197037
-0.291455
-0.035025
0.128361
0.603503
-0.501635
-0.239810
1.030727
-0.219937
-0.002617
0.280657
-0.011398
0.547661
0.093641
0.019790
0.434512
-0.038551
-0.479675
-0.816860
-0.634099
0.254629
0.215926
0.225114
0.351347
-0.063826
-0.504614
-0.176866
0.276355
-0.182294
0.737239
0.384283
0.106210
0.990092
-0.123527
-0.221409
0.470526
-0.184472
-0.085043
0.224522
-0.228712
-0.455254
0.470942
-0.664665
0.019202
0.868204
0.801807
-0.350349
-0.066062
-0.222929
-0.274089
-0.134082
0.277347
-0.075968
-0.095090
-0.364783
-0.140204
0.154870
-0.694734
0.216461
0.136468
0.129445
-0.221035
-0.234041
0.060024
-0.214741
-0.227933
-0.749641
0.080584
-0.102177
-0.483915
0.030140
0.027117
0.256381
-0.004016
-0.040243
0.904814
0.369114
-0.369794
0.056423
0.344074
-0.846880
0.271758
-0.317300
-0.660383
-0.739200
-1.241895
-0.271846
-0.940065
0.629349
-0.619124
0.300804
-0.440089
0.352489
-0.680069
0.388276
-0.761543
0.240276
-0.018566
-0.038555
0.149923
0.106388
0.211302
-0.181803
0.298591
0.197285
0.078069
-1.097286
-0.174654
0.169274
0.571779
0.032525
-0.066143
-0.172827
-0.424644
0.329955
-0.573116
0.153487
0.509060
-0.240465
-0.361132
0.034047
-0.467043
0.244156
0.578652
0.552325
-0.262380
-0.441372
-0.145502
-0.541643
-0.178849
0.204107
0.073962
-0.376788
-0.163143
0.348875
0.616624
0.217070
-0.174581
-0.618817
-0.159394
-0.164613
0.865396
0.113894
-0.093128
-0.047259
0.084012
0.333785
-0.044748
0.005646
0.002128
0.657153
0.641572
0.208565
-0.650906
0.294593
-0.067861
0.404056
0.418704
-0.253578
-0.712676
0.369377
-0.464609
0.457834
0.126812
-0.285677
0.316449
0.018693
0.612705
0.555955
-0.459989
-0.904023
-0.169948
0.792771
0.064301
-0.115128
0.199447
-0.446817
-0.155646
0.312695
-0.332910
-0.222310
0.437371
-0.411697
-0.722344
0.328643
1.122326
0.519058
0.352571
-0.108002
0.600098
0.193614
-0.317920
0.197571
0.542281
0.699047
0.049872
0.150490
-0.038244
0.275110
0.004072
-0.346227
-0.167278
0.571261
-0.142030
-0.622805
-0.131440
0.614513
-0.882095
-0.006463
0.460240
-0.371095
0.563873
-0.121878
-0.657666
-0.485389
-0.242448
-0.051013
-0.636659
0.207178
-0.090519
-0.506312
0.461565
0.612599
-0.599312
0.158560
-0.122068
-0.102621
-0.131041
0.710363
-0.224447
-0.708817
0.299571
0.114499
-0.505184
-0.344567
0.055138
-0.122391
-0.011074
-0.225943
0.117365
-0.848186
-0.544162
0.110637
-0.252782
-0.008485
-0.322950
0.111664
-0.564107
0.266484
0.213016
-0.508922
-0.264450
-0.537375
-0.113069
-0.186658
-0.392425
-0.183864
0.312568
-0.616075
-0.067035
-0.487569
0.151052
0.757481
-0.367121
-0.254185
-0.356263
0.129114
-0.440189
0.245614
-0.190791
0.167113
0.417402
-0.145175
0.174763
0.470120
0.239214
-0.377007
0.412728
0.231149
-0.169546
0.412780
0.736297
0.085064
-0.076406
0.010203
0.176942
-0.200089
-0.181918
-0.514323
0.054757
0.347435
0.402203
0.316485
0.095615
0.375432
-0.202892
-0.597214
-0.025751
0.396127
0.451354
0.397784
-0.139262
-0.693921
0.281412
1.161445
-0.256889
0.215422
-0.804768
0.545362
0.014351
-0.127026
-0.232401
0.299678
0.063116
-0.668388
-0.763309
0.268261
-0.100677
0.465320
-0.007331
0.611900
0.516801
0.277941
-0.056390
0.124369
-0.235823
0.083971
-0.118229
-0.933879
-0.546283
-0.414956
-0.263983
-0.053294
0.342935
-0.275377
-0.326075
0.230253
0.341137
-0.008497
-0.766372
-0.302141
0.563663
0.204164
0.040865
-0.009384
-0.566132
-0.105912
-0.317818
-0.645459
-0.801837
-0.220409
0.146761
1.156494
0.036779
-0.263479
0.666595
0.251809
-0.708760
-0.585126
0.180750
0.069302
-0.068431
0.622252
0.346520
0.671139
0.231059
-0.047587
-0.066870
-0.124714
0.127116
0.457028
-0.248614
-0.443435
0.181564
-0.450027
0.241321
0.599433
-0.439450
-0.285379
1.046242
0.872263
0.782322
0.130559
-0.672609
-0.061603
-0.010336
-0.042963
-0.247016
-0.009674
0.189684
-0.440898
-0.736076
-0.278301
-0.232226
0.670672
-0.400044
0.394880
-0.227520
0.030190
-0.514934
0.250029
-0.301029
0.469842
0.009828
0.335761
-0.343142
0.255847
0.342468
0.108948
0.585293
0.148892
0.301290
-0.253983
0.628685
-0.522436
0.584779
0.263433
0.385614
-0.278960
-0.716037
0.538840
-0.161129
-0.155939
0.607756
-0.616630
0.014461
-0.329705
0.197771
0.020942
-0.459569
-0.400089
0.439973
0.049961
0.260637
-0.087418
0.003184
-0.076902
-0.109578
-0.252426
-0.947391
0.163195
0.036935
-0.153862
-0.034457
-0.268361
0.062466
0.561629
-0.255068
-0.145608
-0.643243
-0.335287
0.471960
0.426964
-0.299766
0.381802
0.185423
-1.182418
-0.002664
-0.005452
0.029441
0.095349
-0.342167
0.180133
-0.245047
-0.451041
-0.487327
-0.759926
0.388731
-0.010521
-0.012479
0.709462
-0.286977
-0.202759
-0.725352
0.856266
-0.107579
0.048650
0.094306
0.237670
-0.099403
0.406062
-0.507087
-0.442886
0.265898
-0.304380
-0.027310
0.609271
0.012113
-0.303351
0.064332
0.750578
-0.118739
-0.175210
0.149559
-0.128416
-0.094371
-0.688711
-0.746579
0.046675
0.413935
-0.034258
0.115723
-0.928983
-0.528241
0.090116
-0.332801
0.349983
1.085724
-0.333924
0.164967
0.729721
0.677656
0.239350
-0.526482
0.503871
0.121433
0.150235
-0.542056
1.287106
0.029587
-0.086278
-0.243020
0.402141
0.181110
0.115582
0.173818
-0.291994
0.421282
-0.301319
-0.272099
-0.065764
-0.134575
0.321942
0.652818
0.128943
0.976165
-0.189711
0.459071
-0.161150
-0.713483
-0.047735
-0.326104
0.074717
-0.086722
0.084103
0.536555
0.276246
-0.026886
0.204430
0.554957
0.379508
-0.236390
-0.166727
-0.205261
-0.547471
0.617898
-0.487801
0.380071
-0.897035
0.711178
0.201520
-0.190222
-0.195528
-0.387795
-0.056618
-0.529450
0.059703
0.157198
-0.551388
0.092761
0.086170
-0.132652
-0.053236
0.579169
-0.491522
-0.897362
-0.350155
0.009372
-0.376970
-0.093281
-0.467792
-0.353120
0.530092
-0.997383
-0.047166
0.041829
-0.275396
0.499716
0.587447
0.426197
0.473377
-0.207281
0.186336
-0.307517
0.531634
0.067230
-0.487200
-0.217310
0.093166
0.417655
0.165534
0.075905
-0.274259
0.311261
-0.115957
-0.808009
-0.086595
-0.279198
-0.602973
-0.196747
0.615729
0.086246
0.177851
-0.595861
-0.012911
0.057304
0.015001
-0.444846
0.641461
0.027584
-0.013457
-0.278817
0.025668
0.345122
0.238740
0.389151
0.612602
-0.208935
-0.126654
0.866040
-0.009354
0.316692
-0.286593
-0.066371
-0.212061
0.608727
-0.077091
0.243012
-0.050676
0.162526
0.155005
0.472412
-0.028331
0.626599
-0.278743
0.323867
0.104312
0.086643
-0.322158
0.392724
-0.386598
-0.442416
-0.193439
0.351372
-0.290383
0.136712
-0.129282
-0.338065
0.104443
-0.139538
-0.404853
-0.442340
-0.127979
0.118810
0.458582
-0.196672
0.317311
0.220145
0.244723
0.379102
-0.638677
-0.209355
-0.117686
0.070244
0.978785
-0.072917
-0.648311
0.133980
0.700725
0.429736
0.475725
0.633488
-0.125584
-0.722062
0.097678
-0.751863
0.496882
1.020835
0.782134
0.056174
0.444811
0.395156
0.469892
-0.379757
0.369637
0.086364
-0.295116
-0.105307
0.227272
0.317250
-0.328612
-0.274044
0.337837
-0.087825
-0.053351
0.506518
-0.435615
-0.231765
-0.025082
0.713677
-0.419705
0.218592
-0.037916
0.011681
0.529076
-0.297848
-0.095629
0.229841
0.243444
0.120534
0.075152
0.084813
0.342975
-0.444092
-0.484889
0.493322
-0.766051
0.447482
0.789458
0.412963
0.375056
-0.848183
0.093656
-0.242179
0.851377
-0.222422
-0.319958
-0.803922
0.555055
0.255938
0.353154
0.712505
-0.392177
-0.362197
-1.102140
-0.368980
0.011266
0.147929
-0.205284
0.282559
-0.119799
0.262229
0.567422
-0.322921
-0.103621
-0.040929
-0.388396
-0.252834
-0.353171
0.013943
-0.890468
-0.535158
0.651888
0.082174
-0.087247
-0.208354
0.122564
-0.219122
0.248599
-0.297920
0.557594
-0.137699
-0.110921
0.124432
0.298986
-0.389246
-0.196711
-0.511391
0.286911
-0.120402
0.067803
-0.155337
0.600237
0.040947
0.275826
-0.618420
0.134737
0.988810
0.221614
-0.333899
-0.734277
-0.488684
-0.157363
-0.131749
-0.393932
0.114013
0.251217
-0.310956
0.283317
-0.376923
0.137419
-0.376273
0.894932
-0.368551
0.153774
-0.024511
0.770974
0.072578
-0.054328
-0.611614
-0.350952
-0.380416
-0.295650
-0.056158
0.481184
0.200202
-0.166061
0.297179
0.588203
-0.433405
-0.499053
0.153066
0.073542
-0.233895
0.653698
0.173439
-0.582643
0.643864
-0.049432
0.595345
-0.010464
-0.460353
0.058231
-0.193290
-0.091822
-0.707850
0.569443
0.457481
0.370934
0.716937
1.048791
0.097454
0.759649
1.004001
-0.525393
0.025831
0.148083
0.189321
0.225560
-0.094688
0.394483
0.289166
-0.101772
0.361602
-0.709855
-0.470543
-0.518643
0.826346
0.318331
0.347093
-0.520193
0.032661
-0.224903
-0.049815
0.284654
-0.248466
0.414329
0.278125
-0.149997
-0.142057
0.674983
0.577584
0.039312
0.028008
0.325609
0.510151
0.068483
-0.068464
0.008199
-0.190083
-0.005248
0.173100
0.151413
-0.005235
-0.061317
-0.240912
0.143202
0.014760
1.005993
0.919583
0.532145
-0.302770
-0.297310
-0.320870
0.119965
0.094589
0.836159
0.173350
-0.864993
-0.640751
0.251289
0.056306
-0.763111
-0.677506
-0.164315
0.066138
0.072757
-0.587162
-0.190759
0.057391
-0.236640
-0.024029
-0.252009
-0.137291
0.108456
-0.348698
0.112028
-0.316448
0.569520
0.072671
0.092267
-0.051781
-0.108725
-0.336066
-0.114743
-0.062078
-0.593465
-0.476189
0.366311
0.141601
-0.335044
-0.112688
0.098641
0.150181
-0.522635
0.291284
-0.406775
-0.679982
-0.629244
-0.325403
-0.567644
-0.541995
0.768372
-0.306443
-0.479888
-0.164480
-0.480815
-0.177546
0.155417
0.830240
0.414769
-0.037572
0.411783
-0.171916
-0.248253
0.408685
0.301349
-0.402122
-0.238975
-0.803282
0.184150
-0.051839
-0.392245
-0.406849
0.187892
-0.440612
-0.720301
-0.059463
-0.288486
0.151379
0.287652
0.436343
0.262863
0.197412
-0.607515
0.048177
-0.161965
-0.715287
0.093068
0.524362
-0.244272
0.040900
-0.037163
-0.666669
0.436990
0.426729
-0.251622
-0.080980
-0.046034
0.393768
0.145577
-0.753210
-0.371884
0.069584
-0.898615
0.402588
-0.392452
0.012678
-0.337290
0.682520
0.279096
-0.228650
-0.973859
0.079269
-0.222377
-0.594740
0.747036
-0.150667
-0.070331
-0.386647
0.312308
-0.783563
-0.145971
-0.044804
0.329893
-0.147131
0.037165
0.491407
0.501798
0.012166
0.579117
-0.014782
-0.424971
0.011378
0.367763
-0.928179
-0.408163
-0.096198
0.227449
0.455396
-0.140580
-0.369985
0.385647
-0.134743
-0.608238
0.139413
-0.672533
-0.575104
0.695141
0.470189
0.270323
-0.414619
-0.175302
0.216550
-0.105296
0.410414
0.394930
0.339119
0.726721
0.308711
-0.066039
-0.044526
-0.101427
-0.059067
0.472798
0.058763
0.071479
-0.387423
0.476172
0.282303
-0.358946
-0.391622
-0.424807
0.623965
-0.290996
0.384081
-0.367435
-0.759230
1.198192
-0.151307
-0.028299
0.190260
0.728322
0.517139
-0.534226
0.425700
0.192360
-0.183869
0.412877
-0.816415
-0.438614
0.354790
-0.257499
-0.344927
0.232048
-0.170768
0.290211
0.546600
-0.945556
-0.168493
0.231745
0.506822
-0.593212
-0.242089
-0.270496
0.339723
-0.718198
0.515509
0.032350
-0.201840
-0.274082
-0.686779
0.112961
-0.121843
-0.298683
-0.737507
-0.735892
-0.540221
-0.076051
0.202087
-0.212096
-0.253055
-0.308293
0.018366
0.244793
0.051362
-0.423348
-0.654885
-0.441709
-0.506428
-0.549731
-0.066304
0.495334
0.202620
-0.002411
0.254957
0.890477
0.431144
-0.381399
-0.325722
0.390308
-0.014578
-0.488166
-0.560633
0.170651
0.567672
0.017217
0.136194
-0.703946
0.339109
0.721584
-0.781338
0.015095
-0.698016
-0.266384
0.227397
0.140405
-0.335063
-0.323789
-0.123258
-0.352041
0.254331
0.345762
0.344791
-0.290399
0.626794
0.209304
-0.510954
0.517515
-0.281386
-0.099104
0.242676
-0.986390
0.196528
-0.234259
0.432773
-0.052969
0.117532
-0.290230
-0.667889
-0.351566
-0.186236
0.279191
0.419738
0.630210
0.177843
0.286661
-0.524253
-0.242132
0.119008
0.198438
0.115405
0.042317
0.044339
-0.143304
0.193369
-0.339495
0.318712
-0.230489
0.657735
0.073077
-0.611655
0.055739
0.036387
0.167872
-0.584378
-0.299871
0.139641
-0.061357
0.097944
0.284936
-0.307300
-0.282873
0.591917
-0.069657
0.419665
-0.129681
-0.421070
0.308055
0.976168
-0.556953
-0.066751
0.351029
-0.752248
0.847477
-0.090348
0.068968
0.251391
0.812022
-0.557555
0.017611
0.115816
0.006767
0.544791
-0.514289
0.195068
-0.032897
-0.243439
-0.621596
0.178912
0.551748
-0.211934
-0.225921
0.940666
0.275044
0.271293
0.557301
0.620949
0.121384
0.389441
0.622922
-0.455879
-0.453995
0.400155
-0.098238
0.100886
-0.019497
0.188339
0.173456
0.369026
0.240926
0.323409
-0.110606
-0.566647
-0.826887
-0.063407
-0.247665
-0.170903
0.043702
0.529819
-0.779865
-0.669514
0.406239
0.057447
1.095622
-0.224513
-0.134399
-0.139232
0.306121
0.176699
-0.820665
-0.299558
-0.440119
0.550063
0.058158
0.150392
-0.164818
0.011049
-0.284254
1.046096
-0.021047
0.462947
-0.111929
-0.689755
0.246453
0.386502
-0.002473
0.200516
-0.084117
-0.397720
-0.485622
-0.758188
0.382883
0.446082
0.000384
-0.329620
0.626120
0.259160
0.739133
0.502080
0.516593
-0.180222
0.162074
-0.605721
0.046464
-0.146986
-0.295831
-0.113507
-0.559994
-0.020802
-0.063120
-0.808904
0.131318
-0.461654
-0.290284
-0.589853
0.070066
0.390190
0.601637
-0.254116
0.459241
-0.573636
0.009425
-0.313413
-0.127117
-0.446125
0.584095
0.338453
0.084577
-0.441533
0.261207
-0.524724
-1.137398
0.729539
-0.248582
0.313933
0.670074
-0.559889
0.009935
0.698212
0.024443
0.354354
0.234159
0.221478
-0.433792
0.306600
-0.400396
-0.032539
-0.234161
0.850917
-0.692363
-0.099576
0.090821
0.254854
0.024757
-0.055982
-0.231723
0.452353
0.226990
0.543467
-0.689166
0.027713
-0.392811
-0.143141
-0.191974
0.223692
0.038349
-0.682548
-0.298157
0.241886
0.211369
-0.211216
-0.784339
0.195469
-0.722587
-0.336012
0.295923
-0.408927
-0.145933
0.537064
-0.044692
0.014517
0.017786
-0.530599
-0.469377
1.051105
-0.100606
-0.348721
0.020853
0.653168
0.199560
-0.329717
-0.072791
-0.171207
0.031774
0.652069
0.654575
-0.317309
-0.053254
0.027577
0.231222
0.466862
0.721527
-0.608883
-0.287610
0.095921
-0.278278
0.230478
-0.511784
-0.260235
-0.264591
-0.244341
0.080959
0.306028
0.183595
-0.266881
1.376339
0.097762
-0.029251
-0.580718
-0.090846
0.306514
-0.072220
0.368092
0.168615
0.430713
0.513691
0.198057
-0.620304
-0.016726
-1.148325
-0.180262
0.411189
0.623409
-0.789767
-0.336914
-0.418508
0.888908
-0.595046
-0.539271
-0.174233
0.260952
-0.375309
-0.114970
-0.117206
-0.072973
-0.261084
-0.271540
-0.047117
-0.050052
0.014925
-0.207842
-0.570624
0.287456
0.778052
-0.132223
-0.602732
-0.224318
0.205265
-0.132696
-0.107557
0.014204
-0.140267
-0.097504
1.589838
-0.190649
0.431224
0.279396
0.166848
0.283084
-0.392048
0.315374
-0.079295
0.826501
0.208831
-0.579909
-0.134645
0.583575
-0.344220
-0.000123
-0.805437
-0.154476
-0.403123
0.743812
0.289602
-0.152440
-0.306461
0.320404
0.048367
-0.421678
0.470358
0.394902
-0.679610
-0.295492
-0.046767
-0.073905
-0.218767
-0.311470
-0.265441
0.043298
0.279219
-0.294977
-0.112900
0.305641
0.069472
0.271608
0.219080
0.197361
0.348395
-0.411000
-0.111625
0.198677
-0.513931
-0.939115
0.442296
0.080904
-0.066546
0.269605
0.104256
-0.203602
-0.144873
0.171508
-0.395043
-0.317778
-0.265772
-0.075932
-0.158166
-0.518784
0.064609
0.146886
0.121320
0.652989
0.156006
-0.235933
0.055645
0.417194
0.064857
-0.269147
0.018714
-0.244566
-0.583741
-0.180684
0.378467
0.348500
0.232780
0.000030
-0.175896
-0.334514
-0.436500
0.321360
-0.225524
-0.255039
-0.243286
0.028548
0.191838
0.422365
-0.016418
0.978031
0.390415
-0.480725
-0.547575
-0.405490
-0.262731
0.169018
-0.510453
0.219328
-0.026800
-0.373621
-0.375493
0.865731
0.656156
-0.433902
0.616531
-0.362055
0.031738
0.257007
0.035866
-0.125950
-0.849287
0.001256
0.063793
0.465045
1.023304
0.389365
0.779868
-0.826959
0.067681
0.272009
-0.433393
-0.526327
0.110953
0.007810
0.151849
-0.416027
0.098677
0.608620
-0.468982
0.582649
-0.031326
-0.385382
-0.459762
-1.015524
-0.158315
-0.495197
0.774825
-0.016858
-0.330808
0.135187
0.302608
0.100731
0.108061
-0.192882
-0.032996
-0.077445
-0.946639
-0.640198
0.908889
0.058680
-0.008933
0.387046
-0.420175
-0.057810
-0.487379
0.264597
-0.445527
0.553628
0.173349
-0.242305
-0.087205
0.700684
0.236631
0.022150
0.797163
0.608015
-0.391645
-0.332148
0.297737
-0.242844
0.038872
-0.878452
0.188370
1.292927
0.324931
-0.207393
0.093247
-0.018446
0.108822
-0.210898
0.581201
-0.594298
0.088784
0.197532
-0.452477
-0.092359
-0.287679
-0.385779
-0.142087
0.058229
0.356334
0.928197
0.621886
0.222704
-0.218805
0.013102
-0.146116
0.114041
-0.455171
0.187113
0.702821
0.283622
-0.124001
0.206396
-0.116679
0.484310
0.496218
-0.026428
-0.105340
0.193309
0.131702
0.047173
0.092139
-0.219169
0.114721
0.351946
-0.176818
0.694548
-0.151831
0.189527
-0.186725
-0.580199
0.479346
0.917563
0.881209
-0.739028
-0.386394
-0.299715
-0.050358
0.352825
0.247613
-0.266597
-0.104486
0.201279
0.187385
0.376487
-0.008373
-0.133417
0.645088
-0.607729
-0.114457
0.596323
-0.204788
0.057160
-0.284412
0.282825
-0.470888
-0.109403
-1.685474
-0.044038
0.317904
-0.170605
-0.020856
-0.427076
0.473997
0.000188
0.061528
-0.237973
-0.670906
0.143186
0.009128
-0.090300
1.183969
0.017025
-0.699565
-0.193565
0.325340
-0.052283
-0.408766
0.246149
-0.138373
0.058287
-0.565722
0.372870
0.175784
1.080219
-0.580115
0.544433
0.920811
-0.960523
-0.645490
0.095416
0.032025
-0.204114
0.449596
0.416309
-0.470511
0.893958
1.400944
-0.658719
-0.268460
1.282267
-0.598086
0.525180
-0.362408
1.427457
-1.141241
-0.965428
-3.066979
1.571481
-0.505794
-0.562026
-0.234727
0.729610
-0.904723
-0.554670
-0.540865
-1.917256
-0.140730
0.765176
0.611323
0.281656
2.399310
-0.667844
-2.400965
-0.320885
-0.291829
-0.130354
0.878884
0.348923
-0.102683
0.592326
0.197376
-0.154467
-0.366643
2.504458
-0.179149
0.350194
2.484010
-0.923793
-1.771061
1.507181
-1.770856
1.015641
-0.584388
0.461666
