0.084149
-0.466001
0.030143
0.017745
1.028373
0.171102
0.244247
0.509865
0.427676
0.442865
0.099365
-0.363369
0.045909
-0.127498
0.593247
-0.383711
-0.061434
0.170744
0.219159
-0.428388
-0.222556
0.756077
0.220688
0.615492
0.158380
0.239510
-0.183527
0.145413
0.045551
-0.064294
-0.785084
-0.639415
-0.724383
0.285263
0.481700
-0.946757
0.172563
-0.303919
-0.211106
-0.175531
-0.765671
-0.331468
-0.344211
-0.127575
-0.111707
-0.237046
-0.255459
-0.083763
0.468346
-0.625500
0.561600
0.386029
0.332536
0.153956
-0.323000
-0.440168
-0.353745
0.415769
0.286596
-0.364920
0.264441
0.648785
-0.322979
-0.499000
0.040018
0.856506
0.278057
0.543530
-0.638352
-0.268161
-0.016988
-0.014493
-0.708050
0.634363
0.088884
-0.380055
-0.003491
-0.993158
-0.528252
0.182987
0.502132
0.149802
-0.303773
-0.360693
-0.772923
-0.127864
-0.252799
0.180522
0.266282
-0.359942
-0.161206
-0.013150
0.221207
-0.861674
-0.754898
0.635392
-0.473158
-0.686250
0.640038
0.334179
0.147995
0.037630
-0.484564
0.362339
0.160798
-0.287295
0.708209
0.043858
-0.207540
-0.063532
-0.177354
0.359109
0.049326
0.252180
-0.045998
0.395602
-0.004745
0.117920
-0.147827
-0.088109
0.235007
-0.535129
0.067606
0.238060
0.089679
0.276350
-0.142042
-0.226615
0.793026
-0.623097
-0.148067
-0.053561
-0.999403
0.070599
-0.203518
-0.076480
-0.782855
0.393888
-0.038344
-0.059413
-0.925926
0.288772
0.377548
0.576013
0.043019
-0.021576
0.190184
-0.139186
-0.296950
0.092725
-0.248440
-0.181393
-0.098075
0.732387
0.404865
0.263125
0.477882
0.020693
0.168873
-0.766123
0.092770
-0.684228
-0.589251
0.723908
0.064321
0.573267
0.345678
-0.711930
-0.875105
-0.804326
0.451259
-0.091299
-0.377962
-0.364294
0.419180
0.057718
-0.125105
-0.428456
0.121379
0.241435
0.192948
0.243954
0.287813
-0.196799
0.201434
0.037468
-0.145712
0.390496
-0.157755
0.105558
0.291329
-0.225149
-0.408920
-0.017854
0.356024
-0.459488
0.666175
0.019043
-0.061133
-0.696980
-0.217833
0.047653
0.410460
-0.259229
-0.379963
0.460815
-0.612203
0.289372
0.437363
-0.029608
0.328998
-0.021640
0.126556
0.379977
-0.241524
0.337909
-0.293439
0.032240
0.284045
0.500448
0.554122
0.037212
-0.317199
0.612799
-0.427707
0.287461
0.640160
-0.169716
0.388427
0.028003
0.109544
-0.092877
0.272224
-0.204609
-0.292311
0.063802
-0.552357
0.499990
0.184016
0.484508
-0.122194
0.036551
-0.273284
-0.112833
0.190404
0.394154
-0.005205
0.654809
0.722969
0.080465
-0.584870
0.037560
-0.097191
-0.088393
0.126029
0.272925
-0.109954
0.062481
-0.357135
0.526047
0.014179
-0.199246
0.408385
-0.013467
-0.018727
0.111245
0.290873
-0.478988
-0.396933
0.587540
0.307548
0.054256
-0.568885
0.353666
0.332499
0.109373
0.052662
0.303407
-0.420501
-0.907967
-0.703028
0.068568
-0.107454
-0.107854
-0.196118
1.015989
-0.674863
0.701201
-0.285396
-0.244130
-0.055733
-0.385392
0.420449
0.853124
0.157526
0.324545
0.082657
0.684390
0.508569
0.278712
-0.504345
-0.022223
0.171133
0.717412
0.223116
-0.028997
0.023928
-0.234874
-0.105934
0.161183
-0.382115
-0.195669
0.243761
0.369399
-0.164769
-0.531040
0.455829
0.484618
0.456688
-0.973446
-0.090311
-0.302115
-0.235916
-0.478379
-0.015437
0.089425
0.201556
-0.322141
-0.102459
0.716235
-0.068347
0.555797
-0.813114
-0.473740
0.109670
-0.015376
0.041331
0.042182
-0.430648
0.337979
0.216424
-0.224816
-0.202384
-0.040865
0.383925
-0.046289
-0.084091
0.028527
-0.253249
0.085646
0.025313
-0.606495
-0.367574
0.292841
-0.506727
0.109984
-0.262330
-0.203583
-0.647233
-0.258484
-0.042930
0.013191
0.291855
-0.090342
-0.339681
0.219398
-0.318458
0.614308
0.087185
0.280736
0.697274
-0.467637
0.309214
0.163302
-0.527691
-0.667456
-0.492912
-0.076557
-0.429568
-0.046709
-0.532155
-0.134211
-0.351156
-0.439568
-0.020746
0.671936
0.216163
0.110212
0.112916
-0.231693
-0.012041
0.453236
0.040948
0.685969
0.409925
0.358683
-0.344008
-0.170894
-0.527093
0.130639
0.014649
0.036753
-0.097014
-0.197847
-0.523184
-0.497452
-0.328113
-0.519825
-0.920586
0.020277
-0.131486
-0.401023
-0.493081
-0.211562
0.565362
0.493495
0.005824
-0.363588
-0.300660
0.489889
-0.552366
0.767013
0.010343
0.364425
0.222430
0.144158
0.443892
0.023878
0.009911
-0.762409
-0.045152
-0.078939
0.346708
-0.733314
1.141631
0.126651
0.379695
-0.534684
0.192688
0.055547
-0.129832
-1.096566
-0.412053
0.710651
0.095486
-0.412437
-0.572417
-0.480333
0.168275
-0.003246
-0.176953
-0.331666
-0.132363
-0.015080
-0.306672
-0.268097
0.566799
-0.332312
-0.169738
0.089177
0.455910
0.651478
0.376837
-0.451459
-0.200544
0.146893
0.248564
0.139924
-0.506524
0.014632
0.214567
-0.090457
-0.289373
-0.242470
0.260291
-0.501870
-0.774804
0.056192
-0.077951
0.502035
0.512363
-0.495200
-0.952554
-0.363385
-0.558228
-0.336334
0.565982
-0.046872
0.002685
-0.103331
-0.537696
-0.121431
0.380693
0.431974
-0.181083
0.171611
0.092042
-0.225019
0.505800
-0.327158
0.133573
-0.378237
0.048054
-0.704619
-0.397654
0.336580
0.036018
-0.226154
0.817480
-0.741200
-0.179320
0.505391
-0.062901
-0.173678
0.309533
0.021550
0.617415
-0.722986
-0.377166
-0.351698
-0.484941
-0.183018
0.755576
0.340287
-0.151342
-0.564728
0.048570
-0.589506
0.059361
-0.377242
-0.195763
0.017395
0.003463
0.147219
0.180066
-0.052563
0.053271
0.743064
0.040411
0.427008
-0.251226
0.652768
-0.054889
0.407442
-0.889484
-0.648023
0.228467
-0.366521
-0.411116
0.569946
0.376188
0.190463
0.221452
-0.234204
-0.074981
-0.278068
-0.466311
-0.376588
-0.107008
0.265422
-0.190717
0.026570
-0.207586
-0.282719
0.112481
0.240384
-0.234462
0.598791
-0.070951
-0.417456
-0.146811
-0.053236
0.185922
0.392060
-0.185254
0.473194
-0.202880
0.076074
-0.584878
-0.064027
0.292005
0.611789
0.229534
-0.325944
-0.046748
-0.403590
0.499684
-0.561359
0.347088
-0.392823
0.021843
-0.293151
0.330527
0.104825
0.082843
-0.406731
-0.266962
0.529223
-0.414606
-0.894162
0.337632
0.243934
0.220774
-0.164044
0.420265
0.702411
0.357460
-0.035457
0.349970
-0.072777
-0.453873
0.021650
0.154542
-0.231276
-0.001920
0.107752
-0.262205
-0.283669
0.341199
-0.430175
0.612359
0.053057
-0.383279
0.077640
0.350783
-0.325471
-0.645630
0.132387
-0.122053
0.248709
-0.446699
-0.586109
-0.999245
-0.072963
0.138122
-0.188226
-0.223015
-0.132139
-0.226687
-0.276346
-0.132291
-0.271910
0.211942
0.002154
-0.296699
0.262794
0.580410
0.534354
-0.052970
0.095964
-0.183478
0.156162
-0.435742
-0.429986
0.598167
0.144311
-0.671866
-0.063851
-1.095396
-0.281034
-0.215249
-1.262171
-0.618725
-0.239785
0.414196
-0.110528
0.229291
0.017359
0.245605
0.187857
-0.407097
0.399967
-0.658592
-0.018900
-0.310156
-0.307220
0.396511
-0.622468
0.332814
0.119285
0.106989
0.770184
-0.314323
-0.078223
-0.394830
-0.035959
0.440609
0.232868
-0.445910
-0.541903
-0.489863
0.524633
0.078363
-0.159398
-0.192521
0.357107
-0.345886
-0.103318
0.595903
-0.261764
0.175457
0.001074
0.096234
-0.876931
0.380472
0.084944
0.017709
0.263040
-0.419108
-0.177784
0.541957
-0.078644
0.532522
0.253658
-0.381536
-0.042263
0.595310
0.071786
-0.238291
-0.117956
0.459042
-0.092703
-0.711085
-0.377426
-0.154590
0.157914
0.462414
0.184631
-0.000951
0.359789
0.045080
0.438162
-0.087566
-0.138012
0.604730
0.761441
-0.038216
-0.194302
0.065992
-0.126176
0.243234
0.002888
-0.697966
0.013541
-0.287025
0.427540
0.062572
-0.718355
0.177832
0.317152
0.722424
-0.699887
0.274253
0.529757
0.630549
0.050644
-0.075528
-0.329872
-0.124630
-0.461846
0.317228
-0.096017
-0.325544
0.183721
-0.967829
-0.296911
0.217730
0.132316
-0.193794
-0.242476
-0.102939
0.507822
-0.768525
-0.326744
0.600549
0.371974
0.072712
0.407624
0.269722
1.112948
-0.570199
0.029131
0.265980
0.601262
-0.644210
-0.217508
0.329402
0.129806
0.305008
0.072129
-0.198749
-0.655889
0.140678
0.072068
0.015475
-0.719357
-0.605243
0.607837
-0.342837
0.502367
0.375655
0.643939
0.000504
-0.118189
0.007298
-0.002602
0.152193
0.068885
0.401755
-0.640138
0.197053
-0.477663
0.180271
0.735338
-0.049720
-0.833879
0.197324
1.137413
-0.579805
0.052138
0.195837
-0.822905
-0.515113
-0.013035
-0.694842
0.453363
0.394987
-0.032644
0.310723
0.502018
-0.013742
0.218335
0.055662
-0.262643
-0.082965
0.342905
0.199279
0.446788
-0.087247
0.251413
-0.156707
-0.136220
0.012029
-0.400226
0.053838
0.458487
0.129508
0.125044
0.435878
-0.364611
0.484238
0.716375
-0.759846
0.024766
-0.492906
0.562399
0.020869
-0.394387
-0.734981
0.227863
0.221217
-0.049415
0.121529
0.228117
-0.005294
0.250562
0.437813
0.669080
-0.505363
0.621772
0.054967
-0.011742
-0.222607
0.170294
-0.625434
0.319246
-0.102371
-0.306406
-0.089860
0.085933
0.117401
-0.779486
0.466883
-0.056900
0.207640
0.564867
0.232209
0.498074
-0.068487
-0.144012
0.050539
0.392709
-0.253801
0.488468
0.504037
0.592845
0.336532
-1.030197
-0.733548
0.553095
0.472986
0.047622
-0.441253
-0.137327
-0.035781
0.056076
-0.047405
-0.386107
-0.615319
-0.749140
-0.355041
-0.634177
0.143512
-0.105876
-0.116308
0.367401
-0.260561
0.217349
-0.660952
-0.148210
0.107680
-0.171587
0.241736
-0.116183
0.002763
-0.342826
0.442201
0.507120
0.045437
1.048749
-0.075077
-1.085721
0.408485
0.044350
-0.422797
0.141238
0.184026
0.340737
-0.318016
0.073114
-0.426983
0.037409
-0.351679
-0.097219
-0.555635
-0.321162
0.345615
0.136940
0.493570
-0.016034
0.761648
0.496923
-0.084897
-0.178054
-0.690020
0.258841
0.198722
-0.495487
-0.042199
-0.024363
0.244872
-0.447328
-0.225965
-0.214276
-0.817800
0.167866
-0.015139
-0.076772
-0.303175
0.220289
0.005151
-0.087634
-0.146535
0.162903
-0.127919
-0.480705
-0.534177
0.514374
0.283323
-0.223497
0.065257
0.049312
0.388642
-0.534109
0.075134
0.365873
0.471326
-0.236948
0.137486
0.000350
0.644752
-0.405648
0.373394
0.207122
0.744372
-0.432069
-0.189292
0.573017
0.190030
-1.041935
0.517732
-0.556976
0.024400
-0.156953
-0.129880
0.566077
0.802480
0.077383
0.661029
1.073536
-0.220618
-0.019365
0.027403
0.082001
0.007205
-1.084901
0.468191
0.533289
-0.134228
0.161793
0.495341
-0.130662
-0.836786
-0.460784
-0.150043
-0.496577
-0.123171
0.518946
0.098153
-0.362670
-0.142176
0.935341
-0.053690
-0.558742
-0.488001
-0.088107
-0.511890
0.087379
1.083239
-0.001244
0.397818
0.661232
-0.034517
-0.083701
-0.106055
0.099279
-0.540407
-0.223320
0.315544
0.406454
-0.341928
-0.070135
0.256964
0.241959
-0.200167
-0.526616
0.254446
-0.043211
0.043232
0.212207
0.086653
0.047289
-0.180286
-0.317760
0.461554
0.230780
0.408203
-0.537502
-0.317680
0.241821
0.819236
0.941142
0.090876
-0.233058
-0.266446
-0.199427
-0.413936
-0.418039
-0.651270
-0.081251
-0.349287
0.277250
0.463319
0.629064
1.010010
-0.013293
-0.094870
0.013189
0.208480
-0.202628
0.217341
0.241537
-0.206215
0.177595
0.473204
0.951739
0.783062
-0.197355
-0.650820
0.136339
-0.017403
0.260116
-0.188292
0.200050
0.533469
0.444274
-0.172095
0.162184
0.527197
0.008946
-0.446647
-0.151800
0.194747
0.155532
0.294148
-0.835977
-0.269452
-0.238359
0.417969
0.217177
0.082909
0.216030
0.749460
-0.387022
-0.028508
0.004933
0.641328
0.694486
-0.047022
-0.212337
0.173762
0.314992
0.319249
-0.171135
-0.636119
-0.128620
0.473042
0.233172
0.693816
0.393682
0.125269
0.287608
-0.059253
-0.006427
-0.439307
0.976415
-0.022292
-0.272119
-0.449031
-0.409000
0.239295
-0.046293
0.153381
-0.300090
-0.074024
0.171999
-0.040367
-0.322064
-0.048158
-0.773114
-0.143442
-0.055884
-0.701810
-0.326601
0.180743
-0.183451
-0.314292
-0.887735
0.573653
0.051858
-0.148580
0.296419
-0.252333
-0.286233
0.145256
-0.350625
0.036440
-0.333609
-0.264280
-0.729335
0.281314
-0.536614
0.697706
0.163041
-0.491299
-0.020697
0.194503
-0.094806
0.300432
0.380879
-0.008696
-0.177181
0.398705
0.370567
0.258010
-0.728044
0.239046
0.016745
-0.616247
0.036483
0.345110
-1.001642
-0.463294
0.155478
0.069807
-1.168180
-0.339621
-0.697719
-0.299498
-0.036589
1.024422
0.025389
0.490018
0.612865
0.062192
-0.803580
-0.294570
0.403061
0.237492
-0.694347
-0.020682
-0.099866
-0.531979
-0.392303
0.816229
0.218254
0.028007
1.732110
0.683663
-0.020951
0.593454
0.097715
-0.196122
0.146780
0.240276
0.211571
-0.213829
-0.433777
0.254639
0.783003
-0.271968
0.538118
0.299563
0.107678
0.155695
0.414149
0.743160
0.532416
-0.798005
0.334159
-0.194815
0.116204
0.472745
-0.899575
0.722331
-0.037887
-0.462634
0.624330
-0.134961
-0.295094
0.777199
0.206271
-0.051353
-0.700439
-0.222123
0.069547
0.332286
0.008212
-0.188595
1.187061
0.130558
-0.535286
0.392066
0.601281
-0.573351
-0.027494
-0.040860
-0.162971
0.464106
-0.321644
-0.027622
0.256452
0.494149
0.141233
0.541570
-0.241548
-0.776667
0.192083
0.613733
-0.667348
0.336740
-0.033457
0.156065
0.664642
0.134002
0.149841
0.655659
-0.979492
-0.560451
-0.630448
0.161123
0.113730
0.180003
-1.140509
-0.744986
0.293849
-0.034019
-0.400160
-0.080752
-0.004439
0.056401
0.406900
0.347418
0.621828
-0.125313
0.200167
0.086996
0.183736
-0.275518
-0.314507
0.817101
-0.359050
-0.336847
-0.503051
-0.069853
-0.506558
0.629344
0.043787
-0.577039
-0.476324
-0.440330
-0.258626
-0.157411
0.475289
0.215861
0.253195
0.298739
0.679299
-0.174447
-0.001331
-0.549830
0.854083
0.202015
0.426187
-0.335686
0.394808
-0.266816
-0.242530
0.022339
-0.002960
-0.463944
-0.025902
-0.260651
-0.474963
0.577513
-0.222739
-0.412260
0.312370
-0.439065
-0.220692
-0.232415
0.113280
0.512768
-0.363702
-0.084848
-0.085540
0.683819
0.112838
-0.215844
0.155688
-0.015354
0.095702
-1.026704
-0.348608
0.129882
-0.430324
-0.930936
-0.162944
-0.076702
0.265600
0.526387
-0.036740
-0.039459
-0.180330
0.146854
-0.047051
-0.280764
0.141617
-0.141584
-0.269398
0.554192
0.480597
-0.269280
-0.242322
-0.389289
-0.175857
0.413194
0.273210
0.080422
-0.345004
-0.110855
-0.161334
0.348305
0.058451
-0.029448
-0.358699
-0.140574
-0.317945
-0.016251
0.107550
0.763257
-1.159716
-0.385077
0.214668
0.725170
0.108654
-0.909376
0.077133
-0.247939
-0.203905
-0.223428
-0.070830
-0.798925
-0.915857
-0.030245
-0.250465
-0.184556
-0.526385
0.093994
-0.321872
0.471410
-0.108395
0.396600
-0.192087
-0.477282
-0.431882
-0.420796
-0.740640
-0.114822
0.068270
-0.156417
-0.323372
-0.225871
0.370841
0.042913
0.226025
-0.322318
0.051177
-0.255832
0.014099
-0.351427
-0.023957
-0.558408
-0.380317
-0.468030
0.231429
-0.619560
-0.430704
0.184068
0.202822
-0.001025
-0.628341
-0.785338
-0.296445
-0.573102
-0.528762
-0.764972
0.552094
-0.503419
-0.169928
0.381508
0.676488
-0.010658
-0.842335
-0.032562
-0.227498
-0.065105
0.052103
-0.067027
0.192659
0.461486
-0.286508
-0.097376
0.017700
-0.838267
-0.277053
-0.528446
-0.308848
-0.141148
-0.045444
0.627860
-0.472856
-0.156024
0.225113
-0.408367
-0.312403
0.269217
0.108840
-0.987863
-0.626222
-0.309675
0.322113
0.328012
-0.168457
0.783938
-0.518879
0.297886
-0.127250
-0.254776
0.255718
-0.129723
0.074408
0.209862
-0.263383
-0.136676
0.268144
0.403511
-0.163738
0.388587
0.006239
-0.253532
0.353968
-0.128822
0.707628
-0.421592
0.167902
0.108680
0.618664
-0.512818
0.181598
-0.646433
0.138108
0.695379
0.321085
-0.697092
0.315905
-0.550025
0.351884
-0.626957
0.484427
-0.098054
-0.008213
-0.252726
-0.341896
0.176256
-0.590561
-0.254273
0.376785
-0.541460
-0.264858
-0.045244
-0.091653
0.476027
0.358060
-0.246866
0.720381
-0.580460
0.196840
-0.013375
-0.505991
0.309878
0.468205
0.244937
0.458714
0.440750
-0.020733
-0.626812
0.025344
-0.329215
-0.322969
-0.798516
-0.186667
0.260169
-0.433500
0.011961
-0.201673
-0.419794
-0.290070
0.308076
0.597929
-0.299467
0.170812
-0.007321
-0.433619
0.155428
0.154976
-0.242681
0.491687
0.035324
-1.016355
0.090711
0.132342
-0.167744
-0.539045
0.111238
0.446979
-0.303387
0.360703
0.460902
-0.576706
-0.072433
0.613272
0.270441
0.259030
0.006698
0.176011
-0.278656
0.337356
-0.134741
0.010865
-0.031437
0.086463
-0.304594
-0.462698
-0.389076
-0.255103
-0.066022
0.432308
-0.398404
0.205076
-0.154397
-0.139843
-0.950408
0.370696
0.531686
-0.038818
0.490089
-0.163502
0.545938
0.626936
0.463942
-0.088910
-0.179029
0.207328
-0.175166
-0.675489
-0.431677
-0.339447
-0.694360
0.584135
0.483639
-0.445611
-0.002233
0.508952
-0.085346
-0.244498
-0.345560
0.317107
-0.299426
0.052533
-0.370461
-0.107559
0.789897
0.299622
-0.425040
-0.140260
0.213341
-0.040497
-0.099202
-0.037932
0.036707
-0.853930
0.369066
-0.057077
1.066905
-0.430716
-0.218914
-0.431767
0.360972
0.434135
-0.441213
-0.699650
-0.246730
0.095494
0.431654
0.541884
-0.280915
-0.177833
0.293135
0.181207
-0.401635
0.130038
0.109261
-0.425671
-1.319385
-0.045689
-0.217437
0.189167
0.402925
0.102189
0.508750
-0.054508
0.234892
0.005420
-0.162930
-0.313077
-0.075035
-0.555613
0.519976
-0.495321
0.462899
-0.243162
-0.101529
0.154832
0.553525
0.140609
0.141817
-0.263368
-0.335291
-0.109157
0.221837
-0.689100
0.277971
0.563551
0.369983
0.480752
-0.154505
-0.294026
0.258262
-0.235852
0.190869
-0.851699
0.096827
0.113227
-0.038556
0.395349
0.323083
-0.731963
-0.265325
-0.338173
-0.232439
0.199220
0.649102
-0.651761
0.533803
-0.353938
0.019083
0.129054
-0.090578
0.098879
-0.727742
0.649726
0.183244
-0.100766
-0.114191
0.358710
-0.790653
-0.943961
-0.150306
0.123872
0.796643
-0.440030
-0.197350
0.488719
-0.051590
-0.010355
0.035263
-0.364899
0.402802
0.079609
0.378961
0.091811
-0.638726
-0.630932
-0.077243
0.246123
0.128062
0.511305
-0.343910
-0.162819
0.357393
0.138120
-0.032744
-0.268682
0.582384
-0.084149
-0.209895
-0.489137
-0.169744
-0.437097
-0.144635
-0.570619
-0.044874
-0.254453
0.319473
-0.569101
0.704691
0.171937
0.093970
-0.649220
0.499171
0.099381
-0.038034
-0.269294
-0.134213
0.305446
0.658804
-0.050723
0.472481
-0.524208
-0.696780
-0.252185
-0.325050
0.244812
-0.205432
0.493156
-0.394702
0.492464
0.655421
-0.185688
-0.397216
0.543033
0.391104
0.076051
-0.969082
0.557422
-0.339748
-0.776637
0.532877
0.575377
-0.224466
0.192203
-0.754321
0.410459
0.161459
-1.027670
0.281229
0.175736
0.342284
0.018158
0.101206
-0.280248
0.143717
-0.286211
-0.603641
0.104746
0.240074
0.255507
-0.296853
-0.371099
-0.180073
-0.136174
0.308377
-0.449150
0.476230
0.208520
-0.375932
-0.269897
-0.373947
-0.504455
-0.011799
0.262263
-0.053491
0.193015
-0.916234
0.201026
0.179157
-0.089516
-0.518894
-0.904876
0.436671
-0.048185
-0.054040
0.373192
-0.310512
0.126947
0.518656
-0.549768
0.245518
0.169577
-0.534564
0.730693
-0.095520
-0.556269
-0.043162
-0.237075
-0.156299
0.197990
0.042395
0.671110
-0.392993
-0.713423
0.081418
-0.290000
-0.008323
-0.724846
-0.096937
-0.047781
0.216899
-0.021605
0.476820
0.073075
0.247079
0.289328
0.265554
0.268050
0.654885
-0.157557
0.726759
-0.147300
0.832044
-0.081421
-0.084027
-0.058678
0.373470
-0.177543
0.063203
-0.079568
-0.016882
0.008088
-0.968055
0.074319
-0.107156
-0.191672
0.281798
0.810975
0.383965
-0.479517
0.060308
-0.168698
-0.203378
0.458580
-0.397506
-0.784734
0.135712
0.764567
-0.214448
0.524358
-0.429616
-0.815407
-0.484800
-0.559173
-0.143491
0.162732
0.226430
0.212422
-0.070512
-0.186799
-0.373181
-0.407356
0.069949
0.413992
-0.141657
0.297847
-0.098688
0.516727
-0.580353
0.314288
0.980707
-0.205594
-0.232674
-0.899645
-0.457854
-0.568520
0.134831
-0.258884
0.219811
0.063326
-0.103360
-0.682058
-0.021141
-0.279311
-0.032077
0.459061
-0.655944
0.041774
-0.108583
-0.201244
-0.186858
-0.693516
0.785191
-0.123460
-0.206622
-0.898117
-0.329297
0.198865
0.761818
1.216240
-0.365496
0.514450
0.042776
0.228391
0.153916
0.183661
-0.432847
-0.292597
0.102530
-0.406724
0.367918
0.446079
-0.191431
0.045851
-0.839922
-0.460516
0.335367
0.129739
0.405962
-0.457899
0.050468
0.340125
0.326061
0.484756
-0.287202
0.008871
0.450727
0.663831
0.104979
-0.038604
0.431266
-0.220677
0.870445
0.755066
0.269525
0.432802
-0.336257
-0.259990
-0.060442
0.647312
-0.083357
-0.070215
0.199080
0.307105
-0.486480
0.076979
0.496756
-0.225375
-0.257967
-0.190737
-0.165128
0.219772
-0.589125
-0.328858
0.056416
-0.027628
0.094452
0.294774
0.182124
-0.102785
0.305732
0.571165
-0.041568
-0.270269
0.274485
0.379030
-0.159642
0.097959
0.249200
0.423887
-0.401376
0.562039
0.176401
-0.632461
-0.537036
0.352863
-0.336324
0.554798
-0.073547
0.606404
0.009082
-0.405172
-0.255053
0.354823
-0.773706
-0.581049
0.758716
0.238186
-0.461946
0.602551
0.045042
0.221756
-0.028297
0.065083
0.352279
0.082980
0.383337
-0.418735
0.400265
-0.279897
0.297551
0.136348
-0.500859
0.305454
0.062954
-0.507238
0.248765
-0.185964
0.338900
0.143955
0.407328
0.440917
0.032984
0.052932
-0.490428
-0.078103
-0.351861
-0.217590
-0.169016
-0.199645
0.179466
0.110495
-0.583935
0.193274
0.378403
0.197173
0.061748
0.989654
-0.458756
0.713572
0.581846
0.239299
0.245429
-0.184159
-0.239913
-0.502238
-0.173969
-0.415780
-0.029375
-0.062082
-0.211808
0.048088
-0.232587
-0.165883
-0.128248
-0.359958
0.167970
-0.236266
-0.578057
-0.341768
-0.155151
-0.524399
-0.601578
-0.163589
-0.498802
0.679744
-0.416624
0.590768
-0.203341
-0.130950
0.297122
-0.551248
-0.533168
-0.435413
0.290860
-0.605377
-0.418950
0.620908
0.194332
-0.185382
0.046531
0.775223
-0.085872
-0.286993
-0.725360
-0.224011
0.332210
0.155473
0.181705
0.224790
-0.643266
-0.190148
0.307274
-0.180990
0.321466
-0.466776
0.466952
-0.353827
-0.425281
-0.128039
0.450981
-0.308834
-0.170826
-0.360430
0.204324
0.051872
-0.690439
-0.266214
-0.909933
0.568737
-0.059869
0.426351
-0.145026
-0.707605
0.352603
0.228788
-0.690400
-0.014664
-1.018409
-0.756793
0.724596
-0.579887
0.363057
0.443087
0.002266
-0.656697
-0.514794
0.236080
-0.594003
-0.102127
-0.603268
0.100919
-0.023257
0.326839
-0.312889
-0.591859
-0.672003
0.032085
0.474115
-0.576419
-0.205038
0.359054
0.239547
-0.357031
-0.122063
-0.012773
-0.448884
0.086511
0.098943
0.550505
0.090954
0.548245
0.444031
-0.303763
-0.265890
0.625569
0.284113
-0.857445
0.350403
0.188013
0.514994
-0.220628
0.406549
0.605455
-0.485615
-0.177248
0.238890
0.150238
-0.091677
0.400374
-0.639544
0.048043
0.354399
0.628264
0.666604
-0.874417
-0.747044
-0.604568
-0.073821
0.069233
0.664467
0.213111
-0.537344
-0.340724
-0.290191
0.281926
-0.034196
-0.058523
-0.338507
0.022090
0.360891
-0.449188
-0.529570
-0.342301
-0.164005
-0.230573
0.585935
0.463895
0.171746
0.479397
0.436081
-0.251247
0.537285
-0.406912
-0.331875
0.484946
0.067635
-0.019410
-0.106011
-0.328438
0.146020
0.782870
0.323280
-0.340469
0.057746
-0.233400
0.229124
-0.153411
-0.400104
-0.308158
-0.013735
-0.586903
-0.056281
-0.004944
-0.303669
0.455962
0.385438
-0.355697
-0.086899
0.116619
-0.387410
-0.082296
0.195605
-0.069408
0.439506
-0.203236
-0.341484
-0.364017
0.096776
-0.793208
0.752986
-0.256572
0.062125
0.209518
0.027687
-0.063254
-0.157015
0.214249
-0.507048
0.304200
0.151198
-0.411189
0.048351
0.234146
0.180345
0.121063
-0.431234
0.362972
0.478907
0.819219
0.363862
0.346305
0.177221
-0.473381
-0.384610
0.280842
-0.306081
-0.352819
-0.517090
0.198452
0.670108
0.742155
-0.124682
0.424626
0.232911
0.055034
0.698859
0.133590
-0.228919
-0.488893
0.541246
0.266761
0.557003
0.092888
0.070702
0.375047
1.063445
0.552503
-0.005228
0.259429
-0.249802
0.114495
-0.047283
-0.480994
0.183610
0.256351
0.358844
-0.225626
-0.194488
0.018918
-0.300011
0.000489
-0.239682
0.510170
-0.380851
0.402436
0.180800
0.441372
-0.257395
0.086161
-0.768634
0.459017
-0.598832
-0.720637
-0.088161
0.385367
-0.011964
-0.251171
-0.434193
-0.190687
-0.248462
0.343896
0.159645
-0.369976
-0.380483
0.304178
0.687409
-0.077402
0.851868
-0.151641
0.030242
0.332693
0.507102
-0.169264
0.123162
-1.025971
0.012893
-0.690478
0.607542
0.658666
0.419662
-0.049930
0.264298
-0.346857
0.786868
0.670265
0.742427
0.130378
0.556039
0.074461
0.022243
1.101022
-0.705027
-0.247074
-0.040850
0.341682
0.094130
0.564850
0.676757
0.004167
-0.236238
-0.457921
0.311172
0.360217
-0.015657
-0.060778
-0.237691
-0.541741
-0.013655
0.677586
-0.398673
0.198383
0.845802
0.197004
-0.490207
0.060693
-0.379468
-0.010535
-0.003114
-0.078458
0.119943
0.184855
0.400029
0.165718
-0.540615
-0.288147
-0.292324
-0.178135
-0.398924
-0.427224
0.004915
0.467794
-0.302465
-0.758049
0.259111
0.076797
-0.003540
0.184751
-0.091440
0.493238
-0.390014
-0.515278
0.004325
0.086822
0.112769
0.281962
-0.883523
-0.247344
0.415203
-0.242629
0.529500
-0.032071
0.421783
-0.359787
0.864764
-0.233721
0.243826
0.385149
0.042855
-0.160185
0.164676
-0.220048
-0.321959
-0.011905
0.108510
0.028624
0.307412
-0.192604
-0.850421
0.354156
-0.153677
0.204045
0.572734
-0.685447
0.195752
-0.370893
-0.124638
0.677716
0.163286
-0.114261
0.802347
-0.046171
0.136729
0.190791
-0.295016
-0.168321
0.345508
0.122933
0.122734
0.123520
0.277560
-0.208610
-0.086021
-0.083666
-0.093297
-0.644590
0.516719
0.203100
-0.605195
-0.233255
-0.410618
0.865167
0.345933
0.551946
-0.220842
-0.353980
-0.579838
-0.427383
0.223394
-0.522838
0.072089
0.275601
-0.597407
-0.020168
0.387583
0.729335
0.031094
-0.199457
0.910866
-0.417255
0.042206
-0.525077
0.237788
0.554803
-0.057929
-0.015150
-0.226691
0.347474
-0.229040
0.650953
-0.508343
-0.240140
-0.202274
0.381169
-0.148621
0.105178
-0.242725
-0.974139
-0.157446
0.301351
-0.126995
-0.111875
0.067670
0.134963
0.048279
0.227790
0.563691
0.682913
0.281305
-0.602109
-0.118758
0.244463
-0.668797
0.065472
-0.302031
-0.112828
0.075401
0.346327
-0.529526
-0.083955
-0.318892
-0.872191
1.117277
0.092379
-0.343949
0.597542
0.249056
-0.061408
-0.224686
-0.731004
-0.383402
-0.484196
0.151197
-0.355288
-0.377053
0.679690
0.299162
-0.009558
0.157530
-0.054075
-0.059747
-0.254189
-0.558531
-0.428653
0.197151
0.549126
-0.007010
0.378926
0.161307
-0.364674
0.389343
-0.439236
-0.565703
-0.132738
0.241171
-0.234989
-0.455302
0.416672
-0.206430
0.082384
0.059159
-0.239318
-0.676291
0.557070
0.331079
-0.247709
0.258344
-0.221711
-0.250829
-0.634255
-0.342320
-0.017184
-0.514513
0.390662
0.281309
0.379275
-0.078890
0.906859
0.006363
0.229138
-0.554516
-0.562536
-0.156269
0.938169
0.355457
-0.249085
-0.421436
-0.646210
0.147767
0.222331
-0.793025
0.200870
-0.463879
-0.433472
-0.609441
-0.144977
0.451756
-0.253282
-0.291483
0.237425
-0.355971
0.803405
-0.078861
0.341939
0.116650
-0.212034
0.191694
-0.093848
0.148043
-0.254108
-0.428662
-0.046974
-0.458610
0.009129
-0.363899
0.494710
0.070065
-0.145084
-0.004796
0.387687
0.383980
-0.072505
-0.252863
-0.258016
-0.366220
0.354443
-0.136989
-0.161478
0.131485
0.543211
-0.484030
0.739481
0.287625
-0.454080
0.476733
0.252168
0.122378
-0.141649
0.744824
0.314256
-0.701406
-0.321382
-0.390336
0.565641
-0.656188
-0.693872
0.122490
0.060580
-0.720615
0.190645
-0.435442
0.396277
0.566052
0.169320
0.088761
-0.688955
0.369788
0.133923
-0.976275
-0.038245
-0.213356
0.261954
-0.101728
0.335324
-0.554310
0.023464
-1.185018
-0.061680
0.093466
-0.442086
0.545601
-0.516739
-0.376963
0.676735
0.574466
-0.402439
-0.218259
-0.070810
0.447384
-0.081008
0.111554
0.405716
-0.065100
0.349787
0.142278
0.002574
0.339098
-0.680422
-0.272089
-0.245299
-0.262852
-0.015704
0.668488
0.161719
0.302679
0.385136
-0.677457
0.416302
1.122055
-0.130136
-0.098540
0.280023
0.956908
-0.272625
-0.221933
-0.489592
0.372247
0.235888
-0.411938
0.125130
1.531065
-0.445753
0.365137
-0.838659
0.616271
0.329538
0.191444
-0.400824
0.037954
-0.034069
-0.440114
0.378060
0.209579
-0.009949
-0.134965
0.459437
-0.005695
0.323399
0.488399
0.247361
-0.249789
0.165964
0.856973
-0.311559
-0.723348
-0.638690
-0.794580
0.069062
0.486665
0.107506
0.444166
-0.059217
-0.274124
0.323896
0.187516
-0.559507
-0.389686
-0.287101
-0.294452
-0.024014
-0.582458
-0.235686
-0.107044
-0.004416
-0.678866
0.439619
-0.451667
-0.912376
0.560748
-0.346321
0.212866
0.052281
0.651988
0.373677
-0.398221
-0.463668
0.063386
0.992579
-0.515457
0.088779
-0.005768
0.659308
0.373359
0.023972
0.001863
0.003219
0.215941
0.179765
-0.960128
-0.409682
0.399097
0.360512
-0.612650
-0.230334
-0.060824
-0.905853
-0.008264
-0.199696
-0.028550
-0.287699
-0.158974
-0.059942
-0.190546
-0.165122
-0.296160
0.730895
-0.089226
0.445916
-0.112955
-0.815052
-0.767497
0.271108
-0.138762
-0.384026
0.698496
-0.390700
-0.081492
0.628444
-0.102901
-0.043664
-0.313339
-0.044776
0.002595
0.204002
-0.204706
-0.015861
-0.289286
0.573445
-0.111972
0.086474
0.075115
-0.307051
0.305212
-0.154313
0.217316
-0.384960
-0.264128
0.539792
-0.413992
-0.603512
0.119730
0.001624
-0.164738
0.158870
0.509199
0.290078
0.102852
0.207563
-0.297207
-0.129778
0.501334
-0.129767
0.283012
0.212309
0.530087
-0.085095
-0.431310
0.091421
-0.374064
0.812519
-0.195347
0.576819
0.194828
0.140648
0.099994
0.153542
0.196860
-0.727698
0.118733
-0.681609
0.042293
0.173549
0.626668
-0.325488
-0.226658
-0.196031
0.111206
-0.073485
-0.593229
-0.662506
0.080497
0.131214
-0.284998
-0.094992
-0.108061
-0.306065
0.350248
-0.036002
0.531902
-0.432431
0.350792
-0.060332
0.666947
0.311030
0.701863
-0.447172
-0.563019
0.371009
-0.573928
0.648421
0.380895
0.282214
0.220095
-0.136082
0.183998
0.119897
-0.421317
0.510392
0.078834
-0.328802
-0.126591
0.098156
-0.249752
0.321030
0.109521
0.287511
0.027130
-0.154066
-0.080400
0.118523
-0.892543
0.039117
0.132880
-0.194714
-0.043811
-0.457821
-0.126514
-0.263477
0.098923
0.144346
0.469765
0.212675
-0.343645
0.354216
-0.092312
-0.029962
-0.025019
-0.355281
-0.031553
0.053125
0.371402
-0.103527
-0.007655
0.335820
-0.198172
-0.340454
-0.424031
0.639842
-0.162003
0.114975
-0.052007
-0.266866
0.455460
-0.043257
-0.082623
-0.229187
0.038428
-0.579953
-0.217784
0.461835
0.212195
-0.280547
-0.312345
0.541587
-0.551042
-0.344860
0.007153
0.418540
0.187813
-0.628417
0.119005
0.057425
0.439252
-0.321859
0.399197
0.241377
0.229286
0.127143
0.175909
0.217796
-0.573655
-0.392712
0.509597
-0.181871
0.018060
0.388485
-0.006120
-0.326114
-0.242796
0.062960
0.230039
0.143855
-0.068240
-0.438783
-0.075235
-0.525588
0.534588
0.041626
0.677862
0.354378
-0.245652
-0.318232
-0.034825
0.110234
0.260152
-0.219642
0.517233
0.348996
0.304014
0.367789
-0.299000
-0.198560
0.675496
-0.110526
-0.242732
-0.122698
-0.622360
0.037060
-0.047217
-0.759427
0.323475
-0.346046
0.198307
-0.169794
-0.133121
0.405128
-0.212822
-0.165436
-0.518218
0.230992
-0.079849
-0.114981
0.426579
-0.089635
-0.227590
0.442116
-0.232467
0.454756
0.235706
0.296758
0.392160
-0.126206
-0.332759
-0.046575
0.628793
-0.225931
-0.068862
-0.484078
0.317985
0.078935
-0.014226
0.432856
-0.022200
-0.213036
-0.188143
-0.511719
-0.225185
-0.328888
0.331075
-0.088793
0.434601
-0.283603
-0.276448
-0.409051
-0.388487
-0.479833
-0.330461
-0.388416
0.320229
0.704815
0.053021
0.182649
-0.349770
-0.369602
-0.253362
0.640101
0.380676
0.070285
0.709816
0.612182
0.620705
0.157792
0.400723
-0.530645
-0.169327
-0.058189
-0.831182
-0.479511
0.157333
-0.353446
-0.098115
0.071660
0.604277
-0.424186
0.308141
0.102214
-0.153825
0.021430
-0.435295
-0.170396
-0.376141
-0.308875
0.262218
-0.139354
-0.295756
0.012456
-0.164962
0.132451
0.176696
-0.581533
-0.354941
0.346238
0.062672
-0.557447
-0.683561
0.074177
-0.195953
0.290489
0.200859
-0.175869
0.470455
-0.432099
1.041608
0.140355
0.148869
0.153554
0.032543
0.637929
0.167500
-0.590574
-0.940266
-0.195219
-0.568061
-0.139519
-0.230290
-0.611722
-0.011236
0.691465
0.382253
-0.456491
-0.806675
-0.137970
0.443928
-0.038773
-0.829277
0.385338
0.212216
0.037467
-0.302567
0.460242
-0.293052
-0.383867
-0.131491
-0.563879
0.346411
0.325674
0.104683
0.147673
-0.481441
-0.078468
-0.314749
-0.677743
0.145550
0.523308
0.539004
-0.009776
-0.095689
0.504430
0.364321
-0.274974
-0.505100
-0.145290
-0.046779
-0.076865
-0.198512
-0.105520
0.902990
-0.118059
0.340877
-0.082515
-0.250719
0.386673
0.589051
-0.084947
0.313916
0.551811
0.568820
-0.221152
-0.193333
-0.286769
-0.033703
0.124005
0.597622
-0.498569
-0.236128
1.030241
-0.223118
-0.002581
0.275645
-0.002625
0.550683
0.091616
0.017142
0.430824
-0.042954
-0.475852
-0.811971
-0.636004
0.255878
0.210663
0.223133
0.346375
-0.062648
-0.500013
-0.175552
0.279357
-0.181434
0.736912
0.381196
0.104060
0.994041
-0.119803
-0.213294
0.470946
-0.183645
-0.082719
0.225862
-0.230984
-0.460374
0.470490
-0.669005
0.020095
0.870170
0.803103
-0.356291
-0.066088
-0.222143
-0.265446
-0.122386
0.280127
-0.079439
-0.097250
-0.369207
-0.135238
0.151084
-0.696182
0.212015
0.140301
0.130549
-0.223402
-0.233160
0.067416
-0.216618
-0.227120
-0.757483
0.088014
-0.096404
-0.484003
0.035982
0.028522
0.252840
-0.006085
-0.038589
0.901087
0.369287
-0.366145
0.059482
0.341634
-0.847387
0.277074
-0.322222
-0.656238
-0.731567
-1.243851
-0.277437
-0.940956
0.627752
-0.614243
0.298786
-0.433669
0.354661
-0.676956
0.393184
-0.759364
0.245891
-0.019167
-0.046265
0.146164
0.099109
0.207626
-0.182943
0.294879
0.199538
0.078080
-1.098922
-0.175375
0.174900
0.573144
0.033993
-0.065638
-0.169006
-0.420953
0.327920
-0.574708
0.153872
0.509323
-0.233292
-0.356625
0.025485
-0.467020
0.243289
0.583447
0.554561
-0.257042
-0.438214
-0.148456
-0.536386
-0.171314
0.201806
0.079042
-0.378554
-0.156224
0.355855
0.613883
0.229572
-0.169798
-0.620610
-0.160662
-0.163224
0.863971
0.111267
-0.094446
-0.051363
0.083951
0.336443
-0.043401
0.013123
0.001487
0.652739
0.641654
0.208486
-0.652729
0.296048
-0.073739
0.401453
0.422851
-0.256895
-0.715896
0.364381
-0.472945
0.458843
0.129445
-0.292213
0.312322
0.022103
0.610686
0.557602
-0.454232
-0.907560
-0.176640
0.790648
0.068460
-0.111244
0.204064
-0.450643
-0.156794
0.313536
-0.324257
-0.232932
0.430880
-0.412275
-0.718365
0.337271
1.120216
0.525608
0.354041
-0.110947
0.598531
0.198367
-0.317732
0.205412
0.541146
0.700763
0.050761
0.152400
-0.036676
0.274652
-0.000911
-0.342533
-0.160032
0.568504
-0.144404
-0.632142
-0.135267
0.618939
-0.877185
-0.006502
0.461340
-0.369604
0.566994
-0.118233
-0.656679
-0.489464
-0.237666
-0.050421
-0.630189
0.215461
-0.085076
-0.502616
0.462737
0.607302
-0.604992
0.166325
-0.122359
-0.104172
-0.129177
0.713654
-0.223634
-0.713977
0.299268
0.115327
-0.506565
-0.343981
0.053423
-0.120964
-0.012988
-0.221974
0.117239
-0.850750
-0.547910
0.114743
-0.262945
-0.011961
-0.327890
0.112199
-0.569100
0.261818
0.205420
-0.513052
-0.269556
-0.534946
-0.110221
-0.183523
-0.388917
-0.175327
0.313452
-0.616070
-0.063375
-0.485244
0.146551
0.760126
-0.364940
-0.250191
-0.354582
0.127685
-0.435935
0.253084
-0.194232
0.160796
0.419882
-0.147477
0.165752
0.478058
0.244489
-0.374883
0.411996
0.226477
-0.171509
0.406294
0.745667
0.081992
-0.068334
0.010161
0.179948
-0.199916
-0.179144
-0.514684
0.057432
0.344990
0.399564
0.317691
0.095882
0.379246
-0.199084
-0.596679
-0.034909
0.395703
0.452083
0.401399
-0.144851
-0.696522
0.275240
1.151428
-0.255296
0.217793
-0.804122
0.556053
0.017695
-0.130229
-0.231066
0.300095
0.061371
-0.664730
-0.770369
0.273014
-0.097269
0.466998
-0.002063
0.616597
0.519944
0.275886
-0.059673
0.125798
-0.238324
0.084341
-0.118844
-0.932464
-0.550676
-0.410620
-0.268870
-0.054231
0.335377
-0.272658
-0.326713
0.225537
0.336921
-0.007550
-0.763486
-0.299956
0.563618
0.207106
0.039722
-0.008841
-0.564692
-0.112577
-0.319675
-0.639147
-0.808236
-0.226443
0.151913
1.164683
0.042144
-0.261869
0.669881
0.249792
-0.704552
-0.579222
0.183606
0.067731
-0.072359
0.625492
0.341548
0.672839
0.236747
-0.049596
-0.062372
-0.128208
0.126354
0.462180
-0.253463
-0.450161
0.185502
-0.450992
0.241742
0.596511
-0.438989
-0.293993
1.040194
0.876223
0.776065
0.131131
-0.674670
-0.063105
-0.012178
-0.042393
-0.250818
-0.011929
0.190353
-0.434011
-0.738025
-0.280928
-0.233810
0.670440
-0.396466
0.400548
-0.229900
0.030775
-0.519936
0.254519
-0.303592
0.474287
0.004086
0.336263
-0.340375
0.260372
0.343651
0.107213
0.577043
0.145045
0.301611
-0.258080
0.628831
-0.523910
0.586577
0.260074
0.383858
-0.280599
-0.718977
0.538408
-0.161105
-0.152661
0.615302
-0.611431
0.010839
-0.330610
0.186976
0.018422
-0.460979
-0.403487
0.440261
0.058285
0.257070
-0.086199
0.001483
-0.079020
-0.099078
-0.254881
-0.949068
0.163310
0.040987
-0.153458
-0.029679
-0.273251
0.061072
0.559853
-0.254872
-0.142608
-0.644002
-0.327702
0.467868
0.431870
-0.294721
0.381227
0.182988
-1.177650
-0.006634
-0.001976
0.029727
0.096334
-0.333427
0.180624
-0.242162
-0.447366
-0.490664
-0.759924
0.394647
-0.011335
-0.014780
0.713881
-0.281215
-0.193456
-0.728136
0.848028
-0.097054
0.046119
0.103673
0.234026
-0.099577
0.410671
-0.510903
-0.439598
0.265962
-0.304061
-0.025707
0.604110
0.015398
-0.301839
0.068700
0.758519
-0.126307
-0.176936
0.148794
-0.121620
-0.090529
-0.684611
-0.747362
0.046003
0.409531
-0.029520
0.113903
-0.929543
-0.528851
0.094223
-0.333848
0.350747
1.086435
-0.327184
0.156311
0.732872
0.676814
0.238891
-0.522385
0.512314
0.126678
0.147140
-0.537791
1.295354
0.035698
-0.087315
-0.249678
0.395141
0.181659
0.116483
0.178523
-0.286566
0.418279
-0.307074
-0.275756
-0.068327
-0.129802
0.322008
0.656838
0.134566
0.972148
-0.187986
0.459225
-0.166846
-0.709794
-0.044842
-0.319871
0.081320
-0.088866
0.082917
0.541662
0.278101
-0.023228
0.202070
0.555905
0.384521
-0.240679
-0.167658
-0.197419
-0.545018
0.614375
-0.487451
0.383066
-0.890896
0.705967
0.201541
-0.186959
-0.200457
-0.388832
-0.052682
-0.520981
0.058554
0.157120
-0.549412
0.101269
0.087000
-0.140999
-0.053581
0.580000
-0.493115
-0.895343
-0.350380
0.003486
-0.374896
-0.088626
-0.464652
-0.358213
0.524806
-0.992186
-0.042272
0.037657
-0.271281
0.499895
0.592974
0.434309
0.469323
-0.209011
0.178502
-0.306307
0.535342
0.076966
-0.490958
-0.221601
0.088256
0.413928
0.168758
0.077919
-0.278764
0.305119
-0.115270
-0.808969
-0.088584
-0.286960
-0.602262
-0.195607
0.619209
0.084772
0.182441
-0.593776
-0.006264
0.065629
0.012453
-0.445175
0.636690
0.023552
-0.009522
-0.282374
0.026695
0.339742
0.233053
0.385399
0.611393
-0.211439
-0.126442
0.869968
-0.010835
0.313592
-0.281258
-0.066253
-0.217394
0.606084
-0.070735
0.245220
-0.059064
0.165428
0.157721
0.470317
-0.028000
0.631750
-0.283727
0.319374
0.100426
0.082722
-0.322280
0.390916
-0.384170
-0.446231
-0.188154
0.353318
-0.292825
0.131266
-0.121307
-0.340096
0.104624
-0.141235
-0.405243
-0.437610
-0.136782
0.114060
0.458990
-0.200781
0.316746
0.219536
0.243046
0.379693
-0.634354
-0.210279
-0.122397
0.070012
0.978208
-0.077126
-0.650154
0.135317
0.704552
0.423654
0.472641
0.628003
-0.126068
-0.722547
0.097622
-0.759341
0.506349
1.022762
0.781953
0.052291
0.447523
0.394262
0.471767
-0.381520
0.375230
0.081049
-0.294864
-0.101976
0.223749
0.315406
-0.337177
-0.274879
0.339978
-0.094232
-0.056371
0.499413
-0.433769
-0.227847
-0.015925
0.708887
-0.413702
0.219106
-0.044983
0.013264
0.533504
-0.300376
-0.095973
0.223952
0.249262
0.121122
0.073819
0.083171
0.339959
-0.446398
-0.480044
0.495311
-0.765017
0.439762
0.792516
0.415739
0.373770
-0.847897
0.094168
-0.246125
0.850660
-0.221898
-0.319394
-0.804908
0.559557
0.256788
0.355537
0.708808
-0.390270
-0.360524
-1.108406
-0.364225
0.010513
0.144381
-0.216192
0.278974
-0.113300
0.261440
0.566975
-0.329469
-0.102599
-0.045050
-0.383736
-0.256373
-0.355406
0.010820
-0.900257
-0.533983
0.646433
0.080433
-0.085603
-0.207296
0.119369
-0.213639
0.244637
-0.300508
0.556904
-0.138934
-0.110748
0.126188
0.295580
-0.386780
-0.195943
-0.503837
0.292298
-0.121763
0.066841
-0.157840
0.594520
0.041013
0.276103
-0.619918
0.133817
0.982098
0.215046
-0.335715
-0.725833
-0.494361
-0.156828
-0.122806
-0.395689
0.113638
0.250074
-0.315282
0.275176
-0.378579
0.138568
-0.373261
0.895038
-0.365467
0.157771
-0.025641
0.771712
0.071877
-0.055887
-0.615437
-0.350644
-0.381425
-0.298724
-0.059028
0.478991
0.195135
-0.163438
0.290691
0.594538
-0.433774
-0.493080
0.158087
0.076304
-0.234212
0.658195
0.173776
-0.589246
0.647812
-0.044299
0.587798
-0.013500
-0.462049
0.061660
-0.195066
-0.090789
-0.716538
0.572378
0.450036
0.381751
0.717783
1.049474
0.103564
0.762243
0.999758
-0.529005
0.023748
0.150168
0.191568
0.231170
-0.094360
0.396324
0.295054
-0.104505
0.365329
-0.708280
-0.469849
-0.514670
0.825713
0.323347
0.348982
-0.521934
0.037910
-0.220078
-0.053773
0.287049
-0.253479
0.424744
0.280234
-0.151681
-0.145282
0.678440
0.583978
0.041859
0.022636
0.326044
0.504755
0.065270
-0.063575
0.006333
-0.189415
-0.012802
0.174846
0.146184
-0.007139
-0.060326
-0.241311
0.137237
0.020725
1.001479
0.917517
0.534398
-0.302659
-0.297053
-0.313588
0.114304
0.095971
0.835336
0.174178
-0.860363
-0.631485
0.244328
0.061538
-0.758446
-0.682590
-0.163367
0.071522
0.077705
-0.586487
-0.190869
0.061861
-0.228194
-0.024148
-0.252640
-0.133240
0.113744
-0.353535
0.107008
-0.321938
0.571970
0.074094
0.084875
-0.050676
-0.112191
-0.333996
-0.115011
-0.066761
-0.587107
-0.475522
0.370522
0.139471
-0.341039
-0.115726
0.096487
0.155501
-0.527975
0.285797
-0.407192
-0.667290
-0.627460
-0.328952
-0.573621
-0.536406
0.773927
-0.310422
-0.477661
-0.171008
-0.481289
-0.171831
0.158172
0.826969
0.411181
-0.037065
0.413606
-0.174513
-0.252585
0.406276
0.300307
-0.402781
-0.236245
-0.803368
0.185643
-0.051525
-0.392775
-0.405627
0.185516
-0.438626
-0.721818
-0.065222
-0.285006
0.154588
0.295981
0.437988
0.266492
0.195104
-0.609306
0.051842
-0.161530
-0.712539
0.086919
0.522770
-0.241383
0.045786
-0.036066
-0.664412
0.432165
0.422798
-0.251886
-0.076705
-0.041568
0.391603
0.145507
-0.759085
-0.367204
0.071889
-0.897340
0.404855
-0.392759
0.012688
-0.333966
0.683273
0.278025
-0.230337
-0.970871
0.084713
-0.214482
-0.590928
0.747407
-0.145944
-0.071307
-0.375915
0.314725
-0.777103
-0.145854
-0.046331
0.326220
-0.147356
0.030904
0.489015
0.497284
0.009073
0.574722
-0.011451
-0.428863
0.013345
0.364181
-0.924920
-0.403991
-0.087934
0.230096
0.453982
-0.141671
-0.363884
0.381492
-0.133354
-0.614325
0.142742
-0.678330
-0.577315
0.701487
0.469023
0.269233
-0.417981
-0.169387
0.213193
-0.107557
0.407286
0.390228
0.337447
0.729444
0.311326
-0.068557
-0.034737
-0.096948
-0.053009
0.473916
0.066498
0.070405
-0.386314
0.478139
0.283800
-0.367636
-0.398477
-0.427712
0.625686
-0.293443
0.387040
-0.363433
-0.765383
1.200429
-0.163438
-0.037191
0.182489
0.728738
0.522585
-0.540630
0.424449
0.194632
-0.180494
0.420352
-0.808407
-0.439901
0.356483
-0.261119
-0.349637
0.226749
-0.175833
0.292571
0.541461
-0.944807
-0.168027
0.230777
0.509042
-0.587723
-0.241733
-0.277571
0.335589
-0.719884
0.513874
0.031616
-0.200585
-0.271215
-0.686933
0.114214
-0.123032
-0.297001
-0.734399
-0.733098
-0.542086
-0.072979
0.206835
-0.208639
-0.249287
-0.309965
0.018754
0.240566
0.060599
-0.424156
-0.654995
-0.441372
-0.511306
-0.551761
-0.070483
0.494389
0.200662
-0.002488
0.253265
0.887170
0.433569
-0.383428
-0.326261
0.385745
-0.004386
-0.491811
-0.555770
0.168949
0.567623
0.016162
0.129480
-0.699087
0.341240
0.722666
-0.782955
0.016860
-0.697473
-0.268549
0.223794
0.145702
-0.338068
-0.314718
-0.121328
-0.355792
0.259204
0.345165
0.342106
-0.291696
0.624006
0.210571
-0.512468
0.522794
-0.284606
-0.099912
0.251167
-0.979070
0.198997
-0.239418
0.427764
-0.044767
0.117754
-0.288284
-0.671218
-0.355488
-0.193153
0.277694
0.415377
0.629798
0.173606
0.284739
-0.530562
-0.240943
0.123633
0.206767
0.113955
0.040776
0.045232
-0.151482
0.201922
-0.345408
0.318012
-0.229978
0.655222
0.073602
-0.609272
0.055237
0.035748
0.161963
-0.588565
-0.296062
0.138551
-0.060328
0.092594
0.281906
-0.307987
-0.288862
0.593896
-0.075945
0.418964
-0.138132
-0.421705
0.307252
0.978173
-0.560060
-0.061910
0.352089
-0.749315
0.842253
-0.093744
0.074318
0.249998
0.810169
-0.561611
0.010979
0.113491
0.011710
0.544614
-0.510999
0.193989
-0.027195
-0.239520
-0.617997
0.186304
0.557208
-0.207480
-0.226776
0.942928
0.278025
0.266460
0.553613
0.622011
0.119708
0.390104
0.625286
-0.454431
-0.449995
0.397564
-0.095259
0.094325
-0.012031
0.185004
0.170774
0.370622
0.236998
0.319598
-0.108791
-0.561647
-0.821789
-0.062741
-0.249371
-0.172992
0.038546
0.531290
-0.782222
-0.673628
0.400547
0.055526
1.100278
-0.228196
-0.136984
-0.136908
0.297398
0.169915
-0.810849
-0.303550
-0.436949
0.549796
0.056751
0.146035
-0.161534
0.009075
-0.293906
1.048105
-0.015592
0.467358
-0.110178
-0.685762
0.240838
0.390278
-0.011891
0.202517
-0.086108
-0.397939
-0.484979
-0.758135
0.377506
0.449596
-0.001108
-0.331194
0.626313
0.265571
0.740389
0.500265
0.518576
-0.180570
0.165174
-0.602159
0.044560
-0.146306
-0.299866
-0.112360
-0.553739
-0.025143
-0.056620
-0.797657
0.134817
-0.461368
-0.294645
-0.587686
0.077148
0.392340
0.604776
-0.257899
0.456586
-0.579722
0.015609
-0.309947
-0.131503
-0.446011
0.589400
0.328610
0.084894
-0.433605
0.270709
-0.527423
-1.135754
0.730060
-0.244270
0.315672
0.674745
-0.564390
0.002911
0.701779
0.015407
0.354422
0.230968
0.221918
-0.435569
0.303282
-0.400392
-0.035559
-0.237195
0.849563
-0.697782
-0.099853
0.091649
0.256265
0.024249
-0.056749
-0.235886
0.451240
0.229903
0.544116
-0.693942
0.026228
-0.393500
-0.139126
-0.188822
0.225419
0.043480
-0.680259
-0.300971
0.243218
0.207063
-0.212731
-0.782485
0.195738
-0.717003
-0.337075
0.303463
-0.408243
-0.150227
0.537814
-0.047115
0.020261
0.023552
-0.530062
-0.475227
1.049531
-0.099568
-0.346383
0.015250
0.659093
0.205237
-0.331281
-0.069240
-0.166811
0.031118
0.643717
0.654992
-0.319976
-0.055763
0.027478
0.232729
0.467240
0.724846
-0.610074
-0.285541
0.096820
-0.275181
0.228851
-0.513831
-0.263414
-0.265098
-0.240773
0.081623
0.303731
0.178775
-0.264120
1.386906
0.101554
-0.029444
-0.576676
-0.094539
0.304854
-0.068827
0.361154
0.169189
0.439115
0.511221
0.194463
-0.619530
-0.010695
-1.150953
-0.181931
0.423495
0.616850
-0.795825
-0.341209
-0.427465
0.881852
-0.601143
-0.538203
-0.180778
0.258360
-0.373235
-0.127268
-0.116581
-0.066729
-0.264932
-0.269123
-0.050230
-0.045327
0.015416
-0.204058
-0.569351
0.286811
0.786880
-0.135415
-0.605783
-0.225041
0.204826
-0.135048
-0.104626
0.022231
-0.137858
-0.103284
1.588156
-0.188975
0.431393
0.275139
0.164056
0.288982
-0.388923
0.317104
-0.080942
0.826562
0.210698
-0.578908
-0.130725
0.583945
-0.346019
-0.003217
-0.806244
-0.152712
-0.392829
0.743586
0.285192
-0.150506
-0.308406
0.320988
0.049358
-0.429476
0.474915
0.395463
-0.682922
-0.304158
-0.051884
-0.080461
-0.220174
-0.306282
-0.261691
0.041747
0.282566
-0.291120
-0.116999
0.305995
0.071774
0.270660
0.217594
0.192077
0.347424
-0.413561
-0.108141
0.196434
-0.510340
-0.939296
0.445658
0.085299
-0.079015
0.275025
0.100088
-0.206953
-0.145966
0.166224
-0.398516
-0.318198
-0.271001
-0.064993
-0.164463
-0.527186
0.069036
0.145678
0.113659
0.650159
0.153193
-0.236407
0.053488
0.415815
0.059718
-0.277234
0.018989
-0.245934
-0.578336
-0.185689
0.385224
0.344228
0.233050
0.003120
-0.173235
-0.335390
-0.436689
0.315455
-0.220934
-0.250615
-0.243824
0.027746
0.195084
0.431022
-0.012565
0.975128
0.387851
-0.480698
-0.543125
-0.400056
-0.267931
0.166430
-0.512229
0.223492
-0.039086
-0.369613
-0.373762
0.867811
0.655286
-0.427192
0.604852
-0.355269
0.031588
0.256447
0.039731
-0.126042
-0.855152
0.005408
0.064921
0.468898
1.017757
0.385667
0.773730
-0.817291
0.067066
0.275918
-0.433655
-0.522199
0.122071
0.013407
0.150684
-0.416140
0.097589
0.601408
-0.465355
0.585568
-0.031833
-0.389415
-0.459091
-1.018796
-0.164946
-0.501468
0.771751
-0.022498
-0.322607
0.133880
0.304307
0.098134
0.108802
-0.198099
-0.031267
-0.078634
-0.950372
-0.638891
0.890500
0.069641
-0.013458
0.386063
-0.423101
-0.051683
-0.489958
0.263411
-0.448997
0.545802
0.172506
-0.236052
-0.084875
0.707789
0.234047
0.014854
0.793091
0.614351
-0.395968
-0.325239
0.294304
-0.245554
0.037703
-0.868912
0.185817
1.288459
0.324031
-0.194957
0.091554
-0.021473
0.112032
-0.212921
0.572185
-0.596821
0.090583
0.201495
-0.461023
-0.095382
-0.290557
-0.384465
-0.144666
0.063982
0.360559
0.922757
0.620698
0.222043
-0.222059
0.013923
-0.143429
0.114597
-0.459780
0.200313
0.710120
0.284929
-0.127539
0.203764
-0.125071
0.478609
0.496220
-0.027647
-0.103508
0.193439
0.137079
0.043125
0.091501
-0.220623
0.102147
0.352765
-0.182385
0.687863
-0.149960
0.191654
-0.187125
-0.574577
0.477446
0.912993
0.877168
-0.732337
-0.380832
-0.309021
-0.049669
0.342481
0.247028
-0.268239
-0.107786
0.204362
0.181922
0.375985
-0.005773
-0.138687
0.644230
-0.596580
-0.113339
0.594661
-0.201546
0.060612
-0.281230
0.277584
-0.471276
-0.110063
-1.668647
-0.043134
0.322430
-0.170280
-0.021963
-0.431987
0.474656
0.000956
0.066776
-0.232018
-0.670115
0.145121
0.012961
-0.079545
1.181833
0.018833
-0.695163
-0.192941
0.324776
-0.051628
-0.409821
0.252071
-0.136202
0.063966
-0.562424
0.370955
0.170778
1.075642
-0.581255
0.537210
0.909615
-0.964100
-0.637423
0.098998
0.037380
-0.202010
0.444041
0.420962
-0.468476
0.882848
1.396111
-0.656057
-0.254105
1.283081
-0.594136
0.515914
-0.342857
1.424930
-1.151721
-0.952090
-3.059593
1.567837
-0.494263
-0.561247
-0.235491
0.733484
-0.904681
-0.546322
-0.538775
-1.896025
-0.145242
0.768042
0.611560
0.268324
2.382804
-0.663437
-2.385548
-0.325841
-0.285024
-0.126551
0.876300
0.339401
-0.096863
0.585788
0.191216
-0.157351
-0.363397
2.483674
-0.177414
0.340664
2.459507
-0.913818
-1.756747
1.499712
-1.759834
1.001021
-0.585247
0.459667
