0.156956
-0.511970
-0.076410
0.000327
1.038587
0.260400
0.285858
0.507344
0.427160
0.449388
0.104813
-0.406360
0.061450
-0.270903
0.580957
-0.414584
-0.030087
0.273721
0.237192
-0.379926
-0.200392
0.764455
0.213288
0.671664
0.157976
0.247489
-0.074339
0.102505
0.133456
-0.092103
-0.754136
-0.613646
-0.769111
0.246530
0.480924
-0.853419
0.193445
-0.329924
-0.202721
-0.224512
-0.756217
-0.332954
-0.287334
-0.132138
-0.120352
-0.151379
-0.280679
-0.057667
0.531083
-0.579855
0.527769
0.353372
0.311620
0.199142
-0.325045
-0.387538
-0.262632
0.385009
0.300764
-0.365369
0.284451
0.626633
-0.352318
-0.588475
0.059213
0.793617
0.301128
0.626120
-0.642774
-0.279338
0.039103
0.030234
-0.672293
0.703750
0.113653
-0.347411
0.066102
-1.012045
-0.510466
0.151619
0.499217
0.132120
-0.268407
-0.408407
-0.786420
-0.057615
-0.200674
0.138517
0.225727
-0.326258
-0.116805
0.009937
0.295863
-0.906420
-0.766522
0.684927
-0.545364
-0.606731
0.652850
0.371654
0.150313
0.052032
-0.497531
0.392264
0.243495
-0.304104
0.768382
-0.007025
-0.193804
-0.132685
-0.223773
0.332125
0.109534
0.223882
0.005820
0.329209
0.004859
0.154132
-0.144497
-0.022672
0.228693
-0.519869
0.036600
0.316129
0.140600
0.308937
-0.140048
-0.203892
0.785245
-0.618494
-0.133439
-0.048184
-0.992579
0.021301
-0.191502
0.036044
-0.748711
0.363470
-0.079999
-0.037426
-0.931612
0.265390
0.439527
0.593861
0.011183
0.023926
0.203837
-0.112269
-0.261807
0.072952
-0.217892
-0.185349
-0.124907
0.760361
0.463664
0.261636
0.519109
-0.004368
0.152205
-0.839014
0.096813
-0.677341
-0.565493
0.684391
0.101300
0.547318
0.351018
-0.692022
-0.889251
-0.778473
0.378142
-0.097366
-0.371357
-0.310723
0.424302
0.044112
-0.195144
-0.391701
0.094222
0.215518
0.168627
0.287521
0.291285
-0.237528
0.184212
0.088555
-0.153661
0.420386
-0.183877
0.107095
0.265948
-0.198466
-0.383710
-0.046648
0.379886
-0.489842
0.663246
0.041768
0.004153
-0.677536
-0.211591
0.110425
0.347337
-0.284337
-0.388153
0.453609
-0.565457
0.276894
0.432864
-0.050251
0.359061
-0.038198
0.130636
0.333791
-0.240921
0.301813
-0.274820
0.065015
0.273103
0.560161
0.538663
0.033007
-0.350296
0.640302
-0.438125
0.290392
0.533729
-0.114801
0.385630
0.017513
0.090486
-0.107077
0.281069
-0.214148
-0.297450
0.097554
-0.522043
0.564687
0.168535
0.497472
-0.131530
0.081500
-0.241976
-0.136510
0.195104
0.365894
-0.041378
0.678121
0.767441
0.086703
-0.596758
0.023609
-0.058239
-0.064331
0.127491
0.234279
-0.039889
0.054584
-0.401449
0.559872
-0.000454
-0.226360
0.401490
0.035336
0.044117
0.147487
0.294108
-0.439364
-0.416333
0.632485
0.298358
0.090575
-0.592268
0.420353
0.313664
0.164372
0.027725
0.311555
-0.423768
-0.934258
-0.699262
0.034604
-0.072924
-0.151731
-0.167070
1.007501
-0.726106
0.689595
-0.296614
-0.263565
-0.067300
-0.377567
0.435778
0.916300
0.201487
0.264573
0.105650
0.681361
0.562029
0.259092
-0.493116
-0.000537
0.229839
0.765510
0.262219
-0.031504
0.099572
-0.252354
-0.130019
0.151313
-0.386215
-0.230362
0.179218
0.402551
-0.121876
-0.475709
0.476766
0.541487
0.415215
-0.913460
-0.130223
-0.291096
-0.254455
-0.474606
-0.008660
0.085550
0.098406
-0.277087
-0.080344
0.701964
-0.069426
0.494311
-0.803774
-0.535646
0.106271
0.036502
0.111814
0.032547
-0.420115
0.341625
0.205552
-0.219954
-0.245571
-0.037452
0.433431
-0.009112
-0.071765
0.089442
-0.230030
0.078749
0.005798
-0.588605
-0.395009
0.352463
-0.465875
0.134741
-0.240194
-0.175045
-0.661003
-0.212601
-0.036545
-0.034710
0.270932
-0.035050
-0.297228
0.248066
-0.260775
0.636625
0.063939
0.262320
0.668864
-0.442004
0.319332
0.197784
-0.566710
-0.676172
-0.482312
-0.041109
-0.443788
-0.085163
-0.536192
-0.104869
-0.331657
-0.410346
0.003967
0.640931
0.195968
0.094111
0.092599
-0.180061
-0.016955
0.479138
0.001928
0.672100
0.449306
0.345906
-0.285357
-0.109104
-0.550984
0.127503
0.045843
0.069554
-0.029625
-0.182837
-0.497010
-0.491941
-0.288995
-0.516375
-0.913503
0.009411
-0.175346
-0.435884
-0.574676
-0.171796
0.588117
0.540333
0.007034
-0.354942
-0.353135
0.503892
-0.605912
0.759970
0.012761
0.417338
0.201403
0.132304
0.525185
0.104853
-0.023897
-0.741513
0.012907
-0.108165
0.310972
-0.771787
1.120107
0.070064
0.366335
-0.572904
0.172748
0.089446
-0.160832
-1.076197
-0.459023
0.732202
0.085050
-0.401385
-0.514687
-0.485496
0.168304
-0.032822
-0.199135
-0.321799
-0.102678
-0.049589
-0.272210
-0.266908
0.536689
-0.305695
-0.199919
0.143233
0.418801
0.637337
0.375967
-0.432442
-0.218331
0.186523
0.297074
0.163681
-0.545321
0.005161
0.161069
-0.088000
-0.363564
-0.219407
0.207530
-0.493259
-0.766636
0.104084
-0.114718
0.454817
0.501214
-0.502621
-0.968905
-0.388009
-0.593179
-0.417151
0.630093
-0.070566
0.035522
-0.084375
-0.552965
-0.135672
0.374807
0.440095
-0.194796
0.183101
0.158264
-0.275845
0.482482
-0.323490
0.191517
-0.323674
0.065649
-0.714485
-0.446318
0.320613
0.046080
-0.207850
0.807675
-0.756578
-0.238549
0.455255
-0.054864
-0.134134
0.311685
0.072181
0.603513
-0.737615
-0.431614
-0.376399
-0.538303
-0.156549
0.715147
0.330151
-0.163948
-0.576712
0.122517
-0.580983
0.014518
-0.398321
-0.247137
0.044616
0.005634
0.166925
0.173054
-0.168752
0.105010
0.733311
0.034130
0.467033
-0.331164
0.685068
-0.098778
0.399647
-0.892439
-0.643753
0.280822
-0.394717
-0.389889
0.550250
0.423858
0.222639
0.223584
-0.273730
-0.104072
-0.335054
-0.442340
-0.420484
-0.104168
0.252502
-0.206915
0.051918
-0.170931
-0.220100
0.169982
0.289750
-0.276291
0.633731
-0.066751
-0.457309
-0.157877
-0.030305
0.193062
0.441384
-0.158303
0.501233
-0.144393
0.068562
-0.543176
-0.120410
0.304889
0.580595
0.201381
-0.343772
-0.076295
-0.463724
0.548195
-0.549654
0.417687
-0.441209
0.035595
-0.314863
0.265370
0.139910
0.092834
-0.461069
-0.236504
0.520856
-0.468320
-0.845012
0.330139
0.254817
0.209181
-0.160211
0.419604
0.719666
0.342713
-0.040313
0.326501
-0.100770
-0.493992
0.045393
0.221231
-0.148720
0.027636
0.158660
-0.254993
-0.257793
0.348880
-0.455136
0.529892
0.078164
-0.402294
0.045552
0.380623
-0.340389
-0.649171
0.131959
-0.021471
0.216520
-0.417207
-0.604255
-0.999852
-0.069131
0.136823
-0.226074
-0.227691
-0.101717
-0.195361
-0.301140
-0.094267
-0.267860
0.188964
-0.003736
-0.297113
0.269147
0.594692
0.519323
-0.123519
0.114801
-0.199410
0.182246
-0.423121
-0.456116
0.618943
0.160417
-0.657465
-0.103985
-1.131530
-0.312176
-0.224957
-1.242575
-0.614653
-0.192115
0.377597
-0.016226
0.262592
0.015049
0.216771
0.152895
-0.472144
0.331851
-0.687448
0.014473
-0.274596
-0.355087
0.444878
-0.698595
0.333324
0.129445
0.152759
0.711804
-0.323650
-0.079369
-0.399354
-0.151540
0.494936
0.211718
-0.415826
-0.587594
-0.492796
0.549748
0.040211
-0.188985
-0.288986
0.342881
-0.388066
-0.117718
0.562396
-0.329334
0.183536
-0.006154
0.041949
-0.894380
0.382096
0.072163
0.027087
0.220097
-0.423240
-0.237275
0.525235
-0.059908
0.549132
0.343037
-0.368189
0.025219
0.619600
0.062870
-0.201631
-0.173176
0.459117
-0.070535
-0.744854
-0.418858
-0.113228
0.143411
0.421174
0.186486
0.003189
0.373811
0.036164
0.398214
-0.035436
-0.145905
0.622776
0.663709
0.009133
-0.173408
0.019010
-0.135255
0.286923
0.045243
-0.661424
-0.000242
-0.309530
0.406039
0.006853
-0.699066
0.140904
0.331916
0.710444
-0.746885
0.278253
0.518373
0.629641
0.059646
-0.060232
-0.326623
-0.082118
-0.510480
0.266964
-0.078121
-0.318557
0.266582
-1.004816
-0.206497
0.200059
0.103288
-0.168159
-0.240809
-0.105550
0.473547
-0.779114
-0.347200
0.584654
0.338228
0.087707
0.363063
0.271914
1.128854
-0.570873
-0.021031
0.331490
0.663009
-0.636256
-0.293202
0.342968
0.133503
0.304097
0.024439
-0.180185
-0.626018
0.130150
0.083074
0.012996
-0.751202
-0.716774
0.612701
-0.364755
0.496475
0.393153
0.613887
-0.064382
-0.147158
-0.021304
-0.004704
0.143068
0.068630
0.386172
-0.629742
0.229734
-0.467192
0.219214
0.680211
-0.023319
-0.786179
0.141387
1.129651
-0.553486
-0.004456
0.145551
-0.823802
-0.550998
0.008568
-0.664526
0.366657
0.382190
-0.124099
0.299073
0.470129
0.043249
0.197847
0.100824
-0.264268
-0.044548
0.238561
0.189293
0.456302
-0.124978
0.250254
-0.169851
-0.126617
0.061017
-0.413187
0.069886
0.432331
0.026258
0.065673
0.400646
-0.357910
0.465936
0.710672
-0.792712
0.032011
-0.490164
0.573139
-0.027303
-0.394496
-0.722009
0.185644
0.235841
-0.034145
0.151230
0.181350
-0.054268
0.290721
0.446873
0.579589
-0.504310
0.601908
0.037699
-0.000816
-0.210869
0.208614
-0.585618
0.248139
-0.107923
-0.320919
-0.075213
0.101705
0.095353
-0.792967
0.473803
-0.054018
0.218934
0.467186
0.184163
0.541769
-0.037680
-0.210371
0.061428
0.413325
-0.216355
0.443059
0.478846
0.601609
0.232619
-1.060286
-0.750145
0.578186
0.476952
0.034631
-0.518726
-0.108760
-0.047133
0.080984
-0.008943
-0.433980
-0.627452
-0.727355
-0.316745
-0.643475
0.122895
-0.180392
-0.115990
0.398318
-0.313855
0.124325
-0.674939
-0.142465
0.064217
-0.161122
0.242572
-0.116062
-0.045908
-0.336694
0.378034
0.483052
0.065272
1.014419
-0.145867
-1.202783
0.411728
0.125923
-0.403097
0.052994
0.204010
0.324222
-0.329730
0.047179
-0.436436
0.056036
-0.318733
-0.108685
-0.521895
-0.289932
0.329453
0.093774
0.463543
-0.007073
0.763299
0.447171
-0.094805
-0.168781
-0.701549
0.234524
0.143574
-0.508877
-0.038930
-0.032150
0.282094
-0.428632
-0.251830
-0.249479
-0.838558
0.201067
-0.052832
-0.158857
-0.275653
0.202752
0.027371
-0.148772
-0.169395
0.188629
-0.106049
-0.542309
-0.565827
0.474384
0.333614
-0.235419
0.052133
0.003659
0.391385
-0.499463
0.115622
0.317971
0.462750
-0.216540
0.179242
-0.004401
0.636459
-0.379255
0.427982
0.116554
0.698732
-0.413373
-0.194629
0.596909
0.127196
-0.989425
0.518972
-0.585741
-0.001407
-0.107526
-0.123680
0.549153
0.723081
0.121470
0.633202
1.101308
-0.224443
-0.060882
-0.029477
0.052074
-0.020629
-1.046927
0.447513
0.496606
-0.141111
0.162471
0.524230
-0.125838
-0.832155
-0.506522
-0.106420
-0.516105
-0.175082
0.504277
0.130946
-0.399950
-0.208228
0.876968
-0.090704
-0.576961
-0.450338
-0.084661
-0.483423
0.080486
1.084130
0.034935
0.389334
0.708311
0.015158
-0.138930
-0.141718
0.120164
-0.538972
-0.194675
0.323039
0.457962
-0.411095
-0.109781
0.264187
0.202759
-0.163347
-0.549207
0.229320
-0.052852
0.017344
0.203886
0.100352
0.070103
-0.196220
-0.384712
0.456274
0.350744
0.364979
-0.569242
-0.288465
0.254393
0.832955
0.929253
0.099795
-0.213588
-0.268256
-0.242798
-0.403525
-0.396519
-0.697368
-0.057694
-0.391482
0.246968
0.468875
0.633269
0.983509
-0.073166
-0.125629
0.024828
0.181030
-0.164287
0.212052
0.220640
-0.161633
0.129798
0.483355
0.926037
0.744684
-0.195894
-0.647236
0.153155
-0.030868
0.277116
-0.192683
0.237755
0.539273
0.446703
-0.155702
0.155171
0.532031
-0.008618
-0.473073
-0.155558
0.189783
0.063190
0.309665
-0.788714
-0.332162
-0.253950
0.434001
0.208271
0.063449
0.200096
0.726072
-0.402197
-0.021576
-0.006554
0.634682
0.671610
-0.073040
-0.234511
0.150287
0.264052
0.314724
-0.130641
-0.606867
-0.156207
0.472326
0.249742
0.670760
0.453237
0.181584
0.282571
-0.086585
-0.021025
-0.434750
0.977088
-0.041453
-0.286234
-0.429161
-0.329142
0.206137
-0.078148
0.180940
-0.273181
-0.070766
0.121030
-0.037832
-0.306244
-0.085444
-0.804335
-0.140344
-0.053257
-0.707025
-0.360607
0.196528
-0.139144
-0.312080
-0.857803
0.546520
0.030293
-0.167685
0.273270
-0.201147
-0.269778
0.144522
-0.370004
0.026746
-0.333094
-0.219164
-0.715788
0.268482
-0.588902
0.641747
0.142637
-0.451141
-0.033143
0.217628
-0.033385
0.263201
0.438070
-0.004436
-0.193970
0.361798
0.373715
0.324410
-0.706622
0.263359
0.028399
-0.602561
0.082544
0.352923
-1.021380
-0.436205
0.158412
0.036861
-1.117299
-0.380198
-0.702226
-0.326738
-0.039301
0.993640
0.014225
0.442549
0.566095
0.069828
-0.772349
-0.324584
0.473944
0.277515
-0.726098
-0.019933
-0.072572
-0.546954
-0.414341
0.853944
0.170311
0.009625
1.744983
0.624988
-0.013467
0.588521
0.090575
-0.216956
0.140310
0.221707
0.191695
-0.229137
-0.398046
0.242841
0.825126
-0.248008
0.546785
0.270564
0.126278
0.194304
0.461052
0.790117
0.559593
-0.791998
0.336048
-0.206442
0.137879
0.463130
-0.837806
0.705156
-0.031206
-0.523647
0.609592
-0.128785
-0.302240
0.695764
0.223901
-0.084768
-0.717867
-0.244700
0.074029
0.315830
0.113606
-0.163408
1.175761
0.144794
-0.509638
0.373814
0.609713
-0.560281
-0.001980
0.006902
-0.192239
0.444878
-0.299438
-0.059891
0.204692
0.401745
0.135875
0.549504
-0.260192
-0.791300
0.210190
0.617454
-0.650476
0.371828
-0.083953
0.143707
0.657999
0.180218
0.136089
0.673720
-0.935414
-0.531587
-0.598225
0.146824
0.145178
0.186262
-1.120329
-0.777444
0.329615
-0.019392
-0.375944
-0.114332
-0.006694
0.031859
0.357925
0.320714
0.616936
-0.149536
0.213337
0.099967
0.284773
-0.248024
-0.313953
0.812513
-0.359043
-0.366888
-0.537050
-0.044391
-0.506383
0.684368
0.048974
-0.618315
-0.504775
-0.462958
-0.288147
-0.204043
0.529071
0.251550
0.284403
0.327126
0.738495
-0.184078
0.053053
-0.603379
0.804392
0.205590
0.417464
-0.354966
0.424098
-0.235366
-0.273411
0.040661
0.036618
-0.447229
0.045187
-0.305970
-0.451520
0.542894
-0.234691
-0.384577
0.366930
-0.436892
-0.237606
-0.280011
0.115068
0.539637
-0.403577
-0.111012
-0.085725
0.685783
0.185661
-0.186986
0.167006
-0.019347
0.094482
-0.991479
-0.356184
0.131161
-0.419873
-0.896625
-0.136450
-0.049741
0.246112
0.511958
-0.063879
-0.098389
-0.175065
0.121551
-0.013815
-0.280186
0.156465
-0.141729
-0.303608
0.603874
0.445464
-0.217243
-0.225586
-0.386809
-0.165534
0.485130
0.322214
0.085018
-0.275560
-0.109978
-0.077899
0.363291
0.056628
-0.050894
-0.309376
-0.131860
-0.280645
-0.009625
0.094228
0.711149
-1.184291
-0.327410
0.271647
0.717240
0.103640
-0.909108
0.204957
-0.193779
-0.188401
-0.233069
-0.056005
-0.833611
-0.883436
0.037505
-0.258046
-0.178021
-0.554378
0.081459
-0.337261
0.501232
-0.161919
0.375101
-0.189743
-0.479053
-0.433815
-0.427706
-0.754650
-0.202310
0.048512
-0.111609
-0.348113
-0.197054
0.396757
0.078281
0.230039
-0.328584
0.062902
-0.234752
0.038135
-0.328298
-0.020482
-0.572719
-0.367077
-0.528249
0.211029
-0.605530
-0.429363
0.141754
0.161381
0.014807
-0.694429
-0.757297
-0.285880
-0.649059
-0.581907
-0.775629
0.644921
-0.570895
-0.117365
0.380720
0.704211
-0.015642
-0.836595
-0.006876
-0.251151
-0.056871
0.010676
-0.051452
0.235317
0.437888
-0.264682
-0.096269
0.026523
-0.823617
-0.262529
-0.533197
-0.296753
-0.155109
-0.043316
0.630828
-0.491533
-0.150195
0.295627
-0.441794
-0.301286
0.256164
0.080851
-0.885019
-0.596420
-0.297900
0.309023
0.331268
-0.192004
0.782440
-0.514160
0.307220
-0.110986
-0.226117
0.311119
-0.124409
0.059457
0.245428
-0.203224
-0.203494
0.223486
0.417567
-0.044840
0.380303
0.010715
-0.228220
0.376086
-0.094475
0.711751
-0.407743
0.165110
0.073129
0.635748
-0.480257
0.187991
-0.649689
0.113680
0.671742
0.300826
-0.681476
0.370397
-0.535988
0.332344
-0.654805
0.464188
-0.147954
-0.033434
-0.217813
-0.282974
0.172668
-0.603417
-0.324966
0.392935
-0.482598
-0.294539
-0.045860
-0.129344
0.454719
0.366311
-0.306444
0.698159
-0.514956
0.207008
-0.080664
-0.551255
0.342639
0.439535
0.257345
0.525275
0.448937
-0.087821
-0.643560
0.088726
-0.356106
-0.291668
-0.808826
-0.183067
0.299895
-0.364390
0.056006
-0.194947
-0.431795
-0.243666
0.258725
0.641764
-0.266850
0.148323
0.007944
-0.457448
0.196154
0.193158
-0.250875
0.474427
-0.017880
-1.069663
0.097268
0.149895
-0.175558
-0.463621
0.106103
0.448544
-0.303586
0.394232
0.498223
-0.544510
-0.065414
0.564196
0.243358
0.233759
-0.032759
0.170539
-0.230265
0.333450
-0.148851
0.018010
-0.022695
0.044361
-0.282957
-0.392316
-0.438340
-0.270957
-0.089870
0.531137
-0.449028
0.239600
-0.155492
-0.115627
-0.954801
0.391815
0.506876
-0.060863
0.467354
-0.164238
0.582403
0.640360
0.458948
-0.105900
-0.189571
0.211655
-0.155614
-0.636753
-0.468015
-0.373616
-0.723613
0.512066
0.482455
-0.498567
-0.028019
0.558256
-0.058012
-0.290560
-0.405547
0.291991
-0.247853
-0.006619
-0.359111
-0.157962
0.769249
0.314979
-0.431455
-0.081646
0.236344
-0.072778
-0.116633
-0.102842
0.079543
-0.925722
0.437472
0.022529
1.022872
-0.512647
-0.213443
-0.401034
0.321971
0.471726
-0.453482
-0.660024
-0.237777
0.117723
0.375431
0.526850
-0.332221
-0.127315
0.303179
0.200074
-0.451681
0.140968
0.136011
-0.391705
-1.328548
-0.013039
-0.205181
0.147893
0.363250
0.091766
0.501786
-0.072608
0.223551
0.040493
-0.166657
-0.330891
-0.142807
-0.602739
0.540674
-0.513824
0.475309
-0.318092
-0.102186
0.171068
0.545116
0.128589
0.180813
-0.276474
-0.355361
-0.093793
0.222940
-0.729470
0.323905
0.545890
0.370628
0.429014
-0.143409
-0.229291
0.230300
-0.175443
0.152859
-0.809734
0.155678
0.133350
-0.131735
0.379302
0.275117
-0.743957
-0.229155
-0.296920
-0.244362
0.196573
0.668227
-0.600310
0.522713
-0.336947
-0.017249
0.067024
-0.106014
0.071414
-0.704386
0.674579
0.204006
-0.056677
-0.132804
0.306391
-0.810245
-0.993741
-0.095731
0.147431
0.807382
-0.474146
-0.198984
0.459603
-0.085795
-0.014195
0.110292
-0.369877
0.453991
0.082668
0.415208
0.084378
-0.658427
-0.624803
-0.080142
0.211646
0.076661
0.538583
-0.401354
-0.152755
0.327224
0.151543
-0.045680
-0.257447
0.479329
-0.056112
-0.160753
-0.493829
-0.112087
-0.417861
-0.135671
-0.554510
-0.021719
-0.253034
0.297019
-0.522760
0.668384
0.149223
0.004042
-0.639242
0.473304
0.057786
-0.090934
-0.271056
-0.170760
0.250340
0.570583
-0.017388
0.477083
-0.531874
-0.689432
-0.244696
-0.290911
0.231233
-0.271739
0.482018
-0.348599
0.460502
0.634390
-0.228486
-0.401729
0.559706
0.341543
0.106269
-0.990771
0.476314
-0.314769
-0.706303
0.508454
0.584406
-0.269313
0.167683
-0.737763
0.447033
0.097861
-1.088833
0.359171
0.201476
0.354692
0.060645
0.123470
-0.266697
0.201620
-0.319655
-0.612112
0.148419
0.237356
0.260008
-0.346710
-0.316166
-0.110166
-0.125611
0.360947
-0.491050
0.430239
0.220213
-0.366288
-0.280958
-0.396385
-0.541801
-0.094696
0.286253
-0.063212
0.189848
-0.946038
0.168447
0.200827
-0.170584
-0.552108
-0.881711
0.434258
-0.038307
-0.111946
0.377369
-0.290456
0.063684
0.584066
-0.525591
0.175700
0.172842
-0.564100
0.701737
-0.068978
-0.566236
-0.095232
-0.244614
-0.105392
0.222694
0.033726
0.649312
-0.372011
-0.713569
0.115662
-0.302566
0.017034
-0.674406
-0.072563
-0.026955
0.141484
0.099188
0.472210
0.097008
0.277678
0.224995
0.223953
0.279901
0.650360
-0.118133
0.699950
-0.162743
0.812313
-0.039521
-0.122747
-0.010246
0.392795
-0.168396
0.091339
-0.084139
0.012445
0.025699
-0.972229
0.070344
-0.098788
-0.259010
0.322033
0.772165
0.411716
-0.435086
0.032532
-0.202405
-0.248596
0.401627
-0.383691
-0.760521
0.135418
0.757529
-0.194020
0.512181
-0.380403
-0.789785
-0.501700
-0.545804
-0.160677
0.178667
0.236003
0.194346
-0.067524
-0.214184
-0.416276
-0.320188
0.136846
0.468517
-0.068752
0.240747
-0.114126
0.594702
-0.542455
0.352678
0.887766
-0.214355
-0.247117
-0.854428
-0.461186
-0.538421
0.108894
-0.268640
0.206521
0.047662
-0.062298
-0.738370
-0.002278
-0.236360
0.008505
0.409793
-0.625516
0.012726
-0.089870
-0.164604
-0.174661
-0.717854
0.721277
-0.091155
-0.190919
-0.948748
-0.401474
0.209480
0.771773
1.248594
-0.351110
0.537118
0.086291
0.253746
0.118278
0.162894
-0.423605
-0.231586
0.090244
-0.447864
0.346779
0.452488
-0.190411
0.005265
-0.804371
-0.504928
0.361015
0.185494
0.473352
-0.415875
0.048228
0.345779
0.316366
0.503903
-0.345606
-0.028897
0.412399
0.650925
0.118755
-0.085530
0.459171
-0.230838
0.827552
0.738749
0.286358
0.322695
-0.281511
-0.248779
-0.018017
0.653775
-0.074560
-0.132426
0.189941
0.323461
-0.440025
0.046931
0.440957
-0.229963
-0.264984
-0.171736
-0.158205
0.253893
-0.589783
-0.356066
0.064466
-0.017441
0.082171
0.319330
0.139160
-0.123974
0.231033
0.525602
-0.067789
-0.272244
0.261123
0.391097
-0.115248
0.169422
0.309639
0.421960
-0.440573
0.536185
0.160418
-0.660842
-0.562449
0.338596
-0.389583
0.535119
-0.056289
0.604258
0.015850
-0.415843
-0.235439
0.358275
-0.754855
-0.663699
0.846181
0.184611
-0.410427
0.641468
0.049338
0.232062
-0.057382
0.120394
0.353104
0.105309
0.284820
-0.478088
0.367816
-0.204956
0.295735
0.173146
-0.456132
0.256727
0.092263
-0.528006
0.204739
-0.118519
0.326264
0.124026
0.336795
0.406334
-0.009299
0.056282
-0.477993
-0.059327
-0.272523
-0.279973
-0.113261
-0.133768
0.133900
0.103198
-0.631751
0.204697
0.336501
0.200368
0.070561
1.015612
-0.466182
0.657093
0.550524
0.218380
0.230587
-0.141372
-0.172632
-0.521113
-0.098631
-0.429838
0.000837
-0.048353
-0.206546
0.027197
-0.248941
-0.169903
-0.081071
-0.373065
0.171176
-0.308953
-0.573296
-0.296823
-0.146487
-0.477046
-0.590278
-0.163690
-0.500024
0.654421
-0.431202
0.657716
-0.135647
-0.122636
0.328156
-0.635208
-0.464777
-0.421338
0.284590
-0.535183
-0.381247
0.568150
0.244975
-0.182184
0.057729
0.769088
-0.100062
-0.313350
-0.729848
-0.229223
0.357846
0.214670
0.208837
0.268678
-0.634395
-0.200218
0.285462
-0.181537
0.302738
-0.490152
0.582910
-0.271274
-0.379204
-0.143767
0.458005
-0.300820
-0.164797
-0.324844
0.229069
0.085895
-0.710799
-0.339371
-0.931987
0.609134
-0.102736
0.470258
-0.113577
-0.795829
0.328600
0.225230
-0.718376
0.032485
-1.049907
-0.746513
0.704764
-0.595592
0.362528
0.450060
-0.039211
-0.623151
-0.447097
0.239026
-0.577717
-0.127431
-0.614586
0.103180
-0.067022
0.270739
-0.299542
-0.622038
-0.653288
0.074461
0.480836
-0.622114
-0.205667
0.388132
0.190965
-0.387336
-0.135007
0.022732
-0.390887
0.137028
0.107677
0.557267
0.071394
0.539894
0.426363
-0.325707
-0.284232
0.573618
0.256119
-0.906235
0.322242
0.189108
0.495572
-0.237915
0.449750
0.607877
-0.436833
-0.182753
0.232305
0.191058
-0.154273
0.395119
-0.670459
-0.000442
0.306446
0.665332
0.600148
-0.793044
-0.728286
-0.596485
-0.080637
0.011095
0.634697
0.220425
-0.545544
-0.334403
-0.248113
0.249530
-0.014657
-0.031851
-0.320697
-0.018042
0.376046
-0.464754
-0.574150
-0.325005
-0.207005
-0.168248
0.565457
0.503891
0.198107
0.476440
0.457867
-0.242988
0.492874
-0.422461
-0.266312
0.464164
0.069177
-0.125096
-0.086518
-0.291427
0.158698
0.785700
0.356498
-0.346408
0.076432
-0.236904
0.229438
-0.129391
-0.381399
-0.358866
-0.055542
-0.584501
-0.044406
0.031200
-0.264709
0.469193
0.407154
-0.367121
-0.076283
0.113914
-0.392046
-0.086874
0.173318
-0.045059
0.415619
-0.219055
-0.360797
-0.312823
0.135793
-0.790582
0.743806
-0.259133
0.067276
0.167896
-0.002124
-0.007599
-0.154617
0.251348
-0.500577
0.270433
0.147257
-0.402308
0.062086
0.239891
0.198734
0.091991
-0.412142
0.304735
0.472474
0.801924
0.330410
0.341762
0.185968
-0.542637
-0.403083
0.262073
-0.331032
-0.316076
-0.513008
0.229478
0.646993
0.727308
-0.134945
0.442112
0.264505
0.147343
0.662416
0.141659
-0.301460
-0.477096
0.581409
0.221304
0.577396
0.083891
0.028374
0.387515
1.053265
0.579740
0.023503
0.272377
-0.259309
0.076813
-0.062124
-0.484987
0.130907
0.279415
0.332684
-0.184774
-0.211754
-0.031342
-0.282500
0.014825
-0.209803
0.514241
-0.361062
0.337189
0.202183
0.411718
-0.271169
0.101800
-0.791722
0.491854
-0.600034
-0.731658
-0.078181
0.388403
0.006321
-0.225403
-0.479467
-0.139314
-0.267016
0.366725
0.157872
-0.388700
-0.366984
0.347045
0.635622
-0.049193
0.813216
-0.183899
0.081271
0.332079
0.466656
-0.182451
0.167257
-1.016643
0.046811
-0.613282
0.595223
0.679055
0.450161
-0.060096
0.205009
-0.373326
0.741966
0.669380
0.755437
0.256318
0.559510
0.084815
0.012869
1.128490
-0.748360
-0.241868
-0.050965
0.325201
0.168417
0.529975
0.683572
0.003319
-0.221361
-0.413273
0.332488
0.369891
-0.046204
-0.027783
-0.254445
-0.573978
-0.026794
0.697353
-0.455199
0.220221
0.851306
0.178595
-0.460743
0.153773
-0.362975
0.011723
-0.060612
-0.101351
0.182675
0.183450
0.408822
0.166244
-0.528743
-0.278094
-0.278882
-0.135578
-0.402580
-0.405375
0.006820
0.439367
-0.348149
-0.763451
0.210294
0.096490
-0.013931
0.293865
-0.076351
0.543485
-0.378723
-0.532930
0.031215
0.114230
0.110332
0.284396
-0.807713
-0.359530
0.422338
-0.255316
0.545935
0.002754
0.451091
-0.352460
0.890434
-0.195602
0.205894
0.300281
0.022640
-0.162668
0.149028
-0.232316
-0.331265
-0.038279
0.144732
0.087878
0.228274
-0.149882
-0.891399
0.364219
-0.145792
0.240058
0.573497
-0.678250
0.217921
-0.273166
-0.101728
0.669678
0.113220
-0.118814
0.851730
-0.040731
0.136874
0.209321
-0.299781
-0.204261
0.349511
0.214696
0.098989
0.096160
0.286445
-0.139257
-0.073135
-0.090323
-0.081322
-0.611821
0.581272
0.144938
-0.587851
-0.196666
-0.422696
0.870617
0.314168
0.526101
-0.203297
-0.370569
-0.548714
-0.492855
0.166912
-0.517822
0.046462
0.297327
-0.610321
0.013995
0.385263
0.770870
0.026303
-0.194790
0.858253
-0.456019
0.066931
-0.511682
0.218843
0.573852
-0.033059
0.096000
-0.197458
0.339312
-0.257471
0.650538
-0.557555
-0.272198
-0.208898
0.368767
-0.108000
0.081085
-0.261392
-0.920981
-0.155485
0.276401
-0.081163
-0.144791
0.038111
0.156697
0.028223
0.249192
0.635224
0.634684
0.287419
-0.601467
-0.115778
0.240639
-0.657144
0.049567
-0.315837
-0.083735
0.052464
0.247952
-0.556394
-0.091115
-0.371631
-0.815908
1.110697
0.112935
-0.330858
0.644689
0.256279
-0.032206
-0.225066
-0.721703
-0.339876
-0.457293
0.118835
-0.323248
-0.383564
0.717049
0.303560
-0.043403
0.125699
-0.060237
-0.077558
-0.255666
-0.558651
-0.435434
0.274825
0.521652
-0.007476
0.501941
0.173213
-0.403308
0.368669
-0.426247
-0.554738
-0.118137
0.217059
-0.258587
-0.430355
0.352978
-0.156745
0.100652
0.048484
-0.289684
-0.641508
0.510304
0.339500
-0.238455
0.228348
-0.290573
-0.255320
-0.649515
-0.332904
-0.023999
-0.510522
0.453321
0.326825
0.400125
-0.085846
0.874346
-0.027847
0.255365
-0.527148
-0.581172
-0.147278
1.008804
0.274153
-0.205425
-0.410010
-0.702816
0.102487
0.318193
-0.785465
0.155028
-0.470506
-0.481445
-0.554970
-0.177588
0.440297
-0.167882
-0.341179
0.232979
-0.365819
0.838971
-0.068152
0.364061
0.098858
-0.199967
0.265787
-0.130913
0.117183
-0.288453
-0.390509
-0.073738
-0.402831
0.053123
-0.308917
0.487666
0.075008
-0.223576
0.014453
0.355816
0.381282
-0.054140
-0.227079
-0.265509
-0.410538
0.355779
-0.142078
-0.143491
0.101812
0.568076
-0.468287
0.810918
0.313853
-0.434248
0.424167
0.273632
0.121770
-0.142669
0.678109
0.301613
-0.731662
-0.339087
-0.398815
0.506826
-0.647445
-0.726818
0.075466
0.140118
-0.756588
0.132948
-0.453322
0.403813
0.591586
0.161975
0.083167
-0.704859
0.398922
0.058263
-0.918125
-0.122850
-0.167100
0.247057
-0.074808
0.340634
-0.553877
0.059084
-1.159723
-0.150125
0.033142
-0.429069
0.575680
-0.532338
-0.395547
0.697303
0.527538
-0.369293
-0.212108
-0.114190
0.400165
-0.076116
0.140108
0.402641
-0.093802
0.370926
0.057184
0.038508
0.352928
-0.704442
-0.288595
-0.246227
-0.265407
-0.010619
0.615174
0.152054
0.283777
0.406598
-0.696186
0.494632
1.122204
-0.095617
-0.100549
0.255725
0.912111
-0.274729
-0.267858
-0.449394
0.354565
0.162479
-0.393827
0.131106
1.506489
-0.433343
0.337986
-0.837380
0.658274
0.367702
0.157031
-0.497647
0.062714
-0.035706
-0.489863
0.315853
0.161135
0.080224
-0.103152
0.409126
-0.046916
0.315217
0.497899
0.304511
-0.257415
0.162830
0.851051
-0.224192
-0.774048
-0.553808
-0.792458
0.058691
0.469592
0.110940
0.403976
-0.096514
-0.256027
0.292351
0.149945
-0.549646
-0.422868
-0.218634
-0.348839
0.004238
-0.595776
-0.277581
-0.110555
-0.011909
-0.638146
0.441409
-0.382041
-0.944192
0.576814
-0.359324
0.253632
0.102766
0.675683
0.378623
-0.373305
-0.436247
0.082048
0.900943
-0.516333
0.094163
-0.019585
0.652069
0.364969
0.073366
0.004818
-0.066950
0.192596
0.176444
-0.931286
-0.433556
0.400852
0.351288
-0.662273
-0.203807
-0.129521
-0.862730
-0.046742
-0.227028
-0.079376
-0.303470
-0.154813
-0.078686
-0.180954
-0.253018
-0.308261
0.744673
-0.102791
0.489123
-0.171981
-0.833013
-0.753040
0.247777
-0.174774
-0.409283
0.663648
-0.407368
-0.056691
0.566299
-0.124278
-0.088606
-0.291092
0.015757
0.025060
0.203065
-0.177340
-0.044547
-0.261397
0.546526
-0.065690
0.075511
0.099775
-0.352995
0.280201
-0.076929
0.198209
-0.427190
-0.298228
0.509314
-0.403290
-0.618168
0.143577
0.047985
-0.165610
0.170352
0.450271
0.324797
0.124920
0.166078
-0.334679
-0.120853
0.548163
-0.085924
0.279955
0.193417
0.531062
-0.041108
-0.427345
0.120604
-0.386029
0.869632
-0.272074
0.542353
0.162885
0.105688
0.087789
0.156972
0.143160
-0.787855
0.081696
-0.744269
0.025446
0.137521
0.647226
-0.301686
-0.184079
-0.152572
0.125062
-0.076980
-0.544644
-0.653504
0.098580
0.146765
-0.306566
-0.038591
-0.109344
-0.342904
0.370769
-0.041748
0.546586
-0.428799
0.405319
-0.011511
0.689810
0.336304
0.620380
-0.453621
-0.612315
0.377181
-0.585752
0.577237
0.358306
0.301996
0.218294
-0.170384
0.183579
0.198135
-0.442836
0.545189
0.027266
-0.320748
-0.140531
0.105800
-0.270937
0.298187
0.110614
0.292946
0.042468
-0.140398
-0.160371
0.065841
-0.906497
0.068324
0.131421
-0.214731
-0.057472
-0.455247
-0.133872
-0.274166
0.131038
0.106398
0.530085
0.214297
-0.322118
0.438958
-0.039969
-0.120100
-0.081988
-0.342780
0.012574
0.053108
0.418022
-0.044661
0.009005
0.354689
-0.177485
-0.352509
-0.399862
0.702521
-0.206014
0.069919
-0.023166
-0.291218
0.476316
-0.005067
-0.085262
-0.161316
0.008886
-0.537720
-0.274455
0.474114
0.189069
-0.286736
-0.319418
0.613233
-0.579715
-0.285119
0.030645
0.389229
0.184129
-0.651224
0.107952
0.055105
0.383968
-0.306643
0.363058
0.255840
0.206787
0.105084
0.232830
0.233105
-0.583882
-0.346955
0.492691
-0.119210
0.051460
0.369617
0.019765
-0.343428
-0.206544
0.023709
0.222795
0.187730
-0.086921
-0.461258
-0.036076
-0.535204
0.502191
0.070316
0.675608
0.363632
-0.255746
-0.295498
-0.045612
0.108193
0.274914
-0.162682
0.531125
0.397494
0.292022
0.385644
-0.354509
-0.229584
0.630660
-0.085398
-0.246067
-0.068574
-0.615253
0.021845
-0.098698
-0.799701
0.251263
-0.372827
0.162164
-0.157454
-0.026857
0.392104
-0.201641
-0.219945
-0.466782
0.261577
-0.019170
-0.107598
0.470968
-0.012861
-0.197736
0.430354
-0.218514
0.431898
0.222451
0.262208
0.420095
-0.109300
-0.357885
0.013546
0.690108
-0.251049
-0.103437
-0.426651
0.295873
-0.028652
0.044351
0.448332
-0.040269
-0.179194
-0.235346
-0.491470
-0.199266
-0.308112
0.247199
-0.011946
0.431030
-0.312728
-0.304276
-0.382771
-0.410257
-0.479931
-0.345220
-0.375200
0.249380
0.685652
0.012306
0.161608
-0.340073
-0.354482
-0.206351
0.677662
0.414298
0.074993
0.741478
0.566688
0.621605
0.168126
0.432312
-0.420862
-0.139977
-0.071072
-0.740140
-0.463581
0.156654
-0.396980
-0.047856
0.100596
0.565905
-0.426174
0.377030
0.102985
-0.183035
-0.001764
-0.459174
-0.142561
-0.394351
-0.269324
0.325220
-0.137256
-0.261487
0.005257
-0.168176
0.108544
0.112017
-0.485632
-0.340281
0.375013
0.106496
-0.476339
-0.725979
0.122984
-0.177816
0.289714
0.188242
-0.203512
0.475434
-0.379954
0.973569
0.110141
0.194129
0.198984
-0.000269
0.698001
0.177515
-0.571370
-0.923977
-0.157865
-0.572741
-0.081476
-0.256481
-0.619129
0.033882
0.717421
0.340025
-0.485383
-0.742293
-0.138317
0.396435
-0.080906
-0.706074
0.427855
0.180549
0.036518
-0.346729
0.435434
-0.281801
-0.417013
-0.106525
-0.548871
0.361940
0.310887
0.100271
0.148500
-0.484781
-0.000892
-0.280811
-0.685025
0.158527
0.539232
0.517517
0.013847
-0.093131
0.570110
0.328394
-0.217396
-0.543752
-0.202996
-0.087037
-0.063991
-0.143394
-0.051238
0.914493
-0.114953
0.364132
-0.085230
-0.214662
0.405189
0.555768
-0.015977
0.297490
0.488273
0.548358
-0.245337
-0.212011
-0.355881
0.005340
0.162998
0.612261
-0.545136
-0.239402
1.006836
-0.278060
0.060822
0.260079
-0.010935
0.538675
0.091109
0.030172
0.441104
0.026011
-0.506408
-0.832909
-0.635222
0.242389
0.273824
0.217156
0.355886
-0.082052
-0.559866
-0.213932
0.281581
-0.169312
0.785578
0.430147
0.079055
0.975322
-0.121387
-0.304188
0.462150
-0.126357
-0.107349
0.226493
-0.226886
-0.392429
0.472982
-0.658843
0.004242
0.878983
0.879730
-0.327074
-0.015453
-0.154093
-0.309742
-0.216587
0.237527
-0.048819
-0.054132
-0.374803
-0.170355
0.201866
-0.688729
0.202311
0.175951
0.098819
-0.232088
-0.226949
0.029978
-0.194936
-0.251393
-0.692729
0.016068
-0.114620
-0.479578
-0.042883
0.019226
0.220841
-0.014226
-0.028817
0.922522
0.355347
-0.357333
0.026261
0.392787
-0.842199
0.255823
-0.259153
-0.633741
-0.819979
-1.205563
-0.278984
-0.946544
0.631408
-0.624620
0.300746
-0.405428
0.377966
-0.667760
0.347205
-0.705553
0.237131
0.019517
-0.047469
0.177212
0.104186
0.201332
-0.164636
0.269639
0.167412
0.057040
-1.041580
-0.215654
0.121758
0.592995
0.026292
-0.083753
-0.205195
-0.442680
0.341182
-0.522851
0.166647
0.443343
-0.248217
-0.439796
0.056750
-0.412737
0.273103
0.544505
0.523303
-0.274344
-0.444858
-0.148498
-0.545603
-0.205209
0.269519
0.038336
-0.325701
-0.185917
0.316574
0.639402
0.177619
-0.185373
-0.609558
-0.127350
-0.135527
0.885018
0.185698
-0.121897
-0.018957
0.110775
0.330333
-0.001331
-0.026905
0.025993
0.660389
0.644017
0.191492
-0.634541
0.310585
-0.106804
0.434631
0.375611
-0.219785
-0.714296
0.374799
-0.445531
0.428090
0.088032
-0.235746
0.339260
-0.007226
0.569417
0.539016
-0.499202
-0.958205
-0.116086
0.801536
0.023568
-0.118106
0.135690
-0.455930
-0.156220
0.316718
-0.311339
-0.131769
0.431691
-0.355890
-0.756594
0.232092
1.147461
0.479183
0.343363
-0.111677
0.635358
0.236420
-0.281482
0.152662
0.511413
0.679262
0.053008
0.196121
-0.003992
0.254894
0.043867
-0.371123
-0.184654
0.609996
-0.159606
-0.559732
-0.145082
0.563560
-0.840499
-0.032314
0.502208
-0.416051
0.502592
-0.142704
-0.636864
-0.465840
-0.288996
-0.068672
-0.705169
0.183998
-0.116572
-0.533200
0.492312
0.614639
-0.585968
0.105342
-0.166570
-0.094023
-0.142917
0.689228
-0.198221
-0.615573
0.298737
0.171470
-0.548830
-0.414575
0.081791
-0.136466
-0.009508
-0.191278
0.130331
-0.850909
-0.470685
0.069136
-0.224740
-0.011469
-0.305775
0.136209
-0.537914
0.248384
0.227160
-0.474619
-0.271804
-0.527676
-0.161781
-0.183415
-0.445804
-0.258822
0.299580
-0.638360
-0.100937
-0.477242
0.205712
0.758866
-0.386523
-0.226233
-0.414251
0.100545
-0.465337
0.208261
-0.202722
0.174832
0.437280
-0.137638
0.204091
0.445153
0.235555
-0.410798
0.438618
0.242224
-0.150686
0.404899
0.690098
0.143337
-0.122081
-0.040634
0.164652
-0.188138
-0.176381
-0.477288
0.047701
0.431189
0.406491
0.303558
0.115162
0.394801
-0.219981
-0.519578
0.025349
0.374872
0.514312
0.380831
-0.107498
-0.631285
0.294442
1.186612
-0.241825
0.198450
-0.803771
0.511322
-0.024994
-0.115696
-0.244452
0.286973
0.055622
-0.653394
-0.782552
0.328357
-0.159116
0.453582
-0.013650
0.602799
0.512919
0.277338
-0.078206
0.089465
-0.262208
0.074655
-0.101786
-0.924261
-0.499935
-0.396403
-0.207946
-0.023637
0.325049
-0.290478
-0.312825
0.226736
0.343495
-0.001005
-0.811607
-0.302935
0.559467
0.199793
0.045889
0.018789
-0.606142
-0.079519
-0.247690
-0.688814
-0.758600
-0.225908
0.177465
1.170039
0.039872
-0.246188
0.646679
0.209024
-0.716422
-0.645615
0.161227
0.078808
-0.068409
0.574431
0.339906
0.661665
0.220661
-0.073397
-0.088661
-0.152389
0.128931
0.399275
-0.210399
-0.397953
0.152289
-0.491232
0.254037
0.564665
-0.425309
-0.276746
1.080669
0.846465
0.797217
0.155950
-0.697608
-0.083453
-0.005044
-0.038556
-0.221066
0.014853
0.174345
-0.450131
-0.721176
-0.234273
-0.219475
0.664924
-0.424339
0.383770
-0.164222
0.040177
-0.483333
0.206213
-0.248817
0.481604
0.022587
0.336281
-0.333793
0.198755
0.336779
0.062480
0.614931
0.164373
0.294317
-0.239935
0.590757
-0.505484
0.531106
0.270340
0.389061
-0.263541
-0.693505
0.510177
-0.121095
-0.195572
0.594532
-0.644681
0.045473
-0.347192
0.156520
0.041416
-0.456968
-0.431836
0.449775
0.011376
0.283055
-0.084980
0.056199
-0.077210
-0.182181
-0.265199
-0.957179
0.182404
0.070416
-0.134387
-0.048946
-0.253319
0.080461
0.561665
-0.198280
-0.175806
-0.632658
-0.379602
0.548606
0.426221
-0.331696
0.430618
0.243993
-1.199655
0.019003
-0.033598
0.054687
0.063463
-0.396490
0.150537
-0.292162
-0.464666
-0.503263
-0.757543
0.353721
0.001161
-0.017952
0.689057
-0.294992
-0.257385
-0.743237
0.875237
-0.107487
0.022560
0.035285
0.266443
-0.107128
0.368495
-0.506318
-0.476186
0.272069
-0.351832
-0.010352
0.610998
-0.002186
-0.342455
0.045746
0.692264
-0.073376
-0.148275
0.117993
-0.115758
-0.156394
-0.688874
-0.721484
0.037082
0.427520
-0.047980
0.158956
-0.927269
-0.536427
0.093417
-0.254144
0.327399
1.097605
-0.384631
0.201066
0.714620
0.678476
0.244472
-0.577435
0.481518
0.091044
0.155369
-0.516512
1.227378
-0.001662
-0.103984
-0.203555
0.411717
0.162672
0.121053
0.160976
-0.323529
0.380403
-0.293977
-0.250648
-0.076708
-0.125872
0.292463
0.658733
0.125439
1.001450
-0.216851
0.437507
-0.105044
-0.793050
-0.059765
-0.351642
0.026134
-0.086872
0.083109
0.483764
0.274688
0.006754
0.195227
0.555186
0.363208
-0.197854
-0.133292
-0.208081
-0.494690
0.653388
-0.452687
0.369812
-0.905053
0.705890
0.176679
-0.156120
-0.233067
-0.410985
-0.110792
-0.551202
0.000183
0.165851
-0.567654
0.061739
0.094816
-0.122872
-0.076131
0.593452
-0.478194
-0.901329
-0.354573
0.011722
-0.418650
-0.126377
-0.526384
-0.346845
0.457538
-1.007816
-0.085806
0.095193
-0.276666
0.528236
0.627091
0.361047
0.502868
-0.223329
0.189804
-0.336446
0.532132
-0.006973
-0.502168
-0.176845
0.097172
0.448413
0.117791
0.098719
-0.296189
0.329278
-0.083355
-0.784512
-0.075366
-0.220044
-0.645845
-0.177432
0.634190
0.086351
0.160232
-0.674379
-0.040879
0.053570
0.000444
-0.412714
0.609310
0.037098
-0.020462
-0.241086
-0.000951
0.388507
0.278644
0.389181
0.612851
-0.216665
-0.138893
0.851746
-0.024375
0.357170
-0.356552
-0.073732
-0.145002
0.638897
-0.111783
0.203486
-0.027543
0.146944
0.135823
0.491587
0.008391
0.631900
-0.287492
0.275067
0.072169
0.103416
-0.304270
0.417441
-0.399533
-0.372732
-0.221398
0.315245
-0.301509
0.185783
-0.169076
-0.318961
0.113728
-0.161122
-0.423087
-0.477278
-0.110086
0.130427
0.382105
-0.185968
0.299607
0.232266
0.238570
0.376068
-0.667949
-0.187590
-0.139026
0.051313
0.943448
-0.052241
-0.643135
0.138975
0.647950
0.422276
0.457793
0.658351
-0.201702
-0.703715
0.093886
-0.730477
0.437838
1.010923
0.825016
0.038066
0.475254
0.393982
0.504251
-0.371566
0.379129
0.073323
-0.359277
-0.142368
0.258887
0.299752
-0.287822
-0.215458
0.299750
-0.041129
-0.043873
0.538170
-0.491036
-0.190547
-0.080757
0.759096
-0.416103
0.220081
-0.000559
0.015843
0.476733
-0.289883
-0.080885
0.292493
0.243020
0.181568
0.086385
0.082966
0.335844
-0.427358
-0.505913
0.504049
-0.781148
0.520013
0.740814
0.362477
0.377649
-0.819050
0.055725
-0.250459
0.859742
-0.209018
-0.344828
-0.780259
0.563633
0.222706
0.294577
0.722498
-0.337609
-0.420736
-1.062334
-0.395786
-0.055235
0.235782
-0.089525
0.265485
-0.165971
0.327585
0.541006
-0.266069
-0.146697
-0.024572
-0.403952
-0.220954
-0.354601
0.029965
-0.856379
-0.508619
0.662997
0.111064
-0.134273
-0.180827
0.122816
-0.241454
0.280406
-0.279400
0.524777
-0.153549
-0.097081
0.083454
0.309594
-0.393910
-0.186219
-0.554065
0.265622
-0.189288
0.072237
-0.116993
0.572701
0.069342
0.313940
-0.554257
0.119816
1.011121
0.320272
-0.357022
-0.748549
-0.442551
-0.161011
-0.140642
-0.362447
0.091637
0.198123
-0.265548
0.354543
-0.417263
0.128745
-0.361879
0.822432
-0.367878
0.102080
-0.013643
0.775326
0.109359
-0.043389
-0.575445
-0.330540
-0.378073
-0.255731
-0.023355
0.474882
0.171201
-0.163607
0.324142
0.579288
-0.379545
-0.548104
0.135696
0.064295
-0.178748
0.628106
0.188566
-0.575498
0.657422
-0.089306
0.583285
0.011565
-0.449733
0.061072
-0.142582
-0.028559
-0.677007
0.579512
0.469084
0.374668
0.689579
1.027079
0.096289
0.729926
1.070092
-0.495941
0.045845
0.139404
0.221190
0.211979
-0.140539
0.384781
0.273377
-0.152210
0.337060
-0.754315
-0.462224
-0.534055
0.834526
0.283582
0.384966
-0.487870
-0.000258
-0.222833
-0.006260
0.251167
-0.168293
0.398235
0.246072
-0.143347
-0.159410
0.669379
0.545577
0.068406
0.025476
0.287656
0.526062
0.074688
-0.127571
-0.009910
-0.221975
0.118038
0.242572
0.203673
0.030128
-0.030568
-0.186241
0.138740
0.000213
1.021922
0.887827
0.461528
-0.283256
-0.342748
-0.295208
0.092941
0.034390
0.847862
0.114801
-0.915960
-0.712290
0.311080
0.041636
-0.817186
-0.646281
-0.213532
0.004816
0.048788
-0.599635
-0.185822
0.097801
-0.266267
-0.054527
-0.233547
-0.120782
0.047959
-0.302635
0.156412
-0.289952
0.544879
0.032495
0.101753
-0.066397
-0.103183
-0.332224
-0.171950
-0.073508
-0.609896
-0.453640
0.343856
0.162605
-0.237528
-0.126791
0.163325
0.156225
-0.466938
0.366059
-0.396488
-0.722059
-0.597931
-0.321369
-0.558311
-0.579587
0.728599
-0.243928
-0.470745
-0.204826
-0.451398
-0.130432
0.126535
0.801603
0.402915
-0.059851
0.427797
-0.156330
-0.294445
0.365592
0.296265
-0.424243
-0.257239
-0.749211
0.170675
-0.036855
-0.384583
-0.393164
0.193357
-0.440680
-0.670809
-0.025051
-0.280231
0.127297
0.251842
0.407977
0.286329
0.181507
-0.600034
0.009922
-0.143092
-0.709590
0.086627
0.510871
-0.210162
0.015274
0.015437
-0.676169
0.493621
0.478635
-0.275933
-0.094235
-0.055857
0.411200
0.101147
-0.726490
-0.387880
0.145855
-0.921864
0.339373
-0.333296
-0.016776
-0.400278
0.632684
0.287580
-0.205477
-1.011942
0.091734
-0.269358
-0.635395
0.743251
-0.229834
-0.090543
-0.403341
0.343674
-0.836202
-0.118815
-0.062890
0.326734
-0.132307
0.144562
0.482124
0.523860
-0.017446
0.583934
0.028396
-0.421539
-0.010324
0.364495
-0.965315
-0.417658
-0.131415
0.177887
0.462439
-0.119992
-0.371501
0.480197
-0.123541
-0.553632
0.128793
-0.644135
-0.571376
0.692573
0.439492
0.263394
-0.449789
-0.208742
0.258292
-0.111026
0.392921
0.477955
0.370360
0.654592
0.242886
-0.093381
-0.060607
-0.150604
-0.065988
0.443404
-0.028306
0.037056
-0.421254
0.456400
0.288852
-0.336111
-0.390560
-0.360588
0.601323
-0.273985
0.384860
-0.278051
-0.787939
1.163675
-0.154890
-0.018967
0.216597
0.738473
0.512053
-0.517084
0.462199
0.156936
-0.208283
0.421934
-0.855219
-0.437774
0.322179
-0.158847
-0.356371
0.279709
-0.141781
0.331627
0.573587
-0.942265
-0.188287
0.235443
0.510190
-0.672108
-0.235945
-0.249773
0.325676
-0.675961
0.519651
0.019716
-0.264852
-0.294381
-0.697010
0.084230
-0.135114
-0.352994
-0.807976
-0.733172
-0.559627
-0.096998
0.170048
-0.208241
-0.266995
-0.274928
0.004319
0.283374
-0.001707
-0.352241
-0.711514
-0.477540
-0.513303
-0.543633
0.020846
0.535805
0.194781
-0.004272
0.315397
0.899293
0.421235
-0.378937
-0.384300
0.366062
-0.062516
-0.409669
-0.587212
0.214261
0.578302
0.063164
0.160626
-0.714028
0.337452
0.681983
-0.780781
-0.037870
-0.722109
-0.240740
0.221374
0.180694
-0.315232
-0.373627
-0.151710
-0.396252
0.210041
0.355125
0.286360
-0.301214
0.583449
0.215312
-0.476395
0.502319
-0.299311
-0.107061
0.211132
-0.964097
0.172910
-0.171160
0.439992
-0.079391
0.063748
-0.315894
-0.702018
-0.348799
-0.136951
0.244310
0.420849
0.648108
0.190995
0.302334
-0.505057
-0.255953
0.091441
0.109490
0.061423
0.122747
0.038803
-0.116435
0.206763
-0.306508
0.347748
-0.227743
0.637994
0.020838
-0.639076
0.002292
-0.018377
0.192629
-0.569356
-0.273945
0.117694
-0.059153
0.072822
0.277563
-0.295942
-0.291603
0.553575
-0.093515
0.467791
-0.118295
-0.502452
0.292790
0.960892
-0.605082
-0.091787
0.358898
-0.787788
0.857011
-0.098688
-0.004975
0.221113
0.753896
-0.592476
0.008264
0.154378
-0.011579
0.551012
-0.490543
0.236923
-0.042755
-0.250580
-0.592414
0.194001
0.434945
-0.287946
-0.196933
0.950251
0.278096
0.267011
0.615179
0.590123
0.112301
0.373984
0.612789
-0.489008
-0.484522
0.349303
-0.076453
0.178114
-0.073145
0.166036
0.222441
0.360972
0.300883
0.326344
-0.101818
-0.602105
-0.907326
-0.040046
-0.235421
-0.116449
0.060194
0.512549
-0.812105
-0.635894
0.408476
0.013213
1.092785
-0.249389
-0.279919
-0.198773
0.275586
0.141283
-0.879549
-0.216810
-0.462977
0.554300
0.053908
0.220413
-0.150426
0.043411
-0.231667
1.048331
-0.153402
0.425119
-0.138179
-0.711482
0.303968
0.360200
0.064640
0.218716
-0.049417
-0.391191
-0.492591
-0.731800
0.353058
0.366030
-0.009039
-0.311010
0.601071
0.217696
0.741725
0.471704
0.561308
-0.162246
0.136506
-0.642743
0.005473
-0.104098
-0.269644
-0.095280
-0.574107
-0.055928
-0.100206
-0.838799
0.141549
-0.509397
-0.309241
-0.664541
-0.081616
0.432534
0.564914
-0.267416
0.463930
-0.518753
-0.025880
-0.311254
-0.133434
-0.421532
0.543625
0.391957
0.124759
-0.487466
0.186958
-0.577722
-1.207142
0.703140
-0.237394
0.282444
0.690360
-0.542839
0.017538
0.658055
0.020636
0.345025
0.194912
0.148497
-0.445179
0.360879
-0.403391
-0.011968
-0.152751
0.904423
-0.647255
-0.080076
0.121138
0.254714
-0.028714
0.008374
-0.163372
0.477095
0.246094
0.479767
-0.757665
0.054914
-0.363329
-0.156653
-0.229669
0.164140
-0.143821
-0.662948
-0.344407
0.226414
0.206619
-0.134688
-0.817293
0.186766
-0.727784
-0.338246
0.257000
-0.369639
-0.084765
0.500909
-0.011500
-0.046892
-0.096777
-0.568702
-0.483556
1.050033
-0.091716
-0.359772
0.052563
0.636374
0.177110
-0.325364
-0.093809
-0.263661
0.079733
0.716925
0.663683
-0.313689
-0.046423
0.097155
0.257917
0.500937
0.745339
-0.628599
-0.314343
0.121050
-0.254141
0.306847
-0.463569
-0.251582
-0.342829
-0.271296
0.108537
0.315013
0.198841
-0.338401
1.159088
0.122223
-0.069953
-0.651684
-0.099117
0.379263
-0.102168
0.407658
0.185908
0.327326
0.483707
0.190954
-0.582490
-0.024817
-1.057631
-0.217389
0.201491
0.606827
-0.753461
-0.376227
-0.354541
0.990244
-0.568617
-0.558617
-0.185283
0.284456
-0.455529
-0.028693
-0.098146
-0.034881
-0.225711
-0.290717
-0.037515
0.006701
0.010672
-0.200240
-0.585584
0.245979
0.731070
-0.081522
-0.583272
-0.149839
0.185483
-0.144763
-0.207329
-0.035418
-0.148117
-0.034526
1.611471
-0.263685
0.395473
0.398344
0.141819
0.222120
-0.414652
0.427353
-0.109797
0.822635
0.228621
-0.706944
-0.131966
0.625272
-0.270713
0.003290
-0.685253
-0.198302
-0.584797
0.757557
0.250832
-0.167801
-0.271454
0.322653
0.080571
-0.445626
0.420754
0.414401
-0.691403
-0.182676
-0.065949
0.032474
-0.161357
-0.296223
-0.255197
0.165648
0.231772
-0.307553
-0.087503
0.314311
0.043914
0.294941
0.232081
0.261856
0.351837
-0.394447
-0.185976
0.202555
-0.548128
-0.890618
0.420472
0.008747
0.091789
0.396724
0.092742
-0.261181
-0.171049
0.198876
-0.369356
-0.301464
-0.262614
-0.213419
-0.146601
-0.524582
0.057426
0.136639
0.183991
0.646448
0.074313
-0.206153
0.027164
0.331678
0.070404
-0.204622
0.067434
-0.323272
-0.624876
-0.152303
0.333685
0.452104
0.244860
0.021943
-0.112242
-0.294194
-0.473678
0.398540
-0.305804
-0.309950
-0.205445
0.062921
0.186490
0.412956
-0.058771
1.060951
0.416786
-0.536281
-0.632135
-0.409661
-0.258285
0.186319
-0.488172
0.229189
0.201718
-0.309944
-0.380918
0.869890
0.687986
-0.469421
0.682664
-0.342261
-0.009326
0.264307
-0.013744
-0.101259
-0.845093
-0.067538
0.030098
0.440210
1.106916
0.410230
0.777180
-0.855782
0.101610
0.269762
-0.421842
-0.524300
0.062347
-0.023371
0.158004
-0.345654
0.087872
0.671782
-0.529153
0.611302
0.004994
-0.351120
-0.477280
-1.024180
-0.072732
-0.488572
0.857719
-0.014795
-0.416667
0.201065
0.276399
0.132175
0.006654
-0.189276
-0.042346
-0.110786
-0.937287
-0.652591
1.265322
-0.055127
-0.017566
0.416820
-0.440029
-0.104788
-0.464153
0.313360
-0.427145
0.670737
0.148836
-0.276191
-0.125791
0.686642
0.169349
0.071446
0.991043
0.560643
-0.417880
-0.376449
0.292126
-0.196372
0.057106
-0.973415
0.160246
1.337471
0.339880
-0.354605
0.085993
-0.003873
-0.043868
-0.182916
0.695063
-0.598948
0.105016
0.108659
-0.349202
-0.082770
-0.231187
-0.409411
-0.200681
0.142561
0.343401
0.992396
0.548726
0.182962
-0.214464
-0.038615
-0.134936
0.162147
-0.243713
-0.043646
0.677435
0.357610
-0.077536
0.143024
-0.092423
0.555524
0.480659
0.106089
-0.107614
0.181436
0.137788
0.095931
-0.027158
-0.167912
0.346399
0.359702
-0.192682
0.670480
-0.146450
0.222608
-0.187679
-0.652361
0.441420
0.938702
0.966251
-0.890160
-0.437291
-0.279126
-0.147428
0.460467
0.352508
-0.317530
-0.050643
0.128872
0.317921
0.406539
0.082308
-0.069647
0.676480
-0.596598
-0.160548
0.755098
-0.281581
0.008464
-0.280160
0.219145
-0.437730
-0.063162
-2.019706
-0.166845
0.313374
-0.095908
0.002371
-0.426715
0.449383
-0.011830
0.009352
-0.371660
-0.693198
0.102357
-0.000252
-0.087649
1.325796
0.008833
-0.823591
-0.117263
0.315963
-0.083948
-0.395687
0.239009
-0.141507
-0.027210
-0.643010
0.419975
0.184860
1.216272
-0.582056
0.592252
1.113783
-0.903120
-0.857624
0.063551
-0.042648
-0.180359
0.590814
0.453608
-0.559382
1.008372
1.446599
-0.682208
-0.414325
1.327961
-0.678468
0.612735
-0.503628
1.453407
-1.010456
-1.040163
-3.403509
1.788410
-0.566809
-0.586557
-0.235259
0.856871
-0.938310
-0.700404
-0.522457
-2.372473
-0.159450
0.788455
0.760214
0.506267
2.720238
-0.807314
-2.761097
-0.289500
-0.497834
-0.341072
0.999116
0.534650
-0.123771
0.652908
0.350641
-0.165416
-0.461328
2.982683
-0.164843
0.526739
2.922895
-1.090477
-2.188566
1.624004
-1.968115
1.122667
-0.643755
0.563786
