0.085761
-0.467960
0.029121
0.017822
1.029143
0.176329
0.245285
0.509882
0.424763
0.445397
0.100557
-0.360747
0.047495
-0.131732
0.593324
-0.382721
-0.061060
0.176003
0.222179
-0.429703
-0.219650
0.754802
0.220229
0.615665
0.161291
0.238459
-0.181245
0.144260
0.048422
-0.062777
-0.781378
-0.639241
-0.727135
0.284585
0.482997
-0.945207
0.171627
-0.302028
-0.209582
-0.174583
-0.766632
-0.329014
-0.344005
-0.129005
-0.110069
-0.236735
-0.254116
-0.082745
0.471754
-0.623063
0.559951
0.387610
0.330721
0.155882
-0.326049
-0.442823
-0.354035
0.413075
0.287700
-0.367642
0.270593
0.646859
-0.323479
-0.497569
0.040714
0.853213
0.276439
0.541253
-0.635873
-0.270997
-0.018058
-0.012107
-0.706590
0.633101
0.091422
-0.378159
-0.003094
-0.995390
-0.529902
0.182920
0.498048
0.146832
-0.306343
-0.362683
-0.775502
-0.125491
-0.251856
0.181050
0.260540
-0.358198
-0.163070
-0.012309
0.224288
-0.863611
-0.753334
0.634083
-0.479774
-0.684457
0.641052
0.335267
0.148345
0.038671
-0.482779
0.363889
0.164493
-0.285874
0.707991
0.042789
-0.207388
-0.067458
-0.179331
0.359389
0.047501
0.253700
-0.042871
0.394834
-0.006194
0.119656
-0.147238
-0.086364
0.232997
-0.532412
0.063743
0.240487
0.090635
0.277942
-0.140190
-0.230343
0.791061
-0.621732
-0.148921
-0.054822
-1.003006
0.066677
-0.202269
-0.076643
-0.782577
0.396624
-0.036471
-0.061159
-0.925830
0.288969
0.380155
0.576564
0.040849
-0.023345
0.189298
-0.139683
-0.299506
0.087191
-0.244662
-0.176303
-0.096209
0.735007
0.406412
0.264157
0.474661
0.020711
0.168171
-0.768233
0.094538
-0.685286
-0.586864
0.723521
0.069973
0.577684
0.344971
-0.717222
-0.876376
-0.802105
0.451416
-0.095276
-0.377232
-0.363494
0.422755
0.052743
-0.126909
-0.427951
0.120584
0.238440
0.192145
0.246619
0.291764
-0.193387
0.200422
0.038634
-0.149338
0.392303
-0.157200
0.105377
0.288324
-0.227834
-0.410824
-0.019938
0.355034
-0.461086
0.668244
0.020393
-0.062343
-0.698467
-0.219598
0.047065
0.409648
-0.261973
-0.382219
0.459148
-0.610821
0.289321
0.438525
-0.029787
0.329831
-0.022368
0.126197
0.375853
-0.242221
0.333388
-0.293652
0.034040
0.283554
0.505606
0.548460
0.041540
-0.320383
0.613180
-0.431111
0.289899
0.638586
-0.165986
0.391113
0.030390
0.113546
-0.097821
0.275718
-0.205952
-0.295326
0.067635
-0.553273
0.501866
0.185724
0.486252
-0.117759
0.037827
-0.275091
-0.107089
0.194659
0.395068
-0.007239
0.652742
0.723124
0.080101
-0.585179
0.033713
-0.094139
-0.088529
0.125244
0.269739
-0.104700
0.061833
-0.357253
0.531272
0.013655
-0.201684
0.409052
-0.012065
-0.017711
0.114931
0.292706
-0.478788
-0.397463
0.587536
0.308146
0.057475
-0.569877
0.356341
0.331588
0.110609
0.050257
0.302266
-0.420673
-0.907277
-0.703693
0.067794
-0.107182
-0.106443
-0.193772
1.015849
-0.677724
0.698019
-0.283144
-0.247296
-0.051011
-0.383163
0.421256
0.854231
0.156723
0.321734
0.085073
0.683371
0.507268
0.280973
-0.503444
-0.024305
0.173288
0.717501
0.224856
-0.028078
0.026613
-0.235220
-0.105641
0.161727
-0.381532
-0.196935
0.239516
0.370079
-0.160941
-0.530169
0.455336
0.486669
0.455391
-0.969714
-0.088738
-0.301287
-0.238845
-0.481008
-0.012056
0.090928
0.203281
-0.321259
-0.106827
0.714068
-0.069749
0.553370
-0.815632
-0.476121
0.109119
-0.014982
0.042343
0.042641
-0.430192
0.338782
0.217896
-0.225956
-0.202882
-0.042687
0.385599
-0.044360
-0.085985
0.031912
-0.253037
0.084041
0.021433
-0.605978
-0.365945
0.294840
-0.508279
0.109459
-0.260258
-0.201896
-0.647009
-0.259975
-0.045096
0.015898
0.292337
-0.084683
-0.335256
0.218690
-0.318112
0.611267
0.085110
0.278170
0.695642
-0.468663
0.310358
0.164612
-0.533960
-0.670799
-0.492474
-0.074752
-0.426800
-0.046702
-0.530288
-0.131297
-0.348656
-0.435570
-0.016920
0.669804
0.220755
0.107838
0.115609
-0.233527
-0.013999
0.452311
0.041023
0.683578
0.406112
0.357454
-0.343880
-0.164365
-0.526264
0.131720
0.013556
0.037704
-0.093892
-0.198973
-0.524054
-0.495384
-0.325892
-0.517742
-0.917667
0.014858
-0.132929
-0.398847
-0.495003
-0.211508
0.562599
0.494556
0.006089
-0.362151
-0.300774
0.489801
-0.553774
0.766410
0.012393
0.366466
0.219671
0.148416
0.445488
0.024080
0.005208
-0.763655
-0.041789
-0.079537
0.347830
-0.729874
1.144740
0.126305
0.377528
-0.536826
0.195548
0.052899
-0.131346
-1.097975
-0.414728
0.710768
0.095612
-0.414065
-0.569255
-0.480914
0.170463
-0.001899
-0.177345
-0.329685
-0.132486
-0.015611
-0.306749
-0.267930
0.566483
-0.332034
-0.172188
0.090050
0.456428
0.647273
0.376178
-0.452611
-0.201742
0.148707
0.250661
0.139884
-0.509326
0.014337
0.214400
-0.091175
-0.288425
-0.243105
0.256488
-0.499614
-0.776207
0.059082
-0.077707
0.502576
0.515183
-0.498813
-0.948915
-0.361320
-0.559231
-0.339454
0.567078
-0.048539
0.003585
-0.101706
-0.538320
-0.121735
0.381547
0.429848
-0.184106
0.173013
0.093343
-0.226200
0.504403
-0.322093
0.134076
-0.375550
0.051344
-0.706685
-0.399280
0.334990
0.036059
-0.222749
0.817805
-0.741341
-0.181944
0.502678
-0.058663
-0.171135
0.311351
0.022705
0.614810
-0.724951
-0.379090
-0.348975
-0.485303
-0.187210
0.755529
0.341576
-0.150843
-0.565535
0.050081
-0.588317
0.059816
-0.376348
-0.197467
0.019306
0.003811
0.149850
0.180979
-0.053395
0.052961
0.740607
0.040317
0.428360
-0.252317
0.656398
-0.052858
0.406812
-0.892369
-0.648091
0.227031
-0.365062
-0.409336
0.567105
0.381154
0.189959
0.220441
-0.235081
-0.078040
-0.281642
-0.464033
-0.376921
-0.107847
0.266311
-0.186404
0.025047
-0.203315
-0.284321
0.113464
0.242343
-0.236138
0.600644
-0.068710
-0.418217
-0.145173
-0.052668
0.186116
0.393132
-0.187231
0.475086
-0.197592
0.076815
-0.584575
-0.065933
0.290631
0.610982
0.225316
-0.328645
-0.046328
-0.403524
0.500287
-0.563792
0.352424
-0.393745
0.024581
-0.294434
0.331325
0.106680
0.084122
-0.405773
-0.265175
0.530731
-0.412686
-0.894284
0.339409
0.245468
0.219205
-0.162825
0.418541
0.702213
0.355336
-0.037502
0.355457
-0.068708
-0.455010
0.023856
0.155970
-0.228591
-0.001183
0.108258
-0.261663
-0.282518
0.342873
-0.429224
0.610373
0.053124
-0.382037
0.080062
0.347186
-0.323417
-0.645369
0.130808
-0.114792
0.249105
-0.447134
-0.585606
-1.002017
-0.075138
0.141430
-0.189553
-0.223483
-0.130459
-0.227774
-0.276714
-0.131877
-0.270057
0.211276
0.001834
-0.296031
0.268629
0.580493
0.531650
-0.056240
0.100217
-0.182791
0.155910
-0.438007
-0.432216
0.602981
0.144675
-0.673136
-0.064573
-1.097202
-0.286204
-0.215676
-1.261639
-0.621013
-0.241574
0.416083
-0.108715
0.231820
0.018004
0.244829
0.190671
-0.406094
0.399394
-0.655515
-0.019850
-0.306948
-0.307974
0.393026
-0.622178
0.332927
0.120114
0.108854
0.771539
-0.317640
-0.076602
-0.396730
-0.036016
0.439467
0.232775
-0.447471
-0.542634
-0.490234
0.524224
0.078262
-0.160081
-0.197168
0.355358
-0.346856
-0.108327
0.598044
-0.264597
0.176507
-0.001019
0.094323
-0.876892
0.382782
0.082751
0.017490
0.258811
-0.416986
-0.178627
0.537899
-0.079850
0.530783
0.251670
-0.382555
-0.042700
0.596181
0.072601
-0.239610
-0.116571
0.462064
-0.092444
-0.712338
-0.375477
-0.148995
0.161620
0.461641
0.183811
-0.000736
0.359989
0.046400
0.432555
-0.089978
-0.139716
0.603468
0.758526
-0.037017
-0.192235
0.063650
-0.129640
0.244957
0.006062
-0.693259
0.012686
-0.285321
0.427542
0.063107
-0.716712
0.179402
0.321920
0.722039
-0.701921
0.280955
0.530529
0.629411
0.051826
-0.077802
-0.331025
-0.122559
-0.461283
0.312957
-0.096549
-0.326658
0.190998
-0.969824
-0.299179
0.216790
0.133798
-0.192710
-0.239499
-0.105520
0.508529
-0.766633
-0.327732
0.601678
0.373443
0.074280
0.405401
0.267302
1.113313
-0.568481
0.028245
0.268706
0.602614
-0.642780
-0.218751
0.329125
0.124873
0.301170
0.070727
-0.198839
-0.656024
0.137219
0.072558
0.013339
-0.723926
-0.610049
0.608909
-0.343754
0.500166
0.377033
0.648124
-0.003657
-0.119403
0.002052
-0.001879
0.150543
0.070568
0.397829
-0.640397
0.199538
-0.477888
0.183220
0.734882
-0.049137
-0.830272
0.195338
1.142805
-0.579744
0.050323
0.192931
-0.823414
-0.516334
-0.012335
-0.697757
0.451998
0.396501
-0.035929
0.308549
0.503153
-0.009235
0.214063
0.057993
-0.260731
-0.079997
0.341544
0.198816
0.446575
-0.090440
0.252277
-0.159517
-0.137935
0.013155
-0.400632
0.054219
0.457101
0.128002
0.124763
0.434376
-0.363541
0.482940
0.716296
-0.762003
0.026874
-0.490365
0.563086
0.018327
-0.390944
-0.735282
0.226658
0.221945
-0.047123
0.121495
0.228508
-0.008252
0.251028
0.437558
0.670036
-0.505795
0.622047
0.054916
-0.010088
-0.218381
0.168979
-0.623201
0.319135
-0.104090
-0.306194
-0.091745
0.087663
0.112505
-0.782681
0.467499
-0.060896
0.209357
0.564120
0.225156
0.500192
-0.072665
-0.142375
0.052041
0.390855
-0.252412
0.490627
0.505160
0.596278
0.336724
-1.036630
-0.733416
0.553023
0.475643
0.045953
-0.445448
-0.138641
-0.036843
0.055936
-0.043587
-0.390172
-0.613038
-0.746030
-0.352878
-0.632949
0.142236
-0.105042
-0.117639
0.366683
-0.261337
0.215536
-0.659667
-0.151017
0.108091
-0.170934
0.237884
-0.111034
-0.002904
-0.342253
0.441087
0.508822
0.041315
1.047185
-0.076434
-1.090214
0.405420
0.048153
-0.427413
0.141459
0.183151
0.338795
-0.317319
0.073610
-0.424274
0.038224
-0.351145
-0.099631
-0.554516
-0.319474
0.346512
0.132427
0.492859
-0.015524
0.764613
0.498825
-0.081671
-0.177280
-0.693818
0.257602
0.197483
-0.494093
-0.038312
-0.022031
0.244712
-0.448818
-0.227973
-0.216609
-0.814507
0.167682
-0.013001
-0.082538
-0.303805
0.220628
0.004289
-0.088503
-0.143202
0.162059
-0.128402
-0.483861
-0.531170
0.512852
0.282854
-0.225750
0.064778
0.051779
0.387222
-0.532095
0.076508
0.367802
0.467064
-0.236576
0.140679
-0.001228
0.646128
-0.406261
0.373479
0.206421
0.744824
-0.432490
-0.186104
0.575186
0.185935
-1.043648
0.515871
-0.555795
0.022994
-0.157748
-0.129332
0.567003
0.801974
0.079576
0.661179
1.075774
-0.219222
-0.018969
0.027152
0.081016
0.006446
-1.082133
0.469651
0.531698
-0.136587
0.163991
0.498435
-0.128050
-0.838001
-0.461645
-0.147678
-0.495619
-0.124815
0.519066
0.101900
-0.365498
-0.143408
0.935534
-0.054805
-0.561510
-0.486061
-0.088572
-0.511307
0.084460
1.079821
-0.001531
0.395762
0.663574
-0.036417
-0.087137
-0.106958
0.100722
-0.538323
-0.222369
0.318108
0.404843
-0.344324
-0.073996
0.258104
0.242895
-0.198753
-0.527810
0.259888
-0.042182
0.039338
0.211881
0.084958
0.047516
-0.179680
-0.322306
0.462168
0.232743
0.407463
-0.536104
-0.320110
0.243330
0.819556
0.941994
0.091094
-0.232680
-0.266975
-0.202175
-0.414026
-0.418268
-0.654577
-0.076664
-0.351297
0.275626
0.460274
0.630110
1.011057
-0.012447
-0.098614
0.013524
0.207400
-0.203389
0.218447
0.240024
-0.205261
0.178774
0.478839
0.947758
0.782866
-0.197022
-0.650753
0.136207
-0.013463
0.260453
-0.187139
0.197092
0.536282
0.448279
-0.171806
0.166053
0.528480
0.008540
-0.448520
-0.156633
0.193859
0.155755
0.296581
-0.834779
-0.273831
-0.235719
0.416954
0.217777
0.084229
0.212808
0.749049
-0.387214
-0.032468
0.007908
0.638485
0.696225
-0.046939
-0.211882
0.168491
0.312973
0.318316
-0.165071
-0.634035
-0.131634
0.473408
0.233010
0.691979
0.393439
0.127887
0.291524
-0.059809
-0.006808
-0.439907
0.978096
-0.023252
-0.269064
-0.446961
-0.409257
0.233992
-0.045871
0.154060
-0.295943
-0.073594
0.171309
-0.039978
-0.322273
-0.051437
-0.773212
-0.143783
-0.054745
-0.703056
-0.324074
0.175839
-0.180968
-0.308867
-0.886600
0.574125
0.050571
-0.148680
0.294833
-0.245912
-0.281983
0.144645
-0.354040
0.036280
-0.328362
-0.258231
-0.732058
0.280808
-0.537272
0.697863
0.160672
-0.489106
-0.023457
0.198155
-0.089741
0.296609
0.379798
-0.008995
-0.181319
0.393912
0.366916
0.259922
-0.729228
0.240651
0.017542
-0.615272
0.036195
0.345959
-0.998887
-0.464432
0.152349
0.069250
-1.168636
-0.342068
-0.696000
-0.301726
-0.032748
1.024515
0.022731
0.488705
0.610258
0.062510
-0.805945
-0.290867
0.404780
0.237127
-0.696920
-0.020041
-0.099866
-0.531018
-0.392047
0.818356
0.217751
0.028867
1.734600
0.684005
-0.019422
0.597403
0.098467
-0.197629
0.142687
0.237056
0.213793
-0.211903
-0.435834
0.255735
0.786243
-0.272530
0.539625
0.299324
0.108958
0.155280
0.413665
0.743180
0.531620
-0.796515
0.330277
-0.191527
0.115648
0.477600
-0.897550
0.722204
-0.037833
-0.466439
0.622514
-0.136747
-0.297417
0.779306
0.208674
-0.054079
-0.699613
-0.225775
0.067835
0.333110
0.009842
-0.192767
1.189746
0.133218
-0.537056
0.394746
0.606649
-0.572639
-0.028086
-0.040101
-0.166437
0.464832
-0.318764
-0.028316
0.255494
0.490358
0.140597
0.543042
-0.245938
-0.782603
0.189534
0.613465
-0.670781
0.336338
-0.036279
0.159037
0.666434
0.137583
0.147397
0.659357
-0.976829
-0.558174
-0.626696
0.161988
0.111422
0.181247
-1.142222
-0.748097
0.295443
-0.031567
-0.400640
-0.079520
-0.004086
0.058096
0.406574
0.347115
0.622836
-0.123631
0.201954
0.086997
0.182636
-0.274812
-0.316575
0.816295
-0.358530
-0.339268
-0.506707
-0.068134
-0.504173
0.629144
0.043109
-0.578739
-0.474692
-0.442037
-0.258066
-0.154502
0.476263
0.218238
0.251546
0.300031
0.680731
-0.171245
0.000641
-0.550709
0.853295
0.203060
0.427984
-0.338424
0.396462
-0.266393
-0.244387
0.017229
-0.003164
-0.461802
-0.019204
-0.263456
-0.475164
0.576802
-0.226366
-0.411851
0.314522
-0.439400
-0.222928
-0.234863
0.114160
0.512437
-0.364180
-0.085629
-0.085157
0.678960
0.113876
-0.219227
0.155041
-0.013106
0.098239
-1.023231
-0.346278
0.127975
-0.430256
-0.929467
-0.161456
-0.074766
0.268069
0.529037
-0.033151
-0.036142
-0.177515
0.147298
-0.044601
-0.276797
0.142862
-0.141739
-0.268834
0.553735
0.481141
-0.270207
-0.241970
-0.391267
-0.172438
0.415113
0.270769
0.078104
-0.344303
-0.111717
-0.161216
0.351250
0.059335
-0.030777
-0.359951
-0.139386
-0.313187
-0.012432
0.105605
0.761528
-1.158996
-0.380712
0.216871
0.727394
0.102402
-0.910658
0.075160
-0.247540
-0.200882
-0.227177
-0.069443
-0.798932
-0.913329
-0.026684
-0.245171
-0.182861
-0.527939
0.094168
-0.321986
0.471558
-0.109641
0.396599
-0.191378
-0.476943
-0.432064
-0.418155
-0.743385
-0.115705
0.067736
-0.154807
-0.320821
-0.223690
0.368769
0.042763
0.227394
-0.321761
0.051472
-0.255893
0.017372
-0.349723
-0.022260
-0.557518
-0.378890
-0.470371
0.232157
-0.622502
-0.431165
0.184949
0.201573
0.002830
-0.632073
-0.784567
-0.295773
-0.576431
-0.528672
-0.765989
0.553011
-0.502329
-0.170402
0.382780
0.678612
-0.012482
-0.838676
-0.032719
-0.228430
-0.067591
0.051998
-0.062802
0.194333
0.462058
-0.286518
-0.099378
0.019811
-0.836080
-0.277251
-0.529405
-0.307236
-0.143629
-0.046129
0.632144
-0.473041
-0.155877
0.226079
-0.409709
-0.312314
0.267537
0.108158
-0.986700
-0.626510
-0.309824
0.319807
0.327319
-0.170193
0.784057
-0.516823
0.300634
-0.128562
-0.256060
0.259769
-0.128496
0.070650
0.208891
-0.261430
-0.135397
0.267229
0.401652
-0.162276
0.390584
0.007127
-0.249436
0.351541
-0.130797
0.708249
-0.426744
0.167190
0.105867
0.620556
-0.506356
0.182664
-0.649874
0.136074
0.693743
0.318775
-0.694184
0.317298
-0.547066
0.349819
-0.627257
0.484291
-0.101977
-0.012394
-0.248028
-0.338118
0.174403
-0.590429
-0.258932
0.377815
-0.540711
-0.264718
-0.045082
-0.090105
0.472237
0.358762
-0.247931
0.722645
-0.578060
0.194944
-0.015982
-0.509727
0.308927
0.467389
0.243013
0.460579
0.439327
-0.022184
-0.627745
0.023261
-0.328382
-0.322309
-0.798803
-0.184027
0.262070
-0.429468
0.011380
-0.203806
-0.420961
-0.287013
0.303371
0.599019
-0.301484
0.165206
-0.007764
-0.437889
0.156728
0.154411
-0.239613
0.494283
0.034571
-1.016211
0.091723
0.134302
-0.167676
-0.540697
0.114729
0.448017
-0.303234
0.362812
0.461164
-0.574811
-0.073917
0.611916
0.274033
0.257005
0.005972
0.175011
-0.277333
0.335689
-0.135203
0.013526
-0.033343
0.088643
-0.304383
-0.459908
-0.391066
-0.253973
-0.064300
0.432748
-0.396150
0.204463
-0.150882
-0.140545
-0.951066
0.373889
0.531193
-0.037443
0.488736
-0.163360
0.547525
0.631981
0.463155
-0.090270
-0.176129
0.210529
-0.176234
-0.675422
-0.433379
-0.339677
-0.691822
0.581200
0.483867
-0.445788
-0.003635
0.507042
-0.087098
-0.247210
-0.344472
0.318005
-0.300300
0.050776
-0.370742
-0.109377
0.791681
0.296714
-0.422882
-0.136212
0.214519
-0.041202
-0.099479
-0.036004
0.036159
-0.855110
0.369043
-0.054875
1.068937
-0.428374
-0.220696
-0.430388
0.361054
0.435235
-0.442863
-0.697694
-0.248079
0.099445
0.430293
0.536798
-0.283502
-0.176344
0.293201
0.183246
-0.402679
0.129606
0.106302
-0.422249
-1.320510
-0.043632
-0.215453
0.191109
0.401221
0.107628
0.504612
-0.057514
0.236486
0.008788
-0.161825
-0.313246
-0.077580
-0.556234
0.519415
-0.496893
0.462720
-0.241897
-0.100785
0.157985
0.550824
0.139266
0.142353
-0.267093
-0.332217
-0.109665
0.221880
-0.690584
0.278476
0.559660
0.367818
0.480082
-0.155196
-0.292426
0.256697
-0.230321
0.190445
-0.851187
0.101320
0.116718
-0.040156
0.395651
0.323245
-0.732614
-0.265569
-0.337914
-0.234570
0.202509
0.646779
-0.651138
0.537186
-0.351002
0.015851
0.127473
-0.095522
0.100016
-0.723926
0.654325
0.184050
-0.100590
-0.113712
0.357752
-0.788321
-0.944683
-0.152025
0.126435
0.796985
-0.439880
-0.197696
0.490845
-0.053619
-0.008961
0.038915
-0.365037
0.410058
0.078908
0.376918
0.093247
-0.637334
-0.635637
-0.077525
0.245137
0.127664
0.510267
-0.342782
-0.163848
0.357106
0.135077
-0.032642
-0.265873
0.581745
-0.082811
-0.206039
-0.491169
-0.172345
-0.439505
-0.143857
-0.567186
-0.047676
-0.255531
0.322592
-0.567189
0.702054
0.168123
0.092524
-0.648148
0.498858
0.100332
-0.041618
-0.270163
-0.134705
0.305131
0.655168
-0.048628
0.474948
-0.527479
-0.695366
-0.251080
-0.322349
0.246410
-0.209322
0.491774
-0.393380
0.492879
0.654087
-0.186276
-0.395767
0.545784
0.389914
0.073514
-0.969831
0.551414
-0.339043
-0.771307
0.534568
0.573049
-0.226841
0.191354
-0.754702
0.413212
0.156261
-1.030670
0.283192
0.173741
0.342774
0.017167
0.101411
-0.280392
0.145950
-0.283326
-0.605292
0.104861
0.238884
0.256502
-0.297863
-0.370248
-0.178099
-0.135935
0.308304
-0.453202
0.476020
0.211177
-0.374023
-0.272742
-0.372317
-0.504623
-0.013529
0.261264
-0.054110
0.189615
-0.915891
0.201244
0.180526
-0.089165
-0.522516
-0.901731
0.437575
-0.048092
-0.053585
0.372991
-0.310902
0.123826
0.518586
-0.549081
0.244064
0.169584
-0.538769
0.731911
-0.092519
-0.558163
-0.046363
-0.241530
-0.158190
0.198323
0.042798
0.669081
-0.395549
-0.711958
0.079655
-0.292954
-0.008718
-0.721825
-0.095727
-0.045197
0.215380
-0.020517
0.478763
0.072846
0.245263
0.287774
0.266158
0.269692
0.655450
-0.157669
0.727366
-0.146704
0.832640
-0.082939
-0.082428
-0.056590
0.376475
-0.173965
0.063196
-0.078677
-0.014140
0.010208
-0.966935
0.074093
-0.107798
-0.189226
0.276242
0.810246
0.385805
-0.478910
0.061447
-0.168034
-0.205913
0.458554
-0.397780
-0.786595
0.139492
0.763761
-0.214179
0.522360
-0.431168
-0.813503
-0.486487
-0.556938
-0.144380
0.164368
0.223199
0.213418
-0.067911
-0.185985
-0.373503
-0.406858
0.071858
0.418233
-0.139965
0.297857
-0.097590
0.518503
-0.578678
0.312610
0.978798
-0.204019
-0.235231
-0.898930
-0.455934
-0.568116
0.135328
-0.258830
0.220573
0.064151
-0.108445
-0.683408
-0.017680
-0.277631
-0.030499
0.459793
-0.661160
0.039870
-0.109790
-0.198072
-0.187397
-0.691382
0.784129
-0.119316
-0.203724
-0.901861
-0.324217
0.195368
0.760723
1.220262
-0.363909
0.511731
0.048410
0.227899
0.151137
0.180393
-0.427664
-0.293093
0.099822
-0.407551
0.365982
0.441574
-0.190911
0.044133
-0.839907
-0.457932
0.334024
0.134158
0.408709
-0.459916
0.052964
0.336789
0.322677
0.483503
-0.290077
0.008870
0.451220
0.665387
0.100875
-0.038354
0.436448
-0.222624
0.868672
0.750676
0.266806
0.436789
-0.335073
-0.260396
-0.060055
0.646535
-0.082270
-0.072316
0.196472
0.305401
-0.482898
0.080129
0.497776
-0.223679
-0.257692
-0.191942
-0.164214
0.219794
-0.589980
-0.331642
0.056867
-0.029322
0.092784
0.292703
0.179571
-0.103398
0.303544
0.572016
-0.039976
-0.270218
0.274335
0.378634
-0.159273
0.101173
0.255408
0.420431
-0.403973
0.560758
0.177818
-0.633136
-0.539869
0.353288
-0.338111
0.555584
-0.075085
0.605044
0.008759
-0.407171
-0.254503
0.354924
-0.774918
-0.583191
0.758969
0.229925
-0.459959
0.605581
0.042514
0.225905
-0.030715
0.065396
0.350001
0.085737
0.379988
-0.420755
0.400458
-0.277182
0.296381
0.140988
-0.499776
0.301727
0.066851
-0.504652
0.249565
-0.186594
0.341618
0.140701
0.404348
0.442506
0.030025
0.055789
-0.490815
-0.077596
-0.350191
-0.224180
-0.170170
-0.197932
0.179717
0.108521
-0.583097
0.191270
0.379052
0.198304
0.063498
0.991005
-0.458795
0.713174
0.581617
0.238568
0.242104
-0.182464
-0.236819
-0.502729
-0.169651
-0.419248
-0.025339
-0.064995
-0.214489
0.045968
-0.230218
-0.166583
-0.125698
-0.362344
0.167167
-0.236790
-0.575445
-0.344116
-0.154503
-0.524100
-0.602418
-0.161516
-0.498322
0.678866
-0.414600
0.593176
-0.200132
-0.133166
0.300235
-0.553363
-0.529445
-0.436697
0.287783
-0.603524
-0.420779
0.621293
0.193135
-0.186100
0.046181
0.773739
-0.085461
-0.288248
-0.723263
-0.224469
0.331296
0.157626
0.180793
0.228563
-0.646390
-0.189599
0.306292
-0.177881
0.323792
-0.465197
0.467018
-0.352676
-0.426764
-0.130203
0.448478
-0.305152
-0.171891
-0.359082
0.204949
0.052513
-0.687009
-0.265083
-0.908873
0.570078
-0.059149
0.431175
-0.141479
-0.710628
0.352049
0.229322
-0.690326
-0.013628
-1.020522
-0.754766
0.724796
-0.579581
0.364064
0.444504
0.006516
-0.656617
-0.515018
0.233977
-0.594560
-0.102627
-0.602304
0.103543
-0.023304
0.325800
-0.308086
-0.591208
-0.672984
0.028539
0.477047
-0.576303
-0.204043
0.360122
0.237856
-0.357749
-0.124828
-0.014707
-0.451861
0.088593
0.098995
0.551768
0.091912
0.545939
0.443866
-0.304838
-0.266537
0.620680
0.282280
-0.858294
0.353579
0.187610
0.513288
-0.220243
0.407757
0.604919
-0.481575
-0.178280
0.240469
0.150387
-0.097299
0.397404
-0.641069
0.048376
0.352361
0.626223
0.667222
-0.872702
-0.751656
-0.604258
-0.074801
0.064229
0.665860
0.207592
-0.537250
-0.336167
-0.289866
0.279066
-0.031724
-0.061465
-0.338675
0.019005
0.363108
-0.449477
-0.530458
-0.340407
-0.167964
-0.227952
0.584119
0.466801
0.172598
0.479833
0.441552
-0.251092
0.540554
-0.409080
-0.329087
0.486887
0.067085
-0.019478
-0.104699
-0.324240
0.147958
0.781762
0.326857
-0.339387
0.056991
-0.235122
0.229101
-0.151117
-0.394969
-0.307347
-0.018510
-0.585776
-0.051342
-0.006529
-0.303643
0.455095
0.386123
-0.353616
-0.088505
0.116011
-0.391142
-0.080660
0.198688
-0.062216
0.439276
-0.202480
-0.338240
-0.364513
0.096676
-0.789852
0.752990
-0.254684
0.062821
0.208029
0.028916
-0.065642
-0.157150
0.219801
-0.511376
0.298745
0.151033
-0.411625
0.047866
0.233616
0.182882
0.118800
-0.428966
0.362621
0.480530
0.818409
0.363493
0.346305
0.178277
-0.476470
-0.384727
0.280891
-0.310376
-0.349669
-0.518224
0.197195
0.668407
0.742878
-0.122503
0.425301
0.236971
0.056152
0.694812
0.136792
-0.227796
-0.488884
0.540325
0.268014
0.559724
0.090753
0.067910
0.375168
1.065119
0.553222
-0.000981
0.263161
-0.250147
0.110770
-0.048846
-0.483367
0.183380
0.254062
0.355832
-0.225203
-0.195747
0.019141
-0.298673
-0.001446
-0.237059
0.514534
-0.381202
0.402240
0.180860
0.439504
-0.259150
0.083694
-0.768971
0.458557
-0.599601
-0.720172
-0.086151
0.387861
-0.012010
-0.253574
-0.438057
-0.186247
-0.251452
0.340068
0.159432
-0.372612
-0.379693
0.302893
0.684342
-0.077799
0.850805
-0.154119
0.029209
0.330725
0.507849
-0.167408
0.124699
-1.025967
0.011266
-0.693606
0.608924
0.659133
0.422025
-0.049271
0.259777
-0.346754
0.788989
0.670278
0.741669
0.133246
0.556156
0.076165
0.022887
1.101408
-0.707690
-0.243649
-0.040774
0.343114
0.093816
0.565689
0.676074
0.005553
-0.238031
-0.457189
0.312587
0.359444
-0.017173
-0.060618
-0.238087
-0.537884
-0.016396
0.677891
-0.401611
0.199760
0.844267
0.194650
-0.490979
0.059370
-0.374744
-0.011000
-0.001180
-0.076332
0.120006
0.181711
0.401417
0.163387
-0.540654
-0.286268
-0.290825
-0.175245
-0.400952
-0.428407
0.001265
0.468862
-0.304488
-0.759781
0.262053
0.073903
-0.003898
0.187772
-0.089610
0.497203
-0.392240
-0.516127
0.006460
0.085705
0.110685
0.283016
-0.882247
-0.246458
0.418646
-0.245070
0.525304
-0.030186
0.427024
-0.360096
0.866958
-0.229882
0.244220
0.383323
0.045384
-0.158627
0.164261
-0.220139
-0.321507
-0.010890
0.110426
0.025498
0.308862
-0.193537
-0.850880
0.354153
-0.155376
0.204146
0.571697
-0.685836
0.195008
-0.370023
-0.125850
0.676888
0.164317
-0.115236
0.799136
-0.044790
0.138530
0.192322
-0.295277
-0.167925
0.348725
0.124495
0.127571
0.122904
0.284202
-0.204778
-0.085713
-0.086326
-0.090461
-0.645303
0.514514
0.203822
-0.613725
-0.229819
-0.411491
0.865323
0.344354
0.552541
-0.221521
-0.354139
-0.577286
-0.429224
0.225247
-0.521855
0.071094
0.274362
-0.597177
-0.020726
0.385736
0.730840
0.029754
-0.201074
0.909059
-0.419607
0.042403
-0.525896
0.241991
0.556833
-0.055623
-0.010317
-0.229121
0.349169
-0.231146
0.652245
-0.511659
-0.240910
-0.198183
0.380920
-0.145423
0.108196
-0.245694
-0.972819
-0.155588
0.302912
-0.126166
-0.113545
0.065323
0.137589
0.049971
0.231714
0.560750
0.686283
0.277952
-0.600455
-0.120569
0.245203
-0.666393
0.065325
-0.305377
-0.108160
0.072480
0.348827
-0.530619
-0.086706
-0.321649
-0.873040
1.113740
0.093556
-0.348318
0.599788
0.252985
-0.060738
-0.224646
-0.729528
-0.381826
-0.485011
0.147828
-0.354766
-0.375966
0.676899
0.298470
-0.010839
0.158381
-0.054656
-0.063283
-0.253158
-0.558349
-0.429609
0.200080
0.548548
-0.003022
0.380472
0.165894
-0.364768
0.389904
-0.439514
-0.565082
-0.133350
0.234683
-0.235777
-0.455543
0.417779
-0.206277
0.082370
0.056790
-0.238521
-0.676131
0.556263
0.333879
-0.248013
0.256343
-0.218839
-0.253857
-0.634510
-0.341790
-0.019733
-0.517284
0.391788
0.282340
0.381526
-0.077121
0.904814
0.002634
0.226703
-0.553454
-0.562605
-0.156727
0.940327
0.352295
-0.252255
-0.421470
-0.648376
0.149009
0.223517
-0.794735
0.197869
-0.464365
-0.432546
-0.608410
-0.143160
0.454123
-0.249798
-0.293725
0.237991
-0.357007
0.804488
-0.078957
0.339846
0.116129
-0.210574
0.191182
-0.094586
0.147167
-0.253789
-0.425154
-0.049195
-0.455079
0.012439
-0.362177
0.493266
0.069199
-0.147079
-0.004825
0.388589
0.384527
-0.071710
-0.250981
-0.260769
-0.366505
0.355785
-0.135499
-0.163291
0.131332
0.543077
-0.482938
0.741919
0.290861
-0.455357
0.475064
0.251605
0.123469
-0.139691
0.744586
0.315029
-0.701057
-0.320298
-0.391969
0.562307
-0.657567
-0.696941
0.121911
0.062307
-0.722944
0.189900
-0.436966
0.398851
0.567841
0.168464
0.090712
-0.691865
0.372353
0.132524
-0.973999
-0.038739
-0.209578
0.263297
-0.100027
0.337970
-0.550249
0.025825
-1.185860
-0.062246
0.088993
-0.445131
0.546419
-0.514994
-0.380798
0.679263
0.571152
-0.404152
-0.220687
-0.071252
0.447049
-0.078604
0.108674
0.402510
-0.065233
0.353447
0.138322
0.002236
0.340025
-0.681253
-0.272831
-0.243691
-0.266641
-0.012145
0.665860
0.162465
0.298334
0.389833
-0.675263
0.416088
1.124940
-0.127862
-0.097514
0.277965
0.956864
-0.270368
-0.221881
-0.491220
0.370641
0.233088
-0.410996
0.125260
1.529667
-0.445645
0.364477
-0.839565
0.618180
0.329271
0.190465
-0.397549
0.037742
-0.033200
-0.443235
0.376314
0.205398
-0.009974
-0.131908
0.462274
-0.007906
0.322621
0.488367
0.249943
-0.252786
0.167739
0.857316
-0.309586
-0.722425
-0.639074
-0.791955
0.073039
0.484106
0.107892
0.439826
-0.056001
-0.274937
0.322690
0.186855
-0.559548
-0.392609
-0.285976
-0.293033
-0.025571
-0.584556
-0.235539
-0.104865
-0.006877
-0.676859
0.436157
-0.451411
-0.912505
0.565281
-0.347722
0.214337
0.048912
0.651207
0.375722
-0.400228
-0.463538
0.067116
0.990440
-0.516587
0.088774
-0.008506
0.662673
0.370732
0.025766
0.002161
0.004341
0.216327
0.181164
-0.960147
-0.409606
0.398198
0.359925
-0.617536
-0.230160
-0.061709
-0.904022
-0.010312
-0.198468
-0.028876
-0.288325
-0.155735
-0.061059
-0.193373
-0.166713
-0.300123
0.726911
-0.093587
0.444794
-0.116845
-0.820297
-0.762023
0.269503
-0.138415
-0.380449
0.696859
-0.391600
-0.081447
0.627593
-0.103564
-0.042314
-0.314092
-0.041386
0.004707
0.208417
-0.207855
-0.017406
-0.291223
0.571869
-0.112809
0.087594
0.076675
-0.311316
0.305384
-0.155303
0.217797
-0.385426
-0.267647
0.539944
-0.415411
-0.604185
0.117913
0.001001
-0.166165
0.157289
0.512574
0.294822
0.104039
0.208378
-0.294523
-0.126766
0.505281
-0.126511
0.281152
0.215092
0.528577
-0.081671
-0.432836
0.090418
-0.369190
0.815885
-0.196426
0.575704
0.191064
0.140504
0.100240
0.152240
0.196908
-0.726123
0.115504
-0.681500
0.039824
0.173891
0.628880
-0.328689
-0.224711
-0.195517
0.111237
-0.071971
-0.589839
-0.663555
0.079371
0.133310
-0.282718
-0.093939
-0.105754
-0.307983
0.350104
-0.037116
0.533782
-0.430423
0.353958
-0.061539
0.664038
0.310324
0.700322
-0.450753
-0.565338
0.368514
-0.570494
0.649231
0.381686
0.283861
0.221872
-0.136584
0.186113
0.119686
-0.422113
0.509051
0.080225
-0.328452
-0.127003
0.099985
-0.250898
0.322197
0.110106
0.287847
0.028702
-0.155434
-0.080567
0.116242
-0.889859
0.040805
0.131825
-0.193130
-0.044445
-0.456565
-0.125476
-0.260641
0.096352
0.142951
0.465730
0.209378
-0.346828
0.356550
-0.091699
-0.034582
-0.027286
-0.356169
-0.032535
0.049611
0.372610
-0.097602
-0.002350
0.335273
-0.198634
-0.343821
-0.418978
0.642720
-0.160106
0.116708
-0.054616
-0.270537
0.453222
-0.043941
-0.086123
-0.224359
0.037152
-0.580001
-0.215792
0.459129
0.212157
-0.281908
-0.311676
0.545964
-0.555931
-0.343010
0.008950
0.416892
0.189476
-0.631359
0.120865
0.054183
0.435806
-0.323493
0.396015
0.243591
0.232273
0.129118
0.179355
0.218287
-0.577819
-0.390220
0.507793
-0.184138
0.019778
0.387218
-0.005508
-0.328552
-0.242024
0.059554
0.230560
0.145382
-0.067143
-0.436617
-0.074683
-0.529653
0.533507
0.039393
0.678024
0.353143
-0.245702
-0.316158
-0.036117
0.109755
0.259634
-0.220780
0.517526
0.351261
0.301107
0.365674
-0.299070
-0.196847
0.679910
-0.112407
-0.242380
-0.117132
-0.622262
0.039537
-0.044420
-0.759701
0.322838
-0.346083
0.197820
-0.169638
-0.131653
0.405447
-0.212906
-0.167502
-0.522240
0.233816
-0.082991
-0.116912
0.427592
-0.090463
-0.228269
0.436943
-0.231950
0.450947
0.233259
0.299826
0.390479
-0.127743
-0.333781
-0.046333
0.630891
-0.227854
-0.067060
-0.483503
0.316280
0.076625
-0.012189
0.432374
-0.023632
-0.217245
-0.190004
-0.507808
-0.221340
-0.329177
0.329306
-0.083320
0.435657
-0.282167
-0.274611
-0.405165
-0.386924
-0.481545
-0.333153
-0.388167
0.316419
0.703261
0.052914
0.184345
-0.348788
-0.370007
-0.253803
0.640890
0.382685
0.068922
0.707787
0.608653
0.621227
0.158060
0.399718
-0.527808
-0.169197
-0.056526
-0.831107
-0.481458
0.155824
-0.353904
-0.095398
0.069250
0.607012
-0.426884
0.309390
0.107637
-0.154204
0.021937
-0.434263
-0.172666
-0.378293
-0.306970
0.264069
-0.139497
-0.295831
0.011026
-0.165755
0.133744
0.172655
-0.579596
-0.353457
0.349691
0.062139
-0.552904
-0.684657
0.075837
-0.193924
0.290692
0.196690
-0.178988
0.469743
-0.431912
1.044295
0.139548
0.150012
0.153342
0.029233
0.638631
0.165233
-0.592303
-0.938100
-0.189684
-0.569407
-0.140934
-0.230559
-0.609507
-0.012267
0.693818
0.386314
-0.457796
-0.805969
-0.136755
0.439936
-0.039857
-0.823182
0.388758
0.209671
0.036157
-0.303066
0.455306
-0.291546
-0.384182
-0.126621
-0.558886
0.347129
0.326404
0.109361
0.148274
-0.480258
-0.078864
-0.315381
-0.675257
0.147340
0.523213
0.537265
-0.008357
-0.098606
0.504853
0.363880
-0.269284
-0.500991
-0.148248
-0.042349
-0.077589
-0.196175
-0.101031
0.905789
-0.117746
0.339545
-0.082714
-0.249275
0.387127
0.591906
-0.082876
0.313234
0.550390
0.570131
-0.218419
-0.193988
-0.288817
-0.033703
0.128282
0.600064
-0.499413
-0.236507
1.028636
-0.220092
-0.002633
0.281435
-0.008977
0.548494
0.093726
0.016967
0.433902
-0.038424
-0.477336
-0.814050
-0.635479
0.252711
0.212128
0.224087
0.348188
-0.064664
-0.502115
-0.176241
0.278245
-0.182297
0.736007
0.384174
0.103621
0.993307
-0.120639
-0.215462
0.471355
-0.184815
-0.082482
0.222774
-0.226670
-0.458703
0.470780
-0.668822
0.019447
0.869447
0.802282
-0.354954
-0.066517
-0.221213
-0.271234
-0.126826
0.279805
-0.077581
-0.097702
-0.367594
-0.137463
0.152675
-0.692100
0.213186
0.139624
0.130995
-0.221595
-0.232696
0.064078
-0.217218
-0.227329
-0.755898
0.082726
-0.099693
-0.482691
0.032666
0.027257
0.253738
-0.003692
-0.038958
0.902352
0.368425
-0.368747
0.060374
0.342977
-0.847975
0.274467
-0.322507
-0.655911
-0.734292
-1.242676
-0.275824
-0.940481
0.629580
-0.614842
0.299608
-0.437843
0.354307
-0.679009
0.390298
-0.759073
0.245786
-0.018970
-0.040736
0.147543
0.102340
0.208502
-0.180841
0.295081
0.198382
0.078650
-1.097749
-0.175925
0.173811
0.571645
0.031743
-0.062364
-0.171638
-0.420307
0.331202
-0.576159
0.154873
0.506731
-0.237340
-0.355667
0.029856
-0.465776
0.240319
0.581061
0.551926
-0.259536
-0.438835
-0.146932
-0.536604
-0.174708
0.199917
0.075020
-0.377354
-0.159369
0.354369
0.614750
0.224093
-0.171549
-0.620129
-0.160114
-0.164987
0.862661
0.110637
-0.091332
-0.054169
0.085621
0.334540
-0.045225
0.009528
0.001852
0.655421
0.639464
0.208445
-0.653788
0.294229
-0.071338
0.403288
0.420447
-0.258445
-0.716082
0.366595
-0.468939
0.458335
0.127445
-0.287310
0.314050
0.021179
0.612963
0.557132
-0.458517
-0.906130
-0.172860
0.791834
0.063627
-0.113274
0.201494
-0.449704
-0.158258
0.314298
-0.329179
-0.226939
0.432685
-0.413604
-0.720532
0.335787
1.123448
0.524610
0.352232
-0.106148
0.599425
0.193320
-0.319065
0.202491
0.544441
0.698617
0.050500
0.150626
-0.038496
0.276345
0.003832
-0.342963
-0.164357
0.568119
-0.144039
-0.629003
-0.135768
0.617982
-0.880699
-0.008983
0.459052
-0.368044
0.563357
-0.119589
-0.656959
-0.487649
-0.237119
-0.051748
-0.630778
0.212346
-0.086847
-0.500869
0.463170
0.609635
-0.602539
0.161247
-0.123739
-0.102443
-0.130235
0.712296
-0.222741
-0.714433
0.301990
0.114231
-0.502024
-0.344927
0.054234
-0.121904
-0.012652
-0.225415
0.118124
-0.851730
-0.545659
0.113169
-0.260932
-0.010137
-0.327153
0.114397
-0.566299
0.264022
0.208924
-0.511171
-0.266610
-0.535818
-0.109487
-0.184236
-0.388348
-0.179730
0.313223
-0.615270
-0.063880
-0.486809
0.147502
0.755773
-0.367846
-0.254125
-0.357263
0.128493
-0.438289
0.248781
-0.193961
0.162231
0.419599
-0.146856
0.170395
0.475584
0.241745
-0.377493
0.412703
0.230387
-0.170970
0.409519
0.745922
0.085314
-0.073307
0.010020
0.175730
-0.199657
-0.177954
-0.515760
0.057241
0.346189
0.401806
0.317423
0.096985
0.375876
-0.197244
-0.597158
-0.031382
0.395703
0.449818
0.401705
-0.140471
-0.694990
0.279191
1.154424
-0.256600
0.217721
-0.802770
0.550105
0.016539
-0.126302
-0.233923
0.300009
0.062274
-0.667640
-0.765402
0.271617
-0.098949
0.467969
-0.005397
0.613861
0.522383
0.275393
-0.056563
0.127583
-0.236032
0.081788
-0.118814
-0.930926
-0.549645
-0.412282
-0.265868
-0.054085
0.338529
-0.270864
-0.324486
0.227506
0.338892
-0.010528
-0.765782
-0.300077
0.563129
0.206005
0.041922
-0.014079
-0.563298
-0.108170
-0.317649
-0.639690
-0.806675
-0.222520
0.149538
1.160273
0.042361
-0.265052
0.669168
0.252904
-0.706955
-0.582306
0.181049
0.070582
-0.069339
0.625149
0.346754
0.671804
0.236038
-0.048143
-0.065028
-0.128113
0.126376
0.460168
-0.251630
-0.446514
0.182529
-0.449981
0.239696
0.598225
-0.437154
-0.287437
1.041751
0.871981
0.780361
0.128896
-0.673804
-0.061586
-0.012036
-0.043275
-0.250931
-0.008032
0.190455
-0.437973
-0.738191
-0.279564
-0.236478
0.670570
-0.397510
0.394566
-0.225193
0.030660
-0.515968
0.251144
-0.302325
0.470168
0.006709
0.333612
-0.341585
0.259198
0.341765
0.105902
0.579428
0.146716
0.302576
-0.255811
0.625980
-0.524635
0.587627
0.261180
0.386407
-0.278028
-0.717741
0.536829
-0.161173
-0.152753
0.611135
-0.614361
0.011122
-0.332119
0.193933
0.021060
-0.463065
-0.403458
0.441113
0.055451
0.257686
-0.085500
0.003118
-0.077320
-0.102876
-0.254734
-0.949755
0.162862
0.040522
-0.152438
-0.031406
-0.269630
0.062161
0.559824
-0.257961
-0.144956
-0.646059
-0.329396
0.469287
0.429796
-0.295437
0.380889
0.183468
-1.178205
-0.005261
-0.001903
0.031340
0.095375
-0.337532
0.179904
-0.242800
-0.448273
-0.489476
-0.758033
0.393124
-0.012008
-0.015640
0.712565
-0.284612
-0.194534
-0.730271
0.851190
-0.101154
0.046871
0.101483
0.233290
-0.098677
0.410513
-0.510498
-0.441173
0.263575
-0.302771
-0.026628
0.609963
0.014922
-0.303884
0.067830
0.753600
-0.122446
-0.175812
0.151094
-0.123845
-0.089816
-0.686128
-0.749438
0.047074
0.413681
-0.030247
0.113023
-0.932587
-0.528057
0.091866
-0.330662
0.352672
1.086248
-0.330623
0.160999
0.730666
0.679494
0.238970
-0.522574
0.508640
0.122688
0.152364
-0.540454
1.292873
0.032974
-0.087654
-0.249458
0.395136
0.180042
0.117017
0.176920
-0.288286
0.424691
-0.304320
-0.273911
-0.068696
-0.129574
0.319100
0.654050
0.133663
0.974429
-0.187497
0.461898
-0.163062
-0.711866
-0.046968
-0.322227
0.076402
-0.088098
0.083007
0.539121
0.277849
-0.024178
0.203395
0.556470
0.382954
-0.238100
-0.166788
-0.200520
-0.545687
0.614045
-0.485215
0.383213
-0.892565
0.708281
0.202573
-0.187922
-0.199250
-0.387453
-0.053495
-0.527495
0.058687
0.156338
-0.549354
0.098163
0.085457
-0.136357
-0.053997
0.577662
-0.493129
-0.894897
-0.348672
0.005286
-0.373560
-0.094960
-0.466511
-0.354536
0.530900
-0.993621
-0.041110
0.042495
-0.272649
0.500213
0.590253
0.432589
0.470490
-0.208771
0.183687
-0.305690
0.536981
0.073282
-0.489869
-0.220332
0.089529
0.416370
0.170670
0.076579
-0.276849
0.309610
-0.113486
-0.807323
-0.090304
-0.284521
-0.602625
-0.195447
0.618329
0.086713
0.178906
-0.592816
-0.004653
0.063482
0.014907
-0.441457
0.643627
0.023185
-0.007481
-0.283396
0.026457
0.341927
0.234841
0.387493
0.615754
-0.209430
-0.128313
0.868539
-0.008755
0.315967
-0.281889
-0.065392
-0.215788
0.607521
-0.072901
0.245794
-0.055441
0.165464
0.157467
0.471802
-0.028272
0.631320
-0.281906
0.320722
0.102314
0.086327
-0.321946
0.390974
-0.384754
-0.443870
-0.188202
0.353708
-0.290169
0.133094
-0.125182
-0.338775
0.103750
-0.138234
-0.406571
-0.440457
-0.133368
0.113906
0.459930
-0.199041
0.317258
0.221080
0.244719
0.379619
-0.636641
-0.211590
-0.119828
0.070785
0.981263
-0.074126
-0.648113
0.137417
0.703859
0.426056
0.475396
0.629858
-0.126044
-0.722209
0.096339
-0.756876
0.503180
1.021790
0.780618
0.052315
0.444843
0.392337
0.469403
-0.382602
0.371637
0.084139
-0.294756
-0.102228
0.224755
0.317430
-0.334866
-0.274434
0.341327
-0.093363
-0.054956
0.503466
-0.434145
-0.229395
-0.020408
0.711668
-0.418232
0.219851
-0.042215
0.012019
0.531394
-0.296352
-0.096974
0.223999
0.244807
0.118980
0.075086
0.084766
0.340068
-0.446106
-0.477977
0.497337
-0.765731
0.440209
0.789155
0.413156
0.372856
-0.848517
0.094189
-0.246091
0.849214
-0.221333
-0.320483
-0.804914
0.556936
0.257858
0.355133
0.709723
-0.394598
-0.358518
-1.105510
-0.368800
0.010304
0.146049
-0.213384
0.280788
-0.115487
0.262805
0.568295
-0.325336
-0.105614
-0.043329
-0.384916
-0.253758
-0.353554
0.011575
-0.895856
-0.533338
0.648854
0.080507
-0.084258
-0.208201
0.119696
-0.216153
0.247165
-0.299088
0.555509
-0.137114
-0.110861
0.123475
0.299635
-0.388520
-0.197610
-0.507280
0.289229
-0.120066
0.069111
-0.161121
0.597563
0.039718
0.275157
-0.617160
0.134227
0.985412
0.219778
-0.336542
-0.729511
-0.493748
-0.157095
-0.127226
-0.393130
0.113048
0.253693
-0.313220
0.275887
-0.374562
0.135888
-0.376914
0.896388
-0.367082
0.156966
-0.024717
0.771708
0.069914
-0.055920
-0.614210
-0.351867
-0.383723
-0.297122
-0.058901
0.481128
0.196671
-0.166812
0.291804
0.592439
-0.434538
-0.496204
0.156787
0.073362
-0.234737
0.656788
0.173678
-0.586998
0.648110
-0.046043
0.590561
-0.010712
-0.461300
0.059198
-0.195711
-0.093183
-0.710577
0.571849
0.453022
0.376360
0.715789
1.048163
0.098242
0.762041
1.002394
-0.528241
0.022382
0.147180
0.188814
0.228478
-0.093451
0.395619
0.296429
-0.102985
0.362942
-0.709518
-0.472110
-0.517573
0.823206
0.322356
0.347153
-0.523192
0.038206
-0.222466
-0.053812
0.286726
-0.250962
0.419251
0.278692
-0.150931
-0.145786
0.676923
0.580049
0.039903
0.025666
0.326899
0.507485
0.067202
-0.067863
0.006717
-0.189597
-0.010010
0.172639
0.148485
-0.007011
-0.063356
-0.242502
0.142138
0.017479
1.005666
0.918764
0.535568
-0.299993
-0.297392
-0.318992
0.117638
0.096442
0.833869
0.175107
-0.863344
-0.635110
0.248412
0.054911
-0.758723
-0.681576
-0.164334
0.069020
0.076427
-0.586228
-0.190547
0.061195
-0.232860
-0.024556
-0.252250
-0.136043
0.110153
-0.350344
0.107385
-0.318191
0.568680
0.074524
0.087959
-0.054557
-0.109995
-0.334146
-0.114666
-0.067203
-0.588297
-0.473999
0.367341
0.139824
-0.338018
-0.113439
0.096244
0.153639
-0.526669
0.288361
-0.408917
-0.670921
-0.630606
-0.326672
-0.572153
-0.537443
0.771882
-0.308985
-0.477200
-0.167821
-0.480961
-0.178349
0.158049
0.826900
0.414059
-0.039352
0.409251
-0.170740
-0.248699
0.407960
0.301764
-0.402152
-0.238873
-0.801861
0.186280
-0.050198
-0.391546
-0.407089
0.185886
-0.438824
-0.724962
-0.059034
-0.287327
0.154781
0.295553
0.435625
0.265976
0.194824
-0.605571
0.051007
-0.163119
-0.715066
0.088299
0.523521
-0.241905
0.042553
-0.036204
-0.665212
0.432571
0.422811
-0.252759
-0.076784
-0.042077
0.393324
0.143863
-0.756676
-0.367615
0.073303
-0.898777
0.404526
-0.391462
0.014387
-0.335640
0.682876
0.277425
-0.232537
-0.970386
0.080953
-0.217658
-0.594337
0.747139
-0.149159
-0.072250
-0.383136
0.314029
-0.783057
-0.148921
-0.044209
0.326092
-0.149084
0.033677
0.488955
0.498407
0.009987
0.579396
-0.014209
-0.425558
0.012237
0.365527
-0.928338
-0.406462
-0.092227
0.228464
0.453711
-0.144074
-0.368336
0.382710
-0.131510
-0.612663
0.142131
-0.674840
-0.576774
0.700016
0.468888
0.269110
-0.417642
-0.172833
0.212569
-0.106693
0.407239
0.391623
0.336640
0.727218
0.313777
-0.067614
-0.038974
-0.097393
-0.055366
0.473951
0.064991
0.073471
-0.384001
0.478394
0.284606
-0.362735
-0.395320
-0.429835
0.625842
-0.292736
0.386962
-0.365959
-0.763770
1.200098
-0.158487
-0.035775
0.183530
0.727800
0.519718
-0.538274
0.423810
0.195310
-0.180706
0.418786
-0.812769
-0.443070
0.354594
-0.259697
-0.344353
0.228962
-0.173073
0.289260
0.543317
-0.943555
-0.167595
0.232365
0.508823
-0.587727
-0.243768
-0.274657
0.337095
-0.716957
0.514178
0.031862
-0.201755
-0.273808
-0.687995
0.112809
-0.122454
-0.296850
-0.735950
-0.734792
-0.539138
-0.075712
0.207674
-0.211258
-0.249550
-0.306929
0.020375
0.244051
0.054716
-0.423727
-0.656248
-0.443406
-0.506895
-0.550178
-0.069917
0.496014
0.200462
-0.002532
0.253405
0.889438
0.434436
-0.381007
-0.325721
0.388857
-0.007593
-0.489439
-0.556249
0.168098
0.567682
0.015623
0.132968
-0.700663
0.338359
0.722298
-0.783657
0.018646
-0.698318
-0.268408
0.226770
0.142562
-0.338063
-0.317995
-0.122114
-0.351078
0.257959
0.347030
0.343612
-0.289387
0.623572
0.210926
-0.512027
0.522162
-0.283085
-0.100255
0.246958
-0.981440
0.196884
-0.238196
0.431760
-0.045535
0.118922
-0.287759
-0.670365
-0.351687
-0.194460
0.280537
0.416841
0.628886
0.176041
0.286493
-0.529412
-0.240659
0.121311
0.201658
0.114959
0.040198
0.044922
-0.152347
0.197902
-0.343553
0.317593
-0.228656
0.656052
0.072444
-0.609405
0.055483
0.037704
0.166493
-0.588137
-0.300106
0.138177
-0.061895
0.091314
0.283021
-0.306770
-0.282501
0.593152
-0.073748
0.419004
-0.135323
-0.420059
0.306394
0.977466
-0.556474
-0.064171
0.351998
-0.749761
0.845199
-0.089970
0.072653
0.250943
0.810582
-0.557468
0.012157
0.110884
0.011690
0.546475
-0.515527
0.195902
-0.030966
-0.241467
-0.622589
0.185072
0.556849
-0.208648
-0.226407
0.940766
0.275859
0.268611
0.555315
0.620190
0.121505
0.388586
0.624691
-0.456851
-0.451190
0.398453
-0.099867
0.100297
-0.013947
0.187303
0.172498
0.368432
0.238051
0.324609
-0.109465
-0.562929
-0.821779
-0.059536
-0.249262
-0.170971
0.040871
0.532273
-0.778403
-0.671051
0.403198
0.056597
1.097601
-0.225855
-0.132605
-0.135253
0.299190
0.172231
-0.814163
-0.300360
-0.439760
0.549966
0.053795
0.148800
-0.161816
0.007378
-0.289764
1.047714
-0.016449
0.466123
-0.111419
-0.687832
0.240928
0.388165
-0.009168
0.202696
-0.084640
-0.397798
-0.485070
-0.757675
0.380570
0.450341
0.000412
-0.329329
0.626461
0.262249
0.739649
0.497753
0.518434
-0.181582
0.164138
-0.600742
0.043373
-0.145032
-0.298263
-0.114910
-0.558795
-0.023838
-0.059329
-0.803033
0.134514
-0.461622
-0.293892
-0.586690
0.075311
0.391056
0.603390
-0.254627
0.457920
-0.576960
0.013125
-0.313074
-0.129705
-0.446180
0.587534
0.331408
0.086398
-0.436280
0.266905
-0.525091
-1.136562
0.730838
-0.247725
0.315375
0.673154
-0.563399
0.005407
0.698036
0.018064
0.356552
0.234570
0.220903
-0.433473
0.304386
-0.399678
-0.034866
-0.234314
0.849233
-0.693333
-0.099867
0.088838
0.256659
0.023979
-0.055647
-0.236713
0.451029
0.226265
0.544302
-0.690275
0.029237
-0.389296
-0.140751
-0.190444
0.225673
0.042692
-0.679587
-0.297613
0.244663
0.206920
-0.214221
-0.781865
0.196650
-0.721535
-0.335744
0.301023
-0.409028
-0.150409
0.538977
-0.045927
0.020025
0.020909
-0.532543
-0.470866
1.047971
-0.101263
-0.349214
0.017469
0.653562
0.202980
-0.328383
-0.070879
-0.167413
0.034229
0.647057
0.653031
-0.316694
-0.056334
0.026799
0.231428
0.467022
0.724741
-0.610746
-0.284622
0.095916
-0.276101
0.230335
-0.511691
-0.260827
-0.265088
-0.244617
0.079750
0.303958
0.180799
-0.265283
1.385109
0.100702
-0.027985
-0.578964
-0.094578
0.305014
-0.071106
0.364249
0.169391
0.438336
0.510852
0.194688
-0.621509
-0.013600
-1.153459
-0.182610
0.418935
0.620118
-0.793882
-0.339407
-0.422173
0.885472
-0.597361
-0.536579
-0.177681
0.257907
-0.371651
-0.121060
-0.114391
-0.070841
-0.264089
-0.270705
-0.047620
-0.046237
0.014870
-0.206539
-0.568822
0.286170
0.783646
-0.132659
-0.602343
-0.224593
0.205124
-0.134711
-0.106291
0.019757
-0.136957
-0.099423
1.590800
-0.190025
0.432022
0.275545
0.164521
0.285695
-0.390862
0.315630
-0.079694
0.826647
0.210424
-0.577022
-0.132828
0.579396
-0.346725
-0.001615
-0.807007
-0.151179
-0.396175
0.742828
0.286717
-0.148659
-0.306365
0.321901
0.046732
-0.422687
0.474737
0.392229
-0.681442
-0.300303
-0.049448
-0.079716
-0.219540
-0.307778
-0.264089
0.042758
0.279482
-0.289894
-0.114122
0.304476
0.072057
0.270341
0.218680
0.195629
0.347890
-0.413803
-0.109765
0.200299
-0.510414
-0.940128
0.443273
0.080708
-0.075600
0.274045
0.102984
-0.205949
-0.143905
0.168621
-0.400138
-0.317146
-0.269264
-0.070210
-0.159754
-0.524646
0.067195
0.147308
0.118227
0.650294
0.155092
-0.236442
0.056229
0.417536
0.064766
-0.272694
0.018514
-0.244372
-0.581939
-0.182331
0.382005
0.347830
0.232950
-0.001512
-0.171319
-0.337590
-0.437024
0.319597
-0.222924
-0.254329
-0.241346
0.027800
0.194895
0.425887
-0.014426
0.978170
0.389279
-0.479574
-0.543224
-0.402297
-0.263789
0.168489
-0.513732
0.224502
-0.035063
-0.371116
-0.375457
0.867730
0.654021
-0.429470
0.608397
-0.358293
0.031496
0.256679
0.041107
-0.125300
-0.851777
0.005427
0.065706
0.465136
1.018588
0.387855
0.773995
-0.822533
0.066280
0.272514
-0.430924
-0.521793
0.118216
0.008529
0.152174
-0.415784
0.096431
0.602787
-0.468594
0.585542
-0.032684
-0.387672
-0.459643
-1.018054
-0.162384
-0.499152
0.772328
-0.020470
-0.325330
0.137781
0.302859
0.099085
0.109145
-0.195528
-0.031861
-0.076067
-0.949772
-0.641816
0.895237
0.065309
-0.013117
0.384889
-0.424894
-0.054939
-0.489461
0.260872
-0.447847
0.550831
0.173071
-0.238525
-0.085820
0.704168
0.232018
0.015095
0.794728
0.610948
-0.391533
-0.328951
0.295933
-0.245826
0.038722
-0.871852
0.186612
1.287816
0.321914
-0.199161
0.092475
-0.021119
0.111789
-0.212221
0.575112
-0.596486
0.091157
0.199162
-0.457963
-0.094808
-0.288456
-0.384495
-0.143157
0.060363
0.361067
0.922663
0.621500
0.221288
-0.219598
0.013544
-0.143872
0.112686
-0.458910
0.195329
0.706663
0.281314
-0.127528
0.206725
-0.123133
0.481836
0.496328
-0.028957
-0.103144
0.194898
0.132814
0.044173
0.095766
-0.220543
0.108670
0.353429
-0.182059
0.691000
-0.149773
0.192438
-0.188296
-0.574117
0.479595
0.913736
0.879453
-0.733981
-0.386291
-0.304979
-0.048261
0.345884
0.245528
-0.268151
-0.107042
0.204054
0.183389
0.377622
-0.006825
-0.135157
0.644957
-0.601382
-0.113465
0.596404
-0.202329
0.060614
-0.284023
0.280418
-0.472388
-0.108563
-1.675370
-0.043099
0.321069
-0.173089
-0.021774
-0.429911
0.474103
-0.001564
0.062786
-0.233282
-0.671183
0.145261
0.008494
-0.082513
1.180403
0.015927
-0.695616
-0.194187
0.322857
-0.052289
-0.408159
0.249469
-0.138764
0.060823
-0.565629
0.370889
0.174054
1.076977
-0.579991
0.539911
0.913488
-0.963310
-0.638346
0.096493
0.035708
-0.204790
0.447307
0.418666
-0.468238
0.885223
1.397347
-0.655071
-0.259226
1.284786
-0.594697
0.517778
-0.348299
1.425407
-1.149009
-0.956114
-3.060484
1.568514
-0.498035
-0.561387
-0.235043
0.728948
-0.901921
-0.548355
-0.538041
-1.902795
-0.143127
0.766341
0.607863
0.273108
2.387780
-0.663198
-2.386939
-0.324033
-0.290191
-0.127921
0.877877
0.342266
-0.100953
0.590436
0.189758
-0.158030
-0.364524
2.490656
-0.176908
0.343445
2.465946
-0.917834
-1.759780
1.501382
-1.762702
1.007585
-0.586203
0.458068
