0.084427
-0.465115
0.031914
0.018273
1.028661
0.170900
0.243708
0.508465
0.429006
0.442135
0.097367
-0.364125
0.047460
-0.127459
0.595403
-0.382736
-0.061798
0.171037
0.219463
-0.428625
-0.224197
0.757391
0.220306
0.614795
0.157299
0.240402
-0.183200
0.144372
0.043673
-0.065911
-0.785238
-0.641008
-0.722268
0.285793
0.483011
-0.945001
0.172598
-0.304278
-0.211889
-0.176184
-0.765641
-0.331031
-0.344017
-0.127131
-0.112415
-0.238450
-0.256197
-0.082990
0.468172
-0.626543
0.561763
0.383967
0.334528
0.152373
-0.323068
-0.439568
-0.352695
0.415551
0.286132
-0.364461
0.262775
0.648544
-0.321542
-0.500027
0.039522
0.857293
0.276162
0.543752
-0.637025
-0.268831
-0.016282
-0.013273
-0.710135
0.634137
0.088855
-0.381447
-0.003128
-0.993850
-0.528100
0.182821
0.501389
0.150917
-0.304250
-0.359649
-0.771873
-0.127371
-0.253035
0.180090
0.268996
-0.359969
-0.160734
-0.013054
0.218871
-0.861368
-0.755061
0.635017
-0.471863
-0.686922
0.639960
0.334411
0.147843
0.037490
-0.485535
0.362504
0.160286
-0.288782
0.709258
0.043937
-0.208631
-0.062337
-0.176655
0.359640
0.048734
0.249791
-0.047205
0.396083
-0.003666
0.117073
-0.148417
-0.088768
0.236434
-0.533941
0.070346
0.237457
0.090793
0.273875
-0.141350
-0.228187
0.793630
-0.624028
-0.148267
-0.054446
-0.998794
0.071227
-0.202166
-0.077742
-0.782879
0.393046
-0.038226
-0.058096
-0.925345
0.288948
0.377499
0.574695
0.044298
-0.020372
0.188744
-0.139917
-0.298003
0.094783
-0.249115
-0.181184
-0.098431
0.732791
0.404581
0.261967
0.478448
0.020111
0.169543
-0.767207
0.093645
-0.686757
-0.588810
0.725202
0.063647
0.573671
0.344263
-0.712901
-0.875125
-0.803822
0.452056
-0.090949
-0.377269
-0.364748
0.418842
0.059595
-0.123653
-0.429561
0.121234
0.243971
0.193976
0.244295
0.286703
-0.197341
0.201672
0.037109
-0.144611
0.389487
-0.159073
0.107459
0.294248
-0.226089
-0.409558
-0.016790
0.357038
-0.459121
0.666437
0.018188
-0.059798
-0.696805
-0.218010
0.047033
0.412238
-0.257769
-0.378032
0.460514
-0.613313
0.287832
0.437305
-0.031782
0.328175
-0.022586
0.125994
0.382335
-0.241132
0.339000
-0.292348
0.032480
0.284501
0.497497
0.554523
0.034763
-0.316313
0.613034
-0.426074
0.285478
0.641793
-0.171620
0.385671
0.029310
0.107687
-0.092696
0.271144
-0.204298
-0.293415
0.063772
-0.551435
0.500014
0.181854
0.483019
-0.122800
0.036292
-0.272869
-0.111808
0.190309
0.393934
-0.004247
0.656934
0.723710
0.079721
-0.582207
0.039365
-0.097755
-0.090354
0.125602
0.273436
-0.112749
0.062658
-0.356177
0.524376
0.013763
-0.197642
0.407529
-0.015197
-0.019739
0.110768
0.291032
-0.479491
-0.398260
0.586742
0.307014
0.053803
-0.569281
0.354770
0.334318
0.108287
0.052714
0.303201
-0.420201
-0.908882
-0.701520
0.068969
-0.106261
-0.106772
-0.196533
1.014820
-0.672355
0.701047
-0.285862
-0.245044
-0.057322
-0.385146
0.418969
0.850604
0.160110
0.324445
0.081419
0.686200
0.508764
0.279073
-0.505114
-0.021058
0.170492
0.718571
0.222565
-0.029648
0.023074
-0.235144
-0.107560
0.160895
-0.380448
-0.195644
0.243313
0.370859
-0.163088
-0.532408
0.454504
0.482784
0.456418
-0.975082
-0.088766
-0.300235
-0.236460
-0.477872
-0.016801
0.090903
0.202641
-0.320874
-0.101451
0.715365
-0.066672
0.557962
-0.812505
-0.472123
0.110044
-0.014425
0.041534
0.041382
-0.429619
0.336010
0.216890
-0.224669
-0.202270
-0.041010
0.382864
-0.046782
-0.086268
0.029313
-0.252682
0.086388
0.027874
-0.608296
-0.368072
0.290783
-0.506390
0.110181
-0.261109
-0.204457
-0.646553
-0.258715
-0.041374
0.012884
0.291726
-0.091456
-0.340926
0.218630
-0.319289
0.615878
0.089010
0.281193
0.698139
-0.468081
0.309853
0.165826
-0.528055
-0.665981
-0.493497
-0.075630
-0.430074
-0.048596
-0.531101
-0.134288
-0.353334
-0.441748
-0.021894
0.673028
0.216173
0.112193
0.111887
-0.230981
-0.010446
0.453751
0.040539
0.686266
0.412076
0.358345
-0.345923
-0.172307
-0.528167
0.132472
0.014536
0.036578
-0.098820
-0.198559
-0.521537
-0.498449
-0.327718
-0.521491
-0.921065
0.021497
-0.130142
-0.400811
-0.493332
-0.212459
0.564513
0.494072
0.007356
-0.362502
-0.301322
0.491084
-0.551991
0.768192
0.010950
0.363385
0.224341
0.143804
0.445313
0.023516
0.010182
-0.762027
-0.046192
-0.078146
0.346815
-0.732917
1.139938
0.127263
0.377895
-0.535053
0.190587
0.055738
-0.129628
-1.098520
-0.412176
0.708960
0.092630
-0.413403
-0.570430
-0.480690
0.166751
-0.002959
-0.176397
-0.331719
-0.133438
-0.015366
-0.308684
-0.269131
0.566723
-0.331417
-0.168585
0.089662
0.457395
0.653769
0.376362
-0.451631
-0.196953
0.146877
0.247426
0.138518
-0.505937
0.014979
0.215470
-0.091356
-0.290537
-0.242739
0.261823
-0.502868
-0.774348
0.055686
-0.077413
0.501989
0.511620
-0.494639
-0.951784
-0.366585
-0.558253
-0.335862
0.564773
-0.047675
0.003867
-0.103203
-0.537653
-0.121262
0.381475
0.433169
-0.179945
0.172216
0.091697
-0.223276
0.507017
-0.326273
0.132669
-0.379933
0.048982
-0.704618
-0.397638
0.337275
0.036349
-0.225776
0.817472
-0.740562
-0.178389
0.507096
-0.064439
-0.174638
0.310981
0.022420
0.617797
-0.721504
-0.376906
-0.352405
-0.486741
-0.183042
0.754994
0.339034
-0.151745
-0.565083
0.046687
-0.589110
0.059671
-0.377214
-0.196045
0.017186
0.002816
0.146475
0.181203
-0.051958
0.052706
0.742365
0.039374
0.427248
-0.249667
0.652032
-0.056527
0.407824
-0.890031
-0.648490
0.228696
-0.364920
-0.410341
0.571291
0.377569
0.191352
0.220396
-0.235429
-0.074592
-0.276581
-0.466875
-0.377298
-0.108034
0.266195
-0.191533
0.025782
-0.209392
-0.283369
0.112717
0.235705
-0.233246
0.600865
-0.071326
-0.417056
-0.148383
-0.054863
0.186406
0.390411
-0.185588
0.471797
-0.203272
0.075773
-0.583383
-0.064384
0.292290
0.610113
0.230928
-0.324460
-0.046398
-0.404172
0.499685
-0.560592
0.347383
-0.392881
0.020441
-0.292005
0.330652
0.104600
0.082021
-0.406965
-0.267919
0.527857
-0.415759
-0.895037
0.337479
0.243701
0.223028
-0.165683
0.417583
0.701336
0.358436
-0.036314
0.350167
-0.075971
-0.450695
0.019233
0.154583
-0.230231
-0.002895
0.107809
-0.261158
-0.284589
0.341735
-0.429885
0.614741
0.052384
-0.382019
0.075643
0.351399
-0.326074
-0.646357
0.133383
-0.124549
0.250499
-0.447176
-0.588018
-0.998649
-0.072142
0.136681
-0.187988
-0.222149
-0.132864
-0.226145
-0.277066
-0.131234
-0.272336
0.212980
0.001799
-0.297317
0.260376
0.579927
0.536159
-0.053131
0.094155
-0.181714
0.155859
-0.434881
-0.430073
0.596212
0.147412
-0.672744
-0.061907
-1.096816
-0.281793
-0.215094
-1.261895
-0.619235
-0.239824
0.413882
-0.110828
0.227665
0.016597
0.247558
0.187954
-0.406245
0.398528
-0.658278
-0.018225
-0.311290
-0.307312
0.397014
-0.625209
0.330238
0.119327
0.107023
0.769822
-0.313932
-0.077176
-0.395728
-0.036127
0.440112
0.234591
-0.445218
-0.542294
-0.488268
0.526084
0.080036
-0.160889
-0.192286
0.357438
-0.345982
-0.102311
0.593492
-0.261098
0.175790
0.002741
0.096743
-0.875485
0.380342
0.085883
0.016844
0.264095
-0.420338
-0.177165
0.542218
-0.078295
0.533441
0.253221
-0.382787
-0.043835
0.594248
0.073035
-0.238751
-0.119103
0.458485
-0.094160
-0.710872
-0.378401
-0.156869
0.157517
0.462471
0.184752
-0.000718
0.359991
0.045893
0.438199
-0.089019
-0.135766
0.605481
0.763063
-0.037860
-0.195172
0.066470
-0.125906
0.242288
0.002838
-0.699397
0.014705
-0.286372
0.427657
0.063646
-0.718396
0.178553
0.315039
0.721066
-0.698759
0.271237
0.530401
0.628784
0.051147
-0.075459
-0.330244
-0.124107
-0.462613
0.318312
-0.093559
-0.324068
0.180657
-0.967687
-0.297724
0.216546
0.133148
-0.191961
-0.243117
-0.104494
0.507149
-0.769647
-0.327619
0.600119
0.371831
0.073108
0.406488
0.269437
1.110922
-0.570967
0.028668
0.265969
0.602103
-0.645592
-0.217592
0.330179
0.131838
0.304822
0.072980
-0.198876
-0.656211
0.140293
0.070624
0.018428
-0.717123
-0.604019
0.608249
-0.342667
0.501817
0.374775
0.642477
0.001265
-0.118815
0.010458
-0.001925
0.151153
0.067164
0.402268
-0.639720
0.197412
-0.477037
0.179496
0.735805
-0.050476
-0.834801
0.197505
1.135853
-0.581083
0.052042
0.196566
-0.821041
-0.512922
-0.015129
-0.695891
0.453609
0.393634
-0.030850
0.312813
0.503410
-0.016403
0.219284
0.054643
-0.262387
-0.082175
0.344285
0.201094
0.447457
-0.087625
0.248973
-0.152995
-0.135466
0.010527
-0.398921
0.052370
0.460766
0.130345
0.125610
0.436165
-0.363504
0.484683
0.715565
-0.759319
0.021705
-0.493577
0.563990
0.019990
-0.392934
-0.735288
0.227147
0.221296
-0.050296
0.122018
0.228849
-0.003352
0.250625
0.437655
0.668164
-0.506791
0.621036
0.055356
-0.011877
-0.226042
0.169576
-0.626556
0.320182
-0.102241
-0.305998
-0.090480
0.086073
0.118049
-0.780263
0.465619
-0.054964
0.206457
0.565277
0.234266
0.497327
-0.067612
-0.146264
0.048358
0.392494
-0.253630
0.488111
0.503757
0.592460
0.336873
-1.027726
-0.733716
0.552708
0.473036
0.046731
-0.442210
-0.135882
-0.036910
0.056284
-0.046663
-0.385192
-0.614593
-0.750650
-0.353805
-0.633185
0.144396
-0.107015
-0.117404
0.368559
-0.259193
0.215717
-0.662860
-0.146447
0.107580
-0.171119
0.243164
-0.116957
0.004526
-0.342916
0.444297
0.507931
0.045677
1.050292
-0.074238
-1.085652
0.408226
0.043559
-0.422575
0.141952
0.183921
0.342759
-0.317780
0.072827
-0.426227
0.038104
-0.350619
-0.096232
-0.555352
-0.322695
0.347262
0.136502
0.492156
-0.015200
0.762648
0.497828
-0.084135
-0.180139
-0.690507
0.260046
0.198481
-0.496314
-0.042200
-0.023502
0.245054
-0.448077
-0.224871
-0.212854
-0.818603
0.167252
-0.014918
-0.075319
-0.302291
0.219577
0.006453
-0.087149
-0.147910
0.162811
-0.127384
-0.479290
-0.534434
0.512435
0.282979
-0.222443
0.064489
0.048722
0.389188
-0.535828
0.073753
0.365730
0.472079
-0.236505
0.135871
0.000860
0.645517
-0.404216
0.372398
0.207211
0.744607
-0.431686
-0.190941
0.571397
0.191944
-1.042323
0.516267
-0.558138
0.027080
-0.158290
-0.130781
0.566244
0.801785
0.076857
0.659972
1.074090
-0.219732
-0.018393
0.029212
0.084977
0.007522
-1.085130
0.465049
0.533400
-0.133467
0.161677
0.494545
-0.132014
-0.835314
-0.460022
-0.151459
-0.497883
-0.122890
0.519086
0.096994
-0.362061
-0.142208
0.934965
-0.054163
-0.556283
-0.489313
-0.088321
-0.512006
0.087005
1.083201
-0.001625
0.399166
0.661041
-0.035461
-0.083569
-0.107293
0.099200
-0.539285
-0.226510
0.316438
0.406493
-0.340137
-0.069970
0.256297
0.242839
-0.199986
-0.525363
0.254513
-0.043820
0.044782
0.210657
0.085839
0.048305
-0.179499
-0.318239
0.462234
0.230248
0.407945
-0.537482
-0.318075
0.240376
0.819742
0.941559
0.092998
-0.232291
-0.267116
-0.198671
-0.413298
-0.417244
-0.651856
-0.082270
-0.350308
0.277842
0.463555
0.629194
1.010450
-0.014743
-0.091359
0.011475
0.209768
-0.202288
0.217225
0.242820
-0.206400
0.177392
0.471116
0.953035
0.781723
-0.196542
-0.651906
0.138127
-0.018136
0.258620
-0.187551
0.198959
0.532180
0.443331
-0.171573
0.162019
0.528358
0.010487
-0.447341
-0.151531
0.194092
0.155267
0.293841
-0.836210
-0.268664
-0.240565
0.417153
0.215531
0.081014
0.216647
0.753489
-0.388954
-0.030217
0.003998
0.642162
0.694354
-0.045890
-0.213541
0.173813
0.314419
0.318056
-0.172357
-0.636635
-0.125739
0.474044
0.232078
0.693460
0.394935
0.125263
0.287263
-0.060320
-0.006496
-0.439104
0.976767
-0.021234
-0.270669
-0.450955
-0.408993
0.242755
-0.046484
0.153130
-0.302615
-0.076898
0.169687
-0.041502
-0.321962
-0.046629
-0.772022
-0.141811
-0.056947
-0.701125
-0.328174
0.181003
-0.184444
-0.316738
-0.888879
0.574953
0.051961
-0.147960
0.296627
-0.253972
-0.286437
0.146138
-0.349900
0.036797
-0.335584
-0.264406
-0.728819
0.280503
-0.536169
0.700531
0.165336
-0.492618
-0.020122
0.193256
-0.094762
0.302602
0.381649
-0.008331
-0.176999
0.399685
0.371974
0.256794
-0.726339
0.239059
0.018097
-0.615873
0.035735
0.345235
-1.000056
-0.461067
0.156133
0.070557
-1.167547
-0.339392
-0.697137
-0.299218
-0.038115
1.025464
0.025298
0.490013
0.614966
0.063152
-0.802360
-0.294289
0.404101
0.237621
-0.693003
-0.019177
-0.099667
-0.531693
-0.390793
0.814872
0.219141
0.027271
1.730877
0.685359
-0.020062
0.592266
0.098407
-0.195155
0.147842
0.241014
0.208883
-0.214825
-0.431411
0.254546
0.781424
-0.271875
0.538504
0.298767
0.107555
0.155356
0.414297
0.740828
0.531772
-0.798303
0.333531
-0.195937
0.118888
0.471425
-0.898280
0.722107
-0.038421
-0.461818
0.623738
-0.136314
-0.298297
0.778502
0.205922
-0.051238
-0.700141
-0.221622
0.069446
0.332946
0.008162
-0.186345
1.186420
0.128829
-0.534643
0.392359
0.598060
-0.572040
-0.026657
-0.040297
-0.161023
0.465214
-0.324197
-0.026245
0.255646
0.494793
0.141711
0.539268
-0.240212
-0.773701
0.192881
0.615047
-0.666406
0.336142
-0.033416
0.155100
0.664571
0.133569
0.150518
0.655045
-0.980099
-0.561437
-0.631110
0.160293
0.114484
0.179607
-1.140855
-0.745139
0.294880
-0.034157
-0.400764
-0.080563
-0.004858
0.054894
0.405450
0.345750
0.619377
-0.125348
0.200681
0.087604
0.185545
-0.275565
-0.312839
0.816110
-0.357129
-0.337380
-0.500797
-0.071364
-0.506247
0.628565
0.043667
-0.575932
-0.475327
-0.440275
-0.259674
-0.158395
0.472936
0.215570
0.253403
0.299499
0.678326
-0.175306
-0.001628
-0.547074
0.853357
0.203041
0.426613
-0.336409
0.395142
-0.266212
-0.242894
0.023460
-0.002575
-0.465551
-0.026709
-0.259009
-0.475763
0.579163
-0.221277
-0.412986
0.312297
-0.439172
-0.219158
-0.230101
0.113574
0.513740
-0.365110
-0.082612
-0.083871
0.682311
0.112979
-0.214612
0.157681
-0.014779
0.093844
-1.028251
-0.351150
0.131528
-0.429222
-0.934202
-0.164140
-0.078065
0.266116
0.525628
-0.036492
-0.043049
-0.181568
0.148017
-0.046886
-0.279601
0.142667
-0.143777
-0.268386
0.556175
0.480420
-0.268639
-0.242669
-0.390036
-0.178037
0.413577
0.275714
0.081747
-0.345187
-0.108472
-0.162668
0.346591
0.058024
-0.030689
-0.359565
-0.140564
-0.319382
-0.018843
0.108198
0.763077
-1.161513
-0.387108
0.213995
0.724453
0.108825
-0.910609
0.076962
-0.248314
-0.204659
-0.222185
-0.072419
-0.799435
-0.917180
-0.031827
-0.254757
-0.183898
-0.525611
0.094349
-0.323407
0.470834
-0.108348
0.395685
-0.193075
-0.477469
-0.430480
-0.420212
-0.740306
-0.114986
0.066675
-0.157368
-0.325621
-0.226908
0.370078
0.042076
0.226418
-0.321856
0.053157
-0.256234
0.011281
-0.351639
-0.026180
-0.556425
-0.379692
-0.467322
0.231143
-0.619243
-0.431058
0.183105
0.202320
-0.004439
-0.627608
-0.784109
-0.295007
-0.572804
-0.529780
-0.763647
0.553448
-0.503528
-0.169645
0.382161
0.675946
-0.009073
-0.843159
-0.034034
-0.226164
-0.064745
0.051977
-0.066909
0.191666
0.458724
-0.288337
-0.095993
0.016883
-0.837838
-0.275716
-0.527187
-0.307512
-0.140171
-0.045208
0.628301
-0.473216
-0.156872
0.226424
-0.407181
-0.313436
0.269677
0.107803
-0.989583
-0.627228
-0.310266
0.320830
0.329497
-0.167098
0.783067
-0.519064
0.298540
-0.126880
-0.255982
0.256587
-0.131311
0.075684
0.208453
-0.265359
-0.136852
0.267310
0.403908
-0.163659
0.387958
0.006099
-0.254085
0.353116
-0.128254
0.710046
-0.418959
0.167242
0.107498
0.617863
-0.513577
0.179461
-0.645734
0.138737
0.695675
0.322987
-0.698892
0.316044
-0.550200
0.352324
-0.626899
0.487230
-0.094424
-0.006271
-0.252657
-0.341684
0.175697
-0.589679
-0.252529
0.377123
-0.541033
-0.262974
-0.045544
-0.091792
0.475719
0.356724
-0.246223
0.720670
-0.584201
0.196386
-0.011436
-0.504437
0.311121
0.467929
0.244761
0.459793
0.440901
-0.020062
-0.625952
0.026334
-0.329640
-0.322664
-0.799011
-0.186121
0.258689
-0.436030
0.009659
-0.199656
-0.419767
-0.289037
0.309339
0.597490
-0.296902
0.170283
-0.006738
-0.431969
0.156618
0.156968
-0.241747
0.493527
0.034186
-1.016979
0.089223
0.132148
-0.167119
-0.538683
0.111679
0.446872
-0.301437
0.360144
0.459649
-0.579035
-0.073157
0.611215
0.269412
0.259236
0.007761
0.175783
-0.279474
0.338341
-0.133961
0.009869
-0.029986
0.086388
-0.304362
-0.462864
-0.388261
-0.255110
-0.067959
0.432254
-0.400150
0.203530
-0.155200
-0.139153
-0.949907
0.369241
0.531300
-0.037931
0.491378
-0.163160
0.545580
0.626539
0.463595
-0.089795
-0.177910
0.207101
-0.173261
-0.674465
-0.431632
-0.339786
-0.694381
0.583807
0.486211
-0.444773
-0.001219
0.508952
-0.087580
-0.246253
-0.346897
0.318343
-0.298699
0.052764
-0.371042
-0.105620
0.788918
0.301423
-0.427026
-0.142563
0.214299
-0.040535
-0.098053
-0.037277
0.038426
-0.854009
0.367839
-0.056017
1.065843
-0.433605
-0.218521
-0.432335
0.361983
0.433626
-0.441376
-0.698784
-0.246342
0.093598
0.431010
0.541972
-0.279851
-0.179784
0.295735
0.181085
-0.399618
0.128136
0.108886
-0.426179
-1.319185
-0.046567
-0.220190
0.188924
0.403023
0.102253
0.512362
-0.055415
0.233442
0.003656
-0.163629
-0.313441
-0.072218
-0.557265
0.521341
-0.495649
0.462771
-0.244609
-0.101309
0.154249
0.554178
0.139302
0.140735
-0.264469
-0.334979
-0.110182
0.222649
-0.686730
0.277906
0.565497
0.370154
0.481285
-0.155703
-0.294709
0.258170
-0.237950
0.189623
-0.850819
0.095693
0.112493
-0.038412
0.395576
0.323701
-0.730784
-0.264346
-0.340090
-0.231101
0.198980
0.650570
-0.651705
0.533767
-0.355586
0.022603
0.129749
-0.087801
0.099548
-0.728646
0.647509
0.184583
-0.099249
-0.112285
0.357874
-0.790643
-0.944347
-0.149434
0.122779
0.796961
-0.440476
-0.196733
0.487772
-0.052996
-0.009057
0.034266
-0.364268
0.402097
0.079398
0.377304
0.091232
-0.638875
-0.631280
-0.076563
0.247683
0.127472
0.511659
-0.344520
-0.160830
0.357598
0.137740
-0.032891
-0.268957
0.582093
-0.087029
-0.210889
-0.489143
-0.170221
-0.435904
-0.145172
-0.571748
-0.044415
-0.254476
0.318999
-0.571629
0.703304
0.174461
0.093824
-0.649632
0.498244
0.099688
-0.037969
-0.270385
-0.132654
0.307566
0.659508
-0.050469
0.471441
-0.524451
-0.697633
-0.252175
-0.327678
0.245703
-0.204055
0.494072
-0.395185
0.492967
0.656048
-0.185803
-0.395548
0.543011
0.391233
0.078331
-0.968080
0.559481
-0.342094
-0.778193
0.532098
0.577496
-0.224294
0.190919
-0.753292
0.407221
0.162062
-1.026880
0.282754
0.176971
0.340597
0.019978
0.099945
-0.279889
0.144105
-0.287438
-0.604246
0.104774
0.239874
0.254764
-0.295843
-0.373280
-0.181488
-0.134084
0.308653
-0.447388
0.477871
0.209115
-0.375645
-0.270435
-0.374727
-0.503277
-0.013209
0.260805
-0.054259
0.195999
-0.917394
0.200373
0.181079
-0.090548
-0.518433
-0.906599
0.435422
-0.047855
-0.054752
0.372724
-0.310513
0.127837
0.518241
-0.552792
0.245620
0.172048
-0.533800
0.728852
-0.097467
-0.556944
-0.042971
-0.237175
-0.156059
0.199201
0.040801
0.672195
-0.394946
-0.714456
0.082646
-0.290681
-0.007934
-0.724754
-0.095662
-0.048068
0.217840
-0.021607
0.476331
0.073154
0.247026
0.290044
0.264359
0.266243
0.654175
-0.157870
0.727217
-0.146887
0.831943
-0.081214
-0.085091
-0.059253
0.372433
-0.178146
0.061804
-0.079367
-0.017372
0.007858
-0.968568
0.074152
-0.105216
-0.190039
0.282654
0.809738
0.384363
-0.478665
0.059202
-0.169305
-0.202600
0.457242
-0.398166
-0.784654
0.134415
0.763526
-0.214121
0.524915
-0.430229
-0.816122
-0.483437
-0.561044
-0.141990
0.160779
0.226766
0.211928
-0.071057
-0.184872
-0.372565
-0.405765
0.068401
0.412040
-0.141957
0.298175
-0.099689
0.517132
-0.582155
0.315155
0.981094
-0.204960
-0.231837
-0.899962
-0.456680
-0.569969
0.134146
-0.258491
0.220145
0.063277
-0.101471
-0.682040
-0.020353
-0.280392
-0.034014
0.459899
-0.653479
0.041126
-0.110744
-0.201416
-0.185316
-0.693788
0.785325
-0.121969
-0.208775
-0.896360
-0.333134
0.197872
0.763300
1.214866
-0.366169
0.515129
0.043708
0.229899
0.155491
0.185391
-0.431877
-0.292034
0.103393
-0.405871
0.366748
0.446496
-0.194400
0.047658
-0.840057
-0.461566
0.335441
0.128750
0.402038
-0.457763
0.048557
0.341249
0.328128
0.484200
-0.285796
0.009434
0.450406
0.663725
0.106101
-0.037464
0.430170
-0.220141
0.869988
0.757920
0.270668
0.431447
-0.335347
-0.261160
-0.060781
0.646224
-0.083532
-0.068373
0.200790
0.307444
-0.486633
0.075058
0.496532
-0.228185
-0.259265
-0.190780
-0.164784
0.220106
-0.588599
-0.327140
0.057440
-0.028527
0.095814
0.295129
0.183725
-0.103156
0.305933
0.569213
-0.041835
-0.270436
0.274609
0.378209
-0.160352
0.097707
0.248418
0.425503
-0.400174
0.560081
0.177522
-0.632919
-0.535431
0.354525
-0.334242
0.555146
-0.073399
0.605579
0.007618
-0.403894
-0.257722
0.354077
-0.772289
-0.581749
0.755998
0.239963
-0.463513
0.602780
0.045711
0.219115
-0.027773
0.062474
0.351601
0.082848
0.385074
-0.418387
0.399210
-0.279619
0.297667
0.132873
-0.499452
0.308071
0.062752
-0.506463
0.247940
-0.187412
0.337788
0.144682
0.409702
0.439678
0.032215
0.051444
-0.490999
-0.077954
-0.350441
-0.213653
-0.167765
-0.201463
0.177923
0.110935
-0.584515
0.193651
0.378005
0.196921
0.060761
0.989640
-0.455759
0.715371
0.583442
0.240372
0.245486
-0.183342
-0.240187
-0.503466
-0.176013
-0.415484
-0.030093
-0.061554
-0.210566
0.048766
-0.231830
-0.167384
-0.129982
-0.356827
0.168600
-0.235722
-0.577630
-0.341029
-0.155507
-0.523915
-0.603034
-0.164847
-0.499681
0.682011
-0.415825
0.589949
-0.204573
-0.129046
0.295812
-0.552018
-0.533077
-0.435045
0.291101
-0.607042
-0.417077
0.620903
0.194286
-0.185706
0.046686
0.776990
-0.087078
-0.285200
-0.724760
-0.224749
0.333768
0.154624
0.181229
0.223368
-0.641562
-0.190139
0.306953
-0.180943
0.321638
-0.467530
0.466107
-0.354697
-0.424934
-0.126428
0.452376
-0.310568
-0.171821
-0.360670
0.204130
0.051425
-0.691778
-0.266330
-0.909291
0.565992
-0.060216
0.425166
-0.147512
-0.706722
0.354343
0.232262
-0.690801
-0.014317
-1.019070
-0.756966
0.724654
-0.579771
0.361820
0.441401
-0.000136
-0.656117
-0.515011
0.235549
-0.594872
-0.101586
-0.606162
0.101157
-0.023778
0.327709
-0.311839
-0.591746
-0.668878
0.032630
0.473091
-0.575305
-0.206305
0.357006
0.239200
-0.356372
-0.121599
-0.012221
-0.449409
0.084731
0.100495
0.549890
0.090026
0.546393
0.444297
-0.302547
-0.267259
0.626408
0.284729
-0.856899
0.350377
0.187246
0.515068
-0.219572
0.407121
0.605930
-0.488144
-0.178440
0.238069
0.149694
-0.088490
0.400856
-0.638516
0.048479
0.354327
0.627489
0.666459
-0.874439
-0.746651
-0.607065
-0.072610
0.071964
0.665536
0.213536
-0.538847
-0.340851
-0.290175
0.282733
-0.032882
-0.056194
-0.340766
0.023410
0.360723
-0.449693
-0.529206
-0.345417
-0.163287
-0.230676
0.587273
0.463954
0.171593
0.480736
0.435469
-0.248727
0.536371
-0.405689
-0.332647
0.483496
0.067533
-0.019948
-0.107379
-0.330906
0.144677
0.782751
0.321213
-0.341897
0.057439
-0.233069
0.228313
-0.155246
-0.404780
-0.309288
-0.013778
-0.587013
-0.060455
-0.006262
-0.304381
0.454435
0.384282
-0.355071
-0.086813
0.116556
-0.388120
-0.080928
0.194240
-0.070502
0.438248
-0.204499
-0.340190
-0.363667
0.097624
-0.793916
0.751819
-0.258672
0.062189
0.211685
0.025951
-0.062429
-0.157512
0.212254
-0.505682
0.305804
0.149297
-0.411122
0.049292
0.234069
0.182126
0.121016
-0.428515
0.363057
0.477798
0.818563
0.365347
0.346037
0.174561
-0.472282
-0.383683
0.281631
-0.305368
-0.353144
-0.517613
0.199203
0.669462
0.740438
-0.124154
0.426252
0.231736
0.054836
0.699998
0.131840
-0.227882
-0.486868
0.540248
0.266675
0.556903
0.095152
0.072046
0.374784
1.062141
0.554376
-0.006868
0.258971
-0.250713
0.114679
-0.046610
-0.479959
0.183724
0.258412
0.360593
-0.226437
-0.193099
0.019407
-0.302001
0.002123
-0.240362
0.510047
-0.379765
0.402503
0.179385
0.441414
-0.257993
0.086053
-0.768801
0.461236
-0.597952
-0.721173
-0.089425
0.384986
-0.012506
-0.248212
-0.432481
-0.194408
-0.246027
0.342383
0.158931
-0.369877
-0.380338
0.304356
0.687920
-0.077818
0.852982
-0.152646
0.027986
0.333053
0.508942
-0.168979
0.123580
-1.026080
0.013155
-0.691087
0.608935
0.659053
0.418248
-0.050749
0.264567
-0.344755
0.785578
0.670243
0.742853
0.130313
0.555931
0.073104
0.021359
1.100778
-0.704885
-0.246894
-0.041495
0.340805
0.094903
0.564578
0.676159
0.004799
-0.234568
-0.454743
0.310683
0.361532
-0.015192
-0.061781
-0.238839
-0.543678
-0.012347
0.675241
-0.398968
0.199320
0.845367
0.196910
-0.490764
0.060283
-0.379937
-0.009834
-0.004227
-0.077500
0.118687
0.184145
0.400352
0.166968
-0.542872
-0.290873
-0.291264
-0.180209
-0.400590
-0.424941
0.005976
0.466686
-0.303026
-0.758415
0.257850
0.075908
-0.006042
0.182343
-0.094079
0.492334
-0.390655
-0.516088
0.005180
0.086792
0.114891
0.282158
-0.883343
-0.247694
0.415317
-0.241814
0.531891
-0.033044
0.421718
-0.358130
0.865066
-0.233429
0.243458
0.387205
0.040885
-0.160152
0.163394
-0.220477
-0.322105
-0.012312
0.108811
0.027447
0.307920
-0.191996
-0.848596
0.356022
-0.153888
0.202785
0.570964
-0.686796
0.197314
-0.371250
-0.126260
0.678330
0.164234
-0.114624
0.802064
-0.044739
0.136987
0.190561
-0.294479
-0.167703
0.344103
0.123758
0.121270
0.124855
0.276438
-0.209662
-0.086545
-0.083695
-0.095142
-0.645069
0.515861
0.201019
-0.603997
-0.235903
-0.409316
0.866151
0.346669
0.552611
-0.219737
-0.354606
-0.580985
-0.424944
0.221816
-0.521933
0.072848
0.275967
-0.597643
-0.019794
0.389296
0.728622
0.029482
-0.197801
0.910077
-0.416887
0.042582
-0.524420
0.236029
0.554692
-0.059599
-0.017967
-0.226010
0.346285
-0.229800
0.650383
-0.508024
-0.238500
-0.203106
0.379536
-0.149461
0.104946
-0.242992
-0.975193
-0.156794
0.300112
-0.127905
-0.112547
0.068159
0.133564
0.048292
0.225604
0.565280
0.682849
0.283158
-0.602975
-0.119566
0.244652
-0.668751
0.066138
-0.301730
-0.114225
0.076690
0.345849
-0.530766
-0.082631
-0.316997
-0.871648
1.118021
0.092495
-0.343373
0.595950
0.248104
-0.062178
-0.225878
-0.731035
-0.383184
-0.481927
0.152902
-0.355596
-0.374983
0.679468
0.298956
-0.008209
0.157789
-0.053813
-0.057062
-0.253406
-0.556600
-0.427286
0.196518
0.549336
-0.007639
0.376249
0.159301
-0.364928
0.388631
-0.440230
-0.565144
-0.132579
0.242632
-0.235129
-0.455132
0.416454
-0.205418
0.081278
0.060030
-0.240611
-0.677759
0.556593
0.329862
-0.248784
0.259466
-0.221328
-0.249853
-0.634086
-0.342788
-0.015804
-0.514201
0.388876
0.279138
0.379721
-0.079808
0.906875
0.008001
0.230816
-0.553739
-0.564401
-0.155045
0.939418
0.354697
-0.248396
-0.422501
-0.644871
0.147412
0.222006
-0.791340
0.203142
-0.463171
-0.434906
-0.607435
-0.145435
0.448477
-0.254876
-0.291521
0.235774
-0.353462
0.803891
-0.077751
0.343887
0.116774
-0.214878
0.192180
-0.092705
0.147605
-0.255411
-0.430148
-0.047287
-0.459644
0.006255
-0.362205
0.495172
0.072833
-0.144818
-0.005254
0.386043
0.385122
-0.072286
-0.254339
-0.257169
-0.366944
0.352840
-0.137590
-0.161637
0.130711
0.543195
-0.482975
0.739222
0.286146
-0.453735
0.478413
0.252765
0.122867
-0.142939
0.743954
0.313509
-0.701225
-0.321777
-0.390296
0.565381
-0.656008
-0.693685
0.123374
0.061149
-0.721754
0.190265
-0.434391
0.397308
0.567088
0.168978
0.089496
-0.689126
0.369579
0.132267
-0.978471
-0.037533
-0.213756
0.263861
-0.102694
0.336469
-0.554685
0.024767
-1.184573
-0.062510
0.095184
-0.443129
0.544773
-0.517673
-0.376411
0.674094
0.574981
-0.402512
-0.217858
-0.070030
0.445417
-0.080629
0.113167
0.405664
-0.064132
0.350277
0.143991
0.003048
0.338767
-0.680215
-0.271552
-0.245286
-0.260941
-0.016327
0.668827
0.163290
0.305122
0.382780
-0.677053
0.417575
1.123430
-0.130386
-0.097328
0.281483
0.957572
-0.273136
-0.223778
-0.488411
0.369717
0.238446
-0.411582
0.124539
1.528534
-0.446433
0.363550
-0.840494
0.616475
0.331156
0.191020
-0.401938
0.039470
-0.033345
-0.437932
0.378154
0.210965
-0.009799
-0.135894
0.459132
-0.007469
0.322115
0.489261
0.246478
-0.249793
0.166650
0.857200
-0.312465
-0.723963
-0.638174
-0.794113
0.068846
0.487599
0.108947
0.445635
-0.058188
-0.276305
0.324356
0.189163
-0.560838
-0.388476
-0.288397
-0.294625
-0.024421
-0.581792
-0.235624
-0.107935
0.000183
-0.678724
0.439845
-0.451127
-0.913761
0.560135
-0.345514
0.212596
0.050831
0.653333
0.373185
-0.396530
-0.462028
0.062598
0.992119
-0.515523
0.088038
-0.004737
0.659918
0.373564
0.023725
0.003750
0.005280
0.216337
0.177839
-0.959750
-0.410536
0.399366
0.362246
-0.610699
-0.229842
-0.060609
-0.905688
-0.007951
-0.202075
-0.028910
-0.287051
-0.159961
-0.060742
-0.188841
-0.164151
-0.294670
0.731638
-0.088857
0.446440
-0.112968
-0.811566
-0.767807
0.273633
-0.138462
-0.385657
0.698708
-0.391385
-0.082638
0.628691
-0.101014
-0.043711
-0.313435
-0.045917
0.001823
0.203901
-0.205026
-0.015188
-0.290322
0.574252
-0.112395
0.085142
0.074922
-0.305348
0.305835
-0.155271
0.218154
-0.383919
-0.261927
0.540266
-0.413990
-0.603045
0.117750
0.003008
-0.165245
0.158169
0.507876
0.288756
0.100595
0.208656
-0.298640
-0.133386
0.500105
-0.131235
0.284294
0.210586
0.530545
-0.084311
-0.430712
0.091365
-0.374908
0.809887
-0.193832
0.577982
0.195559
0.140068
0.100769
0.153679
0.199431
-0.727717
0.118559
-0.681139
0.043955
0.174641
0.625964
-0.324033
-0.227814
-0.196158
0.110198
-0.073867
-0.592808
-0.662769
0.079289
0.129802
-0.285201
-0.096412
-0.108187
-0.306874
0.349117
-0.035969
0.531067
-0.435094
0.350922
-0.059991
0.668422
0.310411
0.703369
-0.448027
-0.562771
0.371954
-0.574216
0.647911
0.380904
0.281724
0.219956
-0.133837
0.183055
0.118726
-0.423451
0.509054
0.077783
-0.330077
-0.126381
0.098729
-0.248948
0.320456
0.110204
0.287972
0.026522
-0.154860
-0.078378
0.117338
-0.893664
0.037050
0.134536
-0.193604
-0.045402
-0.456941
-0.129169
-0.263862
0.098484
0.144982
0.471131
0.213964
-0.342040
0.351716
-0.092343
-0.029198
-0.022809
-0.353410
-0.029981
0.052934
0.372063
-0.104387
-0.009101
0.336278
-0.198401
-0.339586
-0.425427
0.639228
-0.162941
0.115225
-0.052709
-0.267732
0.455531
-0.044339
-0.082047
-0.227381
0.038920
-0.578558
-0.218084
0.462405
0.212451
-0.282090
-0.313592
0.537607
-0.551112
-0.346221
0.006590
0.418202
0.188565
-0.627446
0.118824
0.057481
0.440820
-0.320169
0.399449
0.241400
0.228500
0.127228
0.176535
0.216985
-0.573748
-0.395617
0.509504
-0.181406
0.018597
0.389218
-0.007649
-0.327062
-0.243246
0.063730
0.229992
0.143091
-0.069148
-0.439317
-0.075328
-0.525492
0.534119
0.041142
0.678270
0.354474
-0.244953
-0.317468
-0.034819
0.111237
0.259457
-0.220102
0.518722
0.348495
0.306233
0.368447
-0.299233
-0.197697
0.676670
-0.110537
-0.240757
-0.124835
-0.621804
0.037293
-0.050206
-0.759127
0.324334
-0.345634
0.196564
-0.169558
-0.133709
0.403964
-0.214225
-0.164808
-0.517778
0.229836
-0.078072
-0.114910
0.426397
-0.090328
-0.228201
0.443331
-0.234094
0.456989
0.237783
0.295837
0.394268
-0.125538
-0.332451
-0.048967
0.626939
-0.224021
-0.069069
-0.483437
0.317938
0.079859
-0.015209
0.432623
-0.022920
-0.210767
-0.187798
-0.512999
-0.226100
-0.329855
0.332294
-0.090268
0.434868
-0.284496
-0.277440
-0.407766
-0.389330
-0.480274
-0.328628
-0.388186
0.321737
0.705493
0.051308
0.182471
-0.349728
-0.370327
-0.254097
0.639651
0.377657
0.071490
0.711987
0.615202
0.618408
0.157476
0.399941
-0.529636
-0.169604
-0.057044
-0.833683
-0.479642
0.159129
-0.351595
-0.101170
0.072072
0.602900
-0.423152
0.307765
0.101650
-0.155080
0.021701
-0.436980
-0.170273
-0.377479
-0.308520
0.261583
-0.140092
-0.296213
0.013065
-0.163345
0.132369
0.177183
-0.581751
-0.355494
0.347978
0.061188
-0.558783
-0.683678
0.072099
-0.198049
0.290575
0.202403
-0.174032
0.471992
-0.431293
1.042203
0.141778
0.148216
0.153129
0.034940
0.636887
0.168852
-0.591393
-0.941702
-0.196875
-0.567125
-0.138789
-0.229999
-0.612279
-0.009813
0.690529
0.381613
-0.456799
-0.808209
-0.138318
0.444871
-0.038968
-0.829635
0.384026
0.212965
0.037518
-0.302265
0.461539
-0.293292
-0.383959
-0.130500
-0.563725
0.345333
0.325269
0.103259
0.147537
-0.482147
-0.078449
-0.314480
-0.678451
0.145053
0.523680
0.541100
-0.011171
-0.093101
0.505136
0.363778
-0.276424
-0.507084
-0.144318
-0.049203
-0.077707
-0.200161
-0.108640
0.901053
-0.118424
0.341415
-0.084603
-0.251018
0.386499
0.587847
-0.087149
0.314593
0.554007
0.569950
-0.221565
-0.192382
-0.286531
-0.033986
0.121746
0.596654
-0.497659
-0.235873
1.028498
-0.223656
-0.003206
0.275875
-0.002346
0.549941
0.090315
0.016682
0.431175
-0.043411
-0.477134
-0.812290
-0.636452
0.255454
0.211454
0.222773
0.344723
-0.062466
-0.499605
-0.174022
0.279599
-0.179707
0.738449
0.382193
0.104386
0.995800
-0.118928
-0.212230
0.472173
-0.183654
-0.084224
0.226930
-0.231536
-0.460248
0.471433
-0.667563
0.021287
0.870657
0.804310
-0.357054
-0.066218
-0.222107
-0.265167
-0.121931
0.281148
-0.078426
-0.096454
-0.370335
-0.132448
0.151009
-0.697678
0.211734
0.141606
0.130285
-0.223149
-0.233600
0.068098
-0.214851
-0.227319
-0.759677
0.087816
-0.094629
-0.483463
0.034134
0.028525
0.253626
-0.005031
-0.038413
0.900541
0.367343
-0.365649
0.060388
0.340999
-0.845426
0.276766
-0.322949
-0.656572
-0.730759
-1.244309
-0.275877
-0.940512
0.627956
-0.614620
0.300134
-0.431226
0.354880
-0.677964
0.393714
-0.759512
0.245210
-0.018880
-0.046506
0.146160
0.097472
0.207334
-0.182962
0.295536
0.199753
0.077926
-1.099745
-0.175487
0.175640
0.574383
0.036970
-0.064747
-0.168009
-0.424909
0.327973
-0.574459
0.154653
0.509097
-0.232465
-0.356218
0.025838
-0.466929
0.243677
0.584346
0.557369
-0.256619
-0.437676
-0.148265
-0.537842
-0.171889
0.200538
0.080718
-0.377309
-0.156129
0.355408
0.614486
0.231404
-0.168210
-0.620652
-0.160363
-0.163981
0.863375
0.113840
-0.094203
-0.052668
0.083488
0.336142
-0.043591
0.011124
0.003428
0.651713
0.642701
0.208856
-0.653649
0.296687
-0.073875
0.400836
0.425206
-0.257137
-0.716408
0.364493
-0.474193
0.459081
0.131817
-0.292489
0.311705
0.021966
0.610190
0.556182
-0.452776
-0.909598
-0.177718
0.791415
0.069018
-0.109879
0.202688
-0.449241
-0.156401
0.313599
-0.322403
-0.235896
0.428108
-0.413120
-0.718547
0.338505
1.118965
0.525512
0.353451
-0.111282
0.598474
0.198918
-0.318992
0.204758
0.539717
0.702304
0.051034
0.152447
-0.034744
0.273014
-0.001998
-0.341122
-0.159448
0.568317
-0.145469
-0.632360
-0.134759
0.619073
-0.874182
-0.004712
0.460411
-0.369400
0.565316
-0.115827
-0.657045
-0.492840
-0.237304
-0.049373
-0.628329
0.215506
-0.083839
-0.503120
0.463794
0.606499
-0.607852
0.167653
-0.121449
-0.104492
-0.129190
0.713321
-0.222575
-0.712043
0.298437
0.117156
-0.507025
-0.344308
0.051536
-0.119699
-0.010600
-0.220360
0.117430
-0.849632
-0.547563
0.117051
-0.262396
-0.012720
-0.328369
0.110743
-0.569071
0.261178
0.204976
-0.514860
-0.269201
-0.533623
-0.109768
-0.181969
-0.387882
-0.174118
0.312078
-0.615966
-0.063800
-0.484100
0.145092
0.759526
-0.364341
-0.250078
-0.353381
0.129275
-0.434232
0.252901
-0.195198
0.161088
0.418903
-0.147280
0.164316
0.476676
0.244310
-0.373343
0.411446
0.226997
-0.169474
0.407216
0.743887
0.081226
-0.067036
0.010629
0.181804
-0.200768
-0.180828
-0.515441
0.056897
0.343775
0.400056
0.316417
0.095535
0.381210
-0.200640
-0.596954
-0.036150
0.396597
0.453321
0.400892
-0.143628
-0.695062
0.274481
1.151252
-0.256552
0.216324
-0.802675
0.557024
0.019578
-0.129053
-0.231166
0.299417
0.060870
-0.663680
-0.772021
0.273797
-0.097547
0.467363
-0.002882
0.615344
0.519997
0.276992
-0.060118
0.126066
-0.239234
0.083415
-0.117577
-0.933018
-0.550268
-0.410014
-0.270880
-0.053573
0.333810
-0.273829
-0.327475
0.224126
0.336435
-0.006762
-0.760819
-0.299807
0.563067
0.206063
0.040571
-0.006462
-0.562924
-0.112742
-0.321577
-0.639345
-0.807079
-0.226556
0.152063
1.165804
0.042825
-0.264212
0.671592
0.247724
-0.703398
-0.578241
0.184280
0.066688
-0.072827
0.626974
0.341371
0.673461
0.235764
-0.051268
-0.060698
-0.129735
0.128251
0.460889
-0.253966
-0.450951
0.186924
-0.451566
0.242425
0.595846
-0.441993
-0.296863
1.038709
0.875640
0.776298
0.132135
-0.676041
-0.062073
-0.013161
-0.042742
-0.249772
-0.011867
0.191737
-0.433035
-0.737284
-0.279721
-0.231783
0.670020
-0.394818
0.401493
-0.232263
0.031689
-0.520302
0.257233
-0.304412
0.474321
0.004417
0.338239
-0.339894
0.262003
0.343508
0.108863
0.576063
0.143703
0.299326
-0.258223
0.629307
-0.525475
0.587864
0.259372
0.384143
-0.281521
-0.719369
0.539483
-0.161402
-0.152069
0.618513
-0.610705
0.010008
-0.331118
0.184529
0.018008
-0.461033
-0.402839
0.439250
0.059266
0.254913
-0.085236
0.000444
-0.078432
-0.098459
-0.253609
-0.950310
0.163810
0.040397
-0.154883
-0.027824
-0.274315
0.062097
0.559478
-0.254625
-0.142424
-0.643518
-0.326419
0.468184
0.431415
-0.292388
0.382402
0.185085
-1.178273
-0.009270
-0.001175
0.029787
0.095381
-0.332851
0.179929
-0.241991
-0.447730
-0.486977
-0.758745
0.397613
-0.010520
-0.016647
0.715249
-0.281677
-0.194050
-0.728721
0.849532
-0.097646
0.045601
0.104504
0.233759
-0.101300
0.409281
-0.510616
-0.439369
0.264501
-0.305017
-0.025905
0.604061
0.015659
-0.302009
0.070417
0.760718
-0.127294
-0.177442
0.147827
-0.122209
-0.088166
-0.685156
-0.747936
0.047419
0.407388
-0.030223
0.113699
-0.929134
-0.529529
0.093597
-0.333171
0.349324
1.086463
-0.324783
0.155764
0.733910
0.677007
0.238153
-0.523104
0.513482
0.127277
0.146598
-0.537896
1.296167
0.035626
-0.086520
-0.248634
0.395971
0.180896
0.118053
0.179622
-0.287314
0.417794
-0.307060
-0.274594
-0.067012
-0.126714
0.321293
0.656581
0.135153
0.970638
-0.188246
0.458726
-0.168747
-0.710655
-0.043646
-0.318312
0.082491
-0.088115
0.082428
0.542779
0.277472
-0.022345
0.201904
0.556275
0.385180
-0.241743
-0.169797
-0.197887
-0.544255
0.612871
-0.489082
0.382962
-0.889765
0.705976
0.201950
-0.187104
-0.200687
-0.388422
-0.052033
-0.520775
0.058558
0.159539
-0.550579
0.102626
0.087084
-0.141417
-0.054212
0.580327
-0.491734
-0.895814
-0.350712
0.002189
-0.373876
-0.088329
-0.464575
-0.360621
0.524629
-0.991370
-0.042099
0.037525
-0.271409
0.501117
0.591183
0.434052
0.468158
-0.209425
0.176800
-0.306931
0.534361
0.077052
-0.491498
-0.221168
0.086845
0.413484
0.167875
0.079269
-0.281328
0.305320
-0.117248
-0.811403
-0.086858
-0.288372
-0.602518
-0.194651
0.618459
0.083526
0.182778
-0.593988
-0.006364
0.066365
0.011220
-0.446814
0.633993
0.023649
-0.011015
-0.280866
0.027247
0.342335
0.232547
0.384456
0.612039
-0.213625
-0.128367
0.870952
-0.012271
0.313453
-0.281041
-0.065541
-0.218457
0.604489
-0.068677
0.241645
-0.059953
0.166363
0.156521
0.468562
-0.027866
0.631999
-0.282886
0.318967
0.097638
0.081070
-0.323169
0.391425
-0.384302
-0.444817
-0.187715
0.354269
-0.292919
0.131573
-0.119611
-0.339436
0.104619
-0.142272
-0.402741
-0.437552
-0.138950
0.115328
0.458970
-0.200230
0.315464
0.219876
0.243925
0.378221
-0.633690
-0.210612
-0.124649
0.070974
0.979625
-0.078549
-0.648980
0.136620
0.703390
0.423369
0.471607
0.627926
-0.126349
-0.723553
0.098458
-0.760649
0.508803
1.023037
0.782794
0.052566
0.447250
0.395956
0.471229
-0.383047
0.374875
0.079782
-0.295514
-0.102630
0.223384
0.312920
-0.337909
-0.273444
0.336876
-0.094101
-0.057193
0.497259
-0.434153
-0.230909
-0.012852
0.707879
-0.411854
0.217750
-0.046632
0.012275
0.534317
-0.301380
-0.095885
0.224143
0.253014
0.121052
0.072751
0.082496
0.339787
-0.445902
-0.480300
0.495016
-0.766013
0.440397
0.794054
0.416640
0.374965
-0.846900
0.093957
-0.244985
0.850553
-0.222961
-0.320008
-0.807174
0.558744
0.256572
0.355047
0.708433
-0.389923
-0.361068
-1.108680
-0.363756
0.010410
0.143176
-0.215512
0.278792
-0.113729
0.260663
0.566504
-0.330581
-0.102034
-0.047940
-0.382706
-0.255455
-0.356977
0.011391
-0.900600
-0.534369
0.646603
0.080571
-0.085642
-0.206048
0.118976
-0.211743
0.244034
-0.301399
0.556540
-0.138900
-0.110978
0.126080
0.294396
-0.385763
-0.194979
-0.504375
0.294390
-0.121928
0.063526
-0.156792
0.594459
0.040568
0.278041
-0.620260
0.134978
0.982007
0.215334
-0.334790
-0.724132
-0.494274
-0.155507
-0.121161
-0.396539
0.113724
0.250128
-0.315442
0.273696
-0.377813
0.137882
-0.372668
0.894796
-0.364240
0.157360
-0.023802
0.768094
0.073497
-0.056743
-0.615934
-0.351097
-0.380482
-0.299976
-0.059433
0.478094
0.194652
-0.163909
0.289943
0.594976
-0.432826
-0.493138
0.158506
0.076890
-0.231756
0.657582
0.173057
-0.590391
0.646346
-0.042933
0.586794
-0.012498
-0.462444
0.063694
-0.195245
-0.089297
-0.719601
0.570191
0.450661
0.380789
0.718963
1.049852
0.103255
0.763825
0.999823
-0.529603
0.023756
0.150790
0.193399
0.233411
-0.096408
0.397669
0.295555
-0.102572
0.364680
-0.709271
-0.470277
-0.513860
0.825229
0.323521
0.348940
-0.521140
0.037351
-0.220134
-0.054363
0.285491
-0.254022
0.428297
0.280432
-0.153645
-0.144568
0.677445
0.583638
0.042843
0.022157
0.326594
0.502978
0.065434
-0.063326
0.007960
-0.190172
-0.014345
0.173083
0.144664
-0.007896
-0.058751
-0.242910
0.136943
0.022199
1.000868
0.917031
0.534870
-0.302811
-0.297886
-0.313023
0.113882
0.097371
0.833664
0.173145
-0.860674
-0.629913
0.242318
0.063740
-0.760053
-0.681155
-0.164079
0.072470
0.078723
-0.586088
-0.192846
0.062483
-0.225628
-0.022955
-0.251877
-0.131952
0.115704
-0.355765
0.107866
-0.323575
0.573823
0.072740
0.083470
-0.049592
-0.113057
-0.334916
-0.114717
-0.066624
-0.587896
-0.475714
0.372371
0.138823
-0.341749
-0.113940
0.095731
0.154720
-0.526775
0.285525
-0.406863
-0.662682
-0.626780
-0.330357
-0.574356
-0.536337
0.774347
-0.312149
-0.478301
-0.171385
-0.480804
-0.173034
0.158111
0.829410
0.411187
-0.036666
0.414971
-0.171843
-0.252324
0.405351
0.299226
-0.403699
-0.233994
-0.804091
0.184747
-0.052701
-0.393009
-0.406129
0.184739
-0.439752
-0.722913
-0.066197
-0.283423
0.154392
0.295534
0.439899
0.265055
0.195244
-0.611318
0.051577
-0.161242
-0.711552
0.087404
0.521095
-0.240933
0.047053
-0.035470
-0.664428
0.430567
0.420725
-0.251245
-0.077950
-0.039660
0.390905
0.145792
-0.757791
-0.366379
0.072516
-0.898698
0.403720
-0.392661
0.011672
-0.335156
0.682379
0.278935
-0.229968
-0.969515
0.084751
-0.212335
-0.591894
0.748116
-0.144912
-0.070671
-0.375942
0.313900
-0.775327
-0.143836
-0.045827
0.325592
-0.145725
0.031671
0.488512
0.496437
0.011228
0.575211
-0.010947
-0.429498
0.015000
0.363789
-0.925462
-0.402271
-0.087189
0.230298
0.454425
-0.141710
-0.362598
0.382159
-0.133193
-0.614722
0.141530
-0.679129
-0.578536
0.700879
0.468487
0.267886
-0.419661
-0.167259
0.213359
-0.105270
0.405064
0.391477
0.335762
0.729472
0.311983
-0.067766
-0.033939
-0.096238
-0.051042
0.473566
0.065957
0.068963
-0.387099
0.479644
0.284845
-0.369079
-0.398716
-0.430003
0.624714
-0.295099
0.385303
-0.361613
-0.766795
1.200859
-0.164753
-0.038253
0.180693
0.729502
0.523100
-0.542213
0.426743
0.195196
-0.179769
0.419227
-0.807916
-0.439388
0.357499
-0.260434
-0.353024
0.226011
-0.174280
0.293904
0.542896
-0.943684
-0.166709
0.229625
0.509144
-0.586899
-0.244050
-0.276274
0.336813
-0.719548
0.513715
0.030589
-0.199346
-0.271212
-0.686371
0.115330
-0.122827
-0.297178
-0.733518
-0.732983
-0.545794
-0.070809
0.206577
-0.209493
-0.249926
-0.312324
0.017822
0.240348
0.061370
-0.425007
-0.654412
-0.440013
-0.513647
-0.551421
-0.072422
0.495171
0.201336
-0.001425
0.253225
0.886395
0.433975
-0.383469
-0.328113
0.385523
-0.003965
-0.492636
-0.556759
0.169486
0.567009
0.015857
0.129017
-0.700651
0.341616
0.725441
-0.780916
0.017237
-0.697886
-0.268786
0.223330
0.146298
-0.338166
-0.313578
-0.121377
-0.355727
0.260682
0.343741
0.343776
-0.291370
0.622130
0.209549
-0.510773
0.521455
-0.285460
-0.098565
0.250745
-0.977742
0.198924
-0.239770
0.425631
-0.043583
0.115972
-0.288645
-0.670501
-0.354629
-0.196006
0.275262
0.414742
0.629923
0.173281
0.284442
-0.530731
-0.240237
0.124082
0.207120
0.110614
0.041124
0.046526
-0.152947
0.202052
-0.345813
0.316882
-0.230271
0.653100
0.074830
-0.609044
0.054014
0.037533
0.159989
-0.587830
-0.294439
0.138644
-0.061060
0.092399
0.280103
-0.309894
-0.290572
0.594413
-0.076443
0.418765
-0.137164
-0.422194
0.308598
0.978119
-0.561199
-0.060932
0.351955
-0.749907
0.840587
-0.095017
0.074184
0.249521
0.810590
-0.561873
0.012102
0.113069
0.011279
0.542322
-0.509542
0.192659
-0.027250
-0.238355
-0.617816
0.188478
0.555739
-0.208132
-0.226900
0.943783
0.278907
0.265245
0.552488
0.621802
0.118769
0.391793
0.627255
-0.455024
-0.452138
0.398217
-0.093937
0.093387
-0.011171
0.186479
0.172182
0.370399
0.236693
0.318873
-0.108821
-0.561404
-0.822354
-0.062651
-0.249592
-0.173078
0.036997
0.531268
-0.782239
-0.674719
0.399613
0.055669
1.102633
-0.227223
-0.139041
-0.137546
0.297610
0.167219
-0.810570
-0.303212
-0.434499
0.550719
0.055956
0.146530
-0.161234
0.010722
-0.295377
1.048842
-0.015858
0.468677
-0.110372
-0.686226
0.241664
0.389048
-0.011021
0.202786
-0.086209
-0.398740
-0.486475
-0.758409
0.378395
0.450098
-0.000461
-0.331969
0.627646
0.266679
0.742333
0.500165
0.519828
-0.181180
0.163491
-0.604611
0.043257
-0.146118
-0.299300
-0.110974
-0.552457
-0.024625
-0.056542
-0.796064
0.133668
-0.460254
-0.295423
-0.587351
0.075936
0.393141
0.604341
-0.257199
0.455811
-0.580312
0.015692
-0.307802
-0.132224
-0.446483
0.589831
0.326685
0.084057
-0.432810
0.272527
-0.528744
-1.135614
0.726694
-0.243209
0.314535
0.676016
-0.565385
0.001086
0.703420
0.015452
0.353922
0.230208
0.221318
-0.435935
0.304197
-0.402115
-0.035834
-0.238302
0.848581
-0.697992
-0.101762
0.093186
0.255449
0.026080
-0.054741
-0.237303
0.453055
0.230776
0.544829
-0.694862
0.025313
-0.394432
-0.137614
-0.188273
0.223872
0.043686
-0.680292
-0.300159
0.243418
0.205603
-0.212513
-0.781820
0.195712
-0.715010
-0.335388
0.304519
-0.408381
-0.151361
0.537333
-0.047720
0.020556
0.023091
-0.529075
-0.474379
1.050195
-0.099040
-0.345385
0.014397
0.661288
0.206895
-0.331940
-0.067813
-0.165588
0.030440
0.642709
0.654603
-0.322195
-0.058006
0.025906
0.234119
0.466848
0.726969
-0.611267
-0.285040
0.097436
-0.274603
0.228523
-0.513059
-0.265602
-0.264180
-0.241780
0.082916
0.304848
0.177363
-0.264493
1.387870
0.102734
-0.029961
-0.575545
-0.093913
0.304486
-0.068559
0.360057
0.170462
0.439715
0.509942
0.193957
-0.617785
-0.011092
-1.149366
-0.181081
0.424112
0.616572
-0.795604
-0.340405
-0.429167
0.879242
-0.600866
-0.537877
-0.180418
0.257978
-0.374689
-0.129250
-0.117577
-0.066465
-0.265751
-0.267235
-0.050135
-0.045605
0.016984
-0.203969
-0.568749
0.287217
0.789437
-0.135495
-0.607895
-0.225017
0.206525
-0.137428
-0.103045
0.022628
-0.137422
-0.104874
1.589003
-0.189381
0.431846
0.274906
0.163370
0.291637
-0.388381
0.316868
-0.081341
0.827526
0.212293
-0.579958
-0.129590
0.586089
-0.346180
-0.004876
-0.805584
-0.152305
-0.391982
0.742169
0.283384
-0.151345
-0.308361
0.322637
0.051120
-0.429609
0.477009
0.396256
-0.681708
-0.303300
-0.051442
-0.080880
-0.221428
-0.307115
-0.262605
0.041323
0.283525
-0.290447
-0.118083
0.307003
0.072943
0.271826
0.217465
0.191576
0.346579
-0.412143
-0.108408
0.196056
-0.510069
-0.939252
0.443274
0.087852
-0.081377
0.274606
0.101155
-0.206670
-0.145761
0.167955
-0.397980
-0.319550
-0.271927
-0.063373
-0.163575
-0.526494
0.069427
0.146195
0.111864
0.649252
0.154469
-0.235400
0.052568
0.414831
0.060842
-0.278412
0.019351
-0.246557
-0.578825
-0.187267
0.386744
0.342022
0.232005
0.004470
-0.172210
-0.334315
-0.435960
0.315076
-0.220612
-0.247397
-0.243183
0.029234
0.197105
0.431459
-0.014470
0.973833
0.388333
-0.482043
-0.542214
-0.401304
-0.269995
0.166899
-0.512652
0.223941
-0.040179
-0.368809
-0.373973
0.867102
0.654858
-0.425282
0.605233
-0.352425
0.030136
0.255493
0.039979
-0.124649
-0.856809
0.006026
0.065797
0.471021
1.018008
0.386251
0.773928
-0.815619
0.066132
0.275867
-0.432867
-0.522966
0.123311
0.014354
0.150710
-0.414853
0.098203
0.602000
-0.465609
0.585765
-0.031752
-0.391707
-0.456819
-1.019107
-0.166467
-0.501224
0.770594
-0.022280
-0.322698
0.133836
0.304761
0.099846
0.109262
-0.198589
-0.030554
-0.077534
-0.949527
-0.638361
0.889045
0.071761
-0.013961
0.385225
-0.421619
-0.050749
-0.492283
0.263483
-0.448654
0.542489
0.171391
-0.233431
-0.083950
0.707999
0.235499
0.014359
0.795129
0.615496
-0.396463
-0.324286
0.294169
-0.245506
0.037792
-0.868757
0.185927
1.288077
0.324962
-0.196186
0.090520
-0.021073
0.110319
-0.212510
0.571026
-0.594961
0.090473
0.202264
-0.462778
-0.095753
-0.291953
-0.384803
-0.144454
0.065456
0.360464
0.923245
0.621359
0.223661
-0.224852
0.014093
-0.143430
0.114910
-0.460318
0.201933
0.710583
0.286172
-0.128302
0.202979
-0.125065
0.476688
0.496976
-0.025636
-0.104053
0.192370
0.137714
0.042651
0.091916
-0.221354
0.100558
0.354114
-0.181862
0.685447
-0.148793
0.189783
-0.186585
-0.571879
0.475450
0.910864
0.877613
-0.731220
-0.379007
-0.311430
-0.048286
0.341905
0.248006
-0.268135
-0.109440
0.203648
0.180532
0.375773
-0.006231
-0.138060
0.642282
-0.596553
-0.112476
0.595313
-0.203345
0.061773
-0.280565
0.276065
-0.469559
-0.111764
-1.666457
-0.043560
0.322454
-0.170509
-0.021367
-0.435055
0.475526
0.003479
0.065954
-0.232978
-0.670309
0.145671
0.012671
-0.078331
1.180522
0.017451
-0.693937
-0.193952
0.325381
-0.050275
-0.410844
0.252634
-0.135399
0.063393
-0.561721
0.371543
0.167833
1.074644
-0.581804
0.535041
0.910602
-0.965259
-0.637939
0.099949
0.037198
-0.201261
0.444451
0.421757
-0.470533
0.881350
1.397668
-0.656544
-0.251183
1.284017
-0.595762
0.515174
-0.341362
1.425963
-1.152382
-0.950127
-3.058894
1.567583
-0.491133
-0.561258
-0.235986
0.734817
-0.905661
-0.545212
-0.540670
-1.893860
-0.147298
0.768363
0.612162
0.265874
2.381300
-0.662906
-2.384576
-0.326255
-0.285106
-0.125144
0.876522
0.339348
-0.094712
0.586435
0.191091
-0.157747
-0.362748
2.481651
-0.178287
0.341495
2.456338
-0.913413
-1.756007
1.496953
-1.758294
1.001103
-0.586189
0.459593
