0.162216
-0.509537
-0.095730
0.001531
1.036318
0.290625
0.286644
0.504866
0.443364
0.449358
0.088327
-0.436649
0.076155
-0.292484
0.563626
-0.412088
-0.018368
0.294328
0.242792
-0.374134
-0.192586
0.744190
0.213659
0.681142
0.150197
0.249062
-0.030679
0.092662
0.151006
-0.097332
-0.739746
-0.616290
-0.781364
0.259251
0.474043
-0.840932
0.191132
-0.334373
-0.197800
-0.235151
-0.752058
-0.323281
-0.283388
-0.134574
-0.098481
-0.127813
-0.297315
-0.050038
0.551318
-0.556746
0.508146
0.344552
0.316652
0.200342
-0.327376
-0.373315
-0.251957
0.374240
0.315084
-0.372675
0.270937
0.622921
-0.349313
-0.598246
0.049560
0.788916
0.303261
0.644435
-0.644137
-0.283980
0.055487
0.018933
-0.665281
0.723502
0.109219
-0.349150
0.081243
-1.014237
-0.500216
0.147259
0.499368
0.121953
-0.260444
-0.411553
-0.785753
-0.041045
-0.188107
0.127208
0.223147
-0.333296
-0.104391
0.009573
0.298083
-0.935167
-0.751580
0.701952
-0.555977
-0.581930
0.664119
0.376581
0.144397
0.066410
-0.498285
0.397233
0.258631
-0.303480
0.774841
-0.022408
-0.177190
-0.146979
-0.243897
0.340858
0.113716
0.231590
0.006137
0.318635
0.010977
0.163021
-0.147831
-0.006733
0.235922
-0.528171
0.030538
0.331036
0.146557
0.317012
-0.144095
-0.213119
0.778836
-0.608850
-0.123568
-0.033598
-0.987771
0.018362
-0.184510
0.055128
-0.740445
0.356950
-0.085012
-0.032338
-0.930858
0.257050
0.442185
0.595728
0.010821
0.026022
0.211072
-0.102934
-0.248071
0.079056
-0.218613
-0.186581
-0.139032
0.762768
0.473316
0.257405
0.529940
-0.007826
0.149687
-0.856751
0.093174
-0.676412
-0.556364
0.687019
0.097413
0.533915
0.347054
-0.677364
-0.889340
-0.773198
0.364952
-0.112380
-0.362052
-0.293881
0.421710
0.050962
-0.221074
-0.388284
0.087732
0.210371
0.163679
0.290226
0.284865
-0.245158
0.170194
0.101009
-0.147431
0.431152
-0.182615
0.105112
0.260153
-0.206232
-0.382674
-0.047614
0.394029
-0.492438
0.667680
0.052847
0.018396
-0.672602
-0.220657
0.120444
0.328211
-0.289443
-0.384982
0.449049
-0.563032
0.273683
0.448004
-0.052852
0.363487
-0.040945
0.123865
0.321760
-0.233838
0.297740
-0.263514
0.079389
0.270040
0.560412
0.549501
0.019632
-0.363990
0.650260
-0.437905
0.288660
0.505292
-0.107627
0.374666
0.019716
0.082253
-0.103575
0.282508
-0.221863
-0.298148
0.111480
-0.521288
0.583787
0.171579
0.496727
-0.132187
0.095682
-0.234070
-0.143440
0.194145
0.356840
-0.059521
0.681222
0.783186
0.101665
-0.610703
0.016812
-0.060456
-0.064781
0.120544
0.220246
-0.032526
0.046854
-0.412268
0.567946
-0.008025
-0.231704
0.401356
0.047665
0.063386
0.152286
0.294858
-0.409164
-0.419221
0.636616
0.286803
0.094689
-0.598898
0.430796
0.312000
0.162123
0.019480
0.322012
-0.416558
-0.935687
-0.696851
0.032648
-0.058704
-0.166593
-0.172947
1.006584
-0.731461
0.681106
-0.300730
-0.276672
-0.072712
-0.367840
0.439922
0.915286
0.209027
0.248244
0.124790
0.684399
0.570729
0.264289
-0.494589
0.004465
0.244441
0.776175
0.270707
-0.041120
0.111911
-0.249580
-0.124334
0.151396
-0.380734
-0.225956
0.158709
0.402959
-0.095402
-0.466759
0.479313
0.559135
0.403326
-0.898627
-0.144805
-0.278623
-0.259156
-0.464372
-0.016005
0.083643
0.078754
-0.263496
-0.069265
0.702906
-0.066083
0.489414
-0.811018
-0.552381
0.102559
0.035978
0.121879
0.024570
-0.427668
0.334707
0.215066
-0.217704
-0.253781
-0.040755
0.430302
-0.001792
-0.059636
0.109319
-0.234845
0.078467
-0.007872
-0.588330
-0.395963
0.367458
-0.461326
0.130820
-0.236413
-0.166500
-0.654532
-0.194958
-0.030471
-0.036019
0.258671
-0.031014
-0.282698
0.247813
-0.246605
0.659161
0.066037
0.264780
0.670497
-0.430096
0.313837
0.208453
-0.574545
-0.679015
-0.486889
-0.020706
-0.445147
-0.096171
-0.524008
-0.101371
-0.338510
-0.408179
0.013448
0.627591
0.198017
0.092387
0.083709
-0.169858
-0.013648
0.487444
0.002705
0.665781
0.452274
0.333553
-0.257721
-0.091692
-0.550158
0.127362
0.057255
0.079806
-0.016198
-0.185785
-0.489496
-0.486594
-0.288351
-0.517431
-0.912295
0.017327
-0.174103
-0.441347
-0.593487
-0.172898
0.595890
0.543160
0.008493
-0.343262
-0.363080
0.509060
-0.622164
0.770389
0.002545
0.439129
0.194433
0.120216
0.543257
0.125170
-0.026170
-0.730159
0.018390
-0.114427
0.304115
-0.784760
1.110719
0.058673
0.363809
-0.582810
0.163909
0.097920
-0.168607
-1.070216
-0.463857
0.740499
0.067695
-0.401900
-0.508191
-0.470457
0.181052
-0.033924
-0.199099
-0.318451
-0.083063
-0.053222
-0.268014
-0.280162
0.539274
-0.296162
-0.197196
0.167624
0.411710
0.648891
0.367044
-0.442476
-0.214572
0.183885
0.302216
0.172508
-0.551797
0.010521
0.140634
-0.081648
-0.381164
-0.212645
0.190233
-0.491567
-0.763522
0.110339
-0.121829
0.433737
0.502815
-0.504359
-0.969791
-0.385321
-0.593934
-0.438302
0.636026
-0.080412
0.040159
-0.077896
-0.550839
-0.136083
0.375450
0.433242
-0.201544
0.179557
0.186176
-0.281428
0.478455
-0.324107
0.197874
-0.309325
0.073291
-0.717060
-0.460024
0.311393
0.044029
-0.204627
0.806006
-0.745877
-0.235287
0.449353
-0.053763
-0.133798
0.327126
0.072076
0.605058
-0.732881
-0.445875
-0.389237
-0.554719
-0.143783
0.699667
0.327494
-0.178133
-0.578059
0.128183
-0.575168
0.001312
-0.416248
-0.251676
0.061076
-0.000260
0.167306
0.177282
-0.191085
0.121419
0.726182
0.020224
0.472273
-0.338064
0.688606
-0.115215
0.396997
-0.903770
-0.638455
0.281854
-0.400091
-0.391860
0.548499
0.431850
0.241317
0.227344
-0.293874
-0.119985
-0.345406
-0.437357
-0.422610
-0.095757
0.258960
-0.207051
0.063613
-0.178137
-0.212309
0.189968
0.297951
-0.281633
0.649453
-0.058892
-0.463479
-0.163158
-0.017671
0.192531
0.450046
-0.162198
0.512420
-0.130951
0.080258
-0.528142
-0.120627
0.312113
0.583417
0.196362
-0.344593
-0.081879
-0.476766
0.553664
-0.554509
0.423015
-0.439170
0.035274
-0.308433
0.255729
0.141588
0.097524
-0.466912
-0.236484
0.516113
-0.487355
-0.830707
0.326468
0.252831
0.219505
-0.182726
0.405978
0.716417
0.332778
-0.040096
0.321481
-0.103313
-0.505429
0.041148
0.245605
-0.139923
0.048369
0.168976
-0.247528
-0.256529
0.348278
-0.463678
0.513582
0.086868
-0.417628
0.039297
0.380352
-0.357325
-0.644088
0.128459
-0.008490
0.211365
-0.409621
-0.608029
-0.997237
-0.067409
0.142217
-0.224646
-0.217464
-0.093116
-0.197881
-0.302090
-0.083959
-0.254029
0.183335
-0.001100
-0.299279
0.275418
0.592287
0.526107
-0.139485
0.115501
-0.198297
0.196064
-0.423300
-0.456831
0.614455
0.168978
-0.656466
-0.108523
-1.151236
-0.312271
-0.228897
-1.228816
-0.614869
-0.189650
0.383190
0.000054
0.260575
0.016935
0.207589
0.145432
-0.484295
0.317464
-0.700690
0.019057
-0.264526
-0.353241
0.465831
-0.714359
0.331732
0.134910
0.163899
0.713674
-0.319229
-0.090027
-0.408339
-0.171075
0.496543
0.216275
-0.417651
-0.587090
-0.488903
0.559094
0.037498
-0.195239
-0.297199
0.354113
-0.386868
-0.113687
0.552663
-0.339086
0.181889
-0.010994
0.032554
-0.891121
0.368772
0.071182
0.019713
0.216851
-0.425300
-0.255928
0.518065
-0.049664
0.561948
0.341025
-0.362090
0.023467
0.628231
0.054257
-0.193255
-0.190331
0.457347
-0.066507
-0.759134
-0.416444
-0.100008
0.143846
0.422617
0.174424
0.000743
0.368803
0.047476
0.407225
-0.012140
-0.154168
0.633877
0.649126
0.008781
-0.177476
0.013043
-0.131138
0.282667
0.061506
-0.658018
0.000305
-0.311166
0.409879
-0.005505
-0.687915
0.128723
0.320298
0.696439
-0.759035
0.269974
0.515751
0.616341
0.075099
-0.048358
-0.323709
-0.069775
-0.513491
0.259369
-0.070312
-0.310540
0.277721
-1.004637
-0.179994
0.187342
0.091687
-0.165995
-0.237323
-0.108047
0.465375
-0.793019
-0.349832
0.588037
0.322595
0.093044
0.350519
0.270131
1.136461
-0.563775
-0.021006
0.340521
0.662566
-0.636472
-0.302441
0.349133
0.134569
0.291905
0.012764
-0.173423
-0.614160
0.130158
0.108377
0.026575
-0.749672
-0.735917
0.619601
-0.364520
0.499460
0.393501
0.594586
-0.078375
-0.162344
-0.039131
0.004930
0.139466
0.061956
0.386026
-0.637089
0.232186
-0.451179
0.236592
0.674951
-0.009783
-0.774481
0.133798
1.120639
-0.548109
-0.012859
0.140139
-0.828326
-0.556260
-0.002244
-0.660960
0.337821
0.383459
-0.155339
0.300586
0.460347
0.051860
0.203698
0.107265
-0.269302
-0.033940
0.220321
0.189125
0.457479
-0.139020
0.253719
-0.181490
-0.127617
0.072908
-0.422394
0.074331
0.422783
0.000261
0.054930
0.401335
-0.358810
0.459732
0.708509
-0.789188
0.030111
-0.492720
0.592917
-0.030594
-0.399787
-0.723337
0.172837
0.241358
-0.029124
0.174099
0.187302
-0.059150
0.300115
0.427289
0.555788
-0.507644
0.597419
0.031286
-0.001274
-0.205317
0.210735
-0.576608
0.232090
-0.104885
-0.339350
-0.065867
0.110653
0.106509
-0.787925
0.475977
-0.058172
0.230623
0.464052
0.177039
0.552238
-0.027490
-0.226778
0.072209
0.415374
-0.213897
0.444407
0.478665
0.588220
0.206925
-1.060671
-0.749312
0.575299
0.472567
0.027596
-0.536758
-0.102512
-0.041353
0.099164
0.001171
-0.438130
-0.626037
-0.733109
-0.306758
-0.637488
0.120618
-0.192562
-0.112409
0.407439
-0.328777
0.104155
-0.679310
-0.132160
0.053185
-0.167226
0.236031
-0.118061
-0.032684
-0.336002
0.373868
0.477914
0.070507
0.996065
-0.154466
-1.215483
0.413748
0.138145
-0.392274
0.035066
0.211121
0.307887
-0.335252
0.045524
-0.441508
0.062545
-0.327752
-0.110331
-0.511188
-0.288122
0.315242
0.092466
0.467342
-0.007203
0.769544
0.419177
-0.101809
-0.164252
-0.701918
0.232016
0.136746
-0.514437
-0.029451
-0.037447
0.288331
-0.421217
-0.248273
-0.241734
-0.848789
0.214768
-0.070004
-0.169523
-0.284070
0.209710
0.027148
-0.174939
-0.168669
0.189603
-0.090242
-0.547886
-0.567783
0.469740
0.349885
-0.232389
0.049706
-0.010921
0.391935
-0.501054
0.115184
0.324580
0.462553
-0.217540
0.180561
-0.010442
0.637131
-0.378034
0.434046
0.091534
0.697044
-0.412203
-0.203574
0.599586
0.123560
-0.990786
0.503008
-0.598785
-0.003743
-0.095724
-0.123043
0.546836
0.708497
0.128796
0.636368
1.102857
-0.224750
-0.071016
-0.036146
0.056214
-0.031396
-1.040602
0.433303
0.486434
-0.136188
0.158913
0.530976
-0.135037
-0.827692
-0.517711
-0.092634
-0.514103
-0.189062
0.501903
0.134738
-0.407078
-0.215492
0.871771
-0.097485
-0.580864
-0.443825
-0.068403
-0.484954
0.086750
1.085266
0.039931
0.381359
0.721004
0.026496
-0.148620
-0.146647
0.117755
-0.550040
-0.192474
0.337373
0.476602
-0.426304
-0.109897
0.261960
0.195323
-0.157798
-0.537065
0.226512
-0.061065
0.015814
0.209444
0.101315
0.068833
-0.219021
-0.387414
0.469817
0.385448
0.349034
-0.565478
-0.294175
0.256693
0.836754
0.912270
0.100370
-0.224035
-0.267444
-0.249585
-0.402765
-0.396319
-0.709795
-0.059446
-0.398663
0.237067
0.457037
0.636567
0.975586
-0.074448
-0.124892
0.041360
0.170146
-0.160361
0.210031
0.221642
-0.158639
0.107121
0.483014
0.921672
0.728218
-0.178588
-0.632098
0.160722
-0.046411
0.275592
-0.185794
0.251326
0.544225
0.446511
-0.161725
0.143958
0.531796
-0.004962
-0.485922
-0.149279
0.181176
0.059258
0.307150
-0.779429
-0.340744
-0.253977
0.440711
0.202930
0.058723
0.194183
0.731286
-0.408010
-0.005911
-0.014006
0.630760
0.659961
-0.082819
-0.238515
0.153735
0.254239
0.308318
-0.111075
-0.603466
-0.151128
0.472326
0.247455
0.667992
0.463870
0.200363
0.267877
-0.086649
-0.031765
-0.419308
0.987606
-0.050678
-0.287312
-0.425808
-0.310325
0.197838
-0.088804
0.187717
-0.262931
-0.059780
0.106359
-0.047857
-0.305691
-0.094724
-0.814633
-0.138976
-0.061955
-0.712035
-0.365378
0.208467
-0.137247
-0.318280
-0.839263
0.542151
0.031905
-0.167612
0.276669
-0.195996
-0.275461
0.143870
-0.369846
0.015116
-0.328135
-0.213982
-0.727056
0.263750
-0.598504
0.616376
0.129060
-0.447800
-0.019997
0.221082
-0.024218
0.257163
0.437446
-0.006232
-0.197967
0.356293
0.376412
0.326019
-0.696858
0.269099
0.030235
-0.599156
0.099027
0.350015
-1.032083
-0.425522
0.159758
0.033751
-1.112867
-0.388776
-0.707923
-0.322771
-0.033151
0.981172
0.004092
0.428536
0.567291
0.080939
-0.763110
-0.331120
0.496806
0.296613
-0.739952
-0.024406
-0.057558
-0.559656
-0.427353
0.861364
0.148744
0.001919
1.759791
0.598063
-0.013012
0.592384
0.088133
-0.244373
0.123868
0.226391
0.192559
-0.229576
-0.387107
0.246770
0.831579
-0.251630
0.541586
0.259986
0.136106
0.195651
0.464625
0.786854
0.571175
-0.796638
0.337811
-0.211066
0.148084
0.473393
-0.812164
0.703904
-0.024716
-0.537423
0.604101
-0.129420
-0.304979
0.670784
0.228699
-0.086737
-0.721860
-0.241380
0.085535
0.317475
0.139744
-0.146620
1.160544
0.141339
-0.495096
0.367088
0.594556
-0.560400
0.008505
0.000915
-0.201749
0.436296
-0.290696
-0.063536
0.201474
0.378300
0.124846
0.549615
-0.263077
-0.783496
0.209970
0.623355
-0.639791
0.377608
-0.103989
0.134438
0.653138
0.189272
0.141256
0.678686
-0.933633
-0.524699
-0.597359
0.136449
0.142153
0.178291
-1.107513
-0.776201
0.321571
-0.010369
-0.364697
-0.131036
0.001394
0.015511
0.351306
0.312537
0.616594
-0.155442
0.221402
0.104603
0.319052
-0.237485
-0.314434
0.816241
-0.350964
-0.369847
-0.537265
-0.045631
-0.508217
0.694277
0.042221
-0.629730
-0.519112
-0.464010
-0.287747
-0.224107
0.528992
0.247586
0.301238
0.333371
0.754714
-0.183070
0.057973
-0.611912
0.790451
0.203993
0.419213
-0.351472
0.429893
-0.233875
-0.286978
0.056119
0.047566
-0.446374
0.082710
-0.323913
-0.445078
0.545380
-0.235051
-0.386681
0.360669
-0.435383
-0.235766
-0.298628
0.114407
0.542518
-0.420455
-0.111989
-0.089779
0.692013
0.201426
-0.172210
0.172893
-0.022168
0.094511
-0.982029
-0.351089
0.133583
-0.409630
-0.897539
-0.137442
-0.031939
0.238611
0.515035
-0.074096
-0.123042
-0.184564
0.117829
-0.012731
-0.283177
0.158065
-0.141785
-0.300462
0.618739
0.437686
-0.204066
-0.226272
-0.387688
-0.164425
0.508157
0.331697
0.084401
-0.254646
-0.120586
-0.066346
0.368937
0.069898
-0.042436
-0.296311
-0.128913
-0.281542
-0.018106
0.090417
0.693103
-1.184288
-0.321240
0.273690
0.724315
0.104145
-0.904717
0.235999
-0.190080
-0.189675
-0.242536
-0.055767
-0.832888
-0.876150
0.039269
-0.257000
-0.177926
-0.560882
0.078535
-0.339362
0.514231
-0.161419
0.367144
-0.198998
-0.481052
-0.442843
-0.423912
-0.759059
-0.208657
0.052534
-0.115598
-0.359468
-0.189199
0.392092
0.080351
0.240125
-0.321151
0.066806
-0.228466
0.046025
-0.329098
-0.023059
-0.570432
-0.365961
-0.539617
0.196734
-0.605499
-0.435984
0.135599
0.151271
0.017718
-0.698690
-0.748173
-0.286819
-0.657273
-0.582221
-0.769550
0.674254
-0.595861
-0.109402
0.387060
0.695542
-0.007020
-0.832331
-0.007719
-0.252050
-0.043703
0.002118
-0.047163
0.239856
0.427394
-0.253378
-0.094190
0.029026
-0.818104
-0.270181
-0.524623
-0.301396
-0.146958
-0.043016
0.627305
-0.502461
-0.141457
0.306901
-0.454857
-0.286719
0.262376
0.076497
-0.858804
-0.595644
-0.297254
0.308070
0.332458
-0.187541
0.791477
-0.515206
0.304307
-0.102070
-0.218475
0.327982
-0.123455
0.060815
0.253846
-0.199972
-0.202471
0.217801
0.420918
-0.014711
0.381007
0.019322
-0.222541
0.376296
-0.092306
0.713979
-0.406456
0.161219
0.068898
0.640195
-0.472262
0.186826
-0.641780
0.102379
0.671569
0.298703
-0.684574
0.385933
-0.532127
0.321347
-0.661095
0.465366
-0.154162
-0.044173
-0.206901
-0.267203
0.164382
-0.608109
-0.323697
0.394904
-0.476884
-0.305184
-0.041789
-0.126954
0.450991
0.379426
-0.315585
0.680517
-0.511126
0.196003
-0.087844
-0.555374
0.344720
0.439744
0.251150
0.540983
0.446809
-0.100720
-0.642987
0.104509
-0.358262
-0.291324
-0.813108
-0.191124
0.302629
-0.353934
0.054042
-0.188874
-0.432229
-0.248910
0.254608
0.650821
-0.249973
0.144706
0.008369
-0.465696
0.194058
0.205574
-0.243835
0.460873
-0.015322
-1.079138
0.094832
0.143907
-0.178637
-0.445702
0.095026
0.446218
-0.311125
0.399615
0.499202
-0.527662
-0.047871
0.565080
0.226984
0.231389
-0.032599
0.172068
-0.232381
0.322270
-0.156278
0.013986
-0.023112
0.040495
-0.282047
-0.393855
-0.452668
-0.286449
-0.086863
0.545740
-0.455165
0.260988
-0.158204
-0.117949
-0.957226
0.396408
0.494672
-0.049714
0.466430
-0.171132
0.592519
0.642380
0.469954
-0.118637
-0.184234
0.210665
-0.149912
-0.633489
-0.467018
-0.387598
-0.718614
0.497767
0.477126
-0.502116
-0.032762
0.572980
-0.051865
-0.286869
-0.405666
0.285640
-0.235183
-0.009058
-0.355567
-0.153042
0.756211
0.319770
-0.427642
-0.070710
0.232527
-0.085551
-0.130242
-0.114261
0.086789
-0.935996
0.447619
0.036553
1.011314
-0.543256
-0.196157
-0.408141
0.310147
0.477679
-0.455054
-0.652498
-0.240063
0.128086
0.359402
0.530844
-0.338017
-0.125852
0.303578
0.199679
-0.459094
0.134445
0.147876
-0.378598
-1.336133
-0.013820
-0.203476
0.142959
0.356731
0.092410
0.494775
-0.077527
0.215945
0.042050
-0.160569
-0.339575
-0.153457
-0.607924
0.529444
-0.519582
0.480644
-0.321677
-0.104492
0.173273
0.552994
0.124590
0.185734
-0.268056
-0.359014
-0.096613
0.232291
-0.727020
0.336637
0.543568
0.380918
0.417939
-0.139747
-0.220557
0.211669
-0.171210
0.144700
-0.800844
0.173461
0.130334
-0.153739
0.388087
0.267988
-0.752825
-0.225655
-0.294434
-0.253005
0.187501
0.670342
-0.586902
0.521315
-0.352193
-0.014520
0.046520
-0.090141
0.057405
-0.707461
0.663486
0.202845
-0.036482
-0.132680
0.300127
-0.826339
-1.008793
-0.087395
0.154086
0.810668
-0.473039
-0.204960
0.447038
-0.088471
-0.008772
0.120997
-0.383297
0.472959
0.081276
0.423734
0.088212
-0.656234
-0.622494
-0.080893
0.192829
0.064945
0.536996
-0.421891
-0.161885
0.323351
0.152813
-0.047366
-0.254835
0.451435
-0.043373
-0.144479
-0.496473
-0.101138
-0.422216
-0.131233
-0.559563
-0.011081
-0.259419
0.281204
-0.529410
0.662983
0.143973
-0.018406
-0.649655
0.462960
0.053107
-0.116191
-0.270805
-0.163007
0.233012
0.552363
-0.004389
0.468637
-0.541609
-0.694315
-0.237344
-0.283830
0.224533
-0.280350
0.485461
-0.355416
0.457422
0.628559
-0.221846
-0.388307
0.562836
0.342640
0.111675
-0.986819
0.451768
-0.308990
-0.700982
0.497985
0.582365
-0.274908
0.162773
-0.729781
0.445591
0.078432
-1.098684
0.372403
0.207096
0.363440
0.066844
0.130050
-0.265552
0.225433
-0.323600
-0.615380
0.136584
0.247261
0.251049
-0.355137
-0.322393
-0.096870
-0.126815
0.371841
-0.503190
0.422297
0.224048
-0.369098
-0.279076
-0.417280
-0.543516
-0.108030
0.299781
-0.062053
0.190040
-0.949705
0.176250
0.195642
-0.193843
-0.557022
-0.879948
0.450465
-0.026697
-0.133107
0.371428
-0.278835
0.043408
0.606768
-0.530925
0.149573
0.161432
-0.570255
0.703738
-0.057477
-0.576305
-0.111000
-0.245358
-0.082005
0.226949
0.037312
0.642104
-0.370490
-0.718179
0.120880
-0.301127
0.019730
-0.676993
-0.069969
-0.034859
0.124615
0.125454
0.471350
0.082111
0.284142
0.209185
0.207216
0.269183
0.645583
-0.107651
0.677598
-0.164118
0.810274
-0.024060
-0.129120
-0.007391
0.400243
-0.162011
0.092215
-0.096063
0.015226
0.034011
-0.970948
0.082555
-0.098245
-0.275746
0.340376
0.753255
0.427983
-0.433968
0.027213
-0.219101
-0.267428
0.390014
-0.384392
-0.761242
0.123037
0.760887
-0.183629
0.500008
-0.362223
-0.789758
-0.499531
-0.554736
-0.170410
0.171826
0.235990
0.180949
-0.065351
-0.225215
-0.420843
-0.311852
0.151968
0.474993
-0.062599
0.217523
-0.111361
0.623909
-0.551349
0.379851
0.853783
-0.208812
-0.250963
-0.847970
-0.452538
-0.532002
0.105647
-0.263722
0.208124
0.048004
-0.046784
-0.742480
0.007311
-0.216135
0.010102
0.404159
-0.604802
-0.002060
-0.070557
-0.152376
-0.170245
-0.737560
0.713631
-0.075923
-0.192897
-0.962105
-0.432833
0.218240
0.766366
1.237209
-0.339251
0.538187
0.106282
0.260098
0.113050
0.154454
-0.418838
-0.232201
0.098027
-0.458862
0.339545
0.463376
-0.184533
0.008548
-0.795872
-0.522173
0.363205
0.196599
0.483904
-0.389130
0.035362
0.358417
0.315702
0.514071
-0.347673
-0.041244
0.414473
0.663544
0.112024
-0.105351
0.446760
-0.230797
0.823063
0.749026
0.296789
0.293106
-0.273595
-0.256889
-0.008217
0.660055
-0.079236
-0.148833
0.189736
0.326131
-0.436121
0.030261
0.427403
-0.230433
-0.263006
-0.169444
-0.156448
0.262104
-0.586653
-0.371154
0.062959
-0.010343
0.074548
0.319297
0.142286
-0.131527
0.220070
0.521784
-0.069986
-0.274786
0.266282
0.387916
-0.099705
0.170760
0.318790
0.443864
-0.450473
0.539609
0.153087
-0.666304
-0.557380
0.331252
-0.389072
0.543913
-0.059017
0.590865
0.011574
-0.422379
-0.227369
0.361088
-0.744293
-0.686307
0.864799
0.175667
-0.396112
0.645617
0.059452
0.233026
-0.058909
0.126175
0.356443
0.087190
0.263479
-0.497553
0.374432
-0.195854
0.291580
0.173061
-0.443966
0.235670
0.098836
-0.534012
0.192707
-0.105959
0.328697
0.129066
0.315755
0.400286
-0.011373
0.054187
-0.472638
-0.051280
-0.259772
-0.291710
-0.097300
-0.114648
0.118061
0.100491
-0.640853
0.205183
0.334325
0.189652
0.076142
1.035242
-0.464410
0.649282
0.544578
0.219690
0.224203
-0.134875
-0.155907
-0.525560
-0.072932
-0.444633
0.010195
-0.044459
-0.203505
0.023649
-0.256556
-0.174713
-0.074124
-0.380258
0.161810
-0.321804
-0.577716
-0.289616
-0.153007
-0.471508
-0.577892
-0.163359
-0.488578
0.645612
-0.445433
0.659772
-0.125486
-0.131805
0.333342
-0.646038
-0.444335
-0.420885
0.293555
-0.524193
-0.365327
0.563366
0.257712
-0.175249
0.061001
0.772135
-0.102893
-0.312718
-0.731850
-0.236989
0.364991
0.233349
0.210019
0.274130
-0.624135
-0.192979
0.287026
-0.172529
0.305172
-0.495818
0.606659
-0.266434
-0.353973
-0.140352
0.463192
-0.294553
-0.162992
-0.320616
0.233509
0.084768
-0.714910
-0.356476
-0.939475
0.602261
-0.118310
0.473909
-0.101006
-0.820528
0.324355
0.230460
-0.721205
0.042492
-1.050384
-0.753566
0.706756
-0.592942
0.365152
0.458575
-0.055083
-0.608489
-0.416238
0.237366
-0.569763
-0.133975
-0.628795
0.112406
-0.081631
0.267956
-0.290466
-0.631620
-0.651435
0.082775
0.463956
-0.628236
-0.201774
0.395409
0.179831
-0.388012
-0.132745
0.042027
-0.380236
0.137191
0.112313
0.561180
0.064018
0.544556
0.418449
-0.337620
-0.284937
0.553261
0.253555
-0.907872
0.318403
0.194869
0.489263
-0.237287
0.465594
0.598315
-0.436987
-0.198228
0.232820
0.195142
-0.160577
0.401548
-0.668192
-0.010210
0.291009
0.670932
0.588690
-0.773606
-0.722267
-0.592456
-0.081899
-0.001621
0.628292
0.238345
-0.555636
-0.327531
-0.239114
0.240609
-0.005251
-0.034096
-0.319265
-0.021935
0.370009
-0.462258
-0.583506
-0.326457
-0.214276
-0.142092
0.581502
0.513069
0.218673
0.486713
0.463863
-0.243291
0.486844
-0.425629
-0.253873
0.447547
0.064123
-0.132645
-0.096021
-0.287814
0.150358
0.788667
0.366468
-0.345795
0.080741
-0.240161
0.228672
-0.121218
-0.390388
-0.362482
-0.054372
-0.589986
-0.044043
0.026219
-0.252194
0.469365
0.425065
-0.368476
-0.063462
0.121414
-0.390788
-0.093984
0.157161
-0.031697
0.415867
-0.229993
-0.370239
-0.312426
0.147895
-0.803077
0.743918
-0.267691
0.068207
0.157649
-0.009403
0.010102
-0.153325
0.259411
-0.492360
0.262859
0.142179
-0.396825
0.065313
0.241272
0.206943
0.082323
-0.409950
0.295905
0.464959
0.800595
0.324461
0.337688
0.185077
-0.563367
-0.416597
0.263635
-0.328337
-0.319541
-0.511091
0.246985
0.653331
0.715734
-0.139153
0.433856
0.271532
0.171213
0.654137
0.142024
-0.312072
-0.464501
0.602262
0.217865
0.566580
0.074365
0.026443
0.384952
1.051259
0.571395
0.038101
0.286441
-0.255258
0.079796
-0.066139
-0.496431
0.117720
0.310216
0.324474
-0.169324
-0.208311
-0.040112
-0.288227
0.028280
-0.199553
0.515662
-0.367151
0.325526
0.212403
0.402697
-0.279868
0.106507
-0.797156
0.492569
-0.589471
-0.742866
-0.075829
0.383018
0.008287
-0.216367
-0.489794
-0.133481
-0.258578
0.351309
0.161395
-0.393991
-0.361935
0.355747
0.629487
-0.041106
0.802806
-0.185146
0.100660
0.325220
0.454336
-0.179880
0.185543
-1.019659
0.052911
-0.605774
0.597814
0.695305
0.446805
-0.060133
0.196235
-0.379342
0.725746
0.678904
0.754756
0.281659
0.558732
0.082219
0.009105
1.140347
-0.755592
-0.240301
-0.045183
0.312042
0.182653
0.529976
0.672830
-0.001404
-0.215353
-0.403086
0.331711
0.360545
-0.063719
-0.036679
-0.261885
-0.587715
-0.033768
0.713335
-0.465431
0.219239
0.861571
0.170440
-0.460331
0.172692
-0.366820
0.013845
-0.080629
-0.101697
0.212078
0.179520
0.406581
0.158399
-0.525054
-0.273452
-0.287146
-0.130645
-0.396066
-0.396918
0.003531
0.438559
-0.357639
-0.763410
0.189185
0.103844
-0.008015
0.317042
-0.064049
0.556714
-0.372659
-0.533352
0.036609
0.102905
0.112724
0.272482
-0.797477
-0.385946
0.421312
-0.260233
0.548867
0.010173
0.460989
-0.341866
0.895325
-0.210049
0.209826
0.282024
0.013778
-0.157973
0.146946
-0.237236
-0.339775
-0.041926
0.154310
0.095844
0.203063
-0.144029
-0.901108
0.364902
-0.139297
0.248867
0.569260
-0.673911
0.231349
-0.256704
-0.094731
0.659957
0.116176
-0.116905
0.854334
-0.035691
0.136867
0.219050
-0.305353
-0.215839
0.351045
0.222680
0.088044
0.092303
0.283414
-0.127598
-0.064494
-0.093565
-0.081534
-0.610585
0.588860
0.134941
-0.585301
-0.197547
-0.421222
0.868258
0.312947
0.523868
-0.200219
-0.377498
-0.537143
-0.510004
0.149451
-0.510650
0.042266
0.305409
-0.623275
0.020695
0.389890
0.779483
0.021617
-0.199646
0.846980
-0.468278
0.071702
-0.505495
0.205562
0.572671
-0.020682
0.105664
-0.190093
0.345313
-0.250258
0.660516
-0.555795
-0.282534
-0.222345
0.368176
-0.095282
0.078519
-0.271519
-0.909180
-0.156583
0.267596
-0.071082
-0.147763
0.029914
0.157431
0.011126
0.266680
0.645013
0.620063
0.292745
-0.603030
-0.107210
0.249384
-0.653338
0.045288
-0.329527
-0.083836
0.048948
0.223345
-0.570425
-0.080935
-0.382250
-0.794892
1.101104
0.124791
-0.325493
0.637096
0.253187
-0.026220
-0.233138
-0.727513
-0.320707
-0.442162
0.117506
-0.318572
-0.376095
0.729946
0.300264
-0.052491
0.122597
-0.047493
-0.085159
-0.268997
-0.553488
-0.442085
0.282924
0.512581
-0.004127
0.532760
0.163160
-0.404030
0.369625
-0.417606
-0.551277
-0.114169
0.215728
-0.252543
-0.415774
0.334746
-0.140542
0.105138
0.045114
-0.299183
-0.639309
0.498979
0.338360
-0.252564
0.220474
-0.309642
-0.262208
-0.649601
-0.340905
-0.017763
-0.509123
0.467021
0.331878
0.407238
-0.092443
0.873079
-0.037511
0.260244
-0.507073
-0.590044
-0.140667
1.015321
0.256903
-0.178478
-0.415348
-0.717843
0.090875
0.337011
-0.781854
0.143435
-0.479200
-0.479936
-0.540595
-0.193071
0.423275
-0.154331
-0.358082
0.236009
-0.363255
0.853924
-0.075595
0.366866
0.092310
-0.202970
0.283778
-0.144475
0.108796
-0.297190
-0.385746
-0.092723
-0.391817
0.051846
-0.299173
0.488434
0.079909
-0.239491
0.012327
0.352470
0.379894
-0.049049
-0.230702
-0.260232
-0.430345
0.350636
-0.139911
-0.142235
0.093018
0.575172
-0.464866
0.817979
0.314091
-0.427313
0.404770
0.281611
0.119291
-0.152317
0.668960
0.300313
-0.744915
-0.351896
-0.398479
0.502824
-0.639010
-0.732114
0.072069
0.158159
-0.764488
0.132410
-0.450007
0.403935
0.584462
0.160433
0.071641
-0.693804
0.395942
0.039734
-0.907433
-0.132703
-0.158576
0.241084
-0.075140
0.356530
-0.562620
0.059732
-1.152469
-0.181026
0.019589
-0.424413
0.573315
-0.529977
-0.394078
0.710597
0.503863
-0.365742
-0.212350
-0.116113
0.393828
-0.072462
0.161662
0.414037
-0.095615
0.364556
0.040344
0.047329
0.352744
-0.700852
-0.284447
-0.249384
-0.276743
-0.004380
0.609154
0.152480
0.287892
0.392619
-0.697789
0.513581
1.107253
-0.079541
-0.100272
0.257210
0.893793
-0.279485
-0.268809
-0.430912
0.350040
0.151288
-0.380360
0.131466
1.502500
-0.434525
0.330577
-0.848049
0.661389
0.379270
0.159925
-0.520510
0.069680
-0.038058
-0.506467
0.319514
0.160434
0.111947
-0.095885
0.392332
-0.054506
0.310291
0.500564
0.315091
-0.255736
0.161780
0.849163
-0.206820
-0.788476
-0.536043
-0.796065
0.055739
0.467328
0.110589
0.391836
-0.095822
-0.255375
0.287102
0.141922
-0.562134
-0.423791
-0.212973
-0.358606
0.026135
-0.597134
-0.288267
-0.117381
-0.006992
-0.642443
0.456415
-0.376170
-0.957235
0.594472
-0.363427
0.256856
0.102878
0.692169
0.377693
-0.376548
-0.427737
0.095835
0.883532
-0.528705
0.090677
-0.036551
0.642148
0.361166
0.085863
0.005277
-0.078490
0.177874
0.166663
-0.935232
-0.436801
0.417746
0.345920
-0.680231
-0.195229
-0.152409
-0.854209
-0.058974
-0.236329
-0.075314
-0.304297
-0.156027
-0.084595
-0.169221
-0.266508
-0.308708
0.745317
-0.101896
0.492934
-0.184678
-0.831400
-0.737501
0.248613
-0.179907
-0.400739
0.650564
-0.409610
-0.056160
0.543298
-0.123162
-0.096093
-0.286768
0.019239
0.029392
0.195105
-0.177620
-0.044742
-0.249426
0.540178
-0.056142
0.073620
0.099642
-0.373060
0.281717
-0.048963
0.190273
-0.437269
-0.301495
0.500476
-0.391656
-0.616132
0.157306
0.049168
-0.179370
0.179515
0.432502
0.347038
0.111311
0.157799
-0.343952
-0.119667
0.551968
-0.074155
0.284526
0.192330
0.533065
-0.030132
-0.416207
0.133130
-0.391895
0.884522
-0.286187
0.527883
0.151298
0.095251
0.073143
0.160118
0.127644
-0.807593
0.073912
-0.757935
0.030225
0.127293
0.655522
-0.292797
-0.185107
-0.145199
0.130458
-0.075083
-0.534563
-0.655371
0.096612
0.145781
-0.311088
-0.025049
-0.109786
-0.353853
0.372364
-0.034149
0.546066
-0.430069
0.410074
0.005594
0.689219
0.345879
0.589663
-0.453638
-0.616949
0.375187
-0.584140
0.557848
0.356042
0.305369
0.221292
-0.162164
0.187742
0.207176
-0.440047
0.558778
0.003938
-0.312666
-0.135567
0.113239
-0.268488
0.294183
0.119643
0.309074
0.049411
-0.148000
-0.174072
0.057489
-0.916338
0.073403
0.132229
-0.225179
-0.069916
-0.452371
-0.138019
-0.272968
0.133781
0.097261
0.532757
0.217883
-0.317012
0.465405
-0.018512
-0.132325
-0.099782
-0.336071
0.028379
0.052093
0.434762
-0.040213
-0.000033
0.369193
-0.179317
-0.335883
-0.406596
0.709511
-0.208931
0.056310
-0.010827
-0.284480
0.484046
-0.007828
-0.087863
-0.149861
0.010749
-0.533176
-0.285275
0.478375
0.180183
-0.284223
-0.320487
0.629545
-0.593634
-0.261947
0.033703
0.372009
0.181798
-0.659490
0.112773
0.058411
0.381536
-0.305299
0.354146
0.254478
0.205211
0.101832
0.250291
0.246953
-0.591771
-0.335527
0.503598
-0.095645
0.052580
0.374106
0.022901
-0.350978
-0.204245
0.011133
0.241677
0.196040
-0.093384
-0.461302
-0.034518
-0.532708
0.488722
0.083089
0.678117
0.344316
-0.261055
-0.285119
-0.038684
0.109400
0.273597
-0.145692
0.533078
0.397547
0.289782
0.393639
-0.361395
-0.233006
0.609996
-0.089360
-0.259028
-0.052242
-0.613576
0.009258
-0.110411
-0.814752
0.233720
-0.383572
0.144777
-0.166068
-0.007252
0.380358
-0.202953
-0.220318
-0.448502
0.273158
-0.011157
-0.108981
0.475816
0.012891
-0.197628
0.426631
-0.210897
0.424400
0.230418
0.241841
0.434956
-0.102992
-0.363348
0.021888
0.696644
-0.254382
-0.117798
-0.399941
0.291229
-0.056895
0.054954
0.443394
-0.041590
-0.157704
-0.248466
-0.483958
-0.195916
-0.306183
0.217985
0.005674
0.422776
-0.322903
-0.319019
-0.387839
-0.419646
-0.472537
-0.352710
-0.381361
0.246628
0.683259
-0.004318
0.169279
-0.341046
-0.344177
-0.208003
0.696854
0.425287
0.079860
0.753247
0.565252
0.614435
0.164776
0.430212
-0.399210
-0.132578
-0.072983
-0.715557
-0.448647
0.150696
-0.407174
-0.029108
0.107895
0.555166
-0.418740
0.393291
0.090637
-0.183125
0.003714
-0.457766
-0.140844
-0.401504
-0.260899
0.339875
-0.127189
-0.249965
0.005908
-0.165725
0.100658
0.094522
-0.467251
-0.339722
0.380446
0.107019
-0.457213
-0.733572
0.136389
-0.173114
0.281910
0.185613
-0.203253
0.471083
-0.374350
0.958539
0.108606
0.203764
0.199883
-0.001664
0.712561
0.183961
-0.552564
-0.927254
-0.148324
-0.575098
-0.055815
-0.266785
-0.608742
0.053892
0.725861
0.324291
-0.481065
-0.716091
-0.137458
0.391708
-0.081325
-0.694003
0.416949
0.169787
0.043903
-0.347372
0.427707
-0.276050
-0.418178
-0.098838
-0.540180
0.363994
0.303214
0.095638
0.152367
-0.487755
0.013422
-0.291684
-0.697307
0.163761
0.547326
0.513184
0.013341
-0.092749
0.575425
0.322274
-0.198970
-0.556988
-0.219725
-0.096834
-0.064573
-0.137825
-0.037383
0.915386
-0.115151
0.366171
-0.078182
-0.214001
0.399337
0.550464
0.005516
0.293638
0.470044
0.551704
-0.251451
-0.223820
-0.372636
0.021178
0.175672
0.600504
-0.546533
-0.229223
0.980607
-0.285852
0.062970
0.258302
-0.013902
0.540906
0.090875
0.028962
0.440835
0.031829
-0.518947
-0.825688
-0.641984
0.236882
0.289846
0.204925
0.351256
-0.087330
-0.574757
-0.213481
0.272798
-0.174117
0.794474
0.443603
0.062975
0.971918
-0.126201
-0.317895
0.468642
-0.118325
-0.122099
0.234005
-0.220017
-0.378873
0.467440
-0.655186
0.006169
0.893110
0.902774
-0.331252
-0.005427
-0.137631
-0.319720
-0.234639
0.231032
-0.039749
-0.051919
-0.373162
-0.161265
0.217502
-0.700434
0.200822
0.187379
0.091805
-0.230134
-0.228426
0.015534
-0.184181
-0.246780
-0.688808
0.002172
-0.122686
-0.489530
-0.060833
0.027001
0.212412
-0.014258
-0.034039
0.932870
0.353919
-0.356066
0.021659
0.409020
-0.850617
0.253450
-0.236700
-0.623297
-0.844569
-1.205912
-0.278811
-0.962189
0.627299
-0.613080
0.298254
-0.389300
0.380671
-0.665642
0.330566
-0.685957
0.233211
0.024007
-0.050661
0.178395
0.109197
0.200815
-0.146550
0.257582
0.162237
0.057993
-1.034322
-0.217665
0.118428
0.599606
0.018098
-0.091058
-0.207750
-0.437396
0.347727
-0.505078
0.171995
0.437606
-0.233887
-0.459733
0.060355
-0.396563
0.272183
0.535979
0.519727
-0.274183
-0.440801
-0.151505
-0.554299
-0.214620
0.284474
0.028376
-0.317354
-0.191964
0.305417
0.639143
0.174198
-0.184607
-0.612003
-0.114658
-0.128716
0.877436
0.191855
-0.132600
-0.017271
0.115924
0.327111
-0.002282
-0.014985
0.038078
0.662020
0.655964
0.195016
-0.620827
0.319394
-0.114375
0.453888
0.360682
-0.213619
-0.707639
0.368528
-0.438257
0.418332
0.081766
-0.219458
0.345384
-0.006499
0.568370
0.540325
-0.498400
-0.969815
-0.119876
0.805736
0.022036
-0.115383
0.121582
-0.453686
-0.165285
0.313926
-0.305082
-0.106729
0.426906
-0.339815
-0.766536
0.206617
1.146367
0.474827
0.339588
-0.107295
0.652669
0.242124
-0.280704
0.144182
0.491500
0.672010
0.044166
0.207339
-0.003027
0.245581
0.068042
-0.385507
-0.186172
0.623586
-0.150919
-0.544661
-0.142646
0.557023
-0.841610
-0.037359
0.509411
-0.420632
0.478029
-0.153918
-0.628568
-0.454834
-0.296618
-0.087069
-0.706680
0.184409
-0.122972
-0.536797
0.499621
0.607462
-0.574306
0.091902
-0.175468
-0.090802
-0.154089
0.689717
-0.191111
-0.601499
0.291512
0.183490
-0.558208
-0.429339
0.076606
-0.140081
-0.007435
-0.184653
0.147658
-0.844887
-0.473236
0.068913
-0.216527
-0.009848
-0.309784
0.149343
-0.537111
0.245157
0.232471
-0.468426
-0.269843
-0.530111
-0.173700
-0.175603
-0.456560
-0.275733
0.285918
-0.629381
-0.091374
-0.470358
0.209733
0.759824
-0.392393
-0.212549
-0.419907
0.091861
-0.469612
0.208961
-0.220832
0.166867
0.431439
-0.137632
0.207702
0.440195
0.219876
-0.420731
0.435115
0.229504
-0.150996
0.403471
0.682026
0.155750
-0.132252
-0.057774
0.151899
-0.178424
-0.178576
-0.474668
0.056354
0.453104
0.396124
0.292095
0.129380
0.390083
-0.228544
-0.493552
0.029198
0.369617
0.532875
0.376307
-0.103598
-0.616417
0.300056
1.189704
-0.234248
0.188822
-0.806829
0.509955
-0.029085
-0.113857
-0.249001
0.285503
0.062822
-0.628446
-0.793248
0.339394
-0.168940
0.457199
-0.021007
0.600902
0.498910
0.279276
-0.084627
0.066395
-0.277945
0.070250
-0.102193
-0.920159
-0.492071
-0.397850
-0.199415
0.003998
0.315017
-0.299658
-0.318129
0.231783
0.347003
0.004433
-0.809219
-0.307711
0.552241
0.192454
0.048023
0.027347
-0.599938
-0.071670
-0.224895
-0.689032
-0.756785
-0.225603
0.199391
1.170193
0.040570
-0.244339
0.639280
0.190639
-0.716056
-0.658830
0.157341
0.088497
-0.069132
0.563285
0.345750
0.664633
0.220798
-0.071730
-0.093898
-0.168060
0.121078
0.382304
-0.206968
-0.397607
0.144848
-0.502691
0.245553
0.554002
-0.433156
-0.280893
1.092386
0.835059
0.803382
0.171206
-0.692864
-0.083635
-0.005468
-0.042479
-0.220857
0.018469
0.182924
-0.459083
-0.725562
-0.224257
-0.215802
0.665211
-0.424497
0.381151
-0.154482
0.031255
-0.484784
0.196113
-0.234134
0.472986
0.025227
0.340878
-0.327023
0.187683
0.343298
0.066368
0.617068
0.172658
0.291055
-0.235972
0.589901
-0.490959
0.525026
0.283666
0.389921
-0.260773
-0.683503
0.493790
-0.132531
-0.206855
0.590629
-0.652862
0.061424
-0.355835
0.150220
0.046059
-0.463043
-0.440324
0.459754
0.011742
0.280526
-0.082858
0.077143
-0.072554
-0.204654
-0.266765
-0.957205
0.190309
0.072262
-0.129206
-0.055132
-0.245321
0.099415
0.555721
-0.181391
-0.178510
-0.633558
-0.384323
0.568817
0.419089
-0.327183
0.442031
0.265832
-1.209421
0.029127
-0.035558
0.055652
0.046001
-0.424864
0.153450
-0.298191
-0.463560
-0.511191
-0.737388
0.350733
0.006718
-0.015548
0.690224
-0.312861
-0.277525
-0.749710
0.881522
-0.103555
0.020154
0.018441
0.271282
-0.105725
0.353024
-0.510967
-0.486805
0.273853
-0.354575
-0.013536
0.612551
-0.005912
-0.346479
0.046082
0.673056
-0.080314
-0.151462
0.111189
-0.115378
-0.168629
-0.691021
-0.703334
0.032907
0.426493
-0.050422
0.179754
-0.942987
-0.539801
0.101717
-0.229920
0.328648
1.102885
-0.390151
0.202407
0.705481
0.692677
0.247316
-0.592945
0.480084
0.096668
0.166043
-0.503638
1.214973
-0.001190
-0.105914
-0.201490
0.415054
0.162429
0.122407
0.158830
-0.336529
0.370585
-0.291502
-0.251128
-0.095195
-0.124588
0.279972
0.660174
0.127354
1.004779
-0.214028
0.433787
-0.082564
-0.815723
-0.060959
-0.356719
0.024291
-0.088219
0.076292
0.477698
0.276062
0.019340
0.201102
0.554514
0.350491
-0.188710
-0.123999
-0.211530
-0.471932
0.668678
-0.442336
0.379939
-0.913628
0.716586
0.159988
-0.141398
-0.245622
-0.417587
-0.136162
-0.549593
-0.017110
0.175527
-0.562010
0.053899
0.094718
-0.134538
-0.090771
0.594536
-0.468917
-0.892732
-0.349299
0.011508
-0.425718
-0.134839
-0.542645
-0.341694
0.437215
-1.005447
-0.097173
0.107137
-0.274996
0.525897
0.638417
0.346716
0.501401
-0.228924
0.191832
-0.341136
0.530128
-0.015603
-0.519193
-0.160183
0.091001
0.453667
0.107098
0.119014
-0.316578
0.337378
-0.070761
-0.780945
-0.063184
-0.196876
-0.651619
-0.167847
0.630952
0.085122
0.161215
-0.689035
-0.045692
0.053065
-0.009446
-0.397246
0.608451
0.041658
-0.015519
-0.245860
-0.012473
0.394846
0.291156
0.399367
0.611008
-0.209941
-0.144973
0.846085
-0.009739
0.369031
-0.382901
-0.074981
-0.124379
0.639851
-0.111815
0.188633
-0.021964
0.129691
0.128992
0.489785
0.014046
0.640968
-0.286503
0.270136
0.075366
0.103604
-0.306699
0.421888
-0.415329
-0.346656
-0.232589
0.320543
-0.308978
0.194740
-0.170260
-0.308069
0.119456
-0.176347
-0.439666
-0.487683
-0.114356
0.121273
0.359517
-0.175123
0.287287
0.238961
0.233325
0.378629
-0.664190
-0.194378
-0.140573
0.050615
0.938206
-0.050410
-0.639960
0.133330
0.632398
0.423006
0.457028
0.663996
-0.223776
-0.702245
0.106910
-0.729639
0.442993
1.008147
0.831649
0.022978
0.474109
0.398869
0.507581
-0.370206
0.374051
0.062276
-0.361125
-0.153313
0.259483
0.309097
-0.285053
-0.194759
0.284795
-0.020364
-0.039463
0.538653
-0.497654
-0.171639
-0.094449
0.765206
-0.416646
0.223838
0.003895
0.013370
0.456059
-0.274495
-0.081591
0.300929
0.251861
0.185811
0.108198
0.087750
0.340050
-0.426299
-0.508087
0.507967
-0.778037
0.533916
0.731963
0.354619
0.391186
-0.819353
0.041857
-0.259296
0.863035
-0.190589
-0.345136
-0.783054
0.553085
0.205453
0.283164
0.726513
-0.335482
-0.430534
-1.054844
-0.401536
-0.079784
0.253872
-0.067615
0.260916
-0.176683
0.340777
0.529392
-0.244658
-0.138094
-0.020761
-0.399814
-0.208294
-0.347605
0.034104
-0.854588
-0.499223
0.663676
0.100999
-0.152073
-0.170041
0.117394
-0.241094
0.280299
-0.262725
0.531292
-0.152514
-0.092393
0.073272
0.314432
-0.400722
-0.182103
-0.565963
0.258336
-0.207552
0.073057
-0.102375
0.560367
0.073618
0.324148
-0.518100
0.118387
1.026009
0.342211
-0.370760
-0.764163
-0.432522
-0.157764
-0.141765
-0.364352
0.072897
0.178182
-0.247665
0.369675
-0.430696
0.124021
-0.354519
0.798790
-0.367907
0.098900
-0.006579
0.795334
0.136172
-0.046802
-0.567760
-0.339408
-0.384382
-0.253477
-0.008430
0.464061
0.169390
-0.164411
0.322941
0.580718
-0.360447
-0.554042
0.138999
0.067019
-0.177111
0.622277
0.189976
-0.571308
0.663638
-0.114441
0.583058
0.022459
-0.455609
0.059755
-0.138438
-0.014915
-0.663160
0.577829
0.471500
0.370989
0.685959
1.015635
0.094893
0.726936
1.071642
-0.480581
0.051599
0.138335
0.233180
0.216741
-0.155043
0.385736
0.284406
-0.173970
0.340037
-0.755768
-0.461623
-0.528017
0.844084
0.268031
0.399466
-0.486671
-0.009583
-0.210103
0.010845
0.235963
-0.152262
0.384953
0.225877
-0.142921
-0.154137
0.674606
0.554126
0.073900
0.025700
0.287341
0.539394
0.061791
-0.136858
-0.030346
-0.211450
0.153317
0.251939
0.220199
0.025666
-0.021690
-0.155090
0.126258
0.008590
1.020875
0.874571
0.445592
-0.292950
-0.351999
-0.285986
0.085570
0.017525
0.850243
0.105549
-0.912715
-0.723853
0.317574
0.034670
-0.831887
-0.636282
-0.220584
-0.027858
0.035669
-0.587724
-0.188670
0.100772
-0.275049
-0.062537
-0.238031
-0.109964
0.026564
-0.290093
0.173442
-0.278260
0.530305
0.017753
0.110421
-0.068684
-0.086228
-0.328708
-0.183696
-0.070595
-0.600995
-0.457716
0.348374
0.166510
-0.214653
-0.129813
0.174658
0.151877
-0.453353
0.390096
-0.394252
-0.719209
-0.592693
-0.319717
-0.564456
-0.582618
0.731184
-0.238325
-0.471397
-0.218301
-0.440074
-0.120987
0.123365
0.798190
0.403808
-0.060237
0.426581
-0.148578
-0.311263
0.355806
0.305232
-0.415329
-0.259034
-0.727875
0.169670
-0.035177
-0.364734
-0.389317
0.200448
-0.431262
-0.660417
-0.016694
-0.277684
0.123576
0.261033
0.405864
0.290587
0.167191
-0.608362
0.017674
-0.126907
-0.713459
0.085419
0.506690
-0.194731
0.023886
0.024323
-0.682416
0.510733
0.506822
-0.288883
-0.096254
-0.053877
0.412899
0.103389
-0.722233
-0.394439
0.164139
-0.918123
0.315840
-0.311289
-0.020884
-0.414778
0.617770
0.293643
-0.212821
-1.012209
0.098622
-0.271776
-0.645047
0.742366
-0.247569
-0.095308
-0.399054
0.354519
-0.836068
-0.111946
-0.056397
0.333941
-0.119347
0.164753
0.475931
0.521898
-0.032795
0.590637
0.048180
-0.418716
-0.029721
0.363906
-0.968262
-0.398759
-0.137276
0.164174
0.464697
-0.112032
-0.372312
0.491954
-0.120037
-0.546584
0.133624
-0.652549
-0.560086
0.691773
0.439683
0.252972
-0.452526
-0.207660
0.271880
-0.111046
0.384664
0.501108
0.364580
0.644653
0.233307
-0.100586
-0.061979
-0.161927
-0.066809
0.438498
-0.040990
0.031898
-0.434109
0.456180
0.292538
-0.330410
-0.385186
-0.338443
0.603296
-0.274292
0.381337
-0.254027
-0.800993
1.148231
-0.164968
-0.015154
0.223412
0.740530
0.514176
-0.507222
0.475213
0.155438
-0.208770
0.422385
-0.855307
-0.427907
0.313272
-0.135458
-0.356106
0.292562
-0.121895
0.326559
0.576153
-0.939476
-0.184782
0.241761
0.512896
-0.680354
-0.235086
-0.243373
0.319335
-0.649458
0.497254
0.018295
-0.282525
-0.301992
-0.703626
0.082369
-0.133623
-0.354865
-0.815926
-0.731809
-0.558706
-0.088348
0.170413
-0.206850
-0.269234
-0.253102
0.008335
0.289733
-0.004579
-0.330897
-0.725389
-0.493831
-0.515332
-0.541412
0.041486
0.550771
0.186638
-0.017117
0.330876
0.903746
0.416551
-0.367879
-0.388126
0.359914
-0.074306
-0.404072
-0.590957
0.225936
0.589529
0.062194
0.152937
-0.731734
0.349177
0.671251
-0.780296
-0.029346
-0.721927
-0.235501
0.222469
0.190358
-0.321249
-0.382629
-0.149365
-0.409297
0.191392
0.364654
0.268742
-0.295634
0.573405
0.226098
-0.483518
0.505860
-0.296015
-0.098841
0.205463
-0.948908
0.161988
-0.157464
0.441552
-0.071197
0.043333
-0.323341
-0.711365
-0.345933
-0.126316
0.235481
0.409833
0.654219
0.196579
0.309780
-0.503891
-0.243989
0.080239
0.082775
0.053114
0.141086
0.050026
-0.109795
0.220007
-0.304087
0.347349
-0.227695
0.625927
0.011225
-0.641852
-0.008010
-0.017513
0.192789
-0.568104
-0.272623
0.104227
-0.065394
0.057069
0.269070
-0.300166
-0.276761
0.537594
-0.098971
0.480135
-0.126380
-0.531288
0.293618
0.958673
-0.616441
-0.086202
0.358474
-0.800026
0.860064
-0.106934
-0.022994
0.209518
0.718747
-0.601794
0.004781
0.170698
-0.015579
0.529992
-0.490274
0.247831
-0.047576
-0.255598
-0.572292
0.179161
0.386567
-0.294382
-0.190781
0.959675
0.275764
0.280594
0.604917
0.583711
0.096308
0.380458
0.606678
-0.504607
-0.486807
0.339807
-0.062421
0.196909
-0.085106
0.161921
0.228374
0.353017
0.298058
0.321028
-0.103882
-0.605644
-0.930831
-0.041056
-0.234054
-0.117956
0.069678
0.498679
-0.825440
-0.629828
0.409416
0.006096
1.088715
-0.258958
-0.299452
-0.219164
0.259399
0.127721
-0.897230
-0.203675
-0.465670
0.563156
0.057387
0.227750
-0.146151
0.047217
-0.223974
1.035787
-0.196225
0.409971
-0.126293
-0.706525
0.319535
0.371132
0.072396
0.207408
-0.054562
-0.375377
-0.484674
-0.727363
0.339811
0.352153
-0.020429
-0.314309
0.594591
0.195450
0.749663
0.457525
0.565640
-0.159281
0.128424
-0.650779
-0.007597
-0.087948
-0.269287
-0.095008
-0.567308
-0.078057
-0.115060
-0.838808
0.152353
-0.511358
-0.310799
-0.682354
-0.123933
0.427825
0.536054
-0.276087
0.460921
-0.508439
-0.036959
-0.318320
-0.134666
-0.423022
0.532537
0.405996
0.135328
-0.499710
0.164364
-0.595894
-1.208524
0.706702
-0.232446
0.265537
0.682056
-0.537760
0.018353
0.646156
0.018861
0.349414
0.200101
0.133403
-0.452176
0.377971
-0.411234
0.000334
-0.147528
0.916728
-0.630790
-0.072952
0.134359
0.264368
-0.044360
0.033379
-0.146331
0.472659
0.256025
0.456731
-0.782290
0.062963
-0.361429
-0.151043
-0.226788
0.143505
-0.197227
-0.653174
-0.368528
0.216156
0.203388
-0.129430
-0.822478
0.175852
-0.737968
-0.354282
0.240455
-0.354065
-0.059862
0.491672
-0.014658
-0.078619
-0.124412
-0.575717
-0.497895
1.049090
-0.086845
-0.361110
0.051696
0.635933
0.169761
-0.325700
-0.091236
-0.290709
0.087938
0.728077
0.647823
-0.315394
-0.044796
0.120185
0.270676
0.506922
0.762749
-0.634099
-0.320719
0.128680
-0.239929
0.310194
-0.446164
-0.256242
-0.356598
-0.270300
0.119133
0.320876
0.198617
-0.356134
1.096934
0.133170
-0.093188
-0.672372
-0.115824
0.393949
-0.119457
0.400262
0.184817
0.276611
0.467322
0.191113
-0.568792
-0.030061
-1.033786
-0.222985
0.166550
0.608495
-0.763524
-0.395966
-0.335814
1.005656
-0.570314
-0.554897
-0.174110
0.289164
-0.470509
-0.027675
-0.080992
-0.040132
-0.234145
-0.286946
-0.038494
0.015670
0.028030
-0.192272
-0.584082
0.248049
0.727036
-0.068825
-0.565446
-0.139396
0.187631
-0.145040
-0.220103
-0.052933
-0.141988
-0.016889
1.615897
-0.273149
0.383002
0.427436
0.128882
0.200555
-0.423404
0.457161
-0.123788
0.816905
0.231848
-0.749368
-0.135765
0.644286
-0.241428
-0.001095
-0.631291
-0.209469
-0.631025
0.770942
0.217735
-0.186468
-0.273891
0.315116
0.089017
-0.452910
0.425516
0.417680
-0.697738
-0.174922
-0.061692
0.051737
-0.136941
-0.289578
-0.251305
0.195592
0.229892
-0.310526
-0.071923
0.320323
0.028991
0.301019
0.237819
0.269300
0.367757
-0.392210
-0.203757
0.202229
-0.551777
-0.868991
0.422095
-0.003359
0.123438
0.438540
0.085515
-0.283486
-0.181913
0.185885
-0.368591
-0.299281
-0.254193
-0.252305
-0.151708
-0.512392
0.055900
0.120752
0.205073
0.646195
0.053103
-0.200480
-0.004200
0.292584
0.080846
-0.192339
0.083473
-0.324396
-0.634254
-0.137615
0.325126
0.474615
0.258847
0.017729
-0.096064
-0.280615
-0.491872
0.416224
-0.332397
-0.321603
-0.197270
0.074507
0.202638
0.421968
-0.079704
1.070382
0.423514
-0.543829
-0.645253
-0.409897
-0.256857
0.185869
-0.487781
0.237464
0.257135
-0.271557
-0.386807
0.870648
0.690334
-0.477108
0.681582
-0.326095
-0.013104
0.263115
-0.019440
-0.086385
-0.836675
-0.083023
0.031182
0.446633
1.114442
0.421097
0.759119
-0.883556
0.100679
0.268088
-0.419476
-0.518662
0.057484
-0.032385
0.159589
-0.323006
0.091619
0.700479
-0.545153
0.625805
0.009036
-0.338283
-0.485571
-1.028330
-0.056262
-0.485068
0.887092
-0.012575
-0.428046
0.216863
0.276973
0.149432
-0.019643
-0.185988
-0.044983
-0.119123
-0.929938
-0.650622
1.359733
-0.060419
-0.025144
0.407532
-0.449856
-0.128150
-0.463189
0.326779
-0.432097
0.702126
0.133745
-0.271048
-0.144416
0.685120
0.147803
0.082550
1.047378
0.558998
-0.432311
-0.393183
0.290848
-0.186045
0.058559
-0.982721
0.160474
1.346220
0.351313
-0.380390
0.082767
-0.005819
-0.077246
-0.171262
0.723595
-0.591486
0.105005
0.085334
-0.330096
-0.074809
-0.217624
-0.415900
-0.222809
0.155321
0.348957
1.020667
0.545452
0.164405
-0.218086
-0.051341
-0.116767
0.189036
-0.180881
-0.095603
0.666417
0.364874
-0.079180
0.107536
-0.092428
0.575572
0.470107
0.155048
-0.109788
0.172353
0.134338
0.104021
-0.064312
-0.159057
0.407242
0.363408
-0.205868
0.655943
-0.143463
0.228087
-0.198799
-0.656649
0.437419
0.952301
0.981039
-0.922965
-0.448203
-0.295280
-0.176459
0.475832
0.385102
-0.333597
-0.029920
0.117261
0.339224
0.426308
0.108441
-0.045371
0.685025
-0.586848
-0.165301
0.803903
-0.296154
0.000272
-0.274673
0.190230
-0.422795
-0.042524
-2.111936
-0.194537
0.307367
-0.074692
-0.001795
-0.441865
0.441345
-0.004861
-0.008132
-0.377838
-0.696754
0.096524
0.000199
-0.088228
1.360424
0.002719
-0.856050
-0.097381
0.315696
-0.111764
-0.387132
0.232061
-0.145493
-0.034437
-0.652806
0.432035
0.186105
1.255835
-0.588363
0.592970
1.166450
-0.886635
-0.887007
0.046709
-0.073016
-0.171744
0.620395
0.469050
-0.582532
1.017731
1.456608
-0.668235
-0.430685
1.341365
-0.689587
0.609019
-0.510866
1.464904
-0.999598
-1.032467
-3.484758
1.844823
-0.571706
-0.582708
-0.270265
0.873866
-0.940268
-0.741199
-0.542481
-2.464933
-0.189988
0.807076
0.792727
0.533386
2.804751
-0.824621
-2.832862
-0.303215
-0.560386
-0.387756
1.019651
0.559553
-0.120916
0.686176
0.382429
-0.166954
-0.481311
3.078160
-0.133441
0.584756
3.022121
-1.119699
-2.272332
1.634332
-2.025107
1.166379
-0.667242
0.593135
