0.160092
-0.509185
-0.085344
0.002717
1.035350
0.274251
0.286526
0.504061
0.437098
0.445282
0.097690
-0.417649
0.071861
-0.282864
0.568522
-0.411914
-0.025075
0.285297
0.235730
-0.376089
-0.195120
0.751984
0.212866
0.677568
0.152987
0.249607
-0.051323
0.104009
0.141706
-0.095669
-0.749649
-0.613250
-0.772687
0.254102
0.477369
-0.850328
0.195244
-0.332968
-0.201078
-0.230816
-0.755718
-0.328071
-0.282855
-0.133616
-0.109724
-0.136843
-0.285410
-0.056659
0.537762
-0.567422
0.519461
0.345687
0.311163
0.195532
-0.323441
-0.377736
-0.259539
0.379458
0.304011
-0.367334
0.279209
0.627303
-0.351060
-0.591863
0.046075
0.790781
0.303060
0.633086
-0.641905
-0.276038
0.045737
0.023421
-0.671020
0.715932
0.108823
-0.347806
0.073482
-1.016916
-0.505739
0.151659
0.499483
0.124816
-0.270139
-0.406061
-0.787259
-0.049587
-0.199783
0.134341
0.221320
-0.329793
-0.114370
0.008688
0.299222
-0.920150
-0.760748
0.691075
-0.548711
-0.599393
0.663360
0.374037
0.155139
0.060191
-0.502849
0.391526
0.253329
-0.301146
0.772122
-0.012856
-0.187382
-0.141384
-0.229153
0.340718
0.113986
0.228496
0.006295
0.323984
0.012380
0.154726
-0.146401
-0.019453
0.233675
-0.524363
0.033348
0.322982
0.145539
0.310896
-0.143250
-0.209670
0.784062
-0.614117
-0.129292
-0.040180
-0.985606
0.018439
-0.192705
0.044601
-0.743817
0.357745
-0.081886
-0.034663
-0.928080
0.262700
0.442509
0.596109
0.012802
0.026024
0.204642
-0.109216
-0.252754
0.079469
-0.222823
-0.185141
-0.130161
0.760268
0.467987
0.257511
0.521205
-0.003676
0.150368
-0.846915
0.095801
-0.682739
-0.560912
0.683820
0.101282
0.540030
0.350611
-0.683522
-0.889321
-0.777426
0.371272
-0.103380
-0.362870
-0.305985
0.419798
0.045735
-0.206151
-0.391870
0.092614
0.210015
0.168965
0.286431
0.294464
-0.245614
0.173796
0.099241
-0.151810
0.427385
-0.185306
0.109469
0.262785
-0.201178
-0.382964
-0.045987
0.382971
-0.491023
0.667861
0.047088
0.012006
-0.673856
-0.217798
0.114052
0.338720
-0.286688
-0.383340
0.450087
-0.565945
0.276509
0.438927
-0.050767
0.360002
-0.039552
0.123178
0.329725
-0.240124
0.298016
-0.270795
0.074043
0.272261
0.561806
0.546660
0.024622
-0.357873
0.649195
-0.433068
0.286911
0.517233
-0.112016
0.382665
0.018021
0.086394
-0.105609
0.279630
-0.218587
-0.296461
0.100542
-0.522137
0.570341
0.169254
0.492596
-0.132936
0.087357
-0.236915
-0.139427
0.192610
0.361975
-0.054087
0.688416
0.775412
0.096645
-0.603177
0.020591
-0.056547
-0.064512
0.127355
0.226021
-0.036585
0.048743
-0.407882
0.563413
-0.005302
-0.230525
0.404212
0.039901
0.051438
0.146219
0.293775
-0.421854
-0.419779
0.637992
0.290009
0.093438
-0.596379
0.426324
0.311459
0.163113
0.020110
0.318083
-0.417904
-0.929381
-0.695382
0.033139
-0.061040
-0.163459
-0.170180
1.011554
-0.730191
0.689039
-0.301165
-0.266014
-0.067688
-0.368371
0.435792
0.913626
0.203295
0.260733
0.113642
0.685496
0.568246
0.262030
-0.492178
0.003217
0.236828
0.772785
0.268288
-0.036309
0.106264
-0.249220
-0.126257
0.152824
-0.378452
-0.230204
0.173899
0.404567
-0.112864
-0.467768
0.477433
0.549835
0.407704
-0.907523
-0.136193
-0.282762
-0.255182
-0.467395
-0.015654
0.080630
0.093775
-0.269509
-0.076859
0.702199
-0.066279
0.493611
-0.811480
-0.541689
0.100416
0.032626
0.116499
0.027262
-0.423414
0.339155
0.208789
-0.217138
-0.248040
-0.039042
0.436368
-0.006715
-0.063528
0.102353
-0.233251
0.080232
-0.000473
-0.589047
-0.394049
0.358563
-0.461714
0.134730
-0.235704
-0.173438
-0.660119
-0.202331
-0.035269
-0.035081
0.263809
-0.035570
-0.286220
0.247440
-0.254335
0.649976
0.065580
0.268035
0.666632
-0.437294
0.314469
0.204448
-0.568022
-0.680232
-0.484435
-0.032027
-0.444304
-0.093734
-0.530914
-0.100826
-0.339346
-0.408441
0.010042
0.637352
0.198558
0.095602
0.087412
-0.173204
-0.012409
0.485171
0.004285
0.673880
0.451888
0.341077
-0.267480
-0.104903
-0.551152
0.127157
0.050867
0.072781
-0.026667
-0.182317
-0.493015
-0.489669
-0.293968
-0.516948
-0.917081
0.010733
-0.173526
-0.443757
-0.580733
-0.174102
0.593784
0.543828
0.009978
-0.349279
-0.355496
0.508135
-0.612900
0.765836
0.008560
0.425034
0.203083
0.125568
0.535358
0.116503
-0.022109
-0.737151
0.018763
-0.114452
0.301438
-0.777622
1.117006
0.065126
0.365547
-0.574038
0.166999
0.095462
-0.166445
-1.075263
-0.458599
0.733214
0.072995
-0.400482
-0.513101
-0.478372
0.170201
-0.032600
-0.196696
-0.321760
-0.096904
-0.047019
-0.270471
-0.275356
0.542813
-0.302526
-0.194091
0.153016
0.413422
0.646170
0.366284
-0.437784
-0.212594
0.182254
0.295436
0.173226
-0.544964
0.007588
0.146760
-0.084920
-0.373652
-0.217378
0.198257
-0.492416
-0.764282
0.102887
-0.120576
0.442657
0.501824
-0.501336
-0.968560
-0.383341
-0.591426
-0.429494
0.637412
-0.072873
0.036630
-0.082846
-0.549575
-0.135327
0.371669
0.437046
-0.200880
0.183141
0.171092
-0.279751
0.482260
-0.326446
0.192508
-0.316914
0.069267
-0.712293
-0.454079
0.315926
0.044747
-0.206028
0.810028
-0.748471
-0.236615
0.457450
-0.051865
-0.128604
0.318881
0.071711
0.603629
-0.731498
-0.438610
-0.384761
-0.546610
-0.150211
0.710638
0.331167
-0.173972
-0.577591
0.121977
-0.577162
0.009775
-0.408976
-0.242289
0.053616
-0.000079
0.162456
0.173063
-0.179591
0.110070
0.730373
0.028537
0.469646
-0.332387
0.688106
-0.110711
0.398848
-0.895910
-0.643437
0.280113
-0.394516
-0.391417
0.557358
0.420125
0.232970
0.230521
-0.284467
-0.108807
-0.341072
-0.438250
-0.419765
-0.097527
0.254632
-0.206722
0.055057
-0.175114
-0.215158
0.174109
0.293826
-0.280047
0.642497
-0.064085
-0.458944
-0.157923
-0.027592
0.193070
0.444773
-0.160524
0.506591
-0.140535
0.072067
-0.537957
-0.123246
0.305645
0.581149
0.197441
-0.345285
-0.077510
-0.474799
0.547762
-0.553231
0.422726
-0.441600
0.034879
-0.313947
0.258149
0.139303
0.096150
-0.464687
-0.235787
0.518221
-0.473885
-0.837703
0.330108
0.254000
0.214227
-0.171148
0.411497
0.716377
0.339246
-0.039235
0.322034
-0.098951
-0.497174
0.046916
0.234345
-0.143685
0.041294
0.166817
-0.253073
-0.255439
0.347863
-0.460492
0.520955
0.081106
-0.407872
0.037499
0.380774
-0.353063
-0.640061
0.133687
-0.017987
0.215494
-0.408252
-0.607802
-1.001969
-0.068430
0.136991
-0.228914
-0.221537
-0.096740
-0.199016
-0.303531
-0.088603
-0.252978
0.184848
-0.001874
-0.289604
0.268182
0.594666
0.524363
-0.124776
0.111486
-0.197268
0.193359
-0.421001
-0.457595
0.614919
0.164752
-0.661793
-0.104971
-1.143867
-0.312670
-0.226950
-1.235632
-0.613306
-0.189807
0.380079
-0.008020
0.261428
0.013072
0.212440
0.144465
-0.476557
0.325201
-0.693811
0.018857
-0.267090
-0.353989
0.453944
-0.709666
0.333204
0.129242
0.158516
0.715829
-0.318352
-0.083053
-0.402484
-0.157636
0.494954
0.215155
-0.420712
-0.592193
-0.490037
0.559650
0.039265
-0.195118
-0.290388
0.349945
-0.386783
-0.115442
0.556531
-0.335266
0.179461
-0.008504
0.033545
-0.892101
0.375335
0.065799
0.026145
0.221834
-0.425639
-0.250348
0.517120
-0.057191
0.550663
0.343927
-0.364687
0.030324
0.624010
0.059926
-0.200230
-0.182626
0.455984
-0.067199
-0.752997
-0.415004
-0.103699
0.146526
0.421552
0.175576
0.000927
0.370793
0.039254
0.401338
-0.021867
-0.152490
0.628194
0.655947
0.010959
-0.176337
0.021426
-0.138955
0.282909
0.054508
-0.658013
-0.004817
-0.315732
0.408060
0.000793
-0.694817
0.132508
0.324434
0.705263
-0.755933
0.275455
0.517717
0.624292
0.068561
-0.054281
-0.325276
-0.077492
-0.510174
0.265138
-0.072934
-0.316116
0.272730
-1.002752
-0.192406
0.196650
0.094030
-0.168413
-0.239945
-0.108693
0.468225
-0.787698
-0.348762
0.591564
0.330894
0.090723
0.354649
0.274579
1.136586
-0.569869
-0.022370
0.335222
0.663577
-0.634876
-0.299549
0.347910
0.133255
0.297846
0.022850
-0.175621
-0.619614
0.130643
0.096725
0.017762
-0.753741
-0.727828
0.617567
-0.364098
0.495156
0.390339
0.602543
-0.070611
-0.153687
-0.033289
0.001469
0.140082
0.062598
0.388023
-0.633142
0.230619
-0.459630
0.225089
0.680194
-0.018299
-0.784576
0.132494
1.122076
-0.554396
-0.008339
0.143007
-0.824061
-0.555194
0.008974
-0.662634
0.351761
0.381080
-0.139971
0.299621
0.466106
0.049829
0.197252
0.099236
-0.269569
-0.036723
0.226857
0.191267
0.455449
-0.132293
0.250008
-0.179388
-0.128352
0.071699
-0.419617
0.069285
0.426713
0.009865
0.060887
0.403478
-0.351777
0.464598
0.709515
-0.792252
0.029461
-0.491787
0.584607
-0.028778
-0.398308
-0.721961
0.175700
0.239403
-0.034288
0.161572
0.181431
-0.055844
0.294207
0.435805
0.566347
-0.505975
0.601036
0.031936
0.003199
-0.208977
0.204486
-0.582169
0.235421
-0.106471
-0.330021
-0.072971
0.101243
0.107497
-0.789414
0.477301
-0.052631
0.224513
0.457921
0.179779
0.546334
-0.030271
-0.218537
0.066285
0.413281
-0.214443
0.443923
0.480995
0.594241
0.222453
-1.061548
-0.746765
0.575673
0.472152
0.033176
-0.526791
-0.104446
-0.042877
0.089143
-0.008853
-0.435651
-0.628586
-0.731338
-0.317156
-0.642428
0.123653
-0.186858
-0.116187
0.404427
-0.326216
0.113732
-0.676323
-0.139860
0.061801
-0.168860
0.238129
-0.115670
-0.036975
-0.336182
0.372892
0.478355
0.067690
1.005677
-0.148106
-1.209909
0.411814
0.132877
-0.397318
0.047581
0.206159
0.321128
-0.332839
0.043868
-0.434689
0.057877
-0.322830
-0.107584
-0.515810
-0.288812
0.322270
0.096821
0.466300
-0.008716
0.763695
0.434500
-0.094886
-0.167057
-0.703321
0.230005
0.143096
-0.511527
-0.027059
-0.034878
0.293238
-0.423769
-0.248652
-0.249924
-0.842932
0.206036
-0.064559
-0.166441
-0.278179
0.200914
0.026062
-0.161823
-0.169657
0.194212
-0.106614
-0.544789
-0.568280
0.475171
0.339951
-0.235352
0.053064
-0.003977
0.394623
-0.500150
0.113496
0.322164
0.466015
-0.218123
0.176533
-0.004119
0.638002
-0.377874
0.432038
0.105109
0.693275
-0.411281
-0.202704
0.595341
0.129186
-0.991071
0.505597
-0.594878
-0.004019
-0.101156
-0.123396
0.550247
0.715810
0.123398
0.634822
1.102572
-0.225123
-0.064427
-0.028782
0.055857
-0.023518
-1.043748
0.441002
0.492933
-0.137702
0.160422
0.528641
-0.131064
-0.827371
-0.511621
-0.102710
-0.516936
-0.182657
0.510160
0.132035
-0.408413
-0.207947
0.876148
-0.089908
-0.578770
-0.446866
-0.075191
-0.485177
0.087047
1.082354
0.037464
0.382665
0.711037
0.018466
-0.141149
-0.141575
0.117055
-0.547663
-0.192872
0.328247
0.467657
-0.422974
-0.112851
0.260845
0.200063
-0.161360
-0.545538
0.229000
-0.058173
0.021679
0.204258
0.102046
0.071889
-0.208869
-0.385003
0.463704
0.366434
0.355050
-0.565907
-0.291181
0.251631
0.831133
0.919094
0.095867
-0.219702
-0.265299
-0.240572
-0.400552
-0.399660
-0.697827
-0.062991
-0.400537
0.242291
0.461875
0.632405
0.978660
-0.073011
-0.131144
0.034546
0.175450
-0.164936
0.212261
0.224671
-0.156199
0.117103
0.486439
0.927117
0.730898
-0.186985
-0.640766
0.158403
-0.038454
0.277992
-0.195112
0.243694
0.541216
0.445114
-0.160943
0.150373
0.535786
-0.010299
-0.480641
-0.150605
0.185577
0.059282
0.310277
-0.786805
-0.335398
-0.252502
0.437902
0.205694
0.062729
0.194198
0.729388
-0.403307
-0.010921
-0.011802
0.633942
0.665088
-0.073871
-0.236686
0.148762
0.261420
0.311753
-0.119880
-0.606267
-0.152824
0.475650
0.248377
0.670770
0.461711
0.188765
0.272090
-0.087519
-0.025694
-0.427776
0.989591
-0.042669
-0.285055
-0.430431
-0.322381
0.201569
-0.080542
0.179760
-0.266544
-0.062942
0.116513
-0.044275
-0.300804
-0.094065
-0.808922
-0.139076
-0.061104
-0.710548
-0.365594
0.198735
-0.137230
-0.315318
-0.843746
0.545129
0.031036
-0.171599
0.277941
-0.200990
-0.271911
0.142638
-0.367713
0.019536
-0.330512
-0.216558
-0.717177
0.264866
-0.595278
0.629201
0.137881
-0.449408
-0.026618
0.220020
-0.028141
0.263369
0.434952
-0.006171
-0.198941
0.358677
0.374333
0.322960
-0.701989
0.266972
0.033109
-0.600418
0.091972
0.355104
-1.021341
-0.430514
0.155294
0.035898
-1.114871
-0.384620
-0.710100
-0.324460
-0.033950
0.995900
0.007749
0.436281
0.565244
0.079688
-0.766171
-0.330206
0.485118
0.284777
-0.727373
-0.016622
-0.065391
-0.553071
-0.418622
0.859254
0.160754
0.008662
1.751378
0.611579
-0.014730
0.592918
0.090567
-0.225552
0.131351
0.225033
0.196729
-0.230756
-0.389280
0.241725
0.831947
-0.248407
0.546960
0.265793
0.130084
0.197107
0.458585
0.788290
0.563670
-0.795567
0.338763
-0.207075
0.139741
0.469380
-0.822680
0.703273
-0.025188
-0.527351
0.606510
-0.128800
-0.305662
0.682370
0.223738
-0.084224
-0.717164
-0.245092
0.080088
0.312757
0.122718
-0.158035
1.167987
0.147571
-0.502843
0.370966
0.600510
-0.562174
-0.002468
0.005081
-0.196802
0.439112
-0.293546
-0.061439
0.204695
0.392953
0.131629
0.554906
-0.259405
-0.782590
0.216384
0.620960
-0.641724
0.372824
-0.089730
0.131171
0.650458
0.183621
0.136870
0.675475
-0.936023
-0.526162
-0.598914
0.145788
0.145977
0.181962
-1.112522
-0.774764
0.323223
-0.020145
-0.373661
-0.122494
-0.004558
0.023930
0.353870
0.313501
0.614666
-0.156745
0.220097
0.103429
0.300566
-0.244935
-0.312749
0.815263
-0.349984
-0.365275
-0.538058
-0.043395
-0.508066
0.689508
0.044205
-0.626458
-0.507517
-0.461990
-0.290203
-0.214847
0.531560
0.252977
0.293699
0.330190
0.747949
-0.180671
0.051839
-0.608726
0.797647
0.207920
0.416056
-0.358557
0.425818
-0.233263
-0.283218
0.047784
0.039989
-0.443232
0.059953
-0.311585
-0.445660
0.547174
-0.232472
-0.384509
0.360864
-0.437085
-0.237244
-0.285729
0.112318
0.545419
-0.408225
-0.108985
-0.086869
0.688298
0.196283
-0.179439
0.170828
-0.020864
0.093889
-0.989574
-0.352485
0.132327
-0.415030
-0.896370
-0.133679
-0.040674
0.244844
0.511068
-0.073209
-0.114442
-0.184282
0.119295
-0.012155
-0.281975
0.157528
-0.142566
-0.302927
0.608412
0.442269
-0.209895
-0.225229
-0.386194
-0.162758
0.501212
0.325620
0.086702
-0.263504
-0.112332
-0.071861
0.366114
0.063477
-0.043702
-0.304459
-0.134412
-0.278844
-0.014755
0.092720
0.702666
-1.183358
-0.325654
0.275304
0.720256
0.107914
-0.904764
0.223673
-0.189524
-0.190410
-0.239570
-0.058039
-0.831817
-0.882391
0.039250
-0.257538
-0.179314
-0.554984
0.084274
-0.337606
0.503353
-0.160316
0.374610
-0.195409
-0.481893
-0.439927
-0.422129
-0.753789
-0.205887
0.053338
-0.113360
-0.354910
-0.191295
0.394727
0.077448
0.236639
-0.325726
0.064347
-0.230229
0.044371
-0.326846
-0.021215
-0.569324
-0.367464
-0.530651
0.201056
-0.606265
-0.432752
0.138650
0.161614
0.016994
-0.691297
-0.752842
-0.284350
-0.655487
-0.584688
-0.770599
0.663673
-0.581743
-0.114735
0.387688
0.699582
-0.009172
-0.835596
-0.007249
-0.252773
-0.047569
0.006805
-0.049406
0.237035
0.433865
-0.256353
-0.093780
0.030529
-0.824329
-0.268384
-0.527208
-0.299763
-0.149801
-0.041975
0.631850
-0.496979
-0.146463
0.300441
-0.445935
-0.297827
0.263132
0.080540
-0.874024
-0.602470
-0.296976
0.309125
0.333521
-0.185222
0.787362
-0.511011
0.310227
-0.106841
-0.223873
0.313692
-0.122918
0.058927
0.248344
-0.203951
-0.203624
0.223793
0.417577
-0.032185
0.380021
0.016396
-0.227108
0.379768
-0.094252
0.711174
-0.406357
0.162276
0.071736
0.633783
-0.479267
0.188081
-0.647067
0.104310
0.673134
0.302136
-0.683264
0.376716
-0.536720
0.329224
-0.661969
0.467274
-0.153151
-0.035103
-0.206863
-0.273082
0.173000
-0.607036
-0.321371
0.392774
-0.482980
-0.297026
-0.043626
-0.135675
0.456000
0.372330
-0.310034
0.689940
-0.516912
0.202174
-0.082959
-0.552241
0.341595
0.439004
0.260378
0.535658
0.441656
-0.094906
-0.643956
0.097969
-0.359483
-0.290438
-0.811029
-0.188850
0.303983
-0.356855
0.052495
-0.191479
-0.432570
-0.246708
0.254657
0.646302
-0.258484
0.150672
0.009866
-0.465147
0.196329
0.201100
-0.244763
0.463092
-0.015244
-1.074983
0.098080
0.147332
-0.175035
-0.450966
0.100480
0.447541
-0.311154
0.396855
0.498216
-0.540897
-0.062188
0.565300
0.235093
0.238029
-0.032243
0.172323
-0.231084
0.327389
-0.153080
0.013827
-0.020152
0.040899
-0.279619
-0.392084
-0.446224
-0.285257
-0.086266
0.543387
-0.452310
0.255289
-0.161333
-0.116116
-0.952246
0.393664
0.498310
-0.053993
0.466131
-0.171041
0.586562
0.641105
0.464168
-0.111552
-0.183255
0.209123
-0.156967
-0.634808
-0.467110
-0.380162
-0.719503
0.504755
0.479283
-0.496071
-0.029885
0.568704
-0.056476
-0.286205
-0.403363
0.287886
-0.238183
-0.007250
-0.355394
-0.158374
0.763724
0.320705
-0.434846
-0.080638
0.239337
-0.080596
-0.124958
-0.106306
0.085943
-0.931080
0.443317
0.027144
1.020865
-0.531725
-0.209242
-0.406433
0.317983
0.474632
-0.452266
-0.656945
-0.236382
0.123805
0.365860
0.533354
-0.331506
-0.129093
0.302301
0.202090
-0.457056
0.135072
0.137869
-0.381657
-1.329476
-0.014330
-0.207582
0.141891
0.355982
0.090348
0.500550
-0.076390
0.218304
0.045625
-0.165096
-0.334265
-0.149532
-0.598828
0.539305
-0.516071
0.474767
-0.323972
-0.105574
0.169495
0.547243
0.126019
0.183214
-0.270502
-0.360180
-0.093553
0.229364
-0.729887
0.327145
0.548452
0.378215
0.423872
-0.143013
-0.228326
0.221413
-0.173061
0.149721
-0.806644
0.162822
0.132558
-0.140966
0.388854
0.269992
-0.749195
-0.228548
-0.301805
-0.247886
0.191367
0.668525
-0.594537
0.521642
-0.346656
-0.014344
0.056916
-0.098313
0.059526
-0.706725
0.669339
0.198076
-0.042436
-0.127995
0.300123
-0.818464
-1.005346
-0.093089
0.149528
0.805459
-0.471774
-0.197521
0.457696
-0.089566
-0.014190
0.114161
-0.375477
0.459355
0.081236
0.417546
0.089295
-0.657719
-0.628617
-0.083058
0.200639
0.070982
0.540501
-0.413402
-0.155005
0.327551
0.151884
-0.047683
-0.251686
0.465891
-0.047040
-0.156111
-0.493560
-0.103083
-0.420124
-0.128226
-0.559164
-0.017268
-0.256725
0.286700
-0.528568
0.666341
0.143922
-0.007715
-0.642651
0.462647
0.054585
-0.102300
-0.272549
-0.168287
0.244436
0.558725
-0.011414
0.477190
-0.533502
-0.691417
-0.242241
-0.288757
0.226723
-0.276308
0.487138
-0.353213
0.458777
0.635201
-0.222816
-0.396372
0.559716
0.343216
0.110089
-0.990314
0.462917
-0.311818
-0.700302
0.500700
0.584429
-0.269328
0.165315
-0.731192
0.447128
0.084915
-1.096184
0.362965
0.206387
0.362350
0.062393
0.128917
-0.268536
0.212478
-0.317124
-0.612494
0.144726
0.237589
0.257894
-0.347531
-0.317669
-0.104495
-0.122849
0.368856
-0.498069
0.424951
0.222374
-0.369111
-0.278847
-0.405098
-0.537855
-0.099980
0.291892
-0.064796
0.188725
-0.950915
0.172222
0.194826
-0.180127
-0.552309
-0.885062
0.444089
-0.032187
-0.122195
0.378097
-0.282734
0.053543
0.597398
-0.528126
0.163172
0.170156
-0.569299
0.698875
-0.063477
-0.571205
-0.106354
-0.243362
-0.095305
0.228184
0.035439
0.649115
-0.370738
-0.719340
0.115206
-0.298919
0.017757
-0.680496
-0.072106
-0.032170
0.133541
0.111858
0.474965
0.086692
0.283275
0.215754
0.216215
0.275149
0.647477
-0.110153
0.686914
-0.164365
0.809657
-0.028233
-0.128568
-0.009850
0.397592
-0.165310
0.093578
-0.088087
0.008886
0.031171
-0.970540
0.074424
-0.099386
-0.270156
0.331244
0.766168
0.419696
-0.435400
0.028754
-0.210021
-0.263382
0.397693
-0.382596
-0.767062
0.130274
0.757600
-0.185905
0.505500
-0.367714
-0.789855
-0.500524
-0.548608
-0.167089
0.174643
0.238180
0.192847
-0.071272
-0.219965
-0.421694
-0.318403
0.142910
0.470042
-0.061705
0.227726
-0.113096
0.607387
-0.544616
0.365102
0.869864
-0.213263
-0.250172
-0.849175
-0.457873
-0.530724
0.103129
-0.264660
0.211290
0.044949
-0.061806
-0.738309
0.007254
-0.227239
0.011710
0.408274
-0.613234
0.001670
-0.073690
-0.163858
-0.171724
-0.729326
0.719519
-0.084326
-0.195194
-0.954047
-0.419129
0.211329
0.767235
1.243137
-0.345038
0.542235
0.098267
0.255367
0.118600
0.160404
-0.422017
-0.232732
0.091701
-0.455766
0.340660
0.460631
-0.188612
0.009447
-0.801550
-0.511191
0.356627
0.191969
0.477614
-0.402514
0.042744
0.352851
0.316515
0.508984
-0.352124
-0.028495
0.410346
0.655237
0.115797
-0.097983
0.453559
-0.230962
0.828294
0.748343
0.293758
0.310087
-0.279425
-0.254186
-0.015460
0.656476
-0.075535
-0.141642
0.184760
0.324795
-0.435204
0.037637
0.440350
-0.230258
-0.260455
-0.171350
-0.157354
0.255147
-0.588465
-0.363165
0.058995
-0.009566
0.075417
0.320807
0.141094
-0.129984
0.220709
0.521106
-0.072586
-0.273384
0.267376
0.387754
-0.107074
0.172265
0.317215
0.428296
-0.441718
0.533700
0.155374
-0.666554
-0.561596
0.333347
-0.385854
0.540192
-0.055436
0.596353
0.011416
-0.420028
-0.229317
0.363172
-0.754289
-0.676015
0.857750
0.176574
-0.402684
0.646416
0.054810
0.231039
-0.063365
0.119196
0.356126
0.095192
0.269313
-0.490159
0.369097
-0.198676
0.294739
0.172744
-0.445600
0.248512
0.096345
-0.532898
0.201385
-0.113216
0.327910
0.128027
0.327526
0.401510
-0.011004
0.051706
-0.480774
-0.056843
-0.269177
-0.286183
-0.106156
-0.124697
0.126373
0.104160
-0.637563
0.208333
0.335283
0.195368
0.071971
1.025312
-0.461651
0.649087
0.545288
0.217309
0.223707
-0.138427
-0.165605
-0.524879
-0.085236
-0.434928
0.008203
-0.048228
-0.204028
0.027459
-0.253368
-0.173763
-0.078962
-0.376639
0.166799
-0.314701
-0.577692
-0.295780
-0.148439
-0.473176
-0.585018
-0.159230
-0.488194
0.651532
-0.438781
0.658967
-0.134990
-0.125913
0.328687
-0.640803
-0.458767
-0.414628
0.288838
-0.529586
-0.371268
0.569378
0.252458
-0.177238
0.058324
0.767268
-0.101725
-0.314718
-0.732764
-0.233488
0.361810
0.221134
0.209523
0.272468
-0.627396
-0.194849
0.283495
-0.173933
0.302826
-0.490222
0.593574
-0.265676
-0.361663
-0.145784
0.459714
-0.298476
-0.163467
-0.316772
0.232135
0.086988
-0.710399
-0.348709
-0.934537
0.607371
-0.115502
0.470200
-0.103946
-0.808911
0.330349
0.230306
-0.723770
0.035629
-1.050431
-0.752449
0.709522
-0.596772
0.367189
0.451936
-0.045273
-0.614819
-0.429221
0.236382
-0.577625
-0.128009
-0.626852
0.107063
-0.072584
0.267393
-0.295403
-0.627143
-0.653745
0.077553
0.472228
-0.624969
-0.199221
0.390133
0.185219
-0.386645
-0.131918
0.034264
-0.378897
0.139126
0.110030
0.559691
0.069414
0.545817
0.421541
-0.330067
-0.279862
0.563559
0.259230
-0.901959
0.328170
0.189448
0.492042
-0.235778
0.458324
0.605027
-0.436864
-0.188899
0.233996
0.194342
-0.155674
0.396595
-0.671206
-0.002605
0.300292
0.668233
0.593766
-0.783236
-0.723499
-0.598528
-0.081651
0.008567
0.627900
0.231620
-0.551360
-0.331551
-0.242775
0.247695
-0.015457
-0.032848
-0.314804
-0.019295
0.368936
-0.465827
-0.579421
-0.330336
-0.209363
-0.155208
0.573201
0.502322
0.210480
0.482556
0.460162
-0.244507
0.489457
-0.426263
-0.262455
0.457205
0.068607
-0.130792
-0.094036
-0.287866
0.155320
0.787116
0.358933
-0.343085
0.076109
-0.242551
0.231238
-0.129342
-0.390790
-0.360960
-0.052866
-0.584473
-0.043302
0.028060
-0.260248
0.469251
0.414653
-0.368833
-0.067440
0.122461
-0.388553
-0.090100
0.164616
-0.039848
0.414313
-0.220561
-0.366105
-0.314578
0.143831
-0.800209
0.740896
-0.266852
0.065063
0.163874
-0.008950
0.001233
-0.153514
0.254923
-0.493645
0.268326
0.144708
-0.400726
0.057866
0.239391
0.206234
0.090012
-0.412797
0.297536
0.469539
0.802636
0.329215
0.340306
0.184753
-0.550793
-0.408622
0.262048
-0.328603
-0.318306
-0.515124
0.239149
0.650961
0.719919
-0.140059
0.439144
0.265938
0.160620
0.658172
0.140829
-0.309452
-0.469423
0.589763
0.219435
0.567505
0.078714
0.025571
0.387130
1.052059
0.573796
0.027435
0.279201
-0.257537
0.081011
-0.063872
-0.490980
0.123931
0.295973
0.330311
-0.176545
-0.209917
-0.034400
-0.286115
0.019788
-0.207128
0.516226
-0.362698
0.329080
0.206202
0.404167
-0.280538
0.105468
-0.794302
0.495456
-0.595971
-0.736634
-0.076476
0.387507
0.009029
-0.221895
-0.484875
-0.133829
-0.261086
0.361789
0.161729
-0.390909
-0.367187
0.357864
0.634320
-0.047670
0.805688
-0.182899
0.088002
0.328608
0.459872
-0.182737
0.174261
-1.017308
0.048375
-0.608563
0.596186
0.690100
0.446006
-0.061072
0.206574
-0.374217
0.729970
0.674262
0.752364
0.274084
0.559960
0.085105
0.009691
1.134233
-0.742875
-0.242045
-0.044708
0.318155
0.174429
0.526657
0.678083
0.001601
-0.217594
-0.410864
0.333754
0.362548
-0.058311
-0.028629
-0.256653
-0.582926
-0.026179
0.706721
-0.461162
0.216912
0.856735
0.174425
-0.462056
0.162966
-0.366470
0.015510
-0.073878
-0.108001
0.197056
0.184924
0.408662
0.165725
-0.527293
-0.273653
-0.281069
-0.129052
-0.398929
-0.405392
0.009127
0.436961
-0.355877
-0.762359
0.201141
0.100632
-0.012338
0.303093
-0.071260
0.549189
-0.376055
-0.535818
0.032407
0.108260
0.114292
0.273388
-0.797140
-0.371706
0.424181
-0.254030
0.552393
0.005892
0.456800
-0.351815
0.890899
-0.203862
0.209276
0.293837
0.018700
-0.164455
0.150711
-0.233994
-0.335712
-0.038298
0.150975
0.094280
0.217005
-0.146581
-0.892565
0.366688
-0.144774
0.243659
0.573001
-0.674614
0.225391
-0.263681
-0.100252
0.665487
0.109796
-0.118934
0.851775
-0.041532
0.136203
0.213836
-0.301752
-0.208914
0.345779
0.216914
0.093553
0.093998
0.283652
-0.137136
-0.070315
-0.091278
-0.083996
-0.614116
0.584164
0.136560
-0.589616
-0.196979
-0.425180
0.868797
0.315543
0.529181
-0.197827
-0.373809
-0.543116
-0.500902
0.158913
-0.514286
0.042475
0.302392
-0.618783
0.012679
0.389782
0.777945
0.025682
-0.198301
0.850982
-0.460810
0.071486
-0.507240
0.212249
0.573063
-0.024041
0.101516
-0.190746
0.339716
-0.250569
0.654010
-0.557015
-0.279690
-0.216642
0.369792
-0.101939
0.077369
-0.266488
-0.911791
-0.159158
0.274636
-0.080797
-0.149107
0.040612
0.159062
0.017514
0.258775
0.642059
0.624542
0.294234
-0.602210
-0.110110
0.244963
-0.657022
0.047575
-0.324063
-0.084940
0.048037
0.235780
-0.568977
-0.087310
-0.374719
-0.805038
1.108350
0.117012
-0.321144
0.640352
0.255263
-0.026383
-0.232528
-0.722638
-0.325741
-0.452228
0.116198
-0.324221
-0.384069
0.724327
0.305126
-0.043170
0.125894
-0.054019
-0.079961
-0.254874
-0.558842
-0.441199
0.281990
0.516200
-0.005431
0.517518
0.171468
-0.406609
0.369193
-0.420671
-0.557268
-0.117985
0.217755
-0.258173
-0.422123
0.340306
-0.148645
0.097708
0.048010
-0.291339
-0.640527
0.506080
0.339202
-0.245916
0.227611
-0.304023
-0.255088
-0.651643
-0.333187
-0.022875
-0.512793
0.459695
0.329985
0.401158
-0.086669
0.870563
-0.034854
0.254597
-0.516156
-0.582369
-0.142713
1.012748
0.269412
-0.190824
-0.412302
-0.712695
0.096391
0.328590
-0.784384
0.149819
-0.472705
-0.482005
-0.544278
-0.184179
0.429587
-0.160050
-0.349640
0.234818
-0.367292
0.844947
-0.066982
0.366810
0.099773
-0.198201
0.279450
-0.136500
0.111801
-0.292788
-0.390503
-0.084210
-0.397416
0.053673
-0.306358
0.486357
0.077752
-0.229306
0.012465
0.353421
0.377604
-0.055393
-0.225595
-0.261323
-0.418529
0.356304
-0.141447
-0.147198
0.098110
0.568518
-0.465750
0.808081
0.315074
-0.431256
0.414953
0.278615
0.124601
-0.149111
0.674262
0.298483
-0.737328
-0.344213
-0.400269
0.508565
-0.639695
-0.733095
0.070466
0.145409
-0.763032
0.137399
-0.448283
0.404522
0.589879
0.161223
0.079151
-0.699932
0.394575
0.048177
-0.911228
-0.125250
-0.163280
0.244909
-0.073693
0.345910
-0.555583
0.058638
-1.160306
-0.164348
0.028739
-0.428776
0.571470
-0.532777
-0.393479
0.703266
0.520471
-0.372248
-0.213889
-0.115497
0.398076
-0.070489
0.152505
0.409088
-0.095884
0.370996
0.050044
0.046615
0.350553
-0.704172
-0.286885
-0.246888
-0.269979
-0.005427
0.610148
0.151566
0.286998
0.404641
-0.696061
0.502426
1.113695
-0.089288
-0.104191
0.263034
0.906662
-0.279494
-0.270303
-0.442123
0.352842
0.156341
-0.389973
0.130479
1.505367
-0.431311
0.336316
-0.842581
0.662469
0.372141
0.155025
-0.509974
0.064619
-0.037720
-0.494757
0.322804
0.163026
0.097263
-0.098068
0.399674
-0.050819
0.311466
0.500083
0.307152
-0.252366
0.165260
0.853363
-0.210901
-0.781365
-0.542548
-0.792394
0.055204
0.468394
0.110691
0.398669
-0.099804
-0.257756
0.290775
0.148586
-0.554191
-0.423029
-0.216778
-0.359350
0.018427
-0.594763
-0.282758
-0.115530
-0.017178
-0.640373
0.452437
-0.378561
-0.952120
0.582375
-0.361828
0.256932
0.100099
0.682958
0.371945
-0.377509
-0.430760
0.084056
0.892683
-0.525079
0.092234
-0.030724
0.645555
0.366140
0.083478
0.010968
-0.070524
0.184407
0.172744
-0.924251
-0.434595
0.412945
0.346841
-0.667823
-0.199829
-0.137389
-0.857210
-0.055264
-0.231421
-0.073511
-0.297293
-0.158599
-0.080416
-0.173610
-0.261334
-0.309409
0.747335
-0.099020
0.488693
-0.180985
-0.829732
-0.748760
0.251756
-0.177749
-0.404033
0.654628
-0.407457
-0.055022
0.555156
-0.124038
-0.095308
-0.290016
0.012029
0.027766
0.200759
-0.177858
-0.046186
-0.255122
0.539441
-0.062593
0.077905
0.098134
-0.367295
0.281100
-0.060796
0.196044
-0.437409
-0.301905
0.503831
-0.397937
-0.614290
0.154324
0.051092
-0.172510
0.171749
0.440364
0.335159
0.116114
0.160357
-0.340201
-0.123046
0.549315
-0.078409
0.282980
0.191351
0.530563
-0.034617
-0.418114
0.128859
-0.395557
0.873782
-0.272979
0.537741
0.158301
0.101798
0.075977
0.155731
0.136406
-0.801323
0.076388
-0.746409
0.028550
0.133598
0.650425
-0.298463
-0.182940
-0.152746
0.128725
-0.078798
-0.538988
-0.658474
0.097126
0.145927
-0.303738
-0.030965
-0.107736
-0.356262
0.370556
-0.034870
0.546740
-0.433556
0.409390
0.000936
0.691285
0.344903
0.607971
-0.453127
-0.605871
0.377631
-0.586138
0.567992
0.358143
0.303173
0.218770
-0.165849
0.185020
0.197414
-0.440170
0.557180
0.016090
-0.316333
-0.136379
0.103897
-0.271640
0.300113
0.115266
0.303540
0.050098
-0.146962
-0.165161
0.062133
-0.912548
0.069494
0.131291
-0.219506
-0.061982
-0.452787
-0.138042
-0.272322
0.131645
0.098773
0.531143
0.218976
-0.318405
0.458172
-0.030100
-0.125322
-0.092926
-0.342400
0.021785
0.051540
0.424454
-0.041121
0.001576
0.360287
-0.180143
-0.345296
-0.399071
0.702949
-0.209368
0.064887
-0.018950
-0.284224
0.484027
-0.007913
-0.088119
-0.154306
0.008134
-0.530995
-0.280569
0.476559
0.187434
-0.285276
-0.317019
0.621216
-0.587567
-0.274911
0.033404
0.384390
0.182583
-0.651183
0.110535
0.056301
0.384741
-0.307936
0.358048
0.258848
0.202312
0.102279
0.242807
0.243771
-0.587084
-0.341142
0.497048
-0.102788
0.048275
0.373194
0.019456
-0.348733
-0.207372
0.014812
0.232800
0.187508
-0.090205
-0.459338
-0.039749
-0.532286
0.495005
0.078349
0.671710
0.352272
-0.259819
-0.293628
-0.040119
0.104721
0.275107
-0.151845
0.533682
0.399252
0.291616
0.391586
-0.356007
-0.228632
0.623091
-0.089919
-0.252988
-0.059993
-0.618243
0.018176
-0.102133
-0.811287
0.241416
-0.375410
0.154666
-0.164524
-0.020913
0.388359
-0.202883
-0.219365
-0.457621
0.267594
-0.013867
-0.110182
0.473154
-0.000010
-0.199270
0.428080
-0.214445
0.431330
0.227574
0.252023
0.424850
-0.102531
-0.360203
0.016638
0.689571
-0.253135
-0.108678
-0.416436
0.294476
-0.043554
0.046049
0.449522
-0.042076
-0.166293
-0.237967
-0.489809
-0.196699
-0.307049
0.232964
-0.006684
0.423782
-0.314787
-0.309771
-0.383426
-0.409717
-0.477086
-0.346950
-0.382406
0.252348
0.681452
0.005042
0.164841
-0.339945
-0.348673
-0.202667
0.687784
0.419799
0.077811
0.747196
0.570118
0.621195
0.168578
0.426002
-0.412705
-0.141139
-0.070463
-0.724638
-0.453277
0.151841
-0.402595
-0.040189
0.106718
0.561806
-0.425453
0.385754
0.095444
-0.185804
0.000910
-0.451770
-0.139170
-0.398717
-0.267867
0.332540
-0.130459
-0.259746
0.006505
-0.167045
0.109288
0.101911
-0.476496
-0.340981
0.374396
0.106003
-0.469189
-0.732059
0.131597
-0.176579
0.284998
0.186041
-0.205124
0.474085
-0.380632
0.967132
0.106311
0.199054
0.203547
-0.002448
0.704773
0.185422
-0.559838
-0.924931
-0.150671
-0.574206
-0.064433
-0.263010
-0.616888
0.042464
0.722347
0.331379
-0.479446
-0.729414
-0.140952
0.397450
-0.081580
-0.704715
0.424079
0.178042
0.043632
-0.345693
0.434590
-0.280357
-0.416056
-0.102790
-0.543675
0.362587
0.311023
0.092577
0.148953
-0.487035
0.008132
-0.286735
-0.692021
0.162513
0.546347
0.516379
0.012411
-0.093493
0.572301
0.327112
-0.206047
-0.550856
-0.211775
-0.092622
-0.061744
-0.136350
-0.044061
0.915042
-0.109830
0.366162
-0.081881
-0.215573
0.405417
0.551845
-0.004429
0.294384
0.484267
0.551340
-0.247862
-0.218685
-0.361933
0.013291
0.171447
0.607638
-0.547990
-0.230730
0.991589
-0.282793
0.062398
0.258934
-0.010860
0.537478
0.088600
0.027015
0.444041
0.029480
-0.515339
-0.833176
-0.638409
0.241481
0.280548
0.206846
0.353591
-0.086205
-0.563670
-0.208541
0.279051
-0.170018
0.792766
0.433016
0.070602
0.971224
-0.125052
-0.314405
0.464229
-0.123013
-0.114915
0.231403
-0.221989
-0.390117
0.470345
-0.654625
0.001773
0.889175
0.894045
-0.331430
-0.010293
-0.144075
-0.310587
-0.226509
0.235556
-0.041043
-0.055054
-0.374462
-0.170076
0.207936
-0.697700
0.198619
0.176506
0.094415
-0.228466
-0.229916
0.017739
-0.189142
-0.246954
-0.692075
0.007769
-0.124426
-0.488272
-0.056285
0.023729
0.214979
-0.013074
-0.033354
0.926492
0.353964
-0.353610
0.025869
0.399908
-0.846168
0.254686
-0.245212
-0.631697
-0.835088
-1.205398
-0.279942
-0.958100
0.627742
-0.616986
0.301576
-0.394612
0.379692
-0.666890
0.340357
-0.694046
0.239877
0.027131
-0.051342
0.176670
0.099569
0.202474
-0.153628
0.261931
0.167259
0.056756
-1.039155
-0.211220
0.119743
0.599678
0.019237
-0.084354
-0.209457
-0.443710
0.346501
-0.514193
0.169283
0.440694
-0.238306
-0.444872
0.056000
-0.400870
0.267929
0.537749
0.518274
-0.276840
-0.444340
-0.150694
-0.552852
-0.208802
0.272634
0.035387
-0.317849
-0.188142
0.310747
0.641655
0.176384
-0.185449
-0.615547
-0.124791
-0.134792
0.884161
0.187418
-0.127707
-0.017163
0.114189
0.329607
-0.000214
-0.020479
0.031823
0.661026
0.649740
0.190885
-0.631378
0.313683
-0.111848
0.445693
0.366762
-0.219355
-0.711994
0.370533
-0.445551
0.427706
0.088726
-0.227669
0.338211
-0.006775
0.570701
0.539276
-0.499425
-0.964455
-0.115731
0.808860
0.021580
-0.117990
0.128510
-0.454988
-0.161234
0.315960
-0.305468
-0.115642
0.426790
-0.349300
-0.761497
0.223753
1.144804
0.475855
0.342894
-0.107741
0.648439
0.239102
-0.276150
0.149520
0.503245
0.672466
0.051816
0.201575
0.000649
0.245786
0.056186
-0.376988
-0.183882
0.616566
-0.150990
-0.556012
-0.142876
0.558852
-0.837846
-0.034782
0.506292
-0.416313
0.491653
-0.147014
-0.635599
-0.455186
-0.293037
-0.074924
-0.705644
0.184850
-0.121286
-0.533903
0.498856
0.612661
-0.579996
0.100022
-0.172053
-0.098008
-0.146842
0.689399
-0.191599
-0.611741
0.297865
0.179370
-0.550487
-0.421759
0.080406
-0.137706
-0.008228
-0.189802
0.139873
-0.846528
-0.472360
0.069218
-0.222112
-0.010014
-0.307612
0.142849
-0.538324
0.244174
0.227110
-0.471642
-0.272369
-0.529951
-0.168196
-0.183473
-0.452852
-0.266142
0.297275
-0.633839
-0.096477
-0.471459
0.206553
0.761886
-0.393441
-0.221681
-0.417227
0.097171
-0.470021
0.204843
-0.209818
0.171649
0.437220
-0.131929
0.203088
0.442883
0.225939
-0.409279
0.441214
0.236083
-0.144545
0.405299
0.689083
0.151018
-0.126908
-0.051868
0.161126
-0.182790
-0.172090
-0.472102
0.051532
0.441398
0.399312
0.296379
0.119878
0.391334
-0.222001
-0.503769
0.028265
0.372129
0.525380
0.375854
-0.106995
-0.624492
0.296461
1.185578
-0.237663
0.194883
-0.803934
0.512070
-0.024657
-0.116501
-0.248578
0.285847
0.055338
-0.639818
-0.787492
0.333268
-0.160664
0.455076
-0.017138
0.602217
0.506204
0.279729
-0.080802
0.077356
-0.268432
0.070456
-0.103568
-0.920603
-0.500479
-0.391530
-0.206308
-0.004880
0.317489
-0.296600
-0.313296
0.231777
0.346361
0.001812
-0.808054
-0.300755
0.559815
0.197210
0.047219
0.021041
-0.602360
-0.072970
-0.236738
-0.687839
-0.760368
-0.226097
0.187127
1.172176
0.037537
-0.245259
0.643992
0.195790
-0.718242
-0.652431
0.158616
0.081672
-0.072809
0.570565
0.346818
0.665460
0.217444
-0.074004
-0.092854
-0.162664
0.124377
0.397004
-0.210012
-0.399562
0.150578
-0.493659
0.248567
0.560315
-0.430156
-0.282395
1.081784
0.837574
0.801082
0.164550
-0.698492
-0.082551
-0.003998
-0.037978
-0.223851
0.014445
0.177003
-0.454555
-0.725571
-0.229620
-0.217249
0.668417
-0.422585
0.383492
-0.155981
0.036602
-0.486536
0.203148
-0.239878
0.479800
0.024209
0.333041
-0.326475
0.191341
0.336273
0.059479
0.612552
0.171534
0.295634
-0.237272
0.592502
-0.494977
0.531534
0.275053
0.388348
-0.266767
-0.687804
0.501935
-0.128506
-0.202284
0.590574
-0.649617
0.053230
-0.353802
0.153225
0.043699
-0.463917
-0.440218
0.452352
0.010271
0.276959
-0.084148
0.068234
-0.074053
-0.190716
-0.266562
-0.956128
0.184819
0.068650
-0.129521
-0.053813
-0.256153
0.084932
0.559535
-0.189108
-0.170998
-0.629943
-0.380933
0.561796
0.425799
-0.331926
0.439817
0.258138
-1.203980
0.022400
-0.037063
0.056214
0.052350
-0.408693
0.153076
-0.293993
-0.462856
-0.507734
-0.748177
0.352971
0.003162
-0.021778
0.690448
-0.306837
-0.263623
-0.744302
0.877867
-0.102685
0.023060
0.025549
0.269424
-0.106897
0.362020
-0.510562
-0.485785
0.270815
-0.354239
-0.013075
0.609810
-0.001431
-0.341837
0.049528
0.685808
-0.076525
-0.153093
0.117041
-0.110087
-0.160085
-0.693230
-0.709511
0.036129
0.425659
-0.046883
0.170231
-0.935773
-0.538958
0.098667
-0.240165
0.329146
1.095916
-0.391465
0.200927
0.715586
0.685308
0.243851
-0.580600
0.482682
0.096555
0.160024
-0.506272
1.224336
0.002141
-0.101252
-0.203432
0.409797
0.163802
0.126163
0.157678
-0.327779
0.371945
-0.297390
-0.251609
-0.085702
-0.122695
0.286249
0.658880
0.125473
1.006773
-0.212072
0.438213
-0.095969
-0.808651
-0.059976
-0.348347
0.026730
-0.085637
0.081921
0.483923
0.278029
0.015510
0.199011
0.554756
0.360109
-0.191255
-0.123780
-0.208309
-0.482470
0.659892
-0.445382
0.375675
-0.910348
0.709017
0.163063
-0.150667
-0.241096
-0.416876
-0.121157
-0.553860
-0.007952
0.170198
-0.562537
0.061402
0.095094
-0.128750
-0.082131
0.594697
-0.474301
-0.893902
-0.353124
0.012081
-0.421911
-0.127745
-0.531028
-0.340725
0.443457
-1.004851
-0.091301
0.098004
-0.274856
0.526827
0.633767
0.352134
0.501252
-0.226332
0.191336
-0.338784
0.532439
-0.010422
-0.510377
-0.168339
0.093178
0.448960
0.117522
0.107244
-0.311655
0.328823
-0.074338
-0.780244
-0.075244
-0.204842
-0.648368
-0.173543
0.633688
0.085408
0.156710
-0.682985
-0.042257
0.050844
-0.000905
-0.404149
0.607650
0.033248
-0.013852
-0.244683
-0.009000
0.386143
0.283233
0.389353
0.612867
-0.213953
-0.141667
0.845585
-0.016910
0.368319
-0.372624
-0.074311
-0.132662
0.642054
-0.110558
0.196211
-0.021031
0.137197
0.134755
0.490918
0.007964
0.632518
-0.285262
0.270448
0.073438
0.103622
-0.305605
0.419919
-0.406103
-0.361738
-0.223557
0.321898
-0.307351
0.192368
-0.173436
-0.310139
0.115618
-0.170790
-0.430977
-0.485575
-0.107253
0.125097
0.367289
-0.182404
0.293328
0.234024
0.237049
0.372697
-0.670520
-0.191744
-0.142049
0.053421
0.945735
-0.048579
-0.641059
0.132291
0.644556
0.421351
0.457203
0.661107
-0.211297
-0.700775
0.099103
-0.728290
0.442308
1.007946
0.828935
0.029678
0.474397
0.392160
0.507047
-0.370724
0.380609
0.067383
-0.360569
-0.149993
0.263319
0.306056
-0.289855
-0.206398
0.291987
-0.025578
-0.048585
0.537963
-0.495210
-0.176785
-0.087607
0.766105
-0.415683
0.223346
-0.002631
0.014265
0.467992
-0.281876
-0.080407
0.295449
0.245185
0.182164
0.094873
0.082740
0.331669
-0.428915
-0.503709
0.506733
-0.780982
0.525259
0.733366
0.361112
0.384309
-0.820888
0.045192
-0.255147
0.861282
-0.197142
-0.345043
-0.784092
0.551795
0.215051
0.290849
0.723928
-0.334741
-0.426205
-1.060771
-0.400366
-0.065665
0.240391
-0.078871
0.264350
-0.168624
0.332072
0.537894
-0.254007
-0.141047
-0.023311
-0.396815
-0.214472
-0.350169
0.031653
-0.853616
-0.504516
0.665216
0.108547
-0.140556
-0.174503
0.122170
-0.235833
0.279003
-0.267214
0.528021
-0.153586
-0.095234
0.081280
0.309450
-0.393277
-0.186202
-0.560435
0.262985
-0.195535
0.075827
-0.112060
0.564839
0.070140
0.318567
-0.536643
0.115227
1.015277
0.326676
-0.365790
-0.752536
-0.436736
-0.161923
-0.138152
-0.363523
0.079244
0.192424
-0.259317
0.356249
-0.421693
0.123866
-0.359163
0.810455
-0.368826
0.100927
-0.013943
0.784462
0.119650
-0.043223
-0.571285
-0.333277
-0.382468
-0.255564
-0.021110
0.469278
0.171964
-0.163090
0.321328
0.583084
-0.366885
-0.550643
0.138688
0.065510
-0.176549
0.624567
0.189214
-0.577133
0.662824
-0.102161
0.581082
0.020105
-0.457174
0.063962
-0.141460
-0.023620
-0.668877
0.576764
0.468105
0.370221
0.688782
1.024243
0.092780
0.730291
1.069508
-0.486278
0.046150
0.135228
0.226590
0.214942
-0.150988
0.384251
0.283109
-0.164786
0.335790
-0.753260
-0.462409
-0.529972
0.840268
0.277842
0.398182
-0.487571
-0.000449
-0.217794
-0.000245
0.247131
-0.161165
0.390683
0.236469
-0.142217
-0.155182
0.664517
0.553711
0.069934
0.020393
0.286201
0.530480
0.065614
-0.136806
-0.018964
-0.216015
0.131690
0.245065
0.211785
0.024908
-0.024075
-0.170238
0.133667
0.006045
1.019246
0.879195
0.457825
-0.289307
-0.346344
-0.286812
0.089223
0.023276
0.851991
0.108424
-0.915825
-0.716217
0.312505
0.037486
-0.822177
-0.644012
-0.215424
-0.011293
0.042854
-0.592708
-0.188533
0.100024
-0.268317
-0.062790
-0.232035
-0.111774
0.041334
-0.296147
0.165934
-0.284232
0.540035
0.024827
0.111295
-0.067958
-0.091978
-0.330117
-0.177041
-0.074463
-0.607727
-0.457305
0.345278
0.166354
-0.229638
-0.126634
0.170957
0.152980
-0.456934
0.376262
-0.395379
-0.717369
-0.598744
-0.319880
-0.561370
-0.576592
0.731291
-0.241458
-0.469604
-0.208539
-0.449604
-0.123016
0.125148
0.799196
0.401313
-0.058563
0.426162
-0.152532
-0.298690
0.357597
0.306205
-0.418326
-0.253127
-0.740123
0.176435
-0.033089
-0.373640
-0.392596
0.196585
-0.433385
-0.667856
-0.020027
-0.274531
0.121655
0.258075
0.406946
0.292005
0.172505
-0.603885
0.011221
-0.134159
-0.712044
0.086775
0.504451
-0.200795
0.020310
0.023692
-0.678479
0.500056
0.491835
-0.284235
-0.094167
-0.060058
0.409297
0.097868
-0.730006
-0.390502
0.153323
-0.919231
0.332639
-0.322408
-0.015179
-0.407904
0.624108
0.289481
-0.211826
-1.010540
0.093955
-0.272754
-0.642683
0.738255
-0.236105
-0.095954
-0.398050
0.349586
-0.838205
-0.116654
-0.061274
0.328266
-0.130486
0.150662
0.477773
0.520021
-0.020399
0.584285
0.037331
-0.418914
-0.017458
0.365251
-0.969428
-0.407711
-0.134952
0.171095
0.468656
-0.114047
-0.374259
0.484846
-0.123666
-0.548432
0.132943
-0.650114
-0.561579
0.693280
0.441051
0.258209
-0.455162
-0.211147
0.264295
-0.109691
0.387966
0.490054
0.366351
0.649748
0.237750
-0.100162
-0.064894
-0.161143
-0.069159
0.436968
-0.034659
0.034175
-0.425111
0.461972
0.292120
-0.330507
-0.388700
-0.352918
0.602238
-0.271208
0.385050
-0.259606
-0.794434
1.157781
-0.161693
-0.016603
0.219700
0.740122
0.517084
-0.510679
0.469305
0.156396
-0.206685
0.425071
-0.858474
-0.435908
0.319867
-0.147207
-0.357037
0.285460
-0.127512
0.328683
0.570084
-0.943931
-0.186350
0.237814
0.509661
-0.670548
-0.234564
-0.248466
0.319980
-0.662413
0.506922
0.020422
-0.273175
-0.299480
-0.698714
0.080931
-0.138102
-0.348935
-0.812751
-0.734171
-0.553922
-0.091706
0.172668
-0.207357
-0.271763
-0.263044
0.006543
0.289249
-0.001303
-0.335070
-0.718964
-0.484838
-0.514452
-0.542339
0.027374
0.544148
0.189633
-0.008473
0.323875
0.903883
0.421445
-0.376463
-0.387639
0.357425
-0.066959
-0.405966
-0.589353
0.219734
0.583997
0.058677
0.155221
-0.719395
0.342199
0.676383
-0.781323
-0.036721
-0.722067
-0.240848
0.221156
0.186085
-0.319588
-0.378816
-0.148851
-0.405177
0.202369
0.360167
0.274117
-0.298862
0.574259
0.218306
-0.478207
0.505968
-0.299231
-0.105319
0.209068
-0.951843
0.163752
-0.161443
0.437906
-0.081674
0.053288
-0.319469
-0.711400
-0.350322
-0.128773
0.239226
0.417130
0.646513
0.193977
0.301515
-0.505150
-0.248669
0.089222
0.099093
0.056795
0.135076
0.045088
-0.113449
0.213447
-0.305132
0.346905
-0.225663
0.634008
0.017961
-0.638161
-0.003221
-0.020686
0.193566
-0.574178
-0.271321
0.112349
-0.062018
0.060908
0.273968
-0.295361
-0.287103
0.542475
-0.097303
0.474545
-0.120235
-0.522014
0.290239
0.959013
-0.609627
-0.093050
0.360289
-0.794903
0.855180
-0.105089
-0.020384
0.213886
0.731966
-0.601376
0.005243
0.164915
-0.017121
0.540445
-0.493662
0.243607
-0.043629
-0.252149
-0.580024
0.189509
0.409112
-0.294001
-0.194476
0.950438
0.276607
0.271336
0.607845
0.588918
0.106025
0.374175
0.607356
-0.498670
-0.483722
0.343034
-0.071497
0.186551
-0.078857
0.167223
0.224567
0.355942
0.297197
0.324710
-0.099448
-0.598283
-0.916431
-0.039986
-0.232426
-0.115259
0.062410
0.499807
-0.821684
-0.635367
0.411767
0.006409
1.091411
-0.257467
-0.292068
-0.210392
0.266914
0.136229
-0.885749
-0.210321
-0.466487
0.558710
0.054720
0.228421
-0.151673
0.040730
-0.227865
1.039618
-0.176014
0.417938
-0.127791
-0.713138
0.309806
0.363151
0.066988
0.213945
-0.048202
-0.383691
-0.492015
-0.727607
0.346735
0.357357
-0.014939
-0.314485
0.595056
0.209128
0.746460
0.468202
0.567930
-0.158159
0.134581
-0.645976
-0.002893
-0.094524
-0.272564
-0.090285
-0.570354
-0.065988
-0.110598
-0.834906
0.143502
-0.504150
-0.309129
-0.671737
-0.101424
0.427075
0.552087
-0.273537
0.464369
-0.513359
-0.029220
-0.311064
-0.134678
-0.427402
0.539089
0.397742
0.133582
-0.492927
0.176300
-0.588895
-1.211198
0.705557
-0.230032
0.275427
0.688884
-0.540835
0.021146
0.655945
0.013517
0.339110
0.197008
0.139481
-0.445060
0.365854
-0.403290
-0.003295
-0.152644
0.911445
-0.634644
-0.074396
0.129411
0.257935
-0.036992
0.021355
-0.153662
0.473561
0.253012
0.465944
-0.769627
0.059054
-0.360559
-0.155083
-0.227885
0.150059
-0.172388
-0.652264
-0.354851
0.220257
0.202470
-0.131992
-0.820466
0.183185
-0.731529
-0.348603
0.249196
-0.358876
-0.071793
0.492310
-0.014292
-0.063749
-0.115524
-0.571141
-0.492316
1.047552
-0.089237
-0.361636
0.048637
0.636271
0.171244
-0.322387
-0.095818
-0.278030
0.082552
0.721473
0.655744
-0.319067
-0.046796
0.106619
0.265945
0.506587
0.756885
-0.627244
-0.319759
0.124698
-0.244710
0.307565
-0.458088
-0.252553
-0.355056
-0.274288
0.112098
0.319427
0.199824
-0.346487
1.129852
0.130660
-0.081635
-0.660559
-0.108234
0.388825
-0.113812
0.403576
0.189231
0.301048
0.475362
0.196263
-0.572584
-0.026569
-1.040128
-0.222004
0.186348
0.606889
-0.763706
-0.388359
-0.346635
1.001481
-0.565165
-0.552513
-0.182790
0.286919
-0.460789
-0.023151
-0.092092
-0.038163
-0.232901
-0.289472
-0.038233
0.014941
0.018968
-0.191994
-0.585263
0.246495
0.727904
-0.072340
-0.574231
-0.142490
0.184315
-0.145512
-0.213240
-0.042716
-0.145479
-0.028557
1.612798
-0.268834
0.386038
0.414029
0.134903
0.212766
-0.417490
0.442440
-0.116236
0.820473
0.229333
-0.729355
-0.133582
0.640703
-0.260810
-0.003831
-0.654319
-0.201559
-0.604598
0.761790
0.229794
-0.173931
-0.270745
0.322500
0.081193
-0.449483
0.420069
0.417045
-0.697910
-0.183310
-0.064170
0.039954
-0.147063
-0.291767
-0.250027
0.180869
0.230144
-0.308748
-0.081142
0.318550
0.033508
0.295106
0.232401
0.269042
0.360181
-0.391508
-0.202348
0.205203
-0.549358
-0.879823
0.418917
0.002919
0.109103
0.418747
0.087089
-0.271372
-0.173098
0.191033
-0.373194
-0.301693
-0.259313
-0.231236
-0.152722
-0.520927
0.056525
0.129119
0.196696
0.648077
0.058777
-0.203883
0.013467
0.311352
0.077836
-0.197375
0.069708
-0.324065
-0.623156
-0.144458
0.328767
0.467082
0.249505
0.022220
-0.103838
-0.286885
-0.481426
0.411884
-0.319872
-0.319234
-0.198268
0.068437
0.192030
0.420027
-0.076018
1.065582
0.418728
-0.540148
-0.636259
-0.410854
-0.258538
0.185824
-0.487156
0.236046
0.235488
-0.292106
-0.383563
0.873740
0.691956
-0.470732
0.684212
-0.337312
-0.006538
0.266259
-0.015967
-0.096251
-0.844215
-0.070837
0.030921
0.442114
1.110908
0.418756
0.767921
-0.861316
0.103626
0.269628
-0.428732
-0.523715
0.063235
-0.026088
0.156108
-0.333048
0.086386
0.685767
-0.536821
0.618979
0.008985
-0.342457
-0.480015
-1.035755
-0.063128
-0.492731
0.876813
-0.011910
-0.422863
0.205965
0.275640
0.142857
-0.007313
-0.189180
-0.045074
-0.114565
-0.932088
-0.654242
1.313750
-0.057020
-0.020524
0.409495
-0.448165
-0.116047
-0.467268
0.325128
-0.430421
0.684024
0.143775
-0.272948
-0.132694
0.687194
0.151865
0.077970
1.022481
0.562139
-0.422899
-0.383053
0.294042
-0.190368
0.056164
-0.975848
0.160745
1.340678
0.348779
-0.365349
0.083863
-0.005701
-0.060952
-0.179561
0.710105
-0.597140
0.102018
0.095217
-0.342203
-0.081587
-0.222563
-0.411940
-0.206674
0.150570
0.345621
1.003126
0.553595
0.176947
-0.215614
-0.046852
-0.122990
0.177752
-0.210858
-0.071172
0.671179
0.363472
-0.082555
0.126571
-0.089334
0.562923
0.474188
0.130217
-0.103579
0.173754
0.136214
0.095937
-0.045779
-0.160706
0.381384
0.360244
-0.196809
0.660364
-0.146355
0.227925
-0.196045
-0.655922
0.443300
0.945789
0.977080
-0.909057
-0.442551
-0.286087
-0.161488
0.472147
0.373367
-0.327021
-0.039252
0.125730
0.330822
0.416846
0.099996
-0.057346
0.677766
-0.593019
-0.163565
0.776965
-0.292003
0.004573
-0.275378
0.206129
-0.430742
-0.054700
-2.066251
-0.180891
0.309592
-0.087451
-0.001056
-0.433900
0.449260
-0.003282
0.004583
-0.376647
-0.694622
0.099417
-0.001921
-0.090840
1.344937
0.005516
-0.841167
-0.106620
0.313871
-0.100720
-0.387832
0.233070
-0.143916
-0.029966
-0.648889
0.424082
0.187135
1.236839
-0.584738
0.591174
1.141905
-0.891594
-0.878804
0.050266
-0.061006
-0.171914
0.605200
0.458757
-0.568053
1.013658
1.454337
-0.677875
-0.417549
1.333190
-0.685117
0.610613
-0.505849
1.461499
-1.004818
-1.034193
-3.450772
1.819605
-0.569246
-0.585493
-0.251618
0.864849
-0.938890
-0.719979
-0.533117
-2.424257
-0.179388
0.794690
0.778785
0.518251
2.762787
-0.816424
-2.800078
-0.297267
-0.534715
-0.367315
1.013053
0.546950
-0.120960
0.668544
0.368427
-0.166256
-0.472971
3.036468
-0.148524
0.554229
2.974876
-1.106166
-2.233643
1.633019
-1.995495
1.143791
-0.653739
0.581113
