0.078224
-0.463953
0.035659
0.021253
1.033010
0.171163
0.241140
0.503476
0.433806
0.440767
0.092972
-0.362578
0.047613
-0.123959
0.591941
-0.385735
-0.064200
0.162862
0.216902
-0.428725
-0.220353
0.759242
0.217024
0.612100
0.153046
0.247119
-0.185048
0.141851
0.033302
-0.071191
-0.789961
-0.642444
-0.719146
0.289236
0.483785
-0.943733
0.172527
-0.299825
-0.210458
-0.175141
-0.762374
-0.338193
-0.344347
-0.123793
-0.114783
-0.237824
-0.258975
-0.083644
0.463863
-0.627830
0.566591
0.385379
0.337955
0.147827
-0.321259
-0.445274
-0.357562
0.421531
0.284977
-0.364568
0.260365
0.652224
-0.315359
-0.501302
0.034881
0.859574
0.273629
0.541325
-0.636911
-0.269552
-0.010522
-0.014774
-0.716920
0.630949
0.088715
-0.387866
-0.007411
-0.995790
-0.529419
0.187280
0.502899
0.152025
-0.306525
-0.357801
-0.770221
-0.129065
-0.254515
0.181888
0.277542
-0.363582
-0.161859
-0.012593
0.212585
-0.859829
-0.753579
0.635009
-0.466021
-0.689718
0.642640
0.332737
0.149469
0.038809
-0.485389
0.362793
0.153133
-0.291399
0.710551
0.045641
-0.206259
-0.059076
-0.167286
0.361581
0.050521
0.248665
-0.047204
0.395513
0.003154
0.119560
-0.150395
-0.091895
0.241109
-0.536361
0.068250
0.230263
0.090378
0.273262
-0.142603
-0.234212
0.796798
-0.628732
-0.151607
-0.053617
-0.996850
0.071733
-0.202418
-0.077364
-0.779097
0.389838
-0.035949
-0.056521
-0.923386
0.293316
0.373085
0.576359
0.048201
-0.019160
0.185787
-0.139859
-0.299130
0.098553
-0.248458
-0.175943
-0.102992
0.734934
0.400580
0.262861
0.478247
0.022610
0.171947
-0.761812
0.089684
-0.689625
-0.592214
0.721538
0.060255
0.572669
0.344796
-0.709552
-0.873329
-0.801098
0.457609
-0.086823
-0.375180
-0.365847
0.416411
0.062092
-0.119992
-0.426968
0.123956
0.243829
0.195997
0.245799
0.283636
-0.201962
0.203570
0.030976
-0.139138
0.386297
-0.160803
0.103271
0.297837
-0.228161
-0.411450
-0.013493
0.354983
-0.459489
0.663971
0.017428
-0.060583
-0.695184
-0.217698
0.043774
0.416009
-0.255265
-0.376852
0.462513
-0.618681
0.284301
0.438058
-0.032593
0.323667
-0.026388
0.128438
0.387818
-0.238049
0.346609
-0.286507
0.033146
0.284047
0.489469
0.562888
0.029771
-0.310672
0.618224
-0.427302
0.284813
0.644800
-0.175440
0.385468
0.028618
0.101066
-0.091492
0.264928
-0.199223
-0.290354
0.062533
-0.553623
0.496914
0.183003
0.484888
-0.120860
0.031906
-0.273295
-0.113021
0.187529
0.393629
0.001361
0.659583
0.728989
0.077660
-0.580713
0.046994
-0.100401
-0.094234
0.127506
0.273085
-0.117707
0.066565
-0.349981
0.520339
0.011714
-0.196529
0.404641
-0.015165
-0.021819
0.109109
0.289678
-0.474585
-0.396433
0.588327
0.309499
0.049962
-0.567052
0.353012
0.336382
0.105153
0.052559
0.299764
-0.424118
-0.911777
-0.700626
0.071122
-0.104177
-0.105895
-0.196198
1.017007
-0.665652
0.706941
-0.284938
-0.246045
-0.056228
-0.386313
0.412755
0.846655
0.155831
0.330990
0.077011
0.689081
0.509332
0.280510
-0.503258
-0.017164
0.165768
0.714737
0.222002
-0.029767
0.018957
-0.233863
-0.107321
0.165183
-0.375619
-0.190730
0.247634
0.370838
-0.162582
-0.534558
0.455095
0.478867
0.460346
-0.976048
-0.088877
-0.294735
-0.235010
-0.477973
-0.012907
0.093468
0.207742
-0.318352
-0.101183
0.717357
-0.065576
0.566364
-0.810011
-0.471430
0.111149
-0.020924
0.041788
0.040721
-0.425579
0.331754
0.221947
-0.220102
-0.198483
-0.040269
0.376592
-0.052971
-0.081449
0.025012
-0.251937
0.088024
0.029046
-0.610989
-0.365397
0.285578
-0.501960
0.108702
-0.257587
-0.203057
-0.646676
-0.256740
-0.044772
0.013786
0.290470
-0.097618
-0.343906
0.218389
-0.321634
0.618232
0.089073
0.283297
0.703018
-0.466913
0.305072
0.165411
-0.522249
-0.657925
-0.495394
-0.074929
-0.432795
-0.045955
-0.531674
-0.138374
-0.357285
-0.449075
-0.028501
0.675605
0.215191
0.115750
0.110271
-0.228803
-0.010227
0.452734
0.044368
0.688601
0.414631
0.357917
-0.346515
-0.183584
-0.519046
0.132536
0.018053
0.032816
-0.105795
-0.201784
-0.524141
-0.495437
-0.329561
-0.517798
-0.919777
0.025497
-0.124031
-0.404736
-0.493767
-0.212370
0.567617
0.490990
0.010500
-0.363628
-0.296542
0.487945
-0.552441
0.765590
0.010644
0.357505
0.229803
0.142319
0.445169
0.017313
0.012741
-0.762208
-0.052378
-0.078156
0.345582
-0.737722
1.139036
0.129417
0.378348
-0.530049
0.190320
0.058720
-0.126640
-1.103049
-0.409773
0.708752
0.094364
-0.413993
-0.572160
-0.482925
0.162891
0.000806
-0.170730
-0.329892
-0.128102
-0.013079
-0.308864
-0.273524
0.570073
-0.333957
-0.165697
0.083199
0.461392
0.656465
0.369246
-0.455723
-0.187070
0.143616
0.241818
0.138687
-0.501250
0.013980
0.220147
-0.091510
-0.286736
-0.242549
0.263393
-0.506908
-0.769239
0.051789
-0.073209
0.501472
0.511804
-0.492493
-0.951018
-0.369734
-0.554521
-0.330275
0.566633
-0.048429
0.007813
-0.103710
-0.540161
-0.115259
0.382444
0.440243
-0.176261
0.166545
0.091946
-0.218888
0.508187
-0.326504
0.125327
-0.382932
0.045777
-0.703382
-0.395851
0.341189
0.035806
-0.225197
0.819672
-0.738536
-0.173193
0.513749
-0.067250
-0.170535
0.312182
0.021468
0.619721
-0.713700
-0.371940
-0.350773
-0.488208
-0.181113
0.755981
0.338052
-0.149067
-0.573396
0.035606
-0.588358
0.067470
-0.373758
-0.193909
0.012323
-0.002218
0.139156
0.187199
-0.047395
0.051167
0.747339
0.041802
0.423495
-0.245877
0.646207
-0.055166
0.410134
-0.888716
-0.647280
0.226486
-0.360624
-0.413577
0.575970
0.368509
0.190379
0.222794
-0.232825
-0.073325
-0.271291
-0.469004
-0.372985
-0.104297
0.261527
-0.193844
0.023227
-0.211472
-0.281899
0.112324
0.233322
-0.228695
0.595229
-0.071588
-0.413797
-0.148764
-0.056349
0.180496
0.389865
-0.186873
0.469741
-0.211425
0.075436
-0.585345
-0.060922
0.290696
0.612869
0.235705
-0.318860
-0.044948
-0.405677
0.496788
-0.566310
0.347624
-0.385572
0.022863
-0.290359
0.330802
0.098797
0.083966
-0.407488
-0.269549
0.530850
-0.414440
-0.897744
0.337364
0.240727
0.222936
-0.168992
0.412729
0.696530
0.356372
-0.033640
0.350877
-0.075001
-0.445378
0.016410
0.153057
-0.229212
-0.005714
0.106380
-0.260716
-0.285279
0.341644
-0.429646
0.616258
0.054330
-0.381846
0.075828
0.352167
-0.324737
-0.646045
0.131433
-0.130757
0.249248
-0.444147
-0.591281
-0.997951
-0.074095
0.137421
-0.191804
-0.215054
-0.133783
-0.226083
-0.274309
-0.133308
-0.273213
0.215549
-0.001221
-0.301958
0.253705
0.582379
0.537646
-0.046358
0.091233
-0.182566
0.153453
-0.435025
-0.425221
0.592931
0.150451
-0.677519
-0.058447
-1.090580
-0.274553
-0.212214
-1.260989
-0.618978
-0.244051
0.414591
-0.116424
0.229182
0.017837
0.247809
0.185601
-0.407395
0.405587
-0.657320
-0.017486
-0.312780
-0.305402
0.398333
-0.627209
0.328073
0.116707
0.108011
0.773858
-0.310793
-0.073725
-0.397001
-0.037949
0.439934
0.235866
-0.441040
-0.540292
-0.480611
0.524452
0.081569
-0.161579
-0.182389
0.358088
-0.344152
-0.098081
0.595172
-0.260295
0.171518
-0.000689
0.099658
-0.873192
0.382047
0.083282
0.016005
0.270052
-0.416407
-0.173955
0.542569
-0.076484
0.536544
0.252820
-0.383348
-0.044072
0.595962
0.072628
-0.238767
-0.117516
0.457228
-0.098755
-0.709246
-0.373971
-0.163627
0.152420
0.463430
0.183435
-0.003038
0.348930
0.044230
0.440236
-0.092913
-0.132025
0.609999
0.766190
-0.038334
-0.197976
0.069213
-0.125704
0.235982
0.000776
-0.702873
0.018477
-0.286398
0.430362
0.065028
-0.722048
0.181982
0.312545
0.721361
-0.694600
0.264946
0.531233
0.629947
0.049640
-0.074553
-0.329562
-0.123590
-0.460819
0.324931
-0.089716
-0.329677
0.175293
-0.967044
-0.301321
0.219303
0.131554
-0.194252
-0.244744
-0.102849
0.510614
-0.769059
-0.330554
0.602951
0.368553
0.071400
0.409820
0.272074
1.113212
-0.568548
0.035263
0.260608
0.601377
-0.648859
-0.215841
0.328962
0.135416
0.307111
0.079082
-0.197206
-0.655983
0.141593
0.067638
0.020644
-0.721121
-0.595783
0.610830
-0.334881
0.503217
0.370354
0.637739
0.006690
-0.115648
0.012286
-0.003311
0.153320
0.066339
0.405718
-0.649001
0.198834
-0.475560
0.179107
0.738602
-0.048325
-0.839024
0.198152
1.125374
-0.587232
0.055458
0.203016
-0.822164
-0.507746
-0.017137
-0.696778
0.455656
0.385706
-0.026629
0.315315
0.504814
-0.026531
0.223100
0.049944
-0.258814
-0.085301
0.345242
0.200874
0.450921
-0.083419
0.247632
-0.147125
-0.136372
0.008961
-0.397913
0.050167
0.464923
0.132327
0.131085
0.439094
-0.360244
0.483708
0.712592
-0.758147
0.018526
-0.493224
0.563742
0.019011
-0.397470
-0.733597
0.228818
0.215138
-0.054988
0.121146
0.234966
0.000496
0.252314
0.438832
0.670076
-0.511581
0.616582
0.052527
-0.012272
-0.233202
0.169526
-0.629003
0.320367
-0.100226
-0.306321
-0.090064
0.084353
0.119695
-0.776695
0.466862
-0.050070
0.202062
0.567947
0.240159
0.495497
-0.066774
-0.148682
0.045356
0.396537
-0.252585
0.488812
0.500441
0.586975
0.341596
-1.025920
-0.738878
0.548610
0.469525
0.052452
-0.434235
-0.137046
-0.035112
0.056199
-0.050846
-0.383753
-0.613570
-0.754820
-0.351639
-0.627925
0.143702
-0.106624
-0.113577
0.371683
-0.254907
0.221272
-0.663909
-0.150102
0.110549
-0.173681
0.248851
-0.119095
0.014947
-0.344656
0.453141
0.508760
0.046837
1.050296
-0.071977
-1.083995
0.409824
0.035502
-0.420445
0.144193
0.185701
0.341986
-0.314180
0.071171
-0.427829
0.039701
-0.353263
-0.098570
-0.557758
-0.320843
0.349507
0.143794
0.489241
-0.018704
0.764839
0.498155
-0.084488
-0.181428
-0.689448
0.264287
0.205376
-0.492163
-0.038973
-0.025655
0.242982
-0.447578
-0.223325
-0.209372
-0.820488
0.169069
-0.014618
-0.065106
-0.302697
0.218253
0.004262
-0.084526
-0.147531
0.163166
-0.125792
-0.477724
-0.532220
0.518761
0.280453
-0.225152
0.062897
0.052558
0.388434
-0.541041
0.071527
0.365785
0.479794
-0.235536
0.130156
-0.000636
0.644539
-0.403649
0.365052
0.209511
0.748279
-0.431833
-0.196988
0.569206
0.197666
-1.043739
0.517220
-0.557625
0.031304
-0.157455
-0.129724
0.564937
0.806014
0.076932
0.658253
1.075409
-0.223082
-0.015677
0.030370
0.086166
0.008687
-1.088920
0.470383
0.539070
-0.133036
0.157459
0.492034
-0.133506
-0.836456
-0.464263
-0.155926
-0.501358
-0.119768
0.515669
0.094048
-0.364301
-0.139163
0.935258
-0.054648
-0.553740
-0.486997
-0.089952
-0.511368
0.087130
1.087048
-0.004500
0.396774
0.660155
-0.033159
-0.078767
-0.110357
0.094050
-0.540510
-0.229974
0.316460
0.405268
-0.334550
-0.064504
0.254296
0.247458
-0.199137
-0.521355
0.252439
-0.040859
0.050155
0.207325
0.088270
0.048938
-0.179104
-0.315496
0.469406
0.223478
0.408433
-0.539870
-0.317262
0.235756
0.816714
0.944744
0.093186
-0.234987
-0.267810
-0.199122
-0.416218
-0.416877
-0.648480
-0.085742
-0.352883
0.275939
0.465816
0.626971
1.012371
-0.015098
-0.081599
0.011777
0.208729
-0.204162
0.212959
0.245489
-0.209396
0.178454
0.472174
0.957931
0.781639
-0.199340
-0.654145
0.138982
-0.017878
0.256631
-0.187325
0.195577
0.528484
0.436159
-0.168874
0.162825
0.522119
0.012001
-0.445636
-0.158621
0.194765
0.158659
0.293470
-0.836085
-0.269184
-0.241733
0.414338
0.212160
0.078939
0.217890
0.761323
-0.388062
-0.025332
-0.001694
0.644442
0.692889
-0.042797
-0.211951
0.173468
0.318665
0.322966
-0.176060
-0.634516
-0.121338
0.477548
0.230767
0.696500
0.392969
0.119867
0.288182
-0.063123
0.002230
-0.438653
0.977586
-0.021122
-0.272381
-0.456187
-0.412591
0.247303
-0.039718
0.152932
-0.307735
-0.082880
0.169114
-0.040465
-0.321809
-0.047650
-0.762706
-0.143064
-0.062859
-0.705185
-0.329058
0.186286
-0.186850
-0.320196
-0.889365
0.576242
0.050111
-0.146910
0.297904
-0.257836
-0.292010
0.149908
-0.349866
0.039534
-0.338431
-0.268537
-0.729861
0.284107
-0.538168
0.700185
0.168560
-0.497518
-0.018620
0.187456
-0.101451
0.308956
0.375888
-0.009180
-0.174343
0.400353
0.376180
0.250573
-0.723874
0.238072
0.019933
-0.617946
0.030099
0.344447
-0.992386
-0.459718
0.154186
0.074544
-1.171251
-0.334383
-0.700403
-0.296623
-0.040598
1.026312
0.025364
0.491731
0.618221
0.062490
-0.800436
-0.294326
0.400177
0.242597
-0.691214
-0.018124
-0.098628
-0.535562
-0.388297
0.817777
0.222032
0.027436
1.726897
0.689290
-0.024047
0.588928
0.096868
-0.193451
0.149941
0.244718
0.204978
-0.213407
-0.430392
0.254704
0.779011
-0.273575
0.535142
0.296256
0.106882
0.152687
0.411310
0.737088
0.533315
-0.803730
0.331809
-0.197140
0.112706
0.474752
-0.896731
0.721890
-0.038639
-0.458216
0.624409
-0.135761
-0.301140
0.780439
0.205261
-0.048385
-0.699703
-0.220653
0.070726
0.330452
0.003429
-0.185046
1.184632
0.128102
-0.537484
0.393333
0.595912
-0.570616
-0.026202
-0.045931
-0.152320
0.464420
-0.323069
-0.017094
0.259202
0.501153
0.141167
0.538177
-0.236172
-0.769502
0.196660
0.615077
-0.663366
0.327832
-0.027009
0.152298
0.660139
0.134831
0.153715
0.648892
-0.982058
-0.565760
-0.637234
0.163069
0.114122
0.176482
-1.141933
-0.746639
0.290875
-0.035353
-0.399355
-0.080207
-0.000718
0.053631
0.409175
0.343230
0.619935
-0.119544
0.196852
0.083904
0.189294
-0.272358
-0.311649
0.811345
-0.353092
-0.336794
-0.491032
-0.070370
-0.503505
0.625743
0.044481
-0.574205
-0.472789
-0.442301
-0.263701
-0.162600
0.470104
0.211998
0.250862
0.297387
0.674209
-0.171398
-0.004236
-0.540594
0.857410
0.205838
0.424480
-0.337801
0.393215
-0.270174
-0.241469
0.026854
-0.000876
-0.465690
-0.029056
-0.254160
-0.479337
0.584302
-0.215372
-0.416320
0.307509
-0.439218
-0.218822
-0.222406
0.109540
0.517837
-0.362429
-0.079505
-0.082355
0.680278
0.108988
-0.215194
0.160592
-0.015391
0.091444
-1.025186
-0.351076
0.133731
-0.422960
-0.940238
-0.160244
-0.081898
0.263536
0.526282
-0.035729
-0.041965
-0.189721
0.152790
-0.051427
-0.279344
0.141340
-0.146492
-0.267191
0.558027
0.483342
-0.269140
-0.242829
-0.386968
-0.182583
0.413447
0.276725
0.086169
-0.349206
-0.113621
-0.162084
0.344866
0.056550
-0.022391
-0.361954
-0.140514
-0.323056
-0.024589
0.108859
0.760315
-1.161948
-0.387878
0.211825
0.719148
0.113343
-0.914632
0.071231
-0.246922
-0.207584
-0.220816
-0.072388
-0.796301
-0.917596
-0.034789
-0.261263
-0.187595
-0.522482
0.094266
-0.322073
0.472155
-0.101780
0.397914
-0.195766
-0.477980
-0.430017
-0.415422
-0.735305
-0.110604
0.064780
-0.160031
-0.324860
-0.225582
0.371906
0.039656
0.229641
-0.320625
0.055996
-0.254744
0.008007
-0.350357
-0.026903
-0.555027
-0.382183
-0.463537
0.229659
-0.615275
-0.436649
0.183121
0.210184
-0.005811
-0.620417
-0.783128
-0.291080
-0.568175
-0.526344
-0.758591
0.553625
-0.502184
-0.167070
0.380358
0.670985
-0.005815
-0.846651
-0.038098
-0.223960
-0.057496
0.050204
-0.069196
0.191875
0.458305
-0.288399
-0.091145
0.021419
-0.840735
-0.278816
-0.527230
-0.308186
-0.136510
-0.042331
0.623507
-0.471927
-0.156827
0.223033
-0.403522
-0.308732
0.272652
0.109931
-0.996813
-0.626857
-0.311502
0.323175
0.329573
-0.170405
0.785144
-0.521147
0.299071
-0.130008
-0.258903
0.253312
-0.132449
0.074838
0.205619
-0.273582
-0.137801
0.263423
0.405766
-0.173219
0.386330
0.007978
-0.255403
0.347608
-0.125209
0.707644
-0.414549
0.166009
0.109073
0.610612
-0.521459
0.179906
-0.641805
0.138251
0.698103
0.323323
-0.702276
0.321248
-0.557019
0.354831
-0.626445
0.489780
-0.092354
-0.003029
-0.251623
-0.347823
0.181367
-0.592110
-0.249573
0.374226
-0.541911
-0.256053
-0.046797
-0.086612
0.475958
0.356126
-0.243877
0.715915
-0.591454
0.197247
-0.011009
-0.499365
0.312989
0.470406
0.246599
0.458979
0.440302
-0.019895
-0.622353
0.027091
-0.329834
-0.317115
-0.799639
-0.184053
0.256659
-0.444519
0.003309
-0.197896
-0.420976
-0.288512
0.313060
0.595475
-0.297026
0.173349
-0.004911
-0.429604
0.157093
0.162419
-0.245746
0.491079
0.032996
-1.016447
0.085016
0.129537
-0.163621
-0.542057
0.107860
0.444871
-0.301510
0.358934
0.461937
-0.581004
-0.075713
0.612947
0.266814
0.259333
0.009120
0.177314
-0.279439
0.337475
-0.138981
0.006273
-0.031326
0.083608
-0.301862
-0.464302
-0.381374
-0.255716
-0.065182
0.430055
-0.404429
0.204599
-0.156502
-0.132428
-0.954196
0.366768
0.529473
-0.041908
0.493642
-0.159199
0.544595
0.627377
0.465257
-0.091619
-0.177059
0.205559
-0.174983
-0.673224
-0.430055
-0.338339
-0.695216
0.583216
0.485781
-0.438056
0.000279
0.507757
-0.081397
-0.246512
-0.353480
0.322800
-0.296823
0.055859
-0.373467
-0.100380
0.786051
0.305862
-0.429903
-0.151431
0.217170
-0.043984
-0.096967
-0.033297
0.034883
-0.850119
0.358984
-0.056803
1.068310
-0.429563
-0.221281
-0.435788
0.364494
0.431354
-0.440044
-0.695002
-0.248207
0.095094
0.431008
0.543432
-0.275123
-0.181388
0.296401
0.180648
-0.394867
0.124655
0.107229
-0.422547
-1.316525
-0.046793
-0.222342
0.188977
0.401791
0.102274
0.512194
-0.058315
0.228670
0.000633
-0.163364
-0.310638
-0.060933
-0.553933
0.522194
-0.499645
0.465080
-0.243104
-0.099992
0.150497
0.555115
0.136121
0.140857
-0.262576
-0.336750
-0.111789
0.226667
-0.685177
0.278578
0.572343
0.373677
0.481380
-0.154489
-0.298722
0.254995
-0.241877
0.189746
-0.851588
0.091938
0.108532
-0.032706
0.390726
0.326229
-0.728145
-0.268350
-0.346755
-0.227037
0.198286
0.652858
-0.658991
0.536842
-0.357628
0.026019
0.131867
-0.081349
0.104855
-0.731516
0.645435
0.183437
-0.096204
-0.109294
0.359456
-0.789248
-0.941856
-0.153113
0.118486
0.801097
-0.433728
-0.191102
0.483016
-0.058987
-0.010104
0.029030
-0.363520
0.398414
0.075852
0.371156
0.093375
-0.640571
-0.629649
-0.073770
0.253333
0.128553
0.510704
-0.341774
-0.158991
0.357252
0.141415
-0.029449
-0.271917
0.584899
-0.088987
-0.219403
-0.490182
-0.170431
-0.438413
-0.148871
-0.576956
-0.044490
-0.259164
0.314809
-0.577221
0.708135
0.174811
0.094299
-0.648773
0.499151
0.102878
-0.034808
-0.267706
-0.127784
0.309963
0.666759
-0.054082
0.472663
-0.521099
-0.704341
-0.255627
-0.327738
0.247191
-0.205570
0.493958
-0.404699
0.494706
0.655619
-0.187278
-0.393162
0.537103
0.397477
0.083592
-0.967664
0.564384
-0.342063
-0.784766
0.530586
0.577332
-0.222338
0.191323
-0.751556
0.407382
0.165868
-1.024328
0.281437
0.173319
0.340565
0.020624
0.096074
-0.281605
0.139539
-0.285360
-0.605802
0.098384
0.239045
0.259130
-0.293449
-0.373572
-0.185892
-0.134891
0.307923
-0.441840
0.481688
0.207676
-0.376322
-0.266736
-0.370384
-0.498144
-0.013615
0.259459
-0.055387
0.202170
-0.920507
0.202816
0.186114
-0.089650
-0.516500
-0.911729
0.437821
-0.050291
-0.055050
0.372613
-0.307972
0.134524
0.516411
-0.560028
0.247974
0.170938
-0.530121
0.724340
-0.102384
-0.552798
-0.042262
-0.236230
-0.153002
0.199649
0.043679
0.677582
-0.395343
-0.717114
0.084096
-0.293361
-0.005906
-0.729713
-0.095153
-0.048544
0.221492
-0.024350
0.472770
0.067213
0.249542
0.293076
0.262680
0.261591
0.656758
-0.156078
0.722134
-0.148485
0.831865
-0.080756
-0.082923
-0.059610
0.368431
-0.175606
0.056176
-0.079910
-0.016612
0.005929
-0.967331
0.079450
-0.099401
-0.189610
0.286188
0.811592
0.385171
-0.481646
0.057313
-0.169574
-0.202390
0.457061
-0.395465
-0.782295
0.129905
0.763553
-0.217201
0.526255
-0.431583
-0.818243
-0.476470
-0.568452
-0.139873
0.158379
0.221703
0.216585
-0.076423
-0.184592
-0.371120
-0.409148
0.064630
0.407382
-0.146027
0.299655
-0.099619
0.507516
-0.585606
0.317876
0.981905
-0.203507
-0.229948
-0.904900
-0.461157
-0.577337
0.131990
-0.261684
0.220896
0.061936
-0.100738
-0.677600
-0.024957
-0.281613
-0.038469
0.463731
-0.648244
0.045324
-0.108415
-0.201784
-0.184889
-0.690504
0.786820
-0.125419
-0.214602
-0.892579
-0.339898
0.197792
0.760718
1.213521
-0.364337
0.516861
0.042900
0.227056
0.162677
0.189623
-0.435383
-0.293562
0.103389
-0.402266
0.368980
0.449670
-0.196021
0.054891
-0.840831
-0.465268
0.331281
0.119577
0.396283
-0.457891
0.041280
0.344478
0.331937
0.488379
-0.285456
0.009947
0.448415
0.662677
0.104765
-0.033546
0.425910
-0.221130
0.872956
0.766280
0.273949
0.434726
-0.338259
-0.262355
-0.056355
0.642312
-0.084878
-0.067140
0.202373
0.309900
-0.485342
0.077000
0.494968
-0.228519
-0.255970
-0.192900
-0.167177
0.217869
-0.586542
-0.320799
0.057363
-0.026827
0.096854
0.298864
0.185375
-0.101574
0.308136
0.566683
-0.044665
-0.272573
0.273810
0.382223
-0.161111
0.095408
0.245041
0.431644
-0.395805
0.555513
0.175590
-0.624690
-0.527404
0.355760
-0.330415
0.556381
-0.072670
0.603964
0.008257
-0.399528
-0.257044
0.355434
-0.774599
-0.577095
0.754684
0.246500
-0.472020
0.604372
0.050784
0.218352
-0.026468
0.056254
0.348274
0.077930
0.389357
-0.417850
0.398595
-0.279533
0.299641
0.128568
-0.497541
0.309287
0.057145
-0.508464
0.246324
-0.185716
0.333857
0.143507
0.413797
0.441229
0.033385
0.048640
-0.495895
-0.076529
-0.358006
-0.206197
-0.165342
-0.204046
0.180249
0.108857
-0.585572
0.194930
0.375603
0.194702
0.060988
0.989847
-0.450722
0.722193
0.587231
0.237595
0.248519
-0.181901
-0.245529
-0.504624
-0.181618
-0.412401
-0.029900
-0.060969
-0.206581
0.047248
-0.231444
-0.166493
-0.133059
-0.358301
0.172684
-0.231580
-0.585636
-0.344789
-0.151797
-0.527316
-0.606122
-0.167412
-0.496882
0.682825
-0.418567
0.588800
-0.209550
-0.124496
0.289738
-0.548149
-0.541631
-0.432549
0.292264
-0.613424
-0.419621
0.621940
0.194550
-0.181352
0.047484
0.779794
-0.091399
-0.285105
-0.724421
-0.222934
0.338273
0.150146
0.176608
0.224853
-0.634822
-0.187498
0.310013
-0.180732
0.315305
-0.467271
0.459910
-0.357780
-0.425295
-0.125660
0.455098
-0.315359
-0.167920
-0.361793
0.202662
0.049376
-0.686897
-0.262628
-0.910224
0.557574
-0.061587
0.415979
-0.150085
-0.705963
0.357570
0.234010
-0.687402
-0.016458
-1.019624
-0.759517
0.726107
-0.577190
0.363870
0.438349
-0.000321
-0.652698
-0.514627
0.237523
-0.599887
-0.098957
-0.606981
0.101862
-0.026579
0.327551
-0.311245
-0.591699
-0.668371
0.029281
0.469666
-0.576045
-0.211389
0.354240
0.243703
-0.354376
-0.124801
-0.016705
-0.454702
0.083205
0.102382
0.551269
0.088728
0.544261
0.444777
-0.299345
-0.264173
0.633059
0.283355
-0.856027
0.352165
0.184450
0.513692
-0.216169
0.406878
0.602590
-0.490475
-0.178495
0.234668
0.148561
-0.081438
0.404551
-0.638313
0.047885
0.357523
0.624961
0.667631
-0.875246
-0.745546
-0.610857
-0.068649
0.078987
0.662212
0.217690
-0.541168
-0.343829
-0.290719
0.287111
-0.033037
-0.055678
-0.338654
0.026349
0.359697
-0.448857
-0.526659
-0.348779
-0.160028
-0.230474
0.589241
0.460549
0.166430
0.474858
0.434165
-0.248482
0.536337
-0.401734
-0.338415
0.482296
0.071987
-0.018849
-0.111483
-0.334423
0.144463
0.783046
0.318440
-0.343741
0.055383
-0.234941
0.232113
-0.157498
-0.416068
-0.303495
-0.007395
-0.587020
-0.068057
-0.010294
-0.304973
0.456847
0.381054
-0.353974
-0.085801
0.113274
-0.381567
-0.083708
0.194352
-0.071769
0.438890
-0.200800
-0.341937
-0.366978
0.098228
-0.800363
0.753767
-0.259095
0.061007
0.213061
0.026971
-0.065265
-0.155702
0.209032
-0.502370
0.314016
0.149543
-0.411185
0.047715
0.232046
0.184390
0.128093
-0.427804
0.365914
0.475119
0.823038
0.366182
0.350321
0.172398
-0.472611
-0.382581
0.278577
-0.305009
-0.358076
-0.521749
0.192385
0.669081
0.737852
-0.125643
0.428513
0.224137
0.051690
0.707505
0.129934
-0.227145
-0.482572
0.544329
0.267628
0.556870
0.095457
0.076877
0.371748
1.055802
0.554667
-0.010038
0.255970
-0.249134
0.122565
-0.046949
-0.478737
0.180743
0.257436
0.366849
-0.224742
-0.187101
0.023242
-0.304419
0.000779
-0.243529
0.509716
-0.377289
0.405224
0.178743
0.440977
-0.254492
0.085009
-0.768788
0.461231
-0.596528
-0.724628
-0.090782
0.386641
-0.016342
-0.255316
-0.429570
-0.201902
-0.245427
0.342447
0.156076
-0.370139
-0.381521
0.307444
0.691833
-0.073481
0.853619
-0.147998
0.026589
0.334722
0.512089
-0.174358
0.124134
-1.026187
0.015218
-0.697862
0.610893
0.662978
0.414908
-0.057842
0.266228
-0.341007
0.783155
0.671129
0.742130
0.126076
0.558548
0.073810
0.015678
1.100835
-0.704309
-0.244281
-0.039053
0.342851
0.093462
0.563882
0.675193
0.007869
-0.232742
-0.456761
0.307660
0.362484
-0.009883
-0.063136
-0.238758
-0.547286
-0.011009
0.672791
-0.397578
0.198539
0.839690
0.198011
-0.496039
0.055296
-0.385410
-0.009696
-0.001313
-0.081528
0.119497
0.185690
0.399258
0.172271
-0.541736
-0.291198
-0.288453
-0.185289
-0.401329
-0.425220
0.006141
0.468968
-0.299178
-0.758456
0.258918
0.079320
-0.004976
0.176539
-0.096221
0.485684
-0.388568
-0.517828
0.004326
0.087378
0.114702
0.278703
-0.882386
-0.243062
0.411863
-0.235167
0.533900
-0.036316
0.423284
-0.360150
0.858589
-0.242989
0.243535
0.394023
0.033735
-0.168299
0.161505
-0.221462
-0.322926
-0.009928
0.107479
0.025960
0.309059
-0.194060
-0.842761
0.356696
-0.150709
0.204489
0.567577
-0.688511
0.198584
-0.372849
-0.128207
0.680362
0.164216
-0.112502
0.802096
-0.044155
0.134082
0.190243
-0.288992
-0.164789
0.337577
0.122407
0.120154
0.122857
0.268900
-0.214316
-0.086695
-0.081029
-0.099346
-0.645147
0.517280
0.198943
-0.602198
-0.236042
-0.405916
0.864159
0.347382
0.554601
-0.220884
-0.358283
-0.585094
-0.423956
0.219916
-0.524792
0.076803
0.274694
-0.596382
-0.018639
0.391783
0.727536
0.026629
-0.199144
0.915826
-0.415110
0.046807
-0.524694
0.237738
0.549966
-0.060792
-0.024645
-0.223972
0.346093
-0.226476
0.646744
-0.503645
-0.237610
-0.205468
0.379605
-0.150372
0.106741
-0.237789
-0.976108
-0.156914
0.301205
-0.130202
-0.109827
0.073204
0.135477
0.050320
0.226088
0.569204
0.679151
0.288558
-0.604074
-0.122244
0.243031
-0.667217
0.060409
-0.303887
-0.115371
0.081275
0.348534
-0.531208
-0.080105
-0.315182
-0.877920
1.121659
0.088869
-0.340099
0.596492
0.244103
-0.065847
-0.230904
-0.731030
-0.381676
-0.478365
0.158722
-0.354805
-0.372968
0.684799
0.296223
-0.003715
0.159407
-0.054163
-0.049343
-0.251511
-0.556801
-0.426976
0.187490
0.550443
-0.007408
0.364524
0.156877
-0.366705
0.389344
-0.441095
-0.565099
-0.128852
0.246229
-0.234574
-0.451807
0.411782
-0.210727
0.077531
0.068469
-0.239076
-0.683231
0.558286
0.330420
-0.250371
0.264874
-0.222166
-0.247981
-0.633129
-0.346691
-0.017282
-0.514220
0.383868
0.280785
0.374750
-0.083584
0.909738
0.012653
0.231043
-0.553174
-0.564077
-0.158685
0.939826
0.359973
-0.243399
-0.426075
-0.642411
0.145723
0.220400
-0.788519
0.209370
-0.458506
-0.434048
-0.609086
-0.144907
0.444802
-0.261327
-0.291609
0.234597
-0.351559
0.798855
-0.074569
0.339580
0.117239
-0.218497
0.192723
-0.094160
0.146173
-0.255049
-0.435214
-0.042037
-0.459364
0.001911
-0.363485
0.490583
0.076393
-0.144362
-0.007291
0.383819
0.383470
-0.064071
-0.254380
-0.255613
-0.362427
0.346802
-0.138909
-0.163021
0.133596
0.541086
-0.478987
0.739526
0.282158
-0.449193
0.482210
0.253661
0.124700
-0.149044
0.746980
0.312321
-0.698563
-0.318949
-0.392525
0.569831
-0.652490
-0.694111
0.125345
0.057895
-0.718921
0.192025
-0.432612
0.394580
0.562930
0.170185
0.084757
-0.686109
0.366525
0.132799
-0.980705
-0.032572
-0.216045
0.270586
-0.100642
0.337299
-0.556568
0.024317
-1.185456
-0.060939
0.101260
-0.446177
0.541774
-0.516401
-0.371693
0.673862
0.582171
-0.407853
-0.220134
-0.073548
0.445323
-0.075819
0.118332
0.407249
-0.059847
0.347315
0.150992
0.006269
0.339563
-0.679529
-0.271228
-0.240048
-0.254676
-0.018788
0.672339
0.161958
0.306035
0.380778
-0.676426
0.414724
1.121248
-0.132482
-0.095548
0.281794
0.959009
-0.266710
-0.226128
-0.489231
0.370960
0.243786
-0.408685
0.121467
1.525953
-0.442839
0.364029
-0.846249
0.617923
0.327258
0.191541
-0.401945
0.036712
-0.038099
-0.432676
0.383461
0.212421
-0.011097
-0.140538
0.463002
-0.006167
0.320059
0.490181
0.240414
-0.250647
0.170089
0.852696
-0.319739
-0.723526
-0.640579
-0.797670
0.065794
0.489605
0.109436
0.447683
-0.059307
-0.277345
0.323427
0.187949
-0.562530
-0.386807
-0.290129
-0.292179
-0.023300
-0.582631
-0.237727
-0.114316
0.005289
-0.676368
0.441674
-0.453657
-0.916387
0.554776
-0.349169
0.209666
0.043458
0.658431
0.365618
-0.399513
-0.466431
0.057376
0.999652
-0.517543
0.087447
-0.002563
0.658643
0.374403
0.021084
-0.000599
0.010250
0.223378
0.178526
-0.957377
-0.405146
0.398156
0.359390
-0.606061
-0.234499
-0.060076
-0.905333
-0.008005
-0.203703
-0.026106
-0.282270
-0.165612
-0.059386
-0.184768
-0.164393
-0.292294
0.734387
-0.087584
0.446987
-0.108141
-0.805261
-0.770084
0.277284
-0.141750
-0.388106
0.701383
-0.390044
-0.087405
0.624735
-0.096678
-0.040749
-0.318130
-0.053916
0.001135
0.203215
-0.208805
-0.015542
-0.290848
0.575636
-0.116080
0.085458
0.073687
-0.301796
0.310224
-0.152422
0.221492
-0.381841
-0.255298
0.540200
-0.417041
-0.603132
0.119066
-0.000827
-0.164538
0.158392
0.506399
0.286579
0.096319
0.208341
-0.302873
-0.141214
0.498525
-0.134911
0.287136
0.211466
0.529082
-0.079767
-0.430299
0.092857
-0.381396
0.806783
-0.189564
0.582680
0.197027
0.137812
0.097782
0.153212
0.203878
-0.726656
0.121307
-0.682893
0.046179
0.173422
0.628379
-0.325005
-0.231026
-0.200341
0.109066
-0.072989
-0.598594
-0.663932
0.079404
0.125926
-0.283576
-0.101568
-0.109045
-0.303753
0.347493
-0.036541
0.527254
-0.437243
0.342558
-0.061807
0.668889
0.314116
0.707531
-0.446647
-0.557018
0.370819
-0.577805
0.644988
0.381416
0.276082
0.218742
-0.131603
0.184404
0.117705
-0.426472
0.509749
0.075953
-0.333034
-0.122911
0.092488
-0.246199
0.318055
0.107933
0.289534
0.027715
-0.158750
-0.070368
0.120818
-0.893781
0.033954
0.133589
-0.192579
-0.050106
-0.451374
-0.132854
-0.262044
0.099475
0.145328
0.469543
0.219854
-0.341446
0.346987
-0.095423
-0.023565
-0.018349
-0.354541
-0.030812
0.054744
0.375607
-0.111022
-0.014750
0.342022
-0.198708
-0.339117
-0.430048
0.638048
-0.161287
0.121530
-0.058221
-0.269457
0.450627
-0.052763
-0.078057
-0.232480
0.042043
-0.579339
-0.220462
0.469601
0.214464
-0.282711
-0.316586
0.526453
-0.544536
-0.345763
0.006502
0.419995
0.182689
-0.625500
0.119151
0.058022
0.446611
-0.318304
0.403258
0.239011
0.224399
0.127544
0.178622
0.218797
-0.568927
-0.399308
0.508002
-0.180663
0.018032
0.391114
-0.004958
-0.331010
-0.247590
0.067109
0.231095
0.137899
-0.072188
-0.437151
-0.082682
-0.525785
0.536592
0.037637
0.679079
0.353731
-0.240096
-0.326607
-0.034853
0.109868
0.256870
-0.218309
0.519006
0.345662
0.309210
0.371004
-0.299007
-0.200469
0.679422
-0.108594
-0.242376
-0.130936
-0.620242
0.037348
-0.054657
-0.760593
0.329713
-0.339335
0.199296
-0.169567
-0.138496
0.406551
-0.216323
-0.162040
-0.517374
0.227400
-0.072998
-0.114682
0.421670
-0.088517
-0.230467
0.446972
-0.240595
0.459050
0.238189
0.297969
0.395400
-0.121957
-0.334448
-0.050510
0.619793
-0.221429
-0.068174
-0.488750
0.318390
0.082609
-0.017285
0.434449
-0.022495
-0.208848
-0.187086
-0.516033
-0.229292
-0.331652
0.334785
-0.098333
0.433155
-0.285776
-0.270791
-0.406366
-0.388432
-0.478982
-0.325902
-0.392388
0.325477
0.703301
0.048539
0.184817
-0.351708
-0.368124
-0.258342
0.640892
0.377023
0.074166
0.714781
0.624888
0.618274
0.151789
0.397186
-0.533348
-0.172740
-0.053641
-0.835770
-0.479373
0.161218
-0.348381
-0.099492
0.072468
0.601793
-0.419701
0.304053
0.095541
-0.153266
0.023166
-0.435318
-0.169184
-0.381952
-0.309417
0.258074
-0.143000
-0.296008
0.018007
-0.163784
0.128604
0.176199
-0.583074
-0.359511
0.342663
0.054306
-0.564522
-0.681932
0.069939
-0.198166
0.292646
0.205480
-0.170377
0.470012
-0.435003
1.044536
0.143798
0.148026
0.147263
0.042755
0.633169
0.170339
-0.594396
-0.943975
-0.204875
-0.565203
-0.136333
-0.231775
-0.609975
-0.005110
0.686030
0.380557
-0.455582
-0.811550
-0.135857
0.450080
-0.033754
-0.843794
0.377362
0.220991
0.038216
-0.302153
0.464582
-0.292728
-0.378231
-0.130703
-0.566543
0.339721
0.325827
0.102108
0.143228
-0.485272
-0.079984
-0.319196
-0.673243
0.141690
0.522498
0.544333
-0.012735
-0.084813
0.501373
0.367839
-0.285670
-0.508883
-0.136909
-0.052869
-0.077337
-0.201220
-0.115001
0.898790
-0.112915
0.343048
-0.082530
-0.253757
0.387591
0.584341
-0.086241
0.316986
0.556985
0.570951
-0.219274
-0.191678
-0.286719
-0.034391
0.120609
0.596134
-0.492065
-0.229727
1.027084
-0.221312
-0.009405
0.276494
0.001022
0.547698
0.085604
0.016430
0.425114
-0.044374
-0.474031
-0.807062
-0.635512
0.259253
0.203020
0.225568
0.341087
-0.061577
-0.492192
-0.175589
0.278603
-0.175049
0.739565
0.379693
0.102366
0.999628
-0.113507
-0.208804
0.475537
-0.188491
-0.085361
0.224032
-0.227760
-0.465245
0.473508
-0.672350
0.025230
0.876889
0.804477
-0.361679
-0.069202
-0.222491
-0.258821
-0.112960
0.287060
-0.074847
-0.100158
-0.370694
-0.127648
0.151086
-0.699959
0.209599
0.142445
0.128646
-0.225661
-0.234432
0.071929
-0.218106
-0.224597
-0.762637
0.093332
-0.087892
-0.483951
0.035487
0.027783
0.257067
-0.007923
-0.038810
0.898143
0.368636
-0.364130
0.062504
0.342027
-0.846403
0.277353
-0.323788
-0.657866
-0.721962
-1.240132
-0.277514
-0.941259
0.625688
-0.611658
0.297532
-0.423778
0.352705
-0.678832
0.394781
-0.758030
0.248290
-0.017841
-0.053898
0.142522
0.099048
0.203679
-0.184266
0.296070
0.200945
0.080971
-1.101162
-0.179290
0.181090
0.574387
0.036660
-0.066103
-0.169337
-0.428278
0.328314
-0.578520
0.154514
0.511333
-0.223622
-0.352521
0.019769
-0.465741
0.242207
0.587105
0.561846
-0.253866
-0.433399
-0.151136
-0.535339
-0.166791
0.196134
0.083793
-0.376462
-0.152896
0.362810
0.613025
0.241272
-0.162771
-0.621751
-0.159198
-0.166040
0.864603
0.116047
-0.092169
-0.055458
0.083302
0.336999
-0.045051
0.015067
0.006654
0.651763
0.640297
0.203453
-0.653420
0.297025
-0.072590
0.397960
0.428006
-0.262205
-0.717749
0.363023
-0.478107
0.460316
0.136744
-0.298333
0.303617
0.027072
0.613554
0.555081
-0.448874
-0.908418
-0.177785
0.790577
0.069781
-0.107771
0.209714
-0.452816
-0.159071
0.315238
-0.318048
-0.241569
0.420807
-0.407879
-0.713651
0.342748
1.119038
0.528619
0.353171
-0.111294
0.599495
0.202437
-0.320951
0.209588
0.540920
0.700107
0.054014
0.155026
-0.031942
0.275453
-0.004974
-0.339883
-0.156627
0.565076
-0.146147
-0.638944
-0.139563
0.623460
-0.872050
-0.003774
0.463053
-0.369188
0.569307
-0.110037
-0.655354
-0.494502
-0.231269
-0.047361
-0.622405
0.219289
-0.081585
-0.499147
0.463642
0.604469
-0.613426
0.167591
-0.121423
-0.109584
-0.129377
0.721721
-0.223242
-0.717365
0.295002
0.117290
-0.502650
-0.345922
0.050604
-0.117107
-0.009840
-0.215200
0.117646
-0.850335
-0.548198
0.122912
-0.267985
-0.017381
-0.332697
0.108850
-0.577137
0.258871
0.202571
-0.519362
-0.273326
-0.528916
-0.108857
-0.178138
-0.384948
-0.169415
0.308736
-0.614057
-0.061731
-0.482288
0.141218
0.761861
-0.364546
-0.249368
-0.350261
0.127682
-0.429022
0.254037
-0.199073
0.156209
0.415427
-0.150079
0.158198
0.479351
0.243026
-0.370054
0.406641
0.227642
-0.168012
0.403596
0.746495
0.077099
-0.059657
0.013531
0.184114
-0.204895
-0.180606
-0.517825
0.058305
0.340728
0.392710
0.314079
0.094358
0.381265
-0.202623
-0.598497
-0.042139
0.391268
0.452760
0.406152
-0.141817
-0.701370
0.271159
1.147749
-0.257000
0.218137
-0.804279
0.562536
0.019495
-0.126816
-0.231839
0.294759
0.057501
-0.660105
-0.774781
0.274548
-0.091477
0.471509
0.000578
0.616381
0.524050
0.279014
-0.060019
0.131198
-0.241813
0.087349
-0.116407
-0.935181
-0.554830
-0.405471
-0.279072
-0.051551
0.330283
-0.276804
-0.329681
0.217301
0.338350
-0.010789
-0.751990
-0.296903
0.561762
0.206187
0.040333
-0.006108
-0.560075
-0.121234
-0.325654
-0.638859
-0.815801
-0.225899
0.153730
1.167052
0.041928
-0.266747
0.678931
0.246952
-0.701855
-0.576554
0.187947
0.062652
-0.075305
0.629945
0.340010
0.676513
0.233677
-0.053956
-0.056482
-0.133820
0.128503
0.461654
-0.257397
-0.453810
0.191811
-0.449775
0.245118
0.595728
-0.444905
-0.299941
1.032192
0.879205
0.773061
0.133025
-0.675909
-0.059133
-0.017028
-0.043600
-0.254048
-0.011676
0.194617
-0.430366
-0.739870
-0.278093
-0.228388
0.671269
-0.393060
0.403381
-0.238140
0.032246
-0.524332
0.259660
-0.307477
0.476859
-0.005149
0.338920
-0.337854
0.264759
0.344764
0.107866
0.573425
0.142945
0.300809
-0.258598
0.627381
-0.522045
0.588825
0.257603
0.386879
-0.280160
-0.721466
0.537975
-0.165130
-0.153213
0.624535
-0.608703
0.009098
-0.332216
0.181584
0.016384
-0.457847
-0.403392
0.434975
0.065637
0.244847
-0.084894
-0.003639
-0.075616
-0.093495
-0.250547
-0.948882
0.161572
0.042330
-0.156364
-0.024354
-0.280045
0.059630
0.555462
-0.256952
-0.141628
-0.639411
-0.324363
0.465629
0.434291
-0.289321
0.379544
0.180729
-1.177993
-0.013749
-0.000246
0.029089
0.098853
-0.328945
0.182398
-0.237500
-0.446775
-0.484938
-0.758816
0.404400
-0.009901
-0.023400
0.716441
-0.279073
-0.190169
-0.730938
0.851305
-0.090767
0.045208
0.106843
0.227114
-0.101726
0.410051
-0.511293
-0.435575
0.261386
-0.302906
-0.026572
0.601649
0.016082
-0.302305
0.072889
0.763064
-0.131801
-0.183033
0.148031
-0.115522
-0.081071
-0.683500
-0.750071
0.051871
0.403728
-0.025825
0.109286
-0.933357
-0.530900
0.097019
-0.333493
0.348735
1.082342
-0.324309
0.148758
0.736003
0.677831
0.239131
-0.516080
0.520485
0.132037
0.144090
-0.538802
1.305348
0.040274
-0.085697
-0.256329
0.390820
0.184193
0.120712
0.179552
-0.280413
0.416331
-0.305086
-0.276296
-0.065934
-0.122691
0.317131
0.662930
0.138189
0.970000
-0.189142
0.458115
-0.171415
-0.710518
-0.037987
-0.312477
0.085659
-0.085586
0.081520
0.551297
0.276539
-0.021039
0.203081
0.555817
0.388320
-0.243801
-0.171273
-0.193589
-0.543388
0.613974
-0.491633
0.383039
-0.887675
0.697823
0.204338
-0.189376
-0.206092
-0.394085
-0.052737
-0.514223
0.057537
0.159609
-0.550973
0.109518
0.084125
-0.144197
-0.056874
0.575467
-0.493984
-0.893917
-0.348021
-0.000735
-0.372725
-0.088672
-0.460634
-0.362854
0.521572
-0.989531
-0.037537
0.036714
-0.276079
0.505748
0.587996
0.437572
0.465261
-0.209891
0.171686
-0.304943
0.540113
0.082394
-0.493090
-0.225028
0.085967
0.412281
0.173960
0.080607
-0.285698
0.304836
-0.117099
-0.812467
-0.085095
-0.293514
-0.605404
-0.194932
0.615505
0.083752
0.186116
-0.589407
-0.001580
0.072836
0.013786
-0.446795
0.635270
0.017759
-0.010377
-0.284375
0.027961
0.343512
0.232873
0.378258
0.612961
-0.215417
-0.128561
0.872025
-0.011959
0.312822
-0.280044
-0.068441
-0.222718
0.603124
-0.061317
0.242859
-0.063181
0.170479
0.153994
0.467267
-0.027397
0.634107
-0.283921
0.313473
0.095687
0.078197
-0.321411
0.392217
-0.385301
-0.444794
-0.186956
0.357320
-0.297818
0.128835
-0.112864
-0.337963
0.104569
-0.143862
-0.405203
-0.435011
-0.142396
0.111578
0.459887
-0.203263
0.316698
0.217317
0.241320
0.376244
-0.633956
-0.213609
-0.128137
0.071255
0.981688
-0.079949
-0.644347
0.141047
0.709284
0.415928
0.471736
0.629977
-0.121468
-0.725436
0.098454
-0.763720
0.515236
1.025198
0.783838
0.052989
0.444670
0.394938
0.475970
-0.387606
0.372491
0.077856
-0.292623
-0.099145
0.223359
0.312307
-0.343994
-0.274487
0.338115
-0.100230
-0.059802
0.495226
-0.434880
-0.231901
-0.005782
0.701528
-0.407540
0.218906
-0.050791
0.017183
0.534752
-0.300925
-0.096474
0.217751
0.258162
0.120654
0.070623
0.083611
0.335913
-0.446317
-0.475824
0.498190
-0.762756
0.438021
0.797192
0.421795
0.368131
-0.850931
0.090130
-0.247127
0.855836
-0.221320
-0.320273
-0.808128
0.562861
0.256366
0.359978
0.706155
-0.395847
-0.363054
-1.112110
-0.359506
0.013066
0.140123
-0.219594
0.276951
-0.108973
0.263014
0.568657
-0.332576
-0.104861
-0.053707
-0.377600
-0.260982
-0.359949
0.008680
-0.897066
-0.534348
0.644039
0.081818
-0.082319
-0.210556
0.116404
-0.206380
0.240382
-0.300037
0.557173
-0.138276
-0.107158
0.125736
0.284927
-0.379533
-0.197924
-0.499808
0.303641
-0.118835
0.062262
-0.160883
0.590311
0.036673
0.272889
-0.621927
0.133813
0.980455
0.210703
-0.338117
-0.718569
-0.500764
-0.155162
-0.113038
-0.398240
0.114406
0.250337
-0.319921
0.268136
-0.372369
0.136191
-0.373969
0.894922
-0.362597
0.158274
-0.025399
0.769236
0.073527
-0.059477
-0.611895
-0.353576
-0.379164
-0.304997
-0.063862
0.475441
0.196145
-0.166442
0.282206
0.597228
-0.435800
-0.489190
0.159869
0.077128
-0.232075
0.655808
0.171760
-0.596940
0.651176
-0.038127
0.585083
-0.012899
-0.462870
0.065091
-0.199366
-0.092507
-0.728466
0.568322
0.447967
0.385159
0.719117
1.049707
0.103873
0.766959
0.996389
-0.537438
0.021552
0.151016
0.198563
0.235311
-0.093923
0.405543
0.301679
-0.100031
0.368420
-0.707900
-0.471606
-0.508835
0.821575
0.328027
0.352237
-0.525247
0.041790
-0.215029
-0.057274
0.287956
-0.255221
0.433750
0.283550
-0.155380
-0.149117
0.676900
0.588846
0.043621
0.019607
0.331692
0.495368
0.066493
-0.061079
0.009288
-0.190199
-0.019665
0.168415
0.141855
-0.009623
-0.056047
-0.244572
0.133271
0.029367
1.002485
0.922350
0.540643
-0.305083
-0.298111
-0.309428
0.109467
0.100446
0.832371
0.179174
-0.861688
-0.624590
0.235246
0.064822
-0.761591
-0.684992
-0.162344
0.076353
0.082104
-0.585133
-0.193086
0.063534
-0.215364
-0.020267
-0.257527
-0.133026
0.117671
-0.357862
0.101059
-0.328752
0.577875
0.071548
0.078517
-0.047874
-0.116203
-0.336930
-0.116723
-0.069226
-0.588227
-0.473484
0.373766
0.140832
-0.348344
-0.115188
0.094455
0.160333
-0.527709
0.281913
-0.411319
-0.651496
-0.626357
-0.334101
-0.578485
-0.533967
0.778416
-0.314486
-0.479793
-0.175282
-0.482907
-0.173136
0.162702
0.828045
0.410818
-0.035801
0.417387
-0.170163
-0.254231
0.406635
0.299736
-0.402842
-0.227361
-0.807089
0.184581
-0.056584
-0.392900
-0.406903
0.175956
-0.439323
-0.722896
-0.070025
-0.283269
0.154583
0.294278
0.442757
0.266257
0.198346
-0.613565
0.052719
-0.163344
-0.709354
0.084304
0.517451
-0.241269
0.049197
-0.034686
-0.657495
0.427872
0.418455
-0.251497
-0.076656
-0.036624
0.388920
0.145172
-0.760355
-0.361046
0.073948
-0.897668
0.405306
-0.395020
0.013987
-0.337386
0.681165
0.280442
-0.231109
-0.962819
0.086736
-0.205478
-0.589484
0.743846
-0.139608
-0.071957
-0.372240
0.313526
-0.769847
-0.141506
-0.046029
0.322872
-0.143394
0.026456
0.489434
0.489501
0.012104
0.573756
-0.009852
-0.430953
0.017092
0.360144
-0.925204
-0.400270
-0.080931
0.229503
0.453968
-0.144006
-0.360996
0.378236
-0.131819
-0.618717
0.143424
-0.682274
-0.583350
0.706297
0.466672
0.266780
-0.419217
-0.166353
0.210810
-0.103852
0.402235
0.388165
0.333750
0.734397
0.314324
-0.068321
-0.025791
-0.091365
-0.048066
0.472788
0.069160
0.071573
-0.383983
0.486231
0.288507
-0.370490
-0.402418
-0.437232
0.623822
-0.297126
0.381005
-0.363162
-0.767664
1.204331
-0.171394
-0.041672
0.175092
0.729921
0.521693
-0.544273
0.424577
0.197229
-0.175243
0.419755
-0.806110
-0.442185
0.356865
-0.264830
-0.353803
0.223420
-0.173307
0.292819
0.542421
-0.946029
-0.166409
0.229338
0.508197
-0.583236
-0.246835
-0.280241
0.334087
-0.721734
0.514978
0.034415
-0.201092
-0.270411
-0.687541
0.117735
-0.120538
-0.295031
-0.732230
-0.736945
-0.548028
-0.067807
0.208098
-0.208610
-0.248170
-0.314519
0.018605
0.237471
0.065329
-0.427320
-0.657314
-0.440131
-0.514204
-0.554318
-0.080132
0.493486
0.200883
0.001514
0.254101
0.883562
0.436285
-0.382202
-0.325008
0.384010
0.003432
-0.492210
-0.558289
0.165351
0.566302
0.017686
0.123307
-0.697789
0.348156
0.727203
-0.778140
0.017164
-0.693646
-0.274173
0.221169
0.150756
-0.338216
-0.304768
-0.118837
-0.357524
0.258384
0.341570
0.343404
-0.296159
0.620666
0.209038
-0.510686
0.522458
-0.284812
-0.099183
0.252446
-0.974392
0.197217
-0.236007
0.421701
-0.043984
0.118360
-0.284449
-0.673136
-0.354004
-0.198468
0.278651
0.416833
0.628593
0.174122
0.285125
-0.538378
-0.238070
0.122759
0.214301
0.114631
0.037528
0.046734
-0.156240
0.202636
-0.352546
0.314362
-0.230926
0.648830
0.075498
-0.605343
0.054775
0.038332
0.153694
-0.594640
-0.289019
0.140134
-0.059785
0.088475
0.279838
-0.310003
-0.294177
0.601604
-0.077592
0.422075
-0.140044
-0.421540
0.305865
0.976065
-0.559349
-0.055651
0.355317
-0.749712
0.832938
-0.094759
0.081919
0.249831
0.810536
-0.564029
0.008248
0.108160
0.013653
0.542145
-0.504158
0.196209
-0.024427
-0.241473
-0.614018
0.196724
0.560420
-0.211224
-0.223365
0.948383
0.283606
0.262472
0.551216
0.623668
0.117371
0.392533
0.631018
-0.448350
-0.448298
0.396137
-0.091513
0.093170
-0.004108
0.184855
0.170589
0.370673
0.230547
0.317764
-0.112958
-0.556002
-0.820043
-0.061752
-0.250742
-0.180171
0.034529
0.528195
-0.783632
-0.673950
0.397009
0.056904
1.104562
-0.230828
-0.137668
-0.133472
0.295498
0.163779
-0.804006
-0.312352
-0.432229
0.551192
0.054150
0.142733
-0.161663
0.004023
-0.300518
1.050437
-0.013133
0.472121
-0.112016
-0.684153
0.238192
0.391995
-0.014999
0.201494
-0.088178
-0.395127
-0.488248
-0.764647
0.378231
0.450406
-0.001202
-0.337068
0.629003
0.270436
0.743812
0.498127
0.521995
-0.177562
0.164339
-0.605498
0.040812
-0.148133
-0.298440
-0.102235
-0.551982
-0.032301
-0.055512
-0.786713
0.128652
-0.454868
-0.300278
-0.587796
0.080919
0.392495
0.606035
-0.258504
0.456183
-0.582395
0.018394
-0.305348
-0.134236
-0.448629
0.593776
0.320670
0.086446
-0.429435
0.278112
-0.532126
-1.132068
0.727337
-0.243932
0.314550
0.678710
-0.570325
-0.000484
0.703651
0.011444
0.354048
0.229744
0.223069
-0.435244
0.303974
-0.400880
-0.037596
-0.246497
0.847950
-0.698024
-0.102700
0.093483
0.258781
0.027321
-0.054748
-0.240506
0.448395
0.234769
0.546103
-0.694417
0.026342
-0.390981
-0.130296
-0.184975
0.223283
0.048596
-0.676211
-0.300700
0.244986
0.204283
-0.215311
-0.777729
0.193621
-0.707448
-0.334574
0.305332
-0.403082
-0.154075
0.538669
-0.048176
0.025265
0.026646
-0.529661
-0.476280
1.053369
-0.102253
-0.342467
0.014018
0.663755
0.207464
-0.331734
-0.063244
-0.162288
0.026673
0.639512
0.655145
-0.327483
-0.062509
0.029935
0.232838
0.466478
0.732557
-0.609253
-0.281630
0.098260
-0.274811
0.226104
-0.515193
-0.268789
-0.263504
-0.234612
0.084004
0.306492
0.172418
-0.267779
1.401988
0.107804
-0.030153
-0.572162
-0.094120
0.300267
-0.065658
0.356386
0.173223
0.449048
0.506212
0.190635
-0.616835
-0.005553
-1.149402
-0.183090
0.438465
0.615990
-0.799035
-0.340781
-0.435869
0.874610
-0.600538
-0.535530
-0.180418
0.255459
-0.376595
-0.141720
-0.114964
-0.067066
-0.272016
-0.265761
-0.055485
-0.044699
0.018341
-0.204959
-0.567922
0.292919
0.795880
-0.139145
-0.609365
-0.224826
0.205966
-0.141054
-0.097990
0.029802
-0.133006
-0.114674
1.587736
-0.187714
0.428544
0.274923
0.161982
0.298672
-0.385812
0.318247
-0.082970
0.822289
0.216968
-0.578061
-0.130138
0.583534
-0.347238
-0.006903
-0.805851
-0.150704
-0.385634
0.744327
0.276315
-0.150405
-0.311500
0.321352
0.047047
-0.432952
0.483775
0.395528
-0.685073
-0.308634
-0.050203
-0.084723
-0.226341
-0.308371
-0.258129
0.036077
0.285245
-0.286405
-0.123528
0.305347
0.079537
0.266351
0.217810
0.189996
0.340948
-0.411395
-0.106352
0.198076
-0.508497
-0.935615
0.439853
0.088724
-0.090354
0.277484
0.101951
-0.211057
-0.146059
0.164478
-0.403693
-0.319947
-0.272087
-0.056500
-0.165418
-0.530364
0.071477
0.145830
0.105848
0.647028
0.156801
-0.228976
0.050974
0.419033
0.057748
-0.281109
0.017106
-0.249488
-0.576867
-0.191923
0.391972
0.338634
0.234116
0.008493
-0.172772
-0.334570
-0.439677
0.312884
-0.218704
-0.241188
-0.243643
0.028483
0.198540
0.438492
-0.013123
0.967715
0.386858
-0.484518
-0.540086
-0.396472
-0.270637
0.163865
-0.513128
0.230553
-0.047301
-0.360825
-0.373584
0.871676
0.654640
-0.422468
0.599785
-0.347337
0.035641
0.252095
0.042153
-0.122895
-0.860222
0.008477
0.068060
0.475036
1.013471
0.389162
0.770166
-0.808013
0.066398
0.276415
-0.434746
-0.521318
0.134338
0.014580
0.146204
-0.410041
0.098050
0.599755
-0.465529
0.587499
-0.034310
-0.396891
-0.455001
-1.017817
-0.168329
-0.502561
0.764389
-0.019494
-0.317097
0.133058
0.306685
0.099359
0.107943
-0.203605
-0.029879
-0.074396
-0.955383
-0.639820
0.872334
0.076989
-0.018220
0.384888
-0.423588
-0.048971
-0.492449
0.259177
-0.452638
0.536432
0.168737
-0.228924
-0.086209
0.710130
0.232741
0.007985
0.788577
0.616625
-0.402257
-0.319850
0.290835
-0.246891
0.037799
-0.862378
0.186532
1.283840
0.324309
-0.182406
0.085606
-0.023400
0.112435
-0.210631
0.568743
-0.594109
0.090436
0.205313
-0.464677
-0.099727
-0.294500
-0.382845
-0.142498
0.070150
0.364254
0.919473
0.623129
0.224854
-0.222404
0.010284
-0.142199
0.111747
-0.464507
0.212960
0.714300
0.288033
-0.133155
0.200207
-0.129186
0.468268
0.496187
-0.026343
-0.103859
0.190734
0.136563
0.043589
0.094840
-0.225691
0.094237
0.354420
-0.183861
0.680613
-0.149909
0.192218
-0.188467
-0.572855
0.474288
0.908683
0.876122
-0.723644
-0.378193
-0.319452
-0.049606
0.336433
0.248683
-0.272744
-0.109361
0.204707
0.171129
0.374959
-0.004963
-0.139012
0.645371
-0.593667
-0.111513
0.590069
-0.201064
0.062542
-0.281559
0.272847
-0.466044
-0.112023
-1.652017
-0.040092
0.326217
-0.174792
-0.020272
-0.435952
0.475297
0.006874
0.069466
-0.228301
-0.667437
0.146066
0.014532
-0.075563
1.175859
0.017755
-0.688258
-0.195557
0.324416
-0.051784
-0.412562
0.260586
-0.134203
0.070185
-0.559041
0.371305
0.159080
1.069174
-0.587197
0.529703
0.902305
-0.968404
-0.630678
0.104801
0.044736
-0.193360
0.438471
0.425229
-0.465363
0.873979
1.392427
-0.653587
-0.237438
1.284786
-0.592036
0.510760
-0.327246
1.424559
-1.158315
-0.945582
-3.049770
1.558700
-0.484332
-0.562338
-0.238851
0.733867
-0.902862
-0.538203
-0.541763
-1.877271
-0.152755
0.768354
0.608950
0.255579
2.371740
-0.661202
-2.372080
-0.331859
-0.281194
-0.122457
0.873884
0.333147
-0.093740
0.584332
0.183915
-0.154878
-0.360194
2.461962
-0.179188
0.335705
2.439095
-0.906600
-1.743580
1.491221
-1.748041
0.995106
-0.585727
0.456020
