0.081608
-0.464997
0.032464
0.018782
1.030529
0.170566
0.245515
0.507779
0.431491
0.440224
0.096110
-0.363961
0.048262
-0.127984
0.595036
-0.380660
-0.062182
0.169683
0.218375
-0.426987
-0.223033
0.757328
0.220001
0.613264
0.155260
0.241714
-0.184760
0.144823
0.040722
-0.066822
-0.786300
-0.643920
-0.721069
0.286844
0.481858
-0.943931
0.172464
-0.302378
-0.211625
-0.176962
-0.764403
-0.332145
-0.343088
-0.126064
-0.113871
-0.238043
-0.257214
-0.082103
0.465358
-0.625888
0.564234
0.382164
0.337446
0.149774
-0.322423
-0.439779
-0.353384
0.415131
0.285940
-0.365349
0.261065
0.650129
-0.319673
-0.500773
0.038178
0.858309
0.273666
0.543440
-0.636637
-0.268462
-0.013589
-0.013771
-0.712918
0.633862
0.089664
-0.384451
-0.004950
-0.995141
-0.526153
0.183359
0.501958
0.152467
-0.304382
-0.360077
-0.769416
-0.126800
-0.253112
0.181132
0.272103
-0.363111
-0.158978
-0.012734
0.216873
-0.861208
-0.754476
0.633593
-0.470512
-0.686078
0.638810
0.333731
0.148201
0.036941
-0.485035
0.362973
0.157230
-0.288984
0.709061
0.043830
-0.207691
-0.061166
-0.173750
0.359264
0.049325
0.247540
-0.047039
0.395033
-0.001491
0.115539
-0.149344
-0.090931
0.238443
-0.535272
0.072588
0.235279
0.092642
0.272473
-0.140637
-0.231216
0.794297
-0.625256
-0.149470
-0.053627
-0.997635
0.072000
-0.202689
-0.078619
-0.781964
0.394008
-0.036841
-0.056792
-0.926134
0.287951
0.377241
0.573591
0.046851
-0.018408
0.188087
-0.139747
-0.297554
0.096591
-0.249561
-0.181213
-0.101325
0.732278
0.404655
0.262073
0.479499
0.019857
0.170552
-0.766725
0.091212
-0.689566
-0.590408
0.726926
0.062131
0.573707
0.343516
-0.713860
-0.875265
-0.802327
0.452452
-0.089211
-0.375846
-0.365203
0.418968
0.061638
-0.122977
-0.430646
0.123400
0.246212
0.194733
0.242624
0.286111
-0.198638
0.201701
0.035953
-0.143171
0.387407
-0.161143
0.105930
0.295693
-0.226209
-0.411070
-0.017027
0.357728
-0.459606
0.665687
0.018567
-0.060631
-0.696723
-0.218189
0.045936
0.413540
-0.257418
-0.376020
0.462293
-0.613799
0.284248
0.435782
-0.032579
0.328155
-0.023947
0.126332
0.385791
-0.241056
0.343447
-0.289523
0.032920
0.284314
0.493307
0.557012
0.032319
-0.315987
0.613225
-0.426227
0.282907
0.642601
-0.173462
0.383629
0.028701
0.105294
-0.092789
0.270069
-0.202439
-0.293352
0.063077
-0.550607
0.499898
0.179329
0.484593
-0.123690
0.035776
-0.270256
-0.110746
0.189744
0.393800
-0.001752
0.659615
0.724553
0.078441
-0.581437
0.041743
-0.098198
-0.091194
0.127936
0.273361
-0.115169
0.063299
-0.354990
0.523166
0.012863
-0.197644
0.404161
-0.014877
-0.019530
0.111842
0.291334
-0.479067
-0.400457
0.587226
0.306075
0.051972
-0.568560
0.355736
0.337345
0.105607
0.050587
0.300999
-0.421642
-0.910977
-0.701126
0.071236
-0.103832
-0.105316
-0.197312
1.015012
-0.666949
0.701540
-0.286715
-0.247608
-0.059340
-0.386234
0.416796
0.848147
0.160865
0.323914
0.080698
0.688225
0.511213
0.278855
-0.505800
-0.019849
0.170086
0.718099
0.223209
-0.030355
0.020907
-0.236174
-0.109589
0.163004
-0.378600
-0.195051
0.245727
0.370098
-0.162919
-0.531263
0.453500
0.481419
0.456162
-0.975060
-0.087887
-0.297810
-0.236422
-0.476492
-0.015296
0.090691
0.202676
-0.319813
-0.101151
0.717287
-0.066092
0.560614
-0.811935
-0.471984
0.111470
-0.014804
0.042446
0.042223
-0.427432
0.334970
0.219187
-0.222840
-0.199552
-0.041436
0.381030
-0.048138
-0.086018
0.027992
-0.251718
0.086263
0.028289
-0.609531
-0.368684
0.288567
-0.504382
0.111135
-0.260229
-0.204103
-0.645548
-0.258563
-0.041569
0.014035
0.291458
-0.093456
-0.343358
0.218661
-0.321912
0.615907
0.092087
0.284205
0.699165
-0.468210
0.308518
0.167019
-0.525572
-0.662467
-0.494972
-0.075621
-0.430971
-0.048202
-0.530720
-0.136040
-0.357703
-0.444172
-0.023467
0.675382
0.216416
0.114631
0.110203
-0.230246
-0.009421
0.453243
0.041542
0.686589
0.414080
0.358537
-0.345501
-0.175576
-0.525704
0.132079
0.016436
0.036564
-0.098585
-0.198407
-0.520512
-0.498021
-0.327976
-0.522407
-0.922363
0.023066
-0.125347
-0.403107
-0.493308
-0.213526
0.566003
0.493499
0.008933
-0.361279
-0.302899
0.491446
-0.553149
0.767711
0.010758
0.360200
0.225944
0.143201
0.445459
0.021298
0.009975
-0.761346
-0.048782
-0.074905
0.345082
-0.735171
1.138769
0.128788
0.378765
-0.533764
0.190774
0.055646
-0.130265
-1.099853
-0.412358
0.707562
0.092441
-0.412864
-0.570678
-0.480531
0.164572
-0.001426
-0.174636
-0.330568
-0.132930
-0.014212
-0.311376
-0.270601
0.567453
-0.330928
-0.165775
0.088206
0.460623
0.653967
0.375633
-0.452790
-0.193661
0.146190
0.245108
0.137760
-0.503574
0.014941
0.217652
-0.091963
-0.290892
-0.242877
0.261695
-0.504978
-0.773622
0.054941
-0.076990
0.501412
0.511707
-0.494853
-0.951149
-0.370085
-0.559544
-0.335707
0.564039
-0.048009
0.005813
-0.103098
-0.537557
-0.120654
0.381690
0.434344
-0.178392
0.170640
0.089055
-0.220633
0.507136
-0.325819
0.133477
-0.382367
0.047880
-0.703660
-0.396204
0.337421
0.036846
-0.222528
0.818451
-0.739570
-0.178937
0.509470
-0.065726
-0.175523
0.312262
0.022953
0.618696
-0.720060
-0.374748
-0.351227
-0.486323
-0.181696
0.752939
0.340841
-0.153865
-0.566683
0.042615
-0.587425
0.062044
-0.376742
-0.194597
0.017001
0.001922
0.145922
0.184327
-0.049798
0.053396
0.741970
0.036877
0.428216
-0.249410
0.652108
-0.057824
0.408528
-0.891242
-0.649329
0.228905
-0.363956
-0.410105
0.572949
0.378784
0.192327
0.221797
-0.234714
-0.073320
-0.274034
-0.467798
-0.378685
-0.108319
0.265410
-0.191939
0.026139
-0.210246
-0.281196
0.112652
0.234496
-0.231884
0.599782
-0.071515
-0.417188
-0.148318
-0.056204
0.185699
0.389666
-0.186667
0.470927
-0.204452
0.074271
-0.581676
-0.064161
0.293017
0.609491
0.232767
-0.321765
-0.045231
-0.406833
0.499095
-0.562196
0.347478
-0.390859
0.019978
-0.290523
0.330390
0.102895
0.080154
-0.407654
-0.269131
0.527010
-0.417694
-0.894203
0.336138
0.242732
0.226540
-0.166398
0.413740
0.698564
0.357842
-0.035800
0.348136
-0.078255
-0.446365
0.015812
0.154610
-0.228823
-0.004960
0.107473
-0.260565
-0.285433
0.341448
-0.429543
0.615029
0.053645
-0.381062
0.076278
0.352880
-0.326552
-0.645773
0.133692
-0.125171
0.250818
-0.446450
-0.588185
-0.998177
-0.070490
0.134653
-0.188879
-0.221861
-0.131855
-0.226331
-0.276712
-0.132499
-0.272417
0.214527
0.000466
-0.298968
0.258077
0.579259
0.538170
-0.052473
0.092708
-0.179824
0.155983
-0.433253
-0.428980
0.591441
0.150862
-0.673935
-0.061262
-1.094475
-0.281050
-0.214096
-1.261948
-0.619482
-0.239154
0.412321
-0.110349
0.226704
0.016588
0.248573
0.185214
-0.407130
0.400052
-0.659225
-0.017251
-0.313403
-0.303789
0.398076
-0.628513
0.327401
0.118037
0.105948
0.770604
-0.313065
-0.076922
-0.395846
-0.037106
0.441211
0.235825
-0.443404
-0.542904
-0.487032
0.525566
0.081387
-0.162088
-0.191196
0.357309
-0.344971
-0.098760
0.590967
-0.260574
0.175672
0.003408
0.097732
-0.874174
0.380142
0.087491
0.017941
0.266888
-0.421095
-0.176020
0.542580
-0.076868
0.534929
0.251799
-0.384603
-0.042843
0.592714
0.071541
-0.239682
-0.122413
0.457388
-0.095696
-0.710051
-0.378107
-0.160490
0.156663
0.462410
0.183760
-0.000919
0.359302
0.043120
0.438738
-0.091188
-0.136843
0.608476
0.764219
-0.035683
-0.195789
0.068600
-0.123918
0.239635
0.002398
-0.699131
0.016651
-0.284290
0.429839
0.064315
-0.720697
0.177443
0.314391
0.721030
-0.698027
0.268306
0.529972
0.627858
0.050654
-0.075641
-0.330790
-0.125755
-0.462461
0.321156
-0.091301
-0.325127
0.177639
-0.966258
-0.299441
0.215902
0.135602
-0.189958
-0.242279
-0.104145
0.506262
-0.768802
-0.328443
0.599370
0.372540
0.073869
0.406883
0.269126
1.110252
-0.572584
0.028840
0.263853
0.603814
-0.647773
-0.219505
0.329296
0.135385
0.304723
0.075913
-0.197906
-0.656762
0.140075
0.068643
0.021039
-0.716176
-0.600614
0.607879
-0.341622
0.501914
0.373810
0.639149
0.002044
-0.120163
0.013220
0.000418
0.151347
0.065980
0.403549
-0.640814
0.198239
-0.476823
0.177950
0.735936
-0.051089
-0.835183
0.197357
1.132063
-0.582593
0.053531
0.198761
-0.820907
-0.510169
-0.016178
-0.696516
0.453989
0.390804
-0.030725
0.316667
0.505181
-0.021489
0.220764
0.054841
-0.260164
-0.081897
0.344761
0.201995
0.448907
-0.087164
0.246957
-0.149168
-0.135605
0.009309
-0.398165
0.050268
0.463406
0.130665
0.126304
0.437073
-0.362862
0.485023
0.713834
-0.760283
0.016356
-0.494355
0.564403
0.019436
-0.394813
-0.734495
0.226032
0.220719
-0.053222
0.122088
0.231444
-0.001590
0.251174
0.436984
0.666838
-0.506637
0.619975
0.054434
-0.011249
-0.228932
0.169378
-0.628214
0.322524
-0.103108
-0.307592
-0.090062
0.084815
0.116899
-0.780827
0.464088
-0.052675
0.207051
0.565790
0.235382
0.496418
-0.067722
-0.147440
0.047197
0.395140
-0.253946
0.486364
0.504371
0.591331
0.338372
-1.025597
-0.734247
0.552737
0.471857
0.047725
-0.441962
-0.134122
-0.036674
0.054658
-0.047789
-0.383292
-0.616477
-0.753606
-0.353420
-0.632119
0.144722
-0.106957
-0.117156
0.369496
-0.258024
0.215623
-0.663719
-0.143636
0.108569
-0.171949
0.243753
-0.118181
0.007188
-0.344046
0.446272
0.509989
0.045755
1.051131
-0.075449
-1.085540
0.408697
0.043137
-0.420894
0.140402
0.183729
0.342055
-0.318911
0.071752
-0.426583
0.040705
-0.351271
-0.095368
-0.556123
-0.322582
0.348947
0.136096
0.492578
-0.015407
0.763501
0.499724
-0.085402
-0.180875
-0.689083
0.260257
0.197520
-0.495785
-0.040838
-0.025150
0.244558
-0.446952
-0.224927
-0.211848
-0.820864
0.167026
-0.016062
-0.071576
-0.302119
0.215666
0.007290
-0.085742
-0.149338
0.163772
-0.127471
-0.479486
-0.533778
0.512497
0.282113
-0.222912
0.061324
0.049575
0.390169
-0.538416
0.072014
0.365609
0.473017
-0.235731
0.133339
0.000842
0.645310
-0.402926
0.371137
0.205567
0.745593
-0.433345
-0.193923
0.570300
0.194114
-1.041549
0.515785
-0.557888
0.030452
-0.158681
-0.130893
0.565725
0.803498
0.075907
0.658144
1.074393
-0.218147
-0.018180
0.030640
0.086612
0.006185
-1.084870
0.464516
0.533479
-0.131751
0.160865
0.494002
-0.132346
-0.834260
-0.461991
-0.154073
-0.501119
-0.122319
0.518098
0.096681
-0.361131
-0.141848
0.934013
-0.056412
-0.554695
-0.487626
-0.090302
-0.510769
0.085010
1.081405
-0.001191
0.399645
0.660629
-0.035713
-0.081602
-0.109302
0.099322
-0.538427
-0.228691
0.317969
0.405468
-0.337619
-0.069558
0.255110
0.244212
-0.200861
-0.523772
0.255142
-0.042450
0.043666
0.210287
0.085431
0.049458
-0.176807
-0.317748
0.462225
0.230147
0.406564
-0.539301
-0.317911
0.238958
0.819667
0.942970
0.095069
-0.233157
-0.268725
-0.197611
-0.413165
-0.416477
-0.653009
-0.080608
-0.352453
0.277035
0.463087
0.629212
1.012224
-0.014136
-0.087556
0.010674
0.212046
-0.203366
0.216838
0.244345
-0.208334
0.177090
0.469818
0.954001
0.780509
-0.196864
-0.652401
0.140455
-0.017864
0.259444
-0.188174
0.196508
0.528382
0.439904
-0.167929
0.162612
0.527130
0.010726
-0.448743
-0.150493
0.194914
0.156536
0.293355
-0.836222
-0.268248
-0.242279
0.416374
0.213568
0.080328
0.217765
0.757159
-0.388780
-0.029111
0.003198
0.643957
0.693774
-0.043499
-0.214373
0.173783
0.314489
0.320362
-0.170017
-0.636333
-0.123402
0.475320
0.232675
0.695037
0.397116
0.125189
0.284435
-0.061757
-0.005035
-0.438414
0.979085
-0.021267
-0.271060
-0.453262
-0.408606
0.245980
-0.045817
0.153745
-0.303768
-0.079535
0.165573
-0.042511
-0.323132
-0.045842
-0.769741
-0.140892
-0.058224
-0.702936
-0.330405
0.182003
-0.184814
-0.318370
-0.891293
0.574356
0.050979
-0.146908
0.297332
-0.253792
-0.285959
0.146142
-0.348531
0.038590
-0.337367
-0.264545
-0.727921
0.280573
-0.537192
0.700277
0.167245
-0.492431
-0.017736
0.190345
-0.095992
0.304507
0.380607
-0.007224
-0.175608
0.400460
0.374318
0.254899
-0.725021
0.237799
0.018121
-0.616493
0.034989
0.344325
-0.997995
-0.459394
0.154969
0.071354
-1.166554
-0.336600
-0.696822
-0.298481
-0.039659
1.025797
0.026267
0.489906
0.615758
0.065899
-0.802628
-0.294220
0.403910
0.238267
-0.692711
-0.018067
-0.100454
-0.532153
-0.391589
0.815262
0.218264
0.025962
1.729776
0.689142
-0.018977
0.591467
0.099410
-0.194163
0.149216
0.241909
0.204957
-0.214926
-0.429996
0.255467
0.778809
-0.272698
0.539281
0.297164
0.108135
0.154904
0.416002
0.738640
0.529973
-0.799992
0.335590
-0.197032
0.117227
0.468611
-0.897698
0.722119
-0.038823
-0.459622
0.623306
-0.137523
-0.299835
0.777804
0.205526
-0.051236
-0.699551
-0.218857
0.070021
0.330490
0.008275
-0.184081
1.184828
0.128742
-0.534975
0.393253
0.594116
-0.573372
-0.024317
-0.042381
-0.158037
0.464959
-0.325089
-0.024156
0.256054
0.495726
0.141466
0.540124
-0.240848
-0.771066
0.194143
0.618524
-0.663010
0.334440
-0.033485
0.153433
0.661397
0.133593
0.151826
0.652280
-0.979250
-0.563686
-0.632081
0.158342
0.115476
0.179727
-1.141669
-0.745395
0.297210
-0.034639
-0.400941
-0.081134
-0.005515
0.053046
0.405402
0.342014
0.620475
-0.125372
0.200307
0.087200
0.187309
-0.276289
-0.311141
0.814794
-0.355755
-0.337739
-0.496842
-0.072978
-0.508082
0.626409
0.042777
-0.575751
-0.476067
-0.440478
-0.261494
-0.159971
0.468632
0.214848
0.254435
0.299842
0.676105
-0.175478
-0.002034
-0.544734
0.854576
0.203590
0.428096
-0.334974
0.395313
-0.264423
-0.244603
0.024808
-0.001430
-0.465365
-0.027581
-0.255686
-0.478122
0.579423
-0.219196
-0.412780
0.312391
-0.435183
-0.218210
-0.227060
0.114301
0.514824
-0.364561
-0.082422
-0.080091
0.679892
0.113528
-0.213361
0.159936
-0.013784
0.092209
-1.030853
-0.354225
0.133725
-0.427620
-0.937005
-0.164494
-0.080495
0.263954
0.524461
-0.036738
-0.045892
-0.183535
0.149206
-0.048402
-0.277491
0.143176
-0.145591
-0.268751
0.558490
0.477954
-0.266874
-0.241827
-0.392301
-0.179147
0.414415
0.278576
0.083390
-0.345912
-0.107825
-0.164480
0.346232
0.058668
-0.031148
-0.359020
-0.143181
-0.321614
-0.021966
0.107762
0.762521
-1.162787
-0.389646
0.213348
0.722449
0.110401
-0.911708
0.078178
-0.248062
-0.206853
-0.220764
-0.073829
-0.798693
-0.919585
-0.034526
-0.259829
-0.184511
-0.525172
0.094806
-0.324400
0.471233
-0.107122
0.394770
-0.193438
-0.479814
-0.431892
-0.420465
-0.737574
-0.113547
0.064964
-0.157187
-0.327797
-0.225839
0.370632
0.041572
0.228009
-0.325127
0.054145
-0.257441
0.009663
-0.353569
-0.025981
-0.556527
-0.380308
-0.466221
0.232480
-0.617934
-0.432539
0.183766
0.202807
-0.005268
-0.624324
-0.783342
-0.292697
-0.572938
-0.530358
-0.762929
0.554591
-0.503493
-0.168050
0.383053
0.674411
-0.006442
-0.846305
-0.035279
-0.225771
-0.063167
0.052090
-0.065967
0.192671
0.457527
-0.289772
-0.092353
0.018817
-0.837964
-0.275218
-0.527554
-0.305800
-0.138829
-0.043427
0.628881
-0.473217
-0.157485
0.226794
-0.406086
-0.314095
0.270224
0.107584
-0.991072
-0.627628
-0.309155
0.323574
0.330357
-0.166606
0.783035
-0.517486
0.298321
-0.125427
-0.256092
0.257157
-0.132603
0.078010
0.208425
-0.268924
-0.138239
0.265256
0.405431
-0.164987
0.386638
0.006730
-0.254265
0.350518
-0.126620
0.711502
-0.415946
0.166160
0.107996
0.616320
-0.515253
0.179130
-0.644925
0.138450
0.695418
0.325009
-0.699912
0.317067
-0.551446
0.352514
-0.627279
0.488066
-0.091107
-0.004074
-0.253634
-0.342070
0.176457
-0.591624
-0.250421
0.376533
-0.540393
-0.261981
-0.045954
-0.091038
0.476162
0.357793
-0.246142
0.717614
-0.586677
0.194255
-0.008945
-0.502099
0.312199
0.468795
0.244718
0.460161
0.440990
-0.020205
-0.626351
0.027054
-0.330416
-0.322558
-0.799275
-0.185930
0.255779
-0.437727
0.006280
-0.197005
-0.419274
-0.288146
0.310079
0.596918
-0.294827
0.169354
-0.005583
-0.430968
0.158019
0.158632
-0.243593
0.493907
0.034819
-1.019456
0.087286
0.131058
-0.165939
-0.538781
0.109139
0.446029
-0.299048
0.358124
0.458931
-0.581218
-0.073792
0.609262
0.265717
0.260807
0.009360
0.175546
-0.281103
0.337458
-0.134055
0.009187
-0.028042
0.085088
-0.304602
-0.461272
-0.385958
-0.253950
-0.069969
0.433061
-0.403774
0.203022
-0.156781
-0.137207
-0.949646
0.367019
0.532101
-0.038959
0.493772
-0.161646
0.544780
0.627373
0.464489
-0.091295
-0.178329
0.207106
-0.174270
-0.674964
-0.430724
-0.340202
-0.696003
0.582091
0.488391
-0.443385
-0.000001
0.509570
-0.085888
-0.245768
-0.350097
0.320532
-0.297171
0.054986
-0.370435
-0.104641
0.786515
0.302131
-0.430178
-0.145612
0.215938
-0.041963
-0.096815
-0.037053
0.040150
-0.854243
0.366094
-0.055900
1.066572
-0.436719
-0.218776
-0.434694
0.363830
0.431439
-0.440800
-0.698723
-0.247135
0.092382
0.431889
0.541034
-0.278699
-0.183505
0.296334
0.180095
-0.395853
0.126485
0.107682
-0.426221
-1.319275
-0.047949
-0.222808
0.188207
0.402129
0.101981
0.514111
-0.057495
0.229622
0.000394
-0.163333
-0.312998
-0.067101
-0.559576
0.520797
-0.497024
0.464301
-0.246739
-0.100540
0.152802
0.555329
0.139344
0.140503
-0.266219
-0.333293
-0.111703
0.224340
-0.683386
0.278855
0.568312
0.370457
0.479970
-0.155942
-0.295946
0.258166
-0.241134
0.187198
-0.848933
0.094108
0.111891
-0.036284
0.394963
0.323193
-0.729859
-0.265069
-0.343020
-0.228614
0.198234
0.652227
-0.651441
0.535210
-0.358716
0.023188
0.130599
-0.086031
0.100270
-0.729265
0.643729
0.183650
-0.098137
-0.111581
0.356160
-0.790594
-0.944304
-0.150104
0.120390
0.797219
-0.440149
-0.194332
0.487977
-0.055521
-0.008352
0.032966
-0.363506
0.399038
0.078564
0.377360
0.091346
-0.638854
-0.630188
-0.075562
0.248885
0.129099
0.513938
-0.342171
-0.159993
0.357777
0.137478
-0.030116
-0.269617
0.581771
-0.091465
-0.210621
-0.488945
-0.172593
-0.437523
-0.146437
-0.574199
-0.042225
-0.257093
0.318981
-0.575887
0.702884
0.175835
0.093395
-0.652411
0.497461
0.098848
-0.037291
-0.270792
-0.130746
0.308273
0.661374
-0.051983
0.470610
-0.523581
-0.697252
-0.254302
-0.328761
0.246760
-0.204098
0.494141
-0.398012
0.493783
0.656611
-0.186051
-0.392854
0.541454
0.393362
0.079400
-0.965935
0.562085
-0.344261
-0.782174
0.530383
0.579199
-0.223728
0.188699
-0.752293
0.406408
0.162322
-1.026440
0.282866
0.176939
0.341801
0.022615
0.098970
-0.279226
0.143355
-0.286821
-0.604734
0.104864
0.240910
0.255094
-0.295244
-0.375789
-0.183399
-0.132786
0.306910
-0.444250
0.481072
0.209767
-0.375586
-0.270811
-0.374930
-0.502121
-0.013703
0.260368
-0.052625
0.199656
-0.919063
0.200411
0.182139
-0.091433
-0.517448
-0.908725
0.435730
-0.048091
-0.055804
0.372220
-0.309983
0.129124
0.518703
-0.556524
0.245643
0.173679
-0.534522
0.728834
-0.100211
-0.557831
-0.041438
-0.236547
-0.153176
0.201231
0.038966
0.674568
-0.397083
-0.713750
0.084281
-0.290083
-0.007262
-0.724747
-0.094277
-0.047601
0.218005
-0.021135
0.476312
0.073279
0.247082
0.290605
0.263002
0.265675
0.654119
-0.157290
0.724869
-0.146891
0.831756
-0.081682
-0.085818
-0.060137
0.371652
-0.178985
0.060516
-0.080713
-0.017909
0.005746
-0.967499
0.074157
-0.103446
-0.189428
0.285137
0.807485
0.384614
-0.479304
0.057741
-0.171062
-0.200222
0.454382
-0.397882
-0.783180
0.131936
0.761743
-0.215645
0.526313
-0.429802
-0.817170
-0.480460
-0.561950
-0.138306
0.158320
0.226934
0.211014
-0.071038
-0.183573
-0.371740
-0.404455
0.066940
0.410053
-0.142053
0.299030
-0.100244
0.516235
-0.583488
0.314696
0.979365
-0.205236
-0.231425
-0.900236
-0.458047
-0.570492
0.134710
-0.259254
0.220633
0.062631
-0.099062
-0.681322
-0.021591
-0.280430
-0.036356
0.460575
-0.650965
0.040885
-0.109736
-0.202190
-0.183727
-0.694329
0.783910
-0.122332
-0.211935
-0.896178
-0.337709
0.195920
0.763657
1.212048
-0.366496
0.517876
0.045023
0.229266
0.157299
0.187175
-0.432608
-0.292413
0.104943
-0.403371
0.368772
0.447909
-0.196392
0.048994
-0.836293
-0.461591
0.335231
0.125032
0.397923
-0.457752
0.045135
0.342344
0.331876
0.484735
-0.282047
0.008993
0.448574
0.662452
0.108153
-0.037709
0.429468
-0.219333
0.870286
0.762960
0.272028
0.433951
-0.334433
-0.261442
-0.060060
0.646132
-0.082943
-0.067295
0.202485
0.308304
-0.487127
0.075459
0.496157
-0.228494
-0.258816
-0.190362
-0.164168
0.218239
-0.587467
-0.323998
0.058417
-0.028311
0.096713
0.294733
0.184645
-0.102384
0.306836
0.566830
-0.042153
-0.269445
0.275029
0.378535
-0.161049
0.098121
0.246707
0.427791
-0.397881
0.559295
0.178987
-0.630728
-0.532554
0.354825
-0.332984
0.555860
-0.073684
0.603956
0.005166
-0.402182
-0.259659
0.351540
-0.772720
-0.581461
0.754297
0.244297
-0.466629
0.601695
0.046936
0.215291
-0.024894
0.062845
0.350559
0.081623
0.387201
-0.417490
0.397868
-0.279124
0.298826
0.129546
-0.497011
0.311422
0.060944
-0.508640
0.247086
-0.187845
0.335505
0.145528
0.411626
0.438064
0.031602
0.051015
-0.491741
-0.076297
-0.351934
-0.208749
-0.164835
-0.202992
0.176952
0.110216
-0.586315
0.195647
0.375355
0.196518
0.060164
0.989372
-0.453280
0.715615
0.583346
0.241269
0.245539
-0.182367
-0.242297
-0.502950
-0.176141
-0.414104
-0.033061
-0.062177
-0.207586
0.050323
-0.232716
-0.167107
-0.130467
-0.354936
0.168869
-0.233394
-0.579463
-0.341494
-0.154017
-0.522315
-0.604986
-0.167027
-0.498357
0.684405
-0.416418
0.591787
-0.207053
-0.126778
0.295394
-0.552867
-0.536191
-0.433256
0.290309
-0.610722
-0.416241
0.620091
0.193927
-0.185275
0.045385
0.777053
-0.089824
-0.284622
-0.724699
-0.226654
0.335385
0.153583
0.182286
0.224110
-0.639127
-0.188459
0.308222
-0.182742
0.320595
-0.471044
0.464687
-0.355703
-0.423968
-0.125942
0.457850
-0.313665
-0.172219
-0.362084
0.205055
0.051268
-0.693952
-0.265451
-0.908516
0.564200
-0.058190
0.422014
-0.149619
-0.706508
0.354966
0.233587
-0.689897
-0.014423
-1.019411
-0.756701
0.724976
-0.578703
0.360038
0.440439
-0.001081
-0.655418
-0.514625
0.235976
-0.596278
-0.100494
-0.609309
0.103238
-0.026008
0.326327
-0.312461
-0.590320
-0.666296
0.032632
0.471424
-0.575694
-0.208222
0.356553
0.240108
-0.356747
-0.121160
-0.014399
-0.450407
0.084447
0.101653
0.550201
0.088501
0.545013
0.443856
-0.300153
-0.269596
0.629413
0.286863
-0.854956
0.350389
0.185294
0.516454
-0.220214
0.407024
0.604709
-0.489480
-0.178460
0.236919
0.149502
-0.084617
0.402729
-0.637542
0.047918
0.354932
0.628245
0.665818
-0.873730
-0.745330
-0.610063
-0.072037
0.074251
0.664179
0.215659
-0.538876
-0.341176
-0.290531
0.285597
-0.032211
-0.056964
-0.342650
0.024404
0.361131
-0.451476
-0.527257
-0.347854
-0.164026
-0.230357
0.586874
0.463664
0.168782
0.479478
0.436757
-0.247685
0.534888
-0.405866
-0.334359
0.480477
0.068438
-0.019886
-0.109775
-0.331462
0.144310
0.781475
0.320723
-0.341475
0.058313
-0.233069
0.228185
-0.156515
-0.412084
-0.309056
-0.012248
-0.587098
-0.065169
-0.008519
-0.306055
0.454972
0.382129
-0.354286
-0.087142
0.115282
-0.386135
-0.082177
0.193290
-0.071691
0.437518
-0.205965
-0.341417
-0.365101
0.100722
-0.795826
0.750167
-0.260905
0.061696
0.210803
0.025166
-0.061629
-0.158785
0.210105
-0.504336
0.309515
0.148591
-0.410244
0.050344
0.232666
0.182548
0.121918
-0.426730
0.363768
0.478428
0.819212
0.366796
0.348881
0.173046
-0.471279
-0.384537
0.281896
-0.306495
-0.354837
-0.518461
0.196813
0.670959
0.739320
-0.126615
0.428669
0.229901
0.053210
0.701275
0.129831
-0.227951
-0.483862
0.539462
0.265988
0.556647
0.097121
0.076270
0.375228
1.060054
0.556190
-0.007048
0.256364
-0.251688
0.116044
-0.044238
-0.479355
0.183865
0.259434
0.363342
-0.226115
-0.191012
0.019897
-0.302290
0.004452
-0.241535
0.510304
-0.378580
0.402724
0.177294
0.441748
-0.258312
0.086303
-0.772338
0.463648
-0.598320
-0.720186
-0.090149
0.383855
-0.013686
-0.247831
-0.429295
-0.197041
-0.244324
0.343374
0.155948
-0.368007
-0.380766
0.306626
0.690412
-0.076103
0.854830
-0.150598
0.024438
0.335858
0.509441
-0.171031
0.125068
-1.026286
0.013244
-0.692414
0.609253
0.659682
0.416238
-0.054106
0.264064
-0.343050
0.786282
0.670912
0.744470
0.129928
0.555406
0.069563
0.019802
1.099903
-0.706047
-0.246945
-0.042978
0.340746
0.094788
0.563904
0.675953
0.004806
-0.232833
-0.453678
0.309806
0.363045
-0.012999
-0.063117
-0.238862
-0.544871
-0.012267
0.671772
-0.396578
0.200357
0.842914
0.195869
-0.492780
0.059201
-0.381731
-0.009637
-0.004821
-0.079057
0.117834
0.184762
0.400097
0.170834
-0.545766
-0.292089
-0.290441
-0.183290
-0.401305
-0.424737
0.006929
0.465475
-0.303380
-0.756718
0.255673
0.076200
-0.007181
0.181849
-0.096259
0.490585
-0.391020
-0.516098
0.005807
0.086698
0.115947
0.281318
-0.883392
-0.247962
0.414587
-0.239391
0.533101
-0.035030
0.421931
-0.359631
0.864161
-0.236696
0.242455
0.389270
0.038116
-0.163131
0.160622
-0.221440
-0.324384
-0.011584
0.108652
0.027456
0.306057
-0.191233
-0.844249
0.355456
-0.153563
0.204059
0.567447
-0.688750
0.197950
-0.371345
-0.128184
0.679299
0.165897
-0.116627
0.802956
-0.043444
0.136432
0.190993
-0.291540
-0.166043
0.341033
0.124727
0.119278
0.124382
0.273756
-0.210643
-0.087994
-0.082626
-0.096867
-0.645148
0.516168
0.198314
-0.603411
-0.236136
-0.407055
0.866293
0.347258
0.555280
-0.220509
-0.355031
-0.581519
-0.423124
0.220222
-0.520108
0.073011
0.275940
-0.597731
-0.019574
0.391475
0.727612
0.026583
-0.197223
0.911938
-0.417187
0.044245
-0.523911
0.232102
0.554373
-0.061204
-0.022319
-0.224557
0.346034
-0.228827
0.648653
-0.508793
-0.238634
-0.204199
0.378595
-0.151163
0.103389
-0.241725
-0.976260
-0.156050
0.299296
-0.129762
-0.112691
0.070290
0.133990
0.047683
0.223954
0.564831
0.683918
0.286127
-0.604828
-0.117987
0.243730
-0.671231
0.064885
-0.301331
-0.116999
0.077901
0.347766
-0.532103
-0.080137
-0.314345
-0.873532
1.118157
0.090100
-0.341006
0.594040
0.245476
-0.063471
-0.228005
-0.731948
-0.381864
-0.480440
0.155461
-0.355831
-0.373189
0.680361
0.298825
-0.006952
0.158679
-0.053573
-0.052929
-0.252489
-0.556792
-0.426395
0.194495
0.551934
-0.009550
0.372508
0.156913
-0.366836
0.387277
-0.442310
-0.564455
-0.132617
0.245161
-0.235685
-0.452828
0.416178
-0.206331
0.081251
0.062238
-0.242269
-0.679363
0.555374
0.329650
-0.249961
0.260357
-0.221145
-0.248362
-0.634519
-0.343338
-0.013927
-0.513927
0.387893
0.277941
0.378662
-0.080401
0.906023
0.009224
0.233067
-0.552822
-0.566573
-0.156865
0.942268
0.354831
-0.247221
-0.423408
-0.644789
0.146675
0.221092
-0.791455
0.205273
-0.461218
-0.436198
-0.607866
-0.145019
0.445841
-0.256535
-0.290592
0.235835
-0.352010
0.802562
-0.077957
0.344516
0.115879
-0.217752
0.191898
-0.092808
0.147421
-0.254693
-0.432738
-0.045081
-0.460446
0.004297
-0.359748
0.496003
0.075224
-0.144316
-0.005924
0.383515
0.386326
-0.071447
-0.256176
-0.255830
-0.365445
0.350741
-0.137994
-0.161849
0.130110
0.542837
-0.482550
0.738878
0.285221
-0.452866
0.480420
0.252659
0.123530
-0.143652
0.743984
0.314808
-0.702320
-0.319903
-0.391529
0.567167
-0.655075
-0.693665
0.126891
0.061370
-0.720839
0.190902
-0.432803
0.395359
0.566732
0.168978
0.089612
-0.689901
0.368816
0.131941
-0.980737
-0.036510
-0.213558
0.268555
-0.101795
0.337741
-0.554969
0.025552
-1.184653
-0.063806
0.097466
-0.442991
0.544596
-0.517332
-0.374871
0.672238
0.576284
-0.402956
-0.218726
-0.069669
0.445775
-0.080221
0.115092
0.406322
-0.062485
0.352402
0.145831
0.003267
0.340034
-0.678234
-0.270257
-0.243922
-0.259672
-0.016904
0.669683
0.162821
0.306356
0.381374
-0.677354
0.417549
1.124378
-0.130682
-0.097099
0.283422
0.959667
-0.271707
-0.224765
-0.486919
0.370912
0.239849
-0.410345
0.122232
1.523305
-0.447088
0.363758
-0.842888
0.616457
0.330610
0.190045
-0.404364
0.038853
-0.034228
-0.435779
0.379532
0.212668
-0.008897
-0.138106
0.460416
-0.010251
0.321710
0.492621
0.244341
-0.250253
0.166607
0.855011
-0.314398
-0.723478
-0.639704
-0.794524
0.067823
0.488610
0.110487
0.446446
-0.056415
-0.276270
0.323039
0.187556
-0.561469
-0.387069
-0.288844
-0.293453
-0.024774
-0.581598
-0.235282
-0.108716
0.004317
-0.678987
0.439771
-0.450539
-0.914828
0.557817
-0.344190
0.211968
0.048071
0.654433
0.372285
-0.396905
-0.461876
0.061619
0.994423
-0.516069
0.086509
-0.005387
0.658758
0.374200
0.024466
0.001295
0.007569
0.216940
0.176973
-0.959473
-0.408180
0.398504
0.363585
-0.610212
-0.229850
-0.060772
-0.905301
-0.006776
-0.204571
-0.027235
-0.288725
-0.163782
-0.060295
-0.187617
-0.165307
-0.292722
0.733039
-0.088385
0.447303
-0.111973
-0.807972
-0.769567
0.275806
-0.137763
-0.387487
0.698972
-0.391768
-0.084263
0.628204
-0.096877
-0.043329
-0.313881
-0.046832
0.001323
0.203811
-0.204224
-0.015476
-0.291098
0.575766
-0.113525
0.084923
0.073980
-0.301867
0.305114
-0.156083
0.220581
-0.382323
-0.256795
0.537964
-0.416597
-0.601871
0.117066
0.002221
-0.165170
0.156992
0.506312
0.286117
0.097339
0.210410
-0.302530
-0.136643
0.499542
-0.134128
0.286012
0.211162
0.531401
-0.083588
-0.430594
0.090257
-0.373166
0.807228
-0.192661
0.578704
0.196491
0.140473
0.100237
0.154649
0.200850
-0.728017
0.119882
-0.681762
0.046698
0.173763
0.626181
-0.324393
-0.229750
-0.196542
0.108887
-0.074561
-0.592686
-0.663769
0.077588
0.127219
-0.286975
-0.097866
-0.109357
-0.306939
0.348755
-0.034951
0.530296
-0.439032
0.349458
-0.061842
0.670006
0.311569
0.705924
-0.448708
-0.561027
0.372525
-0.576411
0.646352
0.382074
0.279748
0.219547
-0.130839
0.182036
0.118255
-0.425485
0.508290
0.077404
-0.331691
-0.127447
0.096367
-0.248401
0.318054
0.110045
0.289787
0.025789
-0.154298
-0.076260
0.117355
-0.894100
0.034411
0.136250
-0.196163
-0.046257
-0.457380
-0.132763
-0.264382
0.097846
0.145860
0.473408
0.215614
-0.341307
0.350864
-0.092677
-0.026865
-0.022305
-0.351618
-0.028841
0.055052
0.374128
-0.106739
-0.010582
0.337631
-0.201496
-0.338012
-0.427154
0.638340
-0.163432
0.117620
-0.053673
-0.268427
0.454740
-0.048689
-0.082258
-0.227465
0.039088
-0.580026
-0.219977
0.464003
0.213484
-0.283046
-0.315642
0.533222
-0.550035
-0.346894
0.005374
0.419472
0.186495
-0.624433
0.119268
0.055979
0.444548
-0.318893
0.399952
0.240943
0.226279
0.128074
0.176864
0.216278
-0.572808
-0.396071
0.511249
-0.180098
0.020650
0.391824
-0.008304
-0.328802
-0.244218
0.067019
0.231862
0.141827
-0.070426
-0.438549
-0.077309
-0.524853
0.534597
0.040722
0.678551
0.353498
-0.245133
-0.319466
-0.034961
0.109879
0.257590
-0.219883
0.519890
0.347789
0.307826
0.369364
-0.298752
-0.199301
0.677871
-0.111128
-0.240815
-0.125332
-0.621741
0.038555
-0.054283
-0.757264
0.325090
-0.343850
0.197422
-0.169720
-0.134005
0.403334
-0.214788
-0.167616
-0.517187
0.228003
-0.075490
-0.114973
0.426427
-0.088659
-0.229796
0.446633
-0.236024
0.458971
0.238201
0.294880
0.396301
-0.124872
-0.333576
-0.050091
0.625172
-0.220071
-0.067347
-0.486623
0.318709
0.079361
-0.016607
0.433474
-0.024373
-0.207805
-0.186920
-0.514808
-0.228734
-0.331218
0.331344
-0.093666
0.434635
-0.284422
-0.275876
-0.408296
-0.391086
-0.480200
-0.327571
-0.386945
0.321361
0.704424
0.049432
0.181038
-0.351234
-0.368895
-0.253995
0.640587
0.377323
0.073388
0.714376
0.618052
0.617848
0.154776
0.399118
-0.528458
-0.171533
-0.055764
-0.834292
-0.479692
0.161566
-0.348083
-0.102832
0.071248
0.601351
-0.421401
0.306252
0.101149
-0.153846
0.020301
-0.437691
-0.168905
-0.379385
-0.306342
0.259942
-0.139694
-0.295038
0.012090
-0.161992
0.131502
0.176992
-0.581466
-0.357017
0.347970
0.059209
-0.559022
-0.684409
0.070723
-0.198047
0.290454
0.202460
-0.173256
0.472406
-0.430910
1.043077
0.143528
0.147716
0.152289
0.037123
0.635114
0.169471
-0.591722
-0.942945
-0.200700
-0.563717
-0.137538
-0.229362
-0.611716
-0.007448
0.689934
0.380278
-0.454491
-0.811122
-0.139118
0.446209
-0.039312
-0.833503
0.381560
0.215796
0.037094
-0.300468
0.462439
-0.292958
-0.384066
-0.130965
-0.564613
0.344709
0.324331
0.102013
0.145428
-0.482504
-0.078738
-0.315271
-0.678802
0.145172
0.522257
0.542764
-0.010415
-0.090186
0.504626
0.363904
-0.277034
-0.509398
-0.141528
-0.050690
-0.077222
-0.201033
-0.112555
0.899575
-0.117688
0.342659
-0.086565
-0.251692
0.386554
0.585674
-0.090722
0.314357
0.556311
0.572847
-0.220847
-0.194331
-0.287683
-0.035281
0.120315
0.595408
-0.495503
-0.234741
1.028890
-0.223409
-0.003376
0.277486
-0.000934
0.548486
0.088066
0.018306
0.429181
-0.044276
-0.477229
-0.809900
-0.635997
0.257188
0.211160
0.223961
0.341584
-0.060840
-0.496860
-0.173528
0.279183
-0.177942
0.738215
0.381591
0.104213
0.996893
-0.116807
-0.210787
0.474107
-0.184574
-0.084646
0.227054
-0.230909
-0.461551
0.472825
-0.668123
0.023649
0.871300
0.804412
-0.357695
-0.066745
-0.222442
-0.263747
-0.119555
0.281301
-0.076122
-0.097782
-0.369316
-0.129710
0.152598
-0.699847
0.211265
0.141146
0.130273
-0.223293
-0.234208
0.067715
-0.213749
-0.225717
-0.761031
0.089159
-0.091704
-0.484217
0.032728
0.030567
0.257039
-0.006695
-0.038522
0.899348
0.367194
-0.366787
0.059637
0.343430
-0.844650
0.274488
-0.321836
-0.658534
-0.729345
-1.242256
-0.274820
-0.939962
0.628153
-0.616006
0.300491
-0.428571
0.356177
-0.679950
0.393534
-0.758615
0.243218
-0.018139
-0.048282
0.146443
0.097663
0.206440
-0.183180
0.296589
0.200274
0.077271
-1.099061
-0.177816
0.177724
0.574933
0.037593
-0.065840
-0.166688
-0.426439
0.325500
-0.576354
0.151788
0.510937
-0.232186
-0.355372
0.024265
-0.467050
0.245150
0.586158
0.559945
-0.255290
-0.434946
-0.149128
-0.538681
-0.172242
0.200669
0.083743
-0.376598
-0.154760
0.355442
0.613403
0.234170
-0.164706
-0.619995
-0.160111
-0.164391
0.864061
0.115295
-0.095377
-0.054339
0.082051
0.336498
-0.043374
0.010034
0.005128
0.652464
0.641184
0.207191
-0.655595
0.298954
-0.073803
0.399646
0.426327
-0.259608
-0.716065
0.364710
-0.472510
0.457240
0.134537
-0.293310
0.311128
0.020714
0.610580
0.554817
-0.450954
-0.911947
-0.179267
0.790114
0.070057
-0.109104
0.204296
-0.448954
-0.155916
0.314479
-0.320064
-0.236537
0.424683
-0.413449
-0.718324
0.337151
1.117999
0.524958
0.353217
-0.111897
0.598059
0.201825
-0.321615
0.206189
0.539559
0.703190
0.051786
0.153878
-0.031897
0.272875
-0.002409
-0.339966
-0.160336
0.568010
-0.145278
-0.634653
-0.135701
0.619146
-0.870911
-0.002689
0.461171
-0.371114
0.563802
-0.112315
-0.655327
-0.495450
-0.237406
-0.048191
-0.625582
0.215914
-0.082806
-0.503281
0.465577
0.605180
-0.609490
0.168628
-0.119451
-0.105832
-0.129134
0.715677
-0.222243
-0.711479
0.298168
0.118558
-0.507638
-0.345543
0.050384
-0.116855
-0.008848
-0.219890
0.119120
-0.847521
-0.547753
0.120684
-0.263047
-0.014134
-0.326949
0.108680
-0.571405
0.259600
0.203972
-0.514691
-0.269993
-0.532815
-0.109364
-0.181251
-0.387310
-0.171928
0.309749
-0.616616
-0.063849
-0.482906
0.142902
0.759535
-0.364071
-0.250000
-0.350756
0.129259
-0.432588
0.253186
-0.196360
0.161096
0.416629
-0.147848
0.163709
0.477178
0.243366
-0.371011
0.411737
0.227603
-0.167806
0.406147
0.744457
0.080535
-0.064453
0.010938
0.184018
-0.202632
-0.182627
-0.518305
0.057917
0.345022
0.398138
0.315334
0.094447
0.380860
-0.203304
-0.598365
-0.038835
0.396542
0.454944
0.399873
-0.143236
-0.695593
0.272039
1.151032
-0.258897
0.215158
-0.800943
0.559217
0.020625
-0.128550
-0.229484
0.297685
0.060735
-0.660653
-0.775173
0.274451
-0.095367
0.467507
-0.003823
0.612942
0.519692
0.276812
-0.060907
0.127954
-0.240949
0.083490
-0.116807
-0.932977
-0.551561
-0.407172
-0.274606
-0.052874
0.332219
-0.277611
-0.328145
0.220290
0.335303
-0.006493
-0.756535
-0.299675
0.563124
0.207162
0.038402
-0.001404
-0.560692
-0.113819
-0.322578
-0.639866
-0.808952
-0.227187
0.152175
1.165338
0.042246
-0.266795
0.673907
0.244473
-0.700970
-0.577374
0.185423
0.064747
-0.072654
0.627961
0.339951
0.673098
0.233901
-0.052793
-0.060232
-0.131610
0.128754
0.459265
-0.255482
-0.450786
0.190318
-0.451466
0.243277
0.594958
-0.446494
-0.299720
1.036761
0.878282
0.774415
0.135197
-0.677271
-0.061092
-0.015529
-0.044780
-0.250436
-0.011781
0.194851
-0.431158
-0.734450
-0.276886
-0.229253
0.669620
-0.393752
0.401858
-0.235184
0.031432
-0.522152
0.258820
-0.305590
0.476640
0.002094
0.341461
-0.339278
0.263707
0.342414
0.112623
0.574651
0.141230
0.297747
-0.256689
0.627930
-0.525328
0.587703
0.258935
0.384532
-0.280928
-0.720470
0.540138
-0.163447
-0.153059
0.620199
-0.610071
0.010212
-0.332987
0.182018
0.013748
-0.459739
-0.402767
0.437952
0.061036
0.251935
-0.085563
-0.002006
-0.079226
-0.095594
-0.251719
-0.952015
0.162529
0.040900
-0.155968
-0.028255
-0.276619
0.063778
0.558420
-0.254529
-0.142410
-0.642961
-0.324935
0.466582
0.432392
-0.287903
0.382470
0.184366
-1.177899
-0.012915
0.000371
0.029299
0.095042
-0.331889
0.180967
-0.241239
-0.447218
-0.486416
-0.756633
0.399769
-0.008142
-0.018956
0.714783
-0.280086
-0.194246
-0.728267
0.850950
-0.097232
0.043885
0.106345
0.233140
-0.105596
0.409769
-0.509618
-0.438575
0.263539
-0.305822
-0.026216
0.603688
0.015371
-0.303139
0.071921
0.761569
-0.127724
-0.176123
0.145570
-0.122878
-0.086851
-0.685207
-0.748032
0.049294
0.403392
-0.029700
0.112777
-0.929645
-0.529950
0.093453
-0.333626
0.348552
1.087024
-0.323897
0.154495
0.733025
0.676146
0.237459
-0.522224
0.516139
0.129166
0.146001
-0.537083
1.299517
0.037723
-0.086662
-0.250830
0.396190
0.182142
0.119391
0.180762
-0.286033
0.415148
-0.306481
-0.274982
-0.065607
-0.124432
0.320708
0.659334
0.136125
0.969242
-0.188218
0.458822
-0.169305
-0.710743
-0.043405
-0.315645
0.083106
-0.086184
0.081761
0.544153
0.276746
-0.021337
0.203086
0.556652
0.385352
-0.242535
-0.171355
-0.196362
-0.543790
0.613333
-0.491081
0.382678
-0.889132
0.705067
0.202807
-0.188552
-0.199979
-0.389064
-0.054281
-0.517989
0.059249
0.160895
-0.551435
0.103236
0.087450
-0.143259
-0.053426
0.579285
-0.492391
-0.896403
-0.348605
-0.000893
-0.372940
-0.087221
-0.464248
-0.363654
0.521895
-0.990683
-0.042512
0.036415
-0.272096
0.502493
0.588445
0.433593
0.465463
-0.207410
0.174073
-0.306861
0.535681
0.078975
-0.490377
-0.223540
0.085138
0.411514
0.168389
0.080877
-0.282503
0.305783
-0.118781
-0.813321
-0.085208
-0.290312
-0.603847
-0.193926
0.616331
0.083005
0.182518
-0.594630
-0.005009
0.068564
0.010744
-0.447455
0.630724
0.022395
-0.014600
-0.282351
0.028481
0.344353
0.231025
0.382374
0.611317
-0.214148
-0.129729
0.871595
-0.011192
0.312080
-0.279783
-0.064794
-0.222622
0.603240
-0.064992
0.238785
-0.060900
0.166697
0.155004
0.467475
-0.028804
0.631467
-0.281709
0.318636
0.095734
0.077997
-0.322754
0.393255
-0.386056
-0.443563
-0.190219
0.354469
-0.294471
0.131222
-0.117410
-0.337557
0.104803
-0.144926
-0.403084
-0.438248
-0.141304
0.114412
0.460062
-0.200350
0.316244
0.219346
0.241296
0.376816
-0.634379
-0.213188
-0.127121
0.071771
0.977581
-0.077683
-0.648432
0.137198
0.703385
0.422680
0.471107
0.628533
-0.124768
-0.724095
0.099827
-0.763539
0.510138
1.025944
0.784713
0.052010
0.446403
0.396138
0.472611
-0.386054
0.374581
0.078834
-0.294990
-0.102603
0.222224
0.311109
-0.338932
-0.272555
0.332454
-0.095291
-0.059573
0.495891
-0.431993
-0.231382
-0.010582
0.706330
-0.407887
0.217490
-0.049649
0.012589
0.536086
-0.302117
-0.096339
0.223758
0.255165
0.121041
0.071588
0.081916
0.340095
-0.445852
-0.480157
0.494897
-0.765695
0.439474
0.797218
0.418029
0.373035
-0.846796
0.092784
-0.243083
0.851213
-0.222929
-0.321652
-0.809375
0.558398
0.255121
0.355708
0.706407
-0.390429
-0.362247
-1.110621
-0.361741
0.011806
0.141954
-0.216009
0.278557
-0.111693
0.261042
0.568088
-0.331166
-0.104028
-0.049602
-0.380024
-0.254550
-0.357146
0.011550
-0.901031
-0.537294
0.646048
0.081763
-0.084614
-0.208372
0.117934
-0.212063
0.242605
-0.300518
0.556117
-0.138092
-0.110959
0.124587
0.292777
-0.385869
-0.195032
-0.504382
0.297277
-0.121970
0.062075
-0.156641
0.594637
0.039693
0.279303
-0.620449
0.136353
0.983312
0.214790
-0.335882
-0.722955
-0.494536
-0.154159
-0.116696
-0.396878
0.114508
0.250746
-0.317208
0.271227
-0.374676
0.138657
-0.371774
0.894770
-0.364469
0.157575
-0.023301
0.768633
0.074752
-0.057307
-0.613764
-0.353532
-0.380658
-0.301661
-0.060814
0.477103
0.195224
-0.164234
0.289542
0.595945
-0.433210
-0.492931
0.158567
0.076889
-0.230203
0.654917
0.169970
-0.591262
0.644280
-0.042204
0.586198
-0.012391
-0.462203
0.066930
-0.195640
-0.086855
-0.723912
0.567914
0.450643
0.382169
0.719173
1.050081
0.103697
0.763976
0.999145
-0.529104
0.022036
0.151287
0.194141
0.233923
-0.097093
0.399575
0.297026
-0.100499
0.365801
-0.708973
-0.471164
-0.512532
0.825475
0.323251
0.347883
-0.521410
0.038365
-0.219182
-0.054535
0.284900
-0.254090
0.431784
0.280838
-0.155099
-0.144897
0.678327
0.583725
0.044777
0.021534
0.326497
0.498765
0.065654
-0.064365
0.008134
-0.190410
-0.015692
0.171111
0.143065
-0.010614
-0.057351
-0.243707
0.136636
0.025074
0.999953
0.917992
0.535625
-0.303293
-0.299305
-0.311600
0.114743
0.098227
0.832925
0.174079
-0.860302
-0.628118
0.240186
0.065453
-0.760124
-0.680886
-0.161908
0.072631
0.079937
-0.585242
-0.194333
0.060674
-0.221097
-0.021014
-0.253409
-0.132834
0.116977
-0.358392
0.107804
-0.324177
0.575342
0.071983
0.082215
-0.047651
-0.114336
-0.335704
-0.114337
-0.066425
-0.590190
-0.475816
0.373255
0.138148
-0.342534
-0.112821
0.094213
0.155896
-0.525151
0.283103
-0.408833
-0.659121
-0.623397
-0.331342
-0.575798
-0.535927
0.775522
-0.313240
-0.480053
-0.171839
-0.479758
-0.171029
0.158755
0.830016
0.411377
-0.036013
0.417711
-0.168788
-0.253601
0.407154
0.297996
-0.403325
-0.232191
-0.805498
0.183524
-0.054288
-0.392769
-0.405519
0.183130
-0.441453
-0.725484
-0.068320
-0.281868
0.155295
0.294762
0.442666
0.261706
0.197139
-0.615181
0.052781
-0.161357
-0.711961
0.087799
0.521026
-0.241490
0.049446
-0.034693
-0.663433
0.429791
0.418838
-0.252395
-0.079523
-0.037256
0.389535
0.145526
-0.757869
-0.367110
0.073697
-0.898803
0.402708
-0.392783
0.011478
-0.337459
0.681410
0.279476
-0.228126
-0.967897
0.082880
-0.209948
-0.592564
0.748478
-0.143354
-0.070288
-0.373771
0.314335
-0.773197
-0.143812
-0.043242
0.325992
-0.142637
0.030614
0.489028
0.494627
0.013116
0.575106
-0.010043
-0.426872
0.013454
0.362344
-0.922901
-0.400662
-0.085012
0.230996
0.453779
-0.141618
-0.361632
0.382163
-0.131982
-0.614955
0.141562
-0.680742
-0.578795
0.702661
0.465136
0.267251
-0.419258
-0.166232
0.214170
-0.102598
0.403399
0.391032
0.334686
0.731329
0.313152
-0.068483
-0.029959
-0.095718
-0.049131
0.473511
0.065181
0.070328
-0.384838
0.481314
0.284830
-0.368178
-0.399873
-0.433284
0.625808
-0.295222
0.384069
-0.360126
-0.766014
1.200683
-0.166730
-0.040416
0.178154
0.729791
0.522178
-0.542298
0.426577
0.195453
-0.178500
0.418545
-0.805714
-0.438357
0.356753
-0.261747
-0.355325
0.225144
-0.171149
0.295497
0.544101
-0.942473
-0.167181
0.228610
0.508209
-0.585446
-0.245854
-0.275553
0.336961
-0.722134
0.513669
0.029846
-0.198808
-0.270291
-0.685981
0.115103
-0.123104
-0.296740
-0.733567
-0.732932
-0.548567
-0.069481
0.208314
-0.209542
-0.250620
-0.313730
0.016318
0.237982
0.062635
-0.425358
-0.653166
-0.438383
-0.514496
-0.552637
-0.073808
0.494547
0.200779
-0.000098
0.255081
0.886225
0.435493
-0.381072
-0.326997
0.383494
-0.004122
-0.491296
-0.558633
0.168850
0.567915
0.016547
0.126362
-0.700437
0.342029
0.726284
-0.779714
0.017073
-0.696822
-0.271082
0.220925
0.147989
-0.340198
-0.310377
-0.120583
-0.356968
0.260498
0.343345
0.345086
-0.292751
0.622051
0.208866
-0.509564
0.519188
-0.285329
-0.096802
0.252275
-0.976287
0.197686
-0.238250
0.422252
-0.045203
0.115161
-0.288044
-0.669821
-0.354029
-0.198404
0.272137
0.413459
0.630110
0.173206
0.282275
-0.533770
-0.236590
0.122992
0.208687
0.108332
0.042433
0.046078
-0.153384
0.203180
-0.347857
0.315893
-0.232189
0.649185
0.075177
-0.609004
0.051652
0.038411
0.157384
-0.588570
-0.293729
0.136477
-0.061064
0.091835
0.279694
-0.312147
-0.292888
0.596491
-0.074775
0.420167
-0.136350
-0.422181
0.309915
0.977856
-0.560694
-0.059483
0.351886
-0.750443
0.837254
-0.096787
0.077064
0.249435
0.810148
-0.563207
0.010997
0.111997
0.011532
0.541565
-0.507194
0.190964
-0.027833
-0.237342
-0.614646
0.191526
0.556189
-0.209525
-0.228390
0.944984
0.282293
0.265979
0.550447
0.623257
0.116292
0.392648
0.627831
-0.453560
-0.452324
0.397379
-0.091528
0.094409
-0.010920
0.186384
0.171950
0.370462
0.236229
0.317666
-0.111598
-0.560309
-0.824464
-0.062643
-0.250995
-0.172640
0.036992
0.529612
-0.782945
-0.674125
0.397174
0.054879
1.105675
-0.227814
-0.140408
-0.138194
0.296954
0.163572
-0.809970
-0.304992
-0.430737
0.551384
0.056904
0.145324
-0.161960
0.011232
-0.298365
1.050550
-0.014890
0.468794
-0.111235
-0.685735
0.240321
0.388356
-0.011171
0.203039
-0.087513
-0.398201
-0.486726
-0.759418
0.378372
0.450983
-0.000161
-0.333850
0.628480
0.267011
0.742550
0.501130
0.521802
-0.180172
0.162549
-0.608159
0.041842
-0.147997
-0.298489
-0.107147
-0.551707
-0.025415
-0.056424
-0.793031
0.132648
-0.460231
-0.296628
-0.588020
0.075583
0.393759
0.604502
-0.256958
0.455617
-0.580533
0.014939
-0.305142
-0.133433
-0.445978
0.592274
0.325465
0.082699
-0.431112
0.275377
-0.528198
-1.134068
0.725748
-0.243360
0.311937
0.677623
-0.566012
-0.000467
0.704633
0.014329
0.353483
0.227922
0.221901
-0.436634
0.304283
-0.405273
-0.037830
-0.239381
0.846881
-0.699487
-0.103517
0.094692
0.255697
0.027889
-0.052156
-0.237713
0.452902
0.232157
0.545137
-0.696462
0.024378
-0.395741
-0.134639
-0.187499
0.221152
0.043896
-0.679464
-0.300547
0.245446
0.205626
-0.213463
-0.780996
0.195681
-0.711369
-0.335731
0.304471
-0.405345
-0.152337
0.535742
-0.048163
0.022507
0.023288
-0.529031
-0.474833
1.053396
-0.098466
-0.342429
0.013571
0.662017
0.208660
-0.333190
-0.065651
-0.164870
0.029254
0.642250
0.654991
-0.324235
-0.060381
0.025935
0.234735
0.465746
0.727598
-0.610475
-0.284933
0.097721
-0.275572
0.228520
-0.514212
-0.269335
-0.263617
-0.240718
0.085248
0.305300
0.175827
-0.264492
1.390320
0.103903
-0.030107
-0.573738
-0.093847
0.302548
-0.069047
0.357652
0.170856
0.440225
0.510395
0.192984
-0.616828
-0.008712
-1.146711
-0.181503
0.426472
0.617214
-0.796312
-0.338947
-0.432171
0.875900
-0.598259
-0.536362
-0.180443
0.258162
-0.377738
-0.132510
-0.118345
-0.065903
-0.268022
-0.265455
-0.052843
-0.045461
0.019157
-0.204792
-0.568347
0.290260
0.791027
-0.136312
-0.608677
-0.223207
0.207080
-0.138677
-0.101242
0.024839
-0.138867
-0.106872
1.588223
-0.188862
0.430872
0.274746
0.161597
0.294610
-0.387408
0.316814
-0.080177
0.827120
0.214578
-0.579350
-0.129774
0.587015
-0.345841
-0.004548
-0.802407
-0.153331
-0.392153
0.743082
0.280053
-0.152571
-0.309505
0.322264
0.050700
-0.429303
0.480684
0.398977
-0.681749
-0.303954
-0.052107
-0.080844
-0.221982
-0.307783
-0.259390
0.040628
0.284960
-0.288970
-0.119664
0.307498
0.075608
0.271868
0.215943
0.190628
0.343285
-0.412333
-0.108178
0.196053
-0.511755
-0.936890
0.441408
0.088363
-0.083603
0.273210
0.101554
-0.207091
-0.146578
0.169814
-0.397572
-0.319499
-0.271179
-0.061054
-0.161713
-0.526377
0.069095
0.145919
0.109366
0.649855
0.154897
-0.233334
0.050699
0.415669
0.060308
-0.278947
0.019367
-0.247769
-0.578015
-0.189657
0.388912
0.339115
0.229873
0.005719
-0.173001
-0.334504
-0.436335
0.315004
-0.220151
-0.244065
-0.242234
0.030117
0.198338
0.433005
-0.016029
0.972979
0.388269
-0.483016
-0.541794
-0.400942
-0.271101
0.168863
-0.513663
0.225066
-0.042013
-0.366374
-0.375161
0.866644
0.654972
-0.422472
0.605838
-0.349313
0.030486
0.255277
0.040596
-0.124067
-0.858107
0.005856
0.065022
0.474094
1.018211
0.386713
0.774491
-0.813865
0.065251
0.275997
-0.433715
-0.523243
0.125276
0.015887
0.150005
-0.412577
0.098194
0.602899
-0.467401
0.585430
-0.030718
-0.394645
-0.456150
-1.018987
-0.166681
-0.501718
0.769951
-0.022403
-0.320367
0.133432
0.305953
0.101804
0.108025
-0.201064
-0.033429
-0.077663
-0.950234
-0.638599
0.888752
0.072406
-0.013471
0.383297
-0.421699
-0.049394
-0.493103
0.263945
-0.448172
0.539012
0.170921
-0.232363
-0.082113
0.709284
0.238764
0.013300
0.795878
0.617238
-0.397805
-0.321581
0.293011
-0.244320
0.037766
-0.868386
0.186766
1.287958
0.324705
-0.194492
0.088812
-0.021776
0.108596
-0.209960
0.571539
-0.593260
0.090807
0.204323
-0.463120
-0.098377
-0.293883
-0.386156
-0.143348
0.067966
0.361374
0.922801
0.621537
0.223342
-0.227583
0.011574
-0.143552
0.115453
-0.461401
0.203477
0.712477
0.287070
-0.127502
0.200952
-0.123041
0.474417
0.495916
-0.024397
-0.106297
0.191736
0.137630
0.043539
0.092261
-0.223863
0.099559
0.354460
-0.183006
0.682892
-0.148004
0.188299
-0.186373
-0.571163
0.474010
0.908591
0.875996
-0.731437
-0.378596
-0.314053
-0.048701
0.341019
0.248738
-0.268657
-0.109635
0.203617
0.177902
0.377564
-0.005758
-0.137734
0.641174
-0.597610
-0.111579
0.596820
-0.204309
0.062036
-0.281962
0.276148
-0.466771
-0.112834
-1.662789
-0.041805
0.321091
-0.170092
-0.021063
-0.437810
0.476838
0.007138
0.066078
-0.232336
-0.671830
0.146331
0.014033
-0.076520
1.180283
0.017552
-0.693401
-0.195952
0.326827
-0.050197
-0.413120
0.255739
-0.135236
0.064457
-0.561650
0.372070
0.163079
1.074591
-0.584189
0.532745
0.909690
-0.966250
-0.637919
0.101260
0.038373
-0.198581
0.444062
0.423642
-0.469842
0.881950
1.396575
-0.659385
-0.247072
1.285021
-0.596896
0.515176
-0.337304
1.428034
-1.152771
-0.950694
-3.058795
1.566548
-0.490425
-0.561955
-0.237933
0.736080
-0.906969
-0.544574
-0.542445
-1.890228
-0.149283
0.769697
0.612828
0.262680
2.381077
-0.663816
-2.382808
-0.328648
-0.285478
-0.123604
0.875306
0.338303
-0.093842
0.586537
0.190709
-0.157430
-0.362028
2.478666
-0.179881
0.341902
2.451974
-0.910147
-1.754681
1.494317
-1.755301
1.000996
-0.587710
0.458491
