0.131516
-0.481152
-0.032071
0.004997
1.033311
0.213885
0.274305
0.519687
0.401050
0.453010
0.118577
-0.372428
0.040850
-0.223942
0.609213
-0.386637
-0.051031
0.237282
0.237305
-0.397610
-0.224735
0.777749
0.221911
0.622092
0.173905
0.231876
-0.146317
0.121424
0.091303
-0.070682
-0.768196
-0.634842
-0.750334
0.251092
0.480686
-0.907439
0.177755
-0.320099
-0.203590
-0.170702
-0.761185
-0.322749
-0.318216
-0.119340
-0.124162
-0.197777
-0.250384
-0.067347
0.499584
-0.613871
0.533982
0.366487
0.329449
0.188336
-0.326990
-0.417799
-0.305388
0.381324
0.284844
-0.365696
0.294264
0.628531
-0.360457
-0.552805
0.068377
0.820336
0.285614
0.592057
-0.646429
-0.279594
0.000883
0.033187
-0.693578
0.660811
0.106790
-0.345696
0.033758
-1.002303
-0.507349
0.164235
0.492478
0.131000
-0.271475
-0.386423
-0.790467
-0.108810
-0.223489
0.156179
0.223304
-0.353806
-0.135430
0.008590
0.255626
-0.874236
-0.776008
0.659356
-0.505538
-0.644668
0.639973
0.342587
0.152401
0.037917
-0.481741
0.382133
0.208635
-0.302453
0.743135
0.011528
-0.208395
-0.103978
-0.211667
0.331430
0.076682
0.239282
-0.010709
0.364013
-0.014704
0.125620
-0.133039
-0.036675
0.210161
-0.505433
0.051765
0.274624
0.114060
0.291867
-0.137599
-0.207035
0.789837
-0.613796
-0.141849
-0.062520
-1.003788
0.052786
-0.196975
-0.031325
-0.762671
0.394782
-0.061174
-0.060845
-0.940600
0.277146
0.422381
0.594055
0.009722
0.009180
0.208922
-0.139264
-0.286891
0.069078
-0.210266
-0.180355
-0.109411
0.741661
0.444590
0.260246
0.497917
0.001152
0.154867
-0.805249
0.102088
-0.677813
-0.572520
0.705107
0.082385
0.559532
0.342537
-0.712752
-0.883763
-0.797051
0.401997
-0.090725
-0.385423
-0.346944
0.427590
0.030024
-0.166333
-0.412104
0.101209
0.221523
0.185541
0.264354
0.294392
-0.203412
0.182484
0.056620
-0.154118
0.402144
-0.169430
0.119902
0.263453
-0.196811
-0.389260
-0.029300
0.363230
-0.472975
0.660729
0.019207
-0.028517
-0.694435
-0.214680
0.074596
0.378931
-0.273954
-0.386733
0.466700
-0.594836
0.294291
0.417479
-0.036420
0.349069
-0.026458
0.120546
0.342102
-0.256705
0.318786
-0.289249
0.041365
0.280990
0.555301
0.532049
0.047840
-0.333382
0.624742
-0.443070
0.287232
0.591981
-0.132617
0.381231
0.023724
0.108325
-0.105696
0.279053
-0.210765
-0.296218
0.087284
-0.530727
0.538120
0.187596
0.498300
-0.131735
0.063867
-0.260167
-0.113169
0.195275
0.386374
-0.027950
0.649487
0.724110
0.076364
-0.589218
0.002306
-0.063224
-0.063304
0.125564
0.249502
-0.065807
0.059458
-0.389273
0.553531
0.008348
-0.214009
0.403493
0.009234
0.000748
0.165251
0.293304
-0.492449
-0.400603
0.614153
0.303902
0.064972
-0.572699
0.378720
0.307075
0.150978
0.058442
0.303439
-0.421791
-0.913216
-0.694115
0.045108
-0.095001
-0.128573
-0.161640
1.000021
-0.705737
0.701102
-0.294920
-0.251273
-0.063626
-0.378365
0.429691
0.901379
0.183264
0.281799
0.086955
0.673961
0.533128
0.261028
-0.491124
-0.025370
0.221784
0.747266
0.266252
-0.022162
0.063012
-0.245371
-0.133970
0.151865
-0.392638
-0.223799
0.193800
0.391245
-0.139288
-0.503344
0.466568
0.520907
0.437387
-0.936239
-0.108535
-0.318610
-0.246593
-0.481668
-0.016263
0.094875
0.151802
-0.308762
-0.099475
0.715470
-0.071240
0.502411
-0.812191
-0.507953
0.108247
0.025956
0.077046
0.044334
-0.420592
0.340130
0.192361
-0.231570
-0.220061
-0.029470
0.410462
-0.011519
-0.102306
0.056680
-0.234885
0.072299
0.012773
-0.598344
-0.395757
0.334593
-0.485462
0.140116
-0.256932
-0.195678
-0.653337
-0.250991
-0.036826
-0.003526
0.301120
-0.048891
-0.311163
0.234892
-0.296657
0.597353
0.079520
0.265995
0.691284
-0.463799
0.329309
0.184542
-0.561965
-0.675021
-0.484143
-0.056706
-0.439077
-0.059151
-0.525763
-0.113778
-0.328509
-0.407587
0.008964
0.647166
0.212520
0.095199
0.092978
-0.208364
-0.021654
0.459684
0.019163
0.679905
0.426829
0.353004
-0.333565
-0.126263
-0.540957
0.135186
0.032844
0.041042
-0.056935
-0.194608
-0.508653
-0.490099
-0.304738
-0.516670
-0.909528
-0.013562
-0.156028
-0.410233
-0.530084
-0.182422
0.566171
0.527970
-0.003292
-0.363868
-0.318941
0.491112
-0.574077
0.758413
0.017961
0.396004
0.208094
0.132138
0.491455
0.075478
-0.006217
-0.742979
0.003895
-0.090829
0.338932
-0.745394
1.128315
0.086885
0.362810
-0.549045
0.191563
0.051783
-0.150025
-1.087897
-0.455260
0.726844
0.096792
-0.413033
-0.550249
-0.492375
0.175762
-0.012783
-0.195548
-0.337941
-0.119566
-0.046935
-0.285934
-0.257122
0.535431
-0.319136
-0.193546
0.120066
0.429669
0.631026
0.398914
-0.427439
-0.226761
0.190216
0.285423
0.136746
-0.533358
0.005122
0.195242
-0.092552
-0.318192
-0.231479
0.232938
-0.493970
-0.802070
0.080372
-0.098313
0.485902
0.497464
-0.511727
-0.960063
-0.372030
-0.584832
-0.391226
0.594739
-0.068850
0.014570
-0.090937
-0.553456
-0.142259
0.382716
0.437214
-0.188893
0.189994
0.111891
-0.253126
0.503566
-0.329268
0.183107
-0.344888
0.043144
-0.717224
-0.429002
0.335585
0.042046
-0.198755
0.802004
-0.762885
-0.232465
0.463162
-0.044747
-0.141647
0.307679
0.064514
0.610296
-0.763817
-0.414496
-0.359610
-0.511582
-0.178776
0.727779
0.325244
-0.155979
-0.550738
0.095582
-0.581670
0.033148
-0.376456
-0.221663
0.040110
0.005448
0.168721
0.164241
-0.106540
0.073252
0.732146
0.042102
0.459438
-0.309312
0.672378
-0.067374
0.403590
-0.885517
-0.654468
0.242853
-0.382082
-0.384312
0.551758
0.423938
0.210640
0.209054
-0.256098
-0.080687
-0.319860
-0.454125
-0.402860
-0.118951
0.254840
-0.190540
0.040943
-0.174523
-0.244021
0.148738
0.259528
-0.249494
0.606963
-0.066113
-0.446779
-0.143894
-0.030646
0.198313
0.419298
-0.177892
0.490684
-0.153686
0.066918
-0.560833
-0.093809
0.298367
0.584594
0.211225
-0.330477
-0.065432
-0.420190
0.529686
-0.547406
0.394502
-0.430353
0.033175
-0.308054
0.302051
0.134950
0.085638
-0.429388
-0.236800
0.527357
-0.441966
-0.862736
0.335458
0.262816
0.203423
-0.158646
0.430062
0.725735
0.353946
-0.049823
0.338259
-0.086456
-0.480328
0.032388
0.193082
-0.175270
0.000853
0.147288
-0.263028
-0.275241
0.351428
-0.439685
0.558961
0.065958
-0.379739
0.064408
0.361191
-0.323011
-0.654333
0.139976
-0.050125
0.247813
-0.448026
-0.602347
-1.001977
-0.065575
0.137230
-0.195472
-0.237053
-0.112790
-0.203841
-0.297093
-0.115818
-0.274873
0.187604
-0.000519
-0.290419
0.289852
0.580635
0.504814
-0.098278
0.107606
-0.199296
0.175066
-0.432609
-0.446852
0.625805
0.140287
-0.660827
-0.079033
-1.113821
-0.304566
-0.228525
-1.274772
-0.620988
-0.207203
0.375377
-0.064974
0.261532
0.009145
0.215381
0.181760
-0.442748
0.349281
-0.671791
-0.010677
-0.299541
-0.327171
0.409254
-0.656948
0.324275
0.141495
0.124529
0.732424
-0.340754
-0.089947
-0.396717
-0.093734
0.468625
0.214796
-0.439908
-0.579674
-0.499577
0.534263
0.061531
-0.174090
-0.258401
0.343936
-0.368820
-0.121147
0.580428
-0.290091
0.185386
0.006500
0.064409
-0.892130
0.386347
0.069342
0.027750
0.231961
-0.413993
-0.209497
0.544929
-0.068929
0.530009
0.301291
-0.379478
0.003087
0.595824
0.067778
-0.214773
-0.149737
0.474623
-0.072228
-0.723809
-0.392379
-0.132015
0.163970
0.440768
0.213340
0.008148
0.388699
0.020487
0.406474
-0.065148
-0.143590
0.593098
0.707540
-0.008999
-0.186022
0.037838
-0.125150
0.277322
0.030750
-0.667752
0.006658
-0.297846
0.406220
0.036623
-0.712500
0.153627
0.340607
0.723593
-0.718549
0.295996
0.518109
0.634923
0.060032
-0.071010
-0.333532
-0.097623
-0.478201
0.280174
-0.088614
-0.330786
0.237735
-0.988098
-0.259955
0.195264
0.133414
-0.161532
-0.235388
-0.091869
0.483062
-0.759663
-0.333656
0.564492
0.378244
0.076528
0.391211
0.263826
1.119149
-0.582432
-0.003696
0.296431
0.643140
-0.640256
-0.254483
0.326775
0.132072
0.297912
0.039120
-0.195581
-0.644196
0.124075
0.075158
0.001244
-0.745464
-0.654748
0.604251
-0.354881
0.504973
0.388929
0.641592
-0.048674
-0.150640
-0.005468
-0.016414
0.148125
0.070800
0.379381
-0.619272
0.216565
-0.476128
0.188150
0.691671
-0.038805
-0.809580
0.158967
1.161133
-0.563806
0.021432
0.166413
-0.805430
-0.538979
-0.011304
-0.690034
0.415805
0.392487
-0.076517
0.307338
0.483112
0.012552
0.195276
0.078416
-0.257439
-0.079224
0.294890
0.179046
0.438247
-0.119675
0.258980
-0.157121
-0.124596
0.027660
-0.415616
0.068933
0.445869
0.088060
0.088357
0.415786
-0.366991
0.480499
0.723514
-0.785716
0.026302
-0.484282
0.561843
-0.001049
-0.388701
-0.727699
0.204589
0.234919
-0.029482
0.126379
0.204554
-0.035846
0.255785
0.450661
0.625549
-0.499304
0.615330
0.054748
0.009530
-0.197807
0.196873
-0.601881
0.297281
-0.085342
-0.302145
-0.076942
0.107285
0.085712
-0.779265
0.452819
-0.072724
0.219417
0.505568
0.193505
0.539950
-0.059932
-0.162793
0.064241
0.398203
-0.239079
0.462204
0.488536
0.614113
0.290005
-1.053910
-0.739474
0.569054
0.495687
0.033305
-0.496130
-0.121208
-0.046211
0.058165
-0.027061
-0.412862
-0.622897
-0.723792
-0.331537
-0.644656
0.131077
-0.151636
-0.123221
0.370750
-0.291625
0.165612
-0.684669
-0.139248
0.089145
-0.150017
0.238211
-0.100364
-0.039374
-0.323749
0.398107
0.506677
0.048313
1.039878
-0.126496
-1.153577
0.404085
0.100162
-0.428476
0.084954
0.187303
0.310470
-0.323502
0.066515
-0.419660
0.046328
-0.327511
-0.103175
-0.537890
-0.300679
0.351106
0.100283
0.482035
-0.005470
0.763398
0.488806
-0.090083
-0.165605
-0.699654
0.240649
0.156870
-0.507699
-0.051033
-0.016516
0.268805
-0.434577
-0.250662
-0.230637
-0.835668
0.187658
-0.026316
-0.126209
-0.284764
0.207266
0.024845
-0.109678
-0.163958
0.167507
-0.117482
-0.512905
-0.550308
0.485146
0.312094
-0.233612
0.049894
0.015029
0.394222
-0.513061
0.095622
0.327776
0.445707
-0.229498
0.176596
-0.002952
0.637735
-0.408351
0.407004
0.170335
0.714229
-0.421409
-0.167377
0.591329
0.143974
-1.015445
0.523091
-0.556875
0.004152
-0.145536
-0.137764
0.545277
0.759874
0.108804
0.642809
1.079303
-0.211399
-0.033911
-0.003688
0.070399
-0.012861
-1.070642
0.454117
0.502994
-0.136993
0.158977
0.523187
-0.131560
-0.819983
-0.472046
-0.132061
-0.482565
-0.158840
0.507535
0.123126
-0.384057
-0.190014
0.904480
-0.082926
-0.568869
-0.471200
-0.095353
-0.503267
0.074491
1.072531
0.011878
0.408746
0.686247
-0.004762
-0.113709
-0.116212
0.126979
-0.526122
-0.204792
0.321210
0.420247
-0.369334
-0.096063
0.269460
0.216111
-0.189909
-0.548172
0.240347
-0.050612
0.010946
0.212218
0.088911
0.062848
-0.190517
-0.364709
0.448062
0.302115
0.381876
-0.558517
-0.304837
0.254145
0.832907
0.935823
0.096026
-0.215208
-0.287929
-0.216326
-0.401407
-0.399723
-0.684740
-0.035397
-0.387654
0.262564
0.473566
0.639755
1.000194
-0.043967
-0.110704
0.009578
0.193244
-0.174907
0.208284
0.221317
-0.183803
0.158638
0.495175
0.932667
0.768871
-0.196415
-0.644324
0.130681
-0.015131
0.280286
-0.199914
0.225908
0.534439
0.457505
-0.152017
0.159740
0.536610
-0.002436
-0.470109
-0.159581
0.194276
0.089894
0.303392
-0.813492
-0.299102
-0.243924
0.430493
0.231700
0.077851
0.210532
0.722120
-0.382079
-0.048984
0.008889
0.624304
0.699105
-0.056726
-0.225368
0.150841
0.288873
0.331813
-0.138394
-0.635822
-0.151372
0.469696
0.244701
0.672340
0.426273
0.170777
0.285463
-0.067533
-0.012340
-0.434530
0.968477
-0.039111
-0.279684
-0.435612
-0.350096
0.221330
-0.062558
0.166276
-0.279735
-0.076061
0.156462
-0.031247
-0.314173
-0.066023
-0.801352
-0.136963
-0.035391
-0.696970
-0.346807
0.168579
-0.157331
-0.299190
-0.871681
0.570135
0.038592
-0.169648
0.279932
-0.219877
-0.264511
0.129238
-0.358164
0.042821
-0.338714
-0.234727
-0.718066
0.257469
-0.556982
0.679415
0.137966
-0.466376
-0.045941
0.203143
-0.053558
0.262491
0.404674
-0.010761
-0.192991
0.370920
0.376466
0.297570
-0.732987
0.256650
0.019808
-0.605755
0.040752
0.356597
-1.025581
-0.442157
0.153038
0.041343
-1.135844
-0.364240
-0.689315
-0.328323
-0.047941
1.004185
0.018430
0.462593
0.581807
0.062364
-0.793193
-0.304709
0.426784
0.254550
-0.715117
-0.022313
-0.099048
-0.544307
-0.406734
0.822742
0.197472
0.011154
1.742522
0.663144
-0.014463
0.596688
0.098587
-0.194490
0.148927
0.220087
0.198066
-0.222404
-0.421155
0.251347
0.805520
-0.248591
0.541290
0.294694
0.121854
0.179838
0.433800
0.781411
0.537123
-0.787097
0.339491
-0.187905
0.129965
0.470631
-0.870751
0.715117
-0.042406
-0.497781
0.618226
-0.118360
-0.292967
0.739602
0.226135
-0.078330
-0.706157
-0.242420
0.063442
0.332955
0.065074
-0.182547
1.187669
0.146522
-0.514328
0.366013
0.619266
-0.568797
-0.007101
-0.002400
-0.194626
0.451577
-0.314315
-0.055372
0.220325
0.441673
0.137882
0.541062
-0.256187
-0.790472
0.183913
0.605151
-0.655122
0.356140
-0.068409
0.154333
0.675332
0.166599
0.138160
0.665234
-0.950479
-0.540433
-0.599656
0.155421
0.123918
0.196056
-1.136989
-0.772021
0.333115
-0.015276
-0.375859
-0.095618
-0.019074
0.050789
0.378931
0.339384
0.624180
-0.138739
0.208039
0.092595
0.229438
-0.261237
-0.322894
0.811365
-0.371010
-0.360508
-0.533012
-0.061522
-0.513936
0.650530
0.039033
-0.603488
-0.488796
-0.467521
-0.284929
-0.170308
0.519518
0.245029
0.269171
0.321049
0.713347
-0.186651
0.028624
-0.577428
0.818162
0.205472
0.438251
-0.355642
0.408121
-0.244003
-0.254352
0.013130
0.022436
-0.444668
0.010782
-0.289513
-0.459733
0.551254
-0.237556
-0.392488
0.357354
-0.432720
-0.243694
-0.270851
0.133070
0.515830
-0.396320
-0.105153
-0.097145
0.677124
0.130015
-0.209627
0.145911
-0.011330
0.088897
-1.013985
-0.361625
0.123720
-0.425114
-0.906773
-0.157478
-0.052164
0.251814
0.513628
-0.040453
-0.069181
-0.159187
0.125907
-0.014340
-0.281110
0.145649
-0.132808
-0.280759
0.580579
0.450693
-0.249635
-0.232281
-0.397982
-0.161128
0.433282
0.292107
0.077635
-0.312276
-0.106707
-0.119265
0.365141
0.050692
-0.053561
-0.334663
-0.134300
-0.285665
0.007324
0.091383
0.744935
-1.166157
-0.343461
0.257581
0.726776
0.091379
-0.911517
0.136031
-0.231048
-0.202477
-0.232565
-0.058110
-0.837199
-0.886521
0.010390
-0.250064
-0.179338
-0.544828
0.083376
-0.334833
0.472924
-0.151944
0.379326
-0.185428
-0.495642
-0.437584
-0.436485
-0.736564
-0.181110
0.056095
-0.125463
-0.333664
-0.212972
0.380945
0.061790
0.234235
-0.331192
0.048182
-0.248521
0.023633
-0.330957
-0.019445
-0.559216
-0.365030
-0.509628
0.218811
-0.625629
-0.422196
0.162204
0.172821
0.012731
-0.659501
-0.770566
-0.299021
-0.615197
-0.563317
-0.784399
0.607153
-0.542306
-0.146806
0.373630
0.705878
-0.017949
-0.841827
-0.016173
-0.246524
-0.073358
0.027235
-0.058246
0.215111
0.433917
-0.275746
-0.095178
0.001721
-0.833836
-0.263966
-0.526790
-0.296766
-0.144220
-0.046947
0.643708
-0.478845
-0.157186
0.253283
-0.425974
-0.299575
0.258098
0.081678
-0.923572
-0.616540
-0.303670
0.307832
0.322414
-0.181443
0.776203
-0.509473
0.312381
-0.117917
-0.229385
0.297879
-0.125479
0.075650
0.233649
-0.204744
-0.179076
0.251944
0.413829
-0.094552
0.402712
0.009023
-0.232257
0.374516
-0.113790
0.712315
-0.422517
0.164750
0.074469
0.638156
-0.480859
0.190931
-0.653507
0.114944
0.685263
0.292739
-0.688190
0.344475
-0.515865
0.326463
-0.642385
0.455456
-0.125439
-0.032055
-0.237106
-0.303228
0.164878
-0.592667
-0.299962
0.388616
-0.530062
-0.272750
-0.052137
-0.118357
0.462351
0.357908
-0.280375
0.717409
-0.534083
0.210469
-0.040910
-0.534988
0.317025
0.456548
0.238949
0.492515
0.465603
-0.059273
-0.648321
0.052247
-0.337923
-0.304549
-0.796671
-0.175089
0.272845
-0.380431
0.038239
-0.208340
-0.425899
-0.248854
0.269658
0.617182
-0.296622
0.154279
0.002966
-0.448550
0.174885
0.171134
-0.238326
0.494129
0.001894
-1.043295
0.090242
0.153685
-0.176918
-0.504548
0.103682
0.454521
-0.290104
0.388429
0.457332
-0.564531
-0.057321
0.588062
0.263288
0.251792
-0.015443
0.179073
-0.250481
0.325917
-0.131907
0.033271
-0.025510
0.072699
-0.308569
-0.428539
-0.406797
-0.240587
-0.087385
0.480789
-0.404905
0.205960
-0.152278
-0.141697
-0.962144
0.383427
0.527093
-0.061747
0.472846
-0.160031
0.563621
0.621823
0.456654
-0.089014
-0.192567
0.215532
-0.166360
-0.652026
-0.449221
-0.356648
-0.707622
0.552957
0.489833
-0.494647
-0.023581
0.542257
-0.076114
-0.270628
-0.362155
0.306105
-0.293163
0.019688
-0.373151
-0.141714
0.786754
0.303147
-0.437412
-0.092605
0.222095
-0.054667
-0.101740
-0.068184
0.059983
-0.895355
0.405763
-0.013397
1.043758
-0.463345
-0.230478
-0.418940
0.344119
0.451764
-0.455392
-0.679833
-0.243723
0.090130
0.410409
0.521955
-0.315971
-0.136978
0.293681
0.204606
-0.446012
0.146409
0.110543
-0.410459
-1.336733
-0.023784
-0.215921
0.159566
0.394282
0.106583
0.496617
-0.069176
0.241449
0.031869
-0.172575
-0.332772
-0.127128
-0.589579
0.520887
-0.494592
0.468523
-0.279218
-0.097836
0.176090
0.550401
0.145072
0.163924
-0.277866
-0.326240
-0.089447
0.219847
-0.704544
0.314476
0.540693
0.365002
0.460799
-0.154342
-0.270434
0.256711
-0.186821
0.168537
-0.836349
0.127465
0.123827
-0.091873
0.384196
0.303265
-0.726356
-0.245473
-0.316679
-0.252745
0.186450
0.650301
-0.612948
0.524592
-0.336140
-0.006161
0.084970
-0.100930
0.083894
-0.712492
0.678865
0.200092
-0.086631
-0.134841
0.345846
-0.790552
-0.966490
-0.117926
0.128268
0.804646
-0.458258
-0.196014
0.483870
-0.070273
-0.021087
0.089289
-0.363967
0.437319
0.082448
0.406099
0.081910
-0.648765
-0.623091
-0.092258
0.245330
0.093937
0.515842
-0.362195
-0.172103
0.334266
0.153422
-0.056986
-0.262407
0.521997
-0.074775
-0.165316
-0.482503
-0.141040
-0.431511
-0.147479
-0.549367
-0.032196
-0.257208
0.318122
-0.526214
0.692359
0.163409
0.066112
-0.642497
0.492105
0.068650
-0.065095
-0.265691
-0.165328
0.287170
0.603496
-0.026785
0.484262
-0.543667
-0.687872
-0.254664
-0.305903
0.236445
-0.250735
0.468287
-0.352454
0.481979
0.647032
-0.227014
-0.419200
0.558293
0.356919
0.090957
-0.981691
0.513134
-0.322864
-0.718218
0.526224
0.571855
-0.242750
0.186867
-0.756191
0.422293
0.127916
-1.063496
0.321965
0.195347
0.342703
0.049441
0.105234
-0.266186
0.173851
-0.301950
-0.602973
0.144568
0.237704
0.263124
-0.321774
-0.340608
-0.143377
-0.126381
0.343884
-0.464308
0.466918
0.219110
-0.365782
-0.284757
-0.383191
-0.537514
-0.062470
0.262162
-0.062623
0.193882
-0.919218
0.180679
0.190648
-0.126706
-0.546529
-0.884641
0.429924
-0.058495
-0.079260
0.367649
-0.313973
0.093036
0.539219
-0.533106
0.219129
0.179718
-0.552133
0.720538
-0.086176
-0.555380
-0.046493
-0.244507
-0.139248
0.209944
0.034967
0.639073
-0.390467
-0.708641
0.095657
-0.293528
0.013854
-0.698169
-0.080357
-0.023155
0.176205
0.034131
0.465432
0.103501
0.238601
0.257686
0.256461
0.268719
0.655236
-0.133069
0.743442
-0.161825
0.821704
-0.067358
-0.100750
-0.022306
0.388001
-0.176356
0.096464
-0.074729
0.008281
0.016262
-0.970197
0.065279
-0.102612
-0.224529
0.279826
0.785066
0.386201
-0.463052
0.047758
-0.178347
-0.214779
0.435562
-0.391783
-0.766745
0.161220
0.765909
-0.198195
0.525996
-0.404292
-0.807208
-0.508400
-0.558472
-0.149608
0.177406
0.236825
0.212503
-0.045246
-0.201627
-0.382029
-0.357236
0.114273
0.454403
-0.101149
0.295899
-0.095313
0.559973
-0.563369
0.315505
0.931460
-0.206664
-0.242892
-0.872503
-0.438900
-0.543546
0.125315
-0.277997
0.212975
0.049816
-0.076442
-0.724176
-0.013387
-0.263344
-0.021543
0.429984
-0.661546
0.022213
-0.127525
-0.187421
-0.180749
-0.691855
0.746939
-0.098149
-0.206041
-0.922282
-0.341009
0.210737
0.778718
1.243871
-0.360250
0.524417
0.072674
0.247374
0.123395
0.180168
-0.435041
-0.251758
0.106861
-0.422019
0.355418
0.433528
-0.192370
0.010758
-0.814057
-0.475282
0.350972
0.176905
0.438033
-0.439175
0.076838
0.342691
0.320364
0.471574
-0.323203
-0.014462
0.428737
0.649826
0.127390
-0.057253
0.455511
-0.220086
0.845473
0.728027
0.257727
0.390049
-0.297514
-0.237630
-0.048999
0.648559
-0.069305
-0.093291
0.203000
0.313533
-0.476799
0.064474
0.470057
-0.210856
-0.270441
-0.165265
-0.174845
0.235118
-0.597324
-0.339163
0.055877
-0.025395
0.081255
0.296545
0.157286
-0.122309
0.258800
0.557250
-0.057395
-0.285165
0.270268
0.397797
-0.148105
0.137268
0.286485
0.400959
-0.413773
0.544519
0.182643
-0.652107
-0.564812
0.347533
-0.365706
0.540290
-0.073819
0.606140
0.017124
-0.401698
-0.250183
0.344989
-0.776218
-0.630283
0.792760
0.198634
-0.425343
0.630657
0.048463
0.237615
-0.044536
0.103964
0.338718
0.112792
0.334427
-0.450487
0.389175
-0.223767
0.295930
0.151956
-0.494950
0.281681
0.078653
-0.515684
0.233660
-0.145968
0.349890
0.126903
0.344458
0.420573
0.004304
0.059240
-0.491160
-0.063687
-0.309152
-0.267198
-0.145595
-0.162793
0.155314
0.113741
-0.610339
0.186762
0.358598
0.218749
0.061715
1.004973
-0.467938
0.692110
0.559452
0.229436
0.227247
-0.173497
-0.200883
-0.501951
-0.137974
-0.431836
-0.023370
-0.055707
-0.211233
0.035682
-0.221575
-0.171119
-0.096987
-0.366308
0.175706
-0.281184
-0.574182
-0.311093
-0.142648
-0.487672
-0.605547
-0.153186
-0.500704
0.663474
-0.422928
0.634107
-0.154012
-0.125380
0.330935
-0.588708
-0.491703
-0.444819
0.293657
-0.565537
-0.408344
0.582717
0.217148
-0.195294
0.059277
0.768816
-0.081317
-0.300733
-0.723825
-0.227464
0.337330
0.179810
0.199166
0.262777
-0.650262
-0.202452
0.292691
-0.177913
0.319535
-0.480984
0.532327
-0.316261
-0.416359
-0.131465
0.444860
-0.294989
-0.171123
-0.363427
0.218508
0.083648
-0.698540
-0.288249
-0.931561
0.604131
-0.052800
0.456563
-0.125836
-0.758085
0.324926
0.219589
-0.699610
0.025191
-1.026805
-0.751531
0.696435
-0.598187
0.354789
0.459243
-0.018051
-0.647116
-0.500224
0.244690
-0.576693
-0.128520
-0.602410
0.094831
-0.048444
0.299430
-0.303050
-0.612154
-0.673803
0.059824
0.490712
-0.592262
-0.209840
0.379803
0.211474
-0.379796
-0.134518
0.009541
-0.424399
0.106965
0.093839
0.558864
0.083534
0.544469
0.434541
-0.317480
-0.294600
0.593232
0.262000
-0.880403
0.326412
0.194678
0.514419
-0.240266
0.433149
0.623038
-0.454389
-0.172909
0.243058
0.185033
-0.133237
0.390172
-0.655897
0.020118
0.306766
0.649945
0.626750
-0.843349
-0.758791
-0.594179
-0.091454
0.015450
0.654607
0.207681
-0.521085
-0.334084
-0.280127
0.253107
-0.015709
-0.037991
-0.339871
-0.005165
0.376160
-0.463476
-0.553629
-0.333772
-0.190688
-0.206587
0.553844
0.491859
0.161129
0.481084
0.458341
-0.239776
0.506369
-0.407719
-0.297993
0.483145
0.054717
-0.065105
-0.089490
-0.302723
0.159003
0.791832
0.339568
-0.328312
0.060829
-0.220382
0.235335
-0.127040
-0.353230
-0.331947
-0.057218
-0.593534
-0.032288
0.012908
-0.289145
0.444543
0.398297
-0.359646
-0.072572
0.103413
-0.398002
-0.080901
0.195513
-0.051004
0.408538
-0.217736
-0.357112
-0.339238
0.119779
-0.785293
0.732985
-0.265411
0.066031
0.178947
0.008844
-0.052087
-0.163513
0.237923
-0.512749
0.264389
0.157471
-0.415214
0.067291
0.245290
0.192807
0.098614
-0.423452
0.332832
0.480256
0.801283
0.342768
0.346201
0.181172
-0.501121
-0.399893
0.273318
-0.320410
-0.313246
-0.507363
0.223078
0.659326
0.747035
-0.131257
0.431159
0.255173
0.097842
0.666703
0.153331
-0.265092
-0.499532
0.546595
0.238570
0.588405
0.082857
0.039421
0.369971
1.064340
0.569812
0.015769
0.265559
-0.252135
0.087549
-0.048531
-0.481084
0.162503
0.260569
0.329987
-0.207347
-0.201359
-0.021128
-0.288022
-0.000146
-0.220627
0.522697
-0.359479
0.373958
0.177582
0.441711
-0.255399
0.094686
-0.777025
0.471319
-0.612193
-0.714001
-0.083379
0.389017
0.006857
-0.227772
-0.456795
-0.157191
-0.270559
0.357964
0.152135
-0.383946
-0.372079
0.311897
0.665173
-0.066161
0.837816
-0.178540
0.059499
0.327021
0.482089
-0.167005
0.143804
-1.035044
0.030495
-0.649997
0.594369
0.659983
0.438756
-0.048234
0.219997
-0.368490
0.785622
0.656588
0.749795
0.199222
0.554259
0.065390
0.029941
1.115494
-0.739693
-0.236415
-0.053685
0.325669
0.133829
0.555278
0.681717
-0.005541
-0.228535
-0.430637
0.318128
0.380506
-0.023971
-0.036307
-0.259163
-0.529031
-0.025543
0.685357
-0.451782
0.229761
0.845021
0.187368
-0.474064
0.107279
-0.361452
-0.021694
-0.021226
-0.097259
0.133348
0.180169
0.404649
0.153605
-0.534617
-0.284763
-0.294598
-0.151661
-0.404165
-0.422619
0.003257
0.441390
-0.341127
-0.760501
0.238540
0.079942
-0.010306
0.237600
-0.077690
0.529724
-0.387904
-0.526435
0.018729
0.099126
0.102895
0.301934
-0.854895
-0.298284
0.421786
-0.255019
0.523575
-0.024436
0.427695
-0.342225
0.884832
-0.191143
0.225339
0.350588
0.043280
-0.154441
0.157473
-0.216821
-0.325011
-0.035866
0.120058
0.043022
0.261374
-0.181916
-0.863820
0.362705
-0.172766
0.217276
0.583104
-0.674087
0.194498
-0.333022
-0.115401
0.674954
0.127932
-0.116679
0.831200
-0.034957
0.149037
0.192684
-0.291632
-0.188773
0.361970
0.172181
0.113414
0.116015
0.296247
-0.159999
-0.075009
-0.095589
-0.081061
-0.622572
0.535672
0.175958
-0.609306
-0.204673
-0.421518
0.873489
0.327319
0.557213
-0.220640
-0.353578
-0.534585
-0.449261
0.214900
-0.510814
0.064376
0.282974
-0.621518
0.004651
0.384365
0.756431
0.031703
-0.192088
0.876101
-0.452411
0.049264
-0.525126
0.231842
0.567065
-0.037700
0.057639
-0.205973
0.349364
-0.254315
0.638741
-0.537079
-0.260290
-0.194097
0.365876
-0.125226
0.105487
-0.241586
-0.942832
-0.155934
0.298751
-0.098822
-0.158090
0.059988
0.158383
0.044905
0.239484
0.586766
0.685444
0.283052
-0.585947
-0.126973
0.253962
-0.669241
0.072026
-0.302246
-0.085921
0.057822
0.316265
-0.546333
-0.087723
-0.351225
-0.851920
1.097331
0.104700
-0.355194
0.626307
0.268424
-0.048234
-0.206412
-0.732294
-0.362692
-0.475791
0.131739
-0.335393
-0.372692
0.676236
0.298261
-0.038947
0.128438
-0.067314
-0.088693
-0.255611
-0.553468
-0.439360
0.239751
0.548734
-0.005671
0.455784
0.165201
-0.374328
0.382340
-0.438089
-0.563607
-0.139227
0.223352
-0.239483
-0.450178
0.401419
-0.171467
0.100086
0.031421
-0.259209
-0.652720
0.542296
0.342005
-0.237329
0.230771
-0.230195
-0.258558
-0.636046
-0.327767
-0.029980
-0.508175
0.423399
0.312527
0.405058
-0.070044
0.896744
-0.007267
0.233653
-0.558081
-0.571401
-0.143858
0.970146
0.305749
-0.247728
-0.413625
-0.671895
0.124105
0.270441
-0.790104
0.172551
-0.466776
-0.467384
-0.594689
-0.140486
0.472444
-0.201712
-0.310334
0.224888
-0.368630
0.826420
-0.073494
0.350672
0.107639
-0.196497
0.222141
-0.094680
0.132262
-0.272334
-0.402906
-0.064082
-0.410242
0.038788
-0.334470
0.495819
0.078790
-0.160876
0.006758
0.367330
0.381732
-0.070067
-0.240744
-0.275481
-0.392328
0.359153
-0.129816
-0.142070
0.118147
0.566760
-0.484735
0.784678
0.305777
-0.442123
0.437364
0.237637
0.120166
-0.115418
0.696924
0.305255
-0.729480
-0.324128
-0.394711
0.519829
-0.660634
-0.712895
0.098320
0.096998
-0.728027
0.148745
-0.451773
0.396299
0.583220
0.165263
0.101496
-0.708731
0.384376
0.097285
-0.936463
-0.086131
-0.171075
0.265659
-0.088526
0.364323
-0.554130
0.048879
-1.167208
-0.091195
0.048266
-0.427543
0.568340
-0.520075
-0.398609
0.678688
0.550337
-0.368162
-0.206716
-0.092553
0.428274
-0.089201
0.113145
0.396981
-0.086304
0.369054
0.098014
0.001894
0.352700
-0.687623
-0.281913
-0.251075
-0.274183
-0.007859
0.638895
0.163431
0.281774
0.405000
-0.681246
0.465241
1.134975
-0.108544
-0.091360
0.247809
0.936233
-0.273940
-0.251395
-0.482835
0.360588
0.187046
-0.405139
0.124647
1.530604
-0.437551
0.336171
-0.829117
0.641189
0.340661
0.174519
-0.430292
0.056010
-0.025660
-0.470665
0.343015
0.159811
0.012477
-0.116429
0.448820
-0.022012
0.328735
0.478107
0.283222
-0.255194
0.155126
0.846008
-0.266925
-0.737951
-0.597397
-0.790491
0.071780
0.481233
0.106967
0.427125
-0.068036
-0.265254
0.323622
0.162859
-0.554658
-0.415291
-0.246793
-0.318744
-0.032890
-0.601613
-0.253979
-0.087672
-0.000985
-0.652633
0.434674
-0.420788
-0.915262
0.568598
-0.344037
0.241339
0.090432
0.652483
0.391192
-0.385203
-0.443552
0.078926
0.944877
-0.523999
0.097659
-0.014331
0.665788
0.364172
0.040350
0.000924
-0.034304
0.209521
0.189164
-0.953283
-0.436006
0.393288
0.349263
-0.644220
-0.213816
-0.091504
-0.881555
-0.022566
-0.201957
-0.066954
-0.306968
-0.139804
-0.066235
-0.188770
-0.213684
-0.298805
0.730615
-0.097400
0.487662
-0.154608
-0.839949
-0.765659
0.262520
-0.157506
-0.393740
0.681884
-0.397149
-0.071576
0.621699
-0.124492
-0.062826
-0.302132
0.003385
0.008365
0.223958
-0.197705
-0.038017
-0.262545
0.581401
-0.089716
0.067395
0.099442
-0.335709
0.278336
-0.127061
0.205196
-0.392360
-0.292544
0.532084
-0.402035
-0.612622
0.123293
0.038505
-0.155565
0.161728
0.492922
0.302231
0.121948
0.189730
-0.311622
-0.113911
0.536198
-0.091411
0.266505
0.217912
0.528904
-0.056038
-0.439044
0.096111
-0.364737
0.836105
-0.248595
0.546829
0.175062
0.123789
0.104008
0.149998
0.155448
-0.742771
0.095543
-0.714080
0.026995
0.165847
0.627123
-0.309187
-0.203510
-0.165974
0.123879
-0.056479
-0.572725
-0.656560
0.090052
0.144597
-0.304143
-0.074505
-0.090432
-0.310397
0.367093
-0.047668
0.544988
-0.423884
0.380098
-0.050402
0.679616
0.311950
0.649635
-0.466002
-0.599338
0.367344
-0.578183
0.607638
0.367749
0.290103
0.214850
-0.151101
0.182344
0.168163
-0.454562
0.525419
0.062186
-0.338603
-0.137927
0.102863
-0.259807
0.314789
0.111063
0.282721
0.032595
-0.136854
-0.125308
0.081548
-0.897107
0.077504
0.125547
-0.193918
-0.048055
-0.472484
-0.127725
-0.271262
0.097440
0.113878
0.502100
0.187022
-0.336664
0.389269
-0.052531
-0.077293
-0.058572
-0.337680
0.004738
0.064780
0.394048
-0.055205
0.000005
0.350825
-0.185762
-0.344205
-0.404143
0.665208
-0.186098
0.093535
-0.021592
-0.284977
0.464155
-0.010717
-0.090085
-0.192083
0.027134
-0.551117
-0.235346
0.458268
0.191734
-0.289222
-0.307722
0.593505
-0.567331
-0.318687
0.017483
0.417566
0.201493
-0.634291
0.121724
0.045351
0.391257
-0.305944
0.373322
0.251099
0.224089
0.120702
0.202674
0.222632
-0.585434
-0.368067
0.492490
-0.175077
0.034674
0.381071
0.011098
-0.333926
-0.213384
0.058747
0.216314
0.166896
-0.070708
-0.457743
-0.051427
-0.537896
0.521236
0.063844
0.674587
0.366592
-0.258384
-0.296448
-0.041949
0.119125
0.264667
-0.201550
0.512187
0.396302
0.301185
0.361641
-0.327745
-0.207818
0.656628
-0.097831
-0.228551
-0.087001
-0.610206
0.049179
-0.069113
-0.777027
0.282829
-0.360410
0.174901
-0.150350
-0.065970
0.384934
-0.200635
-0.214204
-0.499085
0.236290
-0.055511
-0.112893
0.476967
-0.072659
-0.203467
0.428884
-0.223956
0.437598
0.217999
0.288453
0.407382
-0.129291
-0.337106
-0.027798
0.670207
-0.236377
-0.088451
-0.458268
0.305920
0.015400
0.017484
0.427532
-0.037136
-0.203538
-0.221860
-0.492342
-0.229765
-0.318785
0.307465
-0.042272
0.439059
-0.289223
-0.288002
-0.388394
-0.393175
-0.474924
-0.345590
-0.366840
0.260257
0.683167
0.038728
0.169136
-0.340195
-0.353327
-0.222530
0.651158
0.400751
0.061137
0.718660
0.566222
0.626224
0.168513
0.420370
-0.477430
-0.154860
-0.068000
-0.798012
-0.475546
0.161682
-0.364087
-0.063603
0.091692
0.589554
-0.433945
0.340841
0.126085
-0.162692
0.003987
-0.455145
-0.157047
-0.380414
-0.275402
0.292999
-0.127579
-0.282122
0.002370
-0.168777
0.117845
0.152567
-0.532632
-0.335131
0.380044
0.096972
-0.513824
-0.702818
0.108689
-0.172310
0.296812
0.190983
-0.197506
0.485302
-0.396247
1.000720
0.129942
0.181992
0.185501
0.009587
0.670852
0.161229
-0.582915
-0.934949
-0.173897
-0.574426
-0.119257
-0.247951
-0.604814
-0.008699
0.717475
0.350857
-0.460381
-0.783128
-0.149729
0.406269
-0.062577
-0.743372
0.427089
0.188988
0.030608
-0.322464
0.459072
-0.298963
-0.406150
-0.108336
-0.555792
0.350830
0.316926
0.112553
0.158337
-0.456095
-0.046862
-0.275100
-0.672325
0.154776
0.526537
0.522973
0.008608
-0.088497
0.552363
0.329840
-0.228476
-0.520914
-0.183983
-0.050655
-0.077425
-0.165377
-0.080356
0.920498
-0.122350
0.336197
-0.085425
-0.233466
0.391190
0.572722
-0.060208
0.307552
0.506870
0.542775
-0.234705
-0.209008
-0.337259
-0.014797
0.152773
0.614675
-0.521819
-0.248324
1.025333
-0.245708
0.024303
0.283223
-0.021812
0.546734
0.087167
0.014233
0.440401
-0.005810
-0.483109
-0.835111
-0.630320
0.257199
0.227870
0.222809
0.366114
-0.054045
-0.549217
-0.200205
0.285317
-0.175606
0.763040
0.402767
0.103960
0.996594
-0.136613
-0.266253
0.478404
-0.154870
-0.106826
0.226104
-0.240721
-0.424549
0.482496
-0.671473
0.014920
0.872039
0.840812
-0.337588
-0.047067
-0.197468
-0.303947
-0.186547
0.249138
-0.066207
-0.065345
-0.377344
-0.164073
0.172588
-0.674768
0.220292
0.150007
0.128496
-0.217712
-0.227743
0.046020
-0.204972
-0.240612
-0.714453
0.045865
-0.118412
-0.467426
-0.005587
0.020969
0.239080
-0.008586
-0.023131
0.919438
0.363947
-0.377306
0.043706
0.370005
-0.849021
0.273904
-0.282547
-0.648399
-0.786050
-1.219147
-0.276240
-0.929532
0.627704
-0.640633
0.282767
-0.429620
0.357144
-0.663670
0.372121
-0.746905
0.229932
-0.000470
-0.034790
0.173275
0.119211
0.211954
-0.170108
0.292502
0.182529
0.056486
-1.075638
-0.190115
0.146578
0.572525
0.034452
-0.072767
-0.190220
-0.437375
0.324756
-0.550105
0.157454
0.477746
-0.255343
-0.416796
0.063424
-0.442521
0.280231
0.565388
0.538424
-0.261474
-0.454396
-0.145545
-0.535600
-0.195632
0.246795
0.056005
-0.365392
-0.181140
0.325185
0.628058
0.179872
-0.187716
-0.604371
-0.165134
-0.147732
0.886637
0.160157
-0.109050
-0.024332
0.092407
0.316806
-0.020150
-0.013527
-0.003277
0.672246
0.640422
0.207359
-0.645152
0.313598
-0.079260
0.429056
0.407131
-0.229694
-0.713389
0.385105
-0.447327
0.436155
0.101616
-0.254496
0.331544
0.005980
0.591303
0.552369
-0.483695
-0.925635
-0.138106
0.795110
0.028674
-0.119360
0.158270
-0.447879
-0.151238
0.315735
-0.330106
-0.174184
0.449062
-0.397301
-0.739808
0.272053
1.127386
0.487452
0.349143
-0.106503
0.615886
0.206601
-0.298644
0.166017
0.521977
0.695622
0.048088
0.179861
-0.030980
0.265476
0.026892
-0.358101
-0.176593
0.588510
-0.156146
-0.576288
-0.120926
0.581191
-0.859865
-0.001944
0.469213
-0.388975
0.534415
-0.134191
-0.650969
-0.471570
-0.278442
-0.052277
-0.685516
0.185295
-0.103972
-0.512831
0.469372
0.618955
-0.597034
0.129906
-0.142730
-0.090640
-0.147850
0.690070
-0.220557
-0.654565
0.301439
0.126420
-0.540789
-0.369050
0.082337
-0.131387
-0.005087
-0.220840
0.110667
-0.850584
-0.502239
0.091142
-0.242428
-0.013076
-0.314593
0.117201
-0.554361
0.265553
0.220328
-0.489616
-0.261255
-0.543680
-0.138770
-0.193387
-0.435240
-0.223461
0.325505
-0.620672
-0.090035
-0.484142
0.191860
0.762861
-0.382001
-0.248677
-0.397916
0.113311
-0.461531
0.217912
-0.193077
0.187546
0.419700
-0.130487
0.195828
0.471757
0.232428
-0.396063
0.430293
0.244334
-0.157934
0.405415
0.708853
0.105166
-0.107311
-0.013398
0.165572
-0.190925
-0.180601
-0.494916
0.032441
0.394270
0.412339
0.318350
0.103530
0.380624
-0.210352
-0.567499
0.000849
0.391390
0.477648
0.389369
-0.119353
-0.648052
0.291030
1.178430
-0.255164
0.201426
-0.785657
0.525550
-0.025211
-0.117506
-0.237685
0.303028
0.057825
-0.675179
-0.758209
0.288670
-0.145308
0.448096
-0.024809
0.606647
0.502000
0.283261
-0.067272
0.110190
-0.239686
0.090174
-0.103801
-0.930745
-0.518391
-0.399741
-0.222038
-0.042220
0.353882
-0.280056
-0.311252
0.231311
0.342964
-0.010354
-0.810079
-0.319518
0.572900
0.208680
0.041678
0.013169
-0.609201
-0.088648
-0.277989
-0.671024
-0.771091
-0.207301
0.151689
1.164796
0.041053
-0.254103
0.644890
0.242790
-0.716496
-0.615224
0.164643
0.090673
-0.075297
0.586906
0.355413
0.661382
0.225083
-0.064735
-0.086038
-0.136384
0.140195
0.426936
-0.236627
-0.408237
0.159806
-0.467565
0.246761
0.575565
-0.430142
-0.263686
1.075359
0.860544
0.791225
0.137005
-0.690245
-0.079007
-0.001533
-0.045425
-0.231426
0.010611
0.167615
-0.441957
-0.719054
-0.253541
-0.219406
0.667524
-0.416288
0.398078
-0.204214
0.035016
-0.488338
0.227869
-0.274224
0.486270
0.025296
0.332488
-0.341104
0.230738
0.340277
0.088850
0.610612
0.152771
0.299553
-0.230027
0.608897
-0.518018
0.545032
0.265498
0.394381
-0.271729
-0.700287
0.519685
-0.130136
-0.177082
0.584151
-0.639671
0.037803
-0.328462
0.174513
0.028530
-0.456438
-0.413548
0.440301
0.016525
0.281341
-0.078861
0.028066
-0.072401
-0.167785
-0.267775
-0.959333
0.165892
0.062612
-0.145106
-0.029774
-0.245694
0.091166
0.562258
-0.241901
-0.161986
-0.638980
-0.365826
0.495707
0.433901
-0.319430
0.399204
0.214617
-1.192134
0.004055
-0.019665
0.044746
0.084099
-0.378517
0.170914
-0.265890
-0.463248
-0.498591
-0.769266
0.360846
0.000466
-0.013260
0.688709
-0.277430
-0.237261
-0.737989
0.864728
-0.110164
0.039400
0.055572
0.248695
-0.105049
0.383251
-0.514163
-0.450792
0.271285
-0.353620
-0.025385
0.620360
0.008960
-0.338450
0.045307
0.713001
-0.073831
-0.149215
0.136451
-0.124536
-0.122015
-0.697370
-0.746523
0.028828
0.432004
-0.044473
0.129882
-0.930236
-0.540459
0.078224
-0.310021
0.347091
1.087954
-0.364183
0.196114
0.727246
0.674158
0.244217
-0.554227
0.489091
0.092056
0.157888
-0.535384
1.254902
0.001684
-0.097832
-0.219265
0.420228
0.163064
0.114317
0.161382
-0.312702
0.399419
-0.294972
-0.265346
-0.073664
-0.145374
0.315956
0.655900
0.115995
0.986770
-0.214484
0.438687
-0.134845
-0.745771
-0.047642
-0.354909
0.029510
-0.091170
0.080617
0.500622
0.280332
-0.007256
0.202195
0.546699
0.386877
-0.226306
-0.147522
-0.216413
-0.527304
0.633799
-0.462991
0.360011
-0.888015
0.704612
0.197171
-0.166380
-0.209877
-0.396185
-0.082048
-0.549170
0.038602
0.149423
-0.561939
0.076175
0.092638
-0.115480
-0.052558
0.579011
-0.489024
-0.896297
-0.353131
0.008405
-0.404018
-0.112555
-0.493166
-0.360014
0.514710
-1.009907
-0.070794
0.055635
-0.283552
0.523537
0.611741
0.409127
0.508402
-0.218946
0.195872
-0.313961
0.531202
0.020680
-0.493491
-0.195708
0.107492
0.438229
0.142948
0.078887
-0.269345
0.330349
-0.110611
-0.809848
-0.079252
-0.260733
-0.621967
-0.181461
0.623291
0.089433
0.175175
-0.649776
-0.025411
0.046457
0.014418
-0.438605
0.613459
0.020043
-0.025914
-0.249761
0.021641
0.354951
0.272959
0.387563
0.615281
-0.204024
-0.127916
0.863853
-0.015947
0.312191
-0.322430
-0.068648
-0.184928
0.619122
-0.097412
0.207356
-0.034835
0.171720
0.151915
0.495806
-0.016433
0.639241
-0.282486
0.294625
0.080137
0.098351
-0.316949
0.406141
-0.386395
-0.407130
-0.205591
0.327052
-0.290256
0.165093
-0.149728
-0.336307
0.104108
-0.144295
-0.408809
-0.461447
-0.122165
0.124516
0.427031
-0.188507
0.311149
0.232262
0.237495
0.382646
-0.661272
-0.193036
-0.103338
0.059512
0.956584
-0.076539
-0.643555
0.138375
0.683544
0.435615
0.468838
0.649294
-0.157301
-0.706467
0.095210
-0.748022
0.456373
1.015236
0.809184
0.069548
0.466312
0.394433
0.474436
-0.387240
0.376588
0.093349
-0.313071
-0.126936
0.251632
0.295558
-0.299465
-0.246732
0.325639
-0.069210
-0.043684
0.536056
-0.469241
-0.238799
-0.067779
0.748436
-0.429798
0.218823
-0.007759
0.015533
0.507720
-0.302855
-0.089498
0.263466
0.223883
0.154227
0.086560
0.067959
0.337740
-0.439330
-0.512987
0.500728
-0.775574
0.504239
0.756795
0.379201
0.381732
-0.839578
0.079917
-0.237181
0.837147
-0.231686
-0.338258
-0.790371
0.559860
0.245437
0.322060
0.732679
-0.357987
-0.391012
-1.061679
-0.378435
-0.024799
0.201462
-0.154416
0.278607
-0.147962
0.296284
0.556420
-0.297208
-0.127285
-0.017288
-0.405658
-0.243317
-0.350577
0.029946
-0.868975
-0.524168
0.661798
0.091669
-0.108138
-0.198502
0.127079
-0.229334
0.264806
-0.285162
0.527584
-0.144445
-0.102358
0.111305
0.304808
-0.392087
-0.196108
-0.536515
0.270741
-0.154707
0.063296
-0.132472
0.597820
0.050306
0.293685
-0.592096
0.127528
1.007832
0.276460
-0.323118
-0.725404
-0.460763
-0.164372
-0.146565
-0.384322
0.115937
0.237223
-0.280785
0.324248
-0.401429
0.130060
-0.383359
0.872630
-0.378350
0.131219
-0.028690
0.781547
0.088411
-0.048550
-0.591578
-0.340347
-0.378652
-0.273396
-0.028391
0.469050
0.199175
-0.159288
0.320368
0.586832
-0.403006
-0.520297
0.131569
0.062054
-0.207927
0.648598
0.172642
-0.565846
0.645592
-0.069634
0.603738
-0.005084
-0.454241
0.064526
-0.166158
-0.062488
-0.697717
0.571071
0.476319
0.368125
0.710947
1.041340
0.083517
0.732920
1.053269
-0.498097
0.039094
0.149066
0.202347
0.205918
-0.103224
0.387910
0.266097
-0.108949
0.344915
-0.737736
-0.467185
-0.536746
0.820837
0.286996
0.359089
-0.505225
0.017485
-0.231696
-0.027655
0.271157
-0.197300
0.390663
0.254792
-0.158377
-0.149163
0.676632
0.563330
0.041823
0.036981
0.312226
0.524942
0.071936
-0.096370
0.015469
-0.206599
0.045723
0.209072
0.191219
0.024888
-0.063491
-0.233593
0.145164
0.001778
1.023043
0.919969
0.495413
-0.294600
-0.325823
-0.337165
0.109082
0.064969
0.845837
0.126997
-0.896133
-0.687088
0.288857
0.040741
-0.792696
-0.664766
-0.180600
0.027963
0.049655
-0.593866
-0.185294
0.072220
-0.260656
-0.033262
-0.252640
-0.142017
0.076857
-0.318107
0.138568
-0.302067
0.554006
0.055099
0.096344
-0.054176
-0.118480
-0.336127
-0.149742
-0.062945
-0.608703
-0.464825
0.348830
0.160217
-0.284750
-0.114588
0.137789
0.150575
-0.501830
0.326823
-0.399418
-0.713365
-0.618476
-0.314338
-0.554124
-0.560804
0.739054
-0.288110
-0.477011
-0.172482
-0.469083
-0.152978
0.133601
0.811824
0.410425
-0.040568
0.419495
-0.160513
-0.266402
0.398044
0.290812
-0.424373
-0.264807
-0.784470
0.166658
-0.047521
-0.398322
-0.403036
0.202604
-0.453559
-0.700239
-0.051903
-0.288638
0.139284
0.260409
0.428372
0.267568
0.193983
-0.600231
0.027109
-0.161360
-0.711109
0.096839
0.523381
-0.234101
0.022533
-0.012484
-0.675016
0.468340
0.437758
-0.258256
-0.093255
-0.054849
0.408473
0.128443
-0.733604
-0.395207
0.096694
-0.909260
0.363222
-0.374597
-0.001659
-0.370317
0.659505
0.281747
-0.208216
-1.019467
0.089056
-0.243899
-0.605506
0.752292
-0.192202
-0.082287
-0.417046
0.319865
-0.819786
-0.143447
-0.055729
0.340015
-0.133159
0.086929
0.494687
0.518261
0.005160
0.596680
0.012739
-0.429953
-0.014323
0.370064
-0.950880
-0.414258
-0.116239
0.198360
0.459398
-0.131891
-0.374181
0.423642
-0.126041
-0.583237
0.134740
-0.664101
-0.566543
0.684575
0.456996
0.273664
-0.416974
-0.209229
0.226235
-0.111921
0.411563
0.436266
0.357011
0.697090
0.284700
-0.084522
-0.067064
-0.119519
-0.065042
0.460119
0.010711
0.046154
-0.401180
0.463217
0.278608
-0.357595
-0.379798
-0.403584
0.608718
-0.287400
0.384446
-0.338386
-0.758784
1.179960
-0.142962
-0.016380
0.216259
0.730251
0.501533
-0.524360
0.453555
0.169218
-0.196188
0.405893
-0.842451
-0.436574
0.342930
-0.216340
-0.339906
0.258506
-0.161978
0.310629
0.561302
-0.948308
-0.191252
0.246151
0.502025
-0.645250
-0.243271
-0.258101
0.341720
-0.707865
0.526615
0.029104
-0.229559
-0.273444
-0.700421
0.097662
-0.132581
-0.321909
-0.774982
-0.736126
-0.556004
-0.103580
0.184048
-0.208446
-0.262231
-0.302542
0.019669
0.260272
0.018268
-0.397249
-0.679975
-0.453185
-0.508429
-0.545108
-0.008244
0.504208
0.201428
0.002913
0.278226
0.904919
0.427100
-0.380662
-0.352895
0.387961
-0.032872
-0.458315
-0.576445
0.189791
0.580709
0.040311
0.170362
-0.720574
0.332257
0.693213
-0.785924
-0.020443
-0.710419
-0.249774
0.238731
0.144369
-0.310863
-0.355244
-0.123688
-0.362988
0.235077
0.352374
0.332164
-0.291478
0.619525
0.208170
-0.491605
0.499919
-0.274794
-0.111063
0.222949
-0.981438
0.196009
-0.216353
0.441260
-0.076841
0.115083
-0.299601
-0.672935
-0.346959
-0.149191
0.253680
0.433506
0.644013
0.183408
0.296152
-0.514977
-0.247872
0.126987
0.157154
0.094402
0.074927
0.033372
-0.112502
0.183182
-0.308804
0.338210
-0.241323
0.656733
0.061108
-0.628053
0.022275
0.019458
0.185438
-0.563554
-0.288329
0.131835
-0.057838
0.097181
0.296534
-0.294855
-0.285252
0.570659
-0.086697
0.438622
-0.137529
-0.448559
0.292156
0.984975
-0.578787
-0.079862
0.353169
-0.771161
0.849423
-0.084467
0.027143
0.258855
0.791345
-0.565690
0.019973
0.131709
-0.008941
0.558224
-0.494246
0.215487
-0.030808
-0.258712
-0.616917
0.193556
0.503805
-0.241604
-0.228159
0.936817
0.286431
0.279413
0.587948
0.604462
0.114518
0.382873
0.609181
-0.472493
-0.475008
0.385157
-0.082263
0.131702
-0.074313
0.180607
0.206203
0.366637
0.284690
0.332152
-0.099788
-0.597723
-0.865947
-0.044626
-0.239359
-0.135331
0.058115
0.522040
-0.793769
-0.655606
0.408354
0.043199
1.080219
-0.219252
-0.188808
-0.159091
0.311159
0.169696
-0.861224
-0.260358
-0.449092
0.562274
0.063830
0.196045
-0.149648
0.035771
-0.262930
1.057451
-0.069457
0.446926
-0.131135
-0.710584
0.288815
0.373252
0.040861
0.218166
-0.072937
-0.391324
-0.495339
-0.754567
0.362196
0.410982
-0.006786
-0.320698
0.620853
0.245718
0.741178
0.480053
0.518014
-0.178381
0.148179
-0.617865
0.016880
-0.141167
-0.284525
-0.114124
-0.579272
-0.022738
-0.093510
-0.838094
0.142722
-0.488296
-0.292839
-0.621896
0.003013
0.412827
0.603761
-0.246727
0.463062
-0.545640
-0.010371
-0.308966
-0.126246
-0.426273
0.558471
0.374605
0.086377
-0.473174
0.216582
-0.525630
-1.166489
0.712012
-0.242008
0.299377
0.673610
-0.549127
0.013445
0.675503
0.043577
0.356265
0.206097
0.193115
-0.440958
0.334100
-0.396519
-0.017589
-0.191195
0.869561
-0.677763
-0.103658
0.103774
0.249566
-0.001713
-0.034718
-0.199025
0.475388
0.238560
0.510529
-0.715075
0.042709
-0.376963
-0.153420
-0.217255
0.201166
-0.025300
-0.671224
-0.301607
0.242389
0.217547
-0.180173
-0.796605
0.196136
-0.736356
-0.326951
0.276001
-0.388647
-0.111053
0.539953
-0.020878
-0.007300
-0.030178
-0.550814
-0.461821
1.055619
-0.114984
-0.363673
0.038823
0.627744
0.191024
-0.317209
-0.096269
-0.202628
0.061819
0.681981
0.674696
-0.308674
-0.048118
0.062536
0.243015
0.481945
0.723889
-0.630469
-0.317992
0.107087
-0.281295
0.287808
-0.485791
-0.252954
-0.300638
-0.255577
0.098572
0.315039
0.194066
-0.294476
1.282408
0.097179
-0.035289
-0.610306
-0.095372
0.328431
-0.073287
0.388584
0.177892
0.389120
0.508625
0.185009
-0.609493
-0.021133
-1.119505
-0.205657
0.304561
0.614193
-0.749562
-0.342038
-0.376286
0.938209
-0.590720
-0.562239
-0.179925
0.274003
-0.420352
-0.055996
-0.113101
-0.054421
-0.227237
-0.297331
-0.037480
-0.042924
0.003229
-0.199684
-0.593256
0.251680
0.740028
-0.104918
-0.597437
-0.186017
0.193664
-0.138966
-0.146013
-0.015399
-0.134468
-0.070310
1.597737
-0.220982
0.416828
0.323087
0.171734
0.240255
-0.395697
0.362049
-0.095046
0.824393
0.218376
-0.628408
-0.126974
0.608072
-0.306175
0.021459
-0.775279
-0.179055
-0.493363
0.739127
0.293777
-0.150468
-0.291847
0.316115
0.058511
-0.421767
0.431390
0.406182
-0.676991
-0.243354
-0.058717
-0.012967
-0.194213
-0.311938
-0.267956
0.104748
0.255804
-0.309518
-0.092410
0.312091
0.040910
0.274887
0.230539
0.230657
0.350279
-0.400392
-0.136544
0.204698
-0.540121
-0.917395
0.435963
0.040651
0.017639
0.293256
0.110410
-0.230240
-0.154087
0.177755
-0.371677
-0.297375
-0.274476
-0.144593
-0.140822
-0.517375
0.067814
0.148479
0.135828
0.662463
0.124486
-0.228338
0.066192
0.384142
0.069675
-0.237912
0.040611
-0.287534
-0.607374
-0.184877
0.356132
0.399892
0.232707
0.006783
-0.149193
-0.314426
-0.446936
0.359783
-0.261154
-0.275779
-0.238003
0.047820
0.176008
0.410866
-0.036880
1.023412
0.399275
-0.511460
-0.587932
-0.407158
-0.249444
0.176083
-0.506069
0.215350
0.056416
-0.362961
-0.384522
0.854704
0.676006
-0.455631
0.663772
-0.352499
0.006630
0.262819
0.014634
-0.112226
-0.837654
-0.045702
0.039159
0.450465
1.078612
0.400430
0.800780
-0.832137
0.079922
0.259588
-0.424390
-0.516389
0.072895
-0.017484
0.154943
-0.385709
0.102537
0.630188
-0.495727
0.583737
-0.014642
-0.382337
-0.473247
-1.008952
-0.103126
-0.483908
0.799076
-0.009221
-0.382963
0.157064
0.290685
0.114036
0.065303
-0.178549
-0.041192
-0.105930
-0.940804
-0.649408
1.076436
-0.013631
0.006308
0.396268
-0.412676
-0.077628
-0.468783
0.290856
-0.417700
0.601525
0.173396
-0.263827
-0.102741
0.691279
0.231051
0.047189
0.872721
0.582634
-0.379097
-0.342689
0.303734
-0.223002
0.047765
-0.939671
0.178475
1.316383
0.331209
-0.285454
0.083629
-0.015115
0.042580
-0.203208
0.630785
-0.592303
0.106104
0.155233
-0.399036
-0.079606
-0.273534
-0.404568
-0.150229
0.078675
0.338802
0.963087
0.579183
0.202260
-0.223171
0.010919
-0.153618
0.125357
-0.388002
0.071572
0.694215
0.316708
-0.089525
0.182064
-0.094980
0.531580
0.486304
0.018236
-0.113793
0.183169
0.123248
0.082736
0.051041
-0.202992
0.219199
0.349787
-0.168223
0.700827
-0.147098
0.189477
-0.191036
-0.625570
0.450090
0.927603
0.924166
-0.800747
-0.417528
-0.259204
-0.086012
0.413069
0.277533
-0.277320
-0.075049
0.168358
0.248033
0.387554
0.021880
-0.094962
0.656874
-0.623171
-0.135936
0.658945
-0.233036
0.038676
-0.292520
0.260227
-0.456187
-0.093174
-1.822848
-0.097913
0.311317
-0.132787
0.005218
-0.422477
0.467812
-0.015791
0.045480
-0.315537
-0.680425
0.128602
-0.010137
-0.096924
1.243852
0.017487
-0.752449
-0.171513
0.333038
-0.050857
-0.410985
0.234790
-0.139357
-0.001803
-0.614059
0.408928
0.194580
1.117232
-0.566139
0.590849
0.999094
-0.935641
-0.755890
0.084358
0.009162
-0.208450
0.516700
0.431134
-0.513459
0.954435
1.432915
-0.687899
-0.354483
1.289197
-0.635979
0.588907
-0.470028
1.434099
-1.084099
-1.017449
-3.204212
1.657148
-0.560422
-0.568098
-0.196932
0.783446
-0.907001
-0.617614
-0.517825
-2.115930
-0.127201
0.752263
0.662480
0.402520
2.546923
-0.727028
-2.564372
-0.272867
-0.377519
-0.212306
0.936316
0.434480
-0.117591
0.606894
0.280151
-0.152620
-0.410216
2.707133
-0.189162
0.409635
2.678079
-1.003164
-1.948732
1.570845
-1.857069
1.071006
-0.606262
0.491587
