0.160766
-0.512436
-0.080643
0.001422
1.035892
0.269673
0.284094
0.508621
0.436114
0.445051
0.097744
-0.415098
0.070512
-0.280662
0.572855
-0.414452
-0.029391
0.281627
0.235980
-0.375406
-0.198263
0.756183
0.209596
0.673495
0.156515
0.249837
-0.059613
0.104178
0.139460
-0.096116
-0.749027
-0.609382
-0.774926
0.248556
0.477257
-0.846085
0.191925
-0.331439
-0.202322
-0.227129
-0.755226
-0.330896
-0.286029
-0.135085
-0.111335
-0.141833
-0.287644
-0.058180
0.534157
-0.571623
0.518327
0.348177
0.311387
0.195433
-0.325194
-0.381145
-0.256348
0.381258
0.303773
-0.364708
0.281417
0.630162
-0.355438
-0.590857
0.051351
0.791534
0.301662
0.629494
-0.639431
-0.278349
0.041633
0.023192
-0.673226
0.712712
0.111620
-0.345540
0.070623
-1.019124
-0.507812
0.151004
0.493625
0.126032
-0.268911
-0.407085
-0.784101
-0.051632
-0.199090
0.134445
0.224523
-0.328083
-0.115060
0.008376
0.297750
-0.916699
-0.763636
0.689983
-0.546907
-0.601631
0.661373
0.369963
0.151978
0.057469
-0.500905
0.392230
0.252805
-0.301258
0.770670
-0.010358
-0.189469
-0.138080
-0.229722
0.338780
0.113049
0.223516
0.005498
0.326979
0.009637
0.155968
-0.145653
-0.018880
0.232438
-0.523011
0.033799
0.323970
0.145452
0.311633
-0.142871
-0.209108
0.781980
-0.616606
-0.131806
-0.041664
-0.985065
0.019845
-0.191684
0.041954
-0.746080
0.357316
-0.083331
-0.034926
-0.926721
0.261723
0.442765
0.596425
0.011690
0.028705
0.205104
-0.110036
-0.260801
0.076803
-0.223276
-0.184221
-0.128993
0.760118
0.466350
0.259250
0.521567
-0.004202
0.148790
-0.844420
0.096290
-0.680262
-0.558546
0.685374
0.097315
0.537470
0.350399
-0.688081
-0.888283
-0.775209
0.370924
-0.098719
-0.367476
-0.304909
0.423248
0.046343
-0.204310
-0.393669
0.093603
0.211889
0.164640
0.289917
0.289107
-0.239737
0.178119
0.097443
-0.149377
0.426695
-0.184572
0.107449
0.260180
-0.200633
-0.383636
-0.044748
0.384733
-0.490344
0.667610
0.048751
0.013759
-0.671995
-0.219815
0.116998
0.339521
-0.285884
-0.385968
0.449456
-0.566285
0.281626
0.438381
-0.050002
0.361766
-0.039552
0.125579
0.329286
-0.238574
0.300108
-0.270537
0.071456
0.271377
0.562488
0.544055
0.027364
-0.354230
0.644923
-0.432417
0.289471
0.524077
-0.111210
0.382234
0.019169
0.085657
-0.105613
0.280084
-0.213014
-0.296962
0.103323
-0.526058
0.570866
0.172299
0.495553
-0.132175
0.086111
-0.240087
-0.138372
0.193785
0.360822
-0.046759
0.683790
0.771995
0.096244
-0.600192
0.018217
-0.056109
-0.063720
0.126005
0.230102
-0.035366
0.051537
-0.405480
0.562727
-0.001836
-0.231319
0.402787
0.039470
0.048324
0.146001
0.290215
-0.426516
-0.418303
0.636395
0.292984
0.091972
-0.595968
0.424210
0.312254
0.165591
0.022048
0.316280
-0.418976
-0.931276
-0.694746
0.035464
-0.065051
-0.157495
-0.168481
1.010358
-0.727044
0.688885
-0.300861
-0.264124
-0.069515
-0.370830
0.434307
0.916105
0.201599
0.259212
0.111660
0.683663
0.566824
0.260503
-0.492142
0.003179
0.234666
0.769487
0.269701
-0.034552
0.105036
-0.251323
-0.128109
0.152014
-0.381724
-0.235308
0.172846
0.407213
-0.113655
-0.469614
0.478164
0.545801
0.411710
-0.912580
-0.133912
-0.285435
-0.257842
-0.470820
-0.010381
0.081866
0.090548
-0.273685
-0.077304
0.704053
-0.063927
0.493260
-0.808167
-0.540956
0.102810
0.031510
0.120004
0.027660
-0.424076
0.338015
0.207435
-0.217446
-0.246126
-0.039099
0.434244
-0.004369
-0.063778
0.097182
-0.232214
0.077866
-0.000771
-0.586397
-0.393763
0.357807
-0.463446
0.136810
-0.235605
-0.170637
-0.655949
-0.204870
-0.035422
-0.037251
0.269578
-0.032870
-0.293109
0.248624
-0.256371
0.646771
0.063906
0.268448
0.668337
-0.440692
0.316283
0.203628
-0.568642
-0.677838
-0.484433
-0.032728
-0.444872
-0.088080
-0.536047
-0.104673
-0.338674
-0.405383
0.007281
0.637064
0.195938
0.093477
0.090485
-0.174923
-0.013495
0.481988
0.001812
0.673778
0.450882
0.343517
-0.276100
-0.106770
-0.551160
0.123970
0.050521
0.068954
-0.025484
-0.180072
-0.492774
-0.488962
-0.290084
-0.517760
-0.912447
0.009984
-0.171426
-0.438919
-0.578035
-0.175137
0.593414
0.541862
0.006497
-0.351035
-0.358232
0.506976
-0.612093
0.762399
0.012527
0.422761
0.201291
0.128208
0.533133
0.110386
-0.026324
-0.739335
0.016958
-0.111368
0.308269
-0.776549
1.115278
0.063175
0.364701
-0.575432
0.163733
0.092025
-0.167538
-1.074912
-0.456688
0.730559
0.078432
-0.400761
-0.513626
-0.480475
0.169414
-0.031862
-0.199219
-0.317670
-0.095338
-0.048412
-0.271300
-0.272253
0.536084
-0.301701
-0.199177
0.149677
0.414778
0.642917
0.368339
-0.438982
-0.215268
0.182868
0.300772
0.168657
-0.546331
0.007520
0.150904
-0.085395
-0.371588
-0.219914
0.203245
-0.495095
-0.764753
0.100613
-0.116928
0.448928
0.497984
-0.503439
-0.970965
-0.386182
-0.594914
-0.426948
0.633337
-0.076728
0.035003
-0.082553
-0.552909
-0.134093
0.372845
0.435573
-0.196191
0.179813
0.169217
-0.281744
0.481952
-0.322661
0.192115
-0.315826
0.067425
-0.717245
-0.452317
0.320473
0.047251
-0.201707
0.807869
-0.752378
-0.239230
0.455251
-0.052556
-0.129262
0.317315
0.074849
0.601989
-0.732163
-0.439362
-0.382694
-0.544012
-0.152552
0.712225
0.332106
-0.172741
-0.575872
0.125797
-0.577765
0.010697
-0.405007
-0.244417
0.053548
0.003537
0.163233
0.173028
-0.176944
0.110509
0.731120
0.032602
0.468865
-0.334109
0.688154
-0.106976
0.394494
-0.897729
-0.645224
0.280205
-0.393759
-0.389429
0.554473
0.425483
0.227702
0.225928
-0.279864
-0.108654
-0.337625
-0.437444
-0.420142
-0.098358
0.253825
-0.206057
0.054926
-0.172971
-0.216933
0.174935
0.295660
-0.277924
0.638892
-0.062943
-0.459805
-0.155740
-0.029035
0.192935
0.440761
-0.156171
0.503990
-0.140536
0.070376
-0.536518
-0.121658
0.306118
0.582039
0.198067
-0.345263
-0.078305
-0.468141
0.548950
-0.551400
0.423665
-0.443964
0.038962
-0.315064
0.260552
0.138121
0.095023
-0.461474
-0.233991
0.521957
-0.478826
-0.837480
0.329598
0.254340
0.215550
-0.169740
0.413479
0.715720
0.341108
-0.040845
0.322565
-0.101731
-0.496490
0.043717
0.230445
-0.149452
0.037476
0.163150
-0.250307
-0.258210
0.351593
-0.458627
0.518717
0.079091
-0.406643
0.041307
0.378688
-0.348734
-0.645122
0.134426
-0.019356
0.212278
-0.411178
-0.604092
-1.000050
-0.066970
0.139649
-0.225467
-0.227209
-0.099097
-0.198636
-0.301205
-0.089446
-0.257771
0.186166
-0.001062
-0.291576
0.272602
0.595785
0.520531
-0.123594
0.114366
-0.199091
0.191960
-0.424580
-0.454931
0.616429
0.163712
-0.659372
-0.108464
-1.140162
-0.313991
-0.223541
-1.237309
-0.614848
-0.190776
0.379963
-0.009791
0.261888
0.014576
0.210121
0.149589
-0.478738
0.325659
-0.693205
0.013609
-0.267501
-0.354727
0.451802
-0.707087
0.336171
0.130188
0.160023
0.713519
-0.320308
-0.080287
-0.402666
-0.159097
0.494586
0.212693
-0.418635
-0.591539
-0.485431
0.559087
0.040117
-0.194002
-0.291675
0.344586
-0.387646
-0.117233
0.560523
-0.332055
0.177444
-0.009302
0.036095
-0.892897
0.376827
0.066523
0.026266
0.220953
-0.422906
-0.243691
0.519761
-0.055048
0.548969
0.346231
-0.365895
0.027005
0.622730
0.060786
-0.200833
-0.180983
0.456560
-0.066252
-0.752460
-0.417465
-0.106713
0.143804
0.421055
0.179228
-0.000503
0.373038
0.040692
0.403704
-0.023641
-0.150286
0.624277
0.656787
0.012832
-0.173658
0.021391
-0.136058
0.283660
0.051344
-0.659545
-0.003060
-0.312980
0.411371
0.001475
-0.693017
0.133431
0.324314
0.705565
-0.752751
0.276411
0.518518
0.626296
0.065819
-0.054181
-0.323135
-0.076719
-0.508769
0.265135
-0.072694
-0.314844
0.271882
-1.002363
-0.195017
0.194289
0.099588
-0.168759
-0.238930
-0.108700
0.473058
-0.782803
-0.347023
0.584528
0.333279
0.090812
0.359450
0.270932
1.132776
-0.570194
-0.021580
0.337925
0.663161
-0.632362
-0.297922
0.347517
0.131883
0.302291
0.021802
-0.176059
-0.622875
0.130620
0.092835
0.017786
-0.755856
-0.725939
0.616986
-0.364961
0.496292
0.392938
0.605331
-0.069941
-0.152841
-0.031891
-0.004546
0.138530
0.066898
0.383388
-0.635896
0.233919
-0.462908
0.222889
0.680383
-0.018130
-0.784968
0.135475
1.124174
-0.554692
-0.003476
0.145167
-0.824075
-0.553834
0.008839
-0.664385
0.357209
0.384430
-0.135269
0.299832
0.468095
0.045909
0.198633
0.094184
-0.270214
-0.039121
0.230682
0.191115
0.458657
-0.130201
0.248489
-0.175225
-0.127687
0.064104
-0.416658
0.069676
0.426160
0.017261
0.062764
0.401414
-0.352741
0.464147
0.709970
-0.795627
0.031426
-0.488741
0.579689
-0.030441
-0.397291
-0.721591
0.179101
0.237522
-0.032500
0.160102
0.181852
-0.056537
0.293008
0.440219
0.570629
-0.505744
0.599930
0.032399
-0.001458
-0.208793
0.209415
-0.584258
0.238272
-0.108333
-0.327351
-0.076020
0.104864
0.105409
-0.787733
0.477431
-0.057609
0.225150
0.459355
0.179013
0.547832
-0.032429
-0.213769
0.064942
0.408852
-0.212986
0.446558
0.481366
0.596434
0.224580
-1.061304
-0.751038
0.576644
0.477874
0.032809
-0.522473
-0.106495
-0.043992
0.086770
-0.009190
-0.434414
-0.630523
-0.728045
-0.315034
-0.640424
0.122678
-0.183661
-0.117368
0.404210
-0.319227
0.115794
-0.678138
-0.138127
0.058838
-0.165155
0.238096
-0.111621
-0.041191
-0.334861
0.373002
0.480697
0.064378
1.008101
-0.146546
-1.209626
0.413557
0.129889
-0.398103
0.050477
0.208663
0.324416
-0.335220
0.046022
-0.432757
0.054380
-0.320550
-0.108360
-0.519643
-0.287972
0.324929
0.093071
0.465506
-0.005728
0.762615
0.440205
-0.095197
-0.165302
-0.702916
0.228842
0.141590
-0.510665
-0.030961
-0.034791
0.287747
-0.426137
-0.248429
-0.248578
-0.840425
0.204813
-0.059233
-0.163701
-0.281688
0.205250
0.026935
-0.159802
-0.171154
0.196014
-0.109645
-0.545589
-0.565851
0.475398
0.337437
-0.231786
0.051540
0.001949
0.394908
-0.501103
0.115798
0.319814
0.466909
-0.218818
0.177185
-0.004771
0.634970
-0.377060
0.430626
0.106607
0.695414
-0.412188
-0.200283
0.597107
0.124275
-0.987926
0.511458
-0.592200
-0.007051
-0.103331
-0.123209
0.552853
0.714893
0.123525
0.631583
1.102789
-0.227872
-0.064032
-0.029457
0.055366
-0.022758
-1.047595
0.441844
0.495213
-0.138798
0.158540
0.526707
-0.127814
-0.822036
-0.511688
-0.096962
-0.514499
-0.182623
0.505945
0.130945
-0.404731
-0.211146
0.876312
-0.086353
-0.575660
-0.444418
-0.073857
-0.484677
0.089920
1.083490
0.035478
0.386949
0.714378
0.018223
-0.139059
-0.141619
0.118596
-0.544592
-0.194033
0.324727
0.467717
-0.418805
-0.108620
0.263811
0.201437
-0.160915
-0.543868
0.228639
-0.057165
0.022353
0.204409
0.100801
0.071275
-0.205776
-0.385929
0.461610
0.362392
0.358926
-0.568405
-0.287129
0.252807
0.831431
0.922081
0.096249
-0.216930
-0.264521
-0.244444
-0.403155
-0.398204
-0.700223
-0.059673
-0.397344
0.243883
0.466259
0.630206
0.979526
-0.076316
-0.125668
0.035271
0.176163
-0.164000
0.211134
0.221684
-0.160839
0.117887
0.484174
0.927014
0.732871
-0.189098
-0.642201
0.154834
-0.037646
0.278139
-0.192477
0.241826
0.537382
0.444719
-0.156564
0.145136
0.532038
-0.009087
-0.476102
-0.151836
0.185817
0.058223
0.309117
-0.786432
-0.334295
-0.254041
0.439085
0.206861
0.060647
0.198376
0.726441
-0.403320
-0.013936
-0.010920
0.631450
0.667905
-0.071630
-0.232987
0.149479
0.262598
0.312900
-0.119792
-0.605663
-0.154478
0.474953
0.248390
0.670611
0.459741
0.187599
0.275573
-0.087720
-0.022604
-0.429679
0.984626
-0.042327
-0.287009
-0.431929
-0.323104
0.203018
-0.084285
0.182883
-0.269414
-0.063681
0.118552
-0.039720
-0.303626
-0.088322
-0.811194
-0.140219
-0.060161
-0.709786
-0.366542
0.198997
-0.135632
-0.314801
-0.849247
0.544897
0.029433
-0.170801
0.273493
-0.199390
-0.272745
0.143801
-0.368342
0.024910
-0.331707
-0.217007
-0.717595
0.266406
-0.594515
0.636018
0.139361
-0.447156
-0.029797
0.217602
-0.028393
0.262618
0.436377
-0.005030
-0.197974
0.358788
0.374619
0.320825
-0.702178
0.264806
0.033256
-0.602665
0.084064
0.357027
-1.026990
-0.430601
0.153131
0.037123
-1.115001
-0.383573
-0.705995
-0.321967
-0.035369
0.993020
0.008287
0.440628
0.562173
0.075225
-0.771006
-0.325088
0.484660
0.282422
-0.725558
-0.018072
-0.065479
-0.551347
-0.419105
0.859718
0.163566
0.005378
1.749489
0.615428
-0.010483
0.590994
0.092656
-0.223049
0.133633
0.224648
0.191759
-0.230181
-0.392674
0.243783
0.831945
-0.249415
0.548458
0.265739
0.127827
0.195416
0.458782
0.789351
0.566572
-0.792829
0.339010
-0.205760
0.141095
0.465580
-0.828142
0.702378
-0.026833
-0.528125
0.609189
-0.127665
-0.304923
0.687445
0.227242
-0.084531
-0.719047
-0.247822
0.078611
0.316420
0.121847
-0.160148
1.170340
0.145096
-0.505486
0.368757
0.603199
-0.559041
-0.002109
0.004908
-0.193606
0.443791
-0.293365
-0.061288
0.209109
0.392790
0.131062
0.550995
-0.256650
-0.786066
0.214195
0.619363
-0.644067
0.371788
-0.091564
0.134131
0.652471
0.183203
0.138573
0.677826
-0.936738
-0.529775
-0.601042
0.146070
0.145572
0.184662
-1.114202
-0.775381
0.327303
-0.022868
-0.374378
-0.117554
-0.002901
0.029852
0.356885
0.314035
0.615690
-0.152853
0.216236
0.101652
0.297769
-0.248594
-0.312986
0.812929
-0.353445
-0.367334
-0.537087
-0.039841
-0.506554
0.689574
0.045180
-0.623076
-0.508386
-0.462425
-0.289486
-0.210948
0.532588
0.257842
0.293606
0.330680
0.744089
-0.179870
0.053629
-0.610862
0.800685
0.207542
0.414872
-0.353864
0.425706
-0.230620
-0.280163
0.048284
0.036987
-0.447734
0.056490
-0.309947
-0.446394
0.548464
-0.231566
-0.383367
0.360642
-0.436649
-0.238323
-0.287459
0.114720
0.539448
-0.408662
-0.110805
-0.086643
0.684988
0.193889
-0.179732
0.171070
-0.019949
0.094278
-0.989482
-0.352090
0.134486
-0.419925
-0.895825
-0.135763
-0.041180
0.246473
0.511346
-0.070277
-0.108161
-0.177978
0.123262
-0.012322
-0.286090
0.157258
-0.139906
-0.303072
0.606411
0.444953
-0.207422
-0.229011
-0.383464
-0.162065
0.493577
0.322584
0.084657
-0.266565
-0.110289
-0.073142
0.362494
0.058162
-0.046696
-0.309725
-0.137141
-0.280704
-0.012629
0.094032
0.703438
-1.188378
-0.327697
0.274883
0.721033
0.105881
-0.907151
0.217406
-0.193611
-0.190014
-0.238494
-0.059872
-0.832704
-0.882062
0.039567
-0.258447
-0.177007
-0.557397
0.084606
-0.337869
0.506604
-0.162704
0.373335
-0.195211
-0.483566
-0.437810
-0.425973
-0.753125
-0.204497
0.050076
-0.109929
-0.354735
-0.192655
0.396095
0.076706
0.235396
-0.326579
0.063470
-0.231951
0.039208
-0.328048
-0.019762
-0.571928
-0.365547
-0.529109
0.204329
-0.603794
-0.430714
0.137131
0.161262
0.019504
-0.694831
-0.751923
-0.286144
-0.655011
-0.585672
-0.771898
0.659490
-0.581395
-0.116009
0.381192
0.700673
-0.009129
-0.832154
-0.005036
-0.253138
-0.048500
0.008089
-0.049045
0.234868
0.437661
-0.257991
-0.094026
0.027511
-0.824433
-0.268405
-0.527089
-0.297680
-0.147034
-0.043475
0.631348
-0.495926
-0.145974
0.296423
-0.445530
-0.297359
0.261444
0.079861
-0.875834
-0.596541
-0.297858
0.308639
0.333618
-0.191398
0.787435
-0.513599
0.306940
-0.109395
-0.222624
0.314957
-0.122450
0.053945
0.247893
-0.198890
-0.205432
0.222338
0.416137
-0.032682
0.381649
0.014666
-0.228763
0.381853
-0.094476
0.710522
-0.408499
0.161488
0.073184
0.636073
-0.478929
0.189009
-0.651207
0.105470
0.671425
0.303542
-0.682823
0.375794
-0.536609
0.327865
-0.660491
0.468101
-0.151205
-0.033580
-0.213594
-0.277836
0.171239
-0.604102
-0.325272
0.395302
-0.482779
-0.296823
-0.042251
-0.132419
0.457480
0.372737
-0.309880
0.692322
-0.512511
0.204529
-0.080917
-0.555042
0.340180
0.440512
0.257071
0.533309
0.443724
-0.096201
-0.643113
0.094693
-0.358823
-0.293197
-0.809786
-0.187854
0.303083
-0.360324
0.056469
-0.190957
-0.430802
-0.244358
0.256272
0.646571
-0.257955
0.149547
0.009451
-0.465689
0.198020
0.198707
-0.249751
0.465345
-0.016272
-1.075882
0.096154
0.148068
-0.174300
-0.453441
0.099895
0.447441
-0.307031
0.395822
0.496682
-0.541631
-0.061725
0.563948
0.238931
0.235489
-0.034763
0.174190
-0.230018
0.330465
-0.152708
0.014111
-0.020823
0.041628
-0.278985
-0.392531
-0.445754
-0.281196
-0.086775
0.539426
-0.451926
0.251184
-0.161156
-0.115164
-0.955203
0.394060
0.501200
-0.055435
0.463231
-0.168188
0.586477
0.638080
0.464428
-0.109163
-0.183309
0.210616
-0.158101
-0.635837
-0.465394
-0.379879
-0.723062
0.508844
0.480465
-0.497426
-0.032323
0.566733
-0.057992
-0.286605
-0.403555
0.289037
-0.239931
-0.007716
-0.355672
-0.156332
0.765753
0.319221
-0.436129
-0.076383
0.236984
-0.077745
-0.120849
-0.108093
0.082593
-0.930431
0.444501
0.026691
1.018541
-0.524749
-0.209938
-0.404154
0.318982
0.476655
-0.453673
-0.658538
-0.234199
0.124920
0.368550
0.527897
-0.332785
-0.131056
0.301347
0.199843
-0.457925
0.135972
0.138278
-0.382361
-1.332720
-0.013542
-0.207430
0.142685
0.359854
0.092338
0.502356
-0.073014
0.221269
0.045950
-0.167107
-0.335649
-0.146516
-0.600957
0.540367
-0.514389
0.473544
-0.321068
-0.106622
0.175325
0.547269
0.126724
0.182086
-0.273798
-0.356574
-0.097496
0.227141
-0.727675
0.331132
0.548098
0.374751
0.423823
-0.142330
-0.231542
0.224630
-0.172161
0.150925
-0.810244
0.161309
0.132566
-0.138817
0.385321
0.271213
-0.745347
-0.229149
-0.299972
-0.248493
0.194512
0.669224
-0.597181
0.525099
-0.343303
-0.017342
0.060187
-0.098542
0.061533
-0.706153
0.672172
0.198687
-0.051081
-0.131498
0.301595
-0.813985
-1.004813
-0.093637
0.150939
0.811637
-0.474951
-0.200780
0.455316
-0.088086
-0.014209
0.111492
-0.371608
0.461752
0.086296
0.418710
0.086663
-0.656227
-0.626032
-0.084140
0.202400
0.069963
0.537507
-0.411151
-0.153004
0.326833
0.152909
-0.046764
-0.254668
0.468044
-0.049154
-0.158630
-0.493734
-0.102037
-0.422447
-0.131724
-0.556789
-0.013541
-0.257196
0.292647
-0.526546
0.666426
0.144766
-0.008164
-0.643126
0.463355
0.057146
-0.097374
-0.269957
-0.166919
0.245682
0.562236
-0.015021
0.474564
-0.531413
-0.690508
-0.243380
-0.287658
0.229719
-0.277172
0.484609
-0.353469
0.458030
0.633412
-0.225429
-0.398377
0.555624
0.342848
0.108846
-0.990450
0.465777
-0.312737
-0.704323
0.501594
0.583040
-0.268033
0.167306
-0.733321
0.444040
0.089105
-1.094405
0.364925
0.203981
0.358306
0.062965
0.128846
-0.266384
0.211730
-0.324190
-0.613715
0.143804
0.240770
0.258796
-0.346205
-0.316209
-0.105000
-0.122937
0.367749
-0.495732
0.427323
0.221636
-0.367749
-0.280870
-0.401557
-0.542267
-0.098509
0.290658
-0.063919
0.187183
-0.949631
0.169244
0.197315
-0.181140
-0.556744
-0.884468
0.441013
-0.032388
-0.116853
0.377142
-0.285819
0.052348
0.593266
-0.530334
0.165439
0.172208
-0.569066
0.697224
-0.064876
-0.568318
-0.106003
-0.245589
-0.100107
0.227753
0.032118
0.649004
-0.368286
-0.714119
0.114061
-0.300272
0.019211
-0.681017
-0.071958
-0.030969
0.133704
0.106550
0.475535
0.089252
0.282616
0.216841
0.216500
0.274887
0.648073
-0.110941
0.689761
-0.162920
0.808120
-0.029237
-0.125586
-0.012271
0.398554
-0.166101
0.097294
-0.085156
0.011554
0.034368
-0.973091
0.074110
-0.099818
-0.266698
0.326901
0.766335
0.417430
-0.434419
0.029670
-0.206612
-0.258785
0.396401
-0.384650
-0.761826
0.131470
0.762290
-0.189428
0.505489
-0.374197
-0.790281
-0.501485
-0.549967
-0.164728
0.172886
0.236432
0.194853
-0.068107
-0.217826
-0.416122
-0.315412
0.140392
0.470434
-0.069987
0.227732
-0.108491
0.605013
-0.545599
0.363354
0.872947
-0.211100
-0.252011
-0.849205
-0.456990
-0.531150
0.106589
-0.272584
0.207057
0.045714
-0.061971
-0.740893
0.004840
-0.233529
0.008589
0.407631
-0.617086
0.008516
-0.077659
-0.162561
-0.173619
-0.724409
0.719298
-0.085078
-0.196180
-0.956232
-0.412555
0.210069
0.767852
1.242201
-0.348922
0.542585
0.096477
0.258843
0.116924
0.162699
-0.423467
-0.227529
0.095672
-0.454380
0.341873
0.459475
-0.187372
0.007804
-0.801064
-0.508576
0.358880
0.191439
0.475552
-0.405025
0.042534
0.349299
0.316198
0.508604
-0.351375
-0.028540
0.413231
0.652395
0.119183
-0.090397
0.456644
-0.231014
0.827533
0.747258
0.289983
0.315652
-0.278308
-0.250148
-0.017264
0.656391
-0.077890
-0.136982
0.188697
0.325039
-0.434511
0.040729
0.438215
-0.231589
-0.262801
-0.171255
-0.160345
0.254267
-0.590164
-0.365004
0.062151
-0.013808
0.078378
0.321376
0.143254
-0.128137
0.221750
0.524714
-0.068841
-0.272908
0.264794
0.392845
-0.107021
0.174526
0.312379
0.425588
-0.443909
0.533938
0.154110
-0.663374
-0.562456
0.336414
-0.389025
0.536950
-0.059585
0.599020
0.013965
-0.419244
-0.229907
0.362905
-0.752994
-0.676780
0.851849
0.179302
-0.402861
0.646731
0.056731
0.231616
-0.062337
0.120461
0.355684
0.095134
0.273656
-0.489904
0.367811
-0.202768
0.292412
0.170395
-0.450230
0.252836
0.094267
-0.533401
0.198146
-0.117360
0.332113
0.127394
0.330345
0.399811
-0.008365
0.055891
-0.479563
-0.056492
-0.267295
-0.284800
-0.106435
-0.129793
0.129047
0.102107
-0.634631
0.209041
0.336777
0.198049
0.070850
1.024138
-0.462542
0.651184
0.546577
0.216758
0.227936
-0.139761
-0.169191
-0.524491
-0.090602
-0.432403
0.005123
-0.049316
-0.203102
0.028302
-0.249785
-0.171712
-0.077665
-0.373608
0.170924
-0.316582
-0.573598
-0.292789
-0.150312
-0.473919
-0.588767
-0.161238
-0.492658
0.656050
-0.437275
0.659974
-0.135245
-0.125015
0.326853
-0.640557
-0.461936
-0.419091
0.287869
-0.534397
-0.373786
0.571286
0.249571
-0.178741
0.056820
0.766575
-0.101528
-0.316168
-0.731168
-0.230996
0.360047
0.223550
0.208840
0.271353
-0.629872
-0.197558
0.286587
-0.174527
0.303315
-0.491140
0.590009
-0.269562
-0.367417
-0.141645
0.457830
-0.298652
-0.164544
-0.321116
0.233148
0.088153
-0.715886
-0.343947
-0.933387
0.608412
-0.110006
0.468913
-0.103752
-0.805034
0.331422
0.227817
-0.720470
0.033932
-1.051602
-0.751295
0.707067
-0.594843
0.368305
0.450715
-0.044567
-0.617293
-0.439280
0.234040
-0.576437
-0.127540
-0.624221
0.102502
-0.072924
0.273923
-0.294551
-0.626585
-0.653540
0.079328
0.475020
-0.623735
-0.202525
0.389599
0.188539
-0.389652
-0.134278
0.032174
-0.386113
0.138346
0.108439
0.560418
0.069816
0.542886
0.426284
-0.330262
-0.284386
0.568138
0.262218
-0.901993
0.324215
0.189638
0.490956
-0.236911
0.455159
0.606449
-0.436804
-0.189195
0.234231
0.192862
-0.155166
0.399390
-0.672961
-0.006227
0.302347
0.668581
0.595545
-0.784661
-0.725217
-0.596411
-0.080091
0.007480
0.628468
0.230138
-0.550723
-0.333484
-0.241753
0.249809
-0.011797
-0.034267
-0.318305
-0.018934
0.370641
-0.463843
-0.575892
-0.328924
-0.208102
-0.158206
0.570836
0.504065
0.205589
0.482442
0.457362
-0.244680
0.487370
-0.425448
-0.263159
0.460799
0.068007
-0.133294
-0.093960
-0.291923
0.158600
0.785979
0.356039
-0.345272
0.077386
-0.237958
0.230842
-0.134427
-0.387586
-0.361344
-0.054469
-0.582676
-0.042961
0.030946
-0.258560
0.469693
0.411945
-0.371011
-0.067869
0.116664
-0.387310
-0.089878
0.168289
-0.044346
0.414590
-0.223088
-0.363019
-0.311373
0.139955
-0.798052
0.741142
-0.266830
0.066542
0.167654
-0.008037
-0.005349
-0.153729
0.254406
-0.493478
0.269094
0.145487
-0.396769
0.058918
0.239589
0.201044
0.091244
-0.414027
0.296489
0.469605
0.801779
0.330791
0.343792
0.186902
-0.547533
-0.406548
0.266642
-0.330040
-0.314662
-0.513170
0.236728
0.647939
0.723714
-0.139213
0.440038
0.265290
0.156628
0.658238
0.141696
-0.305737
-0.470022
0.589095
0.221218
0.568509
0.080282
0.023697
0.387061
1.053388
0.573254
0.027569
0.275376
-0.255912
0.077671
-0.063707
-0.489044
0.128692
0.290424
0.330663
-0.180852
-0.211914
-0.034462
-0.284908
0.021529
-0.211332
0.514934
-0.360675
0.330639
0.203730
0.406422
-0.277358
0.102372
-0.793891
0.493801
-0.595332
-0.737360
-0.073036
0.390623
0.007331
-0.221705
-0.485360
-0.136894
-0.263109
0.364092
0.158524
-0.391817
-0.369369
0.353226
0.637165
-0.043816
0.807895
-0.183120
0.085900
0.330354
0.462178
-0.184875
0.172937
-1.015841
0.048981
-0.611840
0.594811
0.685728
0.448083
-0.060034
0.207790
-0.371711
0.731749
0.670220
0.755961
0.266078
0.559790
0.088828
0.011694
1.133156
-0.745608
-0.242339
-0.046120
0.321772
0.173516
0.528791
0.681713
-0.000408
-0.216918
-0.409878
0.331062
0.368288
-0.054221
-0.029102
-0.259913
-0.581016
-0.024423
0.701643
-0.461193
0.219028
0.855471
0.179134
-0.463956
0.162942
-0.362825
0.014121
-0.069774
-0.105357
0.194498
0.183631
0.405029
0.166061
-0.526838
-0.277482
-0.281616
-0.132951
-0.398510
-0.404626
0.009069
0.438124
-0.351793
-0.759608
0.205157
0.098693
-0.016439
0.299636
-0.067889
0.547481
-0.375670
-0.531251
0.034795
0.111953
0.111098
0.274369
-0.801827
-0.370005
0.426106
-0.253319
0.549029
0.004289
0.454759
-0.349103
0.895283
-0.201301
0.210875
0.296431
0.018944
-0.164234
0.151130
-0.233939
-0.334703
-0.036700
0.149632
0.088581
0.221399
-0.148102
-0.892590
0.366677
-0.142036
0.243105
0.573137
-0.674640
0.226835
-0.265811
-0.100412
0.663196
0.109258
-0.117468
0.853406
-0.040687
0.135363
0.212312
-0.298711
-0.209221
0.348788
0.219138
0.092625
0.095936
0.282496
-0.135967
-0.071982
-0.091484
-0.082616
-0.614415
0.585081
0.138490
-0.592256
-0.198236
-0.424320
0.871754
0.314233
0.529854
-0.198466
-0.371950
-0.540332
-0.499540
0.159580
-0.518065
0.043346
0.302014
-0.612569
0.012313
0.390498
0.774562
0.021513
-0.196761
0.850522
-0.461387
0.070967
-0.509543
0.213802
0.576659
-0.025713
0.103776
-0.194701
0.340785
-0.253519
0.650926
-0.555499
-0.275678
-0.213522
0.368319
-0.104530
0.080956
-0.263658
-0.914615
-0.159907
0.272518
-0.081120
-0.150116
0.036803
0.157394
0.023617
0.254472
0.640862
0.626511
0.292843
-0.604819
-0.113289
0.244938
-0.658973
0.045256
-0.322400
-0.082841
0.045601
0.237313
-0.564813
-0.087043
-0.372943
-0.809582
1.108929
0.113869
-0.324310
0.637464
0.257740
-0.028071
-0.230997
-0.725360
-0.333083
-0.454698
0.115457
-0.324682
-0.383908
0.722891
0.303478
-0.043186
0.123792
-0.055910
-0.078843
-0.257576
-0.555375
-0.437837
0.279626
0.517425
-0.007331
0.510463
0.170721
-0.403963
0.369620
-0.422519
-0.556479
-0.117187
0.217423
-0.257972
-0.422517
0.344272
-0.149739
0.102324
0.050930
-0.295756
-0.638326
0.504787
0.339660
-0.245256
0.228740
-0.300952
-0.259910
-0.650137
-0.330875
-0.024896
-0.516587
0.456909
0.327073
0.400904
-0.088699
0.872892
-0.030032
0.257244
-0.520567
-0.585639
-0.144233
1.009827
0.270719
-0.196425
-0.410038
-0.707800
0.099553
0.325720
-0.783906
0.152416
-0.471186
-0.480272
-0.548682
-0.184441
0.433074
-0.162802
-0.342855
0.233469
-0.367625
0.844881
-0.068756
0.367229
0.095345
-0.199202
0.273882
-0.136792
0.114276
-0.292480
-0.389690
-0.078396
-0.397242
0.052327
-0.305782
0.484861
0.077708
-0.228220
0.012731
0.353688
0.378326
-0.054076
-0.226775
-0.262635
-0.413712
0.355445
-0.141734
-0.145781
0.098896
0.568477
-0.468335
0.805807
0.312883
-0.432373
0.416048
0.277045
0.125775
-0.144469
0.673920
0.299767
-0.737257
-0.342809
-0.399005
0.506468
-0.641334
-0.728240
0.071022
0.141875
-0.760440
0.131370
-0.450121
0.402337
0.589025
0.163393
0.078476
-0.702683
0.397922
0.051709
-0.912055
-0.124521
-0.161567
0.242792
-0.072688
0.346459
-0.556212
0.059031
-1.160601
-0.162750
0.028632
-0.428012
0.575633
-0.535138
-0.389908
0.702333
0.523172
-0.369710
-0.211077
-0.115665
0.396933
-0.072396
0.149842
0.408377
-0.093533
0.368640
0.050724
0.042632
0.350993
-0.701877
-0.289176
-0.248583
-0.269148
-0.004139
0.612618
0.152921
0.280268
0.406601
-0.699477
0.499502
1.115374
-0.090010
-0.100254
0.257306
0.905044
-0.276346
-0.268263
-0.443391
0.356478
0.156437
-0.395524
0.130745
1.502367
-0.432540
0.334338
-0.844158
0.659487
0.370957
0.160141
-0.504776
0.063826
-0.039897
-0.492727
0.320158
0.163959
0.090850
-0.099401
0.401589
-0.048043
0.311718
0.498934
0.308432
-0.252782
0.161954
0.851458
-0.217950
-0.776915
-0.543882
-0.794490
0.057416
0.468060
0.112586
0.397599
-0.099456
-0.254050
0.287407
0.147656
-0.552872
-0.422558
-0.216686
-0.353121
0.015273
-0.598026
-0.281742
-0.113987
-0.012140
-0.640232
0.447990
-0.379160
-0.948955
0.581663
-0.358606
0.254774
0.100990
0.677719
0.376496
-0.374457
-0.431972
0.082740
0.894198
-0.522178
0.096435
-0.026370
0.647270
0.362818
0.077112
0.007290
-0.070748
0.186662
0.175006
-0.926405
-0.435483
0.411261
0.348713
-0.670270
-0.201940
-0.135011
-0.856895
-0.050846
-0.230168
-0.077346
-0.299812
-0.155759
-0.078779
-0.177484
-0.259904
-0.305574
0.748865
-0.099801
0.489530
-0.178322
-0.832454
-0.753716
0.250057
-0.179300
-0.408281
0.655391
-0.405067
-0.055606
0.555506
-0.123568
-0.094111
-0.289111
0.012812
0.026123
0.203778
-0.174856
-0.047064
-0.254874
0.543955
-0.063849
0.075508
0.100257
-0.360622
0.279482
-0.063493
0.196281
-0.437140
-0.299498
0.505297
-0.400030
-0.617060
0.149676
0.049193
-0.172032
0.174066
0.443294
0.333243
0.117630
0.159726
-0.337983
-0.125443
0.549872
-0.080705
0.283046
0.191280
0.528195
-0.035812
-0.421153
0.124902
-0.394452
0.870694
-0.273667
0.539033
0.158025
0.099666
0.083459
0.155565
0.134632
-0.795996
0.077951
-0.748900
0.029050
0.132944
0.653208
-0.298561
-0.184042
-0.151716
0.129994
-0.074938
-0.540062
-0.659421
0.097106
0.148685
-0.303788
-0.032364
-0.107295
-0.350192
0.370390
-0.036692
0.546099
-0.430972
0.409533
-0.001216
0.693354
0.339059
0.609320
-0.455081
-0.609128
0.378023
-0.587027
0.568509
0.359993
0.300655
0.220165
-0.166357
0.187992
0.197166
-0.443944
0.549364
0.017534
-0.317679
-0.138042
0.108880
-0.269436
0.296426
0.111736
0.299060
0.046255
-0.147154
-0.164694
0.062676
-0.913814
0.070051
0.127547
-0.216155
-0.056048
-0.457070
-0.139579
-0.273423
0.131393
0.099095
0.532528
0.217986
-0.318857
0.453631
-0.035104
-0.126448
-0.088961
-0.342650
0.020905
0.055276
0.421484
-0.043198
0.004728
0.359248
-0.180566
-0.347525
-0.400281
0.704125
-0.207196
0.066775
-0.019333
-0.288526
0.481466
-0.004310
-0.085037
-0.157974
0.008199
-0.531137
-0.279831
0.472868
0.186734
-0.286757
-0.315941
0.615201
-0.588362
-0.278021
0.032047
0.382791
0.181749
-0.651862
0.109956
0.055321
0.386440
-0.304787
0.358634
0.256745
0.201065
0.104423
0.242527
0.241863
-0.585951
-0.342195
0.497515
-0.109047
0.049178
0.372396
0.017872
-0.348671
-0.206153
0.018268
0.228880
0.187111
-0.093383
-0.458223
-0.036217
-0.535609
0.499981
0.075221
0.675241
0.355421
-0.259767
-0.294070
-0.042666
0.108425
0.271233
-0.153506
0.534379
0.397436
0.293548
0.388222
-0.356393
-0.228387
0.624142
-0.088586
-0.249232
-0.063438
-0.614855
0.019098
-0.099988
-0.809233
0.244305
-0.373791
0.157898
-0.161534
-0.023386
0.389876
-0.202829
-0.218649
-0.458853
0.264512
-0.015859
-0.111525
0.477210
-0.005354
-0.196944
0.431216
-0.215137
0.433552
0.224537
0.249175
0.423469
-0.104898
-0.360201
0.014759
0.687545
-0.254394
-0.107612
-0.418515
0.292989
-0.042929
0.045787
0.445992
-0.041686
-0.169010
-0.236106
-0.491157
-0.198026
-0.306901
0.236745
-0.007758
0.425640
-0.315384
-0.307416
-0.380726
-0.411584
-0.472673
-0.343980
-0.379586
0.249896
0.686059
0.003788
0.162507
-0.339024
-0.351992
-0.203933
0.686238
0.420829
0.076893
0.747582
0.568191
0.619187
0.165862
0.429476
-0.412496
-0.139156
-0.074254
-0.730434
-0.454624
0.155298
-0.401128
-0.040599
0.103393
0.561354
-0.424356
0.383917
0.096461
-0.187488
-0.001420
-0.457235
-0.138382
-0.395907
-0.269926
0.330638
-0.133561
-0.258148
0.005688
-0.168860
0.108438
0.106167
-0.477498
-0.344201
0.375310
0.104882
-0.468208
-0.728480
0.130973
-0.175912
0.285758
0.187632
-0.204580
0.475584
-0.376715
0.969805
0.109607
0.197713
0.200906
-0.001372
0.702519
0.181288
-0.563559
-0.925870
-0.153034
-0.570856
-0.070065
-0.263504
-0.619880
0.036849
0.721677
0.333405
-0.482552
-0.729064
-0.137080
0.395857
-0.081270
-0.703922
0.419816
0.176307
0.037888
-0.346371
0.437836
-0.282953
-0.415250
-0.103916
-0.545922
0.362037
0.309129
0.095681
0.149213
-0.485966
0.006728
-0.285457
-0.686055
0.158450
0.542974
0.518774
0.013147
-0.094357
0.575227
0.323821
-0.208869
-0.548438
-0.209164
-0.091914
-0.061474
-0.136007
-0.050958
0.916105
-0.109065
0.365362
-0.082619
-0.213302
0.405787
0.551202
-0.005941
0.293927
0.485699
0.546832
-0.244161
-0.213313
-0.360586
0.010074
0.171463
0.604731
-0.547022
-0.232006
0.998546
-0.282638
0.060250
0.258909
-0.011937
0.541052
0.090430
0.031302
0.445463
0.031701
-0.515740
-0.832863
-0.632671
0.240976
0.272762
0.207794
0.358285
-0.085133
-0.564497
-0.211558
0.280273
-0.169591
0.789304
0.433101
0.071410
0.975047
-0.124646
-0.310160
0.465033
-0.124611
-0.111184
0.229837
-0.221172
-0.390974
0.473002
-0.658014
0.004594
0.887089
0.894682
-0.330203
-0.008885
-0.148306
-0.313268
-0.225189
0.233310
-0.044588
-0.054061
-0.372240
-0.167019
0.207582
-0.692542
0.198776
0.176914
0.096179
-0.232622
-0.228043
0.022098
-0.191823
-0.246878
-0.692608
0.009553
-0.119635
-0.485578
-0.053736
0.023184
0.216445
-0.014603
-0.030549
0.923120
0.354366
-0.353385
0.024919
0.398440
-0.844232
0.255441
-0.250081
-0.631016
-0.827327
-1.203679
-0.278251
-0.952255
0.633642
-0.620195
0.301429
-0.398670
0.378244
-0.664951
0.341997
-0.696316
0.235984
0.025031
-0.052546
0.174189
0.100096
0.201182
-0.158263
0.266512
0.167605
0.056303
-1.039546
-0.213332
0.117850
0.598079
0.021890
-0.083358
-0.212496
-0.443920
0.344084
-0.516679
0.168801
0.440182
-0.240715
-0.443799
0.053713
-0.402282
0.271298
0.539737
0.520827
-0.274091
-0.443024
-0.148499
-0.546318
-0.209221
0.275288
0.035337
-0.318818
-0.188479
0.316509
0.642568
0.178781
-0.183146
-0.611251
-0.126295
-0.134964
0.884452
0.188095
-0.125569
-0.015764
0.112270
0.331225
-0.000308
-0.018236
0.029866
0.663934
0.648083
0.189175
-0.632714
0.313859
-0.107073
0.442009
0.371294
-0.213902
-0.709482
0.370721
-0.441973
0.424440
0.088849
-0.231388
0.338078
-0.007234
0.570028
0.538342
-0.499999
-0.961950
-0.113681
0.806237
0.019175
-0.119412
0.125989
-0.455021
-0.160641
0.316618
-0.306009
-0.118677
0.427367
-0.352002
-0.762630
0.225104
1.144178
0.475787
0.341121
-0.107397
0.642152
0.235080
-0.279477
0.146994
0.502219
0.674553
0.049562
0.201669
-0.000258
0.249909
0.054487
-0.374908
-0.182321
0.616896
-0.153328
-0.555936
-0.144148
0.559196
-0.838976
-0.032643
0.506792
-0.414169
0.493836
-0.142654
-0.635420
-0.460008
-0.290301
-0.073743
-0.702137
0.181258
-0.118193
-0.533804
0.500396
0.613211
-0.584510
0.098399
-0.171692
-0.095089
-0.148175
0.690853
-0.193839
-0.610855
0.297973
0.177578
-0.552253
-0.420070
0.080532
-0.135581
-0.007157
-0.190408
0.135115
-0.848978
-0.469870
0.067004
-0.223346
-0.010895
-0.311417
0.137324
-0.541158
0.247562
0.226444
-0.470808
-0.273824
-0.532611
-0.167687
-0.187419
-0.452600
-0.262637
0.295837
-0.634494
-0.100348
-0.473726
0.203689
0.762640
-0.392647
-0.223802
-0.414368
0.099633
-0.467116
0.205439
-0.208313
0.172043
0.433055
-0.133851
0.205330
0.444259
0.230608
-0.413133
0.437206
0.236557
-0.146440
0.399332
0.690367
0.148083
-0.124717
-0.047829
0.160980
-0.182766
-0.175358
-0.470948
0.046864
0.439188
0.399164
0.300481
0.120763
0.394749
-0.221872
-0.505145
0.027232
0.375804
0.521844
0.375804
-0.104974
-0.623593
0.297867
1.184095
-0.238520
0.198061
-0.805315
0.511368
-0.025754
-0.115764
-0.247523
0.287074
0.055414
-0.640669
-0.785447
0.329456
-0.156688
0.456352
-0.016456
0.601221
0.510963
0.280088
-0.083500
0.078141
-0.266326
0.075930
-0.102486
-0.921002
-0.498351
-0.392848
-0.207122
-0.012323
0.318886
-0.293173
-0.313783
0.230659
0.345185
-0.000135
-0.808430
-0.305866
0.558800
0.199107
0.044713
0.021196
-0.605089
-0.075970
-0.238683
-0.689912
-0.759618
-0.227698
0.184331
1.174357
0.040026
-0.238723
0.641836
0.199298
-0.717347
-0.651345
0.156481
0.081911
-0.069509
0.569716
0.342861
0.664117
0.218528
-0.071613
-0.094626
-0.161763
0.125835
0.398605
-0.209415
-0.397606
0.149511
-0.496399
0.251368
0.560818
-0.428181
-0.280081
1.082362
0.839827
0.801373
0.160047
-0.695721
-0.080538
-0.006513
-0.036994
-0.221104
0.016639
0.176066
-0.455708
-0.724167
-0.229569
-0.216590
0.668442
-0.423931
0.381605
-0.159248
0.036386
-0.485681
0.203417
-0.246182
0.478122
0.026494
0.334071
-0.326381
0.194649
0.336725
0.061298
0.615386
0.166884
0.295338
-0.236957
0.593092
-0.498184
0.527803
0.272402
0.388329
-0.262782
-0.689158
0.500312
-0.125752
-0.199745
0.588158
-0.648309
0.049084
-0.357709
0.153687
0.039675
-0.462604
-0.436066
0.451082
0.011834
0.277872
-0.081760
0.062006
-0.075124
-0.187849
-0.267612
-0.956410
0.185120
0.069653
-0.132290
-0.051085
-0.255856
0.089054
0.558643
-0.191429
-0.173243
-0.627510
-0.378095
0.557263
0.423840
-0.331890
0.437276
0.257031
-1.204692
0.024232
-0.031862
0.057633
0.053869
-0.410013
0.152020
-0.294617
-0.463736
-0.507764
-0.750957
0.351345
0.003155
-0.021068
0.693000
-0.300056
-0.262773
-0.745148
0.878267
-0.100169
0.021679
0.029434
0.269322
-0.108718
0.363890
-0.511203
-0.481309
0.271931
-0.355047
-0.012937
0.609800
-0.000766
-0.345988
0.047175
0.686481
-0.072869
-0.148212
0.117059
-0.108175
-0.159533
-0.692349
-0.713652
0.039076
0.431092
-0.048341
0.166769
-0.932859
-0.539590
0.099434
-0.247250
0.329194
1.098897
-0.389154
0.200670
0.716654
0.681754
0.244291
-0.580452
0.482519
0.094729
0.157281
-0.508695
1.229139
-0.001132
-0.104375
-0.204739
0.410848
0.164566
0.120948
0.157938
-0.325848
0.373389
-0.295604
-0.253785
-0.083737
-0.125149
0.287633
0.657940
0.124341
1.004069
-0.214584
0.441223
-0.096955
-0.803383
-0.062566
-0.350589
0.027719
-0.086505
0.083846
0.480188
0.277003
0.008812
0.203336
0.554853
0.363482
-0.193528
-0.125927
-0.208302
-0.480724
0.655643
-0.450494
0.372587
-0.910181
0.706581
0.165094
-0.154590
-0.242395
-0.411965
-0.117592
-0.550559
-0.009337
0.167010
-0.563541
0.060274
0.097300
-0.130107
-0.084070
0.594475
-0.478885
-0.894324
-0.348678
0.010289
-0.423182
-0.126281
-0.531589
-0.345397
0.447718
-1.006528
-0.088103
0.097081
-0.276768
0.527762
0.632972
0.356190
0.501206
-0.224713
0.186940
-0.338372
0.531584
-0.011913
-0.507588
-0.172021
0.094627
0.448577
0.117288
0.105972
-0.306211
0.327009
-0.076410
-0.782205
-0.072033
-0.207893
-0.650692
-0.174152
0.634178
0.084933
0.159924
-0.680675
-0.039631
0.052952
0.000410
-0.405715
0.609700
0.033528
-0.016679
-0.244036
-0.003798
0.388473
0.281443
0.388043
0.613626
-0.214092
-0.140812
0.849794
-0.016889
0.360402
-0.365238
-0.076898
-0.135206
0.639548
-0.109180
0.195797
-0.022934
0.140071
0.136767
0.493502
0.005878
0.631938
-0.284744
0.272051
0.074586
0.105727
-0.305533
0.420384
-0.407228
-0.364220
-0.221536
0.319130
-0.303389
0.192263
-0.172183
-0.313054
0.110531
-0.168531
-0.429870
-0.482613
-0.110388
0.126978
0.372870
-0.186483
0.295103
0.232918
0.235218
0.374587
-0.668148
-0.188615
-0.140363
0.053985
0.944431
-0.048419
-0.641274
0.137095
0.647679
0.420710
0.456665
0.658458
-0.210959
-0.700761
0.096176
-0.731313
0.439369
1.007231
0.829348
0.031827
0.476697
0.394278
0.508820
-0.373686
0.380202
0.068514
-0.359087
-0.146464
0.263762
0.304153
-0.289265
-0.207200
0.290834
-0.031481
-0.050720
0.538903
-0.492814
-0.181292
-0.085074
0.763079
-0.417520
0.221945
-0.000031
0.014717
0.470107
-0.283301
-0.077472
0.294479
0.247617
0.186421
0.094101
0.082083
0.332252
-0.427084
-0.505222
0.503725
-0.778499
0.525762
0.735093
0.360333
0.381014
-0.821675
0.046952
-0.252391
0.861742
-0.201644
-0.344301
-0.783308
0.555607
0.218472
0.292973
0.724498
-0.334489
-0.422535
-1.062229
-0.396768
-0.062183
0.239642
-0.084181
0.266341
-0.171323
0.332692
0.535696
-0.257846
-0.142686
-0.024106
-0.398381
-0.217882
-0.351905
0.031863
-0.853988
-0.505113
0.665890
0.110005
-0.138483
-0.175892
0.121553
-0.241400
0.276298
-0.269892
0.523413
-0.152122
-0.097043
0.081975
0.312033
-0.394896
-0.190980
-0.560546
0.268302
-0.197261
0.077169
-0.112726
0.566303
0.070626
0.314601
-0.542414
0.118013
1.012629
0.325558
-0.363679
-0.750332
-0.440387
-0.161763
-0.141025
-0.363507
0.085019
0.194828
-0.262148
0.353541
-0.422247
0.126982
-0.360225
0.814254
-0.369828
0.102977
-0.011452
0.783717
0.117881
-0.041897
-0.570800
-0.331174
-0.382098
-0.254574
-0.020957
0.471894
0.170886
-0.163141
0.323306
0.582538
-0.368783
-0.550469
0.137109
0.067393
-0.175006
0.625048
0.191303
-0.577921
0.659447
-0.101088
0.582347
0.019072
-0.451734
0.064608
-0.140933
-0.024106
-0.673837
0.580208
0.469339
0.370222
0.688962
1.026208
0.092254
0.725746
1.070213
-0.487802
0.048268
0.137270
0.226913
0.211407
-0.148573
0.384058
0.282337
-0.157861
0.334809
-0.754687
-0.462250
-0.532646
0.837778
0.277159
0.392366
-0.488019
0.000914
-0.219210
-0.000983
0.247555
-0.163262
0.392380
0.237383
-0.140170
-0.156879
0.667179
0.551326
0.069500
0.023501
0.286343
0.532588
0.071677
-0.132772
-0.015178
-0.215467
0.128530
0.247043
0.209813
0.027963
-0.027116
-0.172522
0.133703
0.002323
1.017168
0.879638
0.458174
-0.288452
-0.343896
-0.291219
0.093400
0.027817
0.849128
0.110694
-0.917396
-0.719945
0.313395
0.038744
-0.824052
-0.645070
-0.215174
-0.006607
0.044679
-0.596369
-0.190568
0.097179
-0.265031
-0.061605
-0.233813
-0.114060
0.042097
-0.298422
0.162476
-0.284684
0.538319
0.028473
0.109494
-0.068833
-0.093823
-0.332846
-0.178208
-0.074601
-0.608369
-0.454216
0.345890
0.165712
-0.231275
-0.125392
0.169233
0.153378
-0.461667
0.374771
-0.395168
-0.722561
-0.598629
-0.321574
-0.561361
-0.578993
0.729067
-0.241732
-0.470885
-0.203662
-0.448334
-0.126545
0.123123
0.800514
0.401632
-0.055712
0.427316
-0.151496
-0.303242
0.361786
0.302486
-0.422732
-0.254986
-0.741784
0.172051
-0.033826
-0.376776
-0.392391
0.196610
-0.435044
-0.667398
-0.018207
-0.274206
0.124605
0.254895
0.407046
0.288991
0.177423
-0.600190
0.009849
-0.136044
-0.713060
0.084526
0.504936
-0.204314
0.014998
0.020258
-0.675152
0.501607
0.484392
-0.281636
-0.095922
-0.057464
0.412568
0.098389
-0.729321
-0.388475
0.154381
-0.921814
0.336275
-0.325607
-0.016094
-0.401593
0.626846
0.291064
-0.208752
-1.011621
0.091857
-0.270161
-0.640779
0.741675
-0.237000
-0.093998
-0.400318
0.347162
-0.837243
-0.117483
-0.059833
0.330617
-0.128861
0.151642
0.477889
0.523043
-0.020213
0.586170
0.037162
-0.420534
-0.014601
0.363664
-0.967398
-0.410522
-0.133918
0.174685
0.464139
-0.119239
-0.373288
0.483298
-0.123306
-0.550861
0.128577
-0.647459
-0.566593
0.689434
0.440960
0.257874
-0.453840
-0.212451
0.260289
-0.109208
0.389204
0.487323
0.365992
0.651729
0.240281
-0.097053
-0.063779
-0.155396
-0.066374
0.440255
-0.034586
0.034126
-0.423970
0.458056
0.289286
-0.334098
-0.388091
-0.352754
0.602981
-0.271902
0.385619
-0.266044
-0.794846
1.158231
-0.157771
-0.013337
0.220832
0.740465
0.515730
-0.512137
0.465254
0.156318
-0.207479
0.424962
-0.855365
-0.436575
0.319571
-0.152639
-0.359060
0.284699
-0.131326
0.331712
0.571489
-0.942538
-0.188016
0.236608
0.510877
-0.671380
-0.235146
-0.248206
0.320027
-0.666098
0.508368
0.020615
-0.272390
-0.299516
-0.702248
0.082027
-0.136742
-0.348878
-0.811553
-0.732637
-0.552310
-0.090765
0.169747
-0.205760
-0.271097
-0.268603
0.008758
0.285801
-0.005812
-0.339312
-0.716353
-0.483383
-0.515196
-0.543982
0.027829
0.538581
0.190902
-0.012000
0.324888
0.902351
0.421978
-0.376866
-0.386191
0.359302
-0.066848
-0.406149
-0.589047
0.218143
0.579337
0.063362
0.159311
-0.722641
0.337595
0.676822
-0.781101
-0.035377
-0.723208
-0.240012
0.225045
0.181642
-0.318123
-0.377621
-0.147841
-0.403745
0.202728
0.357634
0.279267
-0.299742
0.576193
0.219403
-0.479585
0.503099
-0.301056
-0.106345
0.212951
-0.958316
0.169476
-0.162549
0.436462
-0.078591
0.057208
-0.316853
-0.709951
-0.348942
-0.135362
0.240677
0.415961
0.649354
0.194848
0.302491
-0.505435
-0.251427
0.089137
0.100379
0.052610
0.131151
0.040120
-0.115034
0.210328
-0.306278
0.347163
-0.228416
0.637693
0.020061
-0.637464
0.000108
-0.018553
0.190093
-0.569242
-0.272349
0.117189
-0.061020
0.066876
0.276418
-0.299054
-0.286497
0.547087
-0.097312
0.473356
-0.118744
-0.520504
0.290299
0.958830
-0.607377
-0.089424
0.359786
-0.794102
0.857142
-0.101182
-0.016969
0.216032
0.739534
-0.597198
0.007400
0.161233
-0.015796
0.544113
-0.490762
0.240643
-0.042701
-0.254023
-0.582491
0.190647
0.418088
-0.290761
-0.194972
0.950725
0.276636
0.269268
0.612663
0.587638
0.108418
0.377115
0.606123
-0.496548
-0.482611
0.350837
-0.071303
0.185578
-0.075416
0.165637
0.225664
0.354811
0.298799
0.325249
-0.100403
-0.599971
-0.916250
-0.042230
-0.237073
-0.115387
0.062074
0.500255
-0.815172
-0.635687
0.409849
0.004726
1.090077
-0.256702
-0.288639
-0.208815
0.267356
0.136851
-0.883491
-0.211638
-0.466694
0.559018
0.052948
0.223645
-0.147982
0.041736
-0.225991
1.043938
-0.168064
0.417949
-0.132746
-0.712926
0.311955
0.365375
0.064398
0.214525
-0.049632
-0.385781
-0.490483
-0.728861
0.349167
0.358348
-0.016214
-0.313885
0.596540
0.212181
0.744019
0.467897
0.563030
-0.159159
0.135865
-0.646700
-0.001108
-0.099854
-0.274555
-0.093511
-0.571971
-0.064595
-0.108531
-0.834074
0.147802
-0.508852
-0.309749
-0.669174
-0.096823
0.431838
0.555906
-0.270449
0.465535
-0.513403
-0.027361
-0.311648
-0.132977
-0.424684
0.541886
0.395404
0.129447
-0.495964
0.180411
-0.581737
-1.207293
0.701936
-0.234123
0.277319
0.688654
-0.543575
0.017246
0.655707
0.017885
0.339585
0.197492
0.141434
-0.448273
0.365543
-0.401920
-0.004808
-0.154163
0.911771
-0.639232
-0.075502
0.125332
0.257321
-0.035211
0.018076
-0.157691
0.476124
0.252223
0.473847
-0.764376
0.055915
-0.361293
-0.161340
-0.229576
0.157514
-0.164085
-0.657537
-0.352859
0.223283
0.201955
-0.132812
-0.817736
0.187320
-0.729704
-0.343330
0.252716
-0.361417
-0.074970
0.496605
-0.014647
-0.057641
-0.107721
-0.571215
-0.489147
1.048907
-0.091638
-0.361833
0.048582
0.634980
0.174767
-0.325746
-0.098292
-0.273124
0.084658
0.719843
0.655539
-0.314038
-0.045254
0.102090
0.265202
0.507428
0.754813
-0.629848
-0.317847
0.121017
-0.245537
0.308483
-0.460934
-0.251374
-0.353075
-0.275847
0.110802
0.316448
0.197460
-0.346702
1.138885
0.123841
-0.076920
-0.656171
-0.106531
0.386793
-0.110376
0.404297
0.188676
0.305814
0.478114
0.192698
-0.573670
-0.029942
-1.046319
-0.220656
0.190837
0.607333
-0.757801
-0.385418
-0.345535
0.997931
-0.566319
-0.553800
-0.183740
0.285857
-0.463668
-0.024869
-0.093082
-0.040224
-0.228933
-0.290730
-0.039184
0.011814
0.015869
-0.196010
-0.585004
0.242291
0.727635
-0.074409
-0.575807
-0.143579
0.186876
-0.145923
-0.214038
-0.040326
-0.149329
-0.030133
1.614451
-0.264341
0.387447
0.411521
0.138834
0.211187
-0.419575
0.438077
-0.117668
0.818533
0.229093
-0.724978
-0.130398
0.636938
-0.262005
-0.001989
-0.662173
-0.201186
-0.598825
0.759545
0.233751
-0.173694
-0.273326
0.321945
0.079839
-0.447877
0.418865
0.414746
-0.693459
-0.182445
-0.063019
0.037320
-0.152828
-0.292027
-0.251178
0.177243
0.230621
-0.308309
-0.082787
0.319488
0.038332
0.296871
0.231235
0.267650
0.355694
-0.391010
-0.196491
0.208606
-0.551659
-0.880501
0.420129
0.006153
0.102057
0.415223
0.087646
-0.268766
-0.174092
0.190144
-0.370373
-0.301475
-0.260776
-0.228530
-0.146583
-0.520339
0.056998
0.131650
0.191170
0.646994
0.058863
-0.205642
0.017356
0.318128
0.075798
-0.198966
0.068691
-0.330016
-0.627035
-0.148108
0.327045
0.462957
0.249801
0.023097
-0.104812
-0.287852
-0.478805
0.407498
-0.311533
-0.317282
-0.201310
0.069183
0.190795
0.418705
-0.068787
1.062939
0.420470
-0.541451
-0.635646
-0.409151
-0.256285
0.186253
-0.488725
0.233303
0.224136
-0.297263
-0.385449
0.870191
0.691772
-0.472071
0.684132
-0.340571
-0.009054
0.266262
-0.014843
-0.096175
-0.841317
-0.074225
0.032242
0.442106
1.109641
0.414895
0.769875
-0.860145
0.103285
0.267515
-0.422975
-0.523954
0.065441
-0.029097
0.153936
-0.339284
0.086518
0.683823
-0.534789
0.615051
0.007820
-0.343499
-0.480917
-1.030416
-0.067176
-0.490928
0.868807
-0.010529
-0.421279
0.202305
0.273990
0.136762
-0.004484
-0.188026
-0.046755
-0.111708
-0.933106
-0.652311
1.302773
-0.058059
-0.020694
0.408967
-0.444395
-0.112551
-0.463155
0.320897
-0.430589
0.684634
0.146599
-0.275336
-0.131201
0.687713
0.157343
0.076763
1.013999
0.564428
-0.420393
-0.381182
0.293447
-0.189836
0.061458
-0.971618
0.162128
1.340201
0.346110
-0.364570
0.085585
-0.004398
-0.057637
-0.182426
0.706620
-0.594192
0.102778
0.096773
-0.342830
-0.081431
-0.225996
-0.413627
-0.206589
0.150385
0.345769
1.000830
0.550019
0.180455
-0.216373
-0.043401
-0.128914
0.176769
-0.222105
-0.062495
0.672794
0.360908
-0.078212
0.131674
-0.091358
0.560894
0.472230
0.122397
-0.103762
0.177441
0.134772
0.098662
-0.038788
-0.161234
0.371659
0.361324
-0.193494
0.659984
-0.142809
0.225118
-0.191528
-0.652038
0.441463
0.940729
0.975637
-0.902115
-0.441441
-0.283121
-0.156861
0.468989
0.363387
-0.324073
-0.043800
0.126072
0.325338
0.415719
0.092770
-0.065436
0.677128
-0.593395
-0.158855
0.773202
-0.289198
0.007613
-0.277281
0.209732
-0.434749
-0.055895
-2.053019
-0.175893
0.313266
-0.089146
-0.000444
-0.430555
0.450880
-0.004828
0.006581
-0.375933
-0.692455
0.102467
-0.000899
-0.091669
1.338422
0.003079
-0.834165
-0.108084
0.314081
-0.095003
-0.390043
0.235643
-0.143656
-0.028779
-0.649234
0.423491
0.185075
1.229696
-0.584187
0.588934
1.131207
-0.897747
-0.869796
0.057492
-0.055713
-0.176539
0.605733
0.454892
-0.566758
1.010593
1.453222
-0.681217
-0.415987
1.331433
-0.681843
0.612840
-0.504591
1.460854
-1.006700
-1.035579
-3.437028
1.810546
-0.569244
-0.587341
-0.244298
0.864194
-0.940232
-0.713934
-0.529427
-2.407392
-0.172747
0.793920
0.772278
0.515327
2.752937
-0.813482
-2.785440
-0.294799
-0.522290
-0.358049
1.008535
0.543663
-0.124379
0.664849
0.362565
-0.167341
-0.474281
3.024506
-0.154026
0.545241
2.958633
-1.104050
-2.221384
1.629394
-1.986287
1.136738
-0.646932
0.570718
