0.084797
-0.466769
0.030303
0.017683
1.028626
0.172203
0.245410
0.509303
0.427766
0.443231
0.098685
-0.362442
0.046776
-0.128771
0.593270
-0.383880
-0.060987
0.171483
0.219868
-0.428175
-0.221031
0.755713
0.221163
0.615733
0.159630
0.239877
-0.182814
0.145971
0.045832
-0.063236
-0.784250
-0.637546
-0.725864
0.285000
0.481938
-0.947282
0.171856
-0.303948
-0.210054
-0.175197
-0.764851
-0.331641
-0.344545
-0.128045
-0.111139
-0.236079
-0.254699
-0.085382
0.468594
-0.625020
0.559846
0.386308
0.331781
0.155384
-0.324149
-0.439719
-0.353792
0.415539
0.286900
-0.364816
0.265941
0.648011
-0.322477
-0.499250
0.040043
0.855056
0.278243
0.543103
-0.637659
-0.269149
-0.016553
-0.014204
-0.707238
0.634192
0.089675
-0.380400
-0.002128
-0.993980
-0.529434
0.183094
0.501469
0.150679
-0.304495
-0.361023
-0.773264
-0.127993
-0.253761
0.181362
0.264170
-0.359695
-0.161321
-0.012357
0.221246
-0.861786
-0.754028
0.634524
-0.473072
-0.685983
0.640496
0.334408
0.148226
0.037662
-0.484126
0.362711
0.161444
-0.287780
0.707836
0.044205
-0.207798
-0.065011
-0.177123
0.359927
0.048599
0.252577
-0.044797
0.395629
-0.006170
0.119696
-0.147255
-0.088261
0.233654
-0.534992
0.066741
0.238148
0.090041
0.275838
-0.142197
-0.227319
0.792267
-0.622815
-0.148287
-0.053659
-1.000469
0.069758
-0.203097
-0.076831
-0.782872
0.393916
-0.039327
-0.059628
-0.925230
0.289639
0.378202
0.575852
0.041619
-0.021957
0.190076
-0.140658
-0.297006
0.091235
-0.246729
-0.179095
-0.098160
0.733557
0.405337
0.263586
0.476676
0.020073
0.168033
-0.765884
0.092826
-0.684860
-0.588976
0.724295
0.064919
0.574567
0.345600
-0.712944
-0.874554
-0.803766
0.451472
-0.091080
-0.376688
-0.364225
0.420866
0.057348
-0.125835
-0.428019
0.121317
0.240301
0.192489
0.245724
0.287816
-0.195351
0.202165
0.037252
-0.146801
0.391525
-0.157436
0.106176
0.291301
-0.225880
-0.409675
-0.018352
0.355479
-0.459411
0.667040
0.019472
-0.060501
-0.696633
-0.218784
0.047274
0.409698
-0.259473
-0.380364
0.460407
-0.612655
0.290156
0.437543
-0.029123
0.328908
-0.021398
0.126637
0.379828
-0.241127
0.336940
-0.293827
0.032692
0.283885
0.501184
0.553093
0.038371
-0.317831
0.613158
-0.428524
0.289150
0.640491
-0.169490
0.389057
0.028231
0.109462
-0.094015
0.272822
-0.204796
-0.292789
0.064575
-0.552735
0.500049
0.184488
0.485195
-0.120754
0.036732
-0.274173
-0.112084
0.190888
0.395639
-0.006044
0.655278
0.722272
0.080124
-0.585114
0.037745
-0.097333
-0.088411
0.125435
0.272193
-0.107804
0.062410
-0.356743
0.527586
0.014938
-0.198326
0.408174
-0.013609
-0.018668
0.111489
0.291540
-0.478897
-0.396260
0.587318
0.307753
0.055000
-0.569318
0.353698
0.331879
0.109314
0.052957
0.302929
-0.420221
-0.908255
-0.703415
0.067828
-0.107608
-0.107230
-0.195080
1.016407
-0.675058
0.700856
-0.284457
-0.244439
-0.055193
-0.384395
0.420764
0.854042
0.156706
0.325122
0.083421
0.684000
0.508294
0.280201
-0.503888
-0.023083
0.172768
0.717047
0.223746
-0.028254
0.024319
-0.234480
-0.105469
0.161768
-0.381607
-0.196335
0.243505
0.368594
-0.164695
-0.530447
0.455194
0.484515
0.456289
-0.973634
-0.089483
-0.302146
-0.237206
-0.479142
-0.014837
0.089859
0.201644
-0.321911
-0.102851
0.716076
-0.068955
0.554756
-0.814023
-0.474879
0.107879
-0.015198
0.041991
0.042437
-0.430316
0.337779
0.216634
-0.225105
-0.202739
-0.040197
0.384726
-0.045740
-0.084761
0.028014
-0.253809
0.084729
0.024841
-0.606225
-0.366014
0.292936
-0.507605
0.109763
-0.262558
-0.203775
-0.647442
-0.258559
-0.042303
0.014333
0.292195
-0.088740
-0.339629
0.220054
-0.318153
0.614255
0.087561
0.280910
0.697392
-0.468270
0.310271
0.163504
-0.528576
-0.666376
-0.493027
-0.076859
-0.429405
-0.045987
-0.531783
-0.132625
-0.350643
-0.439894
-0.019709
0.671784
0.216502
0.109285
0.113279
-0.231779
-0.012280
0.453352
0.041299
0.686198
0.409066
0.358695
-0.343827
-0.169271
-0.526471
0.130788
0.015079
0.036341
-0.097083
-0.197833
-0.523456
-0.496963
-0.327190
-0.520153
-0.920348
0.018660
-0.130992
-0.400159
-0.492909
-0.211986
0.563951
0.493440
0.006622
-0.362905
-0.300138
0.489659
-0.553353
0.766751
0.011027
0.365097
0.221563
0.143922
0.443849
0.023284
0.009981
-0.763098
-0.043220
-0.078215
0.347825
-0.733257
1.142661
0.127286
0.379601
-0.535244
0.192652
0.055088
-0.130130
-1.096946
-0.411761
0.711335
0.096182
-0.412879
-0.571732
-0.480887
0.169069
-0.004104
-0.176906
-0.331054
-0.132394
-0.015793
-0.307046
-0.268530
0.566723
-0.331534
-0.170271
0.088143
0.456831
0.650148
0.376720
-0.450916
-0.200595
0.147066
0.248741
0.140230
-0.507122
0.014532
0.214242
-0.089773
-0.289286
-0.242654
0.261424
-0.501257
-0.774091
0.057882
-0.078222
0.502772
0.513024
-0.495168
-0.951756
-0.362939
-0.558836
-0.337644
0.565437
-0.047130
0.004416
-0.102264
-0.538099
-0.120633
0.380043
0.431446
-0.182096
0.172158
0.092265
-0.225249
0.505462
-0.325400
0.133598
-0.377428
0.048412
-0.704523
-0.397186
0.336336
0.036711
-0.226139
0.817656
-0.741004
-0.179623
0.504562
-0.061579
-0.173275
0.309944
0.021768
0.616798
-0.722533
-0.377739
-0.350586
-0.485020
-0.183954
0.755206
0.340406
-0.149908
-0.564325
0.048016
-0.589531
0.060385
-0.377639
-0.195194
0.016757
0.002876
0.148343
0.179894
-0.052752
0.053509
0.741993
0.040516
0.426683
-0.251683
0.653287
-0.054879
0.406483
-0.891119
-0.647346
0.228544
-0.366382
-0.411440
0.568992
0.377180
0.190433
0.221692
-0.234537
-0.075779
-0.278695
-0.465816
-0.376525
-0.107875
0.265347
-0.190102
0.026944
-0.206228
-0.282000
0.112288
0.241103
-0.234765
0.598851
-0.070289
-0.417176
-0.146130
-0.053374
0.186185
0.393382
-0.185688
0.472955
-0.201747
0.076588
-0.585305
-0.063905
0.291391
0.612148
0.229271
-0.326924
-0.046243
-0.403507
0.499892
-0.561686
0.347496
-0.393314
0.021756
-0.294428
0.329752
0.105497
0.082776
-0.407477
-0.266582
0.529774
-0.414216
-0.894005
0.336862
0.244939
0.220960
-0.163238
0.420684
0.702441
0.357046
-0.035691
0.351004
-0.071942
-0.453897
0.022294
0.154601
-0.230982
-0.002049
0.107662
-0.261514
-0.282979
0.341001
-0.430496
0.611662
0.053251
-0.383025
0.077132
0.349209
-0.325543
-0.645752
0.131863
-0.121539
0.249631
-0.445402
-0.586444
-0.998928
-0.073143
0.139256
-0.188962
-0.222552
-0.131738
-0.226553
-0.275951
-0.131712
-0.270288
0.211224
0.001472
-0.297083
0.263690
0.579873
0.534387
-0.053848
0.096578
-0.184126
0.156140
-0.436227
-0.430707
0.599513
0.144135
-0.672407
-0.063978
-1.096613
-0.282139
-0.215638
-1.261785
-0.619271
-0.239499
0.414288
-0.110262
0.229889
0.016082
0.245509
0.188875
-0.406556
0.399201
-0.657377
-0.018726
-0.309708
-0.307927
0.396085
-0.622976
0.333448
0.119220
0.107130
0.770535
-0.314954
-0.077908
-0.394531
-0.036510
0.441531
0.233170
-0.445432
-0.541201
-0.489961
0.524006
0.078750
-0.159458
-0.192803
0.356527
-0.346349
-0.104153
0.596180
-0.262331
0.176272
0.000341
0.094338
-0.876282
0.380518
0.083735
0.017441
0.262645
-0.417778
-0.177718
0.540836
-0.079707
0.532674
0.252234
-0.381623
-0.043049
0.595428
0.071921
-0.238449
-0.117929
0.459741
-0.092150
-0.711595
-0.377235
-0.153276
0.158707
0.463411
0.184136
-0.000970
0.359216
0.045112
0.437528
-0.088474
-0.138746
0.603221
0.760621
-0.038493
-0.192711
0.065166
-0.127039
0.243123
0.003389
-0.696873
0.013425
-0.286610
0.427970
0.061958
-0.717579
0.177842
0.317969
0.722117
-0.700404
0.275595
0.529284
0.631256
0.050751
-0.076576
-0.330540
-0.123658
-0.461265
0.317189
-0.095616
-0.325635
0.185487
-0.968760
-0.297056
0.217442
0.132286
-0.193383
-0.241445
-0.103522
0.508997
-0.768571
-0.326358
0.600810
0.372136
0.073971
0.406117
0.268416
1.112424
-0.569508
0.028880
0.266618
0.602002
-0.644276
-0.216953
0.329265
0.128422
0.304200
0.071796
-0.198960
-0.655677
0.139098
0.072315
0.014975
-0.720360
-0.606548
0.608610
-0.341863
0.501317
0.375355
0.644736
0.000306
-0.117915
0.006069
-0.003081
0.152141
0.069567
0.400192
-0.640534
0.196809
-0.477385
0.181201
0.736525
-0.049484
-0.833216
0.197324
1.138344
-0.579830
0.052188
0.195730
-0.823629
-0.515272
-0.013392
-0.695028
0.453339
0.395165
-0.033728
0.310596
0.503239
-0.013141
0.218021
0.056676
-0.262059
-0.082576
0.343177
0.198408
0.445657
-0.087022
0.250630
-0.156797
-0.136252
0.012373
-0.400642
0.053725
0.458275
0.128971
0.123806
0.435789
-0.364758
0.484397
0.717138
-0.759635
0.025892
-0.491536
0.562517
0.018793
-0.393377
-0.735292
0.227602
0.221541
-0.048634
0.120349
0.228202
-0.005867
0.249955
0.437875
0.668850
-0.505397
0.622122
0.053877
-0.012170
-0.222052
0.170592
-0.625153
0.318706
-0.103705
-0.306193
-0.090075
0.086990
0.116204
-0.779076
0.466412
-0.058479
0.208716
0.563908
0.230374
0.497939
-0.068576
-0.143975
0.050558
0.390817
-0.253526
0.489479
0.503911
0.593908
0.337795
-1.031223
-0.733687
0.553742
0.474170
0.046215
-0.441341
-0.137827
-0.035727
0.055193
-0.047835
-0.387528
-0.615114
-0.748517
-0.354637
-0.633990
0.142548
-0.105208
-0.116347
0.367771
-0.260814
0.217841
-0.660485
-0.149625
0.107747
-0.172606
0.241500
-0.115266
0.001347
-0.342598
0.441305
0.508133
0.044656
1.048114
-0.075845
-1.086293
0.407900
0.044420
-0.423602
0.141104
0.182712
0.340532
-0.317308
0.072610
-0.425985
0.037659
-0.353154
-0.098799
-0.554485
-0.320297
0.345465
0.136838
0.493423
-0.016709
0.760988
0.496128
-0.083634
-0.177993
-0.691202
0.258132
0.198539
-0.495568
-0.039784
-0.023261
0.244580
-0.446426
-0.226036
-0.215454
-0.817032
0.167412
-0.015649
-0.078279
-0.302735
0.220144
0.006127
-0.088021
-0.145699
0.162575
-0.128434
-0.480517
-0.532869
0.513303
0.282885
-0.222658
0.064919
0.048496
0.388496
-0.533310
0.075125
0.367039
0.470230
-0.236980
0.137439
0.000116
0.645346
-0.405047
0.372827
0.206499
0.744163
-0.432387
-0.189049
0.573233
0.189796
-1.042441
0.517787
-0.557146
0.024765
-0.155924
-0.129366
0.566908
0.801976
0.077886
0.661814
1.074864
-0.220165
-0.019337
0.026203
0.081180
0.006133
-1.084605
0.470213
0.533024
-0.133231
0.162348
0.495289
-0.130191
-0.835937
-0.460439
-0.148653
-0.496340
-0.124431
0.518977
0.099020
-0.363877
-0.142322
0.935016
-0.053759
-0.558602
-0.486931
-0.088714
-0.510347
0.086407
1.082642
-0.002415
0.397251
0.661540
-0.035723
-0.084046
-0.107046
0.100347
-0.539824
-0.222941
0.315338
0.406820
-0.341970
-0.069328
0.258020
0.241551
-0.200061
-0.526975
0.255159
-0.042633
0.042980
0.211732
0.086768
0.047955
-0.179846
-0.318160
0.462400
0.232058
0.407927
-0.538243
-0.318085
0.241986
0.819736
0.941456
0.090450
-0.232518
-0.266574
-0.200451
-0.413815
-0.417355
-0.651659
-0.080993
-0.349933
0.277435
0.462822
0.630177
1.010099
-0.013062
-0.096294
0.013377
0.207947
-0.203184
0.217237
0.241220
-0.205288
0.178174
0.475470
0.951479
0.783644
-0.198091
-0.650734
0.136239
-0.016820
0.259806
-0.188512
0.200943
0.534254
0.445726
-0.171725
0.163780
0.527088
0.008811
-0.446142
-0.152324
0.194276
0.155450
0.295416
-0.834392
-0.269861
-0.237887
0.418225
0.216332
0.083000
0.215605
0.748515
-0.387593
-0.028923
0.006035
0.640765
0.695123
-0.047166
-0.212500
0.173240
0.314742
0.319259
-0.170724
-0.635786
-0.128923
0.472677
0.232981
0.693006
0.393289
0.126310
0.288442
-0.059219
-0.006266
-0.437995
0.975995
-0.021945
-0.272260
-0.449480
-0.408735
0.238235
-0.045807
0.152794
-0.298883
-0.075026
0.172243
-0.041710
-0.321368
-0.049728
-0.773458
-0.142764
-0.056069
-0.701453
-0.325938
0.179434
-0.182584
-0.315015
-0.887588
0.573689
0.052017
-0.148920
0.296208
-0.251747
-0.285104
0.145523
-0.351688
0.035923
-0.333073
-0.263166
-0.729765
0.280575
-0.537208
0.697705
0.162059
-0.490393
-0.021627
0.195338
-0.094492
0.300134
0.380599
-0.008797
-0.178236
0.398623
0.369789
0.257973
-0.728640
0.239886
0.017372
-0.616451
0.036999
0.345723
-1.000376
-0.462520
0.154762
0.070503
-1.168091
-0.340348
-0.697923
-0.299551
-0.036365
1.024737
0.024522
0.488815
0.612709
0.062849
-0.804465
-0.293730
0.403091
0.236946
-0.695123
-0.020930
-0.101272
-0.532020
-0.393547
0.817398
0.216995
0.027690
1.732421
0.683087
-0.020654
0.594505
0.097992
-0.196867
0.144910
0.240256
0.212222
-0.213220
-0.433764
0.254602
0.784014
-0.271891
0.539660
0.299876
0.107171
0.156448
0.413430
0.742898
0.533067
-0.798140
0.333651
-0.194380
0.115602
0.473566
-0.899218
0.721406
-0.037584
-0.463485
0.624138
-0.136101
-0.294999
0.777903
0.207510
-0.052241
-0.700108
-0.223961
0.069802
0.332430
0.008211
-0.189353
1.187375
0.131207
-0.535667
0.392557
0.603050
-0.572651
-0.027632
-0.040697
-0.163811
0.464768
-0.322137
-0.027593
0.256023
0.492846
0.140220
0.541317
-0.242066
-0.777466
0.191918
0.613694
-0.667768
0.336983
-0.033540
0.156966
0.664861
0.133643
0.149154
0.655863
-0.979290
-0.560564
-0.628769
0.161046
0.113580
0.180444
-1.141334
-0.746026
0.294555
-0.033671
-0.400372
-0.081054
-0.004670
0.056851
0.407702
0.347893
0.622100
-0.124404
0.199983
0.086524
0.183156
-0.275091
-0.314314
0.815886
-0.357952
-0.338550
-0.503206
-0.069497
-0.506176
0.630190
0.042559
-0.578435
-0.476613
-0.440948
-0.258817
-0.157143
0.475423
0.216552
0.253279
0.298711
0.678981
-0.173812
-0.001304
-0.549793
0.854447
0.202354
0.426061
-0.335177
0.395413
-0.266986
-0.243192
0.022341
-0.003061
-0.463249
-0.023943
-0.260383
-0.475489
0.577607
-0.224248
-0.411814
0.312847
-0.439282
-0.220247
-0.232299
0.112927
0.513696
-0.363299
-0.085316
-0.085351
0.683207
0.113015
-0.216353
0.156067
-0.015129
0.096671
-1.025753
-0.347688
0.130067
-0.430193
-0.929954
-0.161980
-0.076865
0.265931
0.527518
-0.035889
-0.038940
-0.178902
0.146456
-0.046382
-0.279907
0.142833
-0.141545
-0.270082
0.554468
0.481120
-0.269518
-0.241484
-0.389661
-0.175634
0.413988
0.272696
0.080373
-0.344398
-0.110283
-0.161237
0.348172
0.058104
-0.029045
-0.358572
-0.140008
-0.317084
-0.015546
0.107656
0.763259
-1.159876
-0.384213
0.214447
0.725589
0.108485
-0.910403
0.077760
-0.247236
-0.203908
-0.224001
-0.070301
-0.798685
-0.914999
-0.030022
-0.248828
-0.184518
-0.526439
0.093721
-0.321588
0.471520
-0.107976
0.396822
-0.190762
-0.478464
-0.431106
-0.419705
-0.740611
-0.115709
0.067858
-0.156357
-0.323093
-0.226036
0.370409
0.042682
0.227167
-0.322529
0.050854
-0.256270
0.015573
-0.349817
-0.023569
-0.558436
-0.379869
-0.467979
0.231643
-0.620270
-0.430673
0.184604
0.204018
-0.000677
-0.628693
-0.784663
-0.296476
-0.574027
-0.529606
-0.764863
0.551894
-0.503458
-0.170403
0.382330
0.675893
-0.010964
-0.840767
-0.032451
-0.227679
-0.065556
0.052518
-0.066443
0.194733
0.461520
-0.287061
-0.097858
0.018641
-0.837517
-0.278100
-0.528777
-0.308418
-0.141741
-0.044956
0.629398
-0.472701
-0.155711
0.224990
-0.408309
-0.312027
0.268815
0.108180
-0.988434
-0.625835
-0.310003
0.320998
0.328218
-0.168857
0.784178
-0.517956
0.298102
-0.128149
-0.254561
0.257324
-0.129868
0.074056
0.209160
-0.263023
-0.135974
0.267767
0.403060
-0.163126
0.389816
0.006862
-0.252694
0.353272
-0.128885
0.707778
-0.423134
0.166713
0.107940
0.620193
-0.511787
0.182287
-0.647737
0.136814
0.695276
0.320519
-0.697202
0.316169
-0.549496
0.351517
-0.627372
0.484505
-0.098485
-0.008631
-0.251256
-0.343077
0.176390
-0.590446
-0.255348
0.377086
-0.541171
-0.264912
-0.045092
-0.090926
0.475446
0.358489
-0.246544
0.722086
-0.580346
0.196633
-0.013665
-0.505848
0.310148
0.468134
0.244733
0.458521
0.441075
-0.021723
-0.627027
0.025068
-0.328043
-0.323149
-0.799290
-0.186179
0.261011
-0.431681
0.011929
-0.202351
-0.420080
-0.289025
0.306663
0.597167
-0.300116
0.169484
-0.007364
-0.433488
0.156305
0.154552
-0.242460
0.492027
0.034953
-1.016532
0.090355
0.132893
-0.167913
-0.539997
0.110999
0.446996
-0.303091
0.361280
0.461211
-0.575861
-0.073569
0.613310
0.272182
0.258640
0.006546
0.176260
-0.278285
0.336565
-0.135210
0.011097
-0.031312
0.086122
-0.304402
-0.461844
-0.390282
-0.254847
-0.065514
0.431739
-0.397913
0.205289
-0.153771
-0.139295
-0.951295
0.371538
0.532386
-0.038194
0.489264
-0.162793
0.546100
0.628059
0.464337
-0.089429
-0.178970
0.207254
-0.176136
-0.674778
-0.432509
-0.339151
-0.694420
0.583748
0.483881
-0.446117
-0.002249
0.508453
-0.085014
-0.245037
-0.345349
0.317483
-0.299421
0.052459
-0.369841
-0.107434
0.790716
0.299305
-0.425092
-0.139399
0.213413
-0.041250
-0.098465
-0.037908
0.036616
-0.854822
0.368926
-0.057403
1.067586
-0.430561
-0.218858
-0.431574
0.360957
0.433978
-0.440966
-0.699529
-0.246207
0.096228
0.431383
0.541704
-0.281749
-0.176822
0.292442
0.182250
-0.401529
0.130788
0.108590
-0.425171
-1.320357
-0.045368
-0.216570
0.189836
0.402200
0.103046
0.507683
-0.055868
0.235751
0.005774
-0.162595
-0.312744
-0.075486
-0.555009
0.520212
-0.494798
0.463449
-0.243010
-0.100957
0.155490
0.553061
0.139995
0.142934
-0.265005
-0.334927
-0.110239
0.220696
-0.689750
0.277947
0.562450
0.369785
0.479871
-0.154596
-0.293868
0.256920
-0.234809
0.190332
-0.852708
0.097253
0.114530
-0.038367
0.395046
0.323092
-0.731640
-0.264893
-0.337795
-0.232183
0.199449
0.647331
-0.652011
0.535184
-0.353662
0.017618
0.128330
-0.090912
0.098629
-0.726944
0.650602
0.183530
-0.099974
-0.114488
0.358050
-0.790704
-0.943120
-0.151783
0.123416
0.796057
-0.440893
-0.197187
0.488855
-0.052421
-0.010310
0.036031
-0.365200
0.403667
0.079411
0.378472
0.092518
-0.639296
-0.632039
-0.077790
0.246130
0.127216
0.510810
-0.343489
-0.162598
0.357458
0.137855
-0.031917
-0.268407
0.583026
-0.083321
-0.208168
-0.489343
-0.170063
-0.437630
-0.144823
-0.569393
-0.045899
-0.255096
0.319487
-0.569042
0.704178
0.170877
0.095169
-0.648826
0.499538
0.099046
-0.038323
-0.268551
-0.133918
0.305402
0.658486
-0.050933
0.471887
-0.525797
-0.695188
-0.251792
-0.323381
0.244951
-0.207241
0.491415
-0.393486
0.493832
0.654955
-0.186089
-0.396149
0.543507
0.391128
0.075459
-0.968416
0.555195
-0.338623
-0.775451
0.533602
0.574947
-0.224759
0.193259
-0.754626
0.411234
0.160799
-1.028253
0.282057
0.175638
0.342439
0.017900
0.101022
-0.280575
0.144237
-0.284625
-0.604681
0.105443
0.238163
0.255277
-0.297154
-0.370501
-0.179691
-0.137445
0.308102
-0.448882
0.476500
0.208862
-0.375001
-0.270303
-0.374145
-0.504806
-0.012151
0.262739
-0.053540
0.192657
-0.916878
0.201865
0.180305
-0.090360
-0.519798
-0.903942
0.436106
-0.048733
-0.054180
0.371963
-0.309572
0.126090
0.518498
-0.549473
0.244127
0.168483
-0.536000
0.730547
-0.096029
-0.556578
-0.043295
-0.238047
-0.157981
0.198016
0.042071
0.670744
-0.392192
-0.713651
0.081067
-0.290280
-0.009035
-0.724859
-0.096417
-0.047528
0.217182
-0.021036
0.476672
0.073244
0.247307
0.289620
0.266158
0.269287
0.655915
-0.157478
0.727119
-0.147288
0.831722
-0.080694
-0.083114
-0.057932
0.373678
-0.176734
0.063579
-0.079903
-0.016605
0.006803
-0.967995
0.074098
-0.106554
-0.192231
0.280737
0.810692
0.383237
-0.479269
0.060655
-0.168390
-0.203218
0.459733
-0.396665
-0.785387
0.136308
0.764774
-0.214821
0.523956
-0.429056
-0.815646
-0.485950
-0.558728
-0.144109
0.163729
0.226147
0.212528
-0.070600
-0.187102
-0.373612
-0.407097
0.071178
0.413561
-0.140846
0.298039
-0.097616
0.517417
-0.578775
0.313587
0.980386
-0.204725
-0.232687
-0.899833
-0.457054
-0.568224
0.134460
-0.258527
0.219040
0.064324
-0.104807
-0.682260
-0.021076
-0.278689
-0.031169
0.459155
-0.657699
0.041400
-0.109514
-0.200962
-0.187015
-0.692383
0.785426
-0.122951
-0.205926
-0.898435
-0.328393
0.197560
0.761787
1.217060
-0.366796
0.514121
0.044472
0.228048
0.152293
0.183398
-0.432332
-0.292217
0.101844
-0.406510
0.367088
0.445517
-0.191159
0.046536
-0.839786
-0.459579
0.334024
0.131254
0.406584
-0.458930
0.050861
0.340031
0.324741
0.483727
-0.288000
0.009382
0.450704
0.664068
0.105031
-0.038654
0.432618
-0.221475
0.870327
0.753457
0.269620
0.433379
-0.336071
-0.259311
-0.060571
0.647933
-0.082192
-0.070799
0.198190
0.307778
-0.485546
0.077404
0.496475
-0.225051
-0.258879
-0.191169
-0.164396
0.220340
-0.589392
-0.328539
0.056418
-0.027338
0.093658
0.293677
0.182021
-0.103335
0.305216
0.572131
-0.040991
-0.270211
0.274489
0.377879
-0.160229
0.098716
0.250222
0.422815
-0.401331
0.562258
0.176222
-0.632742
-0.536545
0.353234
-0.335846
0.555049
-0.072712
0.605332
0.008480
-0.405747
-0.255172
0.354391
-0.774060
-0.582168
0.759299
0.236592
-0.462287
0.603211
0.044665
0.222776
-0.028079
0.065521
0.352785
0.083618
0.382092
-0.418408
0.399973
-0.278745
0.296839
0.136649
-0.500648
0.304832
0.064622
-0.505965
0.248580
-0.186005
0.339241
0.143784
0.406912
0.441131
0.032260
0.053671
-0.490172
-0.078332
-0.351906
-0.218713
-0.168807
-0.198715
0.179192
0.109722
-0.584097
0.192308
0.379061
0.197303
0.062154
0.990386
-0.459126
0.712596
0.582879
0.239445
0.244832
-0.184082
-0.240485
-0.502002
-0.173087
-0.417443
-0.028934
-0.062258
-0.211989
0.047638
-0.232290
-0.165617
-0.127390
-0.359968
0.167308
-0.235717
-0.576566
-0.341981
-0.154413
-0.524325
-0.602449
-0.162861
-0.498540
0.679876
-0.416657
0.591251
-0.203196
-0.131477
0.297696
-0.551758
-0.533208
-0.436042
0.290451
-0.605516
-0.419410
0.620706
0.193931
-0.184813
0.046173
0.774983
-0.085308
-0.287299
-0.725802
-0.224627
0.332632
0.155699
0.182051
0.225187
-0.644869
-0.190061
0.306570
-0.180263
0.322414
-0.466767
0.466798
-0.353806
-0.425627
-0.129248
0.449145
-0.307696
-0.170374
-0.361284
0.204031
0.050996
-0.689922
-0.266411
-0.909762
0.569236
-0.060016
0.427165
-0.144212
-0.708749
0.352614
0.228289
-0.689743
-0.014856
-1.018375
-0.755961
0.725601
-0.580071
0.363121
0.442809
0.003131
-0.656239
-0.515857
0.235245
-0.594943
-0.102981
-0.601867
0.102108
-0.023789
0.326781
-0.311146
-0.591541
-0.670914
0.030621
0.475121
-0.577896
-0.204408
0.359314
0.239800
-0.357353
-0.122646
-0.013314
-0.450157
0.086698
0.098439
0.549813
0.090960
0.548288
0.443610
-0.303843
-0.265827
0.625336
0.283687
-0.857901
0.351647
0.187870
0.514296
-0.220763
0.407052
0.606157
-0.485974
-0.177267
0.239421
0.150445
-0.091819
0.400889
-0.640078
0.047760
0.354350
0.628027
0.666522
-0.874175
-0.747930
-0.604454
-0.074199
0.067951
0.664217
0.212202
-0.537008
-0.340871
-0.289870
0.281324
-0.034264
-0.059338
-0.339055
0.021197
0.361070
-0.449525
-0.529753
-0.342854
-0.164845
-0.230974
0.585667
0.464878
0.171706
0.479480
0.437462
-0.251537
0.537134
-0.407685
-0.330806
0.485588
0.068902
-0.019764
-0.105929
-0.327737
0.146684
0.782633
0.324062
-0.340723
0.057715
-0.234169
0.229149
-0.153613
-0.399401
-0.308980
-0.014764
-0.585676
-0.055620
-0.005952
-0.303344
0.456125
0.385968
-0.354672
-0.086764
0.116522
-0.388961
-0.081917
0.195829
-0.068548
0.439603
-0.203763
-0.341450
-0.364891
0.096916
-0.793919
0.753125
-0.256372
0.063296
0.209169
0.027712
-0.064176
-0.157431
0.215321
-0.508669
0.303681
0.151553
-0.411316
0.048723
0.234693
0.181222
0.122041
-0.431768
0.363045
0.479338
0.818471
0.364036
0.346849
0.175904
-0.473814
-0.385006
0.279962
-0.306287
-0.353546
-0.517129
0.196802
0.670301
0.743114
-0.124715
0.424742
0.232950
0.055352
0.697990
0.134457
-0.229309
-0.490076
0.540907
0.266293
0.558233
0.092509
0.069866
0.373851
1.063072
0.551878
-0.003537
0.260856
-0.249868
0.113213
-0.048261
-0.481249
0.183449
0.255454
0.358031
-0.225776
-0.194360
0.019092
-0.298988
0.000392
-0.237716
0.509879
-0.381903
0.402985
0.180455
0.440931
-0.257288
0.086876
-0.768258
0.459178
-0.598050
-0.720657
-0.087606
0.385747
-0.011936
-0.252345
-0.434274
-0.188798
-0.248613
0.344332
0.160096
-0.370718
-0.380824
0.303068
0.687200
-0.077447
0.852362
-0.151414
0.030153
0.332277
0.506558
-0.168407
0.123870
-1.025398
0.012343
-0.690415
0.607830
0.658049
0.420032
-0.049949
0.263234
-0.347558
0.788175
0.670568
0.742558
0.131535
0.555231
0.074678
0.022703
1.101121
-0.705916
-0.246905
-0.040292
0.342640
0.093031
0.565221
0.676022
0.004123
-0.237043
-0.457743
0.311674
0.359489
-0.015354
-0.059929
-0.237951
-0.541426
-0.014516
0.676731
-0.399532
0.198111
0.844875
0.196286
-0.490259
0.060498
-0.378360
-0.010275
-0.003229
-0.078767
0.119679
0.183835
0.400620
0.166015
-0.539403
-0.288183
-0.293139
-0.177233
-0.398954
-0.427225
0.004337
0.468107
-0.302319
-0.758239
0.258858
0.076299
-0.002963
0.185501
-0.090261
0.493419
-0.390421
-0.515043
0.004341
0.086547
0.111760
0.281866
-0.883994
-0.246969
0.416174
-0.242566
0.528829
-0.031154
0.422514
-0.359966
0.864612
-0.233362
0.244690
0.384804
0.043509
-0.160752
0.163960
-0.219482
-0.322224
-0.011270
0.108205
0.028972
0.306955
-0.191881
-0.850176
0.353832
-0.153668
0.204296
0.572467
-0.686022
0.194858
-0.370322
-0.124112
0.677962
0.163215
-0.114012
0.801954
-0.046628
0.137694
0.190037
-0.295461
-0.166302
0.346080
0.124087
0.124194
0.124392
0.278968
-0.208043
-0.086128
-0.083624
-0.092142
-0.644607
0.516532
0.203012
-0.606119
-0.232521
-0.411642
0.864616
0.346120
0.551978
-0.220735
-0.353381
-0.578746
-0.427160
0.224656
-0.522212
0.072466
0.274659
-0.596733
-0.019558
0.385888
0.730403
0.030714
-0.198686
0.910015
-0.417773
0.041403
-0.524665
0.239752
0.554464
-0.057209
-0.014882
-0.226511
0.347687
-0.229312
0.651555
-0.507966
-0.239271
-0.202596
0.381331
-0.147613
0.105409
-0.243717
-0.974361
-0.157064
0.301965
-0.127089
-0.112003
0.067878
0.135188
0.048651
0.228089
0.563319
0.684376
0.281068
-0.602006
-0.119461
0.244903
-0.667819
0.065107
-0.303626
-0.112515
0.074920
0.347593
-0.529972
-0.083934
-0.320338
-0.873664
1.117689
0.093092
-0.344305
0.597773
0.248951
-0.061116
-0.223977
-0.730561
-0.381972
-0.484083
0.150704
-0.355867
-0.376871
0.679752
0.299101
-0.010670
0.157182
-0.053548
-0.060763
-0.253622
-0.559253
-0.428899
0.196683
0.550019
-0.006058
0.379225
0.162438
-0.364975
0.390115
-0.440800
-0.565921
-0.132750
0.239353
-0.235541
-0.455642
0.416658
-0.206274
0.082205
0.059276
-0.239563
-0.676542
0.557164
0.330852
-0.248383
0.257539
-0.220992
-0.251262
-0.633873
-0.342710
-0.017970
-0.514489
0.391021
0.281863
0.379859
-0.079251
0.906985
0.006934
0.227973
-0.555042
-0.562721
-0.157300
0.938324
0.354729
-0.249575
-0.420531
-0.646444
0.148198
0.222543
-0.792900
0.200197
-0.463639
-0.433604
-0.608873
-0.145435
0.452024
-0.252599
-0.291410
0.237349
-0.356746
0.804320
-0.078914
0.341205
0.115842
-0.211027
0.191430
-0.095126
0.147828
-0.253680
-0.428144
-0.047116
-0.456951
0.010048
-0.363775
0.494532
0.070520
-0.146143
-0.004812
0.387573
0.383457
-0.072579
-0.252892
-0.258289
-0.365398
0.354373
-0.136682
-0.161861
0.131455
0.543864
-0.483367
0.739641
0.287583
-0.454173
0.476370
0.251645
0.121273
-0.142066
0.745205
0.314492
-0.701582
-0.322064
-0.390381
0.564334
-0.657433
-0.693674
0.122133
0.061652
-0.722410
0.191085
-0.435026
0.396638
0.565909
0.168036
0.089089
-0.689662
0.370518
0.134206
-0.976936
-0.038351
-0.212524
0.261796
-0.101637
0.336295
-0.553848
0.024618
-1.185303
-0.060593
0.092955
-0.443170
0.546148
-0.517308
-0.376919
0.677982
0.574052
-0.402453
-0.217206
-0.070634
0.447948
-0.080672
0.110887
0.404933
-0.065139
0.350019
0.142028
0.001841
0.339857
-0.680819
-0.271350
-0.244934
-0.263907
-0.015678
0.667593
0.161787
0.301341
0.386368
-0.676815
0.416570
1.122451
-0.130083
-0.098713
0.279928
0.956716
-0.271595
-0.222650
-0.490511
0.372025
0.235727
-0.411554
0.124936
1.531735
-0.446383
0.364116
-0.838895
0.616051
0.329775
0.190938
-0.400274
0.038499
-0.033862
-0.440362
0.376655
0.209229
-0.010104
-0.134653
0.460666
-0.006261
0.323182
0.488458
0.247658
-0.250247
0.166485
0.856395
-0.311431
-0.723203
-0.637999
-0.794420
0.069921
0.487252
0.106991
0.443267
-0.059846
-0.274424
0.324426
0.187830
-0.560446
-0.389939
-0.287136
-0.294157
-0.024520
-0.583284
-0.236245
-0.106497
-0.005272
-0.678218
0.438069
-0.451966
-0.911945
0.560949
-0.346443
0.212503
0.051576
0.651046
0.373663
-0.399048
-0.462619
0.064125
0.992230
-0.515918
0.089049
-0.006732
0.659957
0.372767
0.024797
0.001397
0.003700
0.216657
0.180470
-0.960018
-0.408761
0.397834
0.360470
-0.613951
-0.229930
-0.060448
-0.905101
-0.008512
-0.200293
-0.028935
-0.287678
-0.158938
-0.061622
-0.191522
-0.164596
-0.296623
0.728594
-0.090287
0.445637
-0.114076
-0.815415
-0.766520
0.270848
-0.138405
-0.383421
0.697866
-0.390684
-0.081439
0.627348
-0.103032
-0.043664
-0.313178
-0.044229
0.002430
0.205040
-0.205926
-0.016460
-0.290372
0.573033
-0.113151
0.086972
0.075217
-0.308558
0.305315
-0.154187
0.217188
-0.385403
-0.265944
0.539642
-0.414517
-0.603733
0.119682
0.002502
-0.164448
0.158441
0.510036
0.291321
0.103433
0.207581
-0.297388
-0.129479
0.502680
-0.128968
0.282972
0.212905
0.529833
-0.084361
-0.431399
0.089984
-0.374316
0.813623
-0.195534
0.576552
0.193863
0.140293
0.100070
0.152984
0.196480
-0.727462
0.117832
-0.681340
0.040811
0.174062
0.626596
-0.325604
-0.225866
-0.195768
0.110597
-0.073023
-0.592227
-0.662538
0.079652
0.131563
-0.284631
-0.095562
-0.107362
-0.305426
0.350054
-0.036027
0.532667
-0.431768
0.350920
-0.060678
0.666076
0.310768
0.702087
-0.447576
-0.563723
0.369342
-0.572860
0.649341
0.381401
0.282663
0.220836
-0.136754
0.183920
0.119736
-0.422371
0.510679
0.080235
-0.328804
-0.126144
0.097904
-0.251110
0.321330
0.110023
0.287556
0.026326
-0.153643
-0.079664
0.118354
-0.891725
0.038752
0.132222
-0.195442
-0.044583
-0.458500
-0.125860
-0.263164
0.099478
0.143889
0.468910
0.211694
-0.343923
0.354645
-0.092225
-0.031175
-0.024910
-0.355330
-0.031958
0.052602
0.371684
-0.102340
-0.007458
0.335335
-0.198031
-0.341154
-0.422519
0.639977
-0.161378
0.114336
-0.052976
-0.267936
0.455433
-0.043233
-0.082548
-0.228465
0.037264
-0.578301
-0.218139
0.461261
0.212419
-0.280758
-0.312793
0.541869
-0.551270
-0.344329
0.007990
0.418275
0.188484
-0.629293
0.118802
0.057453
0.439574
-0.321864
0.398460
0.241489
0.228866
0.127829
0.177526
0.217821
-0.574836
-0.392341
0.508539
-0.182122
0.018282
0.388127
-0.006684
-0.325849
-0.243416
0.062149
0.230257
0.143778
-0.068143
-0.437346
-0.074734
-0.526607
0.534634
0.040421
0.677857
0.354232
-0.245010
-0.317816
-0.035480
0.111146
0.258942
-0.220482
0.517709
0.349412
0.302989
0.367389
-0.299449
-0.197794
0.677192
-0.110330
-0.243373
-0.122044
-0.622814
0.037141
-0.046542
-0.759124
0.323316
-0.345962
0.199182
-0.169977
-0.133994
0.405886
-0.212315
-0.166266
-0.518565
0.231840
-0.080971
-0.115070
0.426462
-0.089813
-0.227500
0.440886
-0.232700
0.453392
0.234700
0.297609
0.391105
-0.126540
-0.333028
-0.046711
0.628967
-0.226459
-0.068262
-0.483736
0.317541
0.078545
-0.013221
0.434044
-0.023713
-0.212877
-0.188073
-0.511099
-0.223997
-0.328451
0.330736
-0.087236
0.434718
-0.283104
-0.277289
-0.408387
-0.388380
-0.480757
-0.331807
-0.387967
0.319601
0.703738
0.052312
0.183792
-0.349940
-0.370353
-0.254885
0.641039
0.381257
0.070491
0.709943
0.610994
0.620776
0.157167
0.400310
-0.530658
-0.170146
-0.057101
-0.831295
-0.480201
0.157204
-0.354240
-0.097677
0.071110
0.604783
-0.424681
0.308131
0.102722
-0.152783
0.020394
-0.434512
-0.170450
-0.375413
-0.308110
0.262975
-0.139919
-0.295690
0.012865
-0.164563
0.132900
0.176211
-0.580712
-0.355237
0.346518
0.062810
-0.558400
-0.683753
0.074525
-0.195210
0.290745
0.200971
-0.176966
0.470041
-0.433030
1.041673
0.140170
0.149416
0.153355
0.032359
0.637852
0.167184
-0.589699
-0.940333
-0.194653
-0.568413
-0.141285
-0.229600
-0.611249
-0.011026
0.691906
0.383283
-0.456457
-0.806859
-0.139009
0.443664
-0.037755
-0.827840
0.385684
0.211749
0.038438
-0.302806
0.460076
-0.292411
-0.384394
-0.130568
-0.563470
0.347474
0.326516
0.105140
0.148184
-0.481679
-0.078317
-0.314731
-0.677325
0.145703
0.523653
0.539239
-0.010308
-0.094846
0.504187
0.363353
-0.273763
-0.503238
-0.145927
-0.046354
-0.077039
-0.197648
-0.105211
0.904360
-0.117627
0.340305
-0.082510
-0.250480
0.386854
0.589615
-0.084248
0.314197
0.551145
0.569381
-0.220809
-0.192974
-0.286673
-0.033378
0.124856
0.598396
-0.498934
-0.237113
1.030464
-0.222573
-0.001887
0.276702
-0.003712
0.550760
0.091693
0.016950
0.431910
-0.041829
-0.476253
-0.812175
-0.636442
0.255462
0.210180
0.222685
0.345660
-0.063759
-0.500061
-0.175257
0.278849
-0.181635
0.736668
0.381902
0.103835
0.993915
-0.119567
-0.213649
0.471185
-0.184472
-0.082743
0.225895
-0.229832
-0.459702
0.470971
-0.669214
0.020539
0.869713
0.802120
-0.355607
-0.066158
-0.222186
-0.265936
-0.122602
0.280032
-0.079039
-0.097059
-0.368451
-0.135524
0.150128
-0.694863
0.212184
0.140695
0.130720
-0.223622
-0.232090
0.066499
-0.216026
-0.227565
-0.757170
0.086630
-0.096166
-0.484290
0.033803
0.028256
0.253179
-0.005549
-0.038998
0.900230
0.368733
-0.365349
0.059906
0.342280
-0.847481
0.275599
-0.321486
-0.655485
-0.731498
-1.242958
-0.277187
-0.941006
0.626923
-0.614223
0.299844
-0.434786
0.354360
-0.677192
0.393638
-0.759478
0.246322
-0.019484
-0.045159
0.146514
0.099652
0.208124
-0.182328
0.293931
0.198860
0.077705
-1.099073
-0.173955
0.174878
0.573532
0.033437
-0.064667
-0.170143
-0.420627
0.329011
-0.574639
0.153283
0.508704
-0.232815
-0.356274
0.025321
-0.467201
0.242669
0.583397
0.553760
-0.257970
-0.437782
-0.148147
-0.536225
-0.171870
0.202043
0.078522
-0.377579
-0.155654
0.355301
0.613342
0.228678
-0.169397
-0.619911
-0.160491
-0.163073
0.863048
0.111451
-0.094030
-0.052057
0.085189
0.336175
-0.044390
0.011988
0.000959
0.653601
0.641219
0.207771
-0.653739
0.296007
-0.073859
0.402008
0.422110
-0.257296
-0.716066
0.363916
-0.471988
0.458481
0.128703
-0.291767
0.312899
0.022272
0.610885
0.557352
-0.455691
-0.907059
-0.174852
0.791253
0.067746
-0.111955
0.204786
-0.449742
-0.157270
0.313571
-0.325214
-0.231300
0.431056
-0.412691
-0.718723
0.337015
1.120154
0.526154
0.353547
-0.110682
0.598630
0.196993
-0.318099
0.205403
0.541571
0.699956
0.050014
0.152027
-0.036916
0.274097
0.000143
-0.342619
-0.160242
0.568357
-0.144408
-0.631184
-0.135058
0.618601
-0.878432
-0.007145
0.461558
-0.369345
0.566190
-0.117722
-0.655969
-0.488060
-0.237804
-0.050710
-0.630024
0.214768
-0.085216
-0.502002
0.463839
0.607570
-0.604166
0.166254
-0.123648
-0.103479
-0.129820
0.714279
-0.222652
-0.714297
0.299749
0.113851
-0.504924
-0.343892
0.053132
-0.121903
-0.013083
-0.222742
0.117089
-0.850945
-0.548562
0.114258
-0.263393
-0.011577
-0.327512
0.112682
-0.568032
0.261709
0.205483
-0.513141
-0.269410
-0.534900
-0.110305
-0.183815
-0.388867
-0.175926
0.313820
-0.615637
-0.063244
-0.485506
0.147790
0.759164
-0.365354
-0.251265
-0.355852
0.127466
-0.437229
0.252727
-0.195127
0.161152
0.418386
-0.146952
0.166935
0.478463
0.244472
-0.375569
0.412003
0.226603
-0.172258
0.407329
0.745888
0.082432
-0.070021
0.009679
0.179560
-0.200119
-0.179510
-0.514649
0.057817
0.344969
0.400864
0.316414
0.096214
0.378712
-0.197956
-0.595530
-0.034847
0.395440
0.451426
0.402206
-0.143750
-0.696762
0.276168
1.151904
-0.255241
0.218039
-0.804373
0.556027
0.018740
-0.128593
-0.231841
0.299136
0.059832
-0.665280
-0.769110
0.272819
-0.096943
0.467226
-0.002165
0.616116
0.520386
0.275042
-0.059326
0.126428
-0.237066
0.084144
-0.118450
-0.932695
-0.551621
-0.411094
-0.268137
-0.054783
0.335707
-0.272496
-0.325795
0.226792
0.337085
-0.008329
-0.764482
-0.299665
0.563407
0.207313
0.040271
-0.011237
-0.564600
-0.111584
-0.318734
-0.638875
-0.809012
-0.225661
0.151132
1.164213
0.042262
-0.262332
0.670096
0.250252
-0.705707
-0.579036
0.182995
0.067806
-0.072063
0.625081
0.342522
0.672661
0.236323
-0.048899
-0.061703
-0.128416
0.126586
0.462268
-0.252875
-0.449173
0.184028
-0.450552
0.241065
0.596952
-0.437764
-0.291524
1.040084
0.875752
0.777526
0.130110
-0.673860
-0.062696
-0.011930
-0.041980
-0.251028
-0.010944
0.189704
-0.434017
-0.738235
-0.281022
-0.234241
0.670787
-0.396279
0.398220
-0.229799
0.031327
-0.517886
0.253785
-0.303029
0.473837
0.004810
0.334753
-0.340744
0.260555
0.343466
0.106932
0.577536
0.145142
0.302090
-0.257365
0.628268
-0.523852
0.586655
0.260635
0.384655
-0.280680
-0.719405
0.537853
-0.161345
-0.152964
0.613765
-0.611935
0.010859
-0.330795
0.188997
0.019141
-0.460615
-0.403409
0.440901
0.057219
0.256386
-0.086467
0.002148
-0.078780
-0.099914
-0.255420
-0.949357
0.163118
0.040254
-0.152870
-0.029884
-0.271761
0.061185
0.560453
-0.255532
-0.143286
-0.644899
-0.327830
0.468249
0.431883
-0.295031
0.380370
0.183032
-1.177443
-0.006447
-0.001558
0.030753
0.096296
-0.334073
0.180725
-0.242246
-0.447867
-0.490396
-0.759705
0.394667
-0.012931
-0.014716
0.713888
-0.281670
-0.193502
-0.728561
0.849534
-0.096745
0.046248
0.102836
0.233995
-0.097954
0.409844
-0.511168
-0.440640
0.264510
-0.304417
-0.026319
0.604082
0.015083
-0.303173
0.068282
0.757843
-0.125384
-0.177561
0.149193
-0.121918
-0.090104
-0.684282
-0.748558
0.045919
0.410302
-0.029974
0.113651
-0.929912
-0.528869
0.094529
-0.332155
0.351456
1.086235
-0.328423
0.157351
0.731331
0.677735
0.238187
-0.522518
0.512077
0.126882
0.147579
-0.538606
1.294918
0.034781
-0.088406
-0.248744
0.395487
0.180645
0.116341
0.177884
-0.287047
0.419863
-0.306531
-0.275399
-0.068746
-0.129471
0.322341
0.656212
0.134325
0.972810
-0.187678
0.460198
-0.165770
-0.709853
-0.044141
-0.319724
0.080545
-0.089114
0.082875
0.541737
0.277336
-0.023132
0.201814
0.556266
0.383702
-0.239463
-0.167369
-0.197455
-0.545200
0.614884
-0.487527
0.383627
-0.890659
0.706138
0.202141
-0.188300
-0.201415
-0.388354
-0.052305
-0.522872
0.057907
0.156703
-0.549690
0.099770
0.086633
-0.139864
-0.054096
0.578884
-0.493616
-0.895068
-0.350182
0.004675
-0.374341
-0.089347
-0.464653
-0.357367
0.525460
-0.992116
-0.041936
0.038648
-0.271731
0.499958
0.591599
0.433424
0.468579
-0.209175
0.178975
-0.306180
0.536065
0.076416
-0.490940
-0.221525
0.087727
0.414080
0.169267
0.078054
-0.279078
0.306183
-0.114872
-0.808772
-0.088659
-0.286417
-0.602098
-0.195255
0.618387
0.085845
0.182003
-0.593729
-0.005864
0.064827
0.013079
-0.444925
0.638012
0.023428
-0.009284
-0.282612
0.026620
0.340485
0.234206
0.385479
0.611933
-0.211195
-0.125574
0.870356
-0.010703
0.314695
-0.282518
-0.066080
-0.217414
0.606075
-0.071509
0.245067
-0.058826
0.165564
0.158331
0.470784
-0.028602
0.631388
-0.282368
0.319475
0.099680
0.083358
-0.321336
0.391121
-0.384566
-0.445625
-0.188026
0.352552
-0.293395
0.131767
-0.121543
-0.339804
0.105049
-0.141450
-0.404035
-0.438456
-0.136588
0.113588
0.459410
-0.200331
0.316316
0.219642
0.242405
0.379936
-0.634570
-0.211094
-0.123012
0.070334
0.979587
-0.075890
-0.649443
0.135678
0.703658
0.423904
0.473517
0.628449
-0.127179
-0.721864
0.097334
-0.759080
0.505691
1.022883
0.781594
0.051365
0.446462
0.394108
0.471929
-0.381324
0.373893
0.081814
-0.294793
-0.102528
0.224256
0.316018
-0.335404
-0.273908
0.340298
-0.093674
-0.056447
0.500037
-0.432933
-0.228439
-0.016682
0.709153
-0.414370
0.219597
-0.043817
0.012881
0.533574
-0.299917
-0.095946
0.223864
0.248559
0.121431
0.074276
0.083225
0.341004
-0.445718
-0.479008
0.495478
-0.765369
0.439176
0.791319
0.415897
0.373030
-0.847898
0.094245
-0.246671
0.849965
-0.221870
-0.319054
-0.804748
0.558384
0.257208
0.355352
0.709398
-0.390997
-0.360067
-1.107758
-0.365662
0.010132
0.144651
-0.216644
0.280373
-0.113813
0.262026
0.567231
-0.328258
-0.103161
-0.045028
-0.384921
-0.256403
-0.354610
0.011284
-0.899395
-0.533707
0.646172
0.080790
-0.085154
-0.206648
0.119328
-0.214415
0.244828
-0.300313
0.555926
-0.137904
-0.110277
0.124620
0.295932
-0.386937
-0.196228
-0.504829
0.292783
-0.121948
0.067784
-0.158404
0.595502
0.041414
0.276454
-0.620014
0.133017
0.982532
0.215904
-0.336032
-0.726458
-0.494446
-0.157540
-0.123905
-0.396146
0.113448
0.249612
-0.315327
0.275591
-0.377603
0.138267
-0.374376
0.895776
-0.364927
0.157569
-0.025702
0.771104
0.071213
-0.055677
-0.616089
-0.351719
-0.381008
-0.298168
-0.059149
0.479540
0.194903
-0.163315
0.290554
0.592868
-0.434004
-0.492991
0.156998
0.076225
-0.233722
0.658800
0.174556
-0.588815
0.646699
-0.044342
0.588323
-0.012803
-0.462012
0.061142
-0.195714
-0.091740
-0.715225
0.572641
0.451163
0.380761
0.717023
1.049139
0.102349
0.762207
1.000663
-0.529161
0.023817
0.149382
0.191317
0.231176
-0.093553
0.396338
0.295037
-0.104490
0.364895
-0.708418
-0.470672
-0.515664
0.824441
0.323997
0.348770
-0.521945
0.038767
-0.220473
-0.054261
0.286756
-0.253380
0.424496
0.280054
-0.151564
-0.145237
0.678782
0.582410
0.041909
0.023643
0.326957
0.505950
0.065563
-0.063292
0.007019
-0.188831
-0.013226
0.174601
0.146948
-0.007687
-0.061544
-0.241884
0.138286
0.019735
1.002946
0.918061
0.534315
-0.301527
-0.298279
-0.313301
0.114618
0.096361
0.836171
0.173754
-0.860282
-0.631513
0.246437
0.060421
-0.757963
-0.682634
-0.163843
0.070477
0.077077
-0.586658
-0.189726
0.061797
-0.229359
-0.024772
-0.252885
-0.133941
0.114232
-0.352687
0.107649
-0.319767
0.571207
0.074480
0.086247
-0.051579
-0.112764
-0.333672
-0.114895
-0.067600
-0.586703
-0.475108
0.370160
0.139107
-0.341158
-0.114616
0.097238
0.154995
-0.528481
0.285620
-0.408150
-0.668367
-0.627464
-0.327942
-0.573400
-0.536447
0.773352
-0.309816
-0.478112
-0.171102
-0.480564
-0.173314
0.157093
0.827179
0.411940
-0.038142
0.413096
-0.173736
-0.252089
0.407128
0.300296
-0.403051
-0.237748
-0.803458
0.186221
-0.051720
-0.392662
-0.406430
0.185255
-0.439385
-0.722199
-0.064029
-0.286131
0.155333
0.295620
0.437359
0.266573
0.196115
-0.607718
0.052050
-0.162047
-0.712654
0.087942
0.522117
-0.241820
0.045073
-0.036626
-0.664330
0.432646
0.422992
-0.252148
-0.077138
-0.042364
0.392149
0.144497
-0.758637
-0.366794
0.071390
-0.897210
0.404540
-0.393531
0.012280
-0.334334
0.682942
0.278526
-0.229748
-0.970546
0.084411
-0.215003
-0.591862
0.746257
-0.146673
-0.071640
-0.377910
0.314674
-0.778689
-0.146146
-0.046695
0.326227
-0.147007
0.030791
0.489402
0.498020
0.008455
0.576127
-0.012229
-0.427855
0.013397
0.364491
-0.926063
-0.404842
-0.089572
0.229136
0.453613
-0.142396
-0.363972
0.381694
-0.133085
-0.614298
0.142641
-0.677723
-0.577241
0.701251
0.469520
0.270101
-0.419261
-0.170612
0.213502
-0.106922
0.407013
0.390508
0.337056
0.729382
0.311132
-0.067952
-0.034595
-0.097225
-0.054122
0.474256
0.065521
0.070935
-0.385446
0.478338
0.283428
-0.366518
-0.397733
-0.428001
0.626667
-0.293749
0.387907
-0.364372
-0.766022
1.200938
-0.161942
-0.037051
0.182396
0.728970
0.521307
-0.540111
0.423744
0.193949
-0.181045
0.420027
-0.809193
-0.439577
0.356330
-0.260925
-0.349496
0.227609
-0.175357
0.291500
0.541700
-0.944007
-0.167718
0.230953
0.508235
-0.587182
-0.242854
-0.276706
0.335891
-0.719381
0.513554
0.032048
-0.200080
-0.271731
-0.687146
0.112891
-0.123130
-0.296762
-0.734857
-0.732924
-0.540385
-0.074168
0.207227
-0.209428
-0.248959
-0.309481
0.018449
0.240930
0.059764
-0.424231
-0.654765
-0.441858
-0.509823
-0.551598
-0.071389
0.495225
0.201175
-0.003084
0.252944
0.887515
0.434585
-0.383771
-0.325769
0.385938
-0.003623
-0.491233
-0.556334
0.168462
0.567289
0.015598
0.131106
-0.698638
0.341515
0.723381
-0.783053
0.017361
-0.698093
-0.268175
0.225405
0.145768
-0.336489
-0.315650
-0.121308
-0.353679
0.258895
0.345582
0.342134
-0.291465
0.624905
0.211725
-0.513150
0.523617
-0.284407
-0.099729
0.249526
-0.979364
0.198817
-0.240256
0.427806
-0.045778
0.118428
-0.286517
-0.670589
-0.355199
-0.193970
0.278052
0.415965
0.629506
0.173654
0.284470
-0.531494
-0.240985
0.122740
0.205674
0.113096
0.040734
0.044324
-0.151502
0.200093
-0.345235
0.317572
-0.229285
0.656217
0.072924
-0.608799
0.055761
0.036388
0.163078
-0.588246
-0.295374
0.138798
-0.060157
0.092996
0.282041
-0.307211
-0.288097
0.593302
-0.075998
0.418852
-0.137942
-0.420159
0.307153
0.978473
-0.558486
-0.062125
0.351809
-0.749452
0.842878
-0.092987
0.075305
0.250170
0.809531
-0.560730
0.010599
0.111710
0.011586
0.545316
-0.512094
0.194066
-0.027723
-0.240003
-0.618640
0.186281
0.558464
-0.207633
-0.227553
0.942803
0.277263
0.267400
0.553166
0.621754
0.120962
0.389311
0.624943
-0.454686
-0.450311
0.397854
-0.096081
0.095141
-0.011925
0.186248
0.170381
0.370508
0.237977
0.319991
-0.108448
-0.561505
-0.823177
-0.062598
-0.248947
-0.173445
0.039487
0.529724
-0.781223
-0.673433
0.400460
0.055960
1.099790
-0.228038
-0.136556
-0.137499
0.297549
0.170490
-0.811233
-0.303831
-0.437596
0.549766
0.055315
0.145910
-0.162269
0.009027
-0.293114
1.049133
-0.015961
0.467615
-0.110233
-0.686543
0.240952
0.389495
-0.011736
0.202108
-0.086473
-0.398496
-0.484866
-0.757505
0.378506
0.450303
-0.000856
-0.330712
0.626188
0.264618
0.739899
0.499645
0.519145
-0.180679
0.165215
-0.602107
0.044678
-0.145563
-0.299083
-0.112392
-0.554471
-0.026048
-0.056896
-0.799330
0.135851
-0.461053
-0.294884
-0.586621
0.076873
0.391960
0.603781
-0.258098
0.456649
-0.579114
0.015017
-0.310007
-0.131684
-0.446563
0.588908
0.330080
0.085957
-0.433774
0.269502
-0.527881
-1.135872
0.730137
-0.244898
0.314937
0.675525
-0.564288
0.004434
0.701537
0.016276
0.354590
0.231892
0.221404
-0.434653
0.303764
-0.399641
-0.035899
-0.236934
0.848905
-0.696734
-0.100067
0.091203
0.257026
0.024538
-0.057195
-0.235444
0.450985
0.229471
0.544244
-0.693244
0.027495
-0.391432
-0.139732
-0.189233
0.226307
0.042613
-0.680301
-0.300409
0.243339
0.206329
-0.213048
-0.781655
0.196457
-0.717091
-0.337626
0.302055
-0.409229
-0.150375
0.538117
-0.048001
0.020521
0.023089
-0.531337
-0.474829
1.049048
-0.100509
-0.347008
0.014953
0.657769
0.204386
-0.330339
-0.069682
-0.166975
0.031812
0.644362
0.654888
-0.317799
-0.057328
0.028084
0.232657
0.466992
0.725244
-0.609403
-0.285605
0.098327
-0.275380
0.228544
-0.513755
-0.263212
-0.265252
-0.240731
0.082657
0.304338
0.180105
-0.264743
1.386629
0.101802
-0.030294
-0.577351
-0.093916
0.304817
-0.069845
0.362189
0.168553
0.439303
0.511334
0.195028
-0.620305
-0.010795
-1.152331
-0.182447
0.422975
0.617107
-0.795355
-0.340983
-0.426692
0.882115
-0.600402
-0.538314
-0.180393
0.257856
-0.372211
-0.125445
-0.116065
-0.067719
-0.264829
-0.270207
-0.049676
-0.045678
0.015605
-0.204269
-0.569109
0.287527
0.786077
-0.134682
-0.604923
-0.225142
0.204757
-0.134709
-0.105122
0.022173
-0.138045
-0.103554
1.588875
-0.188837
0.431183
0.275037
0.165107
0.288567
-0.389496
0.317830
-0.081113
0.826046
0.211076
-0.578881
-0.131731
0.582897
-0.345758
-0.002787
-0.806213
-0.152616
-0.393231
0.743261
0.285085
-0.150863
-0.307037
0.320595
0.047487
-0.429055
0.475263
0.394567
-0.683579
-0.303320
-0.052637
-0.080237
-0.220130
-0.307004
-0.262630
0.040964
0.282570
-0.290877
-0.116694
0.305880
0.070897
0.271182
0.218885
0.191607
0.347795
-0.413684
-0.109012
0.195866
-0.510097
-0.939048
0.445829
0.084273
-0.077823
0.275498
0.100770
-0.206664
-0.145482
0.166215
-0.399153
-0.318120
-0.271828
-0.065283
-0.164765
-0.526308
0.068500
0.145998
0.113892
0.650686
0.153319
-0.235994
0.055204
0.416426
0.060694
-0.277560
0.019294
-0.245323
-0.578988
-0.183967
0.384686
0.344829
0.232835
0.002039
-0.172839
-0.334485
-0.435706
0.315709
-0.221601
-0.251091
-0.242355
0.027319
0.194571
0.430841
-0.012060
0.975339
0.388230
-0.479654
-0.543542
-0.400411
-0.267089
0.165855
-0.512511
0.223358
-0.038541
-0.370789
-0.375353
0.867837
0.654226
-0.428131
0.605522
-0.356214
0.031671
0.256944
0.040867
-0.125681
-0.855357
0.004731
0.065103
0.467643
1.017947
0.385542
0.773816
-0.818467
0.066811
0.274569
-0.431123
-0.521988
0.121487
0.012463
0.151354
-0.416476
0.096972
0.601745
-0.466103
0.585681
-0.031778
-0.388506
-0.459740
-1.018196
-0.164102
-0.501239
0.772112
-0.022061
-0.323072
0.134928
0.303755
0.097729
0.109217
-0.197014
-0.030820
-0.078092
-0.950620
-0.638250
0.890788
0.069093
-0.013325
0.386449
-0.422979
-0.052486
-0.489642
0.261302
-0.449114
0.546369
0.172253
-0.236445
-0.085432
0.706515
0.234035
0.015122
0.792983
0.614145
-0.394954
-0.324898
0.295666
-0.245120
0.039101
-0.869619
0.186107
1.288067
0.323212
-0.195978
0.091815
-0.020785
0.112329
-0.212935
0.572503
-0.596787
0.090364
0.200917
-0.461109
-0.095247
-0.288970
-0.384202
-0.143947
0.062492
0.360720
0.922000
0.621087
0.222354
-0.220635
0.013006
-0.144248
0.114268
-0.459930
0.199524
0.709428
0.285288
-0.127693
0.203848
-0.123861
0.478179
0.496962
-0.028363
-0.103332
0.193106
0.136076
0.042346
0.092592
-0.220975
0.103895
0.353469
-0.182570
0.688023
-0.149885
0.191880
-0.188287
-0.574430
0.478384
0.912629
0.877629
-0.732489
-0.381346
-0.308520
-0.049200
0.343998
0.247291
-0.268549
-0.107006
0.203026
0.181837
0.376332
-0.006550
-0.137487
0.644517
-0.597097
-0.112305
0.595223
-0.201713
0.059559
-0.281988
0.277952
-0.471815
-0.109944
-1.670350
-0.043294
0.322789
-0.170448
-0.023071
-0.431706
0.473657
0.000342
0.065333
-0.231641
-0.669641
0.145065
0.012570
-0.079071
1.181846
0.017606
-0.696325
-0.192836
0.323936
-0.052311
-0.410106
0.251271
-0.136481
0.063794
-0.563887
0.370488
0.171921
1.074906
-0.580391
0.537032
0.910484
-0.963480
-0.637706
0.098798
0.036967
-0.202395
0.445087
0.419878
-0.468565
0.883325
1.396675
-0.655553
-0.254618
1.283388
-0.593913
0.516606
-0.343597
1.425727
-1.151477
-0.952803
-3.060057
1.568226
-0.495112
-0.560974
-0.235469
0.732248
-0.902846
-0.547793
-0.539381
-1.897935
-0.144487
0.768571
0.610578
0.268392
2.384551
-0.663447
-2.385320
-0.326485
-0.285340
-0.126319
0.876858
0.340049
-0.097166
0.586637
0.190841
-0.156851
-0.364063
2.485146
-0.177744
0.341145
2.459506
-0.914882
-1.756614
1.500214
-1.760658
1.003768
-0.586592
0.459108
