0.126295
-0.480119
-0.024046
0.009014
1.037422
0.205853
0.273777
0.518436
0.405531
0.450637
0.114735
-0.371520
0.040572
-0.215461
0.601107
-0.388884
-0.049593
0.229724
0.238008
-0.399455
-0.227245
0.779225
0.222324
0.620555
0.167866
0.236276
-0.152595
0.123917
0.085095
-0.068172
-0.768662
-0.638629
-0.743604
0.255926
0.477244
-0.915212
0.180690
-0.317743
-0.204198
-0.173165
-0.758776
-0.318325
-0.317722
-0.119658
-0.125066
-0.202991
-0.249742
-0.070219
0.492719
-0.617199
0.537394
0.361798
0.324485
0.180997
-0.325979
-0.421697
-0.313900
0.385192
0.278851
-0.368317
0.289287
0.634191
-0.354497
-0.543622
0.065069
0.826225
0.283769
0.584778
-0.644796
-0.276854
-0.003288
0.029970
-0.695659
0.655328
0.099805
-0.354212
0.029033
-1.007272
-0.509062
0.167342
0.495310
0.132502
-0.275441
-0.376807
-0.787747
-0.112342
-0.225657
0.158176
0.230636
-0.354215
-0.134837
0.009022
0.247066
-0.865642
-0.770959
0.651054
-0.501821
-0.647533
0.637999
0.340204
0.151109
0.038512
-0.486994
0.382879
0.199437
-0.301395
0.737118
0.019567
-0.208695
-0.097153
-0.202585
0.337943
0.072534
0.237163
-0.017376
0.370874
-0.011043
0.120980
-0.135269
-0.043505
0.213430
-0.508195
0.056614
0.269825
0.112402
0.288634
-0.133817
-0.207406
0.791558
-0.614862
-0.140157
-0.062604
-1.003832
0.058529
-0.198038
-0.040866
-0.761918
0.392368
-0.062261
-0.057540
-0.937262
0.282851
0.418624
0.591340
0.013089
0.010100
0.206982
-0.139996
-0.289841
0.074536
-0.212078
-0.182692
-0.109003
0.741765
0.434620
0.257679
0.498090
0.003258
0.151323
-0.800595
0.097488
-0.676898
-0.575946
0.707139
0.077760
0.565233
0.346059
-0.715045
-0.883068
-0.803205
0.407534
-0.088318
-0.383767
-0.344114
0.426585
0.032447
-0.155890
-0.413573
0.100743
0.230539
0.186744
0.262752
0.289797
-0.201020
0.191157
0.053795
-0.152057
0.406239
-0.169977
0.121164
0.270131
-0.200352
-0.389449
-0.027794
0.359141
-0.468579
0.663296
0.021428
-0.037387
-0.699189
-0.215436
0.068429
0.388256
-0.270319
-0.387834
0.466843
-0.599921
0.289516
0.415286
-0.039571
0.346408
-0.030374
0.118040
0.349603
-0.254999
0.320291
-0.289357
0.040748
0.281401
0.545107
0.532329
0.044058
-0.329670
0.624162
-0.442652
0.283996
0.602887
-0.142346
0.378072
0.023474
0.104817
-0.104212
0.273984
-0.204736
-0.296793
0.081593
-0.534363
0.528650
0.185284
0.497286
-0.130437
0.059436
-0.259716
-0.111077
0.193530
0.386717
-0.019858
0.654943
0.721631
0.076992
-0.589537
0.006065
-0.068282
-0.069302
0.129272
0.259235
-0.073677
0.059240
-0.384241
0.548047
0.008475
-0.216035
0.405125
0.007312
-0.001792
0.160912
0.291323
-0.487971
-0.401462
0.610160
0.307124
0.066442
-0.570130
0.374455
0.317206
0.143196
0.052363
0.305422
-0.420390
-0.912365
-0.690555
0.049394
-0.098680
-0.127449
-0.173180
1.005038
-0.698185
0.704668
-0.295798
-0.254346
-0.060895
-0.374851
0.429898
0.895819
0.179063
0.290143
0.083974
0.677739
0.529749
0.268637
-0.496120
-0.026025
0.213540
0.741580
0.258479
-0.020893
0.055631
-0.246834
-0.129304
0.149814
-0.393173
-0.227281
0.201156
0.391138
-0.144500
-0.510133
0.461732
0.515078
0.442136
-0.939726
-0.106664
-0.319741
-0.244143
-0.475760
-0.020666
0.090495
0.159782
-0.312986
-0.095260
0.717020
-0.071230
0.509272
-0.814504
-0.501341
0.105795
0.016200
0.073280
0.042257
-0.425379
0.340145
0.197752
-0.229380
-0.215677
-0.031768
0.407639
-0.016206
-0.103222
0.056574
-0.237142
0.071547
0.011354
-0.603246
-0.390313
0.319623
-0.482770
0.134907
-0.257258
-0.199921
-0.653259
-0.255947
-0.039626
0.000923
0.302620
-0.056144
-0.319496
0.230392
-0.299557
0.597406
0.085647
0.267580
0.690298
-0.464490
0.322364
0.187937
-0.560402
-0.670397
-0.484724
-0.059507
-0.440350
-0.058356
-0.522285
-0.120181
-0.337037
-0.413345
0.006143
0.652954
0.209484
0.100183
0.093165
-0.211264
-0.012219
0.460917
0.021579
0.679858
0.426831
0.359462
-0.335650
-0.136519
-0.534892
0.131281
0.034733
0.042266
-0.062646
-0.196406
-0.511443
-0.491424
-0.311471
-0.520870
-0.908314
-0.009692
-0.154070
-0.407815
-0.521853
-0.191418
0.569447
0.524235
0.002017
-0.363730
-0.322326
0.494584
-0.572616
0.762095
0.017581
0.389916
0.209656
0.135367
0.482636
0.065270
-0.002472
-0.743529
-0.000176
-0.092528
0.337954
-0.746468
1.131529
0.095501
0.361394
-0.546685
0.191725
0.048227
-0.144310
-1.093575
-0.447599
0.724606
0.094939
-0.414735
-0.556265
-0.494672
0.172772
-0.009678
-0.191429
-0.338172
-0.117605
-0.039526
-0.288700
-0.256750
0.544308
-0.319129
-0.194350
0.112552
0.433911
0.632591
0.401407
-0.429075
-0.222303
0.185173
0.284179
0.132788
-0.529626
0.000374
0.198184
-0.098083
-0.315831
-0.232851
0.232957
-0.493111
-0.797397
0.076818
-0.101472
0.484328
0.499453
-0.508806
-0.958045
-0.367549
-0.581818
-0.382308
0.591574
-0.064585
0.009575
-0.096852
-0.552073
-0.141848
0.385569
0.435080
-0.187877
0.185226
0.102807
-0.246498
0.499066
-0.329481
0.172394
-0.352487
0.044102
-0.718347
-0.423840
0.337158
0.045655
-0.200879
0.801313
-0.758687
-0.224383
0.472118
-0.047474
-0.147808
0.307403
0.058397
0.613976
-0.757008
-0.407034
-0.352200
-0.511214
-0.178758
0.727729
0.323488
-0.158379
-0.546852
0.086312
-0.580772
0.039696
-0.376043
-0.221343
0.037958
0.003298
0.161878
0.168194
-0.098804
0.069700
0.733448
0.039927
0.454286
-0.302584
0.673698
-0.067027
0.407192
-0.887425
-0.651465
0.244101
-0.380140
-0.395555
0.554238
0.418282
0.208795
0.210686
-0.253992
-0.076577
-0.314009
-0.456483
-0.401677
-0.121262
0.255497
-0.190588
0.037806
-0.174718
-0.245635
0.143177
0.256422
-0.247398
0.602475
-0.065456
-0.443801
-0.141396
-0.035033
0.200258
0.408318
-0.176078
0.485710
-0.158937
0.069709
-0.559539
-0.092581
0.298315
0.591805
0.214086
-0.331742
-0.062102
-0.420083
0.525585
-0.550537
0.385941
-0.426721
0.030030
-0.306195
0.305534
0.130586
0.083538
-0.428445
-0.244015
0.525548
-0.442617
-0.868047
0.336698
0.258645
0.208213
-0.156198
0.424855
0.724284
0.351175
-0.051953
0.340824
-0.083121
-0.472840
0.030454
0.189851
-0.181094
-0.003378
0.138598
-0.264830
-0.281516
0.350984
-0.436897
0.564939
0.059376
-0.383405
0.067068
0.355526
-0.319520
-0.654470
0.139299
-0.059255
0.252844
-0.450697
-0.597972
-1.000339
-0.067552
0.134915
-0.196342
-0.233931
-0.117582
-0.205836
-0.293798
-0.114357
-0.278590
0.189007
-0.001254
-0.285775
0.286274
0.582714
0.511798
-0.090372
0.107801
-0.193820
0.171001
-0.430447
-0.447767
0.621540
0.143225
-0.664124
-0.075402
-1.115359
-0.303973
-0.225917
-1.277574
-0.620364
-0.206836
0.379054
-0.067548
0.255639
0.009839
0.221805
0.179500
-0.435203
0.354718
-0.672186
-0.013596
-0.305799
-0.323511
0.408240
-0.654483
0.329199
0.138817
0.124667
0.734501
-0.341991
-0.084920
-0.397249
-0.082644
0.464706
0.218535
-0.443885
-0.571952
-0.498386
0.532425
0.063600
-0.172175
-0.247598
0.346098
-0.367622
-0.116631
0.577360
-0.285098
0.185714
0.010204
0.067213
-0.890792
0.385534
0.074059
0.028226
0.237903
-0.413968
-0.208091
0.547175
-0.069466
0.528381
0.295586
-0.381542
-0.007057
0.594430
0.069379
-0.224320
-0.147839
0.473916
-0.077536
-0.721429
-0.386333
-0.136026
0.161853
0.446420
0.203882
0.005809
0.382231
0.024228
0.409652
-0.073359
-0.143765
0.598203
0.717984
-0.011666
-0.184181
0.047418
-0.122845
0.269906
0.029527
-0.676422
0.013152
-0.300022
0.410141
0.042563
-0.713005
0.159514
0.334394
0.727604
-0.717095
0.287765
0.522775
0.632775
0.060300
-0.069960
-0.332297
-0.099637
-0.474049
0.286491
-0.084452
-0.335983
0.227672
-0.984215
-0.268109
0.199335
0.136333
-0.166219
-0.235962
-0.099385
0.488931
-0.762138
-0.327663
0.570448
0.380659
0.076996
0.390697
0.264000
1.118891
-0.582362
0.009084
0.291857
0.635257
-0.640992
-0.247488
0.325921
0.137895
0.298009
0.047571
-0.197155
-0.644638
0.121313
0.071680
0.004244
-0.740159
-0.648951
0.604546
-0.354805
0.499546
0.382036
0.644231
-0.037515
-0.149555
0.001114
-0.016020
0.150118
0.069311
0.382364
-0.624675
0.211638
-0.477839
0.182118
0.696276
-0.035970
-0.809895
0.167430
1.152731
-0.566158
0.024793
0.174375
-0.804423
-0.534802
-0.011003
-0.690980
0.417724
0.393270
-0.070215
0.306809
0.492492
0.000602
0.199623
0.075172
-0.255680
-0.077793
0.301647
0.181285
0.440579
-0.114343
0.260018
-0.156463
-0.127776
0.024347
-0.410272
0.067060
0.448761
0.095457
0.089288
0.417130
-0.366583
0.480987
0.721553
-0.784950
0.024517
-0.486526
0.563996
0.005621
-0.391963
-0.730447
0.208056
0.229023
-0.031374
0.123405
0.209772
-0.029384
0.255668
0.451022
0.633208
-0.493913
0.616122
0.057682
0.009481
-0.201717
0.192147
-0.605818
0.302995
-0.087039
-0.303316
-0.078154
0.104642
0.086771
-0.780734
0.456281
-0.065440
0.223088
0.515065
0.200840
0.532622
-0.059022
-0.160125
0.065545
0.396758
-0.237636
0.467371
0.489088
0.610913
0.298919
-1.048439
-0.736099
0.568153
0.490732
0.038945
-0.495071
-0.121658
-0.046119
0.058462
-0.028392
-0.406792
-0.623164
-0.732309
-0.331179
-0.644228
0.131417
-0.143702
-0.124394
0.371553
-0.285852
0.170135
-0.678319
-0.139815
0.090496
-0.155623
0.242677
-0.101460
-0.034878
-0.325850
0.403923
0.508531
0.046584
1.041529
-0.118363
-1.143412
0.409787
0.094276
-0.430032
0.090979
0.184255
0.310297
-0.324873
0.068163
-0.424410
0.049185
-0.329501
-0.101732
-0.543707
-0.299147
0.359965
0.107004
0.488394
-0.007305
0.768385
0.490883
-0.085333
-0.169770
-0.697379
0.241488
0.164186
-0.509326
-0.051974
-0.018380
0.264875
-0.429714
-0.246826
-0.234918
-0.836250
0.185148
-0.028496
-0.113313
-0.283523
0.205511
0.024714
-0.109417
-0.164456
0.166156
-0.124236
-0.507053
-0.543826
0.493305
0.304660
-0.230650
0.049658
0.016040
0.392645
-0.516598
0.091126
0.331451
0.449734
-0.225574
0.168869
-0.002550
0.639075
-0.404497
0.401958
0.174810
0.717090
-0.423564
-0.170400
0.583712
0.156463
-1.024313
0.519732
-0.558103
0.009304
-0.148451
-0.138137
0.550909
0.767003
0.102854
0.645435
1.082248
-0.211168
-0.031463
0.000317
0.071220
-0.011328
-1.069655
0.455057
0.501946
-0.136243
0.157386
0.523750
-0.125948
-0.825619
-0.468485
-0.139647
-0.485554
-0.155244
0.510760
0.118807
-0.382086
-0.182622
0.905308
-0.081486
-0.566619
-0.476475
-0.092507
-0.507003
0.073434
1.077255
0.008150
0.410586
0.680207
-0.012754
-0.106339
-0.119826
0.120707
-0.522566
-0.211506
0.320145
0.418022
-0.361737
-0.092235
0.264380
0.217630
-0.190695
-0.543551
0.246000
-0.051716
0.016264
0.215748
0.085302
0.060935
-0.186790
-0.361973
0.452658
0.289586
0.380216
-0.553307
-0.308174
0.246781
0.829809
0.939990
0.095700
-0.216250
-0.287446
-0.217010
-0.403636
-0.401335
-0.681681
-0.042709
-0.382545
0.265145
0.472105
0.638403
1.003297
-0.031978
-0.106151
0.007684
0.196784
-0.179229
0.210362
0.222842
-0.187001
0.163666
0.496725
0.938053
0.774223
-0.197683
-0.643119
0.137445
-0.011435
0.271536
-0.197274
0.219704
0.532785
0.453464
-0.151479
0.160199
0.535312
0.001889
-0.470143
-0.156969
0.193728
0.096007
0.302181
-0.813583
-0.295903
-0.248404
0.429966
0.228463
0.079709
0.212159
0.730009
-0.382613
-0.047776
0.007859
0.627664
0.698852
-0.051262
-0.226405
0.148607
0.294073
0.327729
-0.144474
-0.632102
-0.146142
0.466509
0.243415
0.675608
0.423847
0.163977
0.281634
-0.069399
-0.008078
-0.435518
0.970007
-0.033827
-0.277995
-0.439646
-0.359637
0.226035
-0.065628
0.162202
-0.284438
-0.079828
0.160722
-0.033463
-0.314681
-0.061519
-0.792475
-0.136925
-0.038945
-0.699011
-0.343523
0.170116
-0.157141
-0.302014
-0.874057
0.570192
0.039015
-0.161958
0.282138
-0.224663
-0.267795
0.132515
-0.355154
0.044769
-0.343063
-0.238773
-0.723483
0.261941
-0.556540
0.686364
0.139456
-0.471644
-0.042714
0.193880
-0.057514
0.270495
0.398513
-0.012860
-0.195087
0.373945
0.375221
0.292667
-0.729313
0.258272
0.022901
-0.601888
0.037165
0.354614
-1.019154
-0.445899
0.157137
0.046959
-1.139054
-0.358532
-0.690840
-0.325022
-0.045204
1.006787
0.021140
0.466007
0.588769
0.066235
-0.792656
-0.305365
0.424849
0.253113
-0.713540
-0.021009
-0.098550
-0.542997
-0.403921
0.821483
0.205746
0.012677
1.739448
0.666731
-0.013156
0.594588
0.103826
-0.193867
0.149272
0.225702
0.196235
-0.220756
-0.420777
0.251626
0.798790
-0.250304
0.542706
0.297766
0.120265
0.176014
0.431348
0.775259
0.538296
-0.788346
0.339743
-0.185947
0.126435
0.467912
-0.874025
0.710238
-0.044932
-0.494797
0.618202
-0.118711
-0.295836
0.746565
0.227030
-0.077501
-0.706538
-0.237971
0.066368
0.328088
0.052422
-0.181429
1.181200
0.145909
-0.516499
0.372132
0.611043
-0.568580
-0.007325
-0.014264
-0.190818
0.452712
-0.313190
-0.052366
0.225335
0.447495
0.136926
0.538515
-0.254934
-0.785889
0.183754
0.607578
-0.658197
0.352472
-0.065837
0.151555
0.666494
0.160508
0.143390
0.661208
-0.953384
-0.547992
-0.605690
0.153946
0.125646
0.194036
-1.139238
-0.770447
0.326730
-0.016599
-0.381980
-0.094974
-0.016511
0.050924
0.381492
0.341841
0.623817
-0.136100
0.206892
0.090329
0.228148
-0.266098
-0.321045
0.810582
-0.369246
-0.353074
-0.528593
-0.067045
-0.515107
0.646361
0.037045
-0.602175
-0.486597
-0.467735
-0.288022
-0.167901
0.515904
0.243646
0.264012
0.318506
0.711235
-0.183861
0.025789
-0.571615
0.822337
0.209141
0.441232
-0.354784
0.405005
-0.250812
-0.255778
0.014366
0.017935
-0.450965
0.003402
-0.283981
-0.460617
0.550461
-0.235654
-0.397295
0.349586
-0.433526
-0.235421
-0.265377
0.127711
0.517115
-0.391317
-0.100042
-0.092976
0.674823
0.127367
-0.214528
0.148945
-0.015419
0.090869
-1.015018
-0.359603
0.122268
-0.424136
-0.910527
-0.159293
-0.057087
0.250841
0.514350
-0.043375
-0.065131
-0.162148
0.130485
-0.021188
-0.281387
0.147372
-0.139114
-0.278294
0.577889
0.455025
-0.247702
-0.230749
-0.394410
-0.158200
0.434302
0.287715
0.077319
-0.320323
-0.105955
-0.123638
0.359994
0.049384
-0.053865
-0.336524
-0.136085
-0.288043
0.004245
0.089077
0.747014
-1.164253
-0.348617
0.249122
0.723319
0.097432
-0.912962
0.126915
-0.233090
-0.202047
-0.230615
-0.056386
-0.836891
-0.892070
0.004451
-0.254800
-0.179580
-0.533621
0.088897
-0.332897
0.469728
-0.146235
0.378153
-0.188315
-0.497058
-0.435741
-0.432888
-0.735904
-0.172113
0.054099
-0.131307
-0.337927
-0.217798
0.379918
0.058221
0.234902
-0.334426
0.050195
-0.253231
0.018486
-0.332936
-0.025001
-0.558518
-0.370612
-0.504583
0.219826
-0.623206
-0.418814
0.171266
0.177981
0.014012
-0.653288
-0.770268
-0.298851
-0.611595
-0.559549
-0.778263
0.599184
-0.534815
-0.151128
0.372365
0.701688
-0.012744
-0.844704
-0.014857
-0.243978
-0.069780
0.034579
-0.058720
0.213083
0.434971
-0.284792
-0.090782
0.004767
-0.834512
-0.263658
-0.529628
-0.296184
-0.143321
-0.045606
0.642630
-0.477150
-0.154873
0.249696
-0.422739
-0.299563
0.261231
0.081097
-0.934924
-0.619660
-0.304849
0.310245
0.325896
-0.180466
0.772870
-0.510477
0.315627
-0.120451
-0.234145
0.289325
-0.123721
0.078641
0.235021
-0.214209
-0.170142
0.253042
0.413584
-0.103457
0.396726
0.008983
-0.234297
0.364395
-0.111898
0.713127
-0.419500
0.161908
0.080651
0.634799
-0.484188
0.184678
-0.653809
0.116014
0.686076
0.303672
-0.692215
0.340897
-0.521580
0.332628
-0.644471
0.463027
-0.114229
-0.026217
-0.240937
-0.303727
0.167291
-0.588757
-0.291707
0.386942
-0.530377
-0.269934
-0.053217
-0.114347
0.469281
0.361750
-0.280469
0.721491
-0.540098
0.206586
-0.037571
-0.532738
0.313855
0.458489
0.242117
0.483969
0.463444
-0.050429
-0.646458
0.047709
-0.332897
-0.303046
-0.797883
-0.176640
0.268045
-0.389174
0.031395
-0.208607
-0.424868
-0.253878
0.276578
0.612593
-0.297186
0.153421
-0.000833
-0.450089
0.170970
0.169765
-0.240732
0.494593
0.006166
-1.040455
0.090675
0.153544
-0.173401
-0.510051
0.102236
0.454826
-0.287905
0.381923
0.452828
-0.568863
-0.058064
0.594392
0.262138
0.255609
-0.015123
0.175978
-0.256722
0.327082
-0.135101
0.023767
-0.024896
0.074206
-0.310454
-0.434033
-0.400610
-0.236886
-0.084823
0.476474
-0.407086
0.201899
-0.149837
-0.138543
-0.960680
0.378927
0.525946
-0.054307
0.475072
-0.159331
0.562111
0.626336
0.454113
-0.091529
-0.192061
0.213405
-0.172432
-0.656330
-0.443477
-0.352382
-0.709194
0.562854
0.489116
-0.489116
-0.017962
0.543385
-0.077860
-0.268507
-0.364992
0.309076
-0.295835
0.027904
-0.368162
-0.136094
0.785797
0.305112
-0.437155
-0.098349
0.221807
-0.055969
-0.095367
-0.062487
0.058126
-0.890123
0.402522
-0.021520
1.042144
-0.467111
-0.227252
-0.420391
0.347913
0.447867
-0.458416
-0.684502
-0.243583
0.094639
0.411884
0.525088
-0.311376
-0.140060
0.294415
0.196421
-0.438140
0.138079
0.110574
-0.412812
-1.334856
-0.025481
-0.217077
0.159801
0.395638
0.109002
0.499080
-0.066330
0.235738
0.026575
-0.172631
-0.327796
-0.116691
-0.585353
0.522103
-0.497587
0.469275
-0.277431
-0.100382
0.172840
0.551778
0.144166
0.161489
-0.277727
-0.324124
-0.094930
0.219069
-0.699798
0.307388
0.545387
0.362086
0.462579
-0.155772
-0.268548
0.256660
-0.193575
0.168809
-0.839658
0.120222
0.122512
-0.082936
0.385456
0.306352
-0.727271
-0.247497
-0.323241
-0.249938
0.188011
0.651778
-0.619559
0.526077
-0.338038
-0.003627
0.093483
-0.100008
0.087436
-0.713474
0.671345
0.199691
-0.082345
-0.129611
0.351075
-0.793440
-0.961824
-0.124118
0.124874
0.807786
-0.458199
-0.199056
0.482656
-0.068906
-0.013295
0.080093
-0.362403
0.432208
0.080256
0.395864
0.082646
-0.647659
-0.626732
-0.097189
0.245178
0.100553
0.516324
-0.353655
-0.164121
0.337364
0.150426
-0.051986
-0.265397
0.526345
-0.080962
-0.171843
-0.486321
-0.148584
-0.431483
-0.148463
-0.551642
-0.037569
-0.257864
0.320111
-0.533590
0.694617
0.164052
0.066795
-0.641570
0.485386
0.068195
-0.061459
-0.264172
-0.162477
0.288679
0.607656
-0.031214
0.484469
-0.539500
-0.686865
-0.251643
-0.307615
0.243778
-0.241968
0.473157
-0.361565
0.481323
0.648871
-0.221292
-0.418862
0.553215
0.363042
0.088595
-0.979628
0.521845
-0.330116
-0.725527
0.527180
0.572399
-0.239644
0.183995
-0.757018
0.416985
0.132727
-1.058200
0.318101
0.195594
0.340428
0.044038
0.104822
-0.263826
0.169690
-0.299075
-0.602115
0.139616
0.240012
0.259911
-0.316485
-0.350267
-0.148693
-0.128333
0.334578
-0.458352
0.468768
0.216918
-0.362922
-0.285043
-0.379962
-0.532113
-0.053749
0.257144
-0.065149
0.191506
-0.916250
0.185082
0.192245
-0.122209
-0.538337
-0.886094
0.433191
-0.059123
-0.076640
0.369408
-0.314994
0.099304
0.537495
-0.536555
0.220914
0.179834
-0.548477
0.723404
-0.089133
-0.559588
-0.044952
-0.238264
-0.140693
0.209152
0.031520
0.640389
-0.394382
-0.708232
0.091527
-0.289484
0.011361
-0.699797
-0.082886
-0.033577
0.178112
0.028576
0.468090
0.097263
0.238049
0.262539
0.257242
0.264987
0.656361
-0.134141
0.741779
-0.165026
0.819164
-0.066058
-0.095927
-0.029439
0.387576
-0.181429
0.094998
-0.078595
0.009598
0.012156
-0.969851
0.066212
-0.100398
-0.217492
0.279255
0.788440
0.382206
-0.469692
0.047201
-0.178917
-0.214955
0.439219
-0.389007
-0.768123
0.158315
0.769536
-0.203090
0.524950
-0.406289
-0.808768
-0.505308
-0.557691
-0.148963
0.176964
0.236395
0.210406
-0.052346
-0.196137
-0.380423
-0.364695
0.109868
0.447379
-0.104354
0.298348
-0.096674
0.553349
-0.569173
0.314192
0.941155
-0.206082
-0.244041
-0.876562
-0.445070
-0.549447
0.128489
-0.273580
0.216573
0.051738
-0.081977
-0.717550
-0.010684
-0.267319
-0.024108
0.433741
-0.661646
0.024942
-0.123777
-0.188379
-0.181033
-0.692131
0.747076
-0.099205
-0.202841
-0.917689
-0.339772
0.206206
0.780847
1.239667
-0.359709
0.525058
0.069738
0.239268
0.125688
0.183148
-0.432978
-0.256746
0.108412
-0.418680
0.356873
0.439835
-0.194376
0.014987
-0.811939
-0.476816
0.351141
0.172260
0.434106
-0.439940
0.074853
0.342284
0.322262
0.473282
-0.314971
-0.011058
0.429444
0.649215
0.127600
-0.049253
0.456868
-0.214317
0.852198
0.731885
0.260764
0.394675
-0.302845
-0.240875
-0.052685
0.649826
-0.071466
-0.084124
0.201606
0.313031
-0.474453
0.068116
0.476048
-0.214002
-0.274595
-0.175695
-0.172440
0.228600
-0.596512
-0.333398
0.058968
-0.021798
0.085651
0.295820
0.166866
-0.117571
0.264173
0.555656
-0.054355
-0.282810
0.274503
0.395823
-0.154487
0.131639
0.281893
0.401068
-0.410450
0.546584
0.181932
-0.650588
-0.558473
0.348571
-0.360965
0.544800
-0.076598
0.607136
0.019569
-0.403909
-0.252311
0.347284
-0.777783
-0.625636
0.786413
0.206429
-0.437160
0.625560
0.054832
0.235845
-0.042681
0.099043
0.339116
0.109728
0.344479
-0.443274
0.389611
-0.232211
0.299234
0.149013
-0.496723
0.286841
0.073026
-0.512903
0.233463
-0.152385
0.351495
0.134166
0.355981
0.422525
0.007003
0.056093
-0.489716
-0.064211
-0.316696
-0.255358
-0.143030
-0.167176
0.158200
0.113417
-0.607460
0.184240
0.356732
0.209865
0.061204
1.002241
-0.461764
0.697209
0.560855
0.229987
0.229715
-0.178275
-0.209735
-0.503108
-0.141389
-0.428283
-0.024859
-0.055432
-0.205351
0.039761
-0.221364
-0.170459
-0.101200
-0.360466
0.173330
-0.274240
-0.575702
-0.315531
-0.143931
-0.491941
-0.609574
-0.155500
-0.501149
0.664844
-0.415787
0.624935
-0.165156
-0.124435
0.325227
-0.582697
-0.499241
-0.446084
0.293202
-0.574798
-0.406998
0.590664
0.214022
-0.197115
0.057442
0.767486
-0.080007
-0.304195
-0.726854
-0.229731
0.335872
0.176341
0.198574
0.253764
-0.649131
-0.202266
0.294166
-0.174750
0.313610
-0.482168
0.522077
-0.315863
-0.416008
-0.130190
0.452205
-0.299253
-0.171843
-0.362887
0.209537
0.076968
-0.696691
-0.282883
-0.923476
0.597314
-0.049937
0.451870
-0.130781
-0.749038
0.331389
0.223150
-0.699673
0.021157
-1.026050
-0.756212
0.697267
-0.599209
0.354072
0.457221
-0.013701
-0.649513
-0.499787
0.245493
-0.582511
-0.122954
-0.605395
0.093885
-0.041767
0.303304
-0.303570
-0.606063
-0.666765
0.060232
0.486150
-0.589819
-0.214322
0.373992
0.216425
-0.378119
-0.133388
0.006419
-0.432536
0.101203
0.096679
0.556396
0.082455
0.540097
0.433577
-0.313775
-0.293940
0.599235
0.266525
-0.873287
0.329558
0.194596
0.512710
-0.237133
0.429554
0.621272
-0.459099
-0.174744
0.244207
0.180319
-0.120605
0.389507
-0.654694
0.022847
0.311284
0.647867
0.632504
-0.849465
-0.756474
-0.596729
-0.087130
0.022303
0.658352
0.211123
-0.520979
-0.332056
-0.278159
0.258013
-0.017386
-0.036313
-0.343727
-0.001355
0.378864
-0.465850
-0.550640
-0.332594
-0.185825
-0.210461
0.557089
0.485785
0.160394
0.478704
0.455266
-0.242200
0.507446
-0.411151
-0.305179
0.481699
0.057702
-0.058310
-0.088654
-0.306390
0.156545
0.789643
0.334181
-0.330547
0.059636
-0.217670
0.234200
-0.125346
-0.357044
-0.331837
-0.049053
-0.589717
-0.033897
0.012688
-0.292923
0.445587
0.397071
-0.352597
-0.080877
0.099848
-0.395626
-0.083748
0.192795
-0.058592
0.413371
-0.217412
-0.352108
-0.341497
0.120674
-0.786959
0.731476
-0.266686
0.065873
0.183791
0.007166
-0.055892
-0.162826
0.237417
-0.514489
0.270742
0.156435
-0.410536
0.069504
0.245446
0.194108
0.100923
-0.426754
0.335160
0.482024
0.803643
0.349650
0.348906
0.176859
-0.495145
-0.398186
0.278563
-0.316360
-0.319041
-0.509138
0.224368
0.661423
0.743535
-0.129031
0.427153
0.244820
0.090682
0.671926
0.151959
-0.259250
-0.498262
0.545959
0.240532
0.583828
0.085224
0.046102
0.367301
1.061750
0.571131
0.012767
0.264502
-0.253735
0.086130
-0.051211
-0.480189
0.166472
0.262586
0.334568
-0.214886
-0.195727
-0.010028
-0.287241
0.005757
-0.218895
0.516362
-0.361761
0.379683
0.175564
0.442473
-0.256076
0.093848
-0.777587
0.473645
-0.610094
-0.710706
-0.084900
0.386764
0.001949
-0.226890
-0.453125
-0.165612
-0.264275
0.359812
0.152292
-0.382576
-0.373816
0.307113
0.665248
-0.069989
0.838376
-0.176496
0.046458
0.331775
0.485150
-0.165532
0.143822
-1.032201
0.025744
-0.650250
0.598065
0.658452
0.436558
-0.055668
0.225087
-0.359096
0.782012
0.656641
0.746663
0.191969
0.554147
0.061919
0.027049
1.110494
-0.735416
-0.233835
-0.050680
0.330829
0.127336
0.557329
0.680331
-0.013560
-0.225956
-0.432694
0.316391
0.380912
-0.022545
-0.040018
-0.256693
-0.530992
-0.022202
0.682130
-0.446386
0.224043
0.845473
0.188972
-0.475950
0.106534
-0.363490
-0.016387
-0.017522
-0.098632
0.124924
0.176332
0.402277
0.157530
-0.542626
-0.289160
-0.295207
-0.157167
-0.406555
-0.423919
0.001582
0.443109
-0.335950
-0.759521
0.237912
0.079994
-0.013742
0.227012
-0.079513
0.516019
-0.385518
-0.524500
0.016757
0.092925
0.103480
0.298366
-0.858645
-0.293211
0.424425
-0.253479
0.523689
-0.027821
0.426792
-0.345067
0.881838
-0.199227
0.230090
0.357061
0.044520
-0.158850
0.154585
-0.216311
-0.326484
-0.029801
0.119656
0.042816
0.269271
-0.182305
-0.857867
0.361417
-0.171578
0.211187
0.578127
-0.675787
0.194547
-0.340434
-0.118466
0.674626
0.130078
-0.114929
0.829722
-0.032356
0.149149
0.195703
-0.286814
-0.178904
0.360054
0.170560
0.113873
0.113322
0.288207
-0.167721
-0.078991
-0.094280
-0.081674
-0.628348
0.530090
0.176175
-0.608374
-0.209424
-0.419268
0.870330
0.330403
0.556577
-0.221656
-0.357056
-0.544742
-0.440176
0.214456
-0.510060
0.071738
0.282083
-0.619613
0.002170
0.385105
0.755617
0.033650
-0.195315
0.879870
-0.448331
0.049391
-0.525751
0.232486
0.565305
-0.043827
0.047091
-0.204495
0.346895
-0.254692
0.639049
-0.529469
-0.258145
-0.194307
0.365362
-0.126893
0.103688
-0.244155
-0.943429
-0.154252
0.300459
-0.107083
-0.150342
0.061789
0.154224
0.043377
0.238104
0.581571
0.687139
0.282547
-0.589827
-0.124947
0.253944
-0.667504
0.073260
-0.300100
-0.088224
0.060747
0.323413
-0.542652
-0.082763
-0.341747
-0.859506
1.103437
0.103672
-0.351807
0.626707
0.262421
-0.051163
-0.207559
-0.737976
-0.367185
-0.473966
0.139407
-0.340422
-0.370644
0.676788
0.297680
-0.032453
0.130933
-0.069741
-0.084892
-0.254139
-0.553898
-0.434281
0.241009
0.549222
-0.006998
0.442724
0.164283
-0.373312
0.380624
-0.439090
-0.559162
-0.140621
0.225085
-0.241155
-0.450426
0.408329
-0.172945
0.100517
0.039561
-0.257490
-0.653816
0.548394
0.340433
-0.235077
0.232936
-0.227457
-0.253231
-0.639369
-0.333322
-0.025799
-0.507372
0.415520
0.306732
0.400696
-0.072339
0.901286
-0.007875
0.235644
-0.555586
-0.568043
-0.142607
0.969569
0.312752
-0.246138
-0.418031
-0.668415
0.124559
0.264149
-0.787935
0.183341
-0.468519
-0.462206
-0.592830
-0.138042
0.466114
-0.207807
-0.307744
0.229829
-0.366199
0.816456
-0.070187
0.351307
0.108514
-0.197546
0.212861
-0.095116
0.132814
-0.269130
-0.409564
-0.056881
-0.420980
0.033502
-0.336783
0.496883
0.079104
-0.152403
0.005259
0.371673
0.386324
-0.073806
-0.241153
-0.272884
-0.388527
0.359314
-0.131244
-0.143902
0.122945
0.566808
-0.488028
0.780410
0.297256
-0.442186
0.444143
0.239958
0.122653
-0.118330
0.704699
0.304184
-0.726617
-0.323802
-0.390303
0.523708
-0.659021
-0.710323
0.104336
0.093782
-0.724039
0.150492
-0.445637
0.398387
0.578380
0.166781
0.100899
-0.706455
0.380693
0.097937
-0.941068
-0.078674
-0.180249
0.268856
-0.085811
0.361899
-0.554050
0.046939
-1.169995
-0.083027
0.056353
-0.428242
0.569293
-0.517647
-0.396289
0.683959
0.552060
-0.371200
-0.209267
-0.087313
0.437359
-0.079802
0.110487
0.397992
-0.087450
0.366032
0.112455
-0.001432
0.353969
-0.692748
-0.281529
-0.246934
-0.271856
-0.009792
0.647431
0.159649
0.284241
0.397784
-0.680883
0.457935
1.135605
-0.116847
-0.093292
0.253241
0.946756
-0.270589
-0.250318
-0.483520
0.362508
0.196045
-0.407530
0.130312
1.525453
-0.441395
0.341495
-0.828932
0.634309
0.340836
0.178185
-0.426764
0.051476
-0.027685
-0.462451
0.348660
0.168919
0.012144
-0.120008
0.455810
-0.021783
0.327174
0.484403
0.272748
-0.254525
0.157732
0.850384
-0.273107
-0.736190
-0.605523
-0.786879
0.070438
0.478978
0.106803
0.430634
-0.068700
-0.266815
0.323829
0.163263
-0.551661
-0.412705
-0.250532
-0.316638
-0.036922
-0.597617
-0.253117
-0.093718
0.001964
-0.655147
0.440989
-0.424264
-0.912450
0.562097
-0.337686
0.237739
0.085821
0.647819
0.392513
-0.385160
-0.447852
0.075003
0.951265
-0.525329
0.097511
-0.016681
0.663363
0.362508
0.037961
-0.005049
-0.027320
0.214624
0.188260
-0.955032
-0.435367
0.391767
0.352007
-0.635978
-0.213088
-0.088572
-0.883244
-0.021425
-0.201142
-0.062055
-0.302766
-0.141764
-0.069648
-0.192936
-0.206297
-0.299776
0.729592
-0.096188
0.483437
-0.149298
-0.833692
-0.769846
0.264172
-0.153221
-0.393713
0.685031
-0.395260
-0.075144
0.624737
-0.120297
-0.058869
-0.299339
-0.002952
0.007964
0.217962
-0.194634
-0.039215
-0.270653
0.577783
-0.096452
0.068994
0.095144
-0.330812
0.282499
-0.133511
0.209705
-0.390889
-0.283402
0.528674
-0.405932
-0.606489
0.122132
0.035554
-0.156187
0.159293
0.495184
0.295923
0.116272
0.193896
-0.311683
-0.117847
0.528896
-0.094818
0.271645
0.218002
0.523350
-0.060722
-0.434621
0.099942
-0.361876
0.835116
-0.241325
0.552267
0.175890
0.130208
0.105462
0.151111
0.157313
-0.741033
0.101594
-0.706341
0.031079
0.164251
0.627643
-0.310954
-0.204841
-0.165578
0.120745
-0.058764
-0.577550
-0.658487
0.085559
0.142505
-0.301956
-0.077124
-0.087358
-0.311471
0.364231
-0.045077
0.541330
-0.426662
0.377691
-0.054077
0.680142
0.312041
0.659584
-0.461525
-0.592650
0.368494
-0.577165
0.610702
0.370736
0.292782
0.215805
-0.149474
0.186688
0.158683
-0.453213
0.523125
0.069428
-0.333968
-0.141425
0.100846
-0.252891
0.311427
0.111342
0.289393
0.027179
-0.136118
-0.115207
0.085235
-0.896786
0.070595
0.127196
-0.199166
-0.052476
-0.471247
-0.130277
-0.265455
0.096969
0.116920
0.497902
0.192435
-0.337503
0.384233
-0.054122
-0.066746
-0.052680
-0.338949
0.002670
0.065849
0.389546
-0.057860
-0.003157
0.348221
-0.192551
-0.342513
-0.405959
0.660777
-0.181745
0.097077
-0.028393
-0.281586
0.465515
-0.021090
-0.085982
-0.196558
0.024529
-0.551593
-0.235898
0.457183
0.192584
-0.290528
-0.311526
0.581146
-0.568203
-0.322020
0.015334
0.418539
0.199226
-0.632616
0.117156
0.047446
0.396691
-0.304968
0.371805
0.248689
0.224186
0.120000
0.201871
0.221936
-0.580074
-0.373731
0.494385
-0.175895
0.032764
0.383902
0.005555
-0.332321
-0.217055
0.055157
0.216646
0.164868
-0.069680
-0.454147
-0.060439
-0.534809
0.524929
0.059425
0.673848
0.366475
-0.257308
-0.299422
-0.041636
0.111905
0.260459
-0.207559
0.515405
0.392072
0.298493
0.360690
-0.325329
-0.206002
0.660880
-0.098645
-0.228594
-0.092156
-0.606700
0.049854
-0.068765
-0.774104
0.288718
-0.356355
0.176754
-0.154135
-0.078726
0.384359
-0.200671
-0.212964
-0.498409
0.228558
-0.057291
-0.110596
0.468130
-0.075324
-0.209042
0.433852
-0.229355
0.443064
0.216465
0.285396
0.411029
-0.133935
-0.338907
-0.035483
0.663455
-0.233281
-0.083846
-0.462687
0.310482
0.027418
0.012059
0.427191
-0.035267
-0.204276
-0.217095
-0.499475
-0.231627
-0.317387
0.309799
-0.054154
0.435312
-0.283829
-0.285539
-0.388734
-0.394334
-0.477140
-0.341184
-0.367985
0.264443
0.689933
0.041880
0.170324
-0.345841
-0.356606
-0.224853
0.648866
0.396510
0.061512
0.720433
0.572595
0.624422
0.168841
0.418495
-0.488338
-0.159997
-0.067504
-0.805665
-0.476146
0.160601
-0.354812
-0.065940
0.089277
0.591755
-0.428918
0.336572
0.124548
-0.159233
0.009950
-0.455279
-0.157656
-0.377202
-0.276449
0.287766
-0.127386
-0.283385
0.004946
-0.170466
0.118565
0.155327
-0.539438
-0.336663
0.372887
0.094293
-0.519695
-0.698643
0.103267
-0.172334
0.295984
0.190060
-0.192400
0.480256
-0.399745
1.004203
0.131265
0.176577
0.178612
0.019071
0.668615
0.161156
-0.589537
-0.935266
-0.177647
-0.573842
-0.119828
-0.243202
-0.607338
-0.009688
0.710294
0.355093
-0.461351
-0.785879
-0.146471
0.411739
-0.056904
-0.758139
0.417279
0.188478
0.030740
-0.316193
0.463607
-0.301517
-0.400081
-0.111461
-0.557403
0.350786
0.317933
0.112278
0.155853
-0.461436
-0.053971
-0.279452
-0.667497
0.154145
0.528203
0.527765
0.008599
-0.091662
0.543909
0.337524
-0.236246
-0.520420
-0.177986
-0.048875
-0.074301
-0.167814
-0.087394
0.917356
-0.121205
0.334882
-0.084067
-0.236622
0.392115
0.573449
-0.068456
0.309597
0.519203
0.543856
-0.231532
-0.206957
-0.325840
-0.015951
0.145842
0.609233
-0.518386
-0.246162
1.030489
-0.244476
0.019624
0.283125
-0.012036
0.547310
0.083507
0.015597
0.437747
-0.011869
-0.486456
-0.832645
-0.629362
0.254175
0.226234
0.227162
0.357843
-0.052276
-0.545741
-0.197886
0.281552
-0.176683
0.756371
0.396723
0.105000
1.000140
-0.130607
-0.261304
0.481646
-0.158812
-0.107547
0.223584
-0.242940
-0.429819
0.484956
-0.672004
0.018597
0.877084
0.833780
-0.338141
-0.049361
-0.200738
-0.299606
-0.177778
0.255024
-0.067880
-0.070861
-0.372300
-0.159373
0.168080
-0.680008
0.217677
0.146167
0.131460
-0.218646
-0.225680
0.048707
-0.201702
-0.234540
-0.721581
0.047073
-0.115970
-0.472353
-0.000225
0.019943
0.243897
-0.008012
-0.024091
0.916270
0.362812
-0.376093
0.046548
0.364924
-0.844792
0.270862
-0.288805
-0.648017
-0.779041
-1.215742
-0.274560
-0.932256
0.626480
-0.640636
0.287594
-0.427468
0.354412
-0.667388
0.374250
-0.748527
0.229040
-0.003103
-0.038062
0.172251
0.115941
0.210340
-0.175691
0.292026
0.183844
0.063144
-1.076257
-0.189471
0.149076
0.572973
0.035470
-0.073394
-0.183821
-0.434857
0.325763
-0.550738
0.159988
0.478102
-0.250087
-0.405945
0.054851
-0.448204
0.278256
0.566718
0.547951
-0.258349
-0.452173
-0.153194
-0.537300
-0.190251
0.236447
0.061834
-0.360497
-0.174678
0.330379
0.629121
0.181675
-0.188019
-0.605922
-0.161285
-0.150147
0.883970
0.159746
-0.105633
-0.029523
0.091508
0.317090
-0.019883
-0.008635
-0.000220
0.669293
0.640013
0.207259
-0.645062
0.308852
-0.079262
0.423288
0.412330
-0.236972
-0.712444
0.383134
-0.452252
0.438724
0.107139
-0.256516
0.329849
0.006496
0.597845
0.555389
-0.480625
-0.924390
-0.144420
0.799201
0.032235
-0.119149
0.164046
-0.443938
-0.149805
0.321291
-0.324256
-0.180655
0.442939
-0.401770
-0.739657
0.282077
1.125138
0.495539
0.348762
-0.109663
0.613502
0.202529
-0.303193
0.172331
0.520472
0.694782
0.046951
0.175848
-0.031560
0.267897
0.020007
-0.358349
-0.174707
0.590383
-0.155113
-0.586489
-0.120226
0.587907
-0.857884
-0.002281
0.465073
-0.387614
0.542956
-0.131655
-0.651759
-0.481118
-0.272173
-0.053509
-0.680110
0.188526
-0.100558
-0.515873
0.471405
0.616415
-0.604575
0.138689
-0.140822
-0.095434
-0.140680
0.691075
-0.219645
-0.659555
0.297375
0.124475
-0.531723
-0.366792
0.079617
-0.122049
-0.006040
-0.221020
0.112738
-0.843577
-0.508589
0.094261
-0.244584
-0.015842
-0.317264
0.115276
-0.555460
0.263570
0.219869
-0.489287
-0.260984
-0.540348
-0.135037
-0.188950
-0.429014
-0.218389
0.325918
-0.619688
-0.084758
-0.480240
0.184693
0.758540
-0.383445
-0.250518
-0.392568
0.118696
-0.460703
0.220584
-0.192563
0.188666
0.424142
-0.133561
0.190102
0.475273
0.232734
-0.388019
0.429748
0.244834
-0.155270
0.406365
0.712531
0.100166
-0.097969
-0.009050
0.170656
-0.196634
-0.184084
-0.500940
0.037113
0.389927
0.410302
0.319172
0.100925
0.382698
-0.212414
-0.570197
-0.003299
0.392772
0.478460
0.393637
-0.119039
-0.654650
0.287992
1.178460
-0.254591
0.203069
-0.785126
0.528935
-0.021905
-0.118806
-0.234658
0.300039
0.059237
-0.672859
-0.763987
0.289417
-0.140799
0.451611
-0.021629
0.604986
0.504096
0.286501
-0.069200
0.114051
-0.244012
0.090250
-0.102056
-0.928386
-0.524760
-0.399270
-0.229799
-0.045397
0.348417
-0.279924
-0.313120
0.226921
0.344936
-0.013251
-0.805287
-0.317349
0.571364
0.211952
0.039636
0.013854
-0.601926
-0.091454
-0.280582
-0.667730
-0.772192
-0.211618
0.152519
1.171072
0.037783
-0.258625
0.648653
0.243482
-0.718455
-0.611315
0.166955
0.086426
-0.081137
0.593053
0.350722
0.663499
0.224983
-0.064379
-0.086044
-0.133500
0.137578
0.433858
-0.239112
-0.411727
0.164963
-0.464813
0.246412
0.580378
-0.437522
-0.266683
1.068880
0.862585
0.787795
0.135831
-0.686828
-0.075928
-0.007358
-0.039253
-0.234071
0.005964
0.174611
-0.438462
-0.718401
-0.253568
-0.214980
0.667370
-0.412986
0.395880
-0.211996
0.034216
-0.492777
0.230402
-0.277722
0.485757
0.021004
0.331140
-0.340308
0.236507
0.337821
0.093084
0.607847
0.150652
0.299091
-0.231077
0.612403
-0.519468
0.548698
0.263199
0.391815
-0.275895
-0.702765
0.529048
-0.133509
-0.176814
0.584636
-0.637105
0.031474
-0.327022
0.175557
0.029144
-0.454883
-0.409190
0.436918
0.023689
0.274854
-0.081421
0.021756
-0.072186
-0.162187
-0.264585
-0.956741
0.168858
0.058054
-0.146987
-0.028102
-0.247650
0.083478
0.560220
-0.245365
-0.148957
-0.636381
-0.358941
0.494229
0.431837
-0.312817
0.393972
0.211447
-1.186931
-0.000496
-0.018056
0.042849
0.086032
-0.371072
0.172278
-0.264370
-0.462027
-0.495570
-0.767329
0.368330
0.001164
-0.009840
0.696397
-0.277328
-0.230190
-0.737681
0.864016
-0.108588
0.041262
0.063740
0.249278
-0.101435
0.389697
-0.516087
-0.450444
0.270072
-0.349603
-0.031985
0.617455
0.009713
-0.336184
0.048841
0.722858
-0.086111
-0.151354
0.139855
-0.124412
-0.116651
-0.695310
-0.747034
0.031178
0.424349
-0.046252
0.125283
-0.930329
-0.542416
0.082642
-0.311629
0.348921
1.087005
-0.355911
0.192920
0.724752
0.671931
0.240252
-0.551696
0.497062
0.094934
0.156244
-0.533652
1.270971
0.004608
-0.093757
-0.220426
0.422428
0.160036
0.117051
0.162265
-0.307730
0.399124
-0.300146
-0.271311
-0.075763
-0.142993
0.317785
0.650210
0.113295
0.982012
-0.210415
0.439553
-0.139978
-0.740403
-0.046374
-0.349258
0.034929
-0.087788
0.083764
0.507255
0.281576
-0.010365
0.204054
0.549024
0.388250
-0.230144
-0.153003
-0.207397
-0.529235
0.629015
-0.467707
0.365268
-0.889295
0.706211
0.202432
-0.173016
-0.205822
-0.395706
-0.073195
-0.541549
0.036336
0.154608
-0.563230
0.083298
0.091713
-0.121657
-0.049771
0.578054
-0.491757
-0.899110
-0.350643
0.006071
-0.400358
-0.105464
-0.488115
-0.354754
0.516200
-1.009772
-0.069661
0.049806
-0.284154
0.523562
0.605155
0.411788
0.503458
-0.211133
0.192183
-0.313485
0.530202
0.031380
-0.495663
-0.199740
0.103529
0.439284
0.141589
0.080835
-0.269071
0.326568
-0.108245
-0.810749
-0.079373
-0.262273
-0.621700
-0.184198
0.621342
0.085608
0.174244
-0.643504
-0.023515
0.052111
0.016906
-0.438133
0.609769
0.020345
-0.025292
-0.256642
0.027790
0.358229
0.262992
0.386565
0.620895
-0.205586
-0.133802
0.866252
-0.014866
0.312382
-0.315554
-0.063394
-0.192598
0.616532
-0.094850
0.208376
-0.038704
0.168763
0.155007
0.492469
-0.018152
0.634609
-0.275871
0.298809
0.083936
0.095861
-0.316175
0.407322
-0.384962
-0.413761
-0.207639
0.332848
-0.293881
0.158687
-0.140661
-0.334801
0.102190
-0.145268
-0.410733
-0.461530
-0.122132
0.125576
0.425753
-0.189721
0.311994
0.226055
0.236673
0.380300
-0.660932
-0.193878
-0.105056
0.060857
0.957137
-0.077795
-0.645426
0.137522
0.686826
0.436585
0.470747
0.644226
-0.151310
-0.710344
0.094069
-0.747706
0.468441
1.014283
0.804593
0.067567
0.461875
0.394754
0.478495
-0.389729
0.375860
0.087150
-0.305859
-0.123794
0.249377
0.301285
-0.304636
-0.251344
0.324611
-0.070609
-0.044425
0.530603
-0.462986
-0.237868
-0.050676
0.745862
-0.425750
0.213432
-0.011631
0.015881
0.503563
-0.302382
-0.091584
0.258555
0.227594
0.144811
0.083054
0.071045
0.338032
-0.442624
-0.507581
0.501550
-0.776689
0.498151
0.765098
0.386037
0.381841
-0.841134
0.083527
-0.235944
0.840538
-0.232664
-0.337678
-0.793086
0.553632
0.243929
0.333443
0.728833
-0.361672
-0.389918
-1.070357
-0.375214
-0.018057
0.192480
-0.165158
0.273242
-0.141594
0.290633
0.556883
-0.302449
-0.122713
-0.020396
-0.401618
-0.243800
-0.353636
0.031889
-0.872808
-0.522043
0.665165
0.094495
-0.102203
-0.196939
0.127622
-0.228796
0.257376
-0.283898
0.532387
-0.142019
-0.103525
0.110911
0.300287
-0.390396
-0.193877
-0.531814
0.273718
-0.150478
0.062490
-0.135423
0.599325
0.047284
0.290356
-0.598409
0.131427
1.001335
0.264260
-0.329254
-0.724941
-0.469848
-0.164684
-0.138643
-0.384735
0.119297
0.237742
-0.289118
0.312693
-0.397987
0.133888
-0.379873
0.872603
-0.375795
0.132370
-0.034211
0.775694
0.085679
-0.050131
-0.590599
-0.342352
-0.382726
-0.273582
-0.030636
0.469020
0.201870
-0.159179
0.315707
0.586619
-0.407130
-0.522662
0.132072
0.057696
-0.213771
0.649848
0.173201
-0.571459
0.639791
-0.063992
0.602576
-0.008998
-0.452881
0.065527
-0.174040
-0.061137
-0.705010
0.572500
0.477802
0.367288
0.713792
1.040375
0.084411
0.735786
1.043818
-0.499784
0.035901
0.148693
0.206157
0.211647
-0.104689
0.385913
0.269127
-0.103954
0.346638
-0.730294
-0.469784
-0.537014
0.822264
0.289578
0.358205
-0.507205
0.017715
-0.229124
-0.031144
0.271481
-0.204640
0.398787
0.261295
-0.156797
-0.148155
0.677352
0.569540
0.038240
0.037247
0.312996
0.522494
0.070535
-0.088669
0.013183
-0.205962
0.038754
0.205180
0.189259
0.022056
-0.058355
-0.238910
0.140561
0.007770
1.018856
0.921933
0.505603
-0.292887
-0.322762
-0.331577
0.110415
0.075197
0.843739
0.132972
-0.890974
-0.678646
0.280866
0.043194
-0.786110
-0.671813
-0.173292
0.034272
0.057720
-0.593064
-0.183914
0.066787
-0.257610
-0.028853
-0.250679
-0.142902
0.081161
-0.329167
0.136967
-0.307858
0.559161
0.056075
0.094081
-0.051418
-0.117021
-0.335732
-0.143883
-0.059535
-0.607623
-0.468667
0.357675
0.153400
-0.291283
-0.114524
0.129941
0.149651
-0.504268
0.318436
-0.401730
-0.705652
-0.617709
-0.323021
-0.560828
-0.559066
0.743639
-0.291154
-0.474673
-0.166868
-0.467993
-0.152423
0.137385
0.814788
0.414118
-0.040666
0.421800
-0.162036
-0.263392
0.402291
0.288180
-0.419041
-0.259429
-0.789946
0.167738
-0.052659
-0.397897
-0.409123
0.199528
-0.451511
-0.702419
-0.046900
-0.286161
0.141429
0.261080
0.434758
0.261430
0.195623
-0.607890
0.037801
-0.155596
-0.706879
0.094652
0.523516
-0.231920
0.026555
-0.016590
-0.671017
0.460828
0.439213
-0.262580
-0.090669
-0.057040
0.404451
0.129394
-0.734343
-0.388803
0.095787
-0.904602
0.367981
-0.376599
0.002656
-0.374455
0.662643
0.288536
-0.209358
-1.013479
0.087965
-0.242032
-0.605728
0.752294
-0.182475
-0.080070
-0.410714
0.318575
-0.808552
-0.145673
-0.055289
0.341166
-0.135926
0.075584
0.490520
0.515875
0.007535
0.594781
0.011578
-0.426303
-0.013461
0.370317
-0.946599
-0.407320
-0.112328
0.200926
0.462776
-0.135135
-0.373322
0.416836
-0.127664
-0.583520
0.136841
-0.666685
-0.568465
0.687135
0.456932
0.270521
-0.417067
-0.205848
0.221190
-0.112526
0.409159
0.428823
0.354448
0.703326
0.287170
-0.084615
-0.065619
-0.118078
-0.063787
0.460565
0.014763
0.043442
-0.403457
0.464634
0.280904
-0.358309
-0.383077
-0.405436
0.609810
-0.289700
0.384648
-0.337911
-0.756357
1.182907
-0.139532
-0.019913
0.205001
0.727585
0.505328
-0.526073
0.446585
0.176756
-0.192633
0.406620
-0.838438
-0.437421
0.344723
-0.221652
-0.344016
0.256623
-0.159701
0.308368
0.562608
-0.949265
-0.189253
0.244649
0.501879
-0.635829
-0.244926
-0.257185
0.341302
-0.707126
0.525438
0.026744
-0.227544
-0.276417
-0.702275
0.100031
-0.134145
-0.317178
-0.769330
-0.738556
-0.553951
-0.097719
0.186958
-0.211009
-0.262315
-0.301428
0.017451
0.257590
0.027069
-0.403527
-0.676791
-0.450033
-0.512904
-0.546346
-0.018720
0.506986
0.200709
0.003940
0.276101
0.900554
0.429082
-0.380925
-0.355515
0.389004
-0.032492
-0.464644
-0.573257
0.188922
0.575752
0.036265
0.166879
-0.714568
0.335128
0.697521
-0.781840
-0.013515
-0.711420
-0.255846
0.233697
0.141086
-0.311981
-0.348853
-0.121934
-0.359675
0.239563
0.349529
0.335566
-0.297661
0.616459
0.207063
-0.493431
0.502931
-0.272790
-0.111865
0.223400
-0.981271
0.192146
-0.219814
0.443428
-0.073231
0.117020
-0.296607
-0.675006
-0.348884
-0.157279
0.254369
0.429790
0.640408
0.183836
0.297014
-0.517366
-0.246840
0.122117
0.164823
0.095294
0.068842
0.035419
-0.114399
0.188200
-0.317229
0.331572
-0.244383
0.653320
0.061001
-0.624544
0.022526
0.022006
0.176816
-0.566941
-0.291997
0.132253
-0.057229
0.097868
0.296396
-0.301375
-0.287196
0.576304
-0.083076
0.433354
-0.135530
-0.446532
0.293273
0.983346
-0.572897
-0.075943
0.348976
-0.768344
0.849596
-0.081349
0.035891
0.259997
0.799864
-0.561506
0.019951
0.131828
-0.006736
0.556241
-0.492223
0.208947
-0.032408
-0.250943
-0.620207
0.191969
0.510778
-0.232885
-0.233065
0.940766
0.292409
0.279288
0.580130
0.607914
0.118288
0.387420
0.613747
-0.473818
-0.471061
0.388031
-0.081249
0.128845
-0.065561
0.182537
0.203582
0.365890
0.279387
0.329747
-0.104698
-0.590353
-0.860598
-0.046953
-0.242112
-0.141890
0.056347
0.521552
-0.793582
-0.660403
0.410039
0.044790
1.083315
-0.218673
-0.185912
-0.153013
0.309309
0.169294
-0.855196
-0.264965
-0.444810
0.557982
0.065335
0.184608
-0.157618
0.026318
-0.269332
1.055434
-0.066684
0.452667
-0.126873
-0.708760
0.281523
0.377736
0.036630
0.217147
-0.075340
-0.395652
-0.498091
-0.753470
0.367659
0.418731
-0.006779
-0.319905
0.620943
0.247714
0.746178
0.483975
0.523969
-0.177687
0.149687
-0.621820
0.022329
-0.142178
-0.280084
-0.112583
-0.575374
-0.016770
-0.095646
-0.832235
0.139372
-0.480658
-0.291515
-0.619703
0.008780
0.407832
0.602740
-0.244584
0.463590
-0.549963
-0.008915
-0.306605
-0.127924
-0.429335
0.562612
0.369990
0.087046
-0.466539
0.221184
-0.527111
-1.163899
0.711980
-0.243049
0.299856
0.676836
-0.552333
0.013125
0.678310
0.038904
0.347129
0.210415
0.200457
-0.437892
0.326638
-0.395954
-0.024102
-0.197091
0.872802
-0.680891
-0.100784
0.109150
0.250552
0.005259
-0.033634
-0.202794
0.476512
0.238128
0.511946
-0.715881
0.040057
-0.380196
-0.149638
-0.211583
0.202355
-0.016499
-0.676734
-0.303094
0.240842
0.214391
-0.185062
-0.791749
0.201404
-0.734273
-0.330828
0.278306
-0.386423
-0.114527
0.537157
-0.027185
-0.001427
-0.023421
-0.547805
-0.460421
1.054505
-0.109444
-0.356254
0.032635
0.631840
0.192418
-0.319829
-0.094672
-0.195687
0.054154
0.678569
0.674165
-0.312201
-0.054960
0.060198
0.238166
0.479154
0.725709
-0.625429
-0.316158
0.102328
-0.280445
0.284271
-0.489639
-0.257560
-0.294425
-0.256084
0.098683
0.310160
0.193772
-0.289100
1.295513
0.095211
-0.031109
-0.602406
-0.093959
0.323006
-0.074460
0.388659
0.177590
0.400572
0.507391
0.189576
-0.614422
-0.017379
-1.120099
-0.202440
0.323527
0.614391
-0.755149
-0.343298
-0.379883
0.927738
-0.589038
-0.555824
-0.175770
0.275659
-0.414970
-0.064425
-0.114124
-0.057973
-0.236781
-0.291448
-0.036841
-0.041463
0.006111
-0.201922
-0.593972
0.257508
0.746849
-0.110155
-0.598058
-0.193080
0.198072
-0.135583
-0.140647
-0.010766
-0.135124
-0.077458
1.593663
-0.218141
0.419270
0.312926
0.170085
0.249709
-0.392621
0.354148
-0.091934
0.829999
0.218933
-0.620356
-0.126089
0.605586
-0.310805
0.014260
-0.778898
-0.173774
-0.476824
0.740489
0.294311
-0.151181
-0.290412
0.319913
0.058011
-0.425731
0.438054
0.405778
-0.677314
-0.247812
-0.051443
-0.025364
-0.196504
-0.307781
-0.261145
0.096025
0.255169
-0.308078
-0.097657
0.311227
0.045958
0.274558
0.235667
0.230825
0.352076
-0.399662
-0.136085
0.206928
-0.534184
-0.912965
0.433369
0.046466
0.003196
0.283786
0.112382
-0.225211
-0.151191
0.176853
-0.376501
-0.304601
-0.273696
-0.135862
-0.144647
-0.517758
0.067701
0.145673
0.138262
0.662570
0.127848
-0.230039
0.072236
0.391218
0.068938
-0.248328
0.039415
-0.281484
-0.603114
-0.189964
0.361415
0.386941
0.232801
0.013094
-0.148282
-0.319142
-0.439691
0.352009
-0.258429
-0.270792
-0.238621
0.043733
0.173706
0.414850
-0.037532
1.017412
0.400143
-0.504252
-0.584780
-0.407204
-0.249537
0.177962
-0.511462
0.216974
0.041773
-0.368793
-0.380305
0.859580
0.674497
-0.453100
0.661240
-0.345750
0.011314
0.260895
0.013886
-0.113746
-0.840419
-0.041659
0.039965
0.455270
1.074516
0.399900
0.801656
-0.831737
0.077189
0.261044
-0.424067
-0.519918
0.081742
-0.009812
0.151659
-0.388998
0.101216
0.629843
-0.492704
0.587277
-0.018548
-0.386248
-0.472665
-1.015264
-0.113689
-0.484121
0.795054
-0.011996
-0.377569
0.156004
0.293282
0.113433
0.071740
-0.179877
-0.039329
-0.100221
-0.940489
-0.651802
1.052393
-0.004709
0.005555
0.394489
-0.411800
-0.075218
-0.472242
0.287643
-0.421884
0.588646
0.171605
-0.258927
-0.102847
0.694639
0.232312
0.042815
0.866552
0.587831
-0.376414
-0.344925
0.298278
-0.228606
0.047673
-0.928356
0.176222
1.313581
0.327847
-0.274114
0.083820
-0.013274
0.049525
-0.204934
0.619294
-0.590992
0.101224
0.163964
-0.412540
-0.086407
-0.278523
-0.398121
-0.148448
0.074156
0.339700
0.958577
0.590131
0.204741
-0.220970
0.009993
-0.150980
0.129783
-0.394076
0.090628
0.699058
0.311173
-0.093454
0.185775
-0.096966
0.522269
0.490256
0.013205
-0.107502
0.184991
0.122779
0.079784
0.057643
-0.205222
0.201859
0.350300
-0.166330
0.698021
-0.145160
0.190397
-0.190375
-0.626747
0.454166
0.923032
0.915215
-0.794958
-0.409103
-0.264973
-0.081963
0.402617
0.269549
-0.278020
-0.076512
0.171438
0.238447
0.388157
0.014559
-0.094820
0.654070
-0.618841
-0.130896
0.644903
-0.227001
0.040175
-0.290065
0.260643
-0.455496
-0.099284
-1.798667
-0.090203
0.314036
-0.135825
0.001269
-0.425651
0.472283
-0.006502
0.044826
-0.304898
-0.679375
0.126725
-0.005807
-0.099346
1.239602
0.013276
-0.749879
-0.172653
0.336491
-0.048422
-0.410185
0.236187
-0.140140
0.009124
-0.609805
0.407332
0.195124
1.110586
-0.572949
0.585789
0.990681
-0.937355
-0.740278
0.090172
0.010449
-0.204572
0.504612
0.435604
-0.508675
0.948528
1.430048
-0.693684
-0.338971
1.289277
-0.635306
0.579593
-0.462636
1.437408
-1.094112
-1.012142
-3.188292
1.644799
-0.553879
-0.564302
-0.199803
0.777984
-0.907974
-0.605410
-0.524495
-2.085750
-0.131625
0.751500
0.659302
0.386051
2.530061
-0.715684
-2.540895
-0.281817
-0.368528
-0.200875
0.927877
0.418725
-0.113753
0.604184
0.270378
-0.155144
-0.404810
2.684325
-0.189078
0.406570
2.653324
-0.993231
-1.923857
1.563633
-1.843122
1.071251
-0.606013
0.480898
